weights_pso
0.029016721062588523
-0.12328752954029408
-0.150956906431342
-0.5434510728047424
0.33057981932361596
-0.5394060254614942
0.058277977977802445
-0.13975446098130911
-0.004598424934427231
-0.29960718603918113
0.024648135099412837
0.2321505016697443
-0.16951072302430453
-0.1145563585760556
-0.3736023471546171
-0.19030563700874575
-0.0003835687854806625
-0.19924606815144968
0.3877429985159667
-0.478644244837571
-0.27965631844912864
0.16933418625982286
-0.00942542650917336
0.21183257050191884
0.18837054578028278
-0.11075000707708219
-0.15509273348538233
0.3528380199051416
0.29736356756306526
0.07915930135999699
-0.2174587829550329
-0.2376634580921201
-0.18767019923701395
0.13982450293827847
0.18746253490161796
0.3830620888832683
-0.07284600361757239
-0.04444254504999335
0.08961429067878524
-0.1093148776190946
-0.157286948630512
-0.08008262434374067
0.027924445999805373
0.4256885139357267
0.022097810791801682
0.25893852613033563
-0.4381212596404313
0.10582426749784792
0.12325078601836441
0.04465398434761076
0.19335091787730382
-0.029966987551680865
0.18570805539429244
0.1376358328811424
-0.009598321751023885
-0.14997100279373543
-0.4041055213325405
0.20951273538289783
-0.01441571721388381
0.11789093979629892
-0.29340286174284097
0.14300575642376015
-0.12171415930479805
-0.5090022862485465
-0.14294341945978498
0.2178274592137632
0.5005066967968663
0.2063664541509307
0.40380333203671986
0.0619173485320782
0.2580274953540048
-0.24868950268734882
-0.38224121164852914
0.2790835499998893
0.022141231964345465
0.24526932795658246
-0.27203111987670514
0.073506932770394
0.45559415717170265
-0.09273694389509564
0.5379627475662023
-0.2713668299345352
0.1670640914514241
0.34908045081163674
-0.12058947469717785
0.4110564641396804
0.05694712749641558
0.16782713819930664
-0.11808267581095672
-0.19113063174177303
0.05359688701248385
-0.34817695771120155
0.2653904989853528
0.04167593752416653
0.15484271160805924
0.20159307706099133
-0.009623838497939002
-0.07460383191896756
-0.03153579674028545
0.04055970148843625
-0.22812333317008854
-0.24647748155351068
-0.11376720174597141
-0.28397195583431184
-0.28699662003346427
-0.5140150891705837
-0.5236386486653393
0.23145105323145612
0.27405412210123914
-0.23601732784349244
-0.4080576455006628
0.009843216357935147
-0.43534667568185986
0.21637961374404407
0.34609345085314613
-0.22871833118381113
-0.2805526411357191
-0.14073180848931854
-0.050113187779714075
0.14637066448634334
-0.37609574779083105
-0.14315488120843836
0.584184608981363
0.1575654664140235
0.10537627438625405
-0.23958933978884991
0.14440537218534488
-0.13249442071031775
0.28534507617867394
0.1610984807337377
0.04761946454160075
-0.29679614013689826
0.13360940800401314
0.11036791798818421
-0.35061189064928433
0.22998591822006154
-0.08075404787349279
-0.041341231593509775
-0.21705525819385976
-0.34393690943568617
0.2625053032337339
-0.2786051671406665
0.2302577528229337
0.068770725198065
-0.16828334301036998
0.28421301837746543
0.027458687360756854
-0.08407582693479258
-0.11012910354439118
0.09079229345271107
0.04862212260723882
0.05126596912452325
0.2285083309094853
-0.35516596165184366
0.21247560336069
-0.07304412609974364
0.02921164514300876
0.0771016629135051
-0.20761261686417046
0.3278035494424602
0.28521854843474775
0.33085256598385193
0.29722333229860387
-0.11139055782966781
0.06529722667466503
-0.24029249990403612
0.3046537507810882
-0.020477745868989577
-0.20470443618396914
-0.039027776551809314
0.03607876303160156
-0.029170178626448204
0.28114205090851474
0.015445136147648116
0.05945435204111494
-0.1164499746124253
-0.5041014686765921
-0.25566279866689473
-0.5100344617300172
0.1298137497056875
-0.1583958923614683
-0.01697510798808076
-0.054024878797268465
-0.07916803803790469
-0.3472281892935681
-0.7843318721114582
0.13115911584888928
0.46813045524969216
-0.2629553310431252
-0.21333145300957995
-0.1136742560362307
0.49337033608747427
0.0582898010568518
-0.1673015587181531
-0.2218792501194746
0.11313392171375267
-0.0031543811422524793
0.11894686083114009
-0.3958054695959669
-0.19897991230836676
0.2307149080390728
-0.2640835801569588
-0.16992402709053145
0.000907451744187556
-0.07720443385400444
0.22517801289442863
0.2780417708538418
-0.2865845115890209
-0.19651057714499962
-0.365743344347088
-0.19349866524823636
-0.18477261195322353
-0.13864504671459355
-0.19386275743294584
0.1278446166507492
-0.18633458037005657
0.05300212819610762
-0.20630885962793805
0.14820426139520557
0.36131898796752954
-0.019613087107662793
0.12464067924048607
0.28555077309401794
0.24146645532260194
-0.28271392063206746
-0.3354122442983635
-0.16657850109698133
-0.38906472830634337
0.7085226606621892
0.24530641744701567
0.10034972422118614
0.02895947433075442
-0.1405448511462289
0.11995912888274338
-0.043326209105255205
0.1812887220874144
0.4662868362603698
-0.28062892217580493
-0.031906896259734925
-0.2987107645859273
-0.04058167091605142
0.15033401844636607
-0.665603874855078
0.1946510282512608
-0.08246797437904671
-0.24079162808712906
-0.6731364216063542
-0.26908882226851066
0.13837722244707476
-0.10560946029580613
-0.1948822251716303
-0.25492995102976923
0.08590844905403633
0.048608163553445126
0.41194998961747487
-0.045751149868904994
-0.2991475406698394
-0.018082823697855
0.08620815453057164
-0.5012268832187333
0.09662477640643868
-0.027119716448544495
0.08065764679013493
0.4635084456569678
0.10523855210914365
0.12524602632527546
-0.1337096850782014
0.16976792888234274
0.16583366399201832
0.27677385772932384
0.3506786930268023
0.2602364745979729
-0.5506447922182485
0.45363345399550903
-0.2866433782050453
-0.028169163978036524
0.6000989854630396
0.4192392220104157
-0.039673883743490866
0.40467282657039566
-0.02260443469269033
-0.16271259762442333
-0.34862047471349356
-0.4760666689025549
-0.26008756155650326
-0.23373301761286283
-0.3212452285160649
-0.4963016887264962
0.1483711172927326
-0.305516963347181
-0.22088206579218492
0.3149302841430534
-0.15704053763121534
0.15760182006236553
0.19063711606701814
0.006729581983651864
0.24492558035203973
-0.4970609655903514
0.12379448125396608
0.020148793352853148
-0.1540291059256437
0.09193771499679407
0.24470790998827902
0.5894383464582305
0.2788155845602743
-0.13478291242193008
-0.021923635360194427
0.2565356013552303
-0.10486403793295797
0.06216927181565525
0.04332263752647822
0.26889898574809457
0.26902492605270806
0.026277634517606185
0.2006769420013737
0.0565640031652136
-0.019186498617625794
0.3439577285687553
-0.5423140393874684
0.07077977021432873
0.3009941133100789
0.01887475133780496
0.24370767650311156
-0.08496731943727205
-0.5093747764522389
0.16023145081402815
0.330306237163483
0.26056376565868117
0.4626110045864509
-0.004193606902394396
0.22648387221751265
-0.04601709897761481
-0.336090669133686
0.25781210191066634
-0.21737885043598465
0.0832445722855579
0.2755761594536859
-0.14416886577317575
0.0756077535150026
0.2235311597855571
-0.2573485228024829
-0.23956664269995062
0.22272936851481176
-0.01322983920737765
-0.08961442420239492
-0.10863270854070149
0.05589399701117237
0.09090583131435451
0.0003243368658384614
0.4786685962809436
0.1313047718674864
-0.17535896897208583
-0.1590976735795358
0.026864539574187468
-0.5278311505447594
0.21855383455680355
-0.282038688668402
0.4562866763477549
-0.22473548151716988
-0.13407637665449024
-0.22123787917356866
-0.40476460586145613
0.16029928606464391
-0.11618976981658234
-0.2402881030998225
-0.13417596409237437
0.06432410381185016
0.12256406943290175
0.051372254081162735
-0.1443093393803352
-0.09927965191850367
0.16657457918384438
-0.19024843918908996
-0.10547658894790192
0.31434053472571916
-0.11288211979999058
0.13987838861380084
0.0008940494715836598
0.2584731599813626
-0.03048395433967635
-0.23307910415259367
0.7551738061981217
0.12474445739278503
-0.24095347760806812
-0.2563850790903946
-0.17734853267905024
-0.097684803104156
0.2539978513101895
0.05036920935093614
-0.09799001350227508
0.40830896293516405
-0.4275419869304476
0.024960675343171524
-0.13542770498458295
0.30714557124622344
-0.20498462212104737
-0.24923026733887887
-0.17067434329429945
0.1016183514418294
0.07218102639238382
-0.03367886322541701
0.39428523858677966
0.06808387468641501
0.03110272435190991
-0.019934877942044765
-0.16411016755655014
-0.29520357205945813
-0.09956837435936274
-0.08373705084063147
-0.18215171574509523
-0.06425753747452377
0.05525232356562935
0.08491724274246468
0.4079056135315491
-0.2080059859055547
-0.018283118836502896
-0.24908890780754475
-0.3570646548789768
0.07881433720492653
-0.5963613733097103
0.20839173392768937
-0.19957090374580472
-0.3138142095582258
0.1565286576537983
-0.4537189387586695
0.6592424320118639
0.06175363932275067
-0.1935455307624195
0.08863063920519941
-0.07549968308078588
-0.3425482947153261
-0.102136816617514
-0.112042179626232
-0.28712728375101493
0.5291849848937261
0.014528648005944885
0.5207348178020892
-0.06781261781419694
0.018783026284091633
0.09892765947872664
-0.16418574353398682
0.015033479412600767
0.3088163850038506
0.061453647678273673
-0.26269980490930983
-0.04288008747670537
0.36075159293533393
-0.2913599004405388
-0.39012556825579214
-0.1219053088206775
-0.003922778737930721
0.25028165862820106
0.15773782364262978
-0.5288892074353017
0.06776577363052544
-0.04813256500838392
0.016219826228611515
0.2397667805892541
0.17790328315582013
-0.039290776957298414
0.02696786326981396
-0.3669829012289772
-0.1361661415584032
0.03008051202896524
-0.13936594097188368
0.2100994157221046
-0.05980895073873362
0.24474368560486445
0.34848770271258567
-0.2301368232089917
-0.1349352804461439
-0.40790763877016084
-0.02201609691737257
0.36033520451130274
0.2152358449390261
-0.47803378718964945
0.21171048732248413
-0.02321558454006221
-0.008429887110367148
-0.15045162876505408
0.2245845890799446
0.10270035560740054
0.1660240725006018
-0.05957402373243384
-0.06925171347789036
-0.06947132090794929
0.10249891554707972
-0.32152171035603233
0.14736956583676922
-0.03647875281465278
0.0009720798068683802
0.4249900992511891
-0.08110968706166646
0.539560458536068
0.02177685023571707
-0.019316404306525595
-0.22930285839125353
0.04427569977536283
-0.07269629946888632
0.408157814089323
-0.26644610614121944
0.22370090623363906
0.05971490827646128
0.08126699950367318
0.012025386647015837
-0.11530476568460782
0.20213031368824472
0.03387777770388983
-0.12507097332344883
-0.024545287662203426
-0.16967413399548797
0.2792399012427277
-0.09875775650839087
-0.3019354795357184
-0.04876993781591661
-0.03892598233733459
-0.11780189029277671
0.026547045964975976
0.09594412921234885
-0.024937093376150982
-0.4646875037607629
0.26844311501467233
-0.0510418747907667
0.12370445117188908
0.1235174749886316
-0.680309584611771
-0.0010424887529572532
0.5002249681253075
-0.17476341935188386
0.44398576574960325
-0.4628794029243218
0.36488778197717275
0.460058961293475
-0.3115745055884505
-0.16134939879839977
0.3704634838646229
-0.14963929714849997
0.05293840980429561
-0.10508313995355957
0.18066969388844611
0.12345254628217216
0.2171713088267969
0.03134863276119348
-0.2516690816244498
-0.074672945372982
0.21777484912012146
-0.02519864749050459
-0.18855937416420077
0.9144535357429064
-0.09126436972961963
0.2182797158912741
0.29398845379843436
-0.20190984288970243
0.005838279606614
-0.13546915612285043
-0.40982318479603097
0.21351050966548293
-0.016062255736296417
-0.17528899094479156
0.17050389018469764
0.11476982759131492
0.16140179343596694
0.04066040964868569
0.037775845419644336
-0.051975639040408035
0.13824269529559266
0.20987070770743418
-0.07761149095146262
0.38471340915283625
0.012517623616085624
-0.0853225451469703
0.19762344810139493
0.2946769824037664
-0.3889833891473252
0.29734108779429397
0.0064759999379039365
0.18012244513946765
-0.02575566408470852
0.0002883051827824972
-0.08681632777876629
-0.08572149551883902
0.04439712239307162
0.11661698915221677
-0.1797872907269105
0.4939881395240578
0.4456770945170166
0.312888881236045
0.30033956604475515
0.1381708285295217
-0.010575777846099615
0.051468920650002074
0.3796208011304694
-0.040111925675800776
0.18494726291312025
0.16989584319783144
0.21666275323860446
0.11760712560688596
0.13148942287909457
0.3281719845636562
0.05694168970234199
0.07561466988954967
-0.21627358170385377
-0.28351264422331585
-0.4406685669025329
-0.14142989523456112
0.04663567858667738
0.031465142673988034
0.3680529113641314
0.10771074972526393
-0.1221361586397553
0.16996138434876804
-0.011428283213659754
-0.029212859082981872
-0.5288671245721209
0.1862930287373997
0.01054944340952374
-0.05003962723410859
-0.07459785666820323
-0.08993893495949473
0.09370422972381577
-0.25627646676290133
0.22879064368039123
0.14367080429762213
0.011826374249434382
0.1422434384699681
0.18346070379632964
0.38200586982677215
0.31261847134814214
0.3085664222008321
0.21776168822318573
-0.1687512963899273
-0.262838459617697
0.1595675046797631
0.003721487289268625
-0.06192834326948577
-0.030109997193729057
-0.07065522556170202
-0.3287116499208354
0.24688637788186657
0.06366659210401744
-0.25492850010387474
0.0022522155306633927
-0.12982060356286104
0.3441017864814886
0.2887823039988296
-0.22227079773181538
-0.12870935109371345
0.06352321877805463
-0.3381169607314876
-0.49381868251726907
-0.270310476882006
-0.2848946569262212
-0.3933068194425966
-0.5001329635681432
-0.3093045864778277
0.07809864560829806
0.12702396274704292
-0.07242080174683778
-0.08557359221767002
-0.08929635637985345
-0.011765766851605582
-0.25129464371841365
-0.18874310051674445
0.06314166659404014
-0.061384219385857454
0.1865890151178447
0.13413530970926624
-0.2181856939951765
-0.16305777849970846
-0.4080256597659141
-0.2818166599389669
-0.013859503209592974
-0.19635857353980668
-0.5010562588778349
-0.4382304388670503
0.22671335428005931
0.14265223538168492
0.6145189651287923
-0.11157465074089512
0.3233558091739452
-0.19468205881802686
0.26919762360493366
-0.3295386610060412
0.24808255741709148
0.033904045533408096
0.15996002981871027
-0.31616463118483495
-0.029295692119903308
-0.09612344823657473
0.05135464522355544
-0.37021488343995396
-0.12768761128253148
0.09584601302308952
-0.2673071731881481
0.016072996285420832
-0.33297560413694227
-0.39715407439738815
-0.22502909478977715
0.18192846552112357
0.2230930866783688
-0.05851005708066723
0.002874863030553054
-0.4204621044109036
-0.08892960901595184
0.012215011724338063
0.07479421858743307
0.21410690784977662
0.034929939146444114
-0.2111997935647684
0.3119698907238159
0.18769779216146634
-0.014871297769129231
0.17713384717786235
-0.25119814795584294
0.4838659758470915
-0.2173611079173564
-0.17911590817883769
0.1737299663637354
-0.26395823911207583
0.45563328002617876
-0.09944629709097583
-0.06882382979868655
0.1466945032412889
0.29955193329432794
0.07744839493457148
0.10737108424328948
0.1239601902604322
0.3044953422546382
-0.27607846734882635
0.041650010434962255
0.24432213310832954
-0.19468604889479746
-0.07929088247892517
0.04351778038996894
0.11099704687693739
0.2795287825927134
-0.13555009434627746
-0.040521620486760355
-0.03122308274129269
-0.06526511877103523
-0.18353778321012473
-0.1803810763696687
0.06738077508582155
-0.008939619878982508
-0.13250209833975915
0.20295435258996314
-0.5055253912147054
0.19838773853190644
0.3302605103367379
-0.08874906742879929
-0.19040128914571627
0.20743740835653618
0.016683532441910422
0.3525233429753798
0.3545302475877999
-0.14530156276001444
-0.054710877776207784
-0.1384467453545121
0.25223218548230053
-0.2574277579586239
0.41120483773042277
-0.2703378845822071
0.08149094225484318
-0.105932103001167
-0.20653626277617515
-0.2954793144898985
-0.3691844459980836
0.587368365737071
0.559957501099109
0.07491598726332827
0.030429113941727124
-0.0677245684086349
0.036090003839759154
-0.24340776065208164
0.09315176365323946
-0.22680212387429874
-0.13319680119877944
0.6975580038447153
0.17544477281155643
-0.10726474006052594
-0.42078892310781896
0.22103883740360053
-0.15275622587748075
-0.0894010264212665
0.1002231769723935
-0.008475399541553939
-0.5539681232926218
-0.3676499888584908
0.3272237422626037
-0.36169098597346055
0.2776157812932687
-0.11318755231903764
0.04130841836286009
0.29062987838669657
-0.2649622123471113
0.04138921695800997
-0.07576477686816305
0.5607355441418708
-0.10940898201242219
0.23391464284035127
-0.16220836031505315
0.24915893816993437
-0.10480139541188407
0.04838053435928441
0.4272188669735971
0.3085514788916388
-0.13300401480720367
-0.24715729448791143
0.17294373910384292
0.009300821976894297
0.18348408840377156
-0.05747114396899488
0.18035511131321297
-0.14297637775745298
-0.08740668667538196
-0.37804280813870395
0.2155121226356322
0.052765236421614306
-0.3620758162018159
0.2618103245722867
0.05208616019307778
0.3421638740392772
0.13090549849548574
-0.05165088638433077
-0.06173196384184946
-0.06192169661829301
-0.24249026152759973
0.057177795414086394
0.09192965785060513
-0.055946373798919785
0.04362126648122534
0.36933477069191156
0.15953282131632948
0.16133490380899193
-0.16131264326316525
0.12831006124779687
-0.3595179283892284
0.374748978639743
-0.25312635704627573
0.39786698799412634
-0.3008219680845571
0.2822867299636434
0.371703269834777
0.1509638091297287
-0.0036596790755959686
0.13541715771777502
0.07898994915512234
0.3270389535524788
-0.10179648268698246
-0.09181957868647087
-0.20552761332772787
-0.6023959562272391
-0.22873659493537743
-0.3430174649460014
0.0030392963250228094
0.22456052838927362
0.03846454739575963
-0.150172142513231
0.39349861400363534
-0.17162135949848767
-0.4477749806664001
0.20180292391666071
-0.2750229821381532
0.6140854895420792
-0.13107638024264878
-0.03479101530153997
-0.20440910230584322
-0.10066151004627424
0.14730700719734713
0.32704770107173153
-0.3170579620770389
-0.050289677592043655
-0.1516227377918648
-0.1391523791685499
-0.7023628789011447
-0.05250866134553571
-0.1701659053924818
-0.1763436365725235
0.22271402567898047
-0.06103255606035308
-0.398718356950916
0.0647252357183755
-0.32442183258403867
0.1875029867192104
0.19842342001011729
0.2115004991399207
-0.025958905864599854
-0.338267467956729
0.16338883926267453
0.0007120254516385667
0.31777336558370933
0.4735103622417619
-0.1868806728569036
0.27424161258117236
0.05061124617045
0.7264396919762743
-0.2698185452898356
0.062375190776117855
-0.08541765473666742
-0.03781210250472857
0.09496301309775547
0.6434453271735974
-0.19357437816427742
0.412055805704431
-0.11797749023985706
-0.19790842079831775
-0.26279236153994057
-0.16455028875193087
-0.1519626517351708
0.2393328235271361
0.22374817641786335
-0.3345654235862879
-0.22225828843601642
0.15025446222105515
-0.00020355690843491185
-0.3247080583404635
0.4463895595474344
0.11820024002271765
0.0563765544326984
0.44991331738722884
0.18678523375444966
0.2773084893166497
0.33758616165908084
-0.11057615320066592
0.03578788299593945
0.5805015607121555
-0.3516583805612056
0.2330200276723065
0.15181273460198735
0.34164012389396586
-0.09886108249512238
-0.14445507889647277
0.24604181933992836
0.15092633455337995
0.15532496620832698
0.10345047109809317
0.246126380551812
-0.028146927444644598
-0.28547471000275665
-0.13926711306996287
-0.2341005857812525
-0.19292529280657542
0.2291723117204646
0.24551025891086536
0.1710270606087113
0.4010884591250739
-0.28493217778010094
-0.024171133758763768
-0.23453865903295368
-0.14878950667463484
-0.0935465392535239
-0.2080178047871125
0.3057133931215197
0.42245083467018824
-0.010704473678977163
-0.08299240815214949
-0.0381455699890581
-0.018779670041382198
0.40455470632855683
0.21742284171537785
-0.17476787273042851
-0.17981499376418197
0.20057616310130835
-0.304027355985383
0.3421601967826508
0.15014740917813943
-0.27784453381793195
0.11695978177815353
0.044953607702153314
-0.27111667770919706
0.06492220369083276
0.3101379205101599
0.17239176282148022
0.5928594070645509
0.03165047864057069
0.2429131951898385
-0.04279569979226197
0.19281404027803908
0.25034851203041597
0.3557741914578298
0.12309744640748153
-0.2770243518515225
-0.3151478226836559
-0.014641594722529936
0.26972593274275874
-0.5525538473774186
0.18022146850995485
0.20605828019272363
0.2498562176692479
-0.2342036835275425
0.19320548654971947
0.015617245420163668
-0.48931961185813944
-0.18372020974577075
0.307079782413696
0.41822327077694954
0.14979466185727025
-0.002068810308729648
-0.13808111686006602
0.3928239339806824
-0.02567085906146519
-0.2981595333867369
-0.3645459481139759
-0.41310788423162964
0.03399588197200695
0.0882451207333345
-0.25986165367064157
0.6039427807013853
0.242147902008452
-0.3922591301763337
0.20557650680239276
0.04348403582032738
-0.033656062452723116
-0.041868306334061044
0.12603675223743624
0.14492848517088408
0.5842408545435108
0.39113823216824456
0.1398047481154714
0.21398586235486347
-0.3994411200247727
0.39290109007369284
-0.01832570372172328
-0.14799474625553777
-0.1380457448161588
-0.3236125935268186
0.28106029063539606
0.11814788532540932
-0.2151225097640438
-0.10657863361281997
0.29867121343784914
-0.062272386815592336
-0.4471649875156064
0.189543408723433
0.15970846817103865
0.48796462252204614
-0.2753802758928805
-0.3120958580917089
0.0737916473079156
-0.07236262994923062
-0.4462502073811884
0.28307461391411903
-0.12525512791279514
-0.21739849338258985
-0.19021794530517758
0.17769523530880188
0.019048916551488975
-0.17982384901082954
0.0775719284802372
-0.308758452449306
-0.03637792786720918
0.4252606178172483
-0.46442520647374097
0.33667671248358283
0.3156430305127011
-0.09454794221652268
-0.15662936644843017
-0.08185324852167386
-0.16126705080830744
-0.4544383019853755
0.4204786592920684
0.08748772557312261
0.2744001436437366
-0.3543337099959185
0.15554820463334462
-0.10213822067956463
0.29148025062577637
-0.3207025297323699
-0.08772502490711774
-0.030941852222501665
0.128386954357516
-0.41985015536411174
0.1251558534428487
-0.3422043156056136
-0.12632138946496854
-0.22314586893975374
-0.10030973718719374
-0.17767532082646326
0.6512109176342284
-0.08515991901228623
0.05917885414890882
-0.5568440691640311
-0.07561714281501529
-0.07778947558215095
-0.03895172730251911
-0.04148449737014515
-0.03991502469117262
0.13181268662111378
-0.3955104746766777
-0.47368393672078485
-0.3196063334306234
0.3374921593818241
-0.19895479593675133
0.22201648629228699
0.13520822717374056
0.11989680635641309
-0.02841902761058787
-0.07268586585808941
-0.14387719860263978
-0.26481357245458886
-0.283401871623218
-0.11267217846731327
0.036847603295020126
-0.38369202082707954
0.11124338426136093
0.11045566197501652
-0.3831754181961095
0.05162777383639346
-0.02008086759441084
-0.027451672892284146
0.5549005340981161
-0.22911574605383822
0.08286473875429136
0.4009081318280649
-0.019333092303689875
-0.1838812114569976
-0.4130323871433162
0.3510409354721614
-0.06884471143931806
0.21333428076105346
0.1267206670781376
0.08211867500755403
-0.32194712717221624
0.4429127505273636
0.10966152392492995
0.1511015139144661
-0.02033242720012533
0.267296416479179
-0.4463283002784688
-0.39819846793606045
0.18515922019129008
0.35331577887985277
-0.07209178457606774
0.40732725697257655
-0.1662837556946046
0.017789663248150914
-0.2265404787244626
-0.04588495892027563
0.04316451925321725
-0.13454716664562386
-0.315214878140996
-0.10957015881946056
-0.0340223386150517
-0.37319971917623324
0.3606664117502981
-0.2337344284916288
0.040876485123467914
0.1781928180868
-0.06322875084617263
-0.12288054689977199
0.20563790691422815
0.0030720101651592266
-0.3594180831895014
0.038968136327186646
-0.41526112534888876
-0.47225728604938155
-0.22787750565928175
0.017663046419417138
-0.03503920610900903
-0.2655712252038339
-0.4118955478851344
-0.24017685166913808
0.05058272362423275
-0.009555729321446018
-0.3764216910705
0.15632724455551142
0.15916502913866373
0.23852178758818415
0.2879529283385439
0.2363629605860337
-0.03218570246187016
-0.2807055744604785
0.22269184206716297
-0.1793888910466379
-0.2940997125337072
0.09830283936919348
0.06075420279175087
0.3508258451193528
-0.12517930270932834
-0.3024972339750165
0.010824641805385983
0.06793348706687725
-0.29685409034737964
0.03565521696078965
-0.08794754610377688
0.10096067780566594
0.047704209027428716
-0.09538644173557416
-0.22451863949452752
-0.0490390460111476
-0.15409082336376165
0.01408261704061967
-0.14770420496033806
-0.04188649820709863
-0.031350964729500365
-0.2134474079173414
-0.19444476591314086
0.10385751760316189
-0.3086837787493374
0.25895966509978274
-0.15597801443631473
-0.11039183726408996
0.009828434743665574
-0.25408463897684513
-0.28792501707046997
0.12554669503106955
0.04967885938519895
-0.20673639433930605
-0.15547377556994205
0.6860997635830974
-0.20835235043479836
0.4866451713176726
0.37294381562012424
-0.05289634742838324
0.1582936383357809
0.040481836783096234
-0.20627227421191613
0.15304051284083503
-0.287286504100511
-0.21113095759830633
0.05314173862944508
0.1623207816719303
-0.0930040663121895
0.10366302717209354
0.1494755518835819
0.05853627617043754
0.12633416699651673
0.011825476816908662
-0.4198434847139723
0.04786928666299744
-0.028404102266367075
-0.11030901882789182
-0.21419927783307677
-0.29721947186485315
-0.1716662782328242
0.03263799922340049
0.22939060852244117
-0.15827148590741183
-0.15987221803228252
-0.2531407000662291
0.045717780988659806
-0.14754941085433992
-0.18808914806910004
0.3382968545419209
0.3571511053135385
-0.24943015360413404
-0.23308406697929945
0.22840984962549388
0.03564377973838878
-0.11635536239427896
-0.1671688364072304
0.18339858492816588
0.21904077803409916
-0.11965398345015087
0.3558388828338786
0.2035078804249867
-0.25344659173181583
-0.11589299327923999
-0.31725760195756364
0.315545681384081
-0.38418347525199226
-0.2138005212320203
-0.2791622767013859
-0.22001341888811726
0.007791756241014956
-0.011389171166738392
0.34885691401623703
0.4881792059218915
-0.10510603659942444
0.08146363615584575
0.13111924704453767
0.18025119235221015
-0.11491261314184405
-0.20571118683463513
-0.3016539107914349
-0.052904552462377616
0.15286593747788857
-0.20077209125263829
-0.4809732013721816
0.038243546086072
-0.15618080266135348
-0.2902400223809
-0.013767649343380754
0.015570811713634976
0.009191321283432146
0.08643778151621839
0.33372497309690713
0.10357715139892325
0.35876842723646474
0.20977285206505883
-0.16107924768495735
0.018322953355406985
0.3111019226336673
0.4153135672158302
0.11640202367109043
-0.32962445521170103
0.19497242584717123
-0.011867731589137197
-0.11857416255839254
0.030550511262444714
-0.03744432141792104
-0.07076198266531876
-0.01439171737960961
0.1424258850941599
0.020117075032017626
0.24990323968937794
0.18599428819157368
0.1390831734384947
0.5372759341600594
0.362435405260721
0.02814583485036733
-0.24079142266297224
0.16517552410131256
0.0367586526005898
0.029705290420280993
0.26403786787247746
0.18862037286343206
0.44212909672053513
-0.08371592521879266
-0.4074059143109577
0.07591617578618715
0.2112825595573855
-0.45299525816033204
0.16136195433047892
0.3131468830707592
-0.25408219782648633
0.045868131848378964
0.02915852356766229
0.16438580137574718
-0.020760103325166614
-0.24093847294996432
-0.011887985984863493
0.1371543045179281
-0.09173963914058614
0.07115853488748661
0.2167187791790196
0.05897390074210526
-0.024756178036861778
-0.00629982052285723
0.12907491442490449
-0.5268198066617485
-0.4022220574516913
0.3512523084298482
-0.004883369765723255
-0.2190736383745289
0.17281794806681536
0.28489624764938887
0.1189137546820426
0.12666907465597335
-0.2131901385261599
-0.009661461681784032
0.4637093161904853
-0.4390466620729501
0.11017071633245498
0.4873084864214583
0.08871058097347893
0.4910227135517169
-0.6227719975849371
0.3823680971460388
0.17475901393370571
-0.24728204182108315
0.376352980530831
0.23514224706785708
-0.24520355499853752
-0.29375178936880175
0.18426839599469258
0.16310615417038704
-0.2571382183011521
0.1011507031108698
0.4533739413214555
0.6434026630824009
0.595594008644399
0.2816331394871259
0.5852547284907869
-0.23628583458596814
0.25983134083700976
-0.21096927853846467
0.10121150600559031
-0.14320212614446398
0.2828047628981957
-0.25509910001363667
-0.07633636787630481
0.0871095584943371
0.0986351408372157
0.01503337611217179
0.3193260649863533
0.2404731204258923
0.10319727369894675
0.3004626904466003
-0.12144795923533162
0.24113466300988642
0.27284826976407195
-0.36249383801047197
0.20113780659430763
-0.0647459072723722
0.08318783901737653
-0.4690803363805765
-0.03317921726713637
-0.027500300792253112
-0.687281021606684
-0.03467645900320102
-0.39188205335412335
-0.24831260409446032
0.0161917020320349
-0.6019705308483815
0.0993896469762376
0.0226442682987512
-0.29933154368087633
-0.32480152597778605
-0.5317672934731882
-0.11899466069958314
0.42451012434566976
-0.45960319571142966
0.19903607922945146
0.3761749892137977
0.016138950288815793
-0.3777456617580654
0.030141246084043533
-0.15387259509677062
0.12735432994455992
-0.2593945409934773
0.05516227321497129
-0.37845136764562615
-0.0933564060503149
-0.32941974309887473
0.4879534420395733
0.4102693691617821
-0.19660483778850843
0.1897462324669043
-0.025061519311699143
-0.1345738273187589
-0.1402039928630298
-0.56707630577337
0.17471663566306692
0.22875549150315558
0.2221263795809194
-0.21191006432175924
0.40694042776292116
0.1618144707513198
0.31182697371125284
-0.00041961644322518435
-0.07634507797068933
-0.02872305567950183
-0.11297740792374608
-0.11873614763625105
-0.05698670358076745
0.6015065549914693
-0.44634691381645447
-0.054581412449261624
0.025866226738592377
0.1183948793241862
-0.10934436752150542
-0.562839977509409
-0.23367033685157848
-0.2569168134895689
-0.36268692547256726
-0.1997996831721538
-0.014443142202583848
-0.18754894302735797
0.2093793448280865
0.412148722728897
-0.21923504766428104
-0.4964212552097525
-0.13381343546473415
0.05939365770426952
0.06560836364063474
0.05350440242722831
0.14478391863385376
-0.15253043811759281
0.30031109828759966
-0.11183680526868481
-0.43123034749081773
0.18669760025211224
0.5067932749951656
0.6631535613846214
-0.06897988536184269
-0.029738072875741
-0.19850336140333286
-0.2100009861224715
-0.05987129384242333
0.08433771101528006
0.25474377608729865
-0.09846554462806821
0.17764253038798314
0.4028943660776702
0.30368052244898686
0.2673914986395436
-0.07576886231126163
-0.2670726726161635
-0.10712381509157348
-0.2957152092702775
-0.14084324836548173
0.3941300765603432
0.08502725051920779
0.15895561199947728
0.03184739000758382
0.11190694372030742
-0.2052474773376525
0.3116503793746266
0.0864217746140214
-0.48199178262730136
-0.12040517227367695
-0.014122856277597814
0.23107510653460503
0.05626581715079939
0.2249280098224672
-0.08691839954048686
0.47407309363844025
0.03584886432621196
-0.45010364116318513
-0.5812792549269322
-0.2799210303839606
-0.08301045798277404
-0.01484852954623287
-0.21221390931816939
-0.5301775835805423
0.024564770696910865
0.4132382133215719
-0.013315352580704785
-0.19729997366284957
-0.08558767390836947
-0.18800190255048335
-0.2556061935830387
-0.28991496275024825
0.025147577123844737
-0.2640859969685954
0.28949187387292014
-0.31071986032250787
0.14175130240851797
-0.09462650604815287
-0.5252207786998802
-0.023888514899924936
0.20941320272547367
-0.28560968792546104
-0.021247489124554084
-0.006330793062478567
0.42212643132259753
-0.5912680327701046
-0.19871681938524197
0.246015236353171
-0.09693296016183325
-0.478350266586982
0.0355688506692875
0.16527181953124656
-0.16515514482685065
-0.26290502461958465
-0.24106019535144987
0.25862788045505636
0.021340550168238055
-0.22168377928547855
0.06203782606591313
-0.0038742970410189288
-0.18110554334183335
0.0006175620273890176
0.6146186842751856
0.04326873848855696
-0.16134995703511282
0.5216443096471433
-0.19208331944812645
-0.14641293989125265
0.34015253376657884
-0.20409473505575532
0.4704941501889514
-0.3365018956024691
0.06940347459136119
-0.10769878197989337
0.16768477499914383
0.09843826994039691
0.07602863082756488
-0.5089169529448124
0.10321412754295717
0.2042937078127909
-0.22233839057957253
-0.5036397026314957
0.07637933710475457
-0.01891544862481004
-0.15336955564486207
0.17659067490419944
0.26426768046234855
0.14373178013520446
-0.15120696096403055
0.2662277317818098
-0.4599893356445506
0.4167302308390611
0.35313217129119384
0.539058221020665
0.08123116958955212
-0.028231677542721392
-0.1151966355338442
0.15230081987576707
-0.1376027778870573
-0.022254295076994404
-0.42099119984219274
0.2150144774186729
0.20449162667008122
-0.1781994572911929
0.2193813654012138
-0.19341750262235502
0.012823872686110351
0.17979227995998753
-0.36388926222073265
0.04219230878717106
0.23220284606681374
0.29708409020676746
-0.3022178234351676
-0.001266814767178722
-0.056036463877122224
0.1969446930624986
0.24476524706146838
0.0085628712468703
-0.3269188050222114
-0.2223560095955039
0.37562466983696213
0.19802906839973503
0.04193883989606777
-0.41601533177440064
0.1371973201496391
0.017090702227226147
-0.2857922356511918
-0.11138391283517846
0.2745796272904244
-0.13311633039999443
0.10042413863896592
0.08211899352494209
0.33066698378404535
0.01759279123407963
0.0025623280707454885
0.6525991131511316
0.19501833243865843
0.08594334302280497
0.10889975972669513
-0.24244402335322618
0.14861889057800887
-0.2214924939836124
-0.19316921642783016
0.1971796820478594
0.13864709595397665
-0.6127479907134059
0.12286248165215012
-0.18752948508724365
-0.48158162153334766
0.1349799497162291
0.252467228340044
-0.07625741969260438
-0.023592179449272544
-0.14536220719007845
-0.14967150481380648
0.29900600073312644
0.00810380804036549
0.15887561938103284
0.1078903309138732
-0.15683518090805945
-0.09408053849358543
0.3678270324105722
0.187932397829608
-0.3938751671534228
-0.3418761611793116
-0.5019529038518676
-0.3865913809050865
0.18052393750081566
0.09967663240166887
-0.31163796304019165
-0.019084572847287144
0.7118487929832642
-0.12548840158840305
-0.06205841320262721
0.49211359238040164
-0.2792012198105498
0.27276200792993016
-0.01640026796478425
0.24365712910058215
-0.3881206815483463
-0.3726432674151588
0.17702002205792833
-0.35924571228495866
0.04491822127617236
0.20274568100553347
0.2798312918853506
0.06427854017376745
0.7373812788603507
-0.08523668779922008
-0.24380514954769894
-0.09060685648186
-0.18931662152444148
-0.3980571118327949
-0.11049956032103077
0.1407351972444502
-0.30884253675023393
0.297720074225278
0.520999689697899
-0.40243401293533304
-0.1612292365472064
-0.41488530499160975
0.30585765048415
-0.16694806509752086
0.2749714280395036
-0.213224886867781
0.3442619879231304
0.5431372404031105
-0.032277555312842064
-0.11764307938257533
-0.07951102517368949
-0.054289833999393
0.023067087540064448
0.30541412103801263
-0.4021930979101716
0.04939650608433104
0.2751723848009749
-0.3632997688949508
0.5507033875363714
-0.23718834303813943
-0.3676648017994414
0.31732903852723027
-0.3612139610802175
0.24540521720192338
0.08903184390932387
-0.0567047394479442
0.23965528587585208
-0.2932845082462822
-0.18252159195896311
0.5455521099849457
-0.4055314561144878
0.12531635622056259
-0.0630411867313442
-0.42568116108571014
-0.12422835934753204
-0.06256219484062919
0.6638211635558958
0.301381177058965
0.5505464556568651
0.12050460860045253
0.1227032857224169
0.15646121835091756
0.36761504406767903
0.0935842785902204
0.09125797447235598
0.1638864702163472
0.18182061673839855
0.07883304825599682
-0.05825529177599272
0.3970226818526167
0.415943837868592
0.10416203768365782
0.15880311495094335
-0.06929430216497581
-0.1534129913074666
0.0718663740414237
0.22749580659774635
-0.4145275454226817
0.12410772299894145
0.004427973384783214
-0.3315507749777584
0.00737221575142884
0.005357885159058516
-0.44499578780122784
-0.24371753110250952
-0.046083688791740324
-0.03059558577655218
-0.20545316542909117
0.41469366248513834
-0.1393150213176535
0.3283775953962562
0.28203430869332213
-0.3127556729765497
-0.6075314366055986
0.4720310377994901
-0.060420243309425845
-0.02422034025546032
0.36981225994163486
-0.34016851006627125
0.05193210742242788
-0.1277012414901121
0.4188615661592702
-0.22330633081121345
0.3306911773483869
0.0026381980505247355
-0.019396720485169505
0.04026853286183597
-0.269624275036
-0.004627695288195746
0.3945221046435346
-0.0015975781799409314
0.23076165190074716
-0.01193678714815199
0.285842298060947
0.02148528995627186
-0.2082729702999469
-0.019867958580374538
0.0823244458536722
-0.09609717996086123
0.20347526315349784
0.007910621290996593
-0.2958113555061165
0.15588837996643193
-0.032644311067982726
-0.38433907580883714
0.10631338057458768
0.016822218725404434
-0.04790790187156553
0.021936373186931306
0.006419784534078047
-0.13807485436982017
-0.4165415029088635
0.18581474406475829
0.25177617214147757
-0.4241811130307616
0.2602242240440463
0.4830704090778142
-0.09909223984485786
0.21856554609043888
-0.33482543304146095
-0.14772528322410322
0.4576161634297591
-0.06481381090869522
-0.4275716170158067
-0.12199647028651014
0.3777922287807252
0.29631593787201504
-0.10947241404555237
0.05113299432009712
0.11822009204762973
0.06853059724523307
0.1230674864187081
0.30482173193519324
-0.11554716507115753
-0.22393648408853647
0.025089879829236907
0.10558465122549679
-0.21999097640651508
-0.09009703542566598
0.12390533441758135
0.12069430273391824
-0.26409460009433994
0.00114525856126126
-0.15860131278463646
0.17738141869355378
-0.035312189729293224
0.12017043610432566
0.4488315198701186
-0.10018378239975172
0.40249524509596274
-0.42142220807200415
-0.0882321695796503
0.07702877232566865
0.2785558124667582
-0.11872092729647107
-0.053380119491028784
-0.0653001941944713
0.005091532581502854
-0.08027788446651514
-0.23741126325695242
-0.20406401132543212
0.6765969542672869
-0.01841969293308536
0.0062888850839593995
-0.22573563651044445
0.17308094428811047
0.3700097729733871
-0.1292757647722386
0.4352662458729935
-0.06904452445055032
-0.1581314132256569
-0.06916022538702253
0.35673128227811657
-0.26634465851129746
-0.05153154259700264
0.21360804296753516
0.012625593202442888
0.13349167245807567
0.09891191316617523
-0.33713234207824905
0.17004062819320503
-0.2472167011195022
-0.5527892112301618
-0.19492237799540393
-0.24447933122639867
0.028331009034999795
-0.1178162146141396
0.23542493052359856
-0.4233895176532271
0.4467825532046975
0.05194947858205349
-0.1559176236633182
-0.27866299055458776
0.16459932877038005
0.28473853969935836
0.300326904727536
-0.0020456657456486664
-0.3992140700130198
-0.3093998850999368
-0.020501570453644882
0.244477381286659
-0.28572188549859245
-0.07237624773296514
-0.039420743773776426
-0.3671484604465523
-0.05223545167905164
0.39562514980135366
-0.21468472540472255
0.17143122170418068
0.20000394714362363
0.12497000048472912
0.2958069962068942
0.08576694851366608
-0.014109696902046096
-0.15099540926288002
-0.0891302202874975
0.510534305095417
0.278924122920025
-0.1815400816564612
-0.025566703152043756
-0.015432356681018552
0.000800969821388255
0.286832163191584
0.30165919698564697
0.17067575860463494
-0.1248658468109582
-0.554364138113505
0.021453720833768404
-0.5750654708608619
0.07010484937188229
0.20437652475664458
-0.022617575403370956
-0.17599455536550443
-0.21816740127487186
0.0707765820493852
-0.46300943058372607
0.03680274396338017
-0.07608981704049998
-0.3554964347251687
-0.15136566604636859
0.20685568926899964
0.006289539386181328
-0.010505301949230899
0.2385272726321073
0.08452569824465637
-0.3243051182299065
0.58586164245771
-0.3343953669318241
0.24195678372589913
-0.24340972427587532
0.4572365241921664
0.35026815277664364
-0.1481582509116988
-0.28702956504937066
0.0298785421045135
0.08330814839994785
0.34387919735267203
0.2208619963814194
0.3067834495681867
-0.7234859947476545
-0.23157240871047186
0.6570289885073223
0.013646614811784074
0.2351742966160365
0.39812615740049573
-0.42409211691050347
0.25494289725208613
0.2308010146262457
0.4439566146714068
-0.19331937347900263
-0.22515732101818264
-0.08597483788795582
-0.07035389797203415
-0.10819971377769388
0.7413403816129644
0.4138685086320736
0.005931784593454705
0.2660380002158068
0.07253608251228438
0.5329218625822659
0.3761063351694104
-0.158993920561059
0.4037581206621482
-0.027050196176553482
-0.31219585265090805
-0.07971398328580369
-0.37863257607279854
0.05074533850418272
-0.12956694740068617
-0.04972002431017905
-0.34445667670792113
0.5466636379249806
0.31009257873468166
-0.22819063084913263
0.0728019194450874
0.09182368428397994
-0.28630960074504663
0.17486158001625923
0.253878335606317
0.31862415833172125
0.05603887317608775
0.025703331566099392
0.1598783661366628
-0.09898759259678926
0.29897029719787294
0.2951251577952621
-0.43884541872424326
0.15724524995754482
0.1979359679454152
-0.3607245418640462
-0.47152451524507216
-0.38896371571717736
-0.34994695379239527
-0.25959544211388574
-0.28792492165061107
0.08993406912848688
0.5574462736708155
0.688939414011712
-0.08846900514816813
0.05523154678888305
-0.2605080542291432
-0.0002591354813256146
0.5103015972057832
0.43898400314822544
-0.07160536534871541
-0.12477199130091317
0.1892118054722647
0.2762699986194546
0.22853663041411887
0.36317652183341187
-0.046014610228711145
0.05274203627700053
0.08269956011661171
0.021351055335163526
-0.4798873384519457
0.5988838869776164
-0.11650206783409106
-0.05388601783932449
-0.08380917614545276
0.07569895745102358
0.20491338556665353
0.27839153499521363
0.11361008004741467
0.08944180070931758
0.09933084536150519
0.07782409858942547
-0.5388686859046165
0.11337933581297989
0.11452378879359641
-0.41027428434582486
0.2719209533910906
-0.36083549183557295
-0.02503683987672391
-0.1648919610174011
-0.07576731862863624
-0.3654584148930077
0.0716937533758644
0.05416289523800073
0.361505160651871
0.08834510838121992
-0.2944050367281316
0.04047996869178464
0.022022575344434178
0.1886282897393219
0.00085082771304617
-0.05389391039280766
-0.2344457569551672
0.17094713676697396
-0.00023891519576820316
0.16603861107999202
-0.12088058195782489
0.23527947494542722
-0.11460920460378801
0.07726518713414617
-0.16744737716832483
-0.0836334146995803
-0.41968001480747497
-0.5237691247392722
-0.04943929034590461
-0.1600143040124014
-0.06507299462244012
0.307253353345099
0.19525656687115098
0.14391719762914887
-0.021312760426427727
0.08347574246314418
-0.1196767738701117
0.058650299199530014
0.29186779773630284
-0.25292243100036876
0.2968949257326094
0.11552279082626708
-0.2728916846165039
-0.09389929775542664
-0.39590655013764703
0.03579828024614465
0.18505491637010058
0.22952788025793674
-0.42588313338407113
-0.03810289470904904
0.10665383977880107
0.17737345576271837
0.27562216215923674
0.12544835770434024
-0.2516823777341958
0.37612416152031913
-0.2256595621939469
0.10856893301108665
0.36009566840235024
0.14645777022129566
0.5086782911180683
-0.15516516083439674
0.16543564852312811
0.03886508400545622
0.1111676037965805
-0.10083588921416872
0.2838482026515567
0.36436169490207115
0.28435187243023463
0.05627725687286491
-0.13582968190057254
0.5083089931275744
0.595870122041712
-0.19209272377926906
0.1288245805236811
-0.11105261925173854
0.14728866811126423
0.1325067399648189
0.10836553819680528
0.1109760749372882
0.48961449794684503
-0.3660157559904665
-0.04819241975634765
0.016636734928888033
-0.06127353100804928
0.0006984802599497307
-0.09233462874179406
-0.21510579836488064
-0.10208627747607708
0.13709215652136428
0.17589406871480975
-0.6011776754631415
0.028385089388883948
-0.1089641183013418
0.20044684750467853
-0.38367903580466856
-0.32836236537838487
0.3530390363611477
-0.39142262135518424
-0.3236764122283798
-0.09894158915424779
-0.6293994776545234
0.15438395524189466
-0.16483965913457344
-0.010544402616505025
-0.20431996972485722
0.09317459653123261
-0.3091809701544483
0.35456901797674956
0.043238918850212804
0.08800962709400677
0.2106495386000088
-0.12552574704936006
0.06709518559968919
0.32593934458473683
-0.24315105701147677
-0.14383395786451428
0.3964522062211326
0.19292362924708803
0.15617570560273833
-0.10221380168644009
-0.373551852342806
0.1603858437583641
-0.13621997446156325
-0.10035823318927076
-0.06438618476904912
0.20950470619037437
-0.11784697059892825
-0.11069088133836576
-0.26366177164677135
0.2085284141747395
-0.07487200372026141
0.02981736636552615
-0.060137534053603225
0.08058548133224114
0.009773474064479615
-0.10776244176759323
0.13310975720804055
0.22875333698147424
0.14760666394052713
-0.17205823616609148
-0.20805553205291377
0.15462722764799153
-0.05072271991187941
0.04815761677895721
-0.03814379891615407
0.5524719665075163
0.058010040002364816
-0.5820550891509816
0.17898383308571017
0.4381881337401984
-0.18899597478540062
-0.09984535889594019
0.12822627874403275
-0.3144820344314569
0.19790251533678946
-0.054405460688461076
-0.278158103803366
0.001262188516366044
-0.0584115479276187
0.3941904767487694
-0.18685179752095482
-0.07075742676450707
0.2055031799163848
-0.10455832624995406
0.09223394202586604
0.19869577313326042
0.5141575243442884
-0.15117664553030943
0.0027594388501238146
-0.16600072269981728
-0.09475820626419722
-0.02825378047470649
-0.16735406283611604
0.34118893352017693
-0.17177463820248626
0.11046907009884813
-0.050659691911715765
-0.001204778833810475
-0.003003728540542678
-0.08640305142809926
0.28517049111171316
-0.00721301161657402
0.11285381288589849
-0.033136303540370844
0.0007495418268456991
0.2386115723800749
-0.2321227043686312
0.045517959193791556
0.35307914174689453
-0.00643220538476356
0.4810016976979051
-0.3106582939294857
-0.2134225164675664
-0.18093638518562336
0.13997362259112553
-0.41569254050753074
-0.28879919882131677
-0.694656716602515
0.08527515411641023
-0.13175128976636605
0.26548668938123937
-0.014315519424964337
0.12208940760268508
0.3386098522806007
0.06485013928872349
-0.25999641630292664
0.5906935687752607
0.03600085593532263
0.24729622688127637
0.5046692645324389
-0.34573701584468614
-0.03539048002425659
-0.11951058637746356
-0.1168591821596158
0.14055797081371188
0.028201155655957044
0.2149554235893119
-0.13949206548742793
0.36194375534819245
0.20004561643610724
-0.020659208737107426
-0.20171870400188052
0.05394611955648211
-0.4332120831219224
0.3342746392902303
0.13204367856016125
0.24019210953831885
0.18474776945138
-0.20386557120134863
0.1828904271856839
0.13594577514408762
0.4547376467654982
-0.16226060208683896
-0.03546884535578725
-0.10946648413099044
-0.14322457140030725
-0.2929259873142304
-0.0009445693116559356
-0.06177783724450685
-0.40942918031275766
-0.04531485311429493
0.08447556943283471
-0.298357598503789
0.08599816310139177
0.183835982733868
-0.20329770168035452
0.48843428982313586
-0.035801943516977255
-0.5665016529668082
0.07596940223800748
-0.24501001974123063
0.06523721533183367
0.1686505091704688
-0.4683461439243321
0.41245589483381234
-0.39145298164835074
0.1601687705908625
-0.3865445457761126
0.5363359435574387
0.07956713814362347
-0.39064699934605956
-0.11466294228594044
-0.16705546253245063
0.3878267701929186
-0.006201673546650827
0.00639780508977475
-0.3929642625208249
-0.10680898374511016
-0.026679777702747168
-0.09044144139334488
0.17289953016779153
-0.13995670874507266
-0.04143133738818204
-0.13615287600815382
-0.5633557567116199
-0.13702885279957921
-0.08814878152429362
0.25542334709559744
-0.13202530703228688
0.010430341297989105
0.08682467595659445
-0.28469973163936896
0.06575581931539545
-0.19406726214690445
-0.18682757138191627
-0.3060207705242397
0.09103291198637763
-0.11574310588252668
-0.35320426112573605
-0.06957579543470782
0.327123140392733
-0.07318714709667115
-0.12378293154116687
0.26033151469277976
-0.030521613519704317
-0.4746258049178746
-0.44964394217191567
-0.6506117125162614
0.041423533395868975
-0.04053537694793633
0.41161167930378906
-0.1054032549406715
0.07719979018084572
-0.15028513475838592
-0.2814535483727281
-0.23533997738008286
0.4586403975428757
-0.07284518719519956
-0.19472476744052092
-0.3077853061854184
-0.11888782928370797
-0.4185302065404761
-0.018746491766163335
0.03076587602594351
0.500146918711345
-0.4031488455450778
0.3684816701783283
-0.26546052612470167
0.3006367579172187
-0.10646829762581828
-0.6256117986716062
0.2611940162623456
-0.03752610533977224
0.1295096950101
0.1325074770237481
0.11165730341562131
-0.06992612598307896
-0.11734828652833401
-0.05306331509177546
0.2644892383377133
0.0444421048096186
0.31554388543914036
-0.37177198460454774
-0.11073154745201397
0.04513265197047817
-0.1635148922073852
0.28759243358314385
0.2963427294906805
-0.08437549134253713
-0.34529210488921697
0.11512620088408267
0.13510435144268831
0.1246392284060615
-0.1242866203181268
-0.019280320966159472
0.2376680338033012
0.0804652930847343
0.1896418236942942
0.40641091800264983
-0.0940329150260845
-0.18108072126279243
0.10822928519659908
-0.07576342883088831
0.1106114841970767
-0.06496040786636831
0.3122996771205055
0.3107529155862372
-0.21686006659437973
-0.47150144317161063
0.09111529975661208
0.019281166861832885
0.16265057276923786
0.26732499029398654
0.1495053759676812
-0.31630036792857147
-0.09003150162154858
0.04250340137212224
0.27753097652099235
-0.5547428329651548
0.10758176593576267
0.3492491430443836
0.13953068838027127
0.30454021371509266
0.16358045406554195
0.052772431947803615
0.2680617275893355
0.002151070572795614
-0.011205201587831096
0.42085186592538953
0.1763260153811532
-0.15063645486978675
-0.060282617010997165
0.31732106330443305
-0.09964858514253641
-0.030188297058481427
0.04758301574274913
0.0805371635230426
0.15289376196713328
0.22225096648599285
0.18159993643479377
-0.5262145976926649
0.3211464437125569
-0.02957223986322923
0.25455306845185205
0.26146862350269334
0.5042094956577998
-0.6824646403676237
0.12281701489165098
0.05852145786583335
-0.066996413135823
-0.1252732055929908
-0.05208317170852278
-0.15400613951517095
-0.18462738224691413
0.22632510146539814
0.2195897630246668
0.22716497422364273
-0.05309462918004837
-0.045586634985047586
-0.24202798668407707
-0.23116533639873843
-0.2606053365159899
0.11456378151000458
-0.27595739561981
0.3785601946489827
0.10575647845843988
0.0007611875983813139
-0.10769470363469574
-0.3410323560164734
0.030393115838682264
0.16517385953218597
-0.0888514356376085
0.2150656609669621
-0.0972228978410079
-0.03852820406546592
0.12141445222766166
0.458473609364598
-0.10703138395238976
0.11782338303230146
-0.02655901075638722
-0.45496945960958435
-0.3950819883160915
-0.026715082796269923
-0.180726749304296
-0.01882128309301058
0.33023865981562495
-0.118567224446697
0.3360893672707882
0.025002250582512712
-0.15714597395916785
-0.1651401487018848
0.13141233274479433
0.29150742145191266
-0.10807865872393553
0.21636575471385194
-0.35489007897307534
-0.09485022465002442
0.08899131017500025
0.10122322147304864
0.2760187152641172
-0.1625908022113148
0.43467346332001744
-0.043581840508034604
0.3030053823771614
-0.3820046476968997
0.4173965235602916
-0.2588051471553469
0.27505411669608343
-0.11282038266055859
-0.17489582048890728
-0.29261908814902965
-0.39783775006935634
-0.18155463579103412
-0.268581250720665
0.18404419956242293
0.2874318247652012
0.1245178826942575
0.300448578533997
0.693035970831392
-0.04434853941261934
0.007639530958712345
0.06586238685108536
0.008772433404577184
0.11366624445862003
0.04709115491460967
0.5309177645807723
0.23541830671550673
0.07208708698690382
0.1952014575902084
-0.40810437642982544
-0.25364463615038824
-0.10447539634146397
-0.3129203746914451
-0.4108380516979962
-0.2333964409563712
-0.12269789197816425
-0.12575265205530253
-0.509154606244946
-0.33132608762249866
0.08226580626111282
0.4467040038019133
0.1503278812180055
-0.15774043417502503
-0.23503925407184723
-0.12957400505437056
0.05783087269941273
0.3445121950264368
-0.5481798178604964
-0.28936677090787594
0.05254682633757185
0.16529761582802682
-0.3408358893417141
0.6849175794773539
0.209984330439714
0.045530317356889234
-0.32652400160963935
0.03294404444517891
0.32538910392817944
-0.00883910982190206
-0.09136144389080804
-0.06464538499874022
-0.11263179078294544
0.2348799864849281
0.04466673085645215
0.2558029611825103
0.09391413437224265
-0.1731321285433902
0.06185287432775594
-0.1300315704585662
0.04665233811953363
-0.274830205848039
-0.10183898579933184
0.06139513823055015
-0.16064870428932945
0.5506342025235026
-0.2514754511322494
-0.3662629560324152
0.3436986216137916
0.11104614146706829
-0.14907638595494646
0.1237421300507693
0.4277309035740418
0.5236395331184049
-0.1892197030947607
-0.0642092157984804
-0.33436180788958547
0.1462114918225802
0.28558564139179204
-0.3115911099214654
-0.3027039695239126
-0.40898416783588243
-0.16540340615368787
0.3528632947826504
0.31999792649078457
0.5464412167996199
-0.09643069390645878
0.21016717008851404
0.049648656483820684
0.03994316967955675
-0.08095812702038858
0.3214566834734185
0.08144772791674663
0.3696811705050571
-0.09195353375368542
0.1618261874872569
-0.04660744952309794
0.029502785284932564
-0.22978268198789997
-0.18865522367670487
-0.13875659993789055
-0.0784426760264647
0.03373808860274753
0.43584161192133064
-0.05784284188108838
0.0011720676049221342
-0.38880907435299367
-0.2793832408342804
-0.18794255716909083
-0.29717942812090636
0.051652441839200536
0.1748882259779335
0.3442058212380991
-0.04764038650513129
-0.05861483019640059
0.07597450395944244
-0.024651028142268366
-0.5012142031227517
-0.28661330708086463
-0.3132410529759482
0.3152971124052928
-0.627210009950651
-0.01486503163411465
0.4903358667653373
0.08401194017430698
0.14133110728218892
-0.21126198088473677
-0.13970889203979586
-0.026517592283035574
-0.12227154388602804
-0.3503051185472656
-0.4080889069427427
0.1420571407296714
0.19354498749678467
-0.27602427805302265
0.302110704802438
0.25659917858258635
-0.021163396127885432
0.029531291211009322
0.2336923758176612
-0.592867507137702
-0.08492265883170234
0.16255852110304334
-0.0027415563929889825
-0.43389711936748143
-0.11958990525448635
0.2547831067384613
-0.2401697609244839
0.30451142069244685
-0.24930310487458512
0.25578944656890434
-0.28941781507113673
-0.21134198321933662
-0.525228806908438
0.22575523056466093
0.2803104409604116
0.2597117613825868
0.5243229438669705
0.1711974025637093
0.3230555449480291
0.17191439157030708
-0.15582643081262487
-0.5670938715873762
-0.26824399292700785
-0.471180871871727
0.053871301060678285
0.09562977522956366
-0.21350560821307613
-0.13784936674808332
-0.15773449543701865
-0.14512012238130798
0.42947105189373536
0.4023428904964819
0.15152542653659168
-0.04379963603845906
-0.005246998357745346
0.10560388028902998
-0.21319313279693958
0.20287058382826492
0.31591849850750137
-0.3092529601462335
0.032230605553573786
0.5150907355826984
-0.3214956703604688
-0.3900898436986171
0.013313388728671827
0.2498781175180379
0.36940537725936856
0.40217105772187606
0.47791195490348043
-0.12173717962693299
0.24016188664284022
-0.07112620842348652
0.4444316293780233
-0.026097491177601264
-0.00030615443316967114
0.21906498020792967
0.5539047102657045
-0.09606403684792128
0.11373025824904759
0.1291170481525708
-0.1433680025671109
0.005198762050063733
0.3262178607956057
0.44050720133013904
-0.11364093275013185
-0.024344027794376853
0.22944853948907823
0.07733174742236364
-0.32366703156981746
0.1369049185313475
0.2874331667362684
-0.12343757921439036
-0.19291114529120126
0.327838330727287
0.211621609038858
0.15827593944441018
-0.19949527830012362
-0.1566654407863055
0.07141322691115887
0.1378295997562966
-0.0225490467278517
-0.007015850684154186
0.1936305484402964
0.023062613036590685
-0.3364041948386524
0.1524182757663609
-0.27551616238841686
-0.045234456875455874
-0.40441007517719524
-0.16011220660106312
0.5821454173159576
0.019400164669766233
-0.04252875337175444
0.30669895582961043
-0.14298325300024403
-0.058390722181447384
0.02212443246059393
-0.034856486819728194
-0.16658847531981572
0.07426262926147065
-0.09586916733520662
-0.35685825600178556
-0.026224101484346698
0.10247203846799097
-0.31337713761393765
-0.00413730029835747
0.07842469771727328
0.11566059383023597
-0.3609443112723205
0.174458325820059
0.09413792726063436
-0.25686382322857343
0.289405823294363
-0.32684760811004065
-0.4194697399785095
-0.122139788153818
-0.08928142154327863
0.08989308131898797
0.419735079205816
-0.0900579483945818
0.35351817320776496
0.06444968277372908
0.18022439975999294
0.19337938782747904
0.18897118657017564
-0.32643608117195944
-0.05000735173267936
-0.14427468813918354
0.038063321582413635
0.02728520304296876
0.02663123919779106
0.3593735584529141
0.49308968701668643
0.0610460453381061
-0.14457280832340572
-0.06093734046641308
-0.6008071293786198
0.0180847685821405
-0.05016443850012096
-0.14747519492184466
0.16337559107134372
-0.050937224492096936
-0.09817543433938863
0.28286257851337315
0.26861227985371555
-0.38999915174501515
-0.4160426701534785
-0.30634207252340195
0.13418740963770995
0.16759080377684196
0.10128625944404705
0.4752263944210278
-0.2969002677145451
-0.2811043798556945
-0.18412988003191091
0.002513418087944239
-0.10276140075932774
0.438494115950505
-0.035624830747157485
-0.009206732892692677
-0.27221660557786026
0.0705042299192888
0.6564168447822557
0.00078903845455502
-0.15863043380249015
0.2970605642733742
0.22001595568296375
0.041451379186167016
-0.27232830029525096
-0.27431212857594917
-0.20292226916734143
-0.07663244235827617
-0.28141261787111105
-0.0855753335004735
0.2531087220489072
0.0251452492471579
-0.19121804107402368
-0.4538908007302613
0.4359962046424091
0.05333190014816179
0.4174810757530916
-0.07532219822180623
-0.5136736618966897
-0.1481679537343049
-0.24459550359532184
-0.6947791890902613
-0.13935796459787084
0.20234261326987846
-0.10868972917541582
0.21815652848799988
-0.23893305434138232
-0.02367221611842163
0.3777741892634294
0.32691177899985585
-0.10845241866558947
0.16368407144741076
-0.10731494398155342
0.3516252894056547
0.22081375517294427
-0.21863510540857112
-0.14404571024608703
0.21941195489290727
-0.25134761612392
-0.004550541914301007
0.387784048315948
-0.01527070833023346
0.1957040378867353
-0.08742648069232377
-0.0797360045701026
-0.23536501680962238
0.13119314597727758
0.05654598556367049
0.08560728025846709
0.2986412327007336
0.55141790280832
-0.08050489219127731
-0.3778555675419833
0.1652709249542233
-0.3156414512396174
0.026614480380024497
-0.12576963228514854
-0.5280432176166866
-0.29293320042863935
0.374226471794218
0.11218508680995802
-0.40780602516899095
-0.3907864741213517
0.01328805482635988
-0.29685668672505533
-0.12490101338826323
0.0897066679899955
0.0843308709055402
0.28518212534961757
-0.11839015293693017
0.38199609357412156
0.1559269707023124
-0.6842428185771536
0.04177449438566785
0.29275101482445554
0.03915212860002419
0.16596513528690177
0.309889459160722
-0.1443030695846514
0.1863180534882032
0.6175368450044899
0.5720871035963576
-0.5371171717150776
-0.5856545721191514
-0.06466725728759226
0.2587878902603366
-0.24687114289987208
0.12650810389542164
0.11810330997971119
0.022118883334820674
0.006627672013695129
-0.0694853113824113
0.0746903500511053
0.04428095822008061
-0.40829672351473223
0.5442066303412454
0.14343990632509823
-0.22237911836569385
-0.018747377664603628
-0.42180940664899536
0.1270420562908642
0.3473115678959098
0.30724681691486283
-0.14425763931538754
0.019814461444335713
-0.24841678036045436
-0.12778210525005307
0.23355674605173848
-0.17153471041528812
-0.22327404814935314
-0.08254288922239435
-0.463927345648069
-0.10664488254674606
-0.360277326712417
-0.08580787684100172
0.5432729677546544
0.08282467438992541
-0.4722218687991441
0.2508877295740265
0.6246289499058352
-0.08095296189605407
-0.2697540422188862
-0.1400444754604654
0.14002709923875578
0.03912222471188183
0.14403616763576493
0.23772497414469237
-0.0716909436287154
0.1990831637644203
-0.27415072226082116
-0.11949230262568324
-0.49325837493567193
0.24674678886895635
-0.25063448854275683
0.36032007736345806
-0.05936114099251669
0.10883824609580696
-0.1561426792885623
-0.07785470733565038
-0.30229077256355474
-0.5186986297816888
-0.12039316071327658
-0.2122131761535444
-0.23359039900363102
-8.049744596010395e-05
0.08954587304015307
-0.06124027545013482
0.09939317598541518
0.16526349091266684
-0.28066083143460074
-0.12163330942442294
0.39018837003954066
-0.07459444599070088
-0.4044957572580732
0.1471289865880227
0.043842374361221695
-0.43586258096484676
0.19421333454112058
0.44017246333662924
0.10632373665068402
-0.22981030536168448
0.5587782273122882
0.16655716262798276
0.042820309340599244
-0.2264111173665757
-0.13896003271115046
0.19304675761346948
0.20183321458354955
-0.5373653016691575
0.03397427678381895
-0.39286113157227043
-0.010775593703738505
-0.19863461681435793
-0.247372564951844
0.13204473499518898
0.4566173762893736
-0.10202120763422616
0.05965694657393664
0.12312405039237066
-0.2702366164268335
-0.6181335392526416
-0.3910795166174404
-0.5023082524076609
-0.2859501035560397
-0.3303953233690745
-0.1278705689761031
-0.2035211837107104
0.2428861948551682
-0.22398783362628863
-0.44439874677810814
0.3257135807729295
-0.12275823248846403
0.009703744942776345
-0.614826349653036
-0.04298201000955802
0.30610509206488096
-0.009630261135773205
-0.24968278645639796
-0.014931109329000353
-0.2625305833888276
0.0864725996152632
0.15867211166771603
-0.13966808098307376
-0.12676739480414057
0.27701031835595635
0.5488372089902622
-0.18556074053337035
0.17857230314965247
-0.40665566984014445
0.29958001218098224
0.33354626277370364
0.47270653756837083
0.01226654246605538
0.20595148841637906
-0.1526772484076636
-0.13632599656980174
-0.3229812141151605
-0.19713726893021757
0.16740808803632565
-0.1833150706706994
0.2177309382964892
-0.2912454212311998
0.14491710877748992
0.11633965599290919
-0.07134878069848398
-0.40277259942481203
-0.4987050173409979
-0.04478371217713715
-0.2346469567519031
-0.19503728129109
-0.13609071324045002
-0.059359134546324986
0.22989806564959978
0.14449529438352957
0.0660843590926355
0.2631522586779354
0.10272509250170592
0.26143912726731494
0.4208824984498733
0.4163183487025843
-0.3265998745239385
0.2916564420255884
0.35201761621532407
-0.42482665588094654
-0.12707228393982195
-0.06274832394118565
-0.2202968698403927
-0.11307701235685279
0.2106565521858117
0.21896372273307327
-0.31552536408456755
-0.3212988919598124
0.16499127711633788
-0.092543303481134
0.2891371081063165
-0.01807136735068539
0.1737291349009561
-0.12022399187576359
-0.38339768861645956
0.4440224353003072
0.1593468800257026
0.18739217190087198
0.45758330284834
-0.018344253846877774
0.5212090390307444
-0.2098861441948697
-0.028690840990269514
0.05348603334473321
0.0018476582575645399
-0.31301787783189566
-0.3720705418758193
-0.008984316239123578
-0.3654190093766813
0.025811535664570947
0.33582824336454986
-0.19124403061262987
0.31295306428203307
-0.4197602734084932
-0.5425958091024456
-0.3617419041401886
0.350208460942692
0.0366053746937587
0.0006909614730993543
0.12004261079992479
0.16409630058744637
0.04084062262851704
-0.12718815886861476
-0.07441247875508013
0.11857066280150853
-0.0735351438533019
0.1730009719919843
-0.031220921940545907
-0.21546909125045555
-0.2732490593048366
0.08960550953313359
0.39703639540530267
0.16214476206695555
0.14208453053892092
0.1780810497042771
0.139035739632604
0.07241667787144229
-0.27494593057996175
0.1273798312174841
0.3309735944193465
-0.09650100196053676
0.24732318428530103
0.34581264334868683
0.01747887233496097
0.27005076640451264
-0.15656337584553032
-0.1951327149371984
-0.0016598556993321525
-0.3713273150878908
0.40444366845624186
0.18299115960714185
-0.022948554153813194
0.32492876340271
0.05354695908040783
-0.048976881836289586
-0.021901310574490643
-0.09429561825729361
0.10110554888513353
-0.05776633429939964
0.05196449002499613
0.2438992846015804
0.4570757878342586
0.20431815052712465
0.09028266279780672
-0.21102206033431076
-0.13311627799387432
-0.2300148936153687
0.4971683794324202
0.46741497121947123
-0.2617363265451468
-0.019175433396286173
-0.04573215211121152
-0.023233487069787933
0.005032956949200388
0.3958179891301697
0.07709575778950069
-0.19963753742309603
0.0980848693348182
-0.2011438647039545
-0.007561567152959961
0.6037054019764609
-0.28507509880232434
0.20502920277851994
0.0749882719187163
-0.3663756658870878
0.17907525438509367
-0.09104298256917195
0.13798766246189728
-0.17713697002723378
-0.6680919137748688
-0.3047068067937005
-0.027584887235090363
0.036528172374099215
-0.07357398277774484
-0.027920872533517136
0.5129911213133684
0.049810173594301656
-0.19258589098742127
0.15394971723874298
-0.13019289556061
0.3433589100934001
-0.6492698996793991
0.08788321914740115
-0.07583222868750764
0.2376047575056307
0.18481843028133352
-0.6313516916236864
0.24310191348599675
0.3237745791454158
0.13165434535419004
0.04216132391638482
0.30776342153784125
-0.23223834200050625
-0.2010087541609335
0.16376220977267938
-0.1532345213547535
-0.37271857597954866
0.21248230483585828
-0.1344277509877254
0.009128279732323741
-0.5945276055496944
-0.07155618084579868
-0.2698693284780797
-0.11328585351818417
0.03256172509317251
0.4887018551778502
-0.10018733651120092
0.020485460216352263
0.378505295932121
0.016788471172263734
-0.3166888837349277
0.4980302160249589
0.35917631959995017
0.44452326055139485
0.3050188563716055
0.6115976681170874
-0.072052449456748
-0.15583902809396163
0.20282770405454673
0.035429475292894815
0.708110015653621
-0.1699250448509189
-0.47100853522481917
-0.006661717716543595
-0.15957792258428846
0.3230945997438893
0.2226243579335379
-0.03062288215269525
0.383063817900984
0.34839195590106714
-0.31653459973853043
0.07354829168996281
-0.40208545671169454
-0.2714117787150101
-0.031086208328144037
0.1742484225456812
0.05168604092897773
0.3889629299178146
-0.14609785846826406
0.13472581454830385
-0.1136738565642702
0.10430284208513604
-0.42547236140504335
0.01508053871729809
-0.049429843044282565
-0.07269886089609466
0.26219045549617964
-0.15314960094668367
0.26593332988251456
-0.10772442386284323
0.10285472234615196
0.0046812629833039195
0.32801636374022497
0.02788937386908855
-0.3546436328445998
-0.5244672375609161
0.21397805108400977
0.01788446481230581
0.3535686229324082
0.057045058334269726
0.43107548098585424
-0.13732524888322756
0.10629172679002534
0.1619038431588632
0.14313966797850902
-0.09400191786276335
-0.2716058686344259
-0.34864197013133597
-0.23578213496002315
-0.32502208007612776
-0.13994634698512742
0.04937033871326939
0.4775766640378252
-0.40296488402643976
0.21254281127346958
-0.3852984827604465
0.09175553598098363
-0.1839143502140647
0.1297292934815909
-0.3308607145982365
0.15853933226069758
-0.05839120787366951
0.34500105661262187
-0.4234172789529826
0.05096238273873161
0.10579213579070822
0.24967921833593112
0.2910546751328367
-0.17938938625363898
0.27464148073803357
0.22904914453774322
-0.6033679149323959
0.012809137973946314
0.008853716997928994
-0.6446890893453583
0.36935308417587337
0.06946243851535713
-0.3164004164706406
0.3070810118574409
0.27870744884507526
-0.16783959908536636
0.786445296873577
0.15461541931671166
-0.4878698139471631
-0.2927905207935467
-0.3074569114261742
-0.7497160719880664
2.3997139434927364e-05
-0.18870682324803975
-0.20120969544204026
-0.3297283266836103
0.1729469954310208
0.36176046538243883
0.44473230288572446
-0.32839859049017533
0.29926974490816327
-0.04014567809425467
0.2237729241496231
0.20324391276755918
-0.025966629165444306
0.022820881214652658
0.3766814557156717
-0.14628298087142386
-0.40612050925143856
0.016964661642880303
0.4967895017417063
-0.5286824971632585
-0.020225650693268402
-0.3848189116097119
0.13602270573889355
0.21180281292933273
0.16450141466154575
-0.2951757030325721
0.2596848523854
0.4183430593956774
0.026895444830840415
0.013497031931929759
0.15815544225837036
0.10475310233063032
-0.23371611521808655
-0.005540104129038782
0.4654289734721855
-0.012716974727867132
0.20685307852523863
-0.17779134825377074
-0.4745363073411165
-0.504278646269917
0.022686145105157932
-0.282150114324181
0.5878977016559019
-0.4159680524592813
-0.10855825870765813
0.49029424488266604
-0.4069223919936061
0.1255761708796086
0.06362896026160218
-0.037919808081511304
-0.2623916852185469
0.35622656481915843
0.5654682499096673
-0.16360031710494274
-0.35119846308688457
0.1477287676532975
-0.04795811876288332
0.01623332174215046
0.30818370809162743
-0.24161485861676374
0.24015473612101815
-0.3096529699269698
0.15951053135456258
-0.16561447426003106
0.462843885866823
-0.10992386144009804
-0.07043958627461287
-0.3897336089550793
0.13036652590817943
-0.06113384620762609
-0.4706220994808366
-0.29683056008017383
0.19844361580033926
-0.2947685158383263
-0.09795675391287996
-0.20829089808703413
-0.03789351790219918
0.3787480479843722
-0.5642256459288029
0.30620902616850415
-0.3447875298566454
0.13055011522697238
-0.37393463960474665
0.07386334264430043
0.2071578009777514
-0.006686346275361044
-0.08098689888753026
0.29741185581447455
0.1324574066884776
-0.11822363829272438
-0.1926997830535139
-0.11132810119592425
0.09263313054105546
-0.11620189021028414
-0.5261051212865074
-0.6541982782378595
0.21780575846537217
0.15995682398539188
-0.15005726712231873
0.015356620878679705
-0.192788744175077
0.4128845083735155
-0.002242331670365372
0.22131920975811642
-0.15448874811917657
-0.606962944744671
-0.41495896633218415
-0.03437422090893605
0.20546718340832865
-0.07067770615065697
-0.6366581852920924
-0.05287269554482769
0.5250806949393292
-0.1009863444770405
-0.4838518596684543
0.16174152883539855
-0.11260382931400852
0.40462119229723575
-0.1865938734902843
0.49361737603872236
-0.06290348474697201
0.3803224576312741
-0.149291336312119
0.26466420125890616
0.18802727145886683
0.01865389180457913
-0.3229096087127078
-0.37824876745009156
0.33141778695836144
0.02900891001968956
-0.1798414722045413
-0.09815694239513985
0.38055518950485523
0.05932684350802644
0.4194223641649209
0.054554518949970154
0.20679005253664753
-0.5965975346637473
-0.19734365579989524
0.2400524086103618
-0.07958411106018051
0.29881260639082213
0.05391207989576811
-0.18356769387685234
-0.05181588025358371
-0.2237822992183102
0.09789359939896301
0.3206591483353171
0.04945516942347541
-0.35542748749724895
-0.09383835434722533
0.2672361097099588
0.029253354014799882
-0.15882156167248954
0.5667463077656583
-0.3083004892083475
-0.17558067716788375
0.248237966750581
-0.3861348665185857
-0.0008959257136090291
-0.29905959744567395
0.09572954130468775
-0.469567239763591
0.12210433900461302
0.005455281325112884
-0.2034376094259559
0.12112064493461484
-0.15067503314080968
-0.36339566398119605
0.10547335764077016
-0.4132359060424755
0.15344501568790062
0.1925582315301855
0.1834339451577484
0.15627926725965396
-0.2857822450949824
-0.10676891308341432
-0.6898857594419321
0.5137131096388268
-0.14632328146634682
-0.06373093399429097
0.3151787312355174
0.12254815190120186
-0.13317799862926052
0.1408071669986883
-0.32814697618757993
0.36862199468576995
0.12393387401721803
-0.37392161209504626
-0.22604416336711664
0.5682583411838361
-0.02058075850014589
-0.2112196101488785
-0.001592264991437579
-0.013515836000288044
-0.43419910480299556
0.05002154436560968
0.34809579377022465
-0.13579729070672633
-0.08942503854798421
0.20850816004600645
0.06193754045982392
0.45673184127974853
0.200418002648959
0.12957711251570192
0.02262251407087663
-0.5330059090288997
-0.07024267733233569
0.3365998426574546
-0.025042315501804635
0.19441113885677572
0.07864021531754874
-0.42652960139370183
-0.487115229077305
-0.4162778034725636
-0.38226273340655
-0.3813559368159449
0.08379600431882775
-0.01823012424305
-0.4402313559312764
-0.349723954477482
-0.16843546930531642
0.014539470445036028
0.03312829026034992
-0.46437814597684346
0.29872652633520913
-0.2876116182888519
-0.15776269380026717
0.41643177194817527
-0.07105220459632824
-0.24361043132763605
-0.022222759976026817
0.33021134817333997
-0.11097519456614455
0.16380611578506324
0.21956536101028182
-0.5229256025383536
-0.45001396275429717
-0.12509365441733683
-0.006782718804572819
-0.27256474549304965
-0.027682306019729788
0.2560284832865224
-0.05910184601844133
0.1650417735858079
-0.04195869997592673
0.19614103045052597
-0.09298136455477203
-0.04382423756314158
0.1006435881236436
0.4504236092542529
0.2112970766805102
-0.17663290164254866
0.35823920091899447
-0.11496840457731472
-0.0615336119096816
-0.2876086636152959
-0.02853004515956145
-0.30060302064969
-0.17434077742029114
0.21730083649300283
0.2054196894427679
0.040174455814497814
0.4001146748037189
-0.09520060186829798
0.06749158542446877
0.12203977496208203
0.29723663935165456
0.20541542476192587
0.47009655688434904
0.3519886825041266
0.044599261370649866
0.42875234302149556
-0.22581932271560887
-0.0315342197695614
0.3912413610073794
-0.11423056606115158
-0.37217496192374055
-0.24788304788322912
-0.3956148157700046
0.0008407311371705821
-0.05775389921895982
-0.17974590892200948
0.3154358542439544
-0.5209118232767682
0.4720645707954261
-0.1407003884831782
0.0874432211807776
-0.09100903061165584
-0.26842124283394664
0.11217812322385413
0.19874866395883686
0.41032706893556686
-0.1830684285711643
-0.10413144355461902
-0.294606427767282
-0.19549239138886676
-0.3608970868614927
-0.12115713455154407
-0.12294929990407691
-0.04066008958286463
0.4009278454585753
-0.1928309210446125
0.07904456824532881
0.1669728530498738
-0.2652454821726706
0.05275950730217581
-0.039640711341262166
-0.02988254990602461
-0.44859711043601797
-0.14112748255745128
-0.2676088730059264
0.025949128652880512
-0.716085610826549
-0.4506816725400447
0.003727629523692396
-0.0690539441759977
-0.06722976728999736
-0.3965441836908991
0.2595043292885555
0.2977111754605212
0.390866332128498
-0.10848808152168138
0.1111057908241309
-0.1251192578801715
-0.06562488093924115
-0.0934141357320611
0.2033090247440536
-0.2689589030281238
0.26302131099262727
0.3104829873626464
-0.031541476287745736
0.08615859960151902
0.2886837897795879
-0.14711601748832837
0.2290377338318867
0.014056802971187356
-0.24204939945214318
0.16549394765562253
0.3511884639703797
-0.47780685260524086
0.022854420772312613
-0.0372073950569291
-0.02482517079945662
0.13171263581103435
0.0997093148696736
-0.007300757484776923
-0.2903870515984903
0.1243739597482739
0.3366841417008417
0.058677764394287506
-0.11092774525672676
-0.16640517256307066
-0.13597082867418772
0.1583351030954934
-0.11706426104630102
-0.27934026680478163
-0.1219029588371916
-0.1739482834930267
0.05903951394935023
0.05578770187729674
-0.1907120614203138
0.21065861387937435
0.314667141710402
0.14416554236357884
-0.17009123073098462
0.09127065820569388
-0.12596967862749128
0.3561811616723785
0.06449626858838937
-0.08635019632191872
-0.06612778831659688
0.09018917721531408
0.41312558194747323
0.28760292798394943
-0.05357177022363716
0.08449901046187659
-0.060158165827837055
0.16995864221058377
0.45367931900235303
0.08594545241817513
0.11276554931378026
-0.04107086448712591
0.636652651956987
-0.08690719147701094
0.011447138614182329
0.07635669888316547
0.21402743630965926
0.17488908660094135
0.00877219316429508
0.21987010646686714
0.3637980130134594
-0.3553022128223958
-0.2863999496877961
-0.09555270994851069
-0.09758123913821025
-0.08057569945708642
-0.09205645946786323
-0.09370825406773252
0.3523390769331867
0.3516924993727048
-0.2605068994760631
-0.3131184599748504
-0.39390901642917736
-0.07727446692326377
-0.15085742833465948
-0.018446491664498927
0.19706455916620153
-0.15641788887928243
0.34784459896760167
-0.06983987129309682
-0.11583305801481993
0.19202118813197497
0.3033550477972069
0.3138420848578074
-0.011233190490191699
0.18397655878560445
0.12523495047001373
-0.3282940342033377
0.14197797069033577
-0.04051459208708196
-0.050706032858196484
-0.15928381924669063
0.4239484869013598
-0.10756975292556774
0.1985349047208005
-0.032312825248294076
0.033502060269207365
-0.05544048935984622
-0.29381570360718773
-0.0676142895108836
-0.11720074737693549
0.17246246186595005
0.5218473045707248
0.6488070382725329
-0.011123409467271885
-0.18941655719104677
0.3285033655464533
-0.382734684321427
-0.0783178649365847
-0.4240839994781607
-0.08995262137502906
0.0695318323503835
-0.31888208819959896
0.07341773106545522
0.25203764655014405
-0.0729560448844322
0.11832685531124765
-0.09331639641573154
-0.16116346826456487
0.21507894980017317
-0.1303074260055962
-0.017691943755881023
-0.00028528081185378993
-0.10422588928292563
0.21457448953555708
0.2197549536310449
-0.027463409085986268
-0.1820674915405234
-0.06464644217222902
0.3746819415544797
-0.012246463830289989
0.21008815067589934
-0.54886628468679
0.3295826618104699
0.10073658036416788
-0.08639386728174643
-0.5385594227703776
-0.18390338306840062
0.00524587939127258
-0.7630836283502926
0.4911943508588563
-0.1587133113054667
0.4201856426127369
-0.02813921065732529
-0.0657275572736202
0.2835682637056011
0.07216942720496367
0.015113962918216359
0.4210209828083171
0.3440694123873872
-0.34871268710834463
-0.10327459243575728
0.4133538897517232
0.162733483420002
-0.20606223850496108
-0.23567438589056122
-0.35564464778539967
-0.17255734844720425
0.0278141317415907
-0.2581008084078268
0.5841398721380278
0.02167895623064701
-0.1618984711334308
0.2848140416983839
-0.03305662838479842
-0.1682535772590889
0.23198737753675253
-0.11032624646403909
-0.4783342492968319
0.2356946407137063
0.12050127443485087
-0.46028556264227977
0.2850312695195299
0.03907026661254864
-0.14490565922208679
0.16825082971271038
-0.6212532923073769
0.4238254146257937
-0.232880681303747
0.39743377365519816
-0.11738641507428267
0.0929729615135073
-0.39017613806720053
0.1990921072766404
0.19060014130182062
0.2486595655007922
-0.03518679815370562
0.06706928690785932
-0.2618999284478703
0.0382065373213178
-0.06068975395954956
0.1680583367483501
0.19286262222017433
-0.3060881547671178
0.0931817432124059
-0.3378496363904609
-0.358537861622829
0.12632968618838566
-0.508990526714161
-0.3935170116684142
0.2085790248193478
0.05150965060034896
0.056008453835379564
0.6726092746245185
0.03122473978085292
-0.1606489655774746
0.1316333761879048
-0.47576144132160125
-0.12330853567536817
-0.3826272673506584
-0.03159550541745987
0.06015221503226735
-0.41094573001461293
-0.16066001881136163
0.0484368159827635
0.3776951354950445
0.005309353721580164
-0.06626520050847909
0.31631125001197086
0.23647295789369244
-0.17109758571897965
-0.33921622344013186
-0.14370065200076723
0.2670787091165446
-0.04236512716247363
0.04903986478155642
-0.2519311253304737
0.017677937231061855
-0.20014288464324917
0.17049220335699833
-0.07575346815950133
-0.15677412671658172
0.01613199937515045
0.05619602736846899
0.21982457761917537
-0.14771915555256593
-0.25561368117356287
0.04797413282375852
0.12627209750106422
-0.1084364946809429
0.22543628766357962
0.04298089929846129
-0.2154568264837694
-0.12783846940488902
0.24189788045375155
-0.19339153850871213
-0.03681085138091663
-0.4014716130398062
-0.20621433916235551
-0.22078299517006614
-0.4757058029770012
-0.41341606090444366
-0.11908859094119774
0.23195066201701275
0.02869266929140883
0.37588663392228555
-0.5308473090762541
-0.012279171294465758
-0.12374429143294986
-0.2881319521550029
-0.20801019645644894
-0.28534680492380526
0.039650447401103545
-0.30060777382642306
0.0635381075871034
-0.2808389390753941
-0.07892263346483823
-0.1077176818474027
-0.22027740382674854
-0.13721903393299398
-0.37573432923220795
0.055399555014915156
0.19939396807953574
0.15186802426204243
-0.1089333346523336
0.41926703893601447
0.02608407961925294
-0.17798827270662168
-0.043236163100499235
0.22666066371944962
0.40888950922131473
-0.030676465943255855
0.44387063500555735
0.3217971593048087
0.5794799502032919
0.13863029449062858
-0.055695948931488215
-0.18389648545421663
0.27060202184480114
-0.2641330667531386
0.4050588330995888
0.059523723217747085
-0.04497615000263966
-0.059754757637230545
-0.4566018050506562
-0.1533118924411647
-0.23559306049946585
0.17140871887893738
-0.016901610430277905
0.15941639529752563
-0.18526022296850253
0.07819211115384318
-0.1921830177851743
0.10407809333954231
0.14303239851408778
-0.48941080478901783
-0.17048969121249885
0.33257889096322535
0.13071781329176044
-0.063663137458745
-0.3194017587951232
0.005160161529051541
-0.1721031349985115
0.22282308239969184
-0.10505356199521645
0.3058542642720441
0.3882788701444236
-0.024725844700731504
-0.2359665545346352
-0.10331522399822181
-0.06824201932211828
-0.1433055992119439
0.3649802125866515
0.09617724734577651
0.1704162211413426
0.0183607278612562
0.4865449413021758
0.028859728771401572
0.3767261955890258
0.11885898699703205
0.24567528523369056
-0.5291493416385707
-0.017910598788054243
0.061014079449789135
0.28633876713867273
-0.041286675908894094
0.1564772065686766
-0.023804213905279595
0.062562279470576
0.17390986347587117
-0.3053924128099268
-0.16804325537378087
0.06507607559522784
-0.1260220500225232
-0.011142535166182204
-0.17968922076168675
0.5257756989898096
0.6108151794145533
-0.06852370846006646
0.14574590279207472
0.13517687208713525
-0.18768759401209717
0.45739170400129797
-0.24117544516970915
0.04603466916467216
-0.24616372234749004
-0.18365391428124253
-0.034599985275593215
-0.3904397656981949
0.07958944797701793
0.09407575219517995
-0.16823790337560318
0.23853974143982373
-0.07321037401751875
0.030530916119489725
0.14378051424580943
0.1665476202870363
0.3640266410414924
-0.35432857821336755
-0.27955273867740804
-0.06724109264892256
-0.13287058367042467
0.5530472356241872
-0.09440088731694653
0.3292159446727822
0.02743052009421988
0.2556660674143179
-0.2788624644164622
-0.2645979432571562
-0.2886589457998445
0.21595083620191696
0.36751174702926587
0.6468110301934893
-0.5806878138951878
0.21822036392612784
-0.17407187613513636
-0.2781390372024923
-0.2818315111631435
-0.0412900586543385
0.1544784331974294
0.2102934022033033
-0.4584287338353208
0.05818775325242409
0.08072415659874715
-0.10649666653932059
-0.30671316704364177
0.009470578383293632
-0.3793355636290514
-0.20586421747882822
-0.2677021536468127
-0.04163181720946724
0.08308568634128849
0.03507718583132574
-0.2953570253731129
-0.2184252798840154
-0.04683734420537987
-0.1281717736411035
0.16929823354696738
0.1201028334891987
0.1535474502170113
0.1275267622696752
-0.5495446784505673
-0.1093608617227561
-0.03877443402505356
0.10773954568062981
0.3273772940285296
0.24988665430683946
0.24794401466953098
-0.2909426548605541
0.040831560145757395
-0.16403539433181671
0.11191457857472824
-0.05039238748932959
0.14630682210472382
-0.46367315212602905
-0.06070334912913805
-0.16893627231590078
0.05412479097956425
0.20519852722997975
0.4040267248357223
0.07356986733482972
0.04969350415359076
-0.5514831609339038
-0.4609041595825989
0.29089229145269163
0.19963447090399886
-0.34850362183857714
0.13138554318576182
-0.027519499149168812
0.151128342051602
-0.04472486356011051
0.20005125567408152
-0.24084990037974313
0.1428827459002651
-0.5264860461744585
0.3131131172718249
0.019503679918149917
-0.17305897371599452
-0.31478880292132366
-0.2245369882530845
0.3114821360259606
0.19443798342890947
-0.2709822580491188
-0.3593283595627579
-0.015016039667758824
-0.19815170038816873
-0.06474751838374206
0.108771277213479
-0.31081802166080835
-0.007673505014779663
0.03388071271816833
-0.06672046058168295
0.15202877639674475
0.19955384910112134
-0.20863255686326976
-0.578334152851702
0.6131597887231185
-0.34065153107111035
-0.09088688532720181
-0.1825991313598506
0.3445709086365049
0.11945877817716713
-0.3645528958259343
0.028455355954669286
0.08532945306196243
-0.3701665587991857
0.41830495939932216
-0.2314483555380031
0.2128995618125486
0.1287467972175018
0.4403448040048808
-0.27676209604908086
-0.17744443660420836
0.2878503274916947
-0.19314050897512422
-0.3044459232147963
-0.5071306143995122
0.0905957442283059
-0.13706879338324046
-0.11559818961432816
-0.13410426861230604
0.02336529830620001
-0.07157457985102168
0.31235392740761286
0.3446612997348101
-0.08731054463242668
-0.011492402259190179
0.19467189366161922
0.3173175886542489
-0.3961723782969518
0.29694744100333115
0.4512361082319688
-0.1521731544063729
0.07371172374648716
-0.3840879450382174
-0.3771512114362363
0.14015934620804452
0.0470901704788591
0.11910821580488015
0.021803877299953325
-0.19750592863774055
-0.10270480862426866
-0.1906122095786757
-0.18641941403841358
-0.08702181536187688
-0.23161469278421992
0.18981906006795718
-0.3655217917413494
0.460805476889404
-0.5566550781265854
-0.5408303276001675
-0.07857085339887952
-0.20963485322891268
0.015406050777993749
-0.41472767109900477
0.284747698522709
0.25671903268524177
-0.4518340888374263
0.00748567129532964
-0.07253617979949051
0.14536623274227692
-0.33554514254728
0.40462512328312594
-0.166553665563867
-0.47735953903875683
-0.38127127230293706
-0.2773994631268251
0.167023991172285
-0.39763964366537274
0.37613184962523266
-0.07754543460854006
0.39902280338971285
-0.304355509784248
-0.2066469824979141
-0.3147349806131112
-0.12224296367693192
-0.3250919137418739
-0.3572224404829645
-0.25956228646902313
-0.40993913044081914
0.23864002842700724
-0.3107838888681297
-0.10277729838180412
0.31298527974317447
0.11657205428400978
0.11612300573589836
0.43043131492575026
0.0988405116549703
-0.25599529878632404
-0.2029253141488612
-0.2449240995265679
0.300609649473565
0.2576914119915577
0.5712752476762645
0.012313531426174314
0.021422299888610146
-0.4085217492501549
-0.11440094542566805
-0.05118030473588318
0.33663188517216036
0.02049356566374271
0.33881013159764606
0.07092168673339504
-0.22525761882185857
0.4444672712558785
0.2047148253152862
0.1455201474665092
-0.49030108160383973
-0.1827667468303949
0.1778014583627386
0.07737402585246078
0.34734245893716753
0.12461691454954603
-0.2888464045839963
0.1195289602862181
0.04543465539079097
-0.004212430994119743
0.024164078483852405
-0.1760518551863328
-0.3423795832152821
0.1749510665981448
0.5760751301848801
-0.03572485455373465
0.4461474493217492
-0.08474935629044686
-0.007150812273753808
-0.3389414751619534
0.12064558978535639
-0.17885109395363794
-0.21353930631037082
0.01308948411556615
-0.3783727274856077
-0.11365442582202141
-0.2903347096096241
0.20410908740053246
-0.4118454241129205
0.12409738242147911
-0.29317747369667974
0.004656280517168463
-0.16832479524097918
-0.19131111611655027
-0.026282679991357628
-0.3710484180966989
-0.06413486907318962
-0.044135763129925905
-0.5725579229638702
-0.05065059516208566
-0.13931592801503895
-0.28684596100016446
0.014507034967787385
0.030932668643216196
-0.06120616586908356
-0.32743814453287445
0.28544166674511523
0.03518574695254247
0.24067557597762643
0.4211158180119679
0.2786676340560156
0.19220842534900237
-0.208930336825836
0.2958097280276561
0.10344093415271483
0.27259623863999893
0.41762920054293867
-0.7039918624664409
-0.17415126873570752
-0.18525766295474505
-0.17428082287921678
-0.3309001458360615
-0.4110093569573034
0.4872970560328834
-0.17075847966703248
0.208957250357058
-0.4040014444012605
-0.24271676541275258
-0.25709839969686576
-0.1289405984595656
0.0787797266687609
0.24559432404978412
-0.10185086458127195
-0.213959262871781
-0.00587389254337745
-0.12408651307881324
0.36893782663816993
0.10798543371774287
0.03321647252520794
-0.1391651400861222
0.21463311027533585
-0.056254097413812446
-0.008913166955497922
0.19326214972840913
-0.2586302223258746
-0.07286778208084216
0.1396816583998602
0.10476831287972209
-0.028185166451488632
0.18390407156350647
0.45410262957758946
0.1667466241442562
-0.046576126580835854
-0.39922420728031927
-0.1192161487044835
0.03862201686373187
0.15645371935358274
-0.26022073709471677
0.26446741145619596
0.3985241701323101
-0.1583880791215767
0.09211462249915847
0.011847257990425967
-0.26446922360825714
0.018693435479646373
-0.39254386914874684
-0.48579399031223247
-0.16535031781053294
0.477459524951561
0.028749795584106293
-0.19485876975611335
0.10794216422308392
-0.08745612512328281
-0.12440321590592596
0.34011192225998815
0.3296290711787891
0.08930197937492065
-0.03526614239925757
0.1111881072953948
-0.3684490027149195
0.3299766194626338
0.46500188007186954
0.6744529295226619
-0.11406231187780015
-0.3059241000128411
-0.09024303969611673
0.341746001246814
-0.01494113566475829
0.29439022893051353
0.28670723216224886
0.162298166805519
-0.18654524674274037
-0.030157680080207437
0.1291186665970008
-0.35072723627369085
0.23688002322059587
0.1240799727594095
-0.2230029588184808
-0.2198219383927745
-0.4587005284708474
-0.5290052147500783
-0.08777690957856196
-0.09683291357840794
0.3442292062328669
0.30023836279498545
0.021454029563244315
-0.06679641657911488
0.35968196490166393
-0.3128989580752517
-0.010914862763903263
-0.10135695630862938
0.32151079823287243
-0.26718747284822825
0.13529453542632036
0.5338924341654522
-0.3867117716747264
0.33435013512750733
0.1686728466726451
0.16136009755063369
0.0693253268596725
-0.20150389462758153
0.30671859175137306
0.12740315546204004
-0.01445349824765963
-0.02404980241068633
-0.044225155928136466
0.20676203055669282
0.1914206869920435
0.18565722370228221
0.0681953447642414
0.15895878518942624
-0.20597296934899295
0.12904156446614046
0.16078080061862124
0.17751141840504758
-0.2678838126914093
-0.5220636934971364
0.18512934996896896
-0.4886152432559037
-0.11343101153324919
-0.7387474289191878
-0.25028421941669876
0.2958711762146539
-0.007747274646362298
0.0026754803462684914
0.14843029092310356
0.4395245318682011
-0.3755452151714657
0.31673165729309144
0.01631543899333039
-0.4690773227545826
0.2409967100560004
-0.36870419004071714
-0.08868832907997563
-0.25416358617634655
0.06392517711073206
0.020658758406289217
-0.35293817203076205
-0.22021023042860574
-0.4079576918442869
0.3942599478368455
0.2554482146708114
0.02446043396889912
0.09228140866159407
-0.17840598233534527
0.031091069287708613
-0.2663538778689815
-0.30666151535747393
0.5295045062400812
0.2570572851022357
-0.5243568748271834
0.10428143760516016
0.37060729769037126
-0.019854547541003555
-0.13004095703226468
-0.022668365399507794
0.07553240251423411
-0.18193992987495003
-0.2731488292985826
-0.11290794426437074
0.5049813723772562
0.008731435926270606
-0.028596097022300853
-0.4990748898596702
0.029902581878978065
0.3288575505261992
-0.7794335867833588
0.26113461499426793
0.48045437919524053
0.2113670653331257
0.31795967509427486
-0.04022526302085099
-0.24984792248372695
-0.07218632736385477
0.6023625837767806
-0.24631307543339076
0.20163324847623845
-0.09451469810530418
0.22166261878345875
0.151599269832616
-0.16140250209763377
0.28286895894530617
0.04372838709878681
-0.0227128394884584
0.34132900869755456
0.5449581429900499
-0.4117014176671709
-0.0474340418938639
0.15522681318485174
0.0374247670669573
0.07970235564623486
-0.0008593458924727029
-0.36781822067580616
0.13911333622429387
-0.04984115720289082
-0.0035915395631225633
0.11339835186661572
-0.5222637839543638
0.3611289504802036
0.17872852630523337
-0.14083136000897514
0.1653543378587662
-0.2870169747561238
0.13799883313502959
0.5396241553925587
0.22505344032583866
0.19132930904225076
0.6370009832123135
-0.3001539385963312
0.030968385906147453
0.24679825136543207
0.052465945165740074
-0.593965373162809
0.18536184463133454
-0.15220446445455768
-0.3400844587418964
0.2528647909503942
0.018838036134552753
0.15081055330760348
-0.13275462210169187
0.23197699363570556
0.19368386722272765
-0.12410984080222451
-0.037002732770543056
0.4654021818678028
-0.34682754637018925
0.36914534233191715
-0.2906718195581976
0.0034961925050912192
-0.6656856309947164
-0.17799717475459764
-0.3078280730391035
0.19621536624081776
-0.08636368715718795
0.006957166982345237
0.3453268649763995
0.3031951705111541
0.28388500464226496
-0.32952689651031736
0.05499659387009012
0.36243107099504246
-0.4796188683387695
0.1963792943481679
0.0037448984024769875
0.5023651341333286
-0.21739014770834164
-0.18889599789727146
0.11540795960778623
0.07226368220191984
-0.16111673164119156
-0.291614751558964
-0.14028281762233666
-0.03295488784169561
-0.16212070096004672
0.24674166192277674
0.3484936574325105
0.08170304297587726
0.08859067208896489
0.4273926225321621
-0.1809646534331672
0.3305918980708971
-0.53977417858269
0.014424813553289683
-0.11747712618622976
0.11655727835370022
-0.07730406742686625
0.20053080514514268
0.11765653453018693
0.25332923239813254
0.0952584883789462
0.0844798601356182
0.4884027222447238
-0.048694513122490846
-0.042947595702597714
0.3131495914405971
-0.040797961498957654
0.34407550251567975
0.24546910365417554
-0.12929406253042636
-0.4565353516944489
0.4062299019861688
0.10184939178194374
-0.10673058863828888
-0.08533742360554476
0.32124712505000935
-0.0012814555409465364
-0.041389766800418476
-0.05397095746252507
-0.13981976922558162
0.5453349648235619
-0.029122704095797987
0.06235148101794838
0.24795846139938074
-0.039579221343417834
-0.06845739661414882
-0.4664571272559924
0.01628620133403857
0.12000208976572943
-0.025464959024244404
0.4571438535567766
0.4218434953856253
0.022163258493288786
-0.22410431200125525
-0.10178315537076607
-0.21195463768750994
0.010985325025817907
0.38048611336362875
0.28549706675344994
0.09593325678003906
-0.3687353599909478
-0.10906308659491387
-0.15126569267715367
0.23137959435870145
0.3316100878803719
0.2495379544141138
-0.14889966883410713
-0.01300976724514118
0.36023417257317464
-0.13482695961711869
0.13439983806592748
-0.2858387230352285
0.3649783272327864
0.4802171571492255
0.43148929318168144
-0.34230911058166147
-0.2215999870599727
0.523562726641775
0.13811756198963696
-0.295162923434435
-0.31405481736579477
-0.013687342683174909
0.15789127298221495
0.013604745348732579
-0.1377078872793052
-0.5951422924467824
-0.47916584706211
-0.13552402524268256
0.5079036794052525
0.10250574252859421
-0.34570122418574806
0.03943596702828506
-0.012397669739198784
-0.1906493316568745
0.1255826497545043
-0.032038968059317365
-0.04399811890694681
-0.0793120379612192
-0.12592483086379397
0.03713851255533933
-0.40511428578124553
0.13313053145796366
0.09697810050035638
0.6660128908558782
0.08091965004422806
-0.4101081874187517
-0.2732615964924818
-0.63930917423035
-0.19869647345309863
0.052552840881898565
0.5936789164776295
-0.019605120010079094
-0.12240761448938005
-0.1878062084132724
0.5716416843262977
-0.07812754113007622
-0.008358599434391501
0.05570643839214488
0.06385476136192501
0.3863385610229612
0.1287889011883326
-0.2803873791073162
-0.3549165473032754
0.2536962399871255
0.20431168280109002
0.12517509572397875
-0.3705674198504301
0.34369423558423506
0.35720003719566157
0.18100054630512277
0.06911143613221188
-0.42727658152202236
-0.13850131180365235
0.11748208576392327
-0.2492916058710041
0.14197425166846442
0.5352292886235755
-0.3558351713210429
0.18319223056644396
-0.1226916361178064
-0.29748746960692984
0.5010497819680908
0.5273052025871088
-0.4023970549012495
-0.04818590412224377
0.19282806799631141
0.1391172149897241
0.06788521937892007
-0.14584149259049234
-0.35151137523799203
-0.14086716156433504
-0.23308494640723296
0.03742397842909614
-0.1589662259003
0.12418349685471722
-0.7212853902698998
0.22272129030003068
-0.16031268954804329
-0.23821989736631344
-0.6263764424331746
0.1005604440639485
-0.31509231632221396
-0.5050896450433067
-0.33709502741855946
0.07880551074603277
0.2072677871991111
0.04827692659964666
0.3435074953202328
-0.21040007628960405
0.23537368081571947
0.1004887910630575
-0.1989294495392789
-0.13400263624356992
-0.08299922400803686
-0.4626015580860777
-0.01609973990552827
0.07776124307253701
0.26097926908752417
-0.16590563538660977
-0.2415169860075609
0.27650939397974156
0.42518720049485387
-0.3204306721235735
0.43844127994771975
0.19229214885112564
-0.21581369386249108
0.1209224142048977
0.06795213213101708
-0.2493804482197031
-0.36048168755180715
0.16903584514001826
0.2901602111071289
0.025449959010917667
0.3403644738732347
0.1300251106765645
