weights_cmbo
-0.18118198396991092
-0.9341859339896503
0.732760841977627
0.7062433182189571
0.2110723350173196
-0.19556678528304317
0.7353248685028251
-0.04263609037995253
0.31027040499988345
-0.4341027269352997
0.35393966185049686
0.6868492207663894
-0.9870618075693982
-0.10264610590888434
0.5136962703993948
0.7368308869818065
-0.12611682000429836
0.3018469649191453
-0.8389456702243825
0.5311494076961056
0.8757448704238264
-0.9637660941770925
-0.6990921538126429
0.07508083707932456
0.09833556060228199
0.5633641757667236
0.6430655138125771
-0.15489424397420626
-0.06815141362579547
-0.4863865109590291
0.6430459676123677
0.5766404200670598
-0.8667844176018151
0.16093571246857552
-0.8510440446266871
0.39020757075091916
-0.8910592867279186
0.6356536967284334
0.6934723132739369
-0.41091027302751804
-0.472273078300276
-0.5580755011141119
0.2576498943646319
0.524728750222133
-0.6282807601329048
-0.06667401743372503
0.5260214479377012
-0.5964240632173248
0.9494101581372334
-0.20696273954406408
0.11563508652863308
0.2108828848790476
-0.12128997519295637
0.6089154403031094
0.2596299805699167
-0.869571122335894
-0.7442530964362017
0.3425316545982271
0.04131976117564218
-0.5704834318507019
-0.08247193142902853
0.2126116688364923
-0.01920210158658664
0.835041353025846
0.25422276426579904
0.3271762199660111
0.8702444435508654
-0.07261479099934776
0.5239656523685297
-0.9721733822145884
0.3308869652288253
-0.8183032092398144
0.06421583755591476
-0.9692590799917755
0.134247593651037
0.009614671246621187
-0.7595518964664691
0.2529470357406802
0.8155318588900686
-0.1753579337920681
0.6995644766054734
0.8992580649254873
-0.2076846867501665
0.7824509316795873
0.5505168980181878
0.5792076740590169
0.5570904455831096
0.17733192858088187
0.6465637557800612
0.10988961680211862
0.6756547560368067
-0.32561235920919374
-0.006545247218641137
-0.3101921712072211
0.3060202069619422
0.2844474215903767
0.751526365978435
-0.1947451803087501
-0.2768898813428484
-0.005718115618386754
-0.46171319135562006
-0.5305281823444026
0.6386940451975909
0.14781062178577464
0.524468979167324
-0.5657690735599203
0.16223897338441873
-0.5211143152441544
0.31346570685432007
-0.6733670608575784
0.9133138564851038
-0.14294639271082943
0.7627222233956215
-0.10497602958214092
0.5306071264560352
0.3249548182042228
-0.769277959980611
0.34065284642763793
-0.2926265073098451
0.9354249262733945
-0.21076181731586185
0.9007725133773599
0.48517837708504885
0.6836107259894004
-0.808424631323063
0.9863009660903757
0.34999982184778644
0.14521022542871842
-0.233522804911783
-0.029278073549442007
0.5852844950109073
0.07472222959734065
-0.4450831011014389
-0.8672025395679559
-0.4555855897636185
0.14827215059668508
-0.6590825236782241
-0.6061592117455166
0.3065692870754051
-0.284699111132924
0.10855237289947417
0.6388498520812935
0.08023265146057934
-0.1058946900937352
-0.9919252837490786
0.33114437879869985
0.8467525051932765
-0.8214353451494734
0.6296654924262792
0.06420699331094326
0.8840775419397942
0.12099627607053365
-0.23060976766681085
0.280424106577694
0.6157121346238155
-0.48762882276088626
-0.5595171825586853
-0.21377110305917957
0.7605453500403467
0.2647841357856684
0.6582656876732438
-0.8219769603344709
0.7276657547609315
0.39597651096583064
-0.8541374475170322
0.37784751824353036
0.2761153345483831
-0.23622088211426906
-0.05086389505317923
0.20407092516615988
0.6996871372781808
-0.23016833331115616
-0.8506034342214894
0.974234058639369
0.993136027523613
0.381203180792262
0.9860115294186553
-0.4667231421593341
-0.1583508815088246
0.3123082489302549
-0.5839439884819653
-0.7473313613999744
-0.3798430639987751
0.037560668189255075
0.9747223155569513
0.09473199105938601
0.7878684206077275
0.9437408968637402
0.018267886415894274
0.6567766029089637
0.10185153488359022
0.7267200702423591
-0.10341325422395564
-0.35956212510082763
-0.8119753258684823
0.5867915867238489
-0.30137757289590206
0.5651868069183961
-0.8205443027471429
0.6223426069011615
-0.22681191605750484
0.8488347435883323
-0.6701986776602766
0.21170275237518132
-0.7177946598892686
0.8636264228365416
0.12783222721074172
-0.2318336666959797
0.9245379964788611
-0.91427030237781
0.9933791138380632
0.06305377404566581
-0.4513739974029751
0.6032579279128629
-0.02974499272023179
0.13042870746336743
-0.9732592360664929
-0.4168962880154836
0.31161981598365474
0.4052965601546612
0.31318610771789435
0.31979212330207285
-0.10531079064336701
0.7038016442621782
0.09130965224408305
0.7158489267365828
-0.7041384710230301
-0.5733686886389546
-0.27031778548110075
-0.23425720804929817
-0.4067557370300914
0.3640273538711487
0.37096332944758803
-0.252837986414687
-0.05507927322059736
0.20127454099391517
-0.06367599091174414
0.07049512165218164
0.9717415674246761
-0.2438030880957025
0.6591679929080227
-0.7461012739822515
0.2386819729267724
0.646421167633799
0.6197795773037149
0.2940434178532645
0.5988855911798094
0.30870716990548486
-0.3431065206467745
0.01602239775934078
0.5212930698769345
-0.22688368941376025
0.7214669000740028
0.1932885154324686
-0.349274166012689
-0.14243077899498502
0.8821102240061736
0.7945098212199087
0.6638881744236522
0.6505699917558814
-0.8272318402844527
0.12925301319705262
0.019125898377680972
0.7542457902985724
-0.6844833569417554
-0.5143738744743889
-0.22797126208858276
0.6266908731616578
0.7592237944545794
0.48991628611105464
-0.7084848196903071
0.7754397157852388
0.1631883867396331
-0.10490188663790811
0.6320602278886949
-0.814935926452943
-0.9112748921031877
-0.3769359879619594
-0.13582194526896907
-0.7248941220260452
0.05799499282989529
-0.9324113258879236
-0.4994562338894566
-0.7159446340907223
0.2534455040109582
0.7755585934864277
-0.34094672918226165
-0.279748160697159
0.19932625677637272
-0.09156379080009636
0.7664589578657266
0.7279626317176409
-0.36832707635536477
0.7160536746453203
-0.49073887020547846
0.6078890856908501
0.18436036600745087
-0.03339688476816649
0.3777044070023119
-0.2585898094850225
-0.9541761390118875
0.4300164712438872
0.20368982418763526
0.11231626289018593
-0.22073854351850652
-0.7477074279078824
-0.6656731997635723
-0.8642750088079971
-0.9148108067967615
-0.5859450517891691
-0.7605355502398228
0.3017354251416171
-0.3581217351339874
0.7672048146245025
-0.3929555124519879
-0.520002339610657
-0.589754828813635
-0.518362790582457
0.1283907736603651
-0.7598732158408528
0.9300752720541947
-0.6466268325311149
0.3368708651919854
-0.8683890815128832
0.2680700634555264
-0.5183847216817201
-0.13918650868269555
0.2716423544422406
-0.44759283073094713
-0.3721660078992075
0.688566451865803
0.021566934941363858
-0.08832973240872599
-0.9287830371587409
0.3683436576157648
-0.7646004226649707
-0.2969862262373819
-0.587099196511635
-0.07598465618169636
-0.05783983982018359
-0.7986708262437239
0.8550263639637079
0.5909259026646965
0.29500720540402625
0.6501318089022161
-0.5244120021248906
0.8660338828067631
-0.5833889127062515
-0.3656904352065724
-0.7909438445489787
0.3988513249731942
-0.3257705933805326
0.2999514720256966
0.5342588844626668
-0.6976204330327169
-0.25325239507438324
0.2988723819918506
-0.7816588459040825
0.7449474402283418
0.02940679851053818
-0.42582417870717526
0.8732091134764748
0.8602782704936736
-0.011447688040609583
0.4630765384657676
-0.494976148494471
-0.5267522693181119
-0.31154550241079404
-0.5521170683986687
0.299248278878391
-0.7656796126129333
-0.5377645529260155
0.22282074925854967
-0.38597324405355793
-0.12214149602732349
0.7779394117339766
-0.3903266131763048
-0.5447329242301786
0.3732553074430056
0.15016052039312955
-0.8008995904233991
0.15812696676586735
-0.6415836239705959
-0.9020099797285364
-0.1690243028298386
-0.7634172490526827
-0.7515283111160176
-0.5580328534059422
0.03742764045049851
-0.03261356524846737
0.6564308405784545
0.36071255195133123
0.6701737007373465
0.9081399421764622
-0.6102084329394724
-0.7756890046987233
0.4217777959501543
0.52158193625643
-0.46322169909870925
-0.8161120273821321
-0.5166122293814723
-0.13342357671260752
-0.6416979601100252
0.3856350694890873
-0.6333802782077582
-0.28203415962966005
0.7834393849514085
-0.7529843561559719
0.14762827205985318
0.4460759742326794
0.28725851361798416
0.7502796205578408
-0.1814935959642583
-0.4524770075535025
0.3345342870502359
0.248009217343373
-0.8287663073478688
-0.23673394681349924
-0.14146329439739258
0.016726820227622285
0.6751889710872863
-0.6382680136923908
0.20510689738133991
0.3073277439802755
0.53263105989935
-0.30009024507169224
0.5526628516308771
-0.4829840010590709
-0.26292410657778276
0.9724779516869291
0.9010912318785089
-0.3995411744318129
-0.6976920673633389
0.7700090090011971
0.8450062463767856
0.4644917254646965
0.4966501281962101
-0.2523269462059001
-0.47556182853003537
0.40609222982702775
-0.11042434543258062
-0.7746901563343362
0.9797278438697208
0.03381227635773909
-0.6149768624512073
-0.15623329114622475
-0.4464134265524986
-0.44600291970258343
0.7171839601113608
-0.5223912445927452
0.6577759127225535
0.9125633849444823
0.6151457508211364
-0.5492496357580259
0.06524951315698924
-0.19845640744133308
0.5190762641824527
-0.19199832322395083
0.6668924278262811
-0.920020070858176
-0.694687783141011
0.8286261676002828
-0.27924138463928583
-0.6929709056552262
0.5008816661613502
0.36458008977771006
-0.8825766121242162
0.08478064726367851
-0.7700643953384205
-0.2390066252868539
0.5305710092401095
-0.11695999513536082
0.24103381668147983
-0.9132694849666088
0.692858852971703
0.7389322117494479
-0.04183087149811349
-0.5536550366833826
0.05843155234790953
0.427840119607499
0.46003624871036974
0.7737323254891408
-0.5331434187191486
0.9704042780119466
0.4682033272791959
-0.9618583628702049
0.6202802007121861
-0.740269143478999
0.3080007988787463
0.32483059885642196
-0.22437414030853575
0.32994313579276136
0.972686451717168
0.7392774718137769
-0.3066428967545185
0.8839136317784748
0.06838768925153915
-0.556506073505916
0.4347638967040153
0.8223603542224422
-0.7867568472838489
-0.3328336911701213
-0.5135544280707918
0.5061393279544815
0.3868160548536448
-0.0881625042237304
-0.7375580152827454
-0.451809922934425
-0.7620526072723417
-0.6943420703953722
-0.6935974093291437
0.16247090810442688
-0.10053999406979508
0.4327407271962409
-0.4905171634432324
0.2730895177595629
0.10023712883431246
-0.5393250005453805
0.5636325365323869
-0.6539475025075867
0.9658015737344343
-0.38343440533301965
-0.26540822673277553
0.7947385408726919
0.13709467883055404
-0.20926422662181632
-0.9155285401962523
0.3822970749828576
0.8284672285546413
0.3120695552893229
-0.484430798329766
-0.2157725092695444
-0.3035502091057962
0.10577832411502941
0.6230540401141245
0.0045375516076904265
-0.9284951498494209
0.7055280362766359
-0.546899489671471
-0.4149617687494711
-0.7123372360075528
-0.41296019600477285
0.9663360887768073
0.2899855085908829
0.47663960942974204
0.9764446549225265
0.33332952405627747
-0.37616858635798844
-0.8924714416818478
-0.6838255806849123
0.8479888597526437
-0.41482362050581134
0.6735141352148319
-0.42355811235961327
-0.864319641935996
0.3307189585156671
0.935676814870886
-0.33364211973984714
0.5688512374673815
-0.7159900150760508
-0.9546735373051574
0.3839411892573137
0.9615222234337168
-0.6180555018937495
-0.5757778726102867
-0.7387029334972763
0.0024334582196474663
0.8048995686345406
0.5637613613846248
-0.04092814111433052
-0.4863615671543966
-0.7217440823656769
-0.7884864175374127
-0.36389639697912135
-0.48659821130812797
0.9966674574002545
0.6837618755528023
-0.19245869803688742
0.5617661564299501
0.10772851011768547
-0.19893226221143157
-0.16940296495800755
0.5171590475214571
0.10843058006488482
-0.16603692268373016
-0.7139269123014806
-0.10615142004917955
-0.30696221450035543
0.09878193843702698
-0.8821985311725806
0.24206558886841867
0.5920930044474639
-0.7317063641644894
0.855920297913175
0.4537164609827502
-0.6041757434780837
-0.404636834872768
0.004084590942695199
-0.22709606650668035
-0.1247007284602566
-0.5489521888553359
0.8187767142477274
-0.6444288361396702
-0.7003565170927848
0.307070912066562
0.796975028374163
0.9041185267160965
0.306123942479416
0.5861267306915499
-0.5550867513324229
-0.5224104658447926
-0.23344508911329132
-0.23680426013389155
0.7290646963263026
0.06821178614298118
-0.2453651709657627
0.9940668018958112
0.12406847786596753
0.837328157818106
-0.0003479766166549769
-0.749159934871982
-0.5557046289764851
0.6492245771774252
0.060878199048417514
0.9820481448005314
-0.08609104828093228
0.4918983890661861
0.056732489228126015
0.10525371807184536
-0.29615459056736926
-0.6361771366615416
0.6249463993223736
0.9896005525805465
-0.8961189120956792
-0.6556611633722957
-0.4755506193046697
-0.07255778569441484
-0.8752478845268272
0.9193771618674593
-0.7511359702248821
0.8395653966128798
0.8760932361434182
-0.10240734814564445
-0.6318007811990753
-0.7472087708288218
0.6217559720294008
0.3346346865143235
0.6508053868474535
-0.6656118655103436
0.6472942390544827
-0.746643072125559
-0.11351681595823515
0.5393923124857154
0.4610802277057109
0.07002988126200549
0.914220867245428
0.5619608849473996
0.6964341321674798
0.7063959278421363
-0.18518213897708602
-0.9626515643304785
0.019456039139594372
0.21633586171962005
-0.30500196793639
0.27922850283726497
0.21888814607327967
0.8992876243744081
0.4715103298256962
-0.6620045952498161
0.6895370575537023
0.3357221061992506
0.2781767183303441
-0.9462564214235627
0.6601127450009086
-0.6367646961001152
0.49003917469128955
-0.3055686685098815
-0.8622104882741433
0.45991648332148616
-0.553454220254562
-0.22001215663761364
-0.6711871445930573
0.9300251079337194
-0.7371115874233043
-0.3011582854899677
0.12697820960172157
0.5183879200688315
0.32874346371130625
-0.45140141933403677
-0.8800353372388345
0.06860227614057934
0.2936299670603477
-0.16489267423657594
-0.8027571664650577
-0.458973253898715
-0.32249102705246346
-0.3473520846874272
-0.9400367160186571
-0.0838420022865356
0.634265923143476
-0.7760314152802612
-0.04399278299844833
0.6347624167400798
-0.5535657047515612
-0.6170057876139139
0.7836761657914049
-0.2595796855569459
-0.23053570721860983
0.7738408578989415
-0.0398522231102576
0.5472750696366067
0.09421527608649782
0.0020313227344446183
0.1580194746008141
-0.2402559344408981
-0.9206531549828454
0.6856061545094825
-0.5116696974323589
-0.35861808714192
-0.024611683978319032
-0.5587238176844027
-0.9173116366979306
-0.030179392859698728
0.9176810813498091
-0.2460080084256857
0.8260945658325283
-0.894235829888884
0.4924168351408591
0.1454999950269622
-0.7694440042218593
-0.6804413942787877
-0.002877692202722937
-0.248860053645104
-0.9310557590978734
-0.5212439925471133
-0.7820439982262095
-0.8346683118137477
0.19635750484159575
-0.7917745062413268
0.7213327303855954
-0.8003616219115373
0.23163803223135382
-0.7617502892984855
0.896001579505803
-0.883342752624301
0.6448605591706564
-0.45335006819738677
0.07991254806660186
0.3347687761664908
0.2797033466713572
-0.9487119997815154
-0.24142871047878645
-0.8887732025356077
0.2217018968713953
0.3374589136369299
-0.9246093059299065
-0.37565758041092057
0.7851429228623916
0.8286170641950914
0.4604852397313992
0.19309802198424575
0.843574805381027
-0.15325213081729938
0.42459656408095636
0.6152956648724177
-0.043259967874694105
-0.98205346653669
0.8506076268355063
0.5796164687277185
0.4117425652161706
-0.8604030483707921
0.4378124548069122
0.04831265145758867
0.8819994346124498
0.6208930440553353
0.05094926930515564
0.7014066039635183
0.6816277698829405
-0.5083510854333624
-0.4703081841165775
0.36413225490696943
-0.7864667009452393
0.49027118464017705
-0.07512889049108606
-0.7106718854287735
0.43941702267472005
-0.5669252688588442
0.870629542310621
-0.2870752790980817
0.38820737772618563
0.266513051871313
0.6317378500230519
0.6579483555935559
-0.8173521170373435
-0.09877312424314844
0.4331764814307777
0.5875332669512261
-0.07373275093347509
0.1749055880451469
0.3301747000402737
-0.38036814218672066
-0.8232297501610581
0.616223790650879
0.1626073221531219
0.5032947342484353
0.34165836498044944
0.8545967449823215
-0.6314736818911364
0.7439617578751141
0.13705930968395874
-0.7380564839432826
0.6901806270111865
0.09774618767667298
-0.680809518887399
0.5617389675294886
0.18167044677315491
-0.6397339357844423
-0.3677697964530662
-0.1385358496556608
-0.2534261664344093
-0.9522046491163745
0.6850574146012427
-0.26567987394098425
0.12348509648646999
0.39813984527706103
0.570544289326699
0.18686549087363558
-0.24253396883364742
0.8071196144751323
-0.6777279518274564
-0.7658103938107292
0.7054305375710743
0.21468522202832352
0.431882564968342
-0.3582927508275402
0.29585916309326676
0.357326618745611
0.054124735281837255
-0.6193431855010796
-0.5260039388042344
0.8238584876454131
-0.2954308144814777
-0.41044975401860584
0.2780102277994927
-0.7882004124532602
0.7126933587519944
-0.949813578262863
-0.3391636937961411
-0.43826211547768135
0.45854716802959894
-0.30032303644923153
-0.9348025851646966
-0.3404971283547682
0.21142651901511478
-0.6376525798811843
0.052616115437085664
0.8367585774688402
-0.8943646130894705
-0.21352939978878815
-0.8650432044133829
-0.44543363143062487
-0.45843367924765777
0.14717421433904443
-0.377539997989919
-0.8876232531035328
-0.29922923184196515
-0.2706001003301266
-0.48327668953278136
0.5889308592659235
-0.7478560834263765
-0.8376233340373058
-0.9533716778627095
-0.7608092913671141
0.7419936192667036
-0.7524747544336108
0.8174228693825301
-0.8379956950750658
-0.2980317688458207
-0.35499906213330523
0.7003775403895554
0.6710095893746408
-0.8782038753661341
-0.02652014228132593
0.26972389910244465
0.2937804630609262
-0.637550956353496
-0.9628315303074191
-0.26929566075154776
0.8745568027749635
-0.031891539303593675
0.5864337401342439
-0.8562645201161616
0.41454729172544114
0.3994608992125075
-0.42743994101773186
0.1551242267241315
0.7540885858917274
0.8144443333559968
0.8663796559104529
-0.47915476389499245
-0.12855208877373459
0.6047845696161396
-0.5516728774075885
-0.8062826557141471
-0.9638076041564179
0.6050944851857605
-0.4203465374205766
-0.4527347215229218
0.6019834255340399
-0.16639498652940743
-0.28652051961627634
0.947125493899861
0.4110467459520364
-0.06829334070554705
-0.6012847072328946
-0.3303132946260914
0.0747714205620249
-0.7348597291312993
-0.6619084992871165
0.9370325544596192
-0.7897042839837702
0.6047552083978038
-0.0019256998009111737
0.10119290605898512
-0.5133193262799929
-0.35544241506800534
0.6741458819911741
0.5218512545267526
0.3844081732630249
0.36600274551814405
0.8616626993709999
-0.5818711348348167
-0.7633106534930079
-0.3643954530521041
0.04330978840026001
0.3745722949614134
0.7697776799541776
-0.8076694660335855
-0.85611998995643
0.7958897760959591
-0.8058740382603387
-0.3845747054432729
-0.6038203412982306
-0.8643897652212555
-0.5790934815167248
-0.7894610496854326
-0.5778153570199016
0.49440125162317083
0.17444986497867254
0.6865826164625177
0.22034682577434017
0.6260215598661663
-0.8131747885509102
-0.11823008418351266
-0.06683088631559819
0.3728949013273479
0.9838812705460875
0.809754765904233
-0.05341114255116741
0.013685572955920211
-0.8529263105841127
0.9531207734895464
-0.02380281256136696
-0.09855288122887917
0.7187145963756794
0.6757752239492152
-0.9069297794762912
-0.760278847658445
-0.8754376827879236
-0.5902584815090923
0.20656885250350698
-0.700606563528531
-0.9909768624365791
0.25120691309354637
-0.9083939129418526
0.5941393742406285
-0.25223458881823557
-0.049230368416572245
0.16267865062652787
0.6955671425797101
0.9728323795383083
-0.41800928977134233
-0.4062038901035221
-0.044529345620608396
-0.3580019779479626
-0.12158120962348828
-0.9856111656956965
0.8616099829676735
0.1621305857399704
-0.4469332231382668
0.8285738102393634
-0.38213581473224467
-0.4906285010710332
-0.1847749001571184
-0.18828016476488596
0.0866417418195633
0.8853898223338106
-0.9595816370281882
0.053195659685631114
-0.5741094839482972
-0.11039313070290024
0.33906147805530384
-0.13691767772831054
-0.7376765598723014
-0.03999008820132355
-0.07198705757082591
0.4337759769513827
-0.04864921918786447
-0.6328854638656853
0.6597841585674167
-0.04639673179068504
-0.11307801797496575
0.1743884367089532
0.43073127783374865
0.9275403208519275
0.3065004050593285
-0.8228831838188773
-0.5808710834046851
-0.2856691837770293
-0.36585466661898813
0.43176854665318376
0.14424219621190915
0.3673475916670985
0.823635943551269
-0.2965916332164842
0.1474222313752096
0.017775752582669613
-0.34302466305121415
-0.35051040104224773
-0.23017454948631455
-0.07140593840692788
-0.857238747942028
-0.4747354660120442
-0.42774422991718253
0.8374533074303876
-0.04779887663860616
0.8002929209865686
0.8656973486213215
-0.03755828760314639
-0.9216085857707226
0.8284645708646496
0.9405746256889889
-0.5954401887362895
0.9420997555956727
0.937403495316752
0.6764034467840554
0.18301916666614582
-0.9244800987313813
-0.12504036979291033
0.07375901864509893
0.41784380464646875
-0.3302250244672593
0.43672435657823594
-0.6861206106736331
0.337339831486265
0.8469214427831087
-0.9672972820046588
-0.4237306091331561
-0.7252608184542084
0.41180578441275584
0.012855962774731555
-0.039122339109632254
0.443985147073541
-0.387668287500996
-0.9725929073346007
-0.16411857178808154
0.1225479952235724
-0.3506605751749865
0.28238906155064103
0.031392627943523044
-0.14927146981458206
-0.47721861812922994
0.35160153637464275
0.514160109616715
-0.45113610441917795
0.8493779048402563
-0.3036549419529837
-0.5576077913351676
-0.5251846065920027
0.5742014544074847
-0.5736144321325836
0.7564292632650007
0.25355346959127645
0.6201216745967852
-0.7678684499954829
0.12793965523600082
0.0840840632527815
-0.9777309431851755
0.22167495915201307
0.8400725901102803
0.44063212625629844
0.4824991776543277
-0.731526136048555
-0.3212651476394728
0.21589038552982598
-0.6647211236128441
0.440269602884223
0.598474777834769
-0.8402500381699491
0.10007912871373636
0.06836779648823299
-0.6414560925184847
-0.8339652796218784
-0.851455338307225
0.1016932982805212
-0.8805356406936291
0.046239734204733596
0.835098198665384
-0.7678913657044539
0.08657860103164872
0.4475136895175216
-0.13811283074749459
-0.7408600881040412
0.5195227695199405
-0.5886279726977413
-0.16177406069493006
-0.7733730303222437
-0.8482489997770948
-0.6996102753802402
0.7010201003063077
0.1871210203072724
0.8801142134285498
-0.8531041496414533
0.2678389474288887
0.7028145011489408
-0.6630907269063311
-0.5816998778716067
-0.35313217376034456
-0.3008073170671479
0.2647578347505588
0.8470998363475726
0.4538355072919935
-0.2277756919283993
-0.4257275811537726
-0.35725684269350855
-0.05220012635748672
-0.8507604931892092
-0.2892314839693588
-0.9660210282207891
-0.41582647136760476
0.09870476511916237
0.7621609624777153
-0.4170213818208022
-0.484454893916503
0.6754459364327052
-0.2461590253682504
0.19603058610564061
0.4254168548881434
-0.9291369474621436
0.28405652646363433
-0.2721222888371524
0.5148529606749412
-0.44834164842792634
0.036473652332387196
-0.6886893430340701
-0.27714708295526114
0.4977309163853627
-0.7789827822670852
-0.16222909672223285
-0.556296903521837
0.9039208934972072
-0.9502920628398279
0.9440246156714944
-0.5425422518747838
0.6592088868108201
0.114437320672653
-0.1757956845303934
-0.28583848321881344
-0.620046696036592
-0.5265682541785051
0.9621639997936984
-0.18074422184015493
0.8827930597608016
-0.9688696995053416
0.3911667777917518
0.8497128484632575
-0.23224242647873505
0.07572154018014565
0.6335238604168298
0.8734770330426582
0.3235599911529976
-0.5084735905441693
-0.4444057836590216
0.0636479951591189
0.9563058873560191
0.733395571855832
0.07533378415098202
-0.13780456033265298
-0.09492701401959858
-0.3747039847879734
0.1395419369484081
-0.69797041448726
-0.3687279305460822
0.39809374412626575
0.003400117376362921
-0.4999678699329899
-0.5007002737597355
-0.45092985428292587
0.9211658846099422
-0.18206716341561568
-0.8382024222144531
0.633138427220743
-0.6957805277907649
-0.2919053986902276
0.4350710162248843
-0.48265574983591875
0.8804346830687875
-0.3152030477083587
0.4334488075709422
0.8609401589717809
-0.9582732530774163
-0.1001260358685232
0.40503372909120494
0.6235211987869314
-0.9825846720327251
-0.2880212578872081
0.6298797393304134
-0.14690300530495182
0.14741757581333537
-0.908191222090938
-0.9222880302377079
-0.5151714181521685
0.3014667907169175
-0.8149527866608328
-0.5035364511324378
-0.04957777126195406
-0.00773654141049418
-0.6247559755745509
0.2167841885248769
-0.8865079783465346
-0.32008212208635234
0.3643001320360115
-0.7867402693142951
-0.8496192827429714
0.8067821803619382
-0.19374826568053272
0.08822627465610045
0.9245705856610325
0.4008924356995951
0.6161082857741635
-0.40051702293816227
-0.0692833730199256
0.7696093285867254
-0.9857053783779761
0.39405392889950863
0.888564812495406
-0.6351699360399701
-0.39238752650379705
0.07305090594237673
0.4643797157705982
0.12554662661379767
0.15389437672703798
0.9079222690588309
-0.20251670090467422
0.7044347323267404
-0.41164587046201784
-0.1584230069468331
0.6089707673122486
-0.6217551391286549
-0.5430964769963247
-0.3800960208722255
0.49732914791542493
0.5328949624551631
0.01223837504612768
0.13481919883486748
-0.7084240924499183
0.41610329924320655
0.7136913309115382
-0.964058496874387
0.23766871894635422
0.8533649288741678
0.25519711496623465
0.7986924225814351
-0.23750677401212328
0.20091600547780586
-0.603232624333891
0.08136244459704534
0.5648046305119123
0.20116017615784476
0.73607063264712
0.7662627691019581
-0.6143472193797481
0.8240364372608304
-0.06324305308668188
0.09290124471129757
0.6900403934312287
0.07738222787175264
0.04971732434746534
-0.4066882658159261
0.17162290528847657
0.3752982212449729
0.009549468986793652
0.24892125256024533
0.09564297341722416
-0.8434946320985814
-0.18934888628958002
-0.3745300026931577
-0.2323869808975343
-0.4593924131590521
0.9746715903225238
-0.41535763821108973
0.5390291555188742
-0.2847637802653533
0.7708453609453854
0.10817256818068799
-0.450873891273331
-0.10065137082997078
-0.08032240658448164
0.23269038952999765
0.5684757956656359
-0.40759194623488915
0.6033818429064279
0.1788945807366531
0.29837604534357753
0.8601421163196727
-0.4973432454886666
0.20260321587826247
-0.5378029670512672
0.2694603959135933
-0.5172983817478309
0.16531615337722982
0.3316786949997934
0.6334428406389152
-0.3936785190580898
0.17451699933166354
0.7695128994722515
0.9310326052988755
-0.16805774197030932
-0.9811643706963593
0.49795635988263975
0.1996703320615476
-0.46759387105099903
-0.3288091783978071
-0.403776198221232
-0.3477827735178163
-0.9751857940751494
-0.4791925578901006
0.8926283109455273
-0.027585160499752792
0.13387692557084918
0.740885431191024
-0.08863874568382757
0.11020589271284265
-0.7133945157190114
0.2607813827514929
-0.0463807810321184
-0.30228108586339775
-0.5120687161648587
0.6767534646237565
0.4927281364606282
-0.473882193697841
-0.5769257470647451
-0.23626988529638648
0.23833401734895765
0.35940680982537376
0.602014644255116
0.44324825924794564
0.09138957650690926
-0.8495917755972389
-0.12786086758698345
0.08117463204141662
0.8231597803527773
-0.0490266237837822
0.41793899608806395
-0.6399850782629526
-0.9140311538632646
-0.8571494213017266
0.1976372891673155
0.7734926972460745
0.8047808889660055
-0.6474133235674504
-0.21152158207782068
-0.2649430108292872
-0.6235571488589564
-0.930730719993923
0.9579639799961934
-0.5891805620352868
0.25413818941723987
-0.21462754066302492
0.14149846921480136
0.358432707008876
-0.6190637247579243
0.7542457470702422
0.17874603878373696
0.16339003709825195
0.16284140061099128
-0.4489556301495816
-0.29093877066244644
0.8888088298063579
-0.8078782750682783
0.5147825372273334
-0.8257395856386096
0.9452231353089071
0.1524024546738898
0.2097252465867232
-0.8781781833093532
-0.9565385285402119
-0.2535527226053307
0.29338905396682136
-0.7083397827407485
0.522408411678718
0.5238452705182215
0.9362576110821721
-0.986423545515325
0.5255702914412448
0.6430608753608131
-0.4024370743926371
-0.04104626393639843
0.10527943023461961
0.6379004851476096
0.3988839248502136
0.8559416364565935
-0.15685542597129132
0.5669053837078373
-0.9555715406272658
-0.5772382499258228
0.8288137987050257
-0.2310444253593813
-0.4932028010754059
0.35114241496110954
0.2852347848062984
0.16158958143208135
-0.6688587515965998
-0.8449850778372201
-0.376069169977322
0.0070271878495238305
-0.6556436172696669
-0.9486263869077292
0.034139570568850086
0.9095862146967557
-0.3609705762014461
0.45220875113957626
0.9650537472409104
-0.983942762696199
-0.15147237899425914
-0.5096861707402167
0.27199075878540424
-0.07633750590115795
0.4261044622332659
-0.6120293976110158
-0.06247525843800461
-0.8060173119207243
0.9961036567995833
0.4088128766343988
0.21161106258386875
0.8225878614885265
-0.31349226604095737
0.017137924146795713
0.9835059271571902
0.5969514452346518
0.2782344006551647
-0.2757214872676548
-0.2666934685492699
0.6127752843257197
0.9309581940011507
-0.11975836147924057
-0.4918968289890624
0.3000539899730954
-0.5788762559045824
-0.8707965479800026
-0.15299821174947925
-0.11332568606604343
0.3503973181040203
-0.19098298355435617
-0.7595230853671144
-0.5035067345876045
0.9659765391961015
-0.52249006891289
0.36512415814480415
0.5237960384108602
-0.9914808417946588
-0.08123830277361233
-0.6328890337600732
-0.6359918833377269
0.7801056698305895
0.7523042682038803
-0.8544641594433138
-0.41346669801712954
0.04092006380401081
-0.6429721273730915
-0.8036359186020727
0.21045634632329557
0.2483382506190468
0.7408054770046433
-0.7551753585988692
0.246599876466842
-0.02646073921897485
0.5608130761035202
-0.9921891989449256
0.21679760325757202
-0.5476823744058521
-0.8019181416535306
0.04606546028478564
0.8996868762875965
-0.06494970204185124
0.6054910202095913
0.9756174061478855
0.6083893274285033
0.6342960621663662
-0.26714021124458576
0.10198219336642933
-0.5786920154818873
-0.3514183256827017
0.5242962241654661
0.9426521469091587
0.7731837658858622
0.11854926841556113
0.18504354872510786
-0.8985932682884836
0.07667538993465572
0.9182109471380187
0.9269151586180251
-0.5555597431715897
-0.44238912675836484
-0.9610693613314847
-0.12768990174257233
0.4257826561274949
0.6940964737758621
0.6492434216914829
0.7654148731366732
-0.5407985849189376
0.8379459375743208
-0.5548796027338496
0.9922167957704107
0.08000860284750289
0.4248865055948212
-0.0017390003278099364
0.5275060272736507
0.560405626140968
0.010517912372226546
0.45185517835573874
-0.9252299677085003
-0.33709235442526175
0.4630736488204159
-0.6857253423450582
-0.4358238435665336
-0.19318747085402732
0.12944736408328605
0.6273834019270343
0.6902482215310406
-0.09531960870286538
0.4971626955479955
-0.23141564573714435
0.2177888430893793
0.23677301070959644
-0.8543575377615522
0.9484998495967496
-0.13558721558242248
0.045215260054823236
-0.9253000500014119
-0.13791240145527062
-0.6731492514028139
0.8455337751437073
0.9672686649675037
0.8914914302502457
-0.9871902168263482
-0.8413273382206443
-0.5892489237433347
0.19735358859336394
-0.23438045189825574
0.6757869556044087
0.10749268847845306
0.880752894117635
-0.3485927450540178
0.44196237798350646
-0.07328623660224842
0.7487945718310143
0.5622177958972272
-0.29715533455609644
-0.16698994679426504
0.6224659081714976
-0.8609707456073765
-0.2088685067472722
-0.45149073204654533
0.2816677292634935
-0.070722471144685
0.18315913698599373
-0.0817077501968757
-0.7986295450589409
0.027165469370880935
0.5011205494136413
-0.577756587384582
0.4729922772051771
0.15541377290511948
0.31464691011676305
0.7858854332139464
0.8896964958500664
-0.5791332480014459
0.12537007113753518
0.8068379931883864
-0.679619269839872
0.7952706412966104
0.09138976880725203
-0.9298323716651133
-0.8493511474287954
0.9122456698266308
0.7556134262986749
-0.0203956536985912
0.1826329437319525
-0.966524435856708
0.4214274904269837
-0.6919867277477609
-0.6410019452549156
0.9135735146540913
0.22051916855218612
0.956994607616056
0.3896938228244424
-0.7257362617186083
0.8301682718825296
0.039132868554687006
0.4428385579814147
-0.8716840524749043
0.410897587836738
0.5941350700455745
-0.6007450942884716
-0.9673521025809082
-0.8705091790548223
-0.0029038949172952577
0.7758436546125236
-0.671679003777746
0.9567477690314397
0.7319665813581766
-0.1444269337622508
-0.30497525271872994
0.6556241750629996
-0.04771686184769042
-0.7319666335989985
-0.16344899512459699
0.6861740431762082
0.8803686884790924
-0.7509859339029339
0.9522712483773439
-0.505241355896292
0.132786641655952
0.8903578169992663
0.2842735379193613
-0.22952665202055922
0.861713088508766
-0.5305075038346188
-0.8380334063319068
0.7546025996186196
0.6901290286543431
0.49027565387628647
0.26853990900962366
-0.7116009721745504
-0.2872427209899513
-0.2593088331624027
-0.633959932488001
0.5179553168982423
-0.5941508086352949
-0.8962488673286084
-0.6583647367059031
0.8149243098519159
-0.9185989458666339
0.44188915617348457
0.8844021383237552
-0.49208697643376387
0.07340967219350913
0.676988614753874
0.45984180712673783
-0.23450698450601037
-0.4514533954974347
0.14819565358018383
-0.2991279804445566
0.06601199502877408
-0.6985065660292666
-0.36162607662215085
-0.3975318265907095
-0.10598354128911791
-0.08415264868615457
0.2918654942571419
0.22853671070451687
-0.9895897431139447
0.5669690202154005
0.32658574233747717
0.6693948982966687
-0.6738424400296354
0.34859013016284224
-0.6832017922215581
-0.7283229236748339
0.48958337046875355
-0.8205286185097567
-0.1304534791435985
0.34430671692240633
-0.8432512667933603
-0.53493407018481
0.33976549165753767
-0.2051838269009394
0.7087320596162894
0.26887236475897347
-0.8867438961712306
0.07276216656718493
-0.2555934314175283
0.7969351415377486
0.6445879848795404
-0.2958283430667754
-0.453080301329408
-0.7353932206685785
-0.8219638594015846
-0.13902183842340277
-0.5283197402668611
-0.37489717668611156
-0.1670464620672576
0.36762928188393884
0.13923057438222353
-0.8356206673882698
0.651410911813084
0.08416030692849663
-0.12536613036934674
0.3225660512675772
0.44593055124668757
-0.3269465307739188
-0.5458455243193898
0.6117975120105912
-0.8769315898391337
-0.6189808466661104
-0.9283034347066328
0.9922705040454254
-0.8989737569148759
0.2925741906377515
0.5779286861638755
0.4909953058349086
0.41393675749569514
-0.8333449382399838
-0.4934092394014218
-0.4475749680498551
-0.3214887709023808
0.11347531687410806
0.11520794232280074
0.11986732022089264
0.2970272213877445
0.605840787746672
0.10391083167810389
0.20560718319710447
-0.77324695589606
0.41296569455492294
-0.4382496680167778
0.23480406253630304
0.4206643484968082
-0.7769562341548886
0.08029263440173318
-0.2264026962629957
0.23058013781596243
-0.6819530484066203
-0.337984280430742
0.2908248325606926
0.2437486161613962
-0.14329071587663078
0.19118246436458453
-0.7188174416207118
-0.4386783702065027
0.2321136723502848
0.16402497511733616
-0.17693360704510086
-0.6904476769851304
0.9461441736146412
-0.6076462624013557
0.9037240921160781
-0.08432956178625872
-0.31247829071319644
-0.21206294588636454
0.8579712231111589
0.701891726268338
-0.9381957852831557
-0.4547465884608992
-0.42689852462912437
0.36986824332090995
-0.4674890728406682
-0.05022355290111147
0.9121315074090302
0.5904106027340239
-0.7344149770788455
-0.5535862857463949
0.6435434306646577
-0.918787571803166
0.09938445377256033
-0.9455937830058501
-0.9127668470504271
0.7263124379367336
-0.48571354460590577
0.6009572894797699
-0.03265000792251116
0.22782812926295892
-0.7210292287691888
0.6745276229224675
-0.4329173401582358
0.4617339533556011
0.8028727032112182
-0.3354107166073337
0.22542557734516055
0.49312727813656676
-0.07925884258278271
0.8728914732471267
-0.9857114416918658
0.49274623002157747
0.8943750547742462
0.7537065206539075
-0.6262626527664206
0.03209159640418635
-0.5573967560037385
-0.8973142442160591
0.2667072484312585
-0.8162216227835204
0.8920064044253742
-0.989325930778677
0.5493583622353717
0.665551549921233
-0.6629687871123602
0.27289887083058173
-0.029218989792194394
0.9405302561298288
-0.022837735198524944
0.17142612639254162
-0.09750817816869617
-0.023479605339161713
-0.34040200160875655
0.6432743470515678
-0.7623151237887495
0.4228955071422964
-0.7661267678370518
-0.4441765700406137
-0.37227380869904847
0.010267121385478362
-0.6871825710039423
0.031055511127652036
-0.8683912864033525
-0.7388304737365301
-0.8512204686692995
-0.9507086490351522
-0.35189982493998606
-0.8105510369852413
0.19542483587203918
0.9415444024762756
-0.24664029285473932
0.9193546409650541
0.7351739594800697
0.8671411178773147
-0.061427847928384294
-0.8049320660354933
-0.19070332946014257
-0.9559486361718432
-0.08814344708401167
-0.8651621569970194
0.9395220202092112
0.4066122048185452
0.1747750818713094
0.2422772505851407
0.718838085401247
-0.3767036885155015
0.26467300753643563
-0.3301029639257247
0.2755373512746422
-0.6986126801488284
0.40540898594569796
0.7285355075666946
-0.8724907077950723
0.028450952867256296
0.6460795915103235
0.021753290839792605
-0.9193586291082834
-0.7861900650758558
-0.3861993335948988
0.6071449962145856
-0.7343843528775427
-0.9358135341590177
0.7945648927752751
0.8252604820997462
0.6409561538077264
0.8391002103271337
-0.8327999308479592
0.11328353744052277
-0.9044133287024254
0.9048369187034473
0.05454244171107003
0.6962704305479845
-0.23059486041434551
0.10899503137215039
0.5785277342945156
-0.22722242318458674
-0.15237461044797462
-0.902017138454158
-0.5365091230859307
0.45793603973284824
-0.12740868235742253
-0.7476702975551419
0.14484350075452634
0.26484825589014993
-0.9050657926640326
-0.424826392046997
-0.766654745935542
-0.9568898795997678
0.834883745857236
-0.7298685147455415
-0.2961075100249859
-0.9445978019832224
-0.9483327910486039
-0.5973917056712288
-0.7318161041035915
0.9459957412922808
-0.043943446518789564
-0.3307823597741246
0.08335109374336147
-0.3849717313091552
-0.5717634778285821
0.909088710572953
-0.886959332334053
0.44262115982564953
-0.6870408093203575
-0.37670929946383747
0.5802394121193002
0.36393425139381086
0.7663358191172649
-0.3378939806459462
0.36720432458130436
-0.7397338975720709
-0.43921225820043763
-0.22814044365419872
-0.2553577833278633
0.9204289066865048
0.7663382259789469
0.1855061005133687
0.8367515622104329
0.6635741281267986
-0.6380439508886728
0.09188798361868589
0.5652236546020668
-0.5773979939439235
0.3402284374964466
0.7998143389800865
-0.1926922464952603
-0.07002345517215613
-0.5825095358026129
0.18801645965579694
-0.2540340146528488
-0.2791801253572179
-0.1968361889521988
0.20200659210059957
0.3135990995915139
-0.8554346194588069
0.5592007456294776
0.6291032768209499
0.8928600513301956
-0.7373660877021317
0.9758961543651272
0.9682682325875309
0.6552119971898376
-0.6676399880017769
0.5268218084307013
0.7936769377066264
0.07789287222111674
-0.19422529172633007
-0.313836915310042
0.3679865247705274
-0.36853523790330356
-0.2819276252499563
-0.843736198909903
0.46283816282016965
0.31926978149787333
-0.1424857255106946
-0.7850061334256841
0.2967807859728937
-0.916353628783305
0.8902184096476962
0.7342384017323234
-0.9530207325064739
-0.1558336797830051
-0.9989945503747808
0.19021872749920088
-0.6648360342759772
0.6412360196397466
0.9981539610479024
-0.7704291526806941
-0.12621339792741604
-0.980280931831542
-0.4830501460853267
-0.2915283401256401
0.9197085399253873
0.969414439917428
-0.5549170233545568
0.8602459864985066
-0.13802211980157608
0.6706768165997208
-0.28996290286458515
0.7643242195950082
-0.1305235938195537
0.9203358582828911
-0.3356042141314477
-0.2824744545314408
0.34159300263750647
-0.6170636198367734
0.8423880150291756
0.407792014381666
-0.7257468627029708
0.3605769554517957
-0.9573764397025117
0.18823863517208705
0.037688172913969975
-0.12462257449813352
0.13521470280549552
-0.9239841371056352
0.8070940201775854
-0.16241642094856834
-0.43818953192704946
-0.36784902080544013
-0.7894647592815696
0.8145918510672434
0.7034388639020512
0.769458161086622
0.07794466115287091
-0.7867682288093949
-0.7762410877037778
0.4566994839706624
-0.4585897525518463
-0.7825778809820014
-0.14562453421536858
-0.6331680403284159
-0.830072677904669
0.47024592963803613
-0.6965352271100502
0.05698156677583688
-0.1746290886767854
-0.46125701192496815
0.11795605542469434
0.3931013596254862
0.9645402544840205
-0.5383461508969856
-0.7691335474524086
0.4748398991534726
0.2950441359141116
-0.5080595018788876
0.41164018980212225
0.8320628346743486
-0.22856742750788128
0.3141923540823972
-0.5227050258401811
-0.19645966694712236
-0.5629869318060046
0.2425750972554288
-0.8014544904089798
0.9212715206911031
0.31247336594210395
-0.8590326985236738
-0.12029611780791427
-0.06189698725737003
0.6462068802495471
-0.8554921264709059
-0.13653731589127593
-0.32679397445175984
-0.06742721496283433
0.5119486612327331
-0.8933114953456132
-0.2704248771699791
0.35991463358012954
-0.8171338885801551
0.5657715899859281
0.8187219614706451
-0.48247839571832607
0.9019412729322978
0.6250014571393845
-0.08941275152247607
-0.23658832891121406
0.41787110517121784
0.17465681822496415
0.9699042793931665
0.32329806914814685
0.9973609787217095
-0.3261599230757568
-0.824801659895186
0.19710346798810008
0.05803312267093608
-0.3215247884392134
-0.3787442366311633
0.1666624969174193
0.016689446450552037
-0.24264512240286185
0.3469080088057219
0.035454277516332455
0.12080970289122495
0.03767106070904669
-0.6887929413708243
-0.25082282156351865
0.4833221433761099
0.7840943072186584
-0.15517131014142538
0.4599408840419421
0.1268534029661157
-0.4691286755434525
-0.5324814990141
-0.974636317089606
0.4688099285844356
0.9628611449542601
-0.20237374757933901
0.8627312385902346
-0.9050210306228896
0.7140636111374061
-0.7943158745208885
-0.9129131218181701
-0.6991544213134693
-0.8873570538299795
-0.8743010256596231
-0.35392965049006464
0.03952847407509741
0.6894064517070637
0.28125923853768775
0.4425854721787026
0.6709289439204145
-0.9628032922383507
-0.7846764531166739
-0.5335762548226768
0.78015403710603
0.5335328873535112
0.5729331079829656
0.28631591749845864
0.5666848725010263
-0.4680345603091165
0.5896818430791229
-0.870408698081947
0.45452733132841705
0.9987882503611769
0.6732586123828381
-0.8802467173286654
0.08347952798952463
0.3486934884679076
0.5480616224892758
-0.014021281945661768
0.7477519502374541
0.03007165246948862
-0.032920202999927595
-0.9369360217291607
0.6148728614568646
0.35567269740828866
0.8014058311444339
0.09335052507316033
-0.3228580732686879
-0.012937595553623504
-0.4024992188582994
0.5999646324166463
0.0972858342376961
-0.41157462849598647
0.06697444545858522
-0.6414826659627333
0.4021164460997233
-0.3363824792022141
0.08534920794114287
-0.9228326400210256
0.7670584481161158
0.35229474358579593
0.5214158057313572
0.6975038340016513
0.41974415302458046
0.35420672626384353
0.7151609306358027
-0.9930991269064251
0.5411199718885791
0.4844057390358556
0.44525277833881804
0.8988447646339826
0.8176759454673275
-0.029170279732665394
0.7818945292120598
0.5739912423433076
0.08109972193432857
0.5166917721512263
0.16496211256853832
-0.44716833519211474
-0.06653918863559727
-0.07926467167127793
0.36506231189889826
0.9053187576826669
0.19603891074979973
-0.3471723268703111
0.42881905070101833
0.6965894061389319
-0.7570286777316169
0.7935929894326066
0.7283080165265823
-0.7355640740345355
-0.8389910233509228
0.07079741935164874
-0.46657253824636835
0.7716642389137705
-0.2014623064568477
0.30756181786621495
0.7592345789854438
0.4402039095938912
-0.9637025941110031
-0.6304647197619566
0.1022794988997171
-0.8982676890861994
-0.12344732605473774
-0.6760004603761001
0.24282534319008442
0.01998187119233452
0.3437473709390131
0.0963638889291718
-0.7698494446940762
0.4514428992033086
0.10244558014410621
0.7884858421835337
0.5701815704873365
-0.8206098661134233
0.09367912803929368
0.2782900173207341
-0.17344609520238796
0.17254904917872627
0.7404568658984394
0.9655879098365954
0.5853779359253488
-0.9056413831800669
-0.45461218449526886
0.6089203494289637
-0.6347328594510544
0.004474568332629492
-0.7367029199608675
0.18438013527000274
-0.1119678730789273
-0.2437275757716626
0.8671448094703846
0.8638024549616261
-0.09342575438634282
0.11985916309390188
0.7443764104067927
-0.2163102512695989
-0.7979274665249081
0.0889522293474847
-0.5524534320683998
0.8128256546048103
-0.0926048867625413
0.9208572863428217
-0.7574924088386983
-0.706150243175584
-0.8606345549350753
-0.03100793224869447
0.5353467599383748
0.9679780701428307
0.6599594092446628
0.599088925456932
-0.31059768935032883
0.010979831586208189
0.8404872367502669
0.45220177257788796
-0.23732473369243845
0.6000404763458114
-0.9603707119581377
0.490748867868013
-0.6524530104226873
0.007190181910590621
-0.3457784309345391
0.20483170959607588
-0.46789715238469465
0.7716962208092333
0.43368214261922255
-0.2632276540430081
-0.2025624319796946
0.0063401902930151355
-0.019066035017978322
-0.6318449764374976
-0.0003718940121577585
-0.11483239248854926
0.9831114020860798
-0.6975635913320752
-0.8924941440908618
0.001580202682821108
0.20178263509870797
-0.2465326676022761
0.6459052858807155
0.12018845899654496
-0.7773501925488098
-0.37359538679234894
0.161947900278127
0.024999070150957703
-0.6878951331917469
-0.7060164954349297
-0.2238365259578139
-0.07734730732569206
-0.06816618858106338
0.9540045860589901
0.8868853662501441
-0.8697746780082853
-0.12206242155491198
0.8296069439675182
0.9554985183813516
-0.44498344995429706
-0.48036905860772183
-0.17637558830684918
0.17688103425897017
-0.023801352148580257
-0.2062008524325698
0.18193251508382913
0.5497803932260541
-0.9707472186211816
-0.9296891786404737
-0.885865439592961
-0.5444930897692972
-0.8707426291187352
-0.13403900223895793
-0.3897321522215771
-0.15366440858112473
0.5073732313984822
0.5088811142090588
-0.4787398242269678
-0.8248239800350019
-0.6703414530885994
-0.7122008702434133
-0.18090971559198588
0.8106894489048724
-0.2900502889421863
-0.3635752719380998
-0.5638780863265003
0.1700664540300858
-0.35437276637867643
0.5995021357556185
0.8687481703028834
-0.9690372679731181
-0.5559172852130658
-0.062044828532144214
0.9881850340426239
0.5451708670222835
-0.23670083681628706
0.124144975909104
-0.22918932075625675
-0.9981854494176159
-0.36548700911230525
0.8289193509633286
-0.508793973643098
-0.776426555559047
0.7551727601699665
-0.24354637573741145
0.6516580338097557
-0.4617595535131751
-0.2467020417544652
-0.9337524232870664
0.6878384886886766
-0.7643722170684737
0.7443592268127062
0.3759710207988911
-0.18956130144136374
-0.5139227459155851
0.27129448420486746
-0.7007283716808566
-0.04529021563154134
-0.8187409855896437
0.779990642159369
-0.22382257515195025
0.07792697681017935
-0.7246702019257714
0.23499949526301145
-0.2959231829369715
0.5932010666122436
0.10293977269541732
0.08873679768029596
0.43298795560825587
-0.7776237029642723
0.632814077018373
0.29346276455672893
0.8142463318985727
0.9184459297638194
-0.014432272351521558
-0.41845660089431536
-0.0798408403793538
0.05389395904139138
0.2337248264688292
0.6012647089647476
0.21125728809749655
-0.1656274475463999
0.05706323043817063
-0.08927787235715834
0.6135628852540174
-0.28636110679641313
-0.6284598550815796
0.7420526972994106
-0.05252154529170361
-0.8206442054705361
0.6709427314218084
-0.7358288739129117
0.5773131246284791
0.876333167665168
-0.006566617289749832
0.6218156643492214
0.6718350724355835
0.6243434461136572
0.7827146256029824
0.9985476732613168
-0.6325082143268854
-0.05705425507332751
0.676542540856963
0.1386593174614068
-0.11192173576860376
-0.08598908753452061
-0.576494636050668
-0.7642864066358055
-0.36936285515008804
0.41648520920266785
-0.5194743971548659
0.9622623149425247
0.2123618687303379
-0.6902276746601204
0.4654081365885925
-0.6015612989250636
0.5820913406764217
0.47451801431324814
-0.3186738737966057
-0.9461274888188496
0.5781456756813335
-0.2618047720624801
0.6484291696800262
0.10364281660337182
-0.9336640655278359
-0.19944234220750268
0.8143890852775113
0.9312868091446334
0.07701384285893376
-0.8699944030329356
0.03132343378987512
-0.016456930711456152
0.3169343203676773
-0.25082715424882407
0.3694991637535623
0.9304207917706411
-0.2769173054329641
-0.14545002093820392
0.8946017066944099
0.17561794275296672
0.9266539729530721
-0.0016544726387570652
0.7164461948288405
-0.5545322918481979
-0.7143177763544826
-0.3601729060199923
0.7968201849996708
-0.35913388157312287
0.4240268748051741
0.7017039196391579
0.582417132139267
-0.798259183374205
-0.41824421328704675
0.8797381649113123
0.5357935423857876
0.9525331717017971
0.7799145711068158
0.19241528029185706
0.6219337983890381
-0.4384310843442727
-0.5462338380525009
0.9520509292137509
0.8172767451892902
-0.4246743681506864
-0.2620065814634347
0.8195739506473889
0.06765222240460522
0.9566641338034585
0.7278320081366185
0.1655716090859971
-0.4050695992154154
0.9732533254883791
-0.7728273447930605
-0.5363485771379914
0.24269707442048305
-0.060249349854351486
-0.42707983858287557
-0.4404502888351427
0.3498630963808218
0.34047215465282465
0.8594563190182125
0.9428635138373689
0.41801690353289
0.9583997956600758
0.6625825416368734
-0.130843267387023
-0.4214954422638453
0.5397444174764061
0.4287367643584905
-0.43055496886361944
0.6680085577710686
-0.19580081261314897
0.6511495935510214
0.1867482758605319
-0.08477955817214022
0.6457334915181641
-0.004508356546677472
-0.22193861228804646
-0.9713186299870971
0.36851812152801444
-0.845408848814436
0.8171001167554202
0.4675416377691839
-0.6947679464798042
0.6538414322507273
-0.05112181775020952
0.7333147215394933
0.5719504613806825
0.48124232827361957
-0.7321068868512493
0.3824481929105561
-0.1972557384804523
-0.08723049981681852
0.9502025801707239
-0.9174949419712646
-0.8907415234152516
-0.37503830045963626
0.028999253582713047
0.24411351667216175
0.565668038967654
-0.6210376149112182
-0.4477463233101566
0.8964442964174635
-0.8146490840225464
0.9457497165343356
-0.14152777009376338
0.9689865338240669
-0.6901279390304396
0.8767906653497106
-0.7717754291676588
0.6196902323210791
0.10154792902652732
-0.4981061701669709
0.5337815555295153
-0.1844912043686826
0.7580117611531194
-0.2526224500184082
0.27266158631811366
-0.47368472904616943
-0.574431259324951
0.11006327466893295
-0.37513112423378625
-0.8265090039166028
-0.8303536049580336
0.4005005250697413
0.4657554371576835
-0.11045289159806337
0.5984406613454223
0.5108622554469495
0.19986560376195195
0.47995068067313396
0.36770625347595964
-0.8960371066310509
0.22872176667945565
-0.11254485042969442
0.46152599943038286
0.34604376368955636
0.25175339859513834
-0.15718661156459124
0.3000570946718557
-0.5185991297556891
-0.9334948701071144
0.47586973036412483
-0.9252106401134326
0.5353150003469744
-0.741442996899943
-0.9586004424493675
0.5349771887712891
-0.7574351812563911
-0.051455438911498064
-0.0772186258933294
-0.8828526519585722
-0.809622736960576
-0.12615493416202206
0.6332426620012368
0.3380559037656212
-0.545700372728275
-0.40431855602804956
0.7237052979980387
-0.940695644463291
0.3382213900952622
-0.1362433896525479
0.781652859860237
0.8402074726792417
0.9543253051101741
-0.15295207263359867
-0.2677537101322809
-0.9641672099797887
-0.2100699150195855
0.426688001832092
-0.4174900156312753
0.30803910453462424
0.92895006083479
0.07521124415301172
-0.9897623985677557
0.992948821232255
-0.9886145073776251
-0.7516691933581137
-0.5578913599360165
0.3950058611258036
-0.2043388576417573
-0.25860607583377426
0.6484170646419767
0.9526685480925716
0.6406301629043247
-0.26954729486993734
-0.5247759027471595
0.8450619161467778
0.6371229726059024
0.25403683319421133
-0.7612259514506599
0.9523634524138003
0.3178145804834198
-0.13177864730680922
0.5150561053166272
0.3121270698982237
-0.5770978689096495
-0.6324342737537232
-0.9735835992920276
0.4491594781229886
-0.3615470656868349
-0.9838366845400797
-0.7488169486529852
0.8530650675154041
-0.43101456941343974
-0.9265756724996197
-0.4014990128058673
-0.9042555529101799
0.6265219616262074
0.6148515833210695
-0.1312364957399872
-0.138298760915178
0.6929203890150932
0.6779491552500554
0.9090204370807571
-0.3866432551756134
-0.2097333886832018
-0.5421643382193024
-0.40021621356683057
0.07934790290084415
-0.6570236397579832
0.9887026884605477
-0.2058623412240237
0.3656436746044769
0.5031103332520162
-0.18189136982494913
-0.3609280807144648
-0.8211776445883834
0.5759451024428923
0.34383281244842645
0.9266020458975592
0.8931992502130539
0.46031170299883195
0.13712742714657766
-0.7370508757831664
0.7664972776255234
0.49766274906610697
-0.8903934787858099
0.6731927461761953
-0.6902730736483653
0.6615803988589264
-0.05228643705587488
-0.2623768840434262
0.3058126126933769
0.37077489370145544
-0.05224913740204484
-0.8653299935182397
0.3067914702212442
0.80284079970888
-0.45429023495871657
0.721255729521153
0.1254207897471491
0.6905665183608711
0.06619670623758522
-0.6655919857527375
-0.7936560174996465
0.4786214860548921
0.9218396096751502
0.4419020237820561
-0.8082203894095883
0.6800480991529891
0.6946777054313045
0.26599415063982956
0.9212602947260946
0.448581758852459
-0.8378223365006696
0.7240180972261536
0.42621906167813184
0.2033065864184791
0.6711726829839748
0.7925298713482007
-0.4741607165691404
-0.957654162591365
0.4816986510543195
0.04611169642913815
-0.32773406653061987
-0.17278139045235896
0.04299035217822533
-0.8593310780268326
0.8313855276640361
0.26459601430252744
-0.5861624344092553
0.401079824803122
-0.0067253565094356205
0.027650862398633347
-0.8851292545017979
0.12536721925660133
0.6318229356120539
0.6715377095871271
0.7932583095886792
-0.23463689513879515
-0.9617103843376067
0.5872540945782245
-0.9513228339331128
-0.07765471184438422
0.37012558676565455
0.5289770657259223
-0.5101586480068707
0.3688527209019541
0.3209743775105143
0.809954028420935
-0.35650229965778246
0.9243309270190372
0.02153468881997833
-0.522856757315842
0.7513066576277132
0.8197538580156749
-0.36076137202970404
-0.20661736444997048
0.26740587635648394
-0.9956412345759162
0.8106825259740797
-0.22663479619222393
-0.7639551016452064
-0.4380645663408731
-0.1218024752636564
-0.782703328726728
0.32281649184090866
0.8553530781038967
-0.8149333518287216
0.007398906946724848
0.3245433992991418
0.30866554265890134
0.7985015869373275
-0.9054187438903949
-0.12474804623791447
-0.031004079546365748
0.3481611022412432
-0.21065285098137676
-0.7270702281022905
0.589142563519444
-0.9670242802877387
0.34857071787809923
-0.5830772910565174
-0.524772883683938
0.1039907354214733
-0.02052597505569631
-0.9613003538475813
0.20635448247865806
0.9573277718545037
0.0017924095774208837
0.47113442962010965
0.6833035705621744
0.30736848088808766
-0.7112320702614887
-0.2743750461394856
-0.8855101926736233
0.15809213236894704
-0.30510787552001273
-0.004563749556857122
-0.7252704011589788
-0.8856218469687931
0.6751389704394328
-0.6983397368991995
-0.02919410400271727
0.740847766255051
0.576997317887392
-0.48253413377315035
0.922892438130277
0.9039576271096039
-0.7882812990984231
-0.49680101234076024
-0.41529868897958444
0.01333753147318717
-0.05327864924544712
0.2748047226947561
0.030966813240296043
-0.13965203043956897
0.05273066924296055
0.5600370920401949
-0.9436688139294087
0.7972934656936173
-0.08347681587000522
-0.8089898365530857
0.5865145447987061
0.9880285029694598
-0.35036571248185067
0.2358833227148236
-0.36850953525352215
0.7053055066033778
-0.7529511208233577
0.1360571573115239
-0.11275559016507475
0.07154922124119056
0.5532062914300033
-0.11678592083682848
0.5216325216032853
0.548073874474563
-0.5615918192227727
0.3198245055697786
-0.4385706097628359
0.876058704646866
-0.264636299826293
-0.2504011155439829
0.9860110552481591
0.2364127731949064
-0.38895065064511525
-0.0665033982921519
0.10249905144811322
-0.06095376389146323
0.1929919627444736
0.717234974042471
-0.5565259230668527
0.27182812850911
-0.4143316176565779
-0.5817251360096947
0.6133391464901767
-0.9834629647042774
-0.9710053376456382
-0.8841989961095815
-0.9702044724844519
0.1760122735414138
-0.4182268193629426
0.35682524282756023
-0.07649462071672919
0.8296234446000175
-0.9658574094672476
-0.0521895400460195
0.29051383874070913
0.1822925478262054
-0.9110138170304087
0.6250455948827811
0.6546866393668311
0.9306003681659079
0.37133117193541
0.6237610546980867
0.7338744530822283
-0.7724473403155763
-0.1411493318086927
0.3677948463761438
0.3366224729589551
0.6097259051782002
-0.23482996476608475
0.9601111805602436
-0.7528336004342755
-0.816376108888083
0.3136553985107602
0.7152905442999802
-0.5460589109047567
-0.5503582352827543
-0.337820322595916
0.4554179652735908
-0.004949689954155678
0.7206001502112591
-0.19780308813070202
0.8097097058508731
-0.7669810315383092
-0.11003577405687981
-0.9094924202954509
0.658628798410912
-0.6601732562708373
-0.12892283944427652
-0.7382826935023283
0.20755751629878372
0.7946436692324068
-0.23799581275053017
-0.1383299348455298
-0.7821945219321558
-0.5674262763829057
0.8117971524191747
-0.721810693143587
0.8242841475514715
-0.5223388866372527
-0.8747358854390244
-0.6563298167888709
0.06586360107550804
-0.31924295941408243
0.6272660751965262
-0.31364905025093637
0.34680670244197787
0.12227324116688165
-0.5863470491199512
0.920568056391595
0.06002519074713053
0.7085596787068169
-0.623252605596508
-0.9937001557672829
-0.16385543073309106
0.28567696871915893
0.2768355232557773
-0.3311741828794188
-0.8732141033686953
-0.08927911592665927
0.8321442415292659
0.40462961185327373
-0.6237399885438413
-0.6452438084531762
-0.7757486344656668
-0.7180917739135817
0.21061393922660643
-0.3813258116736069
-0.9459287789430784
-0.9805149708182144
0.06528215832913276
-0.40002758573691355
-0.28526111900880036
0.7210881847015866
-0.9101645880987097
0.4829120364408084
-0.12450316875890044
0.14986876549140304
-0.7257562495899255
-0.6388430528488986
-0.7150792167523183
-0.3052927362671458
0.29903561948670565
0.021966633311674366
0.48112705899352104
0.27731297449159187
-0.42160808873358513
-0.8826688066073884
-0.3916908676638964
-0.43462573618534184
0.06488366215641728
-0.956203798990215
-0.6719060278705613
-0.6669970951802198
-0.8456248454148019
-0.5805733766687629
0.7515692881535645
-0.14714124967147968
-0.378312415517591
0.34135699177034384
0.6702346217113966
0.23768874792902528
0.2373238634593895
-0.9665093005579843
-0.2057960282813207
0.8648660303982565
-0.7268084959211678
0.6881945481686955
-0.5944794075994617
0.48369139920612003
0.08899203011381518
0.0678798393219251
-0.8883310429063174
0.6071077029669429
-0.12475459860958082
-0.6826033108891505
0.3944308676719357
-0.2761228156458566
-0.7992769725302544
-0.5395079110396563
-0.7033399181509099
0.7266765290298591
-0.16928832286052775
-0.13225038649439558
0.08297562015256732
0.3314820252722861
0.7921177902030447
-0.6890642646162861
-0.20092770232723334
0.6857799568215854
-0.32038057422170607
-0.5777452034926769
-0.9720320613585205
-0.3112379226580029
0.06993595581920076
0.6504594406789623
0.00349024663993025
-0.8290542240638983
0.8803365926205475
0.33848498764739565
0.32457484326664265
0.008638348464048873
0.5315101313831938
0.6184289892092898
0.776092269726893
-0.8285203523843767
-0.38571648183965523
0.09416149727316814
0.9820390551708977
0.8187337668151629
-0.3301146960540311
0.7183924260225278
-0.6638971543615275
0.2069305222994513
-0.1668534634487242
0.5507010197294833
0.8500245928849832
-0.27805577596004993
0.9943774512396562
0.5120335410876529
0.3374664915907162
-0.777444161796067
-0.05869985766190555
0.8720187452087338
0.3251548005138962
0.9336573851096683
0.636533242473887
0.9078214902496728
-0.08953767718089467
-0.5835500492394519
-0.3121619540624627
0.8041996414407773
0.9524747268284641
-0.9633243097437718
0.48909151530093653
0.8579795307654141
-0.08209719867651888
0.38292508144012527
-0.6027099908016422
0.06575601105790496
-0.5515114964643786
-0.9011345315281096
-0.004804835449705447
-0.1304277196256194
0.7334152332385899
0.18719839069151267
0.8067787235572053
-0.3886001494243754
0.8183455749642983
0.4198771780152444
-0.3343569576364196
0.9896554068501422
-0.2241529067664072
-0.08141229035311937
-0.3471714445551053
0.6164602545223725
-0.537884546586652
-0.9072027763909736
-0.7030691570324037
0.5849793438086468
0.13418096327794382
-0.3254451903576374
0.48709440581739094
0.9073719991092026
-0.28719619720004785
-0.5444102777827753
-0.06169916411357956
-0.7983709720250165
0.0799010266472926
-0.44516581800061505
0.0005239192725692288
-0.08649960590393801
0.022910425739191886
-0.7803436549353437
0.6319436899955508
0.764519158445893
-0.6923370889917486
0.9025192857116118
-0.8070145094837997
0.9056838557224001
-0.8417908237037857
0.26644421697412013
-0.7668898642326603
-0.7871107042240213
-0.006908399888339467
-0.7391612049836049
0.24240906930489126
-0.9332230865947178
-0.6465679267617934
-0.5985166338009618
-0.3537869335698487
0.7227680431066401
-0.5535765092119778
-0.8480572810075306
0.5857630755783665
0.8994167146091343
-0.35827339684970916
-0.8252155287853562
-0.7470759289599653
-0.9301094361494127
0.8261056764426118
-0.16025698362607876
-0.7200605428721243
-0.08636217899147591
-0.0897628061839193
0.46543219940196856
0.20875612157135448
-0.8787170354371636
0.9577476434258516
-0.7409305978545868
-0.32104629391959905
-0.5912434436236473
-0.08690110775668458
-0.6833508292005828
0.8374708664290551
0.6115030629255809
0.9217841878887627
-0.36600433787553155
0.7340589427559199
-0.08217883112962676
0.3010003114264086
-0.4656248683989581
-0.10144999501741503
-0.8594087594894788
0.9933459564948628
0.7972946697908689
0.21205353612148015
-0.851428401008377
0.7626384518293239
0.7997450918907036
-0.28812252232358326
0.7031304060629755
-0.6918503979753787
0.6463899123553867
0.889962845054034
0.42659639662509896
0.12256602672127936
0.09701061514659459
-0.24698322973602016
-0.6090407190429223
-0.5748206443117172
-0.5432359170991479
0.039513614949648224
-0.5379374450608096
0.13250664337316742
-0.9957444273886435
-0.908040245827826
-0.8360138359393903
0.07957983465708218
0.5477273637765543
0.19590935206077997
0.31480801045344653
0.036509530005315316
-0.44951261512397633
-0.8514998260320001
-0.524672979570924
-0.8635551245231885
0.1883846349287277
-0.9492198615054226
0.9536372210378947
0.06098664621525285
-0.8476293332268472
0.43029519098860547
-0.668847277620874
0.8400180675735314
0.009181736213786484
0.3813980357526967
0.042437936730319814
-0.19234901505892243
0.1515919635373597
0.3089237922183523
-0.7786537896488566
-0.02891273103716041
-0.6401871565872717
0.4106028164700888
-0.47101081168063685
0.9823255144896328
0.42109321452547266
0.8197326567513741
0.9444277628683035
-0.9558570215604565
-0.14886620394638772
0.05877092527041472
0.22978232370183194
-0.6030639785725769
0.8499049426189715
-0.7129411382788258
-0.619064472966179
-0.44664614477325326
0.878720534517049
0.4225245204144501
0.9426167672086943
0.30279859892255767
-0.052695285103325995
0.2710050647370539
-0.2052657797948909
-0.03247324020598419
0.4221603248138095
-0.6776463841867799
-0.7758642252928423
0.0015676185963451328
0.6723391097702567
0.22165953707620778
-0.5114140704739611
0.6276465141157701
-0.05945500511099722
0.24996787026604372
0.09708573631645545
0.09675442562426562
0.6491202044892213
0.8226923532828876
0.3359167562948695
0.20065414519746283
0.7929316121708951
-0.1788577814157002
0.8529188277724438
-0.2159184366937612
-0.316808227470196
-0.4939047573840596
-0.5076858024912247
-0.6148775987462691
-0.9313309255830993
-0.58722035960152
-0.309653131367575
0.1626625900840124
0.9718485339075731
-0.34349041306628103
-0.7575427298421056
-0.564171310199427
0.904195444207337
0.15197308718758573
0.9672964474614114
0.7646502880104389
-0.9167867658145952
0.6598636847992618
-0.6539779093647835
-0.3003651771493958
0.3834124937322616
0.8112292315386875
-0.7077839947580691
0.9455151517785374
0.29876956749362726
-0.3461773504470942
0.02750422865015789
-0.41093734728567965
0.3006381303595571
0.06868841108622914
-0.7555454945228925
-0.9173815062763173
-0.6287377521199986
0.7931990580729049
-0.06651020350008685
-0.5899739242238284
0.12891493422999267
-0.5379915228387375
0.843972738117247
-0.13628190700572573
0.7261275208227107
0.7857877371597592
0.4183869282490682
-0.6937117806749513
-0.9765514120153642
-0.17160028302017105
-0.19387747746587936
-0.5864506159912861
-0.668813477171835
0.4030921135071457
0.33835543751987385
0.006799203284246769
-0.16292571622549645
0.7950286850678734
-0.406650206046661
-0.9622261998844639
-0.3365430786485346
0.025408983839483756
0.2991417938740615
0.8867217002486159
0.5246714452733396
-0.2584743275007719
-0.42781312674448735
-0.7842521126582362
0.235660570739473
-0.5905744603960641
0.7637677985354796
0.9253479429477516
-0.8451101122820066
0.7063299816428448
0.14884671097780822
-0.20334178280294268
-0.7005363768663067
0.7247217145649072
-0.9563540855798449
-0.03972506054778657
0.4336024923673556
-0.8831893456807014
0.7753770130038957
-0.007711066307450443
-0.34320284420165637
0.056713489690350505
0.4672057781981471
-0.5914500866370735
0.38659642669057837
-0.43032129469996505
0.025373651683252785
-0.12425181086390591
0.78485704032102
-0.4744723091389713
0.18066231700175783
-0.07014025448391314
-0.7242067934674312
-0.12739158074636614
-0.6855696375322233
0.9781880055243939
-0.40031517248501025
0.21057058469340406
0.5248259706913085
0.2577055097991907
-0.962732194299611
-0.8280005462432982
0.34570337007151175
-0.45117294973524213
0.6050809699556454
-0.7493094854529574
0.4502352343968481
-0.9384452399198528
0.745488754783721
-0.841773872957174
0.7033091265650335
-0.4880575108113936
-0.4827427115200116
-0.54814497324396
0.904666986228559
-0.9684420785841361
0.53798774047695
0.24146198411199338
-0.07802795357030767
-0.8594748203162439
-0.35305565642479775
0.9698348697566621
-0.6675184445360431
-0.9949126671578783
0.6538874482437746
-0.7448140963236882
0.7498386488828566
-0.6808903855984196
-0.1456051937400349
-0.8779247793150706
0.12282584800254925
0.7216033869031655
0.7347132691701748
0.4736105433893478
0.4197496645148233
-0.697826203429319
0.7266388360224927
0.7769325947075831
0.2146955703536373
-0.8981321629425356
0.4208646888311274
0.6533434205786075
0.4859362984118505
0.5011176542311988
0.7598820208955595
0.28715172737038697
-0.3749189838000284
0.15345207537118455
-0.47190102233169906
-0.7671728359522556
0.06427205822277471
-0.08543335692581344
0.3960222018369781
0.8064535256587424
-0.626378684633971
0.19452468955448077
0.6963914942556426
0.3388816979244085
-0.9780463599406375
0.7916319130863125
-0.4233727643563121
-0.4141057319432371
-0.9307863835609396
0.3342786119772363
-0.06671198623922758
-0.19363359074737563
-0.21853518169540154
-0.9732816338097343
-0.7803665355774014
0.22071252487504767
-0.6405654264265235
-0.969056428341815
-0.31062963232044494
-0.017160810673450655
-0.3471616923936536
0.14604132524594493
-0.1979679855732941
-0.45239411601191937
-0.37486327096449745
0.584002128447249
-0.9230272403863298
-0.2679012349944456
0.5138956247222968
-0.786888505909348
0.22985821731444722
-0.5604858597505538
0.3757301253763048
0.4955506609906417
-0.4378509394572898
-0.01830173496674492
-0.5433974874489103
0.6880280947053352
0.6561611709449795
0.6200502457522292
-0.9420718169382496
0.7316916351328471
-0.915324947135975
0.18707641129053454
0.1934125531180284
0.6945627619163872
0.8576904391114961
0.1273862748694321
-0.37763976752091843
-0.11328186165289167
0.2839717070280787
0.4600489447217153
-0.22034694388892917
0.8276168463180802
0.07276672782031057
0.7105546541657997
0.15445520852863548
-0.7039497483041384
0.7728071750962544
-0.6230749182863191
-0.002228133613138228
-0.5946278991712468
0.04820155251049241
0.6503820508953626
-0.5777767717723774
-0.2644443894582802
-0.27130802498999484
-0.9269392943129064
-0.29189558610471233
-0.4253325834396502
0.7904538330366058
-0.46671236039815334
0.8545699134914588
0.14017440621187616
-0.38468246799415495
0.5593332861845814
-0.11004957437181728
0.3750572485302559
0.501373373703057
-0.6159371431557832
-0.06790283990019153
-0.4207693994433832
0.7389411524210003
0.8879177673419971
0.3378130286664096
-0.2622540005875349
-0.9491194186946563
0.2571860550300076
0.033725882104378435
-0.927433925710297
0.44653303464414873
0.0857603361589887
-0.030436254990701572
-0.6213955207584048
0.5633804501264486
-0.14277977184745239
0.1668945453693429
-0.11724107113023163
0.0686477259045375
-0.7612257204353952
0.11551310070967724
0.09694564284608465
-0.8997592220206241
0.42014288601687255
-0.19256787771467
0.6873740481715773
-0.2906080961978301
-0.569955111756115
0.11849374387728351
-0.7254449076944554
0.15810191366351223
-0.9894017815747802
0.9931426510297678
-0.8529609033406709
0.05935482836885475
-0.12199716429346386
-0.37151591973297315
-0.951218293032629
0.9448423620146535
0.4895551894124619
-0.05966258831112614
0.9530940181282008
0.4348799433518833
0.5063991911356502
0.8817189526450304
0.5809406778201109
-0.7313021955383388
-0.7250273252798818
-0.5160311698719158
-0.1575425204576173
0.21096272217395895
-0.8912558262882964
-0.501251050272425
0.23364753867031895
-0.3829378053296655
0.7215933624177602
0.8315000203190102
0.506821934727862
0.4635488972016997
0.19251238367296253
-0.6810323227737105
-0.2213285266391043
0.6675901355497813
0.9414832231903165
-0.10595996940230079
-0.5992954802717252
-0.4428014495154473
-0.2923048522294589
-0.5659425261556448
0.7412923752531497
0.3527168472904061
0.4163711386834672
0.17442651657521258
0.5741208138763401
0.6100305926214489
-0.17162177022339042
0.7679357990612383
0.5968624511201917
-0.8737341640650629
-0.19570947269002525
0.9821870292894299
-0.5325164171824786
0.6959500657401945
-0.8904766009407565
0.7334400313690665
-0.09841173644233381
-0.5223969989524184
-0.556179518962713
-0.023323232386867065
0.807458254500026
-0.030444747468719058
0.8145307509570408
0.12270521181758309
0.7694234847276853
0.7802654242652687
-0.48206983815241133
0.8359628588856582
-0.21497977911075128
0.31445435276739775
0.38336158781196605
0.3986389861852442
-0.2692629681037866
-0.8117265421451296
0.9963885603854299
0.7089039240082857
0.027257350634720012
0.9327520487669336
0.1393584741379834
0.7733985506159309
-0.049665770842969525
-0.8180516902780195
-0.22857060910620275
0.15629947087644025
-0.39012636249188604
0.8106965267724018
-0.2878756168180112
0.05523401199866029
0.11603166044399904
0.20563260303470354
-0.9646389526984738
-0.27674629262983497
-0.9878840770576054
0.31207286411937485
-0.1991060855127016
-0.2886671893391919
-0.9026381223102886
0.37293095450307323
-0.1160398156057798
-0.5552622287631401
0.3790768299150884
0.0863532658401065
0.9455498292555207
0.17362038706508742
-0.3340454193976867
-0.4732423380030897
0.948186646711596
-0.7463717111297643
-0.010441957905334531
0.11723586105841854
0.6633419322499143
0.5445963091634132
-0.6041027129059156
0.8715571132074358
-0.5698876800892954
0.4304472527834555
0.28982286464584406
-0.06444846250450298
0.6714386914574091
-0.009837108786044046
-0.06942090264647471
-0.9274502273360954
-0.9484362627420544
0.8116089675717455
0.4374138665520946
0.8903001332333378
0.7326762353373677
-0.24832346359820878
-0.4143322757836261
0.7437408613224019
-0.7120231598112543
0.3644472470404898
0.3483114960570357
0.3567851293733719
0.23233960736456472
0.9378305225873347
0.00014127802153951485
-0.2890153776903821
0.8931916247177132
-0.275060810880116
0.5816867478941585
0.8936203232288817
0.7831301523437366
0.35989773477662923
-0.5649676433642088
-0.931035868995105
0.5119625416562636
-0.6791045775684448
-0.8372856355060199
0.8401303261351993
0.2415297228114719
0.3749075154622872
0.3247113288606438
0.8866446495997147
-0.9959270841774164
-0.8685622474926182
0.8953848993480902
-0.21528313298058466
0.9328537409918949
0.08586689512294732
-0.29532380194794094
-0.5109396982311443
-0.9159680464917157
-0.8119722215960254
0.5584149847526785
-0.18136004606402478
-0.5914888812712811
0.47338619825185857
0.07771850382802126
0.4052610738720761
0.04348761633039766
0.6778112015797042
-0.3478051248042118
0.8740224805564554
-0.6298666256048482
-0.7750974224458658
-0.8986792795334
0.09725380376415771
-0.5970702659417679
-0.07561248118195696
-0.5395766303098728
0.09435156537663092
-0.4794152169342809
0.9490818258039169
-0.1753242007907021
0.6822439105083735
0.5500961768843449
0.6175002830148686
0.750024474548886
0.6875561465494562
0.10685932287699007
-0.6041127211885151
-0.7834146486632814
0.97399464775317
0.3207953872511209
0.5736854296898655
-0.04586869765723822
0.5333522344953756
0.14006901604366906
-0.8976195478245947
0.24777031614596656
-0.6396218826194537
-0.2709460767919183
0.10385651978051591
0.565052002089852
-0.05323762429463308
-0.27160917887716174
-0.5958224287877631
0.4741391468110048
0.8324853329149109
-0.0010510552225506675
0.7255978195479122
-0.16054300805991617
-0.9420198606819454
-0.7715970632990921
-0.3104226300054933
-0.03514967873056163
0.03627704726740877
0.29216256292621456
0.403691433161697
-0.11146424495126861
-0.1505460981967388
0.725151618478624
0.7700614697886472
-0.8964947857493253
-0.8452524451299503
0.7422604632542833
0.5755190849926082
0.5908173310717475
0.827152814084823
0.2716986565531705
0.4666849669926785
0.9330021020982511
0.2611547281120128
0.6114866086328405
-0.8417848949580291
0.892621678696518
0.6055731244613896
0.824389120439909
-0.6507862334735037
-0.48890518275938577
0.20773422955550092
0.995573705241146
-0.28180616890103627
0.4728451646071805
-0.5186211792356139
-0.35371579543083365
-0.9282983748873745
0.13601733430668816
-0.913050531214116
0.7903587632211431
0.7381562268964823
0.003808488311615621
0.27248696890369883
-0.33571008613246067
0.019823100317652997
0.3167248006528447
-0.9646682555475641
-0.38285562083011326
0.1591401063018849
0.7916316642816368
-0.26727845784910564
0.8586527507461446
-0.6607030770361946
0.35491568309851407
-0.799470464198313
0.882094634232963
-0.8600098434744454
0.8057376069664604
0.9327118491679149
-0.9265772199370985
0.32338723685144144
-0.5067176865222052
-0.06642167652261399
-0.149520289454659
-0.1407814189449561
-0.8230571805566429
0.5742069642380623
0.17725870425362977
0.8161008956920177
-0.5678869713795511
-0.19981578577520986
-0.8267204283008307
0.9456283481552001
-0.22120496335485296
-0.058557781872103476
-0.154423552321729
0.4371764544688397
-0.8228864287682418
-0.9553400279457309
-0.1923220141872335
0.8102525168362527
0.2207284922229389
0.7080037370477557
-0.16711129414391168
0.24140900176406777
-0.7197758257826696
-0.2526679542745778
-0.48252049980992084
0.5358242906328539
0.5010148635073051
0.920687367660801
-0.5774151942687411
0.18725298142869162
0.9696004740904454
0.5788576268784127
-0.6025373011987494
0.8719276470298547
0.457744104589634
0.6847509506831209
0.8259954219532764
0.5456229561207695
0.001295022629829834
0.2768143624433872
0.06778365352195537
0.7778421124878989
-0.009596687868182574
-0.7208230130449376
0.9182301033548579
-0.872363428052209
0.004908525674247155
0.34708142301138567
-0.7725245297977377
0.39174622990166097
-0.5675976884636622
-0.6758751506191925
-0.8294338660087239
-0.6105541746599437
0.7320163162411786
-0.10910983576890465
-0.6188334180414068
0.4087710917456009
-0.24046523543896914
0.020497524850592752
0.8240706108312394
0.2560619579316912
0.2826636937836575
-0.3973985230118393
-0.0964418181919986
-0.6946601053969954
-0.6586225059652433
0.46787238694196787
0.19848343223702147
0.4787595638121236
-0.36494050391284416
-0.4874246934067983
0.9198902336072092
0.40684206177037363
0.7438609121086603
0.6006291624410658
-0.8106869629209956
0.20429216723799493
-0.4386304449117602
0.5482933395644667
-0.4674109512650393
0.8286981519719618
-0.9372120933015495
0.05701447937211834
-0.20204892352189652
0.3272201972253359
0.47660357210271354
0.6060612969850856
-0.7331186082419878
-0.47867825050092727
-0.7753810530843173
-0.4299610812688386
0.379703811509698
0.608946744623188
0.9935641806709732
0.937459872918005
0.07688205632795819
0.03878209974033764
0.8767174438369354
-0.5343278880724844
-0.31379461696126576
-0.6409593366534212
0.32921057867934467
-0.10472658384003664
0.21012868777402605
-0.763885712978174
0.9557850536871024
-0.03975162442054536
0.19997015951331232
-0.5313878648651156
0.4878760658715988
0.21573814204858843
0.10697576318023949
-0.13017808249959395
0.617292337200054
0.9885488843863963
0.540317901517642
-0.5426158949993425
0.38197071712892483
0.7527938186707566
0.9873584339802384
-0.8389615221398343
0.8624142534513786
-0.3041611160804414
0.7811691068942932
-0.31606252198154383
0.8241914262294039
0.8851490504844368
-0.9794554481783546
-0.05531987704739727
-0.5888156191204106
0.50301501834885
-0.33866723559768497
0.02253002899390899
-0.984380044019578
-0.21984373071498498
-0.8024917129727995
0.49048507297453514
0.0051200374821980255
0.6696182742820158
-0.39729426635807386
-0.0606968428604342
0.2395713943524178
0.8046631678236902
0.2528418917842503
-0.9856021105021044
-0.07855365700736283
0.7966803930697952
-0.5626236591038456
-0.0722937818987035
-0.5410730067324065
0.2547384137043376
-0.7043226549472186
0.920695034078546
-0.16881560014295083
0.20662742753568852
-0.15132869153364648
0.7867275266456137
0.21460997194152465
-0.39160583189940334
0.3663836044622011
0.07443526805362777
-0.5410443532759834
0.3119072250460371
0.05877720557141908
0.2838721107768061
0.17493286919315665
-0.6883994411057084
0.9783906818994479
0.5069000387852161
-0.15879960505150859
-0.2920108342364509
-0.9979464701695666
0.5032833969489912
0.33738853826774995
0.13971133720489837
-0.18763366221714795
0.15901855647244578
-0.12660732195205382
-0.20310522306625667
-0.12476416713214555
-0.2938655920502815
0.7443362606158226
0.5253954985765084
-0.3988136889563827
0.9333883336801483
-0.3051157005500629
0.3409715123362813
0.5574039428073239
-0.2620333363195808
0.3733180281399262
-0.8173112368819484
-0.24323082006334418
0.3150773816503363
0.3658690887428817
0.0016659117935038381
-0.9042502521428724
0.6317513770274787
-0.37256265261583943
-0.630181355856853
0.40270151978583213
-0.08388097795829474
-0.25951210198406627
0.9547845499044942
0.53861940266552
0.9738530939365739
-0.048152485743033324
0.9738380395878679
0.8596627344262329
0.1327451623969229
-0.13185304083731197
0.07833936389444407
0.6402696636621763
-0.32897227437221055
-0.44140003251143556
-0.1784151355969772
0.08824246120225054
0.5507552352640945
-0.9136126594177076
-0.35282806307577164
-0.33523828888791507
-0.36547945830193473
0.21257439552368584
0.1273705599752235
0.2937168214426189
0.6937482771764671
0.1514019404149518
0.5991756253850036
-0.1804266205052989
0.5849174316677255
-0.8576623883762933
0.22350958628010265
-0.11505245690528243
0.5127210189905005
-0.6428503105277688
0.9663229490646805
-0.4011999152888759
0.4226018820465143
-0.09145271056799031
0.46603649827193383
0.27189805374675435
0.016060321854046933
-0.22802120102181656
-0.666589018751311
-0.06356831449018374
0.9803012728083933
-0.48393046961298847
0.3315907462271661
-0.4130653121383647
-0.3997085095807589
-0.9192072095985411
-0.9471352714245944
-0.60527647784054
-0.9366211999081089
-0.2484867818599088
0.29072532999123113
0.8591878042355958
-0.616764192823618
-0.5284958337984551
-0.8073898012179681
0.39305923274687804
0.6167989300853296
-0.39914302576257454
-0.19877845048685794
-0.028203241688987468
-0.03841458357739458
-0.21674160606575166
0.9573191140831334
-0.47851584649137013
0.3655013007757064
0.6430841617285179
-0.20543604807272575
-0.02267433554574283
0.5144372557657839
0.6154342984458545
0.26065440200941326
-0.7149980063577754
-0.7482412119793267
0.8098706332054402
0.7909246518059649
-0.8934902921474284
-0.36985639977381624
-0.6339321604724684
-0.03644403913425376
0.7925836623067675
0.02829278454742412
-0.5962613217826187
0.1949814013238622
-0.6199506642836019
0.0863001989700316
-0.41129188126641103
0.27520772824684125
0.7339447323478041
0.3034644135658173
0.13748008618499385
-0.9758037244391162
0.8490892459225756
-0.2722592211708368
-0.14284197917329422
0.5633288153815319
0.20389115909965283
0.9543166022755134
0.9001919560685911
-0.06617521254813385
-0.99479498140131
0.7624952291120288
-0.8179953388836816
-0.8305838523535665
-0.5147656718711735
0.8026013378622332
-0.41111436773486054
0.06419416944478984
-0.2166955278136411
-0.7015185869212321
0.6486239827554188
-0.7349184833381814
0.05413023596412447
0.7618875360995818
-0.830725483444156
-0.03823151143234882
0.14895887842342082
-0.24840705421964904
0.9795553302025979
-0.45549176610356756
0.12265177565304475
-0.09118058285391362
-0.030397239760708183
0.6342443155866762
0.02382325140392494
-0.3627518295012495
-0.5403449258404438
-0.6845241555823947
0.7257057799636806
0.5861954763638519
-0.4464379726558825
-0.5094255256481612
-0.2204816935353573
0.6610844141149963
-0.821802191529281
0.30602796173732005
0.15437744536961517
0.42453310825529456
-0.8351356574946338
0.45049990477038393
-0.7222604031852455
-0.6893714572586727
-0.8673879418086121
-0.3098199171157414
-0.23286945984517704
0.6689591004389557
0.8492018497590939
0.39413661866657956
0.4010663762992339
0.6348822134892307
0.8367807490960018
-0.4185828485122305
0.6684623330398474
0.9449715562718712
0.11958026354080165
0.8794278252193832
0.462897182867823
-0.1624313360173555
-0.8995899656272168
0.9718367374143191
0.16524450283895042
-0.3583869046220123
0.7370736914891372
-0.6556958598455158
0.49427872573920895
0.9996695277799412
-0.4885334234441596
-0.3815477302607393
-0.8009924671388298
0.23072385014899477
-0.4019154095102919
-0.1879279044425377
0.501069664694219
0.3938988761066309
0.4605981643906607
0.7509680477356673
-0.27668704437020963
-0.7803746886391558
-0.2980540706769528
-0.9132939280519958
-0.30982340292474864
0.48152205005846915
-0.9085205917762704
0.4485501984873197
-0.0874584672213099
0.8580814327916102
-0.5585085732798891
0.8036337368758482
-0.26054466289608835
0.4627690324203326
0.07591841927935761
-0.3393221405123519
0.14148634187729803
-0.2965813896847742
0.393784412063215
0.8564792041494462
-0.7168682311123122
0.38719908635655975
0.6701035406578992
-0.9630001577145322
-0.8093385940558442
-0.7046734711015623
-0.23088176008747507
0.5311060991196503
0.42968776725739843
-0.18291833124637402
0.016235123663799644
-0.7928746070746018
-0.14549739602154244
-0.5417437016824396
-0.6951985629037849
-0.42922738283360173
0.8652547611747246
-0.16042402030322234
0.33447095603371046
0.0052823095743650406
0.05725927769284489
-0.4980464487890448
-0.4573007111937706
0.7145404364009578
0.6443467938037077
0.2233038359793207
-0.18535153668558357
-0.6592524350347637
0.24655074371906371
-0.4200854568486154
-0.4950526349663742
-0.6370522039577649
0.12051589646534477
-0.21936378756731978
0.002344515597775043
-0.24128127173804348
-0.5087487893306641
0.36718295064604645
0.4681562196268374
0.6889243850411535
-0.6494643546577701
0.882822734814442
0.12165372447622302
-0.24770321160287545
-0.3487178574953169
-0.9584150596575227
-0.6642040481749376
0.10806268856376655
-0.8850815578446496
0.7357672081593256
0.8171702212347292
-0.22352435036692442
0.6454890988243756
-0.04788582183942336
-0.9189650694512814
-0.7777290542115731
0.8085763340187011
-0.5587467777635751
-0.11701426902815082
0.27566823121651396
0.2572969469676416
0.9438105564560468
0.46231490455257296
-0.3800480287950099
0.4887990744113606
0.4610402424363964
0.5673010803874741
-0.6349788871938713
0.9777418347401237
-0.8681060385034065
0.47370919674873946
-0.12113773909054926
-0.4570528381289969
-0.7022439810543413
0.009536948536143397
-0.4058165089173571
0.2516568148312128
-0.22048212480657603
0.8276710094347661
-0.016483360985721784
0.540623939001406
-0.4587316178687424
-0.23122898722521534
-0.35994981291723205
-0.8127606946571027
0.5519471413508656
0.5183252610511613
-0.17824859482001698
-0.8985594859265913
-0.5732857314101505
-0.06253176921198977
-0.7115051559462477
0.4896250760080154
0.802464860056183
0.5281772193247101
-0.7297032705509661
-0.03845815960085752
-0.22598728519116063
-0.04590343449791501
0.24014922364857072
-0.9412376529649316
-0.5643487949955912
0.9519785319489396
-0.11931661457435072
0.18720851239111358
-0.05323005448560525
-0.8541840478030167
-0.6262925396800822
-0.3502684195367738
0.3061455153885113
0.7045630866272392
0.1724812077977682
-0.8558973356949482
0.6300755651925198
-0.19755434784775083
0.721726699887614
0.1991758995341606
-0.2668796065754724
0.35600931876019715
-0.1092982257295727
-0.018219681736798554
-0.34495522375728416
-0.8202772060786934
0.21871317228729348
-0.4914107868036599
0.9784584601586925
-0.46476965582075325
-0.38043412860264514
0.05014135370933226
-0.7803859741551264
0.6439217322416002
0.5109283789587471
0.3760319351460544
0.8527425826325898
-0.08098238087211351
-0.00209522798500017
0.8766518334856097
-0.35518233697349433
0.20094123978292688
0.9579166858702854
-0.04994545355195856
0.8212694632327844
0.2463605103274058
0.877696975917351
-0.6227099921379717
0.18946903353528377
-0.08743270256491087
0.7490278854578429
-0.8627770453916512
0.7955848652824986
-0.09354789983971434
-0.6622672810268238
-0.06578302981797424
-0.8228974291005362
-0.9552091960702238
0.22334566038563408
-0.09750861224321516
-0.822628375158625
0.8287999071193308
0.4597738348353959
0.900943838730706
-0.4403278709106493
0.17571024977375238
-0.20594737812391517
-0.3744316987350529
-0.21197599773205167
-0.16999433480725035
-0.8102528253147063
0.8485978210166041
-0.6310209551507497
0.6525355542526454
-0.047278799749621125
-0.5565212063324794
0.01917166449714558
0.08350407840520235
0.4237740240160537
-0.6923756043862348
0.23108184165899637
0.9810570461322765
0.5688703931244743
0.8837439972440515
0.46484448730100536
0.34759516148572756
-0.27209941794832027
0.9686363741204755
-0.5176293057698038
-0.7515799117952697
-0.889869906024725
0.3224273608806778
0.758185664506158
-0.17089753103911787
0.6502489219678202
0.10231703728843144
-0.9493770364443428
-0.36649017784358584
0.7318227408906179
-0.9654027945596624
-0.320533772212912
0.6352849038165311
0.827170735336763
0.5562342672985914
-0.6315488780278877
-0.4190807645740877
0.192001385922435
0.005285709735328048
-0.9886927674543808
-0.5803226596051028
0.7312551676473675
0.8858029670798102
-0.7692604307104025
-0.22031164680545356
-0.5350437989746131
-0.2067872623062974
0.7072090972739198
0.7977340958075001
-0.9098462109207497
-0.27558435024772665
0.37819659092508773
-0.4181059083722909
-0.675327638547361
0.49937950580213575
-0.8587833356032022
0.8907667189317443
-0.5420084477032179
-0.2758492037856699
0.44323069422099404
-0.8284519307372917
-0.06460673633849923
-0.5250104751630884
0.034672221208450704
0.6576236176523165
0.7142690755335135
0.051549041741381973
-0.10409274290168868
0.6190809789736809
-0.24433684230926778
-0.20847643379601433
0.7434009584361385
0.9071328888315999
0.13221955154774245
-0.9918923955678729
0.2392089072975443
0.32762353489279006
-0.02071369499575404
-0.7716474396524684
0.6968981948771578
-0.6002956551088905
0.4903460282718137
0.2514420247887612
-0.2534716256417251
-0.01627550305105263
0.2638514544459225
-0.8967245786837752
-0.8671721776620331
-0.37615004874556823
-0.38883789402071867
0.3674345595746227
0.675458068379289
-0.06636300387381366
0.4637688574579868
-0.2787971686163835
0.8830346252498624
0.6758404117659462
-0.14316474360231712
0.9973554839075924
0.2087616558074128
0.8822762404139712
0.5094016571767905
-0.9065263145758646
-0.150495066749454
0.8236901082218799
-0.008579460534173133
0.5973723891177392
0.8724220433496743
0.7015174906328103
0.25591397431387475
0.4035271023852265
-0.11298850199040378
-0.6924458457582692
-0.1508018581313264
0.046826090004784104
0.2358387418749195
-0.8752705398824225
0.7679653913464328
0.9255439453759216
-0.7597383612546602
0.47926652486888033
0.46302775276828023
-0.8029127884539715
-0.10828385894661263
-0.6278067117327308
0.7001071447641387
-0.22447085418376878
0.1340546192162193
0.7806671081468619
0.48690403273374416
0.53017727931078
0.9406027086421223
-0.18950587190034307
-0.3925454094458387
-0.23867562665368092
0.8981549373781643
0.689743081881709
0.8044263093760518
0.46024987630229286
0.23897585971531554
-0.8149008864205995
0.39486466187725666
-0.07845829768818136
0.3824153849479446
-0.3474451744456364
-0.772546436496006
-0.295168676571409
0.07633178712320698
0.3784729533636688
0.10679397833767856
-0.525017825177591
0.12484216726045139
-0.2575573388697001
-0.43336570466529856
-0.03406591488455457
0.3600422301917634
-0.2622040467376865
-0.7147755785335521
-0.0702707177302444
-0.8126538921555662
-0.49625189262388525
-0.755077881174993
-0.013777833655893135
0.5468260771403628
-0.16344043826678023
-0.9776646824564794
0.30375349427584264
-0.1308369841583088
0.7417099260726561
0.07882219733991014
-0.9661806838682288
-0.456331341720408
0.4968915469713757
-0.7295227688549017
0.6392030409803904
-0.713400999553883
0.7174269580302348
-0.13742506313250868
0.9763943166184041
0.47606046219104026
-0.25987653789469123
-0.022835953621885396
-0.2909823516275847
-0.6686957571667982
0.2850333057241372
0.4756348321678905
0.11076177697666378
0.37321349282219307
0.2375764517806227
-0.8940322724892737
0.66156732366107
0.5127694226113713
-0.035858861954106924
-0.10524685629441177
0.6789925548595854
0.8251725168966089
-0.7807388067286296
-0.8557353795259663
0.4322464583648544
-0.49676380925356955
-0.05361269076530273
0.5593949895351513
-0.01861269261854548
-0.469569365761046
0.8888973396410973
0.232545955493215
0.9348226697894135
0.14136331477995445
-0.8907762768668714
-0.5995209265892543
-0.8749680859930378
0.8788953230971632
-0.21761521468198053
-0.7582641134544343
0.7031470733377088
0.6727851904547859
-0.5876897290251719
-0.40316087779151366
-0.03767781159834582
-0.38624797737396066
0.8205310800360304
0.8272515928710162
-0.44846502431318425
0.6421274896667761
-0.8674397864403403
-0.3670290804680181
-0.11863050843792733
-0.18626739279442206
0.5705892392357961
-0.04416253309010498
0.5780622394503958
-0.7099755903238194
-0.44580555504933916
0.00895525288590071
-0.8954721916553425
-0.7316306403525823
-0.2351926983390451
-0.5871421944488382
-0.8171521311941428
-0.12256928591290062
0.61205068274957
0.7014306503175662
-0.45069274067489595
-0.8920082410571051
0.4676388063212289
-0.40041358290255524
0.2716152112001484
-0.8522254038555208
0.538240148701318
0.4441513687918819
-0.9341187144200898
0.18578634774423097
0.10863117911394826
0.18394526891284446
0.4965118603551033
-0.9951786218187095
-0.5237683923778489
-0.8693285153083259
0.805017136923597
-0.4176954423353634
-0.8936971514273222
0.8528963510201821
-0.6751650153740216
-0.6557906655467878
-0.36236214076768425
0.7908233170100003
-0.24850655969219404
0.9460161589141649
0.0650204557894285
0.6634741072355637
-0.6541794578946578
-0.5088790709620452
-0.7086940873528391
-0.5616504000708535
0.7031356564228843
0.284701462897496
-0.038581333141754826
-0.0001887029544944685
0.3579585447676661
-0.22432128777740235
0.34804108013441226
-0.8290880836094454
0.8139495479846559
0.08547624959365696
0.6207862544420351
-0.32636785189497775
-0.7241580939350651
0.7505643094568377
-0.2749369492007314
0.5537839729519305
0.593874183613899
-0.11523559499888147
0.4996941360520166
-0.4896084690145539
0.604602795495429
-0.4581477690857172
0.45100834814114
0.313969228863469
0.9175298126559905
0.02673768401157761
0.0582534288073735
0.5784035608471048
0.5025265389975873
-0.428404648576699
-0.40497956890512565
-0.22545615781498474
-0.775556686906296
-0.22641496786110715
0.9157942674921713
0.687715480186208
0.396002628271368
0.3609690275966193
0.8945125152586639
-0.59281740002276
0.7946253112596384
-0.5514049911250951
-0.9367213826173473
0.8336230537773097
0.27129219940473814
0.5004390794298799
0.18348909956276982
-0.6589078153052574
-0.6117353512141643
0.955393318272348
0.7215253012904643
-0.7616399136198124
0.8894440245944821
0.9598731863357617
-0.4491609211967704
0.5092861203548646
0.4754757064437456
0.4679200126147127
-0.7651282519897786
0.09016000757508169
-0.9299899061931198
0.6849333690831487
-0.7722732322579249
0.6160683140574568
0.22140600714009517
0.5693075255329301
-0.6126633701650874
0.2136448700690574
-0.5932594275794767
0.8246650887746341
0.43070960671131675
0.51595921855989
0.8128262577989644
-0.5401683248993017
-0.24605261662686573
-0.022871949866144714
-0.5977882620096384
0.755519156571558
0.5739435409409357
-0.26517855354558306
0.016847165971277
-0.6474519682748705
-0.7222857335668662
0.7064146501243627
0.1817597327325169
0.003958564721596725
0.9327175000781376
0.8196192626054213
0.2397910668201675
0.5387114842325509
-0.784016906896978
0.19505977863040558
0.6954857735823536
-0.29774815158706947
0.7078207262002065
0.08159403955742195
0.16712323937098583
-0.3396084203524461
-0.7528561200530799
-0.2959341498337529
0.6446394758767378
-0.48266445131439006
-0.13210187320756472
0.16961285921639724
0.5164722602319012
0.7542334942677635
0.015560149561466785
0.12866585221453586
0.8292628119910528
0.6753877867154141
0.17332223184124884
-0.3250973237398074
0.4905274388022307
0.8532185660507976
0.6977167603144756
-0.5314038348649488
0.013670009514196835
0.1320151136074188
0.49803386925924387
0.8166108697157313
-0.21986481097709798
-0.8049939273955347
0.7327318696142806
0.22603403489683793
-0.297212336548216
0.8590738947049439
-0.552877450604415
0.9402096301454488
-0.9352065660613171
-0.40568996306246397
-0.060387143806980736
0.7889095614173214
0.15893795382485942
0.5483406491389542
0.37330029781948393
0.7192827150180003
0.7231364474864963
-0.2300374060632564
-0.3546109160911439
-0.47115118708217674
-0.8076947346404781
-0.6326267384233337
-0.3586389504871661
0.8430919307457645
-0.7897388494439432
-0.07040504871981512
0.7525936993925146
0.04821907384260893
-0.4791572633334047
0.800946160400352
-0.8659965030487351
0.6972323480109817
0.2376230698976476
0.010680376265405078
0.3795124090768418
0.6693410576479577
-0.2251664243531184
-0.15576004476245942
-0.07702412159061933
0.8326204539585278
0.11324935694376514
0.08043949198228928
0.6231220201189154
0.4453056249635148
0.049782513194880584
0.2738678482098542
0.8021631127470419
0.2357102130761357
0.9199800675815379
-0.638970291733931
0.6071121445774883
0.23979032827076474
-0.9500935153467469
-0.365135780919406
-0.6093511836190373
0.4137896397180574
-0.42619312089583805
-0.106755904569662
-0.46045265401205615
-0.412826936172211
-0.11720915327146808
0.2530206619846145
-0.48833765292205333
-0.9058916993915804
-0.06157901829806334
-0.06437828905065657
-0.14589626157950875
-0.8350747586567684
-0.7658418162215443
0.5860221195393391
-0.7443826349575231
-0.19677440942129087
0.7594327031164416
0.6252829681175216
0.28574941057346015
0.13085354905142776
-0.7035454027310022
0.5505720733254331
0.7697312208073195
-0.19266304142958868
0.9323021758602112
-0.14520661405557145
0.8059690910924016
-0.19927811842162568
0.6034736344529654
-0.26154015871719394
0.03457930642022977
-0.12786458419293667
-0.4954928613113012
0.5239508670852193
-0.09650751391759127
-0.010907959796829347
-0.5456384596534993
0.09333748717161128
-0.44790484584460577
0.10805557789884146
0.7835418155342024
-0.2692498973453621
0.6837249843483904
-0.3486264055721089
-0.5585858356817806
-0.8468748843384186
-0.456879939188761
0.31342882385205706
-0.782017021697444
0.9704488507024398
0.9886852861130804
-0.2092059821358252
0.8476769819997745
0.4190425600987986
0.4870633369291373
0.9369855485659337
-0.8831925195038233
-0.17592679479967654
-0.20313914011744205
0.8197755596002627
0.6549082999913001
-0.11316663612371469
0.8961775156663323
-0.14055593308961312
0.5786323218459135
-0.04306163531330576
0.5544948887563321
-0.8573256357872931
-0.4123345380169865
0.08695146018245992
-0.8778640059941161
-0.5412338350751122
-0.5374619398491278
-0.6951190222707875
0.016262401777666247
0.46958888259832543
0.055934229422843096
0.11985769974700022
