weights_pso
0.10713972492677715
-0.2855770372981722
-0.02356016869016968
0.4823392825238181
-0.203387395258636
0.10344101942717422
0.1620495816105062
-0.2599839976894798
0.11144882819173892
0.3780218703359054
0.147442878909315
-0.1575947688184719
0.5258978810416389
0.054935042561735814
0.3078135069796193
0.22172415938326315
-0.08884827500749184
0.21839099891508912
-0.3343698792315135
-0.07989919533120833
0.22590090840838295
-0.2872850158921422
0.030295103235826633
0.3078431941798474
0.13394372572677646
-0.04984119188838095
0.2515958077726264
0.1483707210841308
-0.27412892920232707
0.16178509886187667
-0.10005028912034573
-0.47905112263558436
0.12093018778112162
0.2552258681888379
-0.24982385920979516
-0.44833618195268765
-0.17038647880155056
-0.29189482379404924
-0.36248701360970664
-0.2683108907721826
0.32841770043063817
0.18956175495575278
0.2248903958499016
-0.0927376263808137
-0.09500228917441478
-0.12690789957247356
-0.44899012967242297
-0.16443213549686908
0.31196447973104496
0.38537855319337533
0.35183423381959505
-0.40241997340012636
-0.14772872355623926
-0.20877228147627416
-0.36923917184140614
0.25743391175935226
-0.08829632592652187
0.020412895412994004
-0.19082267479697315
-0.4930301262268539
-0.4063570146521209
0.21628028409257197
-0.019861496927987676
-0.4857283836737153
-0.18643290472101043
-0.19346636779543322
0.19250937561666076
-0.24568519080458592
0.42015717845271433
-0.10839880876952203
-0.4414148677846991
0.3702263834852899
-0.22438691588246676
0.24958721246657403
-0.3535698662721043
-0.07232068027370579
-0.4488580319727511
-0.22667987417643795
-0.32737529062128007
-0.013200926794868692
-0.016818412802319854
0.2688806303732688
-0.40192898181838715
0.3555414581693927
-0.3892263500806659
-0.5592308137151067
0.19338676216298303
0.06661202693833727
0.17229626156156083
-0.11245522161457722
-0.0273480885188031
0.030808893257475788
0.26173971951499153
-0.2929793645581286
-0.22383212913041287
0.004703824043835234
-0.5097609744930042
0.5654884307468491
0.0711107886954635
-0.27863016717601385
-0.5589706121306346
0.5567335704719082
0.18819500617142662
0.22418571945009585
0.0250082269434863
0.07699776744929647
-0.9217675991655226
0.13737998337905608
-0.3647457783471378
-0.062413945391994935
-0.2113576865616244
0.015742400741914842
-0.05560065741027019
-0.05613961815289537
0.1953706587035974
-0.01111339555298347
-0.13463780379503065
-0.29233632473402754
0.064119132701907
-0.6281992974007845
0.23989104174969675
-0.3957386783380585
0.3254725091830803
-0.06588329572414414
0.08970476741749665
-0.07304810678120506
-0.19381984312193018
0.2617298359324019
0.45338424412991524
-0.36682841615000106
-0.06281160468485762
-0.1690444428966225
-0.11695788460986647
-0.13664292879120643
0.3173527451048239
-0.3883200203500402
-0.24026946873326618
0.20284053205401903
-0.10416571122078223
0.26202442374272866
0.024276027073084714
0.05429195637708905
0.18918297841773346
0.18494848434471875
0.019839107420926264
0.002556569770347211
0.30002395234932244
0.2589949744561178
0.056201319110127976
0.21299763598941035
-0.23397016269981363
0.05489249184876489
0.07634447751982672
-0.19974024067183802
0.18590697463683886
-0.020599815894440772
0.14164167991491108
-0.291322848685488
-0.3486173447897668
-0.20667581850806518
0.6296784704077629
-0.46002558112057257
-0.17160535281642253
0.6966532673996999
0.035137659218268016
-0.36065637559838415
-0.448566874782827
0.05505958892698507
0.13083298099856022
0.33911922857096627
-0.08173671370403077
-0.1467271839085357
-0.011931970271031489
0.4321605439837729
0.27870624611598716
0.2403868644042895
0.000762627089588214
-0.060715220537610796
0.0078078142714085525
0.035888186968378866
0.24250941509267737
0.3135075237629933
0.1517855014119028
-0.3041023477883353
0.11030879578741414
0.18349003511037848
-0.29153211677504975
0.24739651784141564
0.4204844514153513
-0.5034308662550642
-0.06746863098269021
0.022501418647683454
0.09767411763070599
-0.17464109782449247
0.011129292961622681
-0.32984993294525505
0.12827841122993194
-0.05919396087671795
0.27459315736221407
0.3213959154153055
-0.14039777223024985
0.24115484149860503
-0.07108791121109055
-0.044419269587561774
-0.429274181925098
-0.5996211576410413
-0.12464831448375334
-0.5671087136933807
-0.160932365474745
0.21291303037414744
-0.10808660747548052
-0.24177041272931807
0.20199212278706535
0.6280679315765506
0.00797665967525791
-0.10208287424375172
-0.08442079754025666
0.1877048622845492
-0.15618000001100663
-0.11530019216834529
0.1531045014441809
0.08190791049260618
-0.4440445794138575
0.21440658454493094
0.04348631413683413
-0.3197777681709524
0.022543509140940266
-0.3071994316345996
0.08075802477321375
0.11189740878806748
-0.15266301269807078
0.22683568359515832
0.3802048175932858
0.13326433200372698
-0.3115378948575135
0.3309088849724518
-0.2994003794962317
-0.218152388195724
-0.017458079994082224
-0.08836749223242113
0.29269449497169203
-0.22482885045752982
0.4181852821737106
0.06936316825191473
-0.4312184719109512
-0.23077739378438028
-0.4561107329930131
0.029487743101804843
0.17668863519474348
0.24533117096099777
0.06255992575617443
-0.02366304607147377
0.5031065308306577
-0.22683970191814462
-0.23945127654066298
0.056733289887237984
0.12343367099161437
-0.04728059315224236
0.3393556309495599
-0.05442670571603126
-0.06933186482387915
-0.19846078219832033
-0.21015933764150238
0.3038791206914017
0.16823331620605375
0.29762997901764476
-0.10352623097617679
-0.16040765765569806
-0.4007986410375791
-0.13012133133179488
0.52826136634591
0.3829674883805921
0.07632409007813735
0.03817660043937667
0.3396954356367083
0.22465459549894096
-0.23750362822982662
0.36038562396016166
-0.03603903428850666
0.1473403110962577
-0.18552719165568535
-0.033902267594430574
0.0063074665673184
-0.0063500162035820705
-0.10817974163929105
0.2879359507249701
-0.0050163788894648275
-0.15936927524349284
0.27810699560646346
0.20777694660825732
0.02808251910708709
0.41987246258582506
0.07065507322055063
0.48079263368802166
0.03822548982417681
0.3147546817784773
-0.23804741062833995
-0.1478641593217633
-0.4610753902569846
-0.049800169976161074
-0.1421630573610481
0.4582119565863168
-0.13628393814319312
-0.0187263623176672
-0.32633999213380865
0.008184111636778617
-0.1615286127430093
0.1907658253408507
0.3167601875558251
-0.04211446430811795
-0.016705566294879095
0.23043840203444524
0.09085630944849674
-0.20164438237325524
-0.4736342976912557
-0.012329164795824686
-0.025911650609084905
-0.11322741783495337
0.10948033669209628
-0.29787483407185866
0.39654103010827674
0.08429227232881686
-0.18286741757076153
0.0633121326028454
-0.3940053570956844
0.06940507372694454
0.05398458478547475
0.05647676499376219
0.3110804897081321
0.08417701314202444
-0.022292503836771383
-0.06003950693033528
0.1870717966633541
-0.019236954615151843
-0.02286414252880935
-0.33683204730888305
0.08732331991021637
-0.1812106303198301
-0.2527732951552805
-0.07711783403579332
0.13601997011664915
0.13527096324867827
0.17032051198617829
0.2636085927551146
-0.17312308971364215
-0.34623507808429066
0.5278626781231115
0.29267270780251436
-0.08130799037579421
-0.18567542262799994
-0.23841749269331003
-0.06449024863436346
0.13374969933647926
0.06622075182777364
0.13912345492414177
-0.32473764094606977
0.29348747611207465
0.1745126013241876
-0.12739555907440595
-0.16351360942415596
-0.19485626885584637
0.4610941534540748
0.34500192960474824
-0.3153929767896394
-0.03945567050538392
0.006442417865108942
-0.18854479934939744
0.269622739161907
-0.22774619133347188
-0.1070811221866839
-0.10693922725139506
-0.05557825839851461
-0.07341564026038162
-0.08201770953369328
-0.26102336882499805
0.20389959044226344
-0.28451858749670844
-0.08319827436889496
-0.0968046855197897
-0.36382386779008113
0.04474330939054906
-0.08538394729678525
-0.4408208462712854
-0.00029497446801715616
0.16477539176804482
-0.03917197484830961
0.08341280813750185
-0.13983840743510642
0.0458318786617991
-0.3500544054568195
0.010941571479759082
-0.3166336935471109
-0.3448794595998576
-0.6211555334627259
-0.22077276198748538
-0.18595985985487423
-0.052060066542741784
-0.15094674764643928
-0.178919039094479
-0.3452158378629082
-0.11967706827027103
0.1063208206613448
0.017798662981828976
-0.1212020403559297
-0.10435879138483585
0.2029888497255954
0.1906234008499507
-0.11688463707903467
-0.44779907454289297
-0.13517762333021968
-0.33759220130616885
-0.44897750959221033
0.5177870305280986
0.06732802585950075
-0.22588634966106244
0.5263647985368127
0.33651030401013654
0.09704122176944287
-0.08820176245714184
-0.13484114759667806
0.13155964425962022
-0.06201152596136399
-0.10898185270249046
-0.2957788625604572
-0.35695389848310655
0.16174066457798486
-0.2000036198420876
-0.07415121307264211
-0.1425291985640345
-0.06631081208551859
-0.25377926901824954
-0.06493730808078106
0.09315164605508311
-0.020531162393918317
-0.391509989017001
0.17660753106479896
0.11098540929802103
-0.6087569011035914
-0.19210754951985462
-0.06246486269117269
0.48572880506681393
0.03117747208885807
-0.15260024551074025
0.4477155508460831
0.009766134845180944
-0.2048008693210494
-0.2080947197316958
0.18662682700528535
0.014625015761598975
-0.033301893684296736
0.5303073393546339
0.19910293208604984
-0.2577510872099658
-0.6385038951383104
0.15324328553431293
-0.2411447004572298
-0.10673257996045368
-0.22150218897776403
0.1695631016223888
-0.20228886616695965
0.08622725746533719
0.15312303782319445
0.0389390628147164
0.11733305666848977
-0.44668999950803645
-0.2593135020427709
0.30208888902686115
-0.3643596274192579
-0.29220047453811454
-0.3379391511924092
0.15430482549678898
0.11477385864528195
0.17169346618791165
0.4363514331823592
0.16137690217018305
-0.07405988275569232
-0.3008006580212218
0.6325864577727792
0.08756623319580449
-0.17804123120203905
-0.0408646518584055
0.356653191403541
-0.3210232501296307
0.37881786737311435
0.35522741694912036
-0.2740581229116331
0.1757062282747167
-0.6596530882113985
-0.326205858803526
-0.06910928214493742
-0.1665281786993892
-0.2798986410280173
-0.26456164169997926
-0.2068499856980718
-0.24557623122150465
-0.46406423395182966
0.37755374583293905
-0.09251671909873464
0.3020384537791866
0.12397993782691465
-0.029584416520902015
0.3252495929871013
0.08421716421275398
0.19438633342967457
-0.3700179277734188
-0.05739817444570042
-0.2592228283154953
0.1778917998337174
0.05082544012365383
-0.036601234599724204
-0.3164306354253137
0.058522500468082696
0.2470809664322214
-0.20191243728632652
-0.3294370239487895
-0.15891556479029476
0.21513794033358768
-0.34234840906907565
0.22635333689352918
-0.3790818279714965
0.044555444447178995
-0.1822015134979364
-0.008807299683467988
0.3611976208770986
-0.5824617375322766
0.24285906214300543
0.38994335437969935
-0.2846423827675702
0.4141774082668604
-0.051197336118881456
0.5274545296555243
0.3877542661445054
0.15824617325742088
-0.31449043929672044
0.04026640457956235
-0.16398395067266003
0.13259648207789776
-0.1915973581420814
-0.05319156179504115
0.2575905672537804
-0.19613235395553685
0.027706349906721238
0.044729025075930684
0.6066838905307629
-0.15409485574186363
-0.611372192548532
0.09345882416398563
-0.14103094777081795
-0.5429753969159986
-0.14206927097140395
-0.4301470769763867
0.20398044417861802
0.02167010657375979
0.02156541257533747
0.7295212206252931
0.14951320957676792
0.4302349666157609
0.44069947036542945
0.270830040913252
-0.34313187017357655
0.1620087663163731
0.22898103210595694
-0.18187823996620037
0.18208221346943695
0.2740335978235879
0.3351463869991767
0.04343933068650136
0.07013868828199436
-0.19129433269532464
-0.11896357326107615
0.1721886444840864
0.012322860488509299
0.39823404929835937
-0.3152794389453321
-0.4300493251943072
-0.08540450843495669
-0.39704331831418677
0.06966520415820988
-0.24343775714607
-0.25024583368324455
0.25575710768703097
-0.09483305181787191
-0.10884388651188517
-0.48103526138266317
-0.2347861178181645
-0.14288462134655228
-0.24422040892685717
-0.6216465938116271
-0.021286135235218842
-0.057289873361829675
-0.3149430800432536
0.13145222197583703
-0.11980301293625022
0.031145309088711614
0.3327899976689166
-0.0879256820170121
-0.060750600057649096
0.05124420886831193
-0.19147512915873696
-0.054407936018964057
-0.20367238550233058
0.15711671062577254
-0.402224264476191
-0.054306995508824375
-0.25334783729254273
0.3044171222938475
0.28318721827435145
-0.1620042789114883
0.26041804944781943
-0.3038386277850604
-0.12477445267990557
0.040370549457394184
0.3295049693190816
0.31312681368162326
-0.007963774982346216
-0.26949641623073606
0.08916965325131258
0.3261340897172831
0.1632717493179836
0.09552055583110011
-0.2171087474549724
0.17632543329475897
-0.01387706570817976
0.0009440066699473872
0.12236834619352681
0.23293655847970543
0.18470222098474687
0.29578071307717385
0.26447053793805314
0.2388700638700865
-0.26599937495890597
-0.611257655836678
0.1463624889113269
-0.04673673811673382
0.27947040057551664
0.34365523925348296
0.2886400191782316
0.3191149704576097
0.22833257978040858
0.29780442129881207
-0.24217379624349364
-0.3930045067366385
-0.29753134470178905
-0.03935388943769162
-0.08429415955181624
-0.11628052622811101
-0.3582999656797918
-0.26297878153657195
-0.05215656022747934
0.008989123346792485
-0.27203588230433784
-0.08674758255493387
-0.07161300214249171
0.30218467863350423
-0.01877687702467951
0.1654024219744719
-0.13253449232131304
0.046856444524767456
-0.1515303026380842
-0.3358014551878291
-0.23417412583999045
0.04307605460837088
0.16794785643104973
-0.3184020604410839
0.20196029520510633
-0.07635045381483081
0.1995608814835342
0.12298295192123253
0.606714531155714
0.24988713064357168
-0.9247550492690548
0.3160361152355897
0.4514179484244526
0.288140055451238
-0.4652605286812596
-0.20758603516301416
-0.08919660641306887
0.4333153403163884
0.28797228540903563
0.26022300235800905
-0.19666341065032217
-0.14775995586127774
0.09478803404334968
-0.32139504575948363
-0.7172233772026965
-0.16376023846817908
0.08468532561178319
0.11039310089117858
-0.14175668883687897
0.04352616530723411
-0.06085681516333749
-0.32308319749617004
-0.040932080125738346
0.37236747523159597
0.540687717459161
0.1428332462092415
-0.1336342070930873
-0.2211011945859004
-0.016023314517644497
-0.17154839605696467
0.27381600134014744
0.038556096305129225
0.0723314763667683
0.050632968172300126
0.04690371068235178
-0.008882277834804029
0.36036471677926224
-0.5920013914000268
-0.3072844056193292
-0.02172100654653013
0.12364872158452864
0.2713420306523343
0.12104711759434025
-0.2378826943891164
0.43858494956622357
-0.17087586974224955
0.3196371253649456
-0.27290268517468885
0.4924845396924274
0.1855336118589702
-0.27986384804983266
0.348536290612884
0.05953658021867685
0.22813361096237686
0.10278784572488947
0.6963064367354316
0.6287174682086681
0.19424224945229018
-0.09038796251440676
0.14839659594882043
-0.10823554636010152
0.41888746252247533
0.4183771502738957
0.20376148472913602
0.15874865806803565
-0.3827341490865406
0.5493363021117352
-0.20822623679405883
-0.4676392948557928
-0.123525922948339
0.08878121219936545
0.06536306909789084
0.3137404506603719
0.07137046950521497
-0.39571455656152515
0.15097390274260325
0.1927039948495994
0.37969012753404763
-0.5349224593307483
0.4093662150286448
0.2011751439941747
-0.1126765321357716
-0.009022333986133075
0.25983263717347854
0.05145034215366091
-0.032020605131859586
0.2851961025311028
-0.42241576607342174
-0.6262612164434431
0.23327674280218547
0.009999754613640922
-0.0732695448748144
-0.2564591610406667
0.11326530423714987
-0.15025221248709497
0.2516182414350931
-0.2250732512239198
0.23420801666362215
-0.22674415414108318
0.08576411120692154
-0.14458868800553526
-0.5657692557408738
0.29482820541437654
0.11912879461680317
-0.1726170567860717
0.14590908480720668
0.16629374442606495
-0.31023444651017146
0.23333482653101684
0.37218168733650986
-0.10034433757179606
0.1834539409877797
0.20159766694035888
0.26288605301656776
0.023916623063658975
0.07350533038091416
-0.164469282975312
-0.2966038029265082
-0.412628372136538
-0.2602072565708979
-0.4288371181847757
-0.6630689681390064
0.2884543838775481
0.2590436383079172
-0.10971267746195847
-0.14179681283162568
-0.37651388135225294
0.0799759728046089
0.295649260655405
-0.48637772450249217
0.13921687753614817
-0.20424239087769264
0.37203273722062175
0.37356362661700804
0.006967390519794202
-0.39867420312762647
0.23116036165724463
-0.05553078247825595
0.2940609662683205
-0.0028117265838421878
-0.6029657326359179
-0.2883343106572337
-0.16423640194515288
-0.19918587831680742
0.03552410608529334
0.18238360876732404
-0.18753923234597297
-0.24296533391376718
-0.1550584510323672
0.031475909943127475
-0.24475551955683872
0.1248260106048347
0.11991923321605175
0.22613210634983344
-0.049281896490436364
0.00913630943511543
0.2465236905455249
-0.48280127452233823
-0.13616096932922142
0.33668043274394727
-0.3629228373580541
-0.6191386084482324
0.05186903574354878
-0.11674627570447056
0.19189884079637268
0.036921661793637595
-0.2543748355861377
0.24972091434149454
0.021050587975767827
-0.09492544625545654
0.18273159563828462
-0.3639116025345196
0.2716395258441785
-0.285444128794336
0.3018588307738936
0.40100529377579286
0.14958927951413478
0.2423726483281791
-0.4398568818501064
-0.0020262528308213007
-0.30331614958612146
0.1967744736603391
-0.09446697909675524
-0.47595931583256285
-0.384090700832324
0.19502990300229084
0.530996013873019
-0.3878107864489422
0.2626275699056621
-0.05832342739052679
0.05427205753516949
0.3963416345340308
0.18619536415793683
-0.005396909792015741
-0.23170065032764975
0.13186750748939072
-0.4541632876480812
-0.3969764002908229
0.1722159842153915
-0.21740573236308222
0.19648720664267183
0.5333515428646376
0.3099272030820954
0.5827168240104365
-0.41942172274307743
-0.09166892365656028
0.23623465961881984
0.29221143459934856
0.3605842148690842
0.33510728459531935
0.210617671883539
0.4531480286809175
0.09769189477600099
0.25131606359337
-0.013946714162772166
0.1489056076599248
0.292561705954918
0.3778974973203887
-0.03614620751470401
-0.028538953452138558
-0.34230708657430337
0.06805054707410309
-0.05445150595216161
-0.13663179110966944
-0.4860813179276841
-0.03743419892362691
0.22185379079386042
0.15250388816461624
0.24125613735802845
0.13239246220391457
-0.16067296900587213
-0.28353120701997125
0.013862704878280285
0.8969624000095906
0.4840280997528425
0.17278244982291216
0.1201023741216707
0.3298183561619557
0.06134026235684322
-0.08084974009586059
-0.13679311931866234
-0.42937558978016377
0.07540104224088105
-0.2639170282647917
0.04233400049028385
-0.4614449144664047
0.39216633825929453
-0.5726326370193137
0.06123044107943021
0.2309624827732784
-0.2892869246407426
-0.22487014058709945
-0.1451657534535814
-0.38512117331193557
0.15894791131528288
0.19751970157722454
0.491625376071036
0.04424863809033029
-0.028254772676387072
0.054005011752741486
0.5764705482932838
0.012850461825327564
-0.12036824408877227
0.305171037733745
-0.32645928416311476
0.4239987912548112
-0.36032277014306596
-0.40960223019794706
-0.17548162374199244
0.22681962988306012
0.15345130996800946
0.10745022922043844
0.25330557064855536
-0.31666992355647594
-0.09533235603299041
-0.6140713264022452
-0.06347862072560599
-0.15350997259869634
0.5689672224966179
-0.09147806974765031
0.08827408920127407
-0.23552769180027722
-0.10855787195933228
-0.07567200847372109
-0.3536587329818456
-0.5105204519625997
-0.13202261432079243
-0.30631138014770776
0.04315677586091617
0.03142191231920976
-0.07350577942876743
0.24959958924430656
0.06647570009649816
0.15156659685769405
-0.29573001754083966
-0.2862567278123627
-0.3110276521797774
-0.21988195073628944
0.1501180192564803
0.4059734173965393
-0.0633807345799479
0.0010897586621821487
-0.0015626457743628816
-0.4143103803896618
0.3063450940279669
-0.8121704434050069
0.10957767568651439
-0.10758724256344084
0.07201965891932885
0.17107800838115572
0.40364034524479175
-0.030543748216315034
0.18692118985076672
-0.27053177530617395
-0.14422034277456164
-0.032149905927259755
-0.6498999765500173
-0.3917214579048953
-0.2258903947511572
-0.4242837755408233
0.5788970854876627
0.2782638911856919
0.30968859826258965
0.4291465527550247
0.02336962676108951
-0.1170947417011961
-0.05169498776328885
0.10970087229015354
0.0682568359145044
-0.1947479485846074
0.17678003840354978
0.05944037934296736
-0.16517320643594896
-0.1540339004416506
0.12453803561676006
-0.2947236359984274
0.08932427856219655
0.3276356152888753
-0.1640711796438058
0.12606417919931895
-0.08978068390482404
-0.035448629673621855
-0.231609696583754
0.2642791223141325
-0.3307373493877834
0.11882797754444549
0.19338887099775606
0.11696870730238502
0.19377124852915478
0.47055731570555187
0.029921347925730164
-0.011677059018701306
0.33393006174408396
0.3116181475738949
-0.24676271622001217
0.10660625027856656
0.3320018467658453
-0.28889784206599595
-0.03735974153754564
-0.2102886852101235
-0.3415060693991163
-0.2826827609227596
0.0870053251351606
0.2150317935381185
-0.037069592857665985
-0.0962755439939161
-0.5104751835954024
0.037323070492265895
-0.20805416778666333
-0.20056475427060017
-0.16250308711601522
0.4846463088080773
0.4428743839699364
0.024741336835341694
-0.1737648612802714
0.017737472338229046
0.048347035302909666
-0.018074473272519518
-0.35681522737367327
-0.20141391973281653
0.09367227441238032
-0.016249583089442698
-0.26325948790992315
-0.16433544435171216
-0.12427944555091154
-0.05028829857938199
-0.16845746402252057
0.04959797958551223
0.24265598575936387
0.17322832074945121
0.25926483030857533
-0.2697174298970098
0.13960955184466026
0.04768494817882351
0.3181321978341404
-0.10352056439240188
-0.1617205172045925
-0.4599545917711702
0.16587298898587013
-0.11722869207257591
-0.12142030033856711
0.14708478739869796
0.1685578449123331
-0.035978459501705036
-0.11805035419297902
-0.06303898556650489
0.657131701004056
0.18837148775548446
-0.28350078924217037
-0.005138201857921145
-0.13654330225727807
0.06094820329533717
-0.015523369711177912
-0.01747143853869963
0.42316010259039133
0.5952830236158989
-0.3157352604346063
0.1061458819698173
-0.2321937192461137
0.39842791296130087
-0.4779621372342872
-0.41186610692571746
-0.3643826700526776
0.05804814135178265
-0.1056515331171554
-0.24819470436242444
-0.012920290022340918
-0.198097746519646
-0.06411888036693968
-0.24600085873735247
-0.31986504752275324
0.0461553695529352
0.14644089105114233
0.18965341640639516
0.20998701948284015
0.1480177519423031
-0.4960268208961409
-0.17839249453647477
0.3727310284649157
0.23086521381484548
-0.03587247357872477
-0.10508374887525611
0.01953204001865998
-0.4096630536554302
-0.39061367740106145
-0.4896441039215268
-0.38995814831389597
-0.015435183846621644
-0.07297209360520393
0.0867057627678531
0.1953042627070295
-0.4161565006611379
0.2687834277070764
-0.13803707106305346
0.45911363256588333
-0.11149109786978947
0.04667184076740704
-0.6491760940768838
-0.28143136263806223
0.11462216002311623
-0.04372437090324082
0.03070071352259323
-0.049904219949607066
0.13499497333000254
0.19478728257973904
-0.31295158661534556
-0.08799254182409018
0.13978606293693968
0.1649223720978468
-0.1569949156286802
0.23091574970853176
0.14886323009596572
0.14724523370941187
0.08969243004027365
0.34654980984174616
0.2967172207320593
-0.04037530293988647
-0.41464196015297533
-0.27917683832667856
-0.08112554070101013
0.41490597227931447
0.25548508375933254
0.1249728305061298
0.11389184997629849
-0.32228265910985254
0.037925196757342634
0.17119316900927875
0.04898885870730888
-0.10750383586476774
0.05363296830833911
0.10685874767411617
0.30191308997736166
-0.27454202539000433
0.23014496637384932
-0.2544086058218487
0.025853791856369164
-0.30565725807709804
-0.2930631892475707
-0.2822605798826135
-0.21117933269690173
-0.12298447210256294
-0.23435297773094665
-0.6113733038162443
-0.37080103371189765
-0.0091372853123196
-0.12583157606967726
-0.6058360209452857
0.0869165610584604
-0.21467925486443473
-0.6984725616677359
0.128789800582435
-0.08146777333338472
-0.16265531086645163
0.08604394189805636
0.32781597643256905
0.7396247059561587
-0.1856940727428038
0.02427333193525444
-0.06292940366440436
0.45570321254405227
-0.09086743090168371
-0.29314123220139776
0.08961242611121262
-0.25085441052041607
0.10777591839223906
-0.046013249038144126
0.28262673888865636
-0.5022096096541473
-0.15165913875436543
-0.22079469877631658
0.042039668430151424
0.4281178269924125
-0.24314838087137464
-0.2804376779527094
-0.4431802592474408
0.16182055554547534
0.17641206444543542
0.3304570881039788
-0.019329127364346357
0.15745996546863195
0.5202693217397198
0.40596546744184947
0.11435316966418597
0.0050688752134293805
0.15430598348375066
-0.33592005874502506
-0.43359600881979043
0.12037185565517855
0.13042377442925174
-0.11448465964302183
-0.3509999184034536
-0.11909600738630079
-0.1554096174234776
-0.6286072575913737
-0.2837795551341184
0.46465786183089425
-0.15287055500709995
0.08724180835539899
-0.0879257973196988
0.21556830595171925
-0.5583836422459365
-0.4326833207992594
-0.04864395090329321
-0.13218795499548708
-0.37735902737147486
-0.01448243466682348
-0.017469427252000253
-0.13248274483498196
0.40595776852825494
0.3752037069105266
0.24108843401194743
-0.5318859862793237
-0.3575732169078773
0.08059677767293748
-0.2457801328505956
-0.06699394595875703
0.18052619365318429
-0.814281205219745
0.21334170727045224
-0.19147218025476725
0.027082322389523423
-0.19799785227994016
0.06736917861905023
0.38487494827503216
-0.09443750724881442
-0.3819739291970604
0.447504810310252
-0.28653256748959827
-0.1933440824361205
-0.3252636323504792
0.22002487604434623
0.6570153431887823
-0.5769545018058594
-0.11352620482623653
0.019642274981377533
0.050659529273201866
-0.36058640532508823
0.0954103955182356
-0.1527722968492815
0.18887508990302554
-0.055630605958143474
0.16382344535360796
0.01828672551803076
0.3268050692837761
0.06280674756355416
0.31205412193394405
0.17939637662701666
-0.22701980449547277
0.30292478448704374
-0.14117370556887293
-0.2691159837199252
0.07863164298657958
0.41498902542894334
-0.5195213489122946
0.11251465094476462
0.45641246003815894
-0.1849323973430923
0.15807157418260218
0.4349045929160478
-0.31886853350877126
-0.17006562450421042
-0.0003919331887714603
-0.0781138762319056
0.3269838797120185
-0.08283234789925063
0.010307437506259471
-0.1338426118052683
0.07304388512580728
0.13563415563358083
-0.4135805091718041
-0.07931019533291835
-0.21835157086965198
-0.5303666646838381
0.21119891809541017
-0.33406435253119704
-0.28440495004133165
0.23959953640439885
0.4733242942590052
0.10915351836193417
0.10276842355516846
-0.5507663058081229
-0.16426419475208334
0.11321587307993138
0.2721028897621027
-0.0997462224006922
0.11752152131606979
-0.3735644023356299
0.08429011440298083
0.1286258951157314
-0.027691649816746516
0.1873330987881474
0.26047167902630297
0.004795136349626949
-0.010939044708996386
0.029619615066659544
0.10303262446400899
-0.2431430560458569
-0.6269776268898642
-0.5583120891187549
0.44520660117127164
0.26175404701967303
0.11429120725986638
-0.2445883002573259
-0.25723031632255355
0.09566260163874932
-0.016894469903049814
0.15745901194472095
0.41266454427959454
-0.5102717526490067
-0.1698715302383362
0.022945652052500064
-0.07831973266742301
-0.1826673623713804
-0.05321902650040111
-0.26885040647302216
-0.7033361228157433
0.295418736023553
-0.03538205994388018
0.053527406696986066
0.041038783563030326
0.2591456098820762
0.47253190213471336
-0.11160599628774981
0.005848973253279227
0.06517662800191142
0.1342416266994336
-0.13152619172922683
-0.4016906429986442
-0.45220346587002413
0.004870624662750472
-0.17813131384910383
-0.06559601573424366
0.5173637964062987
0.18468404910230016
0.2984571926136392
0.48457942620455263
-0.6873298042869543
0.32907303999002474
-0.1619378375428542
-0.22091330764337153
0.18518754461203343
0.31366234742858023
0.21142605947558912
-0.06163414561646743
-0.11091564693565582
0.4069402125782269
-0.29695601044448683
0.030916590626433843
-0.22052016822530496
0.08747922212538632
-0.10793461404771645
0.1358226719780693
0.16123888571509404
-0.40007190342720006
-0.07733371078917306
0.01583249158314607
-0.4206934585454365
-0.19226345549279544
-0.22948808451192684
-0.3517114004456658
0.1457859780010916
-0.20273693860695813
-0.5952275742376899
0.43690235365182656
-0.058355524123166955
0.26872848010852585
-0.5089479275474708
-0.08502116744831124
0.23644999472195286
0.047430061707765724
-0.018662024347682084
-0.1649903041443044
-0.28412398065644195
0.22223794290792417
0.45979944485360047
-0.26214183335804686
-0.22088010810719128
0.7548779515266721
-0.09988122820616292
-0.256976414292349
0.10927128384847692
0.27700913208552264
0.3739626330216716
-0.062430690402641785
-0.20598429640810334
0.2513751837360903
0.24498140890478667
0.1426273782643039
0.05636657507082142
0.04520960451815941
-0.18389422198014982
0.25779087394937433
0.2764903071997543
-0.3262511439620533
-0.18034515804278958
-0.03607699028273757
-0.0032089457290867666
0.2562784540363906
0.32724895402687665
0.04691020627788231
-0.517237307682453
-0.08541396266718385
0.10735778364243781
-0.04777095358622036
-0.6896333141757628
-0.34582136213492554
-0.1763909164097014
-0.012067808760134767
-0.4557754204245825
0.18633626433730377
-0.12899949094143326
0.07245496003820127
0.02609315762916503
0.6590896252619802
0.4647381496146401
-0.41436447658131503
0.24678923123650745
-0.10269105106053479
-0.30465939748134413
0.44975273463121695
0.03235635725366942
-0.31747628336897904
0.24138163975150104
0.43382979241315633
0.29445500301425986
0.21563008270527187
-0.12331806776991293
-0.17618615312425157
0.19449866051378356
0.609359920843073
-0.23109127689513834
0.09478179352946237
0.187841178313497
-0.21698829634148986
-0.4034692739604539
0.4309730436486536
0.12823250503668074
-0.5385449084566938
-0.015973495622168307
0.6979200584887473
0.11672910024224765
-0.37785018533053094
0.06561998064524088
-0.04821238227709422
0.09038157800081933
0.2533091142052977
-0.228241856732128
0.009129313880819985
0.6309106212312711
-0.05147263196850396
0.0011947016211401108
0.26273659016547846
-0.07388099755692927
-0.12027150760918041
0.37128487073891164
0.1393014639040432
0.15323935931937605
-0.19248611001766053
0.325258188892618
-0.35867983128733993
-0.09227262532837292
-0.08443188779287711
0.03208076773134958
0.005110770221920833
0.1112900700861726
-0.0939611045676947
-0.37707084433771204
0.22950246243711342
0.04993594572068491
0.43409817676950146
-0.06458379063525274
-0.33809864945632195
-0.043808996933628254
-0.3556617393410284
-0.2772347711740142
-0.22705794820045327
0.2318470141402848
-0.21921041754964293
-0.6966920134127146
-0.25131132590780786
-0.35660353277624834
-0.0061820207498300495
-0.2291585192637502
0.2247424207834324
-0.3472982010072436
0.17224013497813256
-0.14326453077029735
0.2404923133328627
0.06022543006060811
-0.4835685402137604
-0.10124259486896414
-0.2710491363317048
0.13885420278039487
-0.04213877765550398
0.3622757260392901
-0.3214520232839673
0.6375713796273369
0.2236927219733392
0.17946095919908162
0.244924676852056
0.007533398754372382
-0.10379803323347249
-0.17212567320433347
0.11985052965057014
0.49787337111771146
0.493799021425455
0.23253322362976658
0.02275679248763837
-0.25319747065961856
0.33590829129430755
-0.37252060873332554
-0.10596065235707788
0.49807034362730973
-0.06329054174937339
0.14790260505413477
0.34447507882483297
0.11484810180539343
0.002027283095256519
-0.11392924173490088
0.42512470530886265
0.39238667941615724
-0.25749130877608734
-0.0967829784882359
-0.19164550245407197
0.12405913119688557
0.025878551063589526
0.10188975563989242
0.0018177190206270617
0.04990408527831278
-0.2257052893403481
0.36886176963532874
-0.052198657771886085
0.11851242294836804
0.061514201964841544
-0.3747602681368815
-0.024720472892687518
-0.3950498940203073
-0.38730391741835696
-0.621035665096635
0.1583608286326518
0.23930810181462767
-0.38478923667930814
0.40555598096185214
0.011548309060157799
-0.0351889900007585
0.010461792721467885
-0.00913263932828974
-0.22336805309581473
0.10982670040911116
-0.29781613300329196
-0.2676031033521832
-0.5554866719505459
0.22498479197182217
-0.24010107811999407
0.2998857479296231
0.014451706949978523
0.18357198733245164
-0.6806109330146254
-0.3377717253689701
-0.5217524169229277
-0.5295785259130369
-0.023044360173812208
0.4212651892165652
-0.17115924818198636
0.00699637480627297
0.13135590823878762
0.3053908072935687
0.34835773877884973
0.04654580183144071
0.2222022471482656
0.14065138317612563
-0.14458637714193834
-0.49636586063253324
0.07396944879394836
-0.2515324190075917
0.3177572124517292
-0.253192780988084
-0.17827045705846323
-0.18304371180472104
-0.01441369319915252
0.209361516235764
0.2173346668465217
-0.46225618441518657
0.04404903308961602
0.13583624341826792
-0.21124130868220223
0.02040166080591804
-0.22748420688284304
-0.13996880456499938
0.32214669528522255
0.05800239370256791
-0.3911660565163139
-0.3779713334820551
-0.48593691950056617
-0.4710353603676059
0.17060882709604278
-0.1890231510555334
-0.07284721760819145
0.06201321661266784
-0.17416965288705227
-0.0806985816109815
0.3363302133466314
-0.41667185659157674
0.03058949841325572
0.18092274628116217
-0.0933298642790492
-0.06742098667565034
0.2859279357389066
0.2156022682068338
-0.1445873452016311
-0.38096901591905624
0.0254027505742604
0.17474246296514911
0.3152472516240499
0.005287960358533724
-0.0033384077311577427
0.32691788124383536
0.5407937467263833
0.379713535016685
-0.16762105275312095
-0.3298200865451893
0.14237651217289493
0.016588068907927064
-0.2675346749318879
0.047517923181416996
-0.1170470209991938
-0.48621720639142346
-0.31813107563018056
0.10960063809539107
-0.06991365299769024
-0.11862088351682078
0.21815534387915161
-0.24730509324406355
0.077118805280671
0.034772724223843005
-0.5164319588540568
-0.2983233791357066
-0.08606950541525697
-0.34663202857283104
0.2628667106713655
-0.18890307326784858
0.3022726886748874
0.1257626024804219
0.05133055697742972
-0.5380282178085504
0.28629693239459003
0.5925482310905489
-0.15870037400418358
0.23061713464933056
-0.46773149844914197
-0.03087424745407698
0.3326896328067034
0.2924022941625448
0.05874169175094033
0.03952068686444491
-0.20602743828187403
0.35205144831946494
-0.3422606136748288
-0.11099642167553238
-0.05373527487807406
0.03909354233578913
-0.02574796875019147
0.23272933774284657
-0.03837595818761497
-0.3214327761094188
-0.11824231629324042
-0.14419630785686657
-0.46543065701931113
-0.4550052792299408
-0.1911867214182121
-0.04158605715120777
-0.28351810940763544
-0.06147783055878109
-0.3055471446696766
0.20453126128201718
0.3788410380435785
0.10100259027163033
0.13129269247090616
-0.16709252749732167
0.27890805041660227
-0.47137856348257257
0.1681547791399706
-0.39093599851089744
0.3259092010385209
-0.30298170099207294
0.44504860998777235
0.008202646382270666
-0.6984723198840013
-0.26695900643993087
0.0831025531966089
-0.08816458023872721
-0.2215568607879755
0.42319464642550353
0.18742670021747418
0.07886764772425241
-0.02591127194790342
-0.04322679625878947
0.09328553870356358
-0.14643172188777448
-0.19403934219978403
0.04491520158481596
-0.06365751726227886
-0.04761402076155855
-0.030438263852464145
-0.2110313914871047
0.2886744839962003
0.19191991916536438
0.1974539709619059
0.11988100719973177
-0.23643737178026172
-0.22266995845862758
-0.017429299038114708
-0.020500792449726638
-0.26414724880464124
-0.0932950136626783
-0.3256225500257312
0.46752686791332493
-0.4190189090269775
-0.03966517310160153
0.1221676967785587
-0.2487666046935209
0.1994917790015526
0.21367658606140819
-0.19703962791132457
-0.0161497374847913
-0.0050851413372790194
-0.1846052060627406
0.1171793467448362
0.31302132208107136
0.375429274807385
0.24320360258506743
0.14745572743232274
0.18690186349156487
0.21823103467261581
0.359914335559154
-0.07885929336579116
-0.3741809994652834
0.17553551083380411
0.15013130390030008
0.35493690063819366
-0.04453846162159632
0.2889993612308404
0.40245180443644046
-0.0892844629414616
-0.1899701390732321
-0.168663094253666
0.15523566047851223
-0.2959812406577436
0.13265995789915835
0.06797617530916733
-0.584016704209999
-0.22847227038695903
0.11180413085545714
0.6157546078030518
0.35324652929293393
-0.04827888474484968
-0.32097048061184075
-0.1735060774049997
0.44219335252919034
0.15653934512012918
-0.5240806876953519
0.14302385969850087
0.2184556787575394
-0.05625193982125995
0.038274760233106046
-0.05036213447490404
0.506963845294845
-0.05525631700321035
-0.39726871093591604
-0.12398509150218708
-0.3512616508487536
-0.10812341526022883
-0.38183098034922996
0.24279975020393169
-0.025885523955283905
-0.3017378768810555
0.17015851054964615
-0.18049515669546787
-0.1603656574838985
0.10499438267931284
-0.24146723335178874
-0.3000838819980342
-0.05080160774832352
0.11638648086345765
0.2774553705549599
-0.11052185622863649
0.12121778693555219
0.2850239866473015
-0.24616833102007518
0.03278140353668179
0.4177478174685683
0.44196552422678553
0.1747835938666651
-0.008604206276534623
0.1820970034832966
0.1429380384799767
0.1937818057651281
0.31718567368422157
-0.40129176386208376
-0.3900219663558345
0.5122991833388507
0.013266200806618928
-0.09877823414537062
0.016949323567351876
0.25163219815568394
0.034839439539154624
-0.6196844810663118
-0.22366987800661262
-0.47182035189778737
0.08866804135199494
0.07554064428478284
-0.022208285621267615
-0.20442762977862364
-0.2814638435298084
0.1176905742475736
0.37915057840856864
0.24720583126604453
-0.21863033382756697
0.18078336246566531
0.5221104283840917
0.30933615657402347
-0.6312796243306854
-0.5109911702402002
0.07802074806817277
-0.08107040567255386
-0.28903886803921996
-0.06222545109730432
0.01468058889806927
0.04152893933451349
0.1432814896836396
0.005320136709051711
0.34086675932643823
-0.06591566991375353
-0.0614701171794028
-0.1856462497572239
-0.026360864204646804
-0.003704144869403551
-0.053256682276376276
0.5357713522303063
-0.2099257253450692
0.010984283793085428
-0.10929644810738301
-0.10423450527743744
-0.1221168922939757
-0.018528451142384394
-0.028472859991733424
-0.35363333063059366
0.09766902807739374
-0.3177893175990046
-0.5231065583398923
-0.03293794126948017
0.37123991652236754
-0.229595320979008
-0.36667448937154734
-0.40695367484090467
-0.05086639974474615
-0.5511318005619749
0.005096243359928627
0.04049326323386682
0.558524202522064
-0.5023915672400927
-0.14809535074424088
0.5936342530429748
-0.23131701380005432
0.1681837710790181
0.41004466482295643
0.19632108659185382
0.049973350400624166
-0.021612223928658126
0.13605760435787925
0.04632727282063811
-0.23950144908047843
-0.3258806773352181
0.6507849627447666
-0.4932189716319356
-0.10595234446394505
-0.10207902166351876
0.4946852769594967
0.08668251156666247
-0.0721039492664283
0.29130073938696655
0.4406661327486115
-0.044862401911580564
-0.10575977988579258
-0.03936757938522405
0.1388530017533651
0.2821929670184283
-0.1202240855748686
-0.4540965581938994
-0.30907851364898203
0.5813662223732883
-0.14883579565030028
-0.4629394692107133
0.13485149192150342
-0.17099165396273397
0.09848119541101352
0.29783676960195643
-0.23004207171032168
0.0852543080312601
-0.24571491630482659
-0.08874653495314297
-0.18115049112748852
0.49920562865369705
0.05150088903847882
0.11145987775262234
0.11774616264007479
-0.2636903327524393
-0.1337785176725099
-0.3032906238833768
0.016056811497800392
-0.049193525193906094
-0.17544762940852487
-0.39740765359563845
0.10397871644559752
0.42345727024712
0.1955215837270044
-0.1600536703894093
-0.06147692615661672
0.4035160455429918
0.14776286250138815
0.21109494887839794
-0.019133645569697363
0.06735157877706584
0.22832824357272627
-0.3255084006608056
-0.16245602228519596
0.019062282804615728
-0.3825294228359263
0.6970363635933349
-0.02767747693494038
-0.3124340454952747
-0.3486496118260056
0.41637717498432153
0.28662323132262024
-0.12166285791242719
0.051769392234596825
-0.07059331550716584
0.2367181327484441
0.1988710512814148
-0.35857056803220894
0.05032093622556678
0.0019091292896919196
0.21931550937757713
-0.25701832188184554
-0.39166520003297356
0.20373973616198573
0.06124555826819647
-0.21276335561072038
-0.39926306928103145
0.3863519389030759
-0.33960089861730663
0.22519824555904377
-0.056396976721394966
-0.055101012491536816
-0.047683276674124246
-0.39149069187377794
-0.015048116371142846
0.13820956893444147
0.4050953822320032
0.24395802153787519
0.5238386347854355
-0.0926831416482835
0.034328110697865476
0.1098667691450989
-0.20609531561375904
0.11626904064975169
-0.0260486600193222
-0.08724885496548393
0.2606715663659776
0.27104067061607584
-0.021277654153177276
0.016897949619091107
0.06966137755144436
-0.13195334270903702
-0.1186991725263456
-0.24538242026479018
0.16858607474599463
0.23235940323687787
-0.31229192424408453
0.05165457193782423
-0.14039941163723993
-0.14367606194900054
-0.07079802892472967
-0.22524827548884008
-0.24145295253344723
0.06947789650881327
0.12068999368406204
-0.5524734211184648
-0.2697148438832646
0.04342864674627964
0.20230026748372826
0.3414383366296906
0.19238635703938903
-0.17547588687049717
-0.10130819223276433
0.10630312660507381
-0.3177961226773253
0.20772229620667396
0.037352673617056215
-0.5419597022146085
0.15652826977152176
-0.024665139671046547
-0.1532520183745506
-0.03303202514820493
0.4431306675229483
0.15453670167577124
-0.07439897121995084
0.11132571165526481
-0.24561566526023754
-0.3679482305755592
0.03320710291084169
-0.1979165423071659
0.28157006307180965
0.49659299543516944
-0.027072774028101165
-0.22045929096104785
-0.05070752054735478
0.1589690795378385
-0.2811735216484575
-0.18476629765411468
0.09956355201525692
-0.2586165283091502
0.3028385007583939
-0.14293478942621962
0.0036285994152868853
0.2176791316206902
-0.1400694538256846
-0.3685449689980035
0.09517438919164574
-0.5867495682829026
-0.18457559634188703
0.037281377031378835
0.172109522513699
-0.2670653679864037
0.3051839034867084
0.16040745301470466
0.1674766350164744
-0.27959671644376904
-0.1552783386423522
0.2507743523648667
-0.052824719983088055
0.1854844831442106
0.17026846779091803
-0.07074075882976934
-0.10068417535960039
0.04920236998752406
-0.03983724804644338
0.5351913020437506
-0.10294396002974618
-0.023824391992048152
0.5382883131984156
-0.3381274724171117
-0.20879634479574297
0.427833867411274
-0.0516479742087592
-0.23937532995907254
0.41956000512268143
0.05642408374217069
0.13782612073918496
-0.22688326915422155
0.21429650171687067
0.3730636901236196
-0.24762554599247727
-0.49545033095802044
0.15979362095506103
0.46475238297442567
0.42491556643607453
-0.0139050997880775
0.2893982975593257
0.7933453444414895
-0.14677748720575134
-0.04524976511664574
0.5648812167671825
0.09737898748671493
0.06809879994926077
0.2197463542730007
-0.05872489733374423
-0.03198396291871958
0.2486584852521845
-0.30950364597179747
0.04277261485846112
0.5398825935901667
-0.26683901500995255
-0.04690841851469831
0.2175300402046415
0.41749852559161627
-0.41453157723415834
0.10869214838710642
0.1941847212776156
0.004830731889138039
-0.06402827590472393
0.008305940522785065
0.0734829523378672
-0.18330369310358618
-0.341209548606174
0.22987585589535708
0.009049713223468024
0.41796687890943257
0.014359285769967563
-0.40066160790419697
0.20573473705148496
0.35436458296982926
-0.15529328352094074
0.3044420214503858
-0.25138099488512666
-0.4044156643230011
-0.17778695095365585
0.09490487500594312
-0.49274650691935534
-0.2294678039148489
0.48402952232917096
-0.3817469001400287
-0.28165186883632876
0.39086925566639363
-0.17771926786824982
0.10418763288752018
-0.2960123969586484
-0.34300318470696883
0.15691699222844677
0.3647920819949183
-0.4621406687816341
-0.006966667145228315
-0.40300788393432596
-0.05959916372715906
0.20586488321137306
-0.07034120594446173
0.14520487261573975
-0.06669544882731294
-0.3610644869602656
0.5742309949033484
0.903476736320585
0.37889364258882546
-0.008540485425319091
-0.2547350924556565
0.1467254645614056
0.18167687689807946
0.27950111211455386
-0.07441647457341495
-0.21356829795920318
0.1918032383400457
-0.4576284840085699
0.02377680919800643
0.30931098931538625
0.0758364159776025
-0.286240536599152
0.03147802925191828
0.3876416019184586
0.33481977468597934
0.22705842144322283
0.688194591347368
0.10442762466609123
0.0010296557782015511
0.419207589112658
-0.23084159373019916
0.07490292198376737
0.01510548758860867
-0.182849038544547
-0.591070421761269
0.20416121775798257
0.3380947162947193
-0.05110533904959448
-0.6254760755325365
-0.21770890898767356
-0.016997271120797804
4.500064371342214e-05
-0.06370613636643199
-0.2696058644809288
-0.1882278560991257
0.4050807190872032
0.2679247214362994
0.3273890087681166
-0.15156549034970462
-0.060338921351832636
0.422166711062477
0.21883269642856534
-0.04523302049298432
-0.1579518149991812
0.1397075986465009
0.4199803670685519
-0.22755676495342697
-0.2657424700965491
-0.4256945873019121
-0.007239745794126028
0.31228199204575896
-0.14989038327443077
0.08724986486016786
-0.18437958925844478
0.5481176638604784
0.2697936857426125
-0.08853333678083117
0.5426142822377493
0.03546343400698369
-0.2730818644954217
-0.26992299121390045
-0.14904238064394185
0.40608377078102437
-0.23456891756118817
0.2664130866184285
0.42722065682104116
-0.18260382678376016
0.16428991641706298
0.0630438477823901
0.3613378092524492
-0.1650183046294243
0.08274983774083979
-0.2496850274645367
0.08002369967471076
-0.10438933007364315
0.09156656376167631
-0.22958173417218677
0.3099938838796847
0.21735240652915316
-0.12114402180857681
0.3818295311120117
0.07320844789551224
0.1760703700929514
0.3958915499317612
-0.0040962260736079285
0.6736265926630105
0.09418458059411333
0.23712919182186948
0.04296529333936343
0.35293579093106214
0.3031300166339512
-0.13718552191009056
-0.217593619205473
0.13872770642847734
0.05738054005185547
-0.06972558856982007
-0.177144036671001
-0.07455438137379722
0.23570464498118035
0.17777838419724282
-0.0932251503447292
0.2144563807211192
-0.12064581766163039
-0.20151905082460012
-0.7938814174130199
-0.14467613766161033
-0.005443076818862509
0.29701924796608026
-0.20712509725530726
-0.2575579405465435
-0.0776939825833359
-0.13533937376261382
-0.02449248742521119
0.16650093244415773
0.33243863035265175
-0.43985993200756457
-0.4744022696023823
-0.32248534861064654
0.4880004234051988
-0.001975502184431232
0.006223145105059144
0.12338157600919655
0.058098757122281346
-0.017280887918727866
-0.32752331378769217
-0.1188977632386617
-0.07446122570807502
0.17222164607633678
0.04251791620679203
0.12145169587853298
-0.45990145156475254
-0.4136189257481849
-0.2790266528986475
-0.10138461615464146
0.48823905366568177
-0.26319966464332734
-0.08340573568908814
-0.081419396570107
-0.34479646214497894
-0.08431881494069117
-0.24631718081078385
0.2991310032723521
0.5073809302779592
-0.07052931836280021
0.27782289795747334
0.610229448679553
-0.3331896159728554
0.1003170899465914
-0.012076653689413745
-0.5352566360078017
0.3897779334428111
-0.13348278763429416
0.047260816333201214
0.16576144107636429
-0.42983394501994515
0.27350308489678277
-0.44099599527949157
-0.17929962425731705
-0.1431508418452091
0.34332724945060206
-0.026117962565805945
0.008122667153513712
-0.36744108509395224
-0.3300016992810957
-0.011340586202028774
0.19349346807931378
0.002185111029918888
0.022923465553974804
0.16039264684372292
0.438924170379939
-0.24482130870152977
0.0639819701236196
0.02636049006756762
-0.26531450042761073
-0.05703628480873909
-0.20390510537236214
-0.17745347323825067
-0.2899244211693531
0.14993607467584966
-0.1328342738526896
0.25302706661035146
0.17281170872991877
0.33702686182781
-0.37806140592059945
-0.48465267516166477
-0.022144472717784455
0.15111368483048898
-0.25691092585867625
0.28161103642264024
0.08378005943527474
0.2681743583466688
-0.2705248643342474
-0.03249632926425517
-0.011242695960993138
-0.045929380982369955
-0.5368343537720398
-0.19555982258440194
-0.3253081137290319
-0.39425941871498976
0.05005724130980576
-0.37145099832950584
-0.12813911967645983
-0.23203926550115214
0.13158273479176263
0.4088876085329062
-0.21575588685295072
-0.2292347689475961
-0.3006428446715949
0.15532180123592954
-0.48090830299666215
0.20237444640165145
-0.25750962086541296
0.5777197736897312
0.08003070152999459
0.46741739498793217
0.5075332989736585
-0.07293775297435602
-0.2751821956080899
-0.02103743805371318
0.07961584777998121
-0.003732710735522097
0.21851486646303084
0.06386978821842615
0.19380702466401228
0.11795599546074569
-0.038031094926655955
-0.17209815111102314
0.4384783713960962
0.2319528462068912
0.1733865487237407
0.06488247279797532
0.26966855384313265
0.29174268464196795
-0.5517655807993538
0.21666169326783496
-0.012413230374477219
0.1825207033979165
-0.011710844964056765
-0.3598387317389319
0.2675355132770309
0.1531285353869484
0.4519278568374239
-0.49881132926267485
0.3330377325567212
0.35175194022793815
-0.2800654044148951
0.04604412759198732
-0.6096014600724559
0.1438374304407044
0.05237020640651743
0.48208253487060726
0.2889507713334778
0.1397639467339423
-0.17200127323408235
0.24297425154529279
0.13285997015186116
-0.04189447741899823
0.05958865745013825
0.06357376019801883
0.16011184442713927
-0.16979050195899414
0.6678854976313621
-0.08349466983798177
0.3675167136403408
0.3207591192167082
-0.26852783087393406
-0.05419751036165532
0.20532203880202293
0.09438041212495196
-0.44427710003656323
0.061282690059422044
0.12593732246923287
-0.10017382065887706
0.48881691797782867
-0.17439434334017842
-0.23351010102171493
0.3125124213768091
-0.15039046611289383
0.04115876759725736
0.2836021057634138
0.16709598424716676
0.16366287440330937
-0.4491032227655325
-0.2491721334213326
0.062096196262690063
-0.27571840123753993
-0.10125196524270205
0.08758613369532076
-0.40141812992339726
-0.028957137632254597
0.04215000194857162
-0.025810732900544475
-0.4677019694691224
0.5349530056367251
0.08487719343474039
0.48000561436967987
0.37341620200517256
0.3537754850811251
-0.22190846513174795
0.12561435295845857
0.08860721700005851
-0.15051939081403148
0.12648826198426733
0.2101964897722753
-0.07397958826845581
-0.12053617830825784
0.36659900482938046
0.1920988009177558
-0.10090826744150712
-0.4813835891688202
-0.254162542356511
0.14673858182741745
-0.09020466666037437
0.273705436417729
-0.27788693526817787
-0.009253511348274932
0.1203406469065308
0.3018584804013868
0.014175184056942501
0.19487845024115066
0.2649766492207349
0.021556036297895504
-0.057640380153712666
0.3184413796555916
-0.09391563906755712
0.05465629062374003
-0.04097472207367977
-0.03404618087594727
-0.31391374065699573
-0.12712534140017107
0.05277271518991673
0.19398743518634948
-0.3490635687678394
0.0005146144014615371
-0.2870758960720176
0.21969964944170775
-0.3059590174102501
-0.28955714007630756
0.05477474344384561
-0.7418848957703725
0.11965891751599055
-0.03195912492334475
0.18983717418299198
0.2380311219547964
0.023249735483591806
-0.80223187080465
0.2201064339723629
0.2392251786332288
0.1839492518405281
0.30648708275817693
-0.28146683711597786
0.11133510764958912
-0.37556109629047296
0.35832476297959054
0.32189421581610345
0.12201957873167678
0.296057770926315
0.18590017440148265
0.2879442093211816
0.41949041341001114
6.695776182605176e-05
-0.14122412188723488
-0.31708866793589463
0.13334128615787044
-0.3880228940730491
0.34638935688120737
-0.12197265866629188
0.23482422340088988
-0.27371611106330695
0.17002167898974405
0.043292330854617665
0.21768418533345885
0.28735383117659485
0.1382160395149969
0.1352477495772405
-0.1163209071074816
0.34212204472597485
0.07577350963185939
0.3206912761275495
0.15385784222633836
0.27142959999218813
0.5747198570653188
0.16178415069456356
-0.5345524112306332
0.37311837528570174
0.20649369045322824
0.10900970818554401
0.06414558788925503
-0.39461250750756194
0.020434196134460448
-0.0392724218641279
0.539440258330275
0.6672745095053607
0.3208342908840272
0.4957478257406857
-0.0006741706916416521
-0.0013479804385498023
0.2378457906423347
0.02947219026009665
0.29074685308484827
-0.042843490446500807
0.2710341263559029
0.22305456062275453
-0.39249366418708626
0.2924630793703189
-0.1151622655092462
-0.2768656716372298
0.41842282973258604
-0.11089264055973276
0.31664460808991224
-0.08975196948335551
-0.14827515769085328
-0.05222963201600572
0.3715650077399727
0.38324567567271994
0.31361148127362815
0.4459750046152617
0.031545591051096035
-0.1089006247408406
0.08670566128447928
-0.6607136920917004
0.13083706534131015
0.40524621180507703
-0.021333229293099536
0.3291129650485376
-0.39777189398737856
-0.5239157976119145
0.6452113713748271
-0.553958364623146
-0.4461945716034306
0.28711561487932113
-0.06399338079066975
-0.1553731705930565
0.2574483976050929
-0.17765067913027902
0.2574939915265682
-0.3524025195298215
0.1463075515136332
-0.11301979449848254
-0.28908694483195835
0.18025379869441657
-0.2238152741463482
0.11734121299778537
-0.2722205761713581
0.20883149869351542
-0.5468211541777028
0.01644487069586236
0.3536995972318543
-0.03407309234028424
0.38028747834930904
-0.18623226806496918
-0.330840618390888
-0.2723296519371485
-0.19047867099110385
0.1331350799522934
-0.020830999309897815
0.29490418440731875
-0.36939951906910196
0.011380012716411925
0.16951776666893278
-0.15459601159887087
0.11216933666767637
-0.03173570706568319
0.024925993292987312
-0.3982818220871629
0.11555425865002966
0.028887820455466368
0.2328317439303193
-0.16636873041870473
0.117829999503001
-0.22548341317445736
0.6731832745109592
0.05286276144335343
-0.2579855746472307
0.27934873210984223
0.27715439977609474
0.18935579290510202
0.05672749047567454
-0.3033024568052275
-0.08731186198001209
-0.026212375740779104
0.3658917500130468
0.3806891862581117
0.48192266831917013
-0.3791790186180212
-0.4217977512613449
0.2897102278773439
-0.523275024528466
-0.09505478586480402
0.42074716465130935
-0.11329255930037334
-0.2974578399329881
-0.2386466440335843
-0.07290147159797662
0.11495524095852287
0.32153135915291103
-0.07023853704669025
0.2556919288505948
0.232992905895995
0.10778065438072378
-0.3004233021256216
0.2483610795362012
-0.24846227386053374
-0.1190118546253167
0.13492256109851414
-0.20571410798255776
0.08714359643672617
-0.05928846430182594
0.3608260231830291
-0.6043050318581722
0.027003485383416837
-0.1147024164367873
0.040578096348588236
-0.21814646263945806
0.19113350021543607
-0.08670194296356068
-0.09129231636961059
0.11360853450666471
0.22494808204040023
0.14309804229414216
-0.20181856921323468
0.13137098327777486
-0.27521606171786056
0.10934129664890534
0.17052824365301517
-0.24801544630814495
-0.11530763459463772
-0.07752510215706425
0.06286225445344575
0.1472827895649692
-0.10514011052515926
-0.2912691935395258
0.028216697229421477
0.08894584202790859
-0.04597243518228033
0.21520035034194987
0.28424734959419784
-0.10341373400319906
-0.2770227100242349
0.0007194620777630519
-0.009262976126896548
0.3779904227312521
-0.47418055226249317
-0.2997160875766447
0.1665562055575272
0.20112413218939326
-0.4112116787248312
0.25140941833071406
-0.30009728273120345
-0.05692486736013696
-0.09042896718569958
-0.08158077751687612
0.03238738754428251
-0.05737417698181023
-0.531087279581151
0.08809969532080572
-0.07763319584024582
-0.4026250110659476
0.27386376057055656
0.27757904217926216
0.12287798718889474
-0.04341366915172306
-0.5614160589275674
0.21414765750258424
-0.2427544759839974
0.009144010504406892
-0.06767644522706631
0.06737273664911035
-0.1907696332107196
-0.1774329956421314
0.12780523741543337
0.09286542878851849
-0.014546754034876545
0.40755592002421115
-0.3333020782033663
-0.11115837420137986
-0.8673564216017738
0.13684098001056152
-0.5525317463047122
0.017267510072392075
0.017980485141390633
-0.2988163648976463
0.11247800698935093
-0.10198427940101842
0.3287398295674075
0.36301567273761765
0.12599102539219922
-0.14134589490006985
0.45972505151691423
-0.16530312370410977
-0.12730737165154238
0.16385436180528773
0.39845524085884215
-0.12167437952689238
0.3646059944597774
-0.020779104363905638
0.1828104882693148
0.07973048965161882
0.32005720883927585
-0.12990697092967965
0.4089393865896587
0.08233825514776985
0.1296821747572209
0.2277572508121623
0.0998940640922069
0.08988514610697261
-0.26012418447640145
-0.07858016945586419
-0.3943602219024238
-0.13268508313233598
0.17784289485745847
-0.020736723023391253
-0.10122935062260181
-0.21743879320375997
-0.10316482430060858
0.10662651943452614
-0.16936487247700932
-0.23697237163865464
0.6687606021256327
-0.10997151474165327
-0.354611866867817
-0.043254069757813325
-0.8601964870692309
0.29245395252554857
0.39558322115322564
0.15575965137839265
-0.1459817756426891
0.2650363433826709
-0.406985038903936
0.11783230347523362
-0.3795958735897043
-0.16007572428819936
0.25011477746130834
0.0003735782904388724
-0.28240121138048935
-0.08214153515691147
-0.5196233972658978
0.022115159651144543
0.02066196897463933
-0.4077365203409627
-0.35647837983268743
0.23636538940876245
-0.13627859297926467
-0.035293762132697144
0.10553081226507266
-0.13889828059388548
0.24850692419635234
0.1373942891414959
0.0971426258863988
-0.19026925134879807
-0.03961410895497876
0.17162810526237576
-0.36945052696259384
0.2454607732994918
-0.042405318719840115
-0.07466001287175839
-0.16000747472240875
0.040006731193851404
0.098413434279113
-0.746930870604028
-0.252408042650829
0.07095520230271944
-0.14788863607621214
0.21168686871579528
0.11152603776471243
-0.08377975608227312
-0.038721911754079866
0.1579463507261471
0.23796928445646826
-0.11034618934880817
0.06276972707541222
-0.21737200791545835
-0.10136218669167006
0.5027224959079926
-0.2371010483449847
-0.022721836533011547
-0.2443705201442744
0.04806621568492656
0.24043946873892483
-0.45303623656093345
0.22530521268048506
0.3302080102448546
0.5336715135843974
-0.6987141073344261
-0.35817240248161697
0.6233337261259911
0.35664521036659624
0.07820695861266433
0.1838082132580162
0.43057778965367777
-0.30421352798576823
-0.171220879706976
-0.17601380841137176
0.21740921749733594
-0.4664708664466956
-0.2255680295314077
-0.3709827337514145
-0.14069658915247962
-0.4445769127247024
0.2097846983814265
0.2345492164665055
-0.07704046532397321
-0.1263050889262594
-0.26209197537149886
0.2996452645517441
-0.3976711904563434
0.5689119429176936
-0.05888289279183459
0.1016667899018697
0.3424393702236374
0.21813238488364856
0.5124331380539151
-0.16212916753638562
-0.27952909062659104
-0.2155656678006906
0.4167130016205716
-0.3888030751830854
-0.12742745177547302
0.1970328722396974
0.05630065732638913
0.2809182203328462
-0.15939373538702797
-0.05427774017637237
0.5331938721307697
0.20895563948837842
-0.11555458437239784
-0.20194708310815437
0.0029078175838623166
0.05607577332771616
-0.12889626464781317
0.2876260455872146
0.14661127865751286
0.09840464964495246
-0.07960799411547168
0.06400577464615861
-0.6244572473216016
-0.1911453112938042
-0.3487657878898097
0.5590782419106157
0.3775776540252804
-0.15218652598306354
-0.37485338705346516
0.339932052866859
-0.35092030940446195
-0.40779334514608345
-0.0929286165337663
-0.24641041549850004
0.3553677019354153
0.10759277305921948
-0.2416790452927231
0.14487882351001596
0.051432696309371397
-0.07317735962909562
0.13900738241339244
0.34343325890781734
0.30104511044013926
-0.09515795187637077
-0.11059346304589131
0.06806560053974205
-0.1836212286708028
-0.32460726244202043
-0.16144302084897824
-0.3778152537320947
-0.3666449591114022
-0.2734580245920496
-0.01881595612219367
-0.020346046585928125
0.2762315466946825
0.7865828065235206
-0.2815170471229907
0.5119370375306785
-0.04767102545531324
-0.22932894797228834
0.3911575285827962
0.020923012193867933
0.058228482355525885
-0.16698349227802453
0.03365479219305658
-0.07447997529794084
0.20327459514192922
0.10203188403024975
0.1863930384708252
0.0993369376725831
-0.07627410525477507
0.21763015602280297
0.20063433962370641
0.04935859618975385
-0.3359350339471531
-0.08990057832375987
-0.14900607563717255
0.13292298408420103
-0.5933725432126834
-0.24023965299636457
0.06581842952018731
-0.25011521200892456
0.082702148591909
-0.01979293442132976
0.17865705879648064
0.12392023260705794
-0.4648022552178698
0.4700290835155665
0.4431855621594477
0.18445289357341463
-0.24101711684961022
-0.45958908508904445
0.21056784952666202
0.1279035881561922
-0.11165500662393343
-0.08876731932979448
-0.02139500246636933
0.24571892594406702
-0.013282513013419662
0.07072959382861531
0.1597953397327679
0.23222741541001019
0.2588761200016838
-0.14257141259472472
-0.15158981669650812
0.4552811646167366
0.3081009651363273
0.3691702481092508
-0.1323027697928499
0.2994826680156504
0.2265075200401489
0.4566815869205384
0.18120037600496453
-0.39117092284109184
0.3543893529244934
0.3227790930513816
0.20094286458314656
-0.7939878482703977
0.06225226732302575
0.4317082219041404
-0.2896587159221648
-0.6855396666773846
0.15077517392058964
0.15832983543833698
-0.1865784781877364
-0.12080846520594643
-0.40214202872133276
0.2423755610561689
0.11990507442192327
-0.13921992399364122
-0.17686332219585307
0.20279528443522293
0.12433408882585979
0.014843815166773102
-0.4519970684857317
0.11705826852158487
0.09908841225822618
0.06756425894685278
-0.12539233216678272
-0.1669795030807379
-0.303522612729804
-0.24892237322655897
-0.010219335020258444
-0.11123792025828698
-0.08339034642940084
-0.3377991204780533
-0.17540545440725896
-0.17020213295080383
0.06686835734464712
0.21700453948133708
0.005378586383245992
0.01816734709694508
-0.20740201982692882
0.06336560342352661
-0.5330588051508814
0.2694692772737257
-0.08030370150362275
0.6954021506736426
0.06669538513940063
-0.1440034999568112
-0.07566500724148849
-0.36310417818307306
-0.37319684272678744
0.06586725137691085
-0.6857710019754999
-0.13687653825212692
0.16510302745534314
-0.0461360027094712
-0.5098651129877682
-0.15197526541346484
0.20312707112522715
-0.1066473837271195
0.30777253135513744
0.15754621110806027
-0.3035627416455863
-0.33964411155735535
-0.4974534816121583
0.12297918398159277
0.25753044959091115
0.3270807620257039
0.21682719230181727
0.26894307618642355
-0.3302757662985003
0.45383640620458254
0.10928288492376438
-0.09792703922504133
0.5155745726883557
-0.19513501001157404
0.07946387595956404
0.309919290071509
0.2783318686502204
0.009587267446654706
-0.6348202838578909
0.05120667345431246
-0.18645548937199088
0.17594207980645118
0.3324457398466873
-0.14732198938899826
0.18716987746704694
-0.04584526094356964
-0.11658921094074617
-0.2555546282137424
-0.48536636976323605
-0.3032566053494812
-0.22725118457667406
0.21532429955515378
-0.6136966127957914
-0.026549753427334084
0.2320742660298489
-0.3238792499236442
-0.10367052763217585
-0.015250199190999448
-0.2912118625797543
0.0042525731926224474
-0.1338921084930191
-0.25096234156172137
0.3051716291524311
0.41489437874860746
0.3864180445983685
0.3031755135272772
0.6224274373510756
-0.45523048824035167
0.21850811829208025
0.12636885673028028
0.34431534799707914
-0.3062727411270771
-0.1463999580464005
0.1891156558884028
-0.32940808883173106
0.21393964314047043
0.2023982669676666
0.8404689973216987
-0.427156874720725
0.39696402027606875
0.45191719846402006
0.13977240391831114
0.3408501764855417
-0.18373209141408417
0.30094471623253205
-0.004028483027098194
-0.34389760017221815
0.4244933177139909
-0.22428827817598374
0.2624831681490641
-0.5594559145390054
-0.010153866410981396
0.213352795539081
0.1554181600730793
0.05933319646798541
-0.15627950285781103
-0.07878784054272842
0.27712231507454055
0.21785467287317445
0.13628266000774156
-0.1205555766270862
0.1415333686752445
0.03830385137442169
-0.0517235311026159
0.33057703821179174
0.452989433137435
0.031561286465785356
0.18689784897201975
-0.14194818052878605
0.2685985798784539
0.09683197936292652
0.28888745800301885
0.042915875110482116
0.2484642918833439
-0.1461627983959334
-0.05839217302043606
0.45728718434183363
-0.018123065089928992
0.4681699685768281
-0.5494161174889293
0.5963728672320145
0.3010205004702479
-0.19770727068442845
0.022015940158281053
0.15153359747305434
-0.21403348821333512
-0.5360028138101114
0.32567391931250544
-0.10444655010790937
0.03116657171061319
-0.012377839727687157
-0.003197836884677072
-0.17050208726036548
-0.2872091131501242
-0.12922300209191065
-0.5018778786052629
0.1409372373737492
-0.21945905502680624
-0.016913122784164566
-0.06582540385706992
0.16327640286210515
0.09701160302545503
-0.0826389436864426
0.13663365132446562
-0.187878967938937
0.038395258818018085
-0.025608086085970427
0.16593439646099029
-0.470603414271198
0.16323711723552223
-0.4776320565659756
-0.17575913224734122
-0.647053645183742
0.21237144079621617
0.270821240580224
0.17761093705894948
0.00849917168948159
0.028446230088399773
0.46838435704339526
-0.14398927844915846
0.17192654329957766
0.2838861767539703
0.35927144280877743
0.2292411986710374
-0.17485465995012092
-0.07398226842136706
-0.11534299591800334
-0.18050748998998223
0.16429793382946836
-0.24441278992769347
0.1569993909173255
-0.2753100238325132
-0.16172129922870437
0.26643189961652874
-0.08618126859772927
-0.4963850013679092
0.10032228857569114
-0.4075523396657919
0.06465029831388037
-0.2509386665926846
-0.15286199426547892
-0.1727032314660507
0.035690772405860174
-0.27730499322712593
0.16431341978992955
-0.26787647559675004
-0.03414489167305134
-0.4031663906493541
-0.19550040158641405
-0.16339886757343303
-0.05379020398194904
-0.35275339950938994
-0.9555258749733085
0.044516152802108425
-0.1551490117258453
-0.2511714357070895
0.4288418085625977
-0.22312506722569062
0.0012055332373525104
0.057557650339783224
0.39400768013481097
0.2718524668394197
-0.17773027225200272
0.07227646537117571
0.022460048190390124
0.1783794574127633
0.23677367319390855
-0.13263632429337685
-0.12939838314981997
0.0877500372516849
-0.09272648963738023
0.2664717005204828
0.14193532635672626
-0.08167391314344405
-0.21934666322338575
-0.1759702639406661
0.3380901299207604
-0.2938800679360737
-0.4075202105835698
0.05315129547548511
-0.03053772174139845
0.11238269395963293
-0.07924070457684372
0.10395361111076368
-0.1973865950771392
0.25222041460889305
0.2617243755078909
0.4222421794258075
0.023309726161837296
-0.3403132217358466
-0.26894956920078095
0.3140353389789208
-0.1047588958451091
0.2972262325620718
-0.1473468952489984
0.3933545016953334
0.0645969900423014
-0.16153698598289254
-0.19129936666769257
-0.6069977328324757
0.03390014975050645
0.05909285077417664
0.0955828348494123
-0.5197644955163803
-0.23725057978591468
-0.3865000617877896
-0.6774362873699858
0.07221884370265225
0.5772666831134933
0.373371395413386
-0.16472864678058186
-0.14535524609544506
0.4448813112980757
0.14951767096718485
0.05745242117523973
0.5936172702023454
0.3242519236941724
-0.3413716538180796
-0.4118148079934762
0.053936797406447475
-0.2143959792952522
-0.4747155301605485
-0.16328683715647066
0.053803933590383504
0.08350854746731344
-0.5337520876082096
0.3187499916273733
-0.1314504467831605
0.0724508732086502
0.1591319740726222
-0.12485196459497055
0.31283194611263465
-0.03297413772824757
-0.102982478562989
0.0961117426119367
0.3142086462739846
-0.4125975138251055
0.21715835634506844
0.15059757239749907
-0.23089249376902582
-0.06947786218190924
-0.24539530488964018
0.1789964578044086
0.20409030538648895
-0.19612502909678184
0.4111957303080185
-0.16162652937250227
0.14364801497495097
0.38975707484346345
-0.01974905355225942
-0.31748741498470007
-0.30645079741145365
-0.31409010044664515
0.3608751591875249
-0.32055256087858486
-0.49033936121473265
-0.16428341308706082
-0.07245660290136972
-0.02763960730057594
0.1541902752534468
0.21653419055034706
-0.5113003151292733
0.5653872180041268
0.6111820459054897
0.45682078876636056
0.5054202948021455
-0.22566722110696807
-0.4271416455158229
0.10168359834544828
0.24403784493496633
0.5506106953123729
0.24457466235091435
-0.1368505366929385
0.11267608832782139
-0.09988679145190081
0.30239711865017044
0.29440468128484903
-0.3043788419485899
-0.18192623399279664
-0.21249346768354055
0.5557983304034444
-0.14195658619642146
-0.0907089441704241
0.44724105305263995
0.18817180883909448
-0.3408963389596247
0.37670092409409894
-0.13452532855661578
0.17488546110134498
-0.3793592471491588
-0.26210556730697515
0.40482375665183074
0.2012411333564727
0.010551933447115379
0.09486186733573698
-0.2668386872368148
0.11557661743708564
0.6170013482653874
0.031275717917638834
-0.11623852937645636
0.048223268326175614
0.012178929538379853
0.17306114411398382
0.016311039940044514
0.16233775702551625
-0.472926653393057
-0.15683736892393804
0.5630431677283777
0.3400117520589652
-0.3209669995713148
-0.11673489634973856
0.0606733320761818
0.5021127300834833
0.31324058755291645
-0.06119985332236683
0.34958326391265326
-0.07546653727829208
-0.5221289331611998
0.2884881007081767
0.0967268601600199
-0.12725094777641097
0.08769145084742612
-0.16842506977326852
0.6177191184263533
0.29487209789547747
0.14348452978300438
-0.07565712340133687
-0.035558638802402724
-0.49333068937822433
0.047732614346800616
0.32236792187773683
-0.26727041068466734
-0.010829211329066323
-0.24294081035092463
0.1501712021706523
-0.48548537197648645
0.004826037037772002
0.34026729607870926
0.0989600072213559
-0.3382950809952611
0.06804069580653001
-0.05481230110858003
-0.09253051465161624
0.06777033377560403
0.45495552031563496
-0.07161421954966932
-0.2912541800462676
-0.29707019518160593
-0.5988148626471393
-0.34624095081862777
0.03159700379275237
0.007239548126457618
0.022223788424426863
0.3626920990292307
0.29147734014659227
-0.3105543515778532
-0.19456930101111589
0.1410927265341213
0.17216261125278712
0.0848842954205347
0.34128646609062485
-0.37010545445883813
0.02256017654254143
0.04695027903107361
-0.49273302989612827
0.5400974603645292
0.0005520660333700776
-0.11481159774291916
0.20535456125135254
-0.1660909562711251
-0.13874363123866398
0.14150031644551192
0.05791386919346758
-0.397887463076216
-0.15568099255511833
-0.07724861358376674
-0.23105334966718774
-0.1632038113611018
-0.0924653306581299
0.23652738954829314
-0.03596210592576317
0.15220392175718084
-0.29959153044397
0.17738106701003828
0.39482147262670375
-0.37292218305148994
-0.3391396821527325
0.28675085550065715
-0.17366217975425097
0.01573085279053222
0.18953212246387485
-0.2908974201895519
0.36590508103554326
-0.00030608202072227546
0.2616759018776893
-0.23328735644127588
0.2283477507779252
0.22757847858976157
-0.058924601072847756
-0.2694607144949891
-0.06246692141715184
-0.20418803772048988
0.36218654882269624
-0.16380990814846474
-0.024837235587914386
-0.3054926767644644
0.3118416978689132
0.15301811222778883
-0.40302948462823524
-0.3476893893953047
0.14127607999420289
-0.0007021086277547959
-0.003026353304652333
0.02302553709697283
0.15589907948278817
-0.26414404899852967
0.2583607478469181
-0.2726364950075051
-0.038035116251360045
-0.14656414889739233
-0.16535880171532868
0.15872882854683
-0.03833189870575525
0.3461085218999557
0.5391091176175328
-0.24812616629652487
-0.1267996352434198
-0.3853970232529381
0.16823266401307882
0.29534700854006357
0.08350252672480515
0.33784236579637633
-0.24489947014560776
-0.1317945119239197
0.32005002142269745
-0.30665020959136724
0.055912543075152206
-0.2378087413026599
-0.42650378291970203
-0.15654822911540145
-0.04070879163683911
-0.3468850092884656
-0.08592350771547498
-0.14846281009683027
0.39128490658045634
-0.0470549397924109
-0.45691602997137315
0.16160403817267402
-0.47723987165796466
0.12877057979839654
-0.39582672815421865
0.08021714196600559
0.25071250256352356
-0.2096600863440992
-0.2178890296858674
0.2455285551449517
0.0503630917246672
-0.11932403230915589
0.06350725746057766
-0.13550114499559654
-0.08966054945420017
-0.15502560766301457
0.28220512086252014
0.12905011577876188
-0.14018099384317745
0.263144196065893
0.2724821677577821
-0.3068829394813966
-0.02644342807304133
-0.028175630609874953
0.2718396926861344
-0.37901740194635614
-0.13787899677201904
0.06617634039190269
0.08978703298366793
0.5408177055259997
0.2636100616893736
-0.08170839328810724
0.07988991514046416
0.048466050435064294
0.03601425647127163
0.2274993939290828
-0.13901051145343596
-0.4319440270673543
0.08604545345359454
-0.004076721931375426
-0.04500003002396742
0.17366473413891695
0.18674481972076803
0.08121198252332024
-0.17206133571699903
-0.5003480639845416
0.07743297783503249
0.32950810879664616
-0.041893514977993394
-0.4838067336347444
-0.026919647114649583
0.3064195374396227
0.17570828746711245
-0.06913630639246024
0.06020200445285969
0.11888750450109428
-0.46100162619743507
0.4738835268761262
-0.1341343909346503
0.35063091548942654
-0.6383813675401968
0.39823257692687114
-0.3508652364323095
-0.2633700631173667
-0.2105234518062708
-0.17028231893198575
-0.5158332394212565
-0.0850117112941653
0.04092995047339284
0.5631869263821904
-0.0463306642408966
0.299444441752084
0.43053983229931053
0.08513302406101542
0.4616897503936015
0.13574035431557477
-0.24569855210485467
-0.1846180257409007
-0.27876964627722045
0.23801885142895698
-0.10334428146657519
0.3596755377552967
0.48318153129641167
-0.31724442068914954
0.17111274181633357
0.1510420502425441
0.18902293524120056
-0.07490872621921241
0.11045173333812616
0.11922836798395248
0.08205250591318507
-0.07291828853761462
0.19351822644833902
0.1183271473480992
-0.7550769097771504
-0.24236559231188406
-0.30399533732302886
0.31795012264286066
-0.452096279991985
-0.286896320020174
-0.31117035713882313
0.006341791704524265
-0.08257359418449361
0.2728708922132507
0.13911791691020636
0.0009650989066013496
-0.014195920707469285
0.4582428854253832
0.008932889477344953
0.16572642137494997
-0.3729622290819619
0.27456776359093427
0.2055513051421183
-0.1209706534870334
-0.29229670854062956
0.025927833085965583
-0.16573273220737222
0.14857466403531833
-0.3818830634776305
-0.027840492462762195
0.16823601501407368
-0.30154315450924496
0.19098249949998372
-0.18718237748028416
0.05095863879972419
0.20630326473737265
0.3606092270110154
0.4699018889820245
0.20358707736337103
-0.04487751038127306
0.06886815465722015
-0.14066479425974432
0.12969313725316228
-0.15733520719982608
-0.35865570112219664
-0.31624221506122385
-0.33256601902868893
0.09897330766001468
0.2375422986846594
0.12410439680420594
0.19071020488914084
-0.0685897577740472
0.3254351069051315
0.34913532375514494
0.6137361857299629
-0.6668973221853504
0.06295314906658726
-0.35456132763593856
0.22474881090616802
0.10567630149916019
0.39867107366216964
-0.23683425525281337
-0.388540963305476
0.0066077151850981305
0.09418596539606883
0.2598572787027635
-0.2745776625813004
-0.4778347084216147
-0.42856729087354234
-0.0015290493362203825
-0.0021631444039566633
0.26664457008111686
-0.27025046695412214
-0.34377048139269556
0.011427831074752471
-0.10793418327639222
-0.3785881203451665
-0.03978024368580713
0.3080835868631455
-0.37278168559470354
-0.1623675305548969
-0.25540187097004574
0.019482288164278747
-0.2877357597396568
-0.13613540570575472
-0.24175933645718864
0.0031379618646060936
0.24035698954214324
-0.2565019847895288
0.3966089652662559
-0.13827416845117307
0.0006168535737056027
-0.39684767909423324
-0.3667655973282094
-0.09282016192429893
-0.173213971420816
0.2382817374741062
0.044945264848098326
0.23309459474167335
0.08566739873565839
0.04086574220575926
-0.031962986157124916
0.16859355151174557
-0.10462146870777687
-0.5324268727027528
-0.011860038797437663
-0.12339670408728491
-0.6286820765204315
0.1997639683876466
-0.12403829699543996
0.18479001503432227
0.2875940118808753
0.2497035359498366
0.5304948403028361
-0.32049761215407574
-0.18171046914798863
-0.3704933822243252
0.20037631018806554
0.43630939256016077
0.12227930281287605
-0.6819391358603366
0.30084377726051215
-0.36177686181331126
0.19915369032703223
0.08991141954056983
0.08003400203751605
-0.24853302793528403
0.019633312680484294
-0.32777218175098094
-0.10892217932494065
0.332622727079602
-0.4671493712289803
0.10488696943507227
-0.4131844067841194
0.13235440344228716
-0.31641534871895344
0.5823046059623224
0.11652425215334637
0.42783383220673266
0.3573387593913718
-0.22843910160009903
-0.19001853807256106
-0.33688598203458214
-0.060670088663368586
-0.051369811139220324
-0.1550964632916139
-0.5154741216436554
0.09020749136985227
0.266402873469348
-0.22306465991598054
0.19840189262318259
-0.3132353766258238
0.7919268774915329
-0.04412226405283179
0.09627584688408224
-0.06287759596932335
0.040476094959027
-0.23873239644015262
0.218449508699784
0.006230726323825042
-0.10380240916092026
-0.30872602875609767
-0.06964250331887978
0.20133000719477018
0.22751695880250317
0.20750353758363926
0.1437464769201724
0.2158323556646725
-0.029564174275225286
-0.3419542950107841
-0.04254449459518236
0.09911714087073499
-0.38278822357656955
0.27518311582513805
-0.020614095582247877
-0.5610794546888851
0.05273072393505523
0.0036530314488023305
-0.1656944314057223
0.1272823502938047
0.2892180339788015
0.22896280009766137
-0.019968556868106876
0.2105637987227586
0.36287096332257934
0.5271939205153351
0.3327074072759698
0.27139030199462577
-0.10759554655202123
-0.18611265506447802
0.3366378262290294
0.3573689664546583
0.2558640483911228
0.43446461681131127
0.4538148776351638
0.17706992842465102
0.6867076745636481
-0.12260126977904794
-0.04527964060314078
0.24995871474230338
0.48781335217336275
0.008038170651518772
-0.1220696410979891
0.08789931585612518
-0.021842641304904105
-0.2261693677967691
0.04573887664830924
-0.1796617014137532
-0.3424906009266625
0.08074925395788776
-0.5808512747340498
-0.20518874467809184
-0.2919557590397156
0.1911279123908339
0.375858204231419
-0.44008228418954903
0.09682793700722862
-0.11854998454613094
0.5426958315287319
0.2546564641526374
0.008815107490266354
-0.06184451358549762
-0.1354512674290303
0.4729135309435482
-0.5502244187712116
-0.25353633716727875
0.17144802189908326
0.13440625046706994
-0.5252844344726516
-0.3697224518711378
0.16931468835804792
-0.045233699827881446
0.4553921703747134
0.07054842745208818
-0.05100637265550105
0.04302616673325271
0.1534860046463962
0.11526990593501371
0.1732054899899502
0.3910532599786615
-0.256079623815731
-0.055355406646362744
-0.3963557532537434
0.17353358363419016
0.6515465332845392
0.32431509514172974
-0.01925187482273572
-0.18686476273063948
-0.15732224836322892
0.07361888672261205
-0.09757273328210095
-0.1469109881722285
0.23494368678059518
0.5827556028602306
0.5230661359940837
0.5371780957037937
-0.21839441464447293
0.026890558551272817
0.3649734989246362
0.26536750837153106
0.10967884649335036
-0.02792280129076715
-0.08305233124129104
0.06102966608657327
0.16007808307631108
0.021770758130423087
0.15783855009398665
-0.20131052150905412
-0.1098539002503407
0.011070162693034872
0.19872838126430106
-0.08785149736608733
-0.06911380642087375
-0.07045154163825704
0.2291275483221626
0.03358707264173463
0.0401532480579893
0.2672108186877302
0.15427390611768896
-0.08453089080876376
0.3097907560094944
-0.044814647307135094
0.2375333370837932
-0.22200661101835986
0.1238412349582126
-0.5951768851543872
-0.03345133987103802
0.14052035844214913
-0.08021081073945717
0.007307711543586565
0.0011391147043228798
-0.10190952921440652
0.4051766877993587
-0.1200216613261612
0.03842369162336935
0.2486158311017006
-0.015804301532847297
-0.012823714166909726
0.3460989104339179
-0.10404484209046172
0.1430674836304745
-0.29887341348122015
-0.31389627948578713
0.1577234391569823
-0.0975116740369154
-0.009867862846500307
0.13244951427154508
-0.062176354784248114
0.12488103300271576
0.2608425615588557
0.09882481471772975
-0.5446393673029747
-0.29988265998124575
0.2803444328888096
0.16924259500373226
0.013864149450756919
-0.4605923941508412
-0.015589269483372324
0.13118762795115405
0.5935146740811643
0.4287425462361632
0.06339981502284556
-0.10490789046714295
0.40060269132139653
0.27976805688525225
0.002127947880097083
-0.010295889315196694
-0.4337749740346175
-0.03267759130375679
0.3254689075826903
0.47522683618233486
-0.27673122408082873
-0.24592534418100784
0.20763907574053955
0.17884898521571257
0.7071996593994888
0.2372446439842413
-0.07713865047547096
0.3589822922263787
-0.18058009927555052
0.02875437640662415
0.021224922567809282
-0.21780897114002115
-0.0220600846333465
-0.15417978921077544
0.3931112690149347
-0.04908289380928313
-0.3552584654093666
-0.35117139424101834
0.3054203840813329
-0.25491414121092576
-0.646322479347937
-0.04145665223751525
0.4944718176193542
0.4550646205032416
-0.6146058379536843
0.1252022527080172
0.2984249217788986
0.04552258096320738
0.1587147621263751
-0.30326311692298125
0.4155994810695996
0.10111784994261776
0.23460215226086048
0.18404007141813813
0.34231999121052625
0.010264015333732003
-0.001079375179046763
-0.00878980542018367
-0.0654329334709414
0.09957988577384672
0.1243944704292686
-0.0633343979681043
0.27697208463905704
-0.6094445463543124
0.043047556989497755
-0.00017322190786192457
0.13102227325958957
-0.13352617272649578
-0.12783485463901237
0.456760207582678
0.2505521433060464
0.019449322818424652
-0.13825381752734892
-0.22599383574418686
-0.5275232015135013
0.18554885823064998
0.26381894164990805
-0.3476863692508487
-0.4302857038537569
-0.24010326165494858
-0.09018820114212155
0.024933342638240756
-0.18878516858705208
-0.44465497377175
0.27765857803771987
-0.2870979123378005
0.21357625434683106
-0.29904736184353164
-0.4709264254789117
0.3612006099861559
0.087737063209237
-0.13410257222789887
0.2597711619541393
-0.5132491827374771
-0.3848353800109126
-0.46764174831269767
-0.19498528030035392
0.2524481954767472
0.09518240963280412
-0.15242161311411764
0.14454944577144596
-0.27878833785629287
-0.4637382523851774
0.3315710084653184
-0.4892372031800991
-0.2166802721204329
-0.1858796482193971
-0.35304998029907836
-0.049174950322510305
0.053992411823579126
0.14139286282656705
-0.15903813828288363
0.13675764911849184
0.5069355736688014
0.3214366353800534
0.5622039763737601
0.22928746995108668
-0.3405355943192263
-0.059620433136037564
0.2067036781742354
-0.09787702628141964
-0.12842153576700455
0.201515017941033
0.4383067161569404
-0.45273780898905164
-0.26827250929594054
-0.21971592911157103
0.14586967540134235
-0.4966253649078704
0.4314188591344727
0.2292238484763775
-0.08500728648033788
0.2985750626493535
-0.09786419015190898
-0.3216239155354271
0.3377766444796058
-0.15605849672088826
0.15752701605451547
-0.35462145928293515
-0.20545317932397592
-0.2123768059243795
-0.2704862366666497
-0.02084166123738673
0.03605720874762756
-0.13518593629097803
-0.11863315682167963
-0.33050480558762796
-0.1617783034892357
-0.09244145662835007
0.005619865587225024
0.3117819763226803
-0.08386683239841977
0.23883793890063248
0.34720532095230927
0.34801010563568807
-0.3340903890772801
-0.13643166335777554
0.2357821894404359
0.3707671277822373
-0.33503771219407624
-0.27249741587108783
0.022551563796439095
-0.2152416885604654
-0.1425076821706054
0.07836634261819518
0.3160321460441109
-0.19556344557801167
0.05008903388012846
0.050473904829182716
0.015861176568121506
0.017250170685779068
0.10395211233548243
0.6279142843563328
-0.0523602027126384
0.00036014691848399946
-0.2964770091026248
0.09116818513749658
-0.5212658961337552
0.17720260510017316
-0.5079892496504161
-0.24631233095064411
-0.4063501221741151
-0.11977623926617327
0.41722582675739966
-0.14881073827893346
-0.11203489747299457
-0.6701546197923756
0.35736788703965555
0.7619118412106445
-0.020510290809240536
-0.11922112719625963
0.46815821828292586
-0.4492971822166581
-0.05542470779342953
0.15582438448054126
0.3915226997020336
-0.5260395625718306
0.1670108255333773
0.0007403466828058713
-0.4122618340923247
0.04093337140548894
-0.1010030378552376
-0.05070305590085754
-0.13398132008717945
-0.04213933284950129
-0.07552251988182052
-0.11441479732864386
-0.3445186495077984
-0.07422589605676637
-0.22433145108194552
-0.1043035415943596
0.16048607309036494
0.0838864191211897
0.5904971630145568
-0.12706560180078572
0.15462751480281509
0.30700751667405357
0.6572321541788216
-0.15990924329675754
-0.26427998413292636
0.2905191504077162
-0.6927564290269306
0.040899742590755336
0.10698971336309653
0.24690348761399467
0.2775151013361288
-0.13008111134793704
-0.18207603066161265
0.3420144448157127
-0.6423097141745143
0.13765217965363916
0.4077051084654367
-0.07900121283145034
-0.32069059644775955
-0.29170706675418945
0.15429358860540315
0.29900820447712145
-0.1878914701690254
0.3476036315371374
0.10689566582316387
0.3254729276517618
-0.021313016443306566
0.12784384965617968
0.13575142372081872
0.09636852296461963
0.025251262815055478
-0.010738898150273958
0.15041102033860063
-0.281813718318457
0.044913031398443624
-0.14089005929341591
-0.18658713141602573
0.13792113689116794
-0.2801517867339693
-0.29599968678656435
-0.21618310124126644
0.5474561450841674
-0.06981171591600512
0.09355182597921576
0.19986965447657382
0.3855381150350409
-0.5319776794517942
-0.10188783686296714
0.23255520242492372
-0.19769988350354975
-0.4068579064124519
0.0573995900782704
0.38924411514074897
0.07188646089612628
-0.09886070325871468
-0.7566421579018846
-0.06147669347443375
-0.26367692369769224
0.022657664843680314
0.005860944256562386
-0.03850086640287673
-0.06962446132536493
-0.014392294632944249
0.22225647330496442
-0.27846875510977487
0.12183747222407391
0.4142640892282999
0.09614005863555912
-0.1889609191231137
-0.2659402605317835
0.5081721480922294
0.07083396475314199
0.42242174066280763
-0.2643233560582544
0.3070296114011919
-0.3111983759741072
-0.2342345817268881
0.035650438491454904
0.15786485867877315
-0.03947181830701382
-0.0469423643073241
0.31698681698118686
-0.16548223832337222
-0.20159991928215318
-0.04830482439941758
-0.5629020243489957
0.1926403014585263
-0.2191946527014779
-0.6117172967963456
0.21734199074240773
-0.3278412888677373
0.3701880363324775
-0.07482304663983144
0.0909915731537167
0.00121880848720603
0.1682076740226437
-0.1416712791524051
0.1515936657533597
0.13185484087851337
-0.0574382308936653
-0.1891949594157124
-0.028698782324884837
0.2796714550323009
0.31177885969721425
0.15258309656719418
0.43287307316537915
-0.40598575161846256
0.332777540123288
0.3194226058108262
-0.2993664791303121
0.24350721097946446
0.034788548807340794
-0.001492752960965043
0.025542024264764943
0.14043905716559182
0.10978783829038401
0.5283841860389527
-0.38338239942625585
-0.2773461425725232
-0.28251611788224745
-0.2588971766836265
0.08309837746397986
-0.04971299732537681
-0.14878963795560748
0.3381995121668326
-0.17530092717106882
-0.06432166214992327
-0.32451213774503335
-0.09328623218321319
0.2156749521784058
0.6836115828906351
0.39733299390818444
0.40397327724119453
-0.1683107117724001
0.16273147203735186
-0.40985904646100635
-0.3266548068848835
0.19352462078104582
0.2052290282006658
-0.03406531018504292
-0.07970849521721653
0.04189708601349232
-0.05455577392303259
-0.70133023171982
-0.1620593363621106
-0.2761453452194801
-0.26686916153386336
0.19588155490150586
0.5324025107865397
-0.09765573495839983
-0.13743648340518386
0.6017386722992579
0.5159352112396013
-0.17231923823521614
-0.12021587916339126
-0.19092739944501216
0.00404244035253095
-0.19394146819321853
0.03568604271304907
-0.4425551598489791
-0.2291353205285502
0.11030547164973417
-0.025023444754461437
-0.3924951033870163
0.10657097908784284
0.11115022504870792
0.01315668911900821
0.7641570470957828
-0.3449787030564926
-0.07239325864001685
-0.6780875293482224
-0.7525036119973477
0.04371935665748958
0.12800086623403528
-0.5983232821108201
-0.17394139240293338
0.3383677671189025
0.08879808164627676
-0.20106325443140258
-0.6366876102482281
0.011636081138347808
0.35595081356687486
-0.19052241187144883
-0.17345574130469832
0.201048329998972
0.2054102255296194
0.21580732904174668
-0.3343087335599299
0.3308732088818226
0.3639670452191513
0.020757210056825945
0.20783327323451084
0.03011988832341213
0.229352141571565
0.2905690067557577
-0.278844835817008
0.31834907443263444
-0.18633999337712553
-0.3829662351278166
-0.2470732744763792
-0.2512310513875146
0.10941283860631786
-0.41709497388001576
0.19548394972929106
0.12602792569342555
0.1904727136276112
0.41691941957153805
-0.42435476718912435
-0.1834424155895445
0.324682924371534
-0.14785321284988454
0.08157914617293884
-0.030518633873734033
-0.023036472808864637
0.1069208045903871
0.3864944737336065
-0.45755967314278345
-0.00012017107335707809
-0.3619183534188727
-0.43273457979011604
-0.0030890997884022342
0.0900403979164276
-0.0015030627814923059
0.03872462912769856
-0.5131022971729322
-0.24022388529896443
0.015453406565686481
0.25046339472728213
0.04819597212494846
0.2081956305189423
0.07976468414570546
0.03602651312980117
0.023236076195519376
-0.04068098035346525
0.2470335911106402
0.1701219218505907
-0.12278159381485869
0.20437380820056714
-0.2179386277896228
-0.29554208483040156
-0.19266654564469654
-0.0010751743036104156
0.03868445777794658
-0.1832722681733726
-0.35254998806894056
0.2867436625568954
0.19089250522381057
0.12427754835624363
-0.11986277773464268
0.19868089670789008
0.14776370109176223
-0.0030804635403619686
0.5847688838927334
0.004414195324399593
0.06248637879395758
-0.3201596897618575
0.17758398886031065
0.42180762827236684
0.12164182027788462
0.21084465847751216
0.308452295575312
0.04932740390682595
-0.06261035312492844
-0.03142328334672647
-0.3138560812762933
-0.0606101748063539
0.2082729692296673
-0.45284717697017207
0.06314679902157457
-0.07254824243722154
-0.11004361012883829
-0.17010048803979058
0.40174165560057995
0.2186296295025886
0.07455736562522419
-0.5748527687059278
0.11408466914731001
0.03545921095844389
-0.007364263011955549
0.02621214518349978
-0.051655687416865964
0.012160528247144219
-0.2475725500930498
0.045294698609268116
0.415360114841099
0.25350609225424453
0.459381674400879
0.24202402877818174
-0.2292004051905826
-0.018622651320282756
0.2625563139458315
-0.5456460758808508
0.3293269008729684
0.012047167395340539
0.10218239913565492
-0.051115647984540435
-0.019166040348889676
-0.057836002731107596
0.3162921741566467
0.2581214216282149
-0.3737325141575687
-0.3413534886964505
-0.27180653903688523
0.2864892277171612
0.438170731216663
0.02280589514650539
0.05165606349029521
0.06794178321447414
-0.39088479027726736
-0.45355397187649343
-0.031711493788510375
0.5771063959844625
-0.2405936111861516
-0.13962823776456554
0.16341002568773125
0.305387833868126
0.1392001208152366
0.2039452825704348
-0.06857431166711359
0.10991409317037358
0.16381268525385775
0.0943684349479809
-0.3707194366493875
0.03497420747502997
0.08001884274204195
0.4773136028804376
-0.4561116923660701
-0.10794660193020655
-0.14615512134452616
-0.4728785230976697
0.7550568692476153
0.07138078080801198
0.39499941527339233
0.5006025725124204
0.018762417577053193
-0.007224109715318643
-0.3094548874213245
-0.4042149312557227
0.18150837549177395
-0.0771370734798507
-0.114695975094909
0.3357779485550218
0.09229866697598732
0.02545953560428745
0.2373469418296274
0.3666322274997382
0.002014128192169263
-0.5328065112831744
-0.3404886433613083
-0.32675915276344814
-0.2058590552723568
0.2776289221776479
0.026810170625131444
-0.3004101192961574
-0.4580675188325269
-0.24639687103953387
-0.13933387362260113
0.6118140943101675
0.368984114415092
0.2563031543459168
-0.09976737334066726
-0.6250708823277434
0.438802267262711
0.12209364492545638
-0.5099592731016307
0.39784076662714946
-0.231655849572135
-0.12494849121407861
0.03597630430226004
-0.30776728073379367
-0.07859808995419765
-0.20465060152896553
0.048150322253110035
0.007510760904227307
-0.09938693587035191
-0.01680777680632593
0.43559170778829687
0.22753871537502957
-0.06071443272237852
0.29509194944121186
-0.35536076300865593
0.0646764337758483
-0.23546726398518314
0.24713383903742822
0.4637521396764244
0.2554150753489546
-0.18084028486487413
0.4155928835264765
-0.2001301589970384
0.20929551895245413
-0.2306849087667894
0.026314555973437178
-0.08674175130228408
-0.7405323653260528
0.1296828344339276
0.3843598566241183
0.3202663720964437
-0.4433771029758469
0.04417878394714082
0.07973093469364538
-0.16012170461132894
-0.05961720453069621
0.09095717871761286
-0.09783124173626895
0.18704421913816707
-0.2498353041962045
0.004485579122276687
-0.027062143374172815
0.0011355085110299884
-0.14928926283631966
0.36310088591846856
-0.14053139894346328
-0.2659801624497938
0.27107277735393015
0.6818627119035243
0.011948542899095638
0.15945830752730178
-0.37808930843681654
0.16586058427704242
-0.3030086243814007
-0.24929852041997905
0.17470535580978877
0.31922372114381903
0.025998085302638203
-0.2899227636023754
-0.23539437584745512
0.01798696474880693
0.1751731499825763
-0.20919776956548988
0.036464220955691684
0.32925396547717467
-0.14674703648989879
-0.331622215019825
0.023992811076204955
0.1302922133423662
-0.08462855380312699
0.48790851478516856
0.18195153249843335
-0.29150195434744336
-0.20285440993665949
0.11056750332635516
-0.47190098479381376
0.5175054045655376
0.28749542050015325
0.10230515446161162
-0.10804801040732588
0.627153294363019
0.10029804240284441
0.30659373356993835
0.1703155489925484
0.12197962768832944
-0.02215164641403299
0.061026893923436375
-0.19667159285121455
0.1655879551199807
-0.3713324393297665
0.17823684919898783
0.22675352573665253
0.2759883453753229
0.07370855589873035
0.00842643586313587
-0.3198046751742965
0.21433288845255405
-0.009518257733111659
-0.104434438665287
0.3991194260083428
0.08224846949543343
-0.5326901950560893
0.21124271365298847
-0.02931658241905772
0.31282815752032406
0.11839261080874955
-0.09838415212249021
-0.4184851376580194
0.37457850605578913
0.5019798188933479
-0.5554219831149565
-0.17483477872031378
0.07571807699438002
0.041637102469859764
-0.08386673340029768
0.08887359883188593
0.06954362607492665
0.2645991905869725
-0.44087285760798517
0.2284733061384772
0.3712248714236693
0.7136806049028721
0.10885922187374464
0.01020661912736239
0.4181633808061691
-0.022027575466836785
0.10258761285064318
-0.05352760612734338
-0.36262880487441473
0.18056698093170115
-0.7024530623402314
0.2514643955037411
-0.7360827870660589
0.01806407051762387
-0.5182392799982815
-0.19476330500893
0.4114911563027164
0.4289344007553386
-0.17954358048607907
-0.07596770542419498
-0.2541054029155274
0.6039871235332189
-0.05907968001854123
-0.5450331986949011
0.038472962815823374
0.2204910532134816
-0.1565432449204496
-0.6398239977181723
-0.25904156950619783
-0.3613141108487781
-0.3467075851766022
0.15998256123824722
-0.05232803906191524
-0.1587820011364098
-0.11075155136831766
0.35766357452253933
-0.06338194246126187
0.24321464108068366
0.3529110693961354
-0.051359947480081054
0.0549465974985913
-0.25914258163480225
-0.36987246011210934
-0.17343687554619291
-0.22441073969600192
0.3515349308786932
-0.3966134367100247
-0.188247864369867
-0.4189969937172536
0.08830298112761971
0.1459908866642988
0.1554802340226005
-0.16390209117253438
-0.2325043338846474
-0.12136224751493796
0.10028138800691108
0.393399799893105
-0.17777630079869094
0.4856163858747067
-0.4800947052672165
-0.3201610088546998
0.2372033961618893
0.19447152127576536
0.3158419297243251
-0.39942809492252834
0.06467641185883766
-0.5531543199557399
-0.10952661934113071
-0.028916327493145603
-0.007401959272528796
0.14011912022882675
0.2938024116580832
-0.13043979245589316
-0.23897629803293177
-0.14750725461202732
0.6304569253529332
0.11565970201747229
-0.11052590161236595
0.3252200318436193
-0.36190257222669486
0.06397019707210685
-0.34550387529438276
0.2376492891239285
-0.16674235563668802
0.04441249862142936
-0.04862787827233856
0.35369782456464477
0.10342325524729531
0.29811306151643757
-0.2795211676426488
0.3795762792650468
-0.018333743557640694
-0.32518411169387595
