weights_pso
-0.22985018308440966
0.23078771061370973
0.3709150209607564
0.6429550242431836
-0.1636278045477766
-0.04089817584137018
-0.2211460561410864
-0.1404025222287087
0.054849735580098764
0.03683002557866203
-0.21365877506416325
-0.5319942577158234
0.10082699303427399
-0.18786993458563742
-0.13620332309436123
-0.31488111908895366
0.07190711532357685
0.16171130773034947
0.16366782065959798
0.03694805971331297
0.050106833656267266
0.237078381825224
-0.32596563016714775
-0.04325262849659994
0.16767153401274018
-0.24380198026584848
-0.20848716370386394
0.09468636580052849
0.35779021602623257
0.29221917009943355
0.21843340478943438
0.008486609918072924
-0.03021520281332546
0.002603193609085685
-0.18210847665188276
-0.2635486492688455
-0.4802905745248439
0.4767312586994029
-0.00701017810720277
0.0010420649524943999
-0.2372036872089343
0.6214748410503329
0.19633399653702624
-0.1426468331973551
0.0902336453228375
-0.26818809651110065
0.3473599439490683
-0.32740991467492425
-0.25585085606043395
-0.5275751110269596
-0.19559590376102903
0.5341860728853941
0.44250492755228094
0.1144453675188027
0.34040135921855896
-0.09299840937423244
0.6175299039450264
0.8908501503770824
0.27754562298202257
0.07127469321814889
0.8757945361738128
0.18948249985273638
-0.1256501723635814
-0.6272731874775272
0.22778708837628253
-0.3212356157785516
0.2286563994524843
-0.2878694736830819
-0.32798361611403265
0.3821673454761701
0.03903964931184818
-0.21419857222865354
-0.06299834679304868
-0.11036002124123173
0.29256509508595485
0.4515402167469818
0.08578374711628904
-0.29683149568622796
0.3872736941693253
-0.4214399038722292
0.05163887859462396
-0.15206340831345003
0.6658953813457805
-0.18808932074384407
-0.043937205709299654
-0.12842160791404433
-0.6258460416788161
-0.19044801282659024
-0.27182556801839747
-0.11546031489370909
0.2011617824704119
0.061118401564832094
0.0939238195753855
0.061804025216955716
0.16502299241397975
0.037597146174854455
-0.6654551487458746
-0.5018752153750436
-0.5630902804607247
0.14627301083278124
0.4749527573582343
-0.07211977929985997
-0.5817072681945592
0.18008179697621238
-0.691085616545281
-0.012248372347955824
0.5278357267186551
-0.6408941369119321
-0.07778612565837363
0.29096643979601855
-0.5753595227919968
-0.8922175487524979
0.6520446222196455
0.339635828810203
-0.22509749779316743
-0.25541533159806434
-0.2082698964712802
0.28156512926130506
0.8732142214948159
-0.09884563636816546
-0.062455999210643764
-0.5018470891507616
-0.4882474443655091
0.07369045689465825
0.3803453944375775
0.5606389481935447
0.2824688956878602
-0.3130512092730716
0.10523337224255935
0.7079857122626184
0.13687174159963136
-0.791679099555213
-0.24200762763967112
-0.7539655752463695
0.0799337980072722
-0.5596035616259857
-0.38876797153393755
-0.23332038623242082
0.25047854959423277
0.3915921079721624
-0.16577672815814878
-0.46110777962176797
-0.11911432888490871
0.12183043742728543
-0.11300482883993893
-0.6392897262111553
0.4968791705013855
-0.44327660917495104
-0.034873924165387274
0.1871908289877937
0.12760036286708235
-0.21113119625577892
-0.40076360675577266
0.3148329606624844
-0.37783458844462603
-0.16427146011340013
0.3884963116025626
-0.13094901727175753
-0.08248096900917026
0.6010416280710311
-0.023055193418771193
-0.09051818573868525
-0.3132340195591681
0.443263848170005
0.04900527227708494
0.3504248024235152
-0.255584588524728
-0.08982009487578711
-0.40312207078538304
-0.3718027357774025
-0.44488204377384666
0.06016169191971068
-0.31511504669233187
0.048967514515536936
0.28721704452736124
-0.10160999761624857
0.4125012204845646
-0.02373293442689536
-0.2285272763822
0.18416373574263253
-0.016548853185309572
0.3280239786799843
0.19132814823185618
0.21463286826941436
-0.41767130076671327
-0.6644262192697656
-0.251029574657728
-0.18503352803803927
0.3585148465940499
0.26103460492706737
0.35589753245904787
-0.25772856639460867
0.31600163657109964
-0.20093340550490543
-0.6545147706224035
-0.025992739193099933
-0.17087227687657638
-0.4172877281789162
0.5965884557711834
0.16235649427133508
-0.22474881957964113
-0.14154123602731236
0.056297716807617144
-0.09629170884285385
0.36326549710047357
0.5244577687263067
-0.4331790258015653
0.05757790983170733
-0.6006351290788826
-0.14748205986261723
0.03991334448233685
0.17813973978292458
-0.11849004509183832
0.08249281514413852
-0.3932137312486166
0.2363037410033306
0.891639046198029
0.30604839374565845
0.11180285032496637
-0.37005069521883366
0.13164495228715004
-0.18952527737801406
-0.6172964427134567
-0.6495682773765967
-0.4929800107238861
0.08898209342359385
-0.01574095260284934
0.2409564919933617
0.43642726926554715
-0.19141208941546684
0.0415782645551862
-0.4817784389026603
0.02717685322731253
-0.15765266292785857
-0.3988187576319428
0.4982683929551665
-0.3345823348814207
-0.5383255218259668
0.5271591410798261
-0.10495449566997714
0.02511796711611777
-0.037844610392752054
-0.7640984613083555
-0.28755807725030536
0.17685429957568533
0.22653094183641795
-0.5147859914418174
-0.283055276584764
0.004991884231860993
0.18660624137294463
0.3921522332666681
-0.18531574671866166
0.2607120544261221
-0.8584664636112361
-0.05464962702413013
0.1546889954661464
-0.3963773292380005
0.05964328344520308
0.07083413516180463
-0.1213826241080083
-0.11288837584954671
-0.2021845257329284
0.022929570602284007
0.37510675889112605
-0.7244686889869484
-0.09060008487663554
-0.6182015175364336
0.3546980884878579
-0.25152239225243467
-0.019679109687612727
-0.3129175889731941
-0.3337179710372484
-0.036031073610071025
0.04744387877747269
-0.31444366760277404
0.061074294802961546
0.17672700085014525
-0.3396010914414227
-0.519466389895324
0.057872009884994136
-0.4786456155027713
-0.2029443435098438
0.18049750187371852
-0.050288254434945036
-0.041854204205606184
-0.2510391389754825
-0.403329155098639
0.11369365832118178
0.5288998802707985
0.5385202482798366
0.6327265295604578
-0.4979033562187332
-0.406886219226501
-0.21044607079747218
-0.45542781772582996
-0.2821362277447468
0.18450101595118898
0.3908624873164058
0.3189974896344308
0.8544769757848212
0.5488605628877188
0.7205470150343172
0.19199227233955818
0.49730419668587367
-0.27891401891906686
0.6798987855940931
0.0820780354097925
0.36671581099218004
0.15141412687813444
0.36911167499880676
0.02757476574661309
0.0904995674548461
0.5131949687457273
-0.01503615820292339
0.49385779119921985
0.42074689227916706
-0.22563880197541933
-0.02848302275466145
-0.6499644636543944
0.06357865356709481
0.29543006343500844
0.031903136826760846
0.5429959731469735
-0.2296210101215506
0.11165042247851503
-0.16104836435016726
0.31633100708409406
-0.22307580841828736
-0.10627202824823206
0.38630511211661145
0.22230212171175653
-0.41215853393194035
0.4539789380117272
-0.019997030519867044
-0.640972675630793
0.1154166812078121
-0.2191863610734679
0.5234545139898334
-0.3972674112856423
0.43246676605133905
0.12734903424704536
0.31000805402757736
-0.0573539348523896
-0.029103785084171396
-0.015457189143120467
-0.11083148006658049
0.21303564105236295
0.019923911945219235
0.059739661245882696
0.14433339503969894
-0.2246774250600682
0.3383530309562847
0.043043478126377224
0.49823980122362643
0.20621483142510696
-0.156081304718177
0.04027209449120545
0.30702781487100334
-0.4652924846430707
0.015083449752839116
0.08029564303427746
-0.4006390777955219
0.1905714505824986
0.3373977373277591
-0.3121619801723846
0.126918575064159
0.351029058618639
-0.20449827880588964
-0.20490398949910027
0.21436765560168364
0.041126649608336716
0.3732415142425877
0.42393091083555295
0.029228594388278777
-0.1550858905131066
0.36478559851841086
-0.12162166137439856
0.3151029698711297
-0.09776836372462673
0.18602364790990172
-0.25420383251697415
-0.7799980554320752
-0.356780350253332
0.3157967033583168
-0.08072528566622345
0.03759587961403202
0.31063767154818794
-0.8487664558661336
0.7198951224168088
0.5232978182064492
0.07566229276753096
-0.40116422754603426
0.2909327282990264
0.2529623482366842
0.7105762347346485
-0.1244983096051377
-0.3537931411075298
-0.4732185011925635
-0.13244120988105776
0.4795749217559502
-0.365992232692119
0.2819694976277446
-0.1602093451939907
-0.4187020301385729
0.2646760671972522
0.4145290753757076
-0.5471433693838279
-0.14421489756257824
-0.28990543675570773
-0.14123915718115218
-0.09457416881245001
-0.06071091466096121
0.07168886770536012
0.34303491551078497
0.32146534930974346
-0.16314862462829763
0.18507857322061133
0.2610146607972724
-0.7073950379102246
-0.6616171088816463
0.17214318965057365
0.1440143255987658
-0.01814204987244595
-0.16948810759562757
0.34993064866413714
0.15820560538963402
-0.43688251880507506
-0.2183599987893659
0.5359911284879181
-0.5965697838656199
-0.1867405293664745
-0.17502902241013532
-0.3452567525846504
0.3217182055828478
0.0890274245060372
-0.30261926974723363
0.3721281698634591
0.44250238244609985
0.8798521636360663
0.3420266197009685
0.3242502929802048
0.16119627066885747
0.25726214812210413
0.010022308262316475
-0.02837722852349117
0.2294030331185888
-0.18639558665417164
0.21513261210514345
-0.09679878948015659
-0.014984458018481573
-0.15913404048421223
-0.24816900102783607
-0.0969885118132313
-0.3179654618714699
0.2323202213062564
0.5646022969572227
0.4862415797380331
-0.25730056872426044
0.05744918057506475
0.5030901985602582
-0.48855598071510586
-0.41277114473023563
-0.06445265797982504
0.2771004349823071
0.06050058703216851
0.27106409991667746
-0.26322909292147323
0.5167485295049891
-0.09135690302621635
-0.07289590659838328
-0.3732826149928495
-0.2550652461876461
0.19871059108497874
0.09867647720734302
0.5623074695151496
-0.23710215346598115
-0.14364481923124173
-0.658981602294825
-0.17645697282012804
-0.2745452732243827
-0.35910833055976044
0.5527359673716192
0.125098826392257
-0.2574620825096885
0.4001229476591484
-0.03256349921829566
0.11207306749679757
-0.43035613137945855
-0.6352069008100893
0.2303213215853901
0.22738565356797208
-0.08740438581845644
-0.12626618614831037
-0.013206192976364012
-0.5224273874536361
0.45878097004229557
-0.12060916961284174
0.4628684211832166
-0.025322294521298215
0.2702374944223902
0.5538332112428632
0.04506969683391104
-0.015777023128313944
0.476184383154229
-0.4687845352888453
0.37197103476049337
0.10859809964802279
-0.2811014856657672
-0.32089477288526974
-0.23577133724168753
-0.17459263552482165
0.09948526258544277
0.07195997724819814
-0.040265897441399384
0.3647680370975427
0.41514920255061805
0.23556642507632966
-0.9968212626550716
0.0778669630119772
0.02780276395008507
0.07796147793384023
0.37161949438931047
-0.046326161161884066
-0.11018284076790531
0.19468083735051905
-0.36053554724283443
-0.13308681468626937
-0.21091794945789638
-0.19010643892694173
0.592396823024408
-0.44009298340161773
0.1449226573422243
0.3293327967908931
-0.3364281718609597
-0.15365221414406482
0.3028315995375054
0.46256270011474837
-0.04700971524581164
0.04582665166951161
0.32511294303278215
0.18393215963002857
-0.10297072478297271
0.38997963154967014
-0.16801451485819796
-0.16116934724606088
-0.2335723451005663
-0.3890265195958489
0.28219694803376705
0.5767155766843328
0.5196837607658332
0.029749970045391892
0.28378685758259276
0.013441018437902673
0.7962194646221453
-0.19325880157876915
-0.03277169674528146
-0.156815321056938
0.6384027926857632
0.26097958174122005
-0.10138691536186986
-0.31569556258687714
-0.01614095990343856
0.38407211614139497
0.6605741514055758
-0.16609185311683455
0.22006535292411925
0.04502625564042301
0.5642141985658863
0.09585186103341171
-0.3801358141660014
0.42690271743802377
0.6057032717702341
-0.031269163438748
0.40006364347980344
-0.3977221823299189
0.0692979772622219
-0.43151599341569474
0.3169386467077415
-0.4700636454266273
0.18808307159530546
-0.26532122446360595
0.4799990723656481
0.2991806715685697
-0.16662918343662883
0.3775899965255238
0.418437758936959
-0.3433973057634825
0.07387929466553894
-0.7142941995534189
-0.5975239046050789
-0.31185302939004256
0.09031469277759442
-0.2667151086343658
-0.21431516883442578
0.013818365231560539
-0.1167635187892367
-0.2026786359937827
-0.49580916680985315
-0.016943124173577462
0.3172642239250606
-0.23106195232765064
0.5736324709431145
-0.22549398421362707
-0.5842203374840087
-0.5151299955326578
0.3731025144247837
0.10615168817747199
0.10508428618813255
-0.4170591018277687
-0.29078953265942353
0.27358251453791455
-0.06044212029699501
-0.5104634729972325
-0.39624454843360096
0.4701845183913553
-0.0020049541068643023
0.22718491558551143
-0.7827879932328657
0.6701553324193545
-0.6712553923560506
-0.44556627965463047
-0.09749700123342314
-0.47851889804524605
-0.08545109318019249
0.5197725164304088
-0.0062529811032142266
-0.23194243340793924
-0.6707073479937004
-0.010684795237195873
0.15273373087022443
-0.5345234320642183
0.05870619991503235
0.10706244955405661
0.4574020474352486
0.5805098407940217
0.7515493623950902
-0.2455437204219254
-0.7961470455514124
0.054049695929489605
-0.16989586823455877
-0.23362915565494694
0.009002277913842598
0.1982665133848473
0.13178104601200658
0.22136545946123104
0.09407946882910216
-0.17662444157224233
0.7157252149013523
0.468635047020265
0.8233499705350545
0.12609305405169188
-0.1200752224870637
0.8778805240392075
0.7536429408294999
0.07939998437412113
-0.4445275771715812
-0.5677776196145239
0.32191793822340814
0.015807004924023486
-0.03943153882619926
-0.4209099232611731
-0.3651291719227818
0.028197919129349186
0.0380030825315423
-0.2748086821156704
-0.1963178811658526
-0.23393929418378492
-0.38501414426995567
0.9872937429232336
-0.40137564705669315
-0.4693414159887688
-0.6346854002957933
-0.4083702931188753
-0.40838370143099784
-0.2026313339770757
-0.2420452604147671
0.2604012968694089
-0.2680819908711718
-0.0011120453382303054
0.312315149793969
-0.07137576890033352
-0.6043884293053053
0.41870546900684175
0.3077431153882697
-0.35212075582619445
-0.2724316766157215
0.4582658239541601
0.6055938602584124
-0.16270196462251327
-0.12586895229347222
0.021037911110541
0.08705508308397962
-0.061612062783827234
-0.5493203638334769
-0.01363451839360085
-0.4555921792434302
-0.11725915563550303
-0.42190933822311777
-0.5424558025075285
-0.25238159588888426
0.1973877683326722
0.46947237241736156
-0.15873724487632054
-0.230717545656936
-0.5245376774867483
-0.609529469721068
0.47518815603863646
-0.34832836737943024
0.16362877669468595
0.39886105999149735
-0.09202387171002968
-0.001904082153728434
0.1845394732634109
-0.08463354210331209
-0.01992565693035587
0.07793717297720447
0.28470576166078193
-0.06452935936013672
-0.014610588631068172
-0.2809845760082889
0.16039913735690187
-0.6360543015493879
0.2845122858121674
0.4322986356496194
-0.11701958368445853
0.35296115553844576
-0.656693192274262
0.017589650124328747
0.2679210059838731
-0.42542691945574473
-0.4436995403645746
0.09572591359865365
-0.054301970833409055
-0.034398892330427325
0.26778196864725934
0.25071517321224196
0.6131051749106263
-0.9587140470467105
0.05140281032280684
-0.3478881916380795
0.2764610827882555
-0.5855484873290847
0.06369130870209927
-1.0815553859022926
-0.3846168122180262
-0.2117457719641427
-0.6423132290609588
-0.3951321691373196
0.35719936933280966
-0.4668124734840654
-0.34048464013900703
-0.5578342665379575
0.2741113111017633
-0.19170288153179818
-0.9329408783199983
0.032336684549728316
-0.18134103360984452
0.7998043657975841
-0.329178649210759
0.3119521613624485
0.34465138320594324
-0.47244003118269107
0.1245756898734514
-0.00014448061316228817
-0.12160516598619667
0.39669620849377457
-0.7318231816286142
-0.25737291272818075
0.6673762827687997
0.4279267099885157
-0.2140818529076566
-0.05243947214998446
0.014440822317050295
0.47282648835923097
-0.14943084332351145
0.3066586644036189
0.3380734213875206
-0.001468201907335126
0.1813134786495182
0.23681145757587435
-0.680415674747744
0.1988040190470611
-0.12378484517868506
0.36999967931996136
-0.2513243124655528
0.13912318147135022
-0.6402929900740693
0.04485459692933059
-0.1324670224514987
0.09592487554351727
0.06518960726400633
0.594399029521586
0.009631209801866178
0.4629546775255627
0.3057239146094812
0.1285201208778268
-0.7563256504091915
0.3497076258317394
0.37497365646511094
-0.3266234311401368
0.31368496328930656
-0.09958681916996835
-0.31422415884543886
0.40052948867488214
-0.28128927189069214
-0.311319836554321
0.4643469329781948
0.4721555428148715
0.3609313414091235
0.04563485983760521
-0.7709154482147994
-0.22485715028463238
0.470155365505343
-0.16510314187476116
0.7000879780889138
0.49641834705907883
-0.1163269876870538
0.06533589809371222
0.29760764805575224
-0.47886856792763766
0.35061259473484513
0.358749099039349
-0.2974220338650973
0.06287289329210022
0.8769060757925315
0.3719538247967775
0.46981493911755123
0.12353242340730636
0.6221973749931512
-0.4316485204205728
-0.0727929723486279
-0.8155250168964444
0.3489021578659096
-0.03071653568404755
0.13004523687635747
-0.4016578405639569
-0.056822775253358354
0.05788354109810871
-0.2110293866330221
0.2675556281031919
-0.13319948609168997
-0.33758067231809274
-0.14346088589960931
0.25804515176786164
-0.6570853629261447
-0.224152797646815
0.22099926892455563
0.4423852051230187
-0.24453681537148358
-0.44009171885685155
-0.7374771496738524
-0.22917370014257868
0.10702986092055394
0.2912599237544747
-0.21734786129440697
-0.08471122085629433
0.41834204649740675
0.41004612533154944
0.239830374337511
-0.2796504369716783
-0.3667480175915861
0.1690361939021875
-0.20391134108131836
-0.3891210691980735
0.031679035544906274
0.5306709895056774
0.11219428114954674
0.21396841482155288
-0.13242418733033323
-0.046260151121517885
0.12077331143163662
0.49182474184582775
0.025414894445730515
-0.3654232693714419
-0.27176715552598696
0.3620075821143653
0.2330685608459203
0.14629116656032254
0.6755466761800326
0.5663963028172707
-0.028442533191900505
-0.33845982689450277
0.44214042203183035
-0.2645661923818472
-0.48082606191209765
0.31736335910982
0.250090979046731
0.4580222522510443
0.2574055158217634
0.27255693274277804
-0.9893213641458225
-0.1602450928569825
-0.42904100279042545
-0.448347146625589
-0.020006682515783164
0.4224107898611032
-0.630455958386253
-0.055703349698353714
0.3923115487564758
0.35190590522726495
0.26736942521451973
0.37960236703800293
-0.6257661169481284
0.12553569792841757
-0.05153099314452307
0.3964978913631544
-0.09676475529983891
-0.6608077241438862
-0.07719839632749231
0.1034146026391667
0.529663865654189
0.6624682410755198
-0.42181229229154604
-0.33847047196484165
0.23972349776349886
-0.26045867715914317
-0.22520435500364872
-0.5122675372742349
-0.042056152730084166
-0.4008253873665458
-0.22590638778813715
-0.13994019052398643
-0.7636934845989497
-0.4536028719323527
-0.6121291092597361
0.2412784053798321
-0.2750931974292104
-0.5907207654800015
-0.656814117616741
-0.4428060007380526
0.5219107853055834
-0.13240807217845127
-0.21839319001697094
-0.4656889078526635
0.1531363407249652
-0.01105775060116939
-0.18238225004470746
0.34294516723165375
0.30548348733028213
0.11943276325950035
-0.161630603816841
-0.3597851177400554
0.5568518634270536
0.5662125290050914
-0.4482973024090086
0.5282142132622342
-0.5304855003316218
0.2349843642514151
0.11609940019368228
-0.05107686817803627
0.30152197093292243
-0.012963162728563422
-0.3929211425574202
0.36610718915779594
0.3677829061515934
0.10982043886173555
-0.33412039006222966
0.17975492527702883
0.06631969653896765
0.23380830033487893
-0.29900705618579143
-0.1412679655959467
-0.05142593870917002
-0.25214421792001107
0.41296303881048374
-0.5163147622983376
-0.3358083086481893
-0.12242454156674466
-0.9375600837230853
-0.5508936246700722
0.42919406503235813
0.20180344141637938
-0.288209290905054
0.28901471515425003
0.377857607015538
0.14575494964422325
-0.5362417451286328
-0.029048651991754576
0.4290445917022898
0.1617656164028895
0.08563796926482047
-0.16202569445519935
0.2640721810812756
0.24177283955520656
0.14305039944438006
0.23360951262550553
0.7378141951848757
0.9404171698959156
-0.3846152073225867
0.27426050728028456
0.2385937868195265
-0.05181347299159045
-0.034553362787284984
-0.6474285880045406
-0.27151021430655514
0.5374274317665326
-0.010304601948853286
-0.20128312556146008
0.4234268356460483
0.061631241219180885
-0.23941443107992555
-0.5611996524018014
0.2785509986375957
0.06875578929421053
0.3743967997954426
0.2978259699028444
0.039392560774660225
-0.1991094391684241
-0.12939493636061827
0.2693859036870441
0.22381297331961508
0.6477075304683928
0.1252829693892864
-0.02422451144935949
-0.40430995097986006
-0.2516672936406438
0.05030798669151172
0.06450186175971498
0.5964699975741706
-0.012460133471695797
-0.6520016352084316
-0.12871143328862225
0.24101146906490065
-0.48009009599437197
0.485253608304615
-0.04129748406298168
-0.08565497778350176
0.03396687674265203
-0.48773607207945696
-0.044304318502545605
0.12225444340229194
-0.4060757240959973
0.38623043905337423
-0.20778661894981212
-0.09205379375501473
0.0248078700087843
0.4141227541805376
-0.007616915499575088
-0.521647736981346
-0.18268380983074733
-0.3978219720261049
0.0961839774043157
0.48293856172446653
0.20068060035167135
0.3846395895011889
0.0615179517881361
-0.7907665927548801
-0.46235234092099814
0.1328711698257404
0.39111934010110944
0.10089963222656961
0.5815925889313486
0.3775044979619183
0.21352463434126365
0.133202457479114
0.12690182729649024
0.2353784990544266
0.243035551308459
-0.09656789210743007
-0.1441877479574286
0.03998836616616543
-0.1728975477899369
0.37640536743588104
-0.2084452562792385
0.38845673804900827
-0.14051388114904173
-0.1879493069013451
0.04890973752748732
0.5025620858727141
0.1248246853732421
0.4972181171229698
0.24853689399802878
0.3066284885078824
-0.2953106054834254
-0.13955943843219748
0.006206577618158791
-0.2276671177519332
0.22896306432467262
0.37640884797525537
0.0687375560924497
0.4385239401071479
0.14228771631638637
0.21354466619329857
-0.3551771760818383
-0.15745890389714645
-0.4366209274553649
-0.4495433705997049
0.32638331744246674
-0.026774649314044482
0.27323906650604923
0.3513966110555373
0.3355883164499254
0.3920360595724332
0.15577706863427257
-0.20689939769666185
0.0507308644638956
-0.9388478479449573
0.634182754457622
0.6868396434128151
0.5999653294069204
-0.051802373365843965
-0.5550486444246607
0.25788480506585304
0.11701657531219593
-0.44625828223535613
-0.4277179799534438
0.377988770912103
0.07074401723402746
0.7457193254606034
-0.25829087071602913
0.21869033439606672
0.08233386116868037
-0.004999095970479466
-0.1781391259801056
-0.12784308372491268
0.14607342379894742
-0.4764144199265631
-0.16564507806468273
0.1527092395856084
0.1760110784389157
0.13824510205580232
0.18596582526669764
-0.4910719557901207
-0.29032370148129005
-0.533512727644403
-0.41370541467101485
-0.23353833024645151
-0.26032453160860036
-0.8257537955042017
0.42854335053427456
-0.2657801450241035
0.3189152117636197
0.1370076513127326
0.0011178834988253635
0.07682723565688471
-0.6625510949647058
1.0299444286112827
-0.025978201750958496
0.006625792875082012
0.4874393618840427
0.2439138303504711
0.013812267509880577
-0.06153342580256614
0.1802801502224811
0.03866465218971397
-0.4523002049594354
0.709471506528614
0.21358181874533477
0.4647103389686656
-0.26717393944100526
-0.012769932290228027
0.20726089273236692
-0.0472572121019276
-0.17587450923879194
0.3012670780441858
0.4567708740469582
-0.4016214390502374
-0.012818318019713207
0.01976536861326305
-0.08528342918746386
0.20126508392023965
0.7826753876006733
0.5119703501829735
-0.5668444003290947
-0.1549305059487312
0.3922316208879234
0.0445123162083733
-0.1952157557772893
0.04771479774117666
0.05473755271599284
0.03983639393938171
0.30838156915266735
-0.8176303821209824
-0.4256954174519677
0.6528164685566303
-0.20726852755070693
0.22537823250661188
0.084248664924895
0.48422855839953827
-0.08525810019434739
-0.24977153537173308
0.37680301694972557
-0.220664469608575
0.11704813503919254
0.25208303808963406
-0.20897760597787612
-0.7888888441920847
0.04561259661963954
-0.6752268002281261
-0.0721248879006888
0.5971658264644588
-0.20697559700829152
0.6600855747998347
-0.13852500335170947
-0.00539638247080074
-0.2827334666189012
-0.16049980299176186
0.5143324552897608
0.26879442900890627
-0.08933738543584811
0.539353929853518
-0.11281211636873265
-0.07712178536462261
-0.06469726958363199
0.3402660026805476
-0.2894420132040955
-0.52793219962491
0.3073795922591814
-0.23397085329292627
-0.16513083450978747
0.1490817673566601
0.41147819754461995
0.2956796454189543
-0.3320237669139059
-0.21789154664776206
-0.2265147808501976
-0.42360389716659846
-0.3648539112731244
-0.3225394066642988
-0.39904960106161336
-0.7808144814284153
-0.15206814512197508
-0.050087370551786435
0.09190284796390799
0.20807720636751267
-0.1679706499914519
0.31910502384957673
0.14639368327767086
0.7072546415159574
0.3742277161439365
0.20863100524399045
-0.2714472987343089
0.01771232239590911
-0.23529213630857398
-0.22436043758697868
0.31942479466983265
-0.3434826126856205
0.5713522441629912
0.41018448233533794
-0.35241323280101244
-0.6049809710574777
0.22612747232475025
0.1163976203479239
0.7047727958918399
-0.16717855584851662
0.6762223561312655
-0.5906126348366775
0.17608281994881286
0.25929683764961536
0.9562193113256736
0.37775768624871064
-0.1587816166211677
0.28163661393463996
0.23380196254059105
-0.26921948189157235
0.4971004714850132
0.011152845271198452
-0.18205527997526919
0.569342137650176
-0.37040363127775516
-0.6273997391223388
0.3328001327655367
-0.17308069414558902
0.28886123699791183
0.027555175410024085
0.33228768889495525
0.17604122699392688
-0.13527446698741355
-0.12100301638217174
0.6100171662042011
0.05687406767759267
0.24733428182429437
0.2147369048328211
-0.3876894168825489
0.3156522391773801
-0.19683068469173856
-0.020007680031434164
-0.7383710987260136
-0.06605838371658862
-0.1772103153112294
-0.03324508573661548
-0.10181755337066367
-0.35040196011622476
-0.433658326139701
0.13816961231800196
-0.2165909013792017
0.007578321828819629
-0.036525558308557846
0.6375658597408403
0.4810931143724969
0.16499195391813284
-0.5858781532376102
-1.2830479911682664
-0.40497075618448103
-0.30173482792012185
0.4849178957586395
-0.4400718847532706
-0.3049029313464612
0.38627909012742356
-0.18158688639082435
0.3067232315992888
0.05656479738687141
0.558259293734751
0.13393172685166846
0.18129802660609623
-0.6176115468061991
0.5301807753165674
0.9204708065544507
-0.24732075792139216
0.1477517146141508
0.1740310368667311
0.5898272702376299
-0.43675088819865415
0.7076099573961769
-0.17404281451031717
-0.3504243609576447
0.24665789439259758
-0.12254457179250115
-0.3428732719472802
-0.34507645691116096
-0.18125176451377384
-0.18884395391520614
-0.1421952160494443
-0.07213768321498805
-0.2423892064204701
-0.13346780328500768
0.34901916343132083
-0.536395247750612
-0.31584304667172913
-0.34769358547722523
-0.0825443914646719
-0.16096736185162186
-0.23729577558744736
0.014556657361702035
0.07745040015219368
0.05200900675151916
0.37291749914128086
0.7578571382293714
-0.36106467966029687
0.2029381923350989
0.3114621782266716
-0.15553603489756854
0.1751207708639516
-0.1483653887369778
-0.05417493245508091
0.26586497410427384
0.29047103081694803
0.49246730676596645
0.3506134327100696
0.062213004331985816
-0.17957542111652258
0.11330486653818989
-0.04389875692960394
0.2354545979155022
0.08665052099016442
-0.2347676062696523
0.29491685555040487
0.5451349092627906
0.011184910479666089
-0.13437848470014643
-0.4483854939464177
0.7855396136751224
0.4280150365225404
0.10565450778629326
0.28938074406354125
-0.2725370748160618
0.03346311218113072
-0.5980035251335529
-0.566272021675575
-0.2823076584606324
-0.07137047845893046
-0.12558603435446364
0.3232494518147811
0.14617282593664951
0.18292352298681064
-0.4668894286252137
0.3473830615410494
-0.14474985382614802
0.2502380606354446
0.43437944956370145
-0.3584571251319469
0.34802023905642376
-0.2345782630531588
-0.5353997422439855
0.17443621709256232
-0.40376115622074643
-0.030972597448791064
0.043282050394217654
-0.10522238987351176
0.12478858227574664
0.7428511366476772
0.32550055680574264
0.1387792781682216
-0.262213588259462
-0.026798744313279554
-0.5696124539046612
0.10540924930628573
-0.26920384871705483
-0.376861463350985
0.5634239916415472
-0.11108142885082253
0.2533636935133134
-0.27886469649572676
0.07354301867578178
0.10521278066934309
-0.03814733622269917
-0.5604809053941475
-0.9188227851738109
0.15927297800863616
0.0017968849015277662
0.19534771636420717
0.025976966911899234
0.2823981281734054
0.022198958513618854
-0.39223147652466916
0.25229892739208815
0.3201139676544512
-0.26335726301121026
0.13147021028579792
-0.13190160571616485
0.45487296598527915
-0.6631005075117853
-0.02840941642415251
-0.47255841827557143
0.4207054008104421
-0.32599880002325604
-0.42569619376532025
-0.527385955897843
0.05055304640731041
0.39223405675080675
-0.42195513199253853
-0.17913379563318726
-0.48277585807592266
0.5399005519476998
-0.5314447036694717
0.6115431479322563
0.008279113449185868
-0.12054133369682708
-0.6880985404107237
-0.386795779986119
0.1387179672620514
0.18396823207658142
0.4830171738039133
0.49906443391299726
0.6700461699412803
-0.05988171350451551
-0.1751294088626857
-0.4259710567184591
-0.3656864835089076
0.10690519731646242
-0.08941812197423629
0.20599557790253442
0.19131242089150202
0.35808314057909685
0.3571971575091244
0.963553087431747
-0.29635612260926886
0.37035108555627383
0.44675227851754395
0.07821218850214201
0.24522645323494935
-0.011374527164088957
0.0028077797821432675
-0.12023644299556016
0.5539602955739623
0.34886987752712767
0.3410341602708651
0.28491045144875743
0.05574903670753056
0.2114593067439123
0.7231868267710744
0.49114413572967347
-0.09206843945551368
0.195510171367452
0.12743722464837803
0.5731269040511634
-0.1651942786440819
0.06235203662266718
-0.26302781089662763
-0.05290496997710121
-0.2513830190770264
-0.49879912450071584
-0.19823079193838122
-0.36577625720116325
0.34086681492107573
-0.5323326392828535
0.08764861081599092
0.25510793038392304
-0.6155714884268835
0.3867694396054698
-0.23417720652803128
-0.3412437687253699
0.03409716288630533
0.40484701728280426
0.36952614885724605
0.7991065360496503
-0.17477116949344398
-0.2930433116563995
-0.1357959957397797
0.027076808375602023
0.5035326188878744
0.5452473787272275
0.4031199013089722
-0.04992640958165216
0.7543259121670616
-0.06332714886192733
-0.04635055950248725
-0.42740048474363673
0.2117883914605022
0.05570958278959708
0.9309742349031399
0.22623884377803954
0.22988868134829882
0.2106686536649997
0.02112907376938764
-0.13780939643330406
-0.26874517868449743
-0.24825845872797003
-1.0789476753420368
-0.18314079173096376
0.5296660165536298
0.16357808820484054
-0.13046422541703778
0.1002419687066509
0.4423533044485131
-0.13492706416549255
0.3681296191531143
-0.1581370408253744
0.8673633988922052
-0.7012309760866039
0.37536928106159667
-0.13803246918042772
0.2875645767176687
0.05864390317538688
0.5275523390150156
0.3216071648802111
0.17323753095794114
0.4312305120414281
-0.7709358557076517
0.04285668213596883
0.11909750454334771
0.05784115743406959
0.39089297792455463
-0.2020872030084988
-0.1259780748580651
0.36296311023605693
0.09351960424858756
-0.29441010587937116
-0.0449006290720088
-0.6738484684486249
0.0019508177941420213
-0.09410597849517223
-0.6323845030600859
0.4550683359861496
-0.0839546481556146
0.14630091706522633
-0.5730961264112082
-0.23021771947426245
-0.15998796225747675
0.8081140338667624
0.26734559183876444
0.2574204835422096
0.09907400568104198
-0.19489746067164868
0.025776326936624405
-0.14442598821431796
-0.08730790003022104
-0.13492567949181605
-0.3578060003599197
-0.2689780209143341
-0.3512399486694433
0.16060020445464532
-0.16178546735416907
-0.2743787353484058
-0.18021354792038466
-0.29460950017457055
-0.131450393239893
-0.8307348430040294
0.04828951018429895
0.16384921824003204
0.31918129088266406
0.41420524946761594
0.12448613487487747
-0.46008934181437305
-0.24233157676890793
0.754536546669915
0.15248585206958348
-0.3891152161969349
-0.405472899565413
-0.5667081043943776
-0.01912350168411072
0.14124007684070242
-0.3407412981072309
-0.249804390678363
0.21476292219926899
-0.04831941203667438
-0.7713018930349302
-0.0645003168050514
-0.02372056948014671
0.44395632312019373
0.4004975415115301
-0.45756889173793347
0.252956817779096
-0.18848912307084448
0.18640467892250542
-0.1304980078528073
0.23015146970597752
-0.24411380797375992
-0.717383229679183
-0.12766821154045757
0.45846150908014016
-0.2859644331759503
0.13036791792803598
-0.4280031523306109
0.33970954405454573
-0.3215508610429964
-0.6906612769634518
0.3489696523746557
-0.3032510583572337
-0.18022424835766682
0.2960452192011396
0.12188981031354507
0.0210175764905747
0.44382186138432855
-0.2016011825994133
-0.38137834860606
0.7369243065255675
0.2671920365158052
-0.19397542827964553
0.6348070258913803
-0.32486717722672037
1.230545991158629
0.053246907907968356
-0.17593535083934833
-0.5519893642287667
0.25592713803869216
0.6696955752190801
0.14718532088113664
-0.18248265092969904
-0.08575273128530592
-0.30800727006999606
0.08569576304199014
-0.5551025189828307
-0.6435715125547501
0.12601825813008957
-1.1150974326979135
0.08513768469879263
0.19902675387002336
0.2866146858640108
0.16231413202106887
-0.6440004883582747
-0.2517359165359179
0.1540451668827313
0.11059112940226176
0.23471982658454527
-0.2637533836769301
-0.5639333957366768
0.13918153659953453
0.04676489802394796
-0.3376907383355703
-0.6808255651413494
0.27554751269091826
0.08774556269695258
0.07128626529260723
0.329052460907053
-0.11125714791504579
-0.09656345170158055
-1.1596107272694063
0.1811618765069075
0.43748852298241636
0.6771213836333815
0.3972123841527882
0.216182693501805
0.4485393529538163
-0.07065590217072602
0.036847906211128316
-0.12749029755979838
-0.5910331098673107
0.035572281821225876
-0.025609355906259935
-0.07934295882685966
-0.1872232917869977
0.22305899673632193
-0.44676059781283345
-0.1726284083080567
0.06868338280190261
0.5373186480435915
0.2334914567439624
-0.20945046307324316
0.3513021084143779
0.49772130043946317
0.46138758845452643
0.03509502435045851
-0.7067471306992658
0.15922341182740046
0.02611507158448906
-1.1062096657530691
0.0501241562058415
0.005706171929449689
0.08567993327488578
-0.4375357065982726
-0.45716703010598486
0.22536351348524858
-0.3769257935934396
-0.49825024671587226
-0.3165292703036571
-0.1391114592196113
0.3279699787372307
0.05237785647749056
-0.9031284873933663
0.5076822688666877
0.26618563137484436
0.11573096401711493
-0.17049466565943505
0.3209590991290175
-0.008224374371433335
-0.7435870821687359
0.6038714013140521
-0.4210452961874964
0.22049532118814363
0.46318587008657414
-0.4167866326044216
-0.14920574348971502
-0.11758843990923676
0.0035311796240599124
0.32291065327630775
-0.3927993046456718
-0.27757070893743785
-0.06808408787367055
0.20750787082217773
0.04807972798206759
-0.5793545264460589
0.3278104163510968
-0.3291735976984186
0.19381890357987164
0.2806945002126678
0.010446656271183461
-0.03434765178944214
-0.053324175440927546
-0.020888841418664386
0.6423379187572364
0.08256820037344673
0.036436107734308394
-0.537474964124198
0.07317268440359119
0.47697395081546134
-0.201086828985793
-0.37694956892479037
-0.22884312880701413
-0.06464142623851434
-0.1671804004361672
0.2500596617189189
0.4634265361847369
-0.6082463351032953
-0.21659128879174344
0.31922668558710043
0.4828648870631257
-0.4072700375427357
-0.3004595348103608
-0.16312749970404997
0.19513819994837456
-0.011932572009313346
0.03954976140801452
0.19635014511853086
-0.37012024316094744
-0.4494926947931481
-0.38874170486784493
0.19227214646541776
-0.25442520345928993
-0.2215997528016447
0.3406599007952244
0.3370664567739782
0.6225911884485489
-0.6096369348661779
-0.048400782377002224
-0.3687457672025317
0.19858057787249125
0.07906331531308518
-0.36010934573360603
0.33878282888384514
-0.3798222058519209
-0.17522382877049283
-0.710350490780337
-0.13939266395524255
-0.2613091031477991
-0.018766659502735053
-0.039420470890343236
-0.26970684306802206
0.012451568217098459
0.4462040982867083
-0.1826324090824811
0.012115866292806267
-0.31157315709000866
0.43198444204930786
-0.3566898573922919
-0.015704687329076497
-0.5108353041311303
0.7394740882010283
-0.06755837575914057
0.7577803015629692
-0.3161987296142255
0.13462744608284816
0.21051037226806685
0.23698519307695956
0.33101253781193374
-0.7783772142409978
0.4166099509640096
-0.6282691407765877
0.0030550587710267436
-0.21574456441315268
-0.4280010538465147
-0.555042711574578
-0.1599152672184794
0.36582016405650475
-0.4786527031220857
-0.09181155826026943
0.07488629794562615
-0.6618806521594854
-0.011494035598902549
-0.10149084655203483
0.5310991757779533
0.24379320277699984
0.030126642964525503
-0.4100138682328325
-0.10319002256488254
0.4997080129388986
0.19806473834085117
-0.0018422129105202824
-0.13322344200325154
0.18792493579786645
-0.5316640402945374
-0.07856818879306983
-0.33647509719839924
0.5034985774593488
0.8263752101651985
0.2837313831808328
0.7006401344096289
-0.4645812420630659
0.206591818777008
-0.40367627408872464
-0.4160586484283314
0.04731676664619792
-0.9791449071880284
-0.3994487312248514
0.4942279577247802
0.12508802013751347
0.35970109494050556
-0.020592546740138596
-0.6537138703288348
0.562320965596801
-0.0745800023936385
-0.20407087299553475
-0.012968597949080812
-0.03607512711609595
0.27543288826702744
-0.09571842393489306
-0.42806128146844236
0.7392153562684595
0.1542235718105689
0.5023625011714583
0.3948198549322668
0.02768598261912948
0.14804287381101688
0.4524622623226601
0.08205728259833701
0.5731108805195013
-0.6392534145684013
0.024757417821087972
0.0962318631856113
-0.1776572646691763
-0.41599611100558215
0.32553938459415893
0.49563373093599605
0.014795800777139476
-0.3262617994114256
0.5160151879733741
0.4543772105606387
0.17363525054662696
-0.12143885426593609
0.44693218396469236
-0.5227472322184751
0.48909641843204976
-0.10256992266662922
-0.09625881424949877
0.08713179621438591
-0.06996574224915368
-0.17858020312995887
-0.24337551732814505
-0.5176683932510633
0.02694268042946334
-0.2618275974507497
0.8263046993247359
0.39944377120151303
-0.39640698357334536
-0.14400714965361452
0.11375456083907405
-0.19512388600589195
0.290318238986461
-0.5956037112548246
0.01752931884219556
0.09489690982196242
0.27159802368880404
0.021881218609448853
-0.2529379490861529
0.5949185918945653
0.21331939960293836
-0.5900512141092431
0.3745817628127297
0.3921409949109239
-0.6867940116612844
0.34574249580946104
-0.1159706220965328
0.358407609345926
0.3370594355083298
-0.16702055917668718
-0.3133378988120417
-0.19152682471139895
-0.4457034241552675
-0.16854158771624742
-1.2556869297754107
-0.30292631042733614
0.4653237086397619
-0.8001712484157558
0.49496244208042334
-0.17266592351528973
-0.9136635167719136
0.3917965106859356
-0.21670695819708016
0.1177179101795471
0.4155109177062947
-0.33606307958898146
0.23474759873359005
0.5548609993023067
0.11535646209402695
-0.10877771992062614
-0.3514586437416041
-0.5073486597550521
-0.06114468165188257
0.6147691840132116
0.28198954556570777
0.07785943402034207
-0.19047634220143092
-0.5598839506150577
-0.041409476891018863
-0.9751670044840423
-0.2416957007766372
-0.5020089953551718
-0.15804550720153934
0.39170293041551085
0.21631255297558438
0.2872073164551314
0.13094193134826868
0.30442125905742257
-0.049936763615781185
0.22766672562766832
0.16527870792555802
0.6214865043559227
-0.6129603151724099
0.10387985437159653
0.09706632581133662
-0.2615141122423353
-0.3838934291498149
0.24821153899781456
0.1734969234671588
-0.1398972363639993
-0.7624038197615478
0.3805329672627101
0.41838735848523156
-0.29726835745177127
-0.10753787164725435
0.23138873707560326
-0.12469653895600437
0.30532909445871065
-0.2153877544569877
0.35923866270792465
0.034984281824046254
0.43185454035335535
-0.7007547693738343
0.3785813520889542
-0.7216770137306603
-0.18222252433011205
-0.0690384504667862
0.608192178353127
0.3367481228140424
0.07590032347642595
-0.15717501526838173
-0.7372051652614574
-0.004050796357969863
0.1325919998203008
-0.39681468877547255
-0.4132909222607579
0.7263072938834195
0.39537473176853943
-0.5485817434021389
0.2631700089177768
-0.29553730344024803
-0.0794451892289392
-0.19593823764823468
-0.6088450781814196
0.17187301649159137
-0.2769274365023803
-0.26939502963966505
-0.5801425965586944
-0.004178247550027184
-0.3509295952594763
0.42254753245972554
0.17031794103004322
-0.2527103815924188
0.6362489729295809
0.2351910252374113
-0.1505107322373481
-0.1713383176659653
-0.5386571637804903
0.4723663598918584
-0.5311291156623839
0.2935612801375697
0.06558227735034038
0.6226049286338844
-0.785212765567729
-0.17573492692792667
-0.7698617684119096
-0.2264953434159319
0.17607480762630084
0.13377190815566456
-0.5180624932177637
-0.16759730545225382
-0.1108465534055775
0.2614120355033773
0.1832164129401445
0.0647891361095831
0.3380567894420207
-0.02663782210324125
-0.42357300162696876
0.20007157448061993
0.23846559086255095
0.2848167422664418
-0.38132800022070645
0.20530970680341962
-0.10391047149771278
-0.18412917128019501
-0.25728259355992744
-0.5125088484323116
0.5037851327439212
-0.4857149990064318
0.39425186052636463
-0.03654632304390101
0.17767685892357538
-0.22284279737827062
-0.432463438218247
0.3844125537694753
-0.16255062289767722
-0.06806515733252066
0.06189084407462539
-0.4881507497259489
0.2925754210275562
-0.28803005429721645
-0.13134625185043855
0.05958102077968113
0.037271424317230954
-0.4780150961527305
0.3036236755847098
0.019331476469748372
0.29887590685070275
-0.1929579176106879
-0.05438254327478025
0.07310044041819509
0.3120365225779449
0.14828030174881587
0.3511492911969251
0.06984500290699759
0.05151492573755853
0.05483689337137278
-0.30980968933542097
0.055312033736286265
0.6599754053060463
-0.5107051589098053
-0.7029299605099238
0.4027990505419146
-0.20045638234854266
0.32684575001583727
-0.04650043202952313
0.2278653801203229
-0.017949737574563886
0.09214549021426877
0.1833745301504939
0.25967332266283066
-0.24631967126973567
0.29327432688645283
-0.1243687391442531
-0.27442082310268145
-0.07045450657077437
0.1273617892881071
0.4872823957950284
-0.42992334093868295
-0.17397403389189234
-0.2581008495186468
0.3962041944780763
0.024595674436310215
0.3747413998525473
-0.14150617724223918
0.04848161391597004
-0.04130953392732253
-0.5060712198954442
-0.4406756543425399
-0.08435610000469732
0.3368780663100699
0.6328844859720514
-0.09148405922752494
-0.1005487252873989
-0.18652439260294107
-0.2663673711312664
0.1170448302094069
0.18973526747147268
0.6578999145054716
-0.3146127799467778
0.31413123145526284
0.4472845298085478
-0.056392618292363354
0.08830200233862766
-0.3537644929569468
-0.6395974908767647
-0.04260454350173256
-0.04221256173975292
-0.21672274622612694
0.00492621061158971
0.07691990378290434
-0.08580733332633093
0.04210683018280606
-0.14394776687833485
0.48795877827720274
0.3260585537583316
0.11609755521859974
-0.03726396882389587
0.38824091298163244
-0.6936434848903045
-0.8939623779779033
-0.08526811044892418
-0.16766434301054212
0.191210093454409
-0.0904000571215895
0.1054022719145149
-0.5327269014403948
-0.0606115435852245
0.8529050105772731
0.015048599321556682
0.16353295556888936
0.3412760721222158
0.04791916126021078
0.0448834805889581
-0.17861900805211658
-0.04456335142364619
0.5113348248194832
-0.08806101378760328
0.2496673562886633
0.6947547787584472
0.12701778388840995
-0.0693711011330406
0.23904959448316315
0.20292434452156077
-0.15364724525720594
0.8800197807182851
0.5011282006665891
-0.6374940459028954
1.124078610644768
0.6740288845828503
-0.044031414302337216
0.2484766363286166
-0.663792925101013
0.7119461589025292
-0.578685154707318
0.023503264889972418
-0.6122312508277721
-0.11441784577770353
0.47800560044255913
-0.31351146973694577
-0.25111453009468876
-0.26412005053591253
-0.17741680989088104
0.17370149825263098
-0.12396972748820365
-0.01821989398739662
0.01365079759451185
-0.02166286784157794
-0.04086431577491559
0.5645779061691246
0.1190503875834409
0.24083229788415164
0.03421275799026095
0.011143549890542791
-0.23724477187011822
-0.0066676707221163915
-0.7350880216754567
-0.36730211431622073
0.1152263837566815
-0.2865844895188693
-0.422048804932693
-0.21807973372289283
0.1591406966647115
0.16696090785181875
0.3698831762626627
-0.020391556364723437
-0.027860061131285797
0.574996381344034
-0.010163675694989075
-0.37196883609430614
0.29466456866137275
0.15207279928526682
-0.18517512401523514
0.4442708528214875
-0.1054450010944904
-0.26803818299434495
0.6633053712913449
0.4936903461366051
-0.21156095097373948
-0.4070567448457269
0.018807420540286265
0.4959163448406529
-0.03087105106713803
-0.14857051196589846
0.49080618515440827
0.046222152521629575
-0.17197260344115373
0.2981821426719807
0.5831233260243464
0.122683407149875
0.5346359403877965
0.10934842912301561
-0.40820562603086813
-0.17053765448232258
-0.05600148600452222
0.12274545371628615
-0.09585760039491659
-0.12059244983941565
-0.6317374514151879
-0.17534459587231063
-0.32140676564505777
0.5575409426460445
0.24481730251515424
0.5561288062352284
0.4976175389027526
0.3019877705183859
0.8448249574001497
-0.47115194234726737
0.4635878859434556
-0.009163583927517326
0.17227511393793554
-0.1604063532206343
0.3960648053902174
0.5883289416207201
0.13131668438765917
0.730008008492919
-0.21764388505343257
0.3012861250253918
-0.46684109093778103
0.012403813803665705
-0.021309328056848303
-0.15080325117203056
-0.3063769648633441
-0.44335907918316686
-0.18063926533529487
0.08702584068889302
0.32173735737259285
0.04818369920568507
0.14527624627646432
0.11149356216700085
0.23440354879872755
0.4766289654819994
-0.010099559628473209
0.27668269416103936
0.37995292008114273
0.21312446446843114
0.5007263169919132
-0.04351056728285502
-0.17161236103176244
-0.21694393837827866
0.16600100809685334
0.48945425382926083
0.45820217483136294
-0.1494783238877375
0.26479340731234835
0.5755949211601792
0.1685165676644889
-0.11701931803778673
0.598617455360055
-0.269170604342832
1.0169039168163863
-0.05438405822991875
0.008094295359800118
-0.5104504917914027
0.04131199940145447
-0.6451519020430635
0.8328011305758553
0.22162569775291716
-0.22846876310712738
0.6271462332976777
-0.3275269947561421
-0.21631884474212482
0.4394544833003302
0.2539275421143589
-0.30877291911764737
0.9555978787588314
-0.19266679188328392
0.21719187405809717
0.2817010823899842
0.5144997333513481
0.4189734315572719
-0.24758216292609705
-0.5024260129448166
-0.38959033230326007
0.8120498319105682
0.22688924126222337
0.1968799644550776
-0.28654264575297383
-0.366652471358565
-0.3499649529090637
0.24207985483642752
-0.38376327093425144
0.20330826326184334
0.15629849788974282
-0.2204720551804068
0.6885729001367582
0.09335819592446706
-0.25975779429973384
-0.20820646630596334
0.15598490331652617
-0.05711061497101958
0.3580308746818075
-0.5328560622670202
0.43073617478587406
0.3038202701209196
-0.15649046207774103
-0.5599747461118988
-0.45514053041887176
-0.3468844982548457
-0.5207279769192922
-0.03494530869822911
0.18221745637510064
-0.043769288945145896
0.47628481579066745
0.23338233407205425
0.13683690038944304
0.5063372813087735
0.804647192260728
0.3480220484153249
0.35910818618438206
-0.5028146920646289
0.24474373267336572
0.7937630636903615
-0.3208553364772678
0.2512028080893082
-0.278647729375683
-0.4104020934972798
0.21773284545761643
0.5396457735973087
0.06369441085600025
0.2596121111721736
0.09325031018897344
0.47574314737720297
-0.05675312504294323
0.05067989734151659
-0.003568574862540532
0.508108064872105
-0.3100312480103638
0.1927709561106715
-0.5967480744577173
-0.31001448333393344
-0.4761767558192551
0.10465765704530715
-0.27872912621789875
0.4034761463659632
0.3674260556240735
0.13424550319732775
0.7725550136060809
0.024719015189895298
0.3023374062118843
0.6903739448356463
0.1701027921624888
-0.33698739274370393
-0.47850600368190144
-0.4979407481268934
0.2819209464397229
-0.044913430348879756
-0.3332909443751571
0.12006057124608194
-0.34588982160362913
-0.19199703627602238
-0.20700962687804966
0.10354984652802138
0.0501379557815049
-0.49875910112988553
-0.24744069685118766
0.2637694812582501
0.4062017024275955
0.17068336513971738
-0.8965698807065875
0.29711403690339483
0.6473441996335481
0.04595148849099828
-0.4914810947138754
0.6903877814323849
-0.5198521399242874
-0.38291785561623604
-0.5400597748173773
-0.6590999210120718
-0.22574304936984632
0.3180272858059827
-0.10541339521595323
0.26934311114939324
0.5084032284846954
0.19903839602350828
0.04148645547256758
0.6387078239760727
-0.22629843853215326
-0.1436550648902532
0.35659276348861274
-0.4826500003264283
-0.09194605035309672
0.11349616869520926
0.17223299341473042
0.6560662989536568
-0.05463000309660716
0.048362818105216386
-0.19244756037411587
-0.0875914730610771
0.42726626450882654
-0.08243204592482221
0.3164172784863514
-0.6118435910117243
-0.15485532953238523
0.03379506742339747
0.9652092444232092
-0.22741898148458167
0.24511253450120446
-0.23888779443253458
-0.16841034849867162
-0.20447088080004844
-0.2810900746216241
0.17104608544338054
0.09598586440755413
0.25938225280260163
-0.241504588670824
0.32703478775098027
-0.3204246370642381
-0.6068903980664555
-0.1289181595519287
-0.11077339306252536
-0.5144044265764948
-0.09735912159798436
-0.20170776385937886
-0.49764140313684174
-0.031034514751774007
0.44883583426165446
-0.09902953313978917
0.18841084075658027
-0.25528803847664205
-0.35927112133549427
0.24183584494046997
0.052507030022004415
-0.10078923617828082
-0.5514200585288566
-0.3874129657954964
0.455862766667543
-0.16615056296759287
-0.04105299614765218
0.7421723981899392
0.1566496085340102
-0.3093804980676158
-0.36956361883255273
-0.18182538057859124
-0.41733519580166256
-0.38602519419996423
-0.18253232618574453
-0.70619051114497
-0.1928846858694772
0.7654039991230697
0.09368977967578589
-0.5048457483655088
0.034752883362596104
-0.24528294129437145
-0.2717192683344587
0.2907255746816212
0.21647285413364228
-0.026013255664893188
0.1279802184540587
0.1858329834244944
0.4434145704656962
0.08550825936407565
-0.3121661485048261
0.7347313866658921
0.03379785601295206
-0.12153759422877077
0.19729625764034267
-0.5277767686100574
-0.247073466633278
0.19773940839029167
0.8733163964075853
-0.5316529335854241
0.3016927663109021
0.0830826281800378
0.027707468032184993
0.2316495418792875
-0.6689914734853625
-0.413374878291068
0.03319492848101943
-0.18369677471251428
-0.13128442518996924
0.24590753981363317
-0.14222390362728246
0.12996847907484133
-0.3372537194164684
0.215282902696223
0.2530388315087901
-0.06362883620701414
-0.5190259922967557
0.6007609639203003
-0.09268551435784912
-0.10056195117265364
0.5105711192196719
0.14027116540733256
-0.01003968952779861
-0.1117345698174461
0.002915306622944722
0.5370922554343541
-0.32600451229331556
0.1995259143848485
0.21181151009055577
-0.31319456549887015
0.5479024817315281
-0.6048708572230966
-0.07606118388361481
-0.16486159645126336
-0.6935653727292844
0.0456432348022293
-0.024857172585123
0.5023665640666063
-0.06210099645040507
-0.1194051943867113
-0.141176108447344
-0.5968720539684385
-0.10899340501700311
0.4285872224808078
-0.764702903036667
0.9190863546998065
-0.26985722635220694
0.271822109162792
-0.18084339093063292
0.39862177669608556
0.8015229244593388
0.7739724321805279
0.01927362023129688
-0.10536153539475601
-0.48075319744692324
0.0955222523261887
-0.4363515866227356
-0.038283055090066305
0.1677147014504779
-0.046365401052870035
-0.09113302982744753
-0.09438793416499948
-0.5979853704646573
-0.5361608691454012
0.16032898196535164
-0.21589319371671917
0.5875234676766716
-0.5182231808175196
0.7392027774097587
0.05476748891258836
-0.03490787580207927
0.4123269499664053
0.08183055354916198
0.38042438493639374
0.25498692860983163
-0.10050201132188268
0.23418189167972758
-0.3994915223722503
-0.09906610559868792
0.5719656799920787
-0.12685910275626489
0.6364437872598214
-0.018398481230637045
0.4927984482680321
0.4013478378555381
-0.12074148852243036
-0.19782936649110192
0.4158988302476119
0.20805948166147012
0.3717006232095766
-0.041449586987970015
-0.2049388231547493
-0.1666890577301525
-0.12590837090337936
-0.25356857573210445
-0.17663579921954037
0.10172237781935528
0.31467223751473705
-0.6092038339326364
0.013192822687189796
0.8796961167733128
0.4154399567500884
0.47692429909569983
0.421883529060277
0.21834804080899087
-0.4645322769403885
0.06318170003854738
-0.2315656569648003
0.6892597805864346
-0.0307134658620232
-0.099791196964391
0.22832525310967303
0.3511097213348111
0.5687911756410705
-0.13478758568958832
0.2153465139314237
0.012444053779055442
0.07117933524861901
-0.2523095015034747
-0.07681124598472308
0.023349411865035277
0.696207957683252
-0.04991041348502042
-0.31868680859937
0.22761353705048332
-0.47357613229467604
-0.20832235024877666
-0.7950809412165091
0.24127521830451432
-0.5193518477335168
-0.19070139567524355
0.45784511135780787
-0.5531548673229081
-0.0916511354967823
0.5729009866056302
-0.0036504412645538523
-0.21426417418215357
0.01951882506141131
0.33556492152049017
-0.3125157558231833
0.2553060959535837
-0.5837844730990857
-0.6588077474897599
0.7559577214728362
0.010923003219679836
-0.34374938118930637
-0.21711217789371975
0.355786928399944
0.7176796135955753
-0.008164140720877303
-0.24123633485313883
-0.010392809933548835
-0.3138607403167407
0.2020003876192648
0.2676513685798372
0.33426834432643765
-0.2299805044323022
-0.22915935252203382
0.2960399052097185
-0.687747676250937
-0.1473434905241465
0.2525630782368531
0.28136183531119463
0.06039222902973434
-0.5217392954400925
-0.25466865552045986
-0.27271658191820336
-0.21557912338823565
0.16762076904713488
-0.047785455271425234
-0.4505428566096674
0.7572353850960856
-0.034665237241273995
-0.7275518346977621
-0.6369636155080285
-0.2790157057830085
-0.2303751508620581
-0.6344068160417431
-0.4137726738026036
0.3507790666117672
0.6176084597517691
0.700148049432607
-0.12951854463908302
-0.5483036536225252
-0.029926588111344826
0.14878532667987496
-0.06442051458579597
-0.5867222809391494
-0.06770651020351653
0.09528797811051162
0.524286209671693
-0.3258027592896898
0.6003470122997643
-0.29922277467142333
-0.0775133597793501
0.08030105961412096
-0.2729355875706796
0.05287526982145615
-0.1440513085876692
-0.019620199364292375
0.09889963333704922
-0.18547395011531534
-0.48121771995993456
-0.6882041413420984
-0.1526824912313202
-0.3940928682066132
0.6572309179489086
0.02532754779504871
0.140108789503233
0.12304565755753101
-0.6297905599338142
-0.6523376444041126
0.3153518022080131
0.035831129656880484
-0.0377509017923393
-0.0895851014365628
0.22217715535654486
0.03703628112952242
0.07914871464921223
0.7536364626316783
-0.4010127656527827
0.3038494165582388
0.4017461025198197
-0.8755242275643842
0.21584441634390206
-0.48882164442558257
-0.36707684240857974
0.5273422786244003
0.35150141221857634
0.7564226449310648
-0.535747539961049
0.6397517340276578
0.36993402282612775
-0.6387835666037287
0.6001919702054507
0.31529934629445516
0.4395073554502404
0.4051455504495159
0.2092297864735612
0.23751783205490876
-0.23964338286727266
-0.061485337992424095
-0.2679886920901391
-0.18211744339535918
-0.36201601096960645
-0.22024943795400748
-0.3762833536581099
0.21545997182073015
-0.14974770816778618
0.14128588470583847
-0.27041633088967537
-0.059926823559930564
0.05406820779171289
-0.2497355440131981
-0.04680143514826597
-0.2290560537716427
0.3201296002739688
-0.0631321874489457
-0.6884908023710681
-0.602657811137593
-0.19464338444099352
0.22519374582917473
0.2324623473036671
-0.10996375264664605
-0.3150185694679386
0.304242383175433
0.39660918616303364
0.3380881411087853
-0.01931152079352277
0.36966703616382773
0.03222956942666117
0.6310278594990851
0.0022075249452497623
0.29454833057628804
0.12302118427205913
-0.5492829992478522
-0.2554352402598054
-0.1378848041610054
-0.15002642334786068
-0.11538235856545785
-0.4996172098984869
0.06099347825289496
-0.6375600706098167
-0.37267634369284597
-0.022728226878878405
0.02943526279082025
-0.0026497989828519583
0.46770980302511606
0.24137586072328768
0.6297763727905472
-0.19045015524868972
-0.38921978315877076
-0.13030824666041327
-0.25314715096677914
0.09083627790019566
0.14070556731656284
-0.5926753604692525
-0.27214688644007906
0.4784359706323675
-0.04439101185059854
-0.4463510620955031
-0.6832493163470146
0.020524148041048698
-0.151909202100798
0.0970602444522927
0.3261543995393109
-0.005193684131672028
-0.14905596254879808
-0.6024657952823772
0.33235947150091
0.439330012369493
0.589078495640647
0.38961601672756724
0.836873438117907
-0.3909365353602129
-0.20415125705759837
-0.829807570655471
0.43695225657312836
0.07992874905876673
0.10510517789907337
0.2667539602202275
-0.43570369487558025
-0.3484195425995176
0.5743779560368786
-0.18658441628647957
-0.30974471003901344
-0.3681727804172739
-0.37427905167792697
-0.01353055431575489
0.11732592545840986
0.4678607705641149
-0.21278807117408924
0.9742532168478317
0.36954980450713687
-0.16237912808495245
-0.6986907805998175
0.02166519557948535
0.690284124869102
-0.34367576171929887
0.10166063071834314
0.2753249068311917
0.1887727704085543
-0.4956161009164953
-0.13981617520725736
0.20396583422751385
0.3667776903048874
-0.6380887189458458
0.24175511851935988
0.5456797909284229
0.4188072208745161
0.4509019731189006
0.2183912790215539
0.37080547494541205
0.3376342950709026
0.04910353263512029
0.2635890676096955
0.41435878306491625
-0.30738850205904594
-0.1947643965832658
-0.12152901924354294
-0.5701203800720311
0.44577357000066375
-0.4302073258734992
0.18952929949704747
-0.03355857845947301
0.02440404205568966
0.03735695748297634
-0.059689943628546266
-0.028743651386750363
-0.2722948236869758
-0.03850826869712076
0.15827053452989853
-0.06120253139175553
0.18727963956403457
0.48858427768988594
-0.569585873699003
-0.2308581345301394
-0.5823239414771658
-0.054420100830036344
-0.15938392966029674
-0.552850916117738
0.15235713603015658
-0.14841839540137677
-0.2000370501641762
0.5471917801828099
-0.5228123301605468
0.21026310573290435
-0.9331677357724945
-0.2789437286927365
-0.30013848986157
0.02683399914978742
0.43895441759811643
-0.16373608672897824
-0.2865390159424174
-0.8104022248977097
-0.04991152495359816
-0.25727331158796213
0.25253370183584256
0.14443920248109607
-0.4672458670514897
0.0038282593949518595
-0.13970254931717838
0.7135749589523267
-0.35274647338841586
-0.030191819252385208
0.5349671816722107
0.2018636512921948
0.5563186940398787
0.16449858420520957
0.41292810165526694
-0.05437254814919452
0.39537199082114144
-0.15892232640030057
-0.16880362642248165
-0.10789574483083327
-0.08981591658929987
-0.35257925549395824
0.23097232755981667
-0.7308283747693533
0.5154400118400058
-0.03100243231028183
0.1266532355310904
0.2333864228920622
0.7297440358449845
-0.07098175664981543
-0.45172331791172415
-0.11985178925226006
-0.02742194036068232
-0.7424259414751505
-0.601164546550191
0.16991156587619557
-0.5078190968090459
-0.44993618721456297
0.24000507149690378
-0.07608686741298899
-0.050294126600907416
0.4798927398292261
-0.07828548597196977
0.06152455923790637
0.12816479969606132
-0.37223529208436
0.6020091177558343
-0.34822956372018954
-0.31639879574810315
0.13525095239233237
-0.15985411103406888
-0.43108370071505564
0.01788560139030724
0.32998970460487415
-0.22913599574506546
-0.31509699125346546
-0.1888640286846974
-0.1868636631808317
0.1894613152255032
0.11837447026608634
-0.7743837857740415
0.6100088939082494
-0.8041148043260835
-0.36765291663792005
-0.04413683045772884
0.43472319692078715
-0.13026553443865538
-0.6595770694119513
-0.370136415233539
-0.2712885907248793
-0.6977052439041027
0.09866841093786612
-0.15300037685730855
0.7305376630899815
-0.05161486656216439
-0.21608327960438942
-0.4272625826010981
-0.14989500521076457
-0.1645177246451789
0.19548337843403468
0.37548018835253644
-0.39923095458651037
0.005826171572992039
-0.2723683262465539
-0.683145699694085
0.25467570079770274
-0.31164516296895356
0.19854599311343485
-0.046847956408792135
0.581097786226325
0.21072564371639932
-0.132978627492261
0.3604307828818772
0.3814724588433246
-0.28879946047314403
-0.515813040430989
0.010573104638283138
-0.19632362068618273
0.06535912279593034
-0.14237053181919396
0.7214506759486657
0.11492583580722746
0.24458843275080433
0.3362485911940201
-0.1863672071176505
-0.05269986213252713
0.33743415815863964
-0.19827666981604541
0.1116724894287245
0.1350102329757121
0.1979667016480114
0.5969949053912537
0.6732533599359075
0.2654068261447156
0.06459620951025193
0.5380719385632571
-0.26604953179850616
-0.2946709545933906
0.039740930358237996
0.3959281022372645
-0.352494049970091
0.4702921548254726
-0.3561046023248552
0.29275009509408567
0.18826668055061527
0.23731662950822616
0.010369165655705049
0.03641210401830486
0.28566425631732645
0.02081389513838786
0.3531061443364686
0.2668347777619443
0.25260721597168867
0.00047225214411954523
0.24580976298341686
0.5009237673870406
-0.10186033583049318
0.3571045625834638
0.07363813261349182
-0.038773972041434464
0.06936193180523564
-0.4425809640102072
-0.10926600900565445
0.14146862328505522
-0.27213732744530095
0.35067856540621495
0.1823937159197337
0.44631180766086337
0.060731691806835346
0.504800483473179
-0.4332046422736684
0.11838121414679688
0.038404143714925
-0.3091343520530312
0.07120322644251961
0.0762741307497334
0.3350040571122734
-0.3690096921060465
0.8318553535890318
-0.5893617908173128
0.14822304080859322
-0.10027753431615334
-0.1424821294615406
-0.3728331928388208
-0.5166672354171324
0.05468818928625626
0.0998032373697183
0.04255884850224349
-0.3056517207484125
0.12023327758615415
-0.067971602308432
-0.19167217308978304
0.06433492167577874
-0.37450513068798447
0.26381958307766573
0.40489912901978564
-0.01682346178721101
0.06034814064119259
-0.3914025788200074
-0.1745597513599735
0.3617474911142871
0.4560583072770056
0.4061326569600373
0.09102415953881751
-0.625946043574666
-0.1859177835230874
0.043127702628017954
0.2417498558846122
-0.7466919870647041
0.22553040740733976
-0.09750420421887875
-0.06694367561659752
-0.7865583565003607
0.30045872516151223
-0.3653093906714021
-0.1771621077235557
-0.49059468183719007
-0.3869141475832025
0.020455916188950093
-0.04742418551579533
-0.26639922768864005
-0.016367528504526226
-0.03886345334972669
0.4214937426004022
-0.4261898247611314
0.3132275268691502
0.0235106016775059
-0.2885843094184674
0.5633130825028522
-0.7178341648772558
0.08633305175403319
0.5129034642700697
0.017586549713824
-0.6180735925672609
-0.027437291241725493
0.03428658597638788
-0.1581142306494861
0.24610843863592172
-0.021403066269202
-1.1028035685493325
0.03105591308867873
-0.44708987601654204
-0.28182277509082804
0.3234682259927097
-0.6436012966863411
-0.13269378417226693
-0.22294445995980167
0.04740897408498125
0.2859866129963415
-0.047486298146393824
-0.2185930465571368
-0.3254259227259618
-0.36188226372232574
-0.15040444386186547
0.5074353571512318
-0.6291506700049282
-0.21537466396542373
0.24231142054843868
-0.5752057718422184
-0.8621156567418843
-0.45503693378487886
0.2524076224817112
-0.2854590195361594
-0.4059414636391652
-0.5012206570945448
-0.7527376817212191
0.33064075852835123
0.07231467946948315
0.12650018835135168
0.024930403562126044
-0.30588959483949935
-0.419022623999416
0.29902299048117026
-0.3958956933968008
-0.29022382070151675
-0.04179689279566624
-0.26950869127595395
0.025919465532494645
-0.08936936902287577
0.08564915837645573
0.6214737489433064
-0.4820104151158987
0.8887314964325135
-0.5032869875186102
-0.004959036974959503
-0.19430329664515497
0.21872790240287282
0.02676313812561795
0.3006470703818839
-0.09588489781744634
0.4964606540476367
0.266403636257374
0.026021478526104404
-0.12850396242031456
0.1170940012762801
0.34614622137222073
-0.5365987301091246
0.21836278111842264
-0.017340665686320016
-0.08150703638398683
0.3613133190080661
-0.297694558896761
0.4272750548026492
0.26764212789411784
0.5688404331096808
0.1524523821799468
0.1519765189202312
-0.32367257624673124
-0.8621605518275447
-0.1920278448859226
0.12976605222572887
-0.40296642301184993
-0.09043222514164861
-0.1150084906065449
-0.34682016939957927
0.665797880142234
-0.35367993331437464
0.35932930964596105
0.09354660610749553
0.1657869117625145
0.35945755424873715
0.07518898296539149
-0.36027324771653196
-0.3402782534663762
0.11778000559812121
0.4795696270669448
-0.4333032083296693
-0.5081169580852708
-0.6122731180119865
0.2570567822005583
-0.4114830948281297
0.4475016175569945
-0.11045204667773204
0.22617607444864446
-0.7004743659576108
-0.11598976442956403
-0.419405805775595
0.04181983631547078
-0.1379741028267907
-0.17260830270827626
0.09022137701237942
-0.9575577293999454
-0.5022135244254949
-0.6148379270296886
-0.17288592107400616
0.9371471878811688
-0.13910028436573474
0.5765204816006408
-0.7351287156781645
0.26782141072355137
-0.014702035073380134
-0.06615459330711614
0.03869540598951054
-0.2918657141122103
0.24693062895266188
-0.011618310669691401
0.1276452285186333
0.054816832187802485
0.3632153045164247
0.4350925303036259
-0.2622614976582661
-0.20863455731142924
-0.4077804906333563
-0.34530348337513533
0.02097948059667269
-0.09751856297927954
-0.3682312728205047
-0.25795390086729314
-0.021558831564119838
0.4545332085828804
-0.34205696125245877
0.52003559334874
-0.08170675105903863
-0.3391655999107618
0.5487634427138287
0.23907098270924554
-0.5372748861670099
-0.1235577250507452
0.11334526592222031
-0.3612041695746131
0.1375637957883553
-0.466011963448851
-0.19119372350511032
-0.5474198922498554
-0.4534850965882362
-0.1662299536687121
0.3705789076034985
-0.17549152996313783
-0.23964528522613116
0.008685695755810744
0.29875219089482413
-0.12574792902067283
0.2768272873554502
-0.2501542207094244
-0.31159531376017585
-0.3798105717023165
0.36454008297784574
0.22553822975604024
0.23361452265798718
0.37011228488917586
0.023970903236699686
-0.3276989842495911
-0.7374565348879808
-0.26850154183507713
0.3089219600858446
0.27858251490620595
-0.2297366428575217
-0.05532704149117317
0.1282654083545128
-0.10413415378188154
0.0700650699816294
-0.12549870365473145
-0.8027239652337145
0.3271755351807987
0.07496993968773398
-0.011851998866222489
-0.3631078095493769
-0.17307459334312553
0.1645006723555161
0.21335362164640378
-0.7097553699122393
-0.3955039785953642
0.358390148389769
-0.07726281520054265
0.09659758929951852
-0.35986369336091856
0.834374338864102
-0.06553235730488287
-0.656415596396396
0.04536709810532649
-0.066118421101892
0.18537629959293936
-0.1520401821345359
-0.14349490927201844
0.170067732239226
-0.4350216440076913
-0.2669707508377991
0.1674821117945153
0.5854120187523567
0.5694466408690723
-0.27587349148852314
0.5483696120570267
0.27658357860751365
-0.5295461406845117
0.476287628141451
0.0016668888790621855
0.7391106894579442
0.5376546016397188
0.34787033250731186
-0.5030608334840696
0.7319419970207154
0.3520650047595822
-0.42488883866236865
-0.2273799170599383
-0.40717699198796037
-0.0713351235548546
-0.10556384913490093
0.45014237241225025
0.22989724129434716
0.16592338014989116
0.4514460577132814
0.19148478367395405
0.4884259235691049
0.7305136604018642
-0.7724854250562911
0.14909140613104677
0.011282002784937479
0.286788606629445
-0.2374852287581078
0.38329169853053513
-0.32631923076739
-0.3307583138808303
0.00895509645957631
-0.024091858191586633
0.16361587638911698
-0.3124353483780907
0.5144700742863324
-0.45530426225305937
0.13710428684185388
-0.328825523588166
0.08260723831789704
0.2125233905599744
-0.22961310546923458
0.45800977152330286
0.7232791649633896
-0.2823390446901041
0.05352613294117042
-0.13684730977016468
-0.13957655229407503
-0.004770116119434541
0.2806688361474734
-0.7967335720065182
0.04307650776682081
0.29952041005499064
0.2781594583804795
0.4397972371320486
0.8392929812568379
-0.1603092872249492
0.4738993987156978
0.09493233702547826
0.22856984883690581
-0.36721832952557387
0.42961283081430435
-0.824365938725781
0.6867565843381089
0.5497697758794807
-0.12596609106885823
-0.35042554859428393
0.26614464497979495
0.0933810184011514
-0.26909387656073364
-0.08974427388310005
0.5619170741732274
0.4658439343006941
0.39974629434034287
-0.6753543023478059
0.5462299226493678
-0.3650428263372182
0.2319261541959148
-0.05732398751169593
-0.08508065268075028
-0.28418478625422033
0.3397302920590467
0.35290834889986034
-0.25950539399818895
-0.5604652410765897
-0.14474286460349417
-0.5888585698326426
-0.36014140311389414
0.40523006459191585
0.6936372435412674
-0.2462924885657143
0.35650487502101036
0.7538610501040659
0.4003184162836639
0.34427742411826096
0.05502693521086459
-0.23691371834635436
-0.11784401876249617
0.29881984457625027
-0.2743424063809948
0.558277439995224
0.06193172491031041
-0.1841189335614483
0.3924942339552744
0.1531683034381239
0.2511046228290827
-0.004305429448846221
-0.3459712384147678
-0.1898375030674743
-0.04460529663298329
0.12604369171780452
0.6129299838394937
0.5959503426001211
-0.24224150473031208
-0.7726315910096377
-0.30435614192109145
-0.47490937477959544
0.47552863352167407
-0.44709936210515794
0.14828627450108064
-0.3680573716050805
0.12949054179398936
-0.1493944816903804
0.514717223911576
0.26617226203139405
-0.30802568950811626
-0.6007417503677153
0.2547408558321236
-0.23495317735999002
-0.7776306154562576
0.052437616732298215
0.14078632784156184
-0.4563742541893974
0.479602704696734
0.04720658214891915
0.28761295094626277
-0.017029665399783196
-0.1042988562656963
-0.16453881215760588
0.5480086926460825
-0.14040327180535
-0.0719460270215192
0.558908386675288
0.45749912750723404
-0.017174262284198282
0.09557152986732982
0.253765565880113
0.2374480483589804
0.06070388961929245
-0.3032242838800237
-0.7741585585023386
-0.5524400399669975
0.17830238189763414
-0.3219958082625737
0.13763677731519106
-0.1262231012841467
-0.4853958512470828
0.028655981904407414
-0.06947186031526474
-0.3779846838845334
0.6981236223985791
0.27147127058486387
0.39997649637086813
-0.34783172686980013
0.4045910226166294
-0.4501900060700485
-0.14270193919250274
-0.8580710127032367
0.006927725821987744
0.45995741011980923
0.16738118204183758
-0.5228453809041508
0.2938842105792139
0.42943592230993705
-0.4194230427075189
0.6726498686997883
0.3226520230632913
-0.19495370397674897
0.15582200822982445
-0.2880885280989368
-0.4076564507857309
-0.5487351158556668
-0.8249102120281873
0.26020460352137936
0.02226559631043275
-0.5619290355149564
0.6178803149138191
0.15168805869846394
0.19354933639938754
0.280101383123947
-0.3888695223649974
0.275053703321583
-0.19710587584464526
-0.5565528278787417
0.4387071828106696
0.29152625267216925
-0.16858516916180874
0.010164835365538003
-0.3282302378023365
-0.015462574729055871
0.2916446695125787
-0.3295034976521509
-0.7534440944475207
-0.36718198961271825
0.2266366271631763
-0.11280095049882512
-0.25806199152362647
-0.22035845937435447
0.0745518603003852
-0.501008401341569
0.1733109216855062
-0.5200089936523974
-0.09490204477943585
-0.07107375465824795
-0.4043880776026321
-0.03671825324388689
-0.3008465680296196
0.11707024011799289
-0.04022626611082182
0.6879565687598346
0.3237984275322751
0.27496318306478273
0.5491861640316241
-0.30693176232910163
-0.49957626401612887
0.0643446591915899
0.07504103926913307
-0.24235316293181866
-0.01789248222112723
-0.3767029772845693
-0.07784271668348659
0.23548851881932303
0.1775230741600971
0.10825242068162697
0.2516105642886898
0.1599776821713216
0.33760584053984055
0.3640570124662431
0.08538956114560728
-0.15276971521896884
0.14738261059556645
-0.2799827693892477
0.6204450624003087
-0.20770075030080667
0.4122305527317243
0.5881342516095905
-0.4064362726087677
0.28805127647763307
0.6160235446820681
-0.3326842911930856
0.6457070156853878
0.1431420522868115
0.23718100028492975
-0.24893699495990826
-0.1384622732255775
-0.3486128401293841
0.23478962881829193
0.7115324378252582
0.42193673880957305
0.18977705286759922
-0.16300450529993954
0.19448007606474868
-0.5670772959131823
-0.4487124446899429
0.6487036494548795
-0.2688738540883715
-0.20799416871151785
-0.2596706233961777
-0.3967536487697125
-0.023549914826763586
0.15380504175209464
0.007206172743878942
0.6349954040553454
0.2755220514702104
-0.19293224754823807
0.4366636831570252
-0.5641969329821741
-0.18043923011967558
-0.5514669094534037
0.6681889221660823
-0.23750257896303412
0.7853420333441188
0.38376874214529555
-0.02093599629312756
0.15977657989536784
0.09327182745150853
-0.01592105900705843
-0.07793980195370993
0.5924730551881999
0.31087870246752475
-0.10029456823897104
0.25315303926231036
-0.09042129494948412
-0.2635389394745777
-0.5510249248303181
0.1891688078505402
0.2551171730246222
-0.11020525981450345
-0.633346361152187
-0.5331340065890334
0.31490882303520595
0.24909669270111362
0.032643971065672836
0.2989682588380773
0.5636789300674784
0.4368405445907505
0.12698754505401808
-0.3926804156153469
0.721470662796366
-0.1333633616222556
0.15624458534766172
-0.37751453661192347
-0.17491035826642365
-0.3933728265942286
0.08012602401941542
0.5404333443724039
-0.3957711700935296
-0.5139655186042983
0.4572520532260434
-0.0996673550926901
-0.08138661770188725
-0.07343482500345627
0.5998724456052953
0.046039896388611945
-0.47488749256366225
-0.07783589394401766
-0.12329689012507407
-0.46956596180731136
-0.06172917420294972
-0.16971028324847723
-0.040844764236405796
-0.346289025918341
0.7197280818042865
0.5907594211532896
-0.08699027133235684
0.14004842573966822
1.066842266146627
-0.443773360932309
0.1086502391570274
0.4994599416080647
-0.27839622293851024
-0.359342582804705
0.21711567919423116
-0.1369341812465111
-0.26911119046879756
-0.5456034874648811
-0.6770171679121826
0.013561481220768164
0.4115614902315867
0.29264014292045487
0.3209145458834858
0.18790795263019114
-0.26945254981650024
0.5296126848322171
-0.26508855390166497
-0.39395957612205473
-0.16016966669401897
0.6953663245415873
-0.22763046238926912
0.32274574258783373
-0.11050167021878042
0.52250022701514
0.010782927845344539
-0.44158021081342985
0.1928626501246905
-0.43089155360680287
0.06915624506720412
-0.04334152919659394
0.27609264434187714
-0.017186483602094
-0.6789144577176709
0.36680624807770695
1.1040561324783569
-0.31516236048743845
0.1736801105093576
-0.2691562938518477
0.7697712368546887
0.6534455422060856
0.01836420472992201
-0.0968523426719482
0.018302648552072153
-0.32016666699525165
0.11418814790864606
-0.23261104406503846
0.2944035803507349
0.33974754811638913
0.10236433659308314
-0.47975809460589114
0.10275278512283847
0.1556239929917648
-0.15204194659619544
0.18899905525106123
0.24904049765073244
0.5616926552105757
-0.009532188919038176
-0.1404659378969466
0.16186473259753323
-0.40033687587020905
-0.47004992064558165
0.23747023249277294
-0.5257252550323
-0.07311452190179772
0.17144019585146925
0.2526840167562425
0.4299713214519591
-0.2844890234179755
-0.2794581104977109
0.01051516377332434
0.1371703473678066
-0.38602341061640605
-0.5850526431861788
0.27067705672471226
0.4584934559499258
-0.6116999219488385
0.5704072309778335
0.09890846220555359
-0.4193633821477875
0.42737292007427014
-0.27253811012583784
-0.2962911370957784
-0.07143858874099186
0.13824032520991866
-0.16108377670404922
-0.24662848973286497
-0.22159514425724317
-0.7835177372232276
-0.12515682540655124
0.30291125129074814
0.41904727580516465
0.04517866544348163
0.2206198816492594
0.2581278763202554
0.005498939459149382
-0.060954510532006644
0.1682008081734546
0.5389477597497884
0.5727819817938675
-0.44869230757616274
0.24446751512036802
-0.2366373726505302
-0.32032484188072136
-0.13503690392607293
0.8592042592407503
0.17770716664013544
0.19063121200178038
-0.2588810189883709
0.404588558396789
-0.17428659391638954
-0.11687500689420986
-0.3382539204548091
-0.5015935319910422
0.48936529426377906
0.059383504980650696
-0.6365767048001008
0.3386906194096447
-0.2377138308893914
0.16239069568945894
0.045616322486057945
0.2941318805690559
0.09506336334503243
-0.13052906131254444
0.6432446880928496
0.42573194228171735
-0.04665267857778739
0.2944209845489036
0.1885453480209984
0.5472712438372276
-0.501892408980007
-0.30384999132440443
-0.012461650900722144
-0.39574674275176114
0.4161391199924048
0.5076473181285388
-0.7342852146170136
0.051929422572533475
-0.028358360411268737
0.06399072341073214
0.5190081912014539
-0.2715201667275892
-0.6519214995111875
0.26297079808113755
0.2835753823774658
0.20683783661633334
-0.44849741253763853
-0.0681435577948801
0.294233732034858
-0.1815754394436585
0.08057379947657038
0.033383815345492555
0.6774514818899694
0.10573363231962292
0.40262498410641445
-0.5632885305989984
0.4265976673864228
0.12793595279860553
-0.2469135672305982
0.18771887917874228
0.12442080161660755
1.0841289027225143
0.1747574082020921
-0.0799424081799962
-0.40202197157757047
0.08006064429827282
-0.18981940899772687
0.2326180733867715
0.15581865974865253
0.26827793826279306
-0.08356219929563295
-0.1640181860866904
0.07511409182134648
-0.34204170554763336
0.689857906646149
0.013926168625373013
-0.1658045625569283
0.14653755306819327
0.5903355876896363
-0.09342734813118317
-0.5772166024119617
0.3093088628883337
0.017393801737327682
-0.08725666765676723
0.6355800982581817
-0.3915810368818988
-0.11649332215648427
0.052565784156856546
-0.0010875117242712055
0.6998928437861269
0.07652072990869876
0.25799484427811875
0.621276366729703
0.18707079353096756
0.21325202393666198
0.07888256216729693
-0.3461299003256709
0.02348190255338928
0.2633062278038921
-0.599198396278722
-0.19862203744514292
0.2739013194142433
-0.34003162317822233
-0.25052004033984104
-0.3720131819755871
0.35211574220658654
-0.1540548612140834
0.42255902577448584
0.32004735564270975
0.796394268324259
0.09438169641913417
0.2681237690507112
0.02897646967686262
-0.2546898267381028
0.14872484783547354
0.5672386360550707
0.726143144758594
0.06612819647914704
-0.20635746356193932
-0.3808065781687291
0.1795899484889555
0.5473757021925312
0.3518179789162225
-0.1618938002764564
-0.35019953940377496
-0.6777149249194436
0.21490947609953165
0.13391908338698608
-0.16115425684157367
-0.10424138321550927
-0.4830071831084735
-0.22810709541852708
0.03151406195596443
0.33254683062366497
-0.2268756878098593
0.5027640341227851
-0.1267089461893627
0.2055482888023756
-0.25802522766585195
0.33666716267220764
0.6795996191869934
0.784382003834005
0.6825077627269901
-0.6324702204830778
0.5519817852203528
0.14648556640811763
0.31872967178582595
0.37478284498789444
0.30364408371927715
0.0019264087991792368
-0.33555735756494004
-0.33514082248939614
-0.47552824857814896
0.19947551572831512
0.24942248165293504
0.34796036634903943
0.023593894397728434
-0.6753747811993471
-0.19055005719411547
-0.11877014005129412
0.22140083171936162
0.38233013188572257
-0.01432706802943477
0.5561081312234714
0.06938028121154237
0.24835333569697582
0.17866890630170024
0.2803584251748142
0.6972151118237412
-0.16687701977506614
-0.2822956070538692
-0.29578338182792496
-0.4326235405237183
-0.033379988669355244
0.4714166773479117
-0.5660457114234199
-0.3210090599428822
0.00514006021451323
-0.4210343600454646
-0.3998171934315314
0.3553597520392275
0.03121615643394183
-0.16438053312386638
-0.25844105002735
-0.47977165208869244
0.3718666959299104
-0.20128067163881763
0.08489266281225501
0.4379803861531205
0.17305386315359683
0.3008555252512268
0.04655953058383193
0.41123063740657784
-0.005854232146509376
-0.21925734445684097
-0.04825290703668634
-0.3737083359172847
0.1272972521858659
-0.15513658041627765
0.13349033260112939
0.23207917356539942
-0.2264482179632137
0.6429887213217107
-0.29336393724104143
0.033221733780692195
0.0639420135056214
-0.013584976374862646
-0.6202878504935356
0.24916053352643294
-0.3459657818671331
-0.22657428462272944
-1.049598423482836
0.5220869789479639
-0.20448763344399398
-0.029999753907603805
-0.4686461217053114
-0.12436553484171169
-0.44270076443660344
-0.040310336729798654
0.37386117074845976
-0.16415988176391438
0.5992805624732856
-0.5900209026012505
0.08071230401825848
0.05077512587588432
-0.19632415119766666
0.08075199443453918
-0.3922115969168714
-0.017243250795990726
-0.26727282746567266
0.8542035157397263
0.18648079538689827
-0.26493168026080594
-0.267310389468912
0.24440213169564026
-0.29064659303244494
-0.25078366347137215
0.22114917659535285
0.49721102856046945
-0.32556741170083625
-0.0073917380418223495
-0.3603772366665565
0.47480556487659437
0.18162878426394766
0.23338979725735168
0.8305846418138273
-0.058460235507416004
0.266430024752714
-0.013369756387155849
-0.2818337452126841
-0.12842952055287807
-0.20809393149591032
-0.3071515928914549
0.10530192036231922
-0.4542535200892769
0.38781797140869123
-0.026453961399774507
0.06268237375159424
-0.22377729330917595
-0.09074164808683528
0.009694463674180764
0.4344732617213342
-0.4044148384086961
0.2478173573208106
-0.3038144150985767
0.36193293823517997
0.18994272252220182
0.11853927092123437
0.48621263629932754
-0.34683931457164896
-0.2196244511493021
0.11379925163081879
-0.08502723168757313
-0.4760628252087966
-0.24022569993879478
-0.05733272654870337
-0.09341245944196917
0.038348037191722764
0.16842049474733067
-0.30199046727199086
-0.36907298792223703
-0.1170612465168492
-0.003923654532689496
-0.13694598400406494
0.3770483808949898
-0.12693044849793997
-0.06138973329982414
0.047838021637137164
0.31482429895383024
0.29430733442802515
-0.11741778169299641
0.48312371763457795
0.1268227114439248
-0.004263450927621969
-0.042418702607888104
-0.5290473615123578
-0.21711065324344714
5.12306250970083e-06
0.6027302351000235
0.28336979367528614
0.19306037504343404
-0.559165215487493
-0.41254614878704077
0.21553399201784398
0.025436428458042556
-0.35366315597325376
0.0822122990932668
0.09492647507996452
-0.0900219483169207
-0.4488983027586305
0.5285893085327841
0.357390734121499
-0.32037281879720586
-0.08136497413058928
-0.18756215091687042
-0.6772491732248854
0.2957261360469593
0.2491086321454374
0.4349130911059687
0.081368279562177
-0.2024794779613313
0.07238417290638734
0.496198554245664
0.37403715743130855
0.4285385084136265
0.2250129397655883
0.24068579685999988
0.1263644850630339
0.29820196420896944
0.06332914706555257
0.5676701322361332
0.3165960879178036
0.5698556633074926
0.09116111374262426
-0.04367881747901978
0.21028681802500462
0.18064062978069145
0.400016481136033
-0.007097589933179686
-0.0010932858330517262
0.0026585554575824064
0.23120106456408449
-0.4255199543901431
-0.7456136495568457
0.022512793192717977
0.1826195673246547
0.11431551981992379
0.3704712572188664
-0.0228685819424605
0.057851078200137754
-0.030704681658319872
0.3992933699683172
0.13867653386848758
-0.02066253408957847
0.4155406755023284
0.036387120383148286
-0.19696870035131497
-0.48884506519544224
-0.3743250265502828
-0.4354709424478384
0.6078276761512065
0.49753936773078766
-0.1544288470866279
-0.018708857792664874
-0.04245096916185734
-0.19747399657032338
0.16299281885038916
0.18644334478488953
0.18460838712325237
-0.9546978126269482
0.48650727436017327
-0.49464780269099307
-0.04291649456839109
-0.6894905844210293
0.027609032681263725
-0.8866732719317894
-0.5657059214990974
0.27128500266773803
0.00911664712749898
0.49737073580646873
-0.09326909611788724
0.0752162851400963
0.28952401240836323
0.0896390969123216
0.13994848330624252
0.08720817640941522
0.46708712054906937
-0.15548155993840918
-0.017204991060925493
0.12840018005326007
0.07023903063235169
-0.38423284995819684
0.0404009984009609
0.3728090805553222
-0.4750299139852041
-0.38769721312869715
0.24309319339684357
0.2619090623624063
-0.035280401899045896
0.18504689756424927
0.14651125865598857
0.1958351564758558
0.9057924326635358
-0.3202033534001674
0.41883138168688944
-0.26264515728987425
0.30338223752870824
-0.5590685801361907
0.5170045107648988
-0.3352749450699854
0.22483957289447734
0.16776351437206868
0.16029315961496854
0.14951255915664038
-0.43849421703911273
-0.21136490973722388
-0.020831402412609033
-0.6861763049270799
-0.15924216711937186
0.024832076113592803
0.01832506479662564
-0.04969351985554712
-0.1787774084774665
0.4280061758227946
0.27100500918961085
0.2416358421175395
-0.0960975415864643
0.07400210319990055
-0.07524465313524503
0.0407676614586218
0.04427543747816841
0.6568953162507428
-0.14632546859053572
0.4446831202995906
-0.7231691185815368
0.262819246861208
0.30237388208602267
-0.6881093768718298
0.49190355164368504
0.4976006854771443
-0.267820587397153
-0.15052047051978715
0.6154589426806686
0.06596298907960021
0.7590985977708476
0.11690413121911164
-0.3796243953719359
-0.00841106192833667
-0.6844377676796737
-0.19728373735365418
0.26677464938961337
-0.37779502330602377
-0.08261516931762891
0.8403521862547518
-0.25477471514480604
-0.3907406897499366
-0.2815522999083602
-0.0007953102701285475
0.017530073650734685
0.32140849696501594
-0.0019794454355138483
0.0582759234798135
0.0908158358440761
-0.39365457186676994
-0.13255898387435883
-0.11266152655033604
-0.4211094606359611
0.11736580763100794
0.36372911671105157
-0.2661217034231405
-0.3590422208150352
-1.0234128497926467
0.4025970275074548
-0.48444870644871524
0.41140015427217363
-0.3309133326181638
-0.00514702800311858
0.47455442505055717
-0.12038237420585447
0.26638367971078714
-0.2957842545774192
-0.14740411667900047
-0.39402025200289925
-0.3204046389997197
-0.3141498039881974
-0.646272240988873
-0.5428336253029469
0.3978471986175188
-0.38636405899724086
-0.04257757327943426
0.11614564258441329
0.004998672818051848
0.24723856743566708
0.1427763625155078
0.16150867523706863
0.6838742699262225
0.244811615539426
-0.19631221301427285
-0.259427618252243
-0.46176698394844806
-0.4481806069674726
0.1617987890733294
-0.22768561982644664
0.15400359578086104
-0.33479875733863046
-0.12516063436369904
0.44680326330847825
-0.05492296036938537
0.3757076326046676
0.21926799857786816
0.21344381978247176
0.22667450080452056
-0.441022265516404
-0.40729806743319497
0.460942432384812
0.47597105282016766
-0.03584699076867897
0.4153721496943525
-0.24531471955856146
-0.022829775126817324
0.08116947238512244
0.023762580257167393
0.2931688843479247
-0.5070230796361742
-0.32110671893136883
-0.17502197244084416
-0.1096039772139546
0.0750724948694797
0.3029376948741749
0.3598144209874093
0.19283485050556295
-0.05092369877557091
-0.34564219845928945
-0.16115590681726907
0.18580899502259327
-0.346830962329065
-0.22119852786188346
-0.45134911282777124
0.22092010943006224
0.15187361990471726
0.19435785270170347
0.5755433686863474
-0.26286408149159857
0.018035238805761585
-0.23521288745835772
-0.27098307873536015
-0.3079107309289016
0.09807986230934995
-0.24117024873290022
-0.49281755598868665
-0.24170601633572558
0.22822116715727372
0.17583579697165705
0.23671337154606895
-0.05338816666336214
0.1788745204210363
0.33859079672838616
0.5183230828674615
0.41137909761321456
-0.4547443306385417
0.4761587555902245
-0.18997555683225303
-0.6578559966562153
-0.599646869810767
-0.27305427712356384
-0.14607525869376922
0.18719061732425474
-0.41451683201720807
-0.12041255886106314
-0.1857397148251477
0.3483092238992334
-0.332552874006751
0.46783856370225124
-0.48323997140212815
-0.30229818568725964
-0.25665272841929515
-0.0436452076916595
0.28209302940327446
-0.0036077330830907996
-0.3693692658757104
-0.4596026533354489
0.6089211824325478
0.40249177952890275
-0.42743125545713356
-0.5126011980888677
-0.5275117730283838
-0.05766337330070329
0.26416904012617026
-0.02480151901498507
0.3448220712404753
0.5586808122964935
0.034666338429284946
0.27469788266826495
0.15146781701547254
-1.0130240832875264
-0.4451576442378442
-0.2748762390044628
-0.001048048856818123
-0.20476172819500485
-0.2888369090184525
-0.5452858846789161
-0.2433756601191921
-0.06726520672893296
0.37341177137597653
-0.20074558934902556
-0.0276135326334805
0.1458446163107177
0.3569432744001639
-0.7642428288935981
-0.14474670541170107
-0.04553694749538435
0.24841016910196573
-0.10034191989206467
0.2283223910945456
0.002820685901639873
0.27799527092656223
-0.05045218499003118
0.0012360896124720957
-0.4697658474397718
-0.303056429435241
-0.3728443401949292
0.5371518174067654
-0.10374302569489943
-0.3719043055571563
0.04166445499342647
0.8678676205850571
-0.43684252888576414
-0.32108481527112054
0.4228279985389061
0.3102131888925819
0.5489404494823024
-0.19403633497914125
0.4947428203667182
-0.16797962711298628
-0.3094701075241943
-0.39448798563407594
0.7635126718224193
0.14927798345684476
-0.3594626564559056
-0.8079335439322758
0.02407073963989946
-0.29408692651648694
-0.3320564668789925
0.2579940695256499
0.6817604047802863
0.11925959891874813
0.08684254307646366
-0.2303403925243754
0.42912521875333876
-0.6968282110412973
-0.7731388012282163
0.27753701181421225
-0.4536705871377835
-0.5464965272036857
-0.0050576378301745864
0.23932708647329226
0.4903802999434128
0.5621691752506834
-0.04204284586914249
-0.261202615459622
0.10555773077173652
0.11765071222128083
0.6298037979929617
0.04354640989978865
0.10680378629915985
0.8271718685669678
0.005687889067291534
-0.14951640424513712
-0.2493204091319702
0.3886100503448319
0.482334532325939
0.20267302991786226
-0.7288986027660703
0.24824531943687778
0.37295621672565205
0.07398192023882443
-0.47025192829541856
0.3852661800627225
0.5865341498042854
-0.4946852365610819
-0.43919426690732744
-0.27132001326720717
0.3004825527317282
0.12446751894949748
0.04410189035436496
0.10544763296215107
-0.20866005162755022
-0.3556928451313386
0.3735646274668441
0.22260848232104732
-0.5903930333239227
0.13782614531220896
-0.4631412259912637
0.07250822214239878
-0.7358044455865587
0.03618362389640805
-0.13517210180219075
-0.18745895613980676
-0.34035588761647295
0.19557064766099802
-0.03678583749066386
-0.1644045781071944
0.5563101612759856
-0.16023424341891238
-0.4612421830870522
-0.6387791215215195
-0.3679674070286544
-0.08105717082526354
0.13460080396045043
0.07713489642684314
-0.12152333660706573
0.04438595040492718
-0.4388782132505303
-0.3007597207321763
0.17832491267233094
0.30327033872600234
0.24015187604680097
0.133786988460894
-0.6788499893548788
0.23510756491444873
0.12437989932934485
-0.08986953663111374
-0.617158204213717
-0.3768130081376506
-0.4563212302595069
-0.09632376458890037
-0.18791359498075433
0.18110181565137742
-0.042014884035545146
0.5058632620521067
-0.12925169833947714
0.6621411964913304
0.4509387072813896
-0.05649113571668639
-0.2338993890731358
0.05423263755509867
0.38644418841683675
-0.15635399432518707
-0.22345833883840477
-0.14046229279375413
-0.5948977087072174
-0.304577258048202
0.8222600245007942
0.20201321245408066
0.8041383725386954
0.34157227102823723
0.18545757551148268
-0.6034237223687245
-0.6439752227744735
0.268966924444392
0.37266512542263924
0.08927974899816303
-0.22065018106189332
-0.1896336927418484
0.5072841690350595
-0.23026796781351422
0.4140481425953497
0.24961421309802792
0.1485218422523339
-0.46880839057987567
0.38249822622377005
-0.6410543815120835
0.6086379535386934
0.3200245297576012
0.12365099343466204
0.1787991567689719
-0.38147330835418036
0.5739828692697114
-0.31162568282437286
0.2253141206054087
0.6075401330621092
0.723468961794113
-0.6071818977031195
0.14837389998007172
-0.02703558684826308
-0.3412532172448854
-0.1693386953933296
0.3350422343402185
0.2211435708239739
-0.09083262408500793
-0.15651995078055067
0.11853020000693787
-0.6354992031551672
-0.04458512901991197
-0.671937163179256
0.847521714153021
-0.31539532099899525
0.5894154488857444
0.23524227691557884
-0.4403080397815086
-0.46720160206969363
0.008009386069099225
-0.8789409012823653
0.25343378414183326
0.1835110254263429
0.20125266997816152
-0.3241486573688212
-0.29854386105463654
0.5264383265453203
-0.5378347207788575
0.4550018073163907
0.7381615484722288
0.2721844702807721
0.30649403458674457
-0.4956583093158031
-0.27989428894043245
0.24267980833202613
0.4732772131878027
0.08584834991670413
0.1695284546803903
0.1015726508245684
-0.07244115776540329
-0.18127459017364955
-0.03096498549498928
0.4885125798497803
0.3545940199496247
0.04274512105953821
0.18852771637154392
0.29824710820280503
0.12461543128495282
0.20641365821646016
-0.01322969076557769
-0.568306395367423
-0.4534789479963022
-0.16035658145084478
-0.11221755162021363
0.1886576142753929
0.22037815652381754
0.30197835925152877
-0.1171262966160861
-0.42687113910222513
-0.1956032594110438
-0.06733390655894363
0.22868673007898455
-0.55562222064905
0.11547583296879649
0.5073589850945135
0.06795356326019703
-0.012983782891638197
0.09269243262120862
0.625009698924809
-0.20036057139914837
0.1978393387784798
-0.02521562913669356
0.4416018990603563
0.9393062790465833
-0.449944731821191
-0.5285427050123738
-0.2761586368706331
-0.05788066735831274
0.3609117545187285
-0.0499625228145965
0.09937373329875752
-0.8398473966102625
-0.5368533286909472
0.020766552096780595
0.2877402172634348
-0.11626986790294888
-0.5608552599112275
0.15797493944910485
0.12401471478956685
0.5028352500101918
-0.46665619195685104
0.02227506512301278
-0.03993866827496642
0.48263878541516797
0.2413100453373154
-0.50900429589145
-0.13674847703817172
-0.5330426242010634
-0.28957512231854726
-0.2707224318573371
-0.07042416811188239
-0.21672885363680433
0.2295086171262571
0.024356965866247582
-0.34768723783627176
-0.35787569946215597
0.12243734880563947
-0.10288956168642482
0.6137832226011457
0.3790640544015887
-0.49305886616661104
0.41488380371501904
-0.21694915198979256
0.4915425508163244
-0.39682831281752606
0.44303313421917817
0.10007557346378701
-0.6849721048880905
0.5735010287256354
-0.26467693477700455
0.09138656883304534
-0.1434927274497104
-0.3395732528510137
-0.39069555318285143
0.3210963150153238
-0.12687703440222503
0.15672580104665493
-0.22042990296699752
0.4040403706862166
-0.6446205365422082
-0.2153274393528778
0.22049344286181097
0.14177863101068006
0.45147611566487467
0.586548408740973
-0.056239123137508534
0.7664119356987348
0.266746932480859
-0.3532797055520775
-0.5398120028545715
0.39582828618205457
-0.3934690620102994
0.5937788137761116
0.17251484904232903
0.15911748413306145
-0.08733754431910264
0.47848202898602055
0.4012174987322344
-0.36167497950571253
0.13150716161405981
-0.511118104578494
-0.22201583817123677
0.2065547634956145
0.569950304769365
-0.5469721096757414
0.2888399779030129
0.26445639188067455
0.4934646791154868
-0.567492311215666
-0.38706434014803454
0.2462403720205816
0.9641571281623824
-0.1684474627578356
-0.6397673267561614
-0.31662358331365714
-0.17880847335681074
0.2928071723899197
0.2586707645519294
0.5256325383027556
0.3977800505604169
0.591432276347323
0.29570251539521386
0.1952174877141811
-0.35603318336730566
0.15988914104131827
-0.3435523349441483
0.25672092575599753
0.2658531663660811
-0.11987983789882298
-0.39513723325658007
-0.42645781438174074
-0.05220892248602519
0.015631266095193077
-0.036169977003570546
-0.09122838526518956
-0.2239349063515642
-0.23179984751500263
-0.2746664871515575
-0.32321749817098955
-0.0892970010205983
-0.5430030074454453
-0.2621197354810462
-0.07475945083240719
-0.6986516726012929
-0.2146623816050541
-0.005813097106080097
-0.6716221509010718
0.2383020106325756
0.9059066252961078
-0.3062988889103981
-0.255084537040338
-0.03065372296215264
0.062306358561262966
0.39794862108158063
-0.3218537840541076
0.7614417545206454
-0.7378304005407594
-0.4627742460095638
0.08043578276658125
-0.7793625046818278
-0.08009793548225931
-0.1490936763959704
0.4341690285497932
0.42775724237240875
0.08315050045321544
-0.5500732276362148
-0.5088610742690216
-0.2186507621112875
-0.5106975207071741
0.338931432919351
-0.12665542318171968
0.6181193059388917
0.15744331324452362
0.16251710718953358
