weights_cmbo
-0.03855587075412435
0.1966342185740769
0.2662191733897765
0.1810104019278115
-0.1181368769290384
0.2884767658927876
0.2851038974835289
0.24523203333012403
-0.2034520521620143
0.1658882169475964
0.13188113915938884
0.06533816659698687
0.6479811718954899
0.3563942946635665
0.12498873992424489
0.12860180195148768
-0.24362106427017463
0.43989438976497536
0.38752284005452464
0.17119946871246475
0.22367618884937893
-0.034167942630063015
0.09084379059675055
0.49204454842824147
-0.05052234396126566
-0.09098592118040119
-0.23932717982649068
-0.286630519203193
-0.36703332417198226
0.1958176025075775
0.25370241942815747
-0.5891282496627716
0.22892606450866493
0.30101171213426403
-0.24158974035868552
0.3936637958269834
0.015937300838632748
0.003953115684286146
0.08068280501883685
0.207810276324913
-0.6310265270700274
0.14351869650675422
-0.6129073182653714
0.16852851353533935
-0.44156928272548734
-0.009450324868737417
0.41528016259986805
-0.135250801085027
-0.05652932799724063
0.1724565184628551
0.1090690397282411
-0.24980772901587497
0.06124168711520457
0.08644046919479326
-0.3671148408885893
0.39616343245523233
-0.31476904739400274
-0.4204579503631875
-0.4486526377036391
-0.07475925458666792
-0.3122611813030372
0.2894427777102521
-0.14717149035301308
0.5584668932739303
-0.026511307465646686
0.019914685763405156
-0.17166029485670123
-0.007685523928845698
-0.11749368693533273
0.433238379387416
0.15241450057230777
0.3821114585227691
0.054643878252954914
0.36791779637715105
0.18404159447267998
-0.23899674762340384
-0.28290241024868934
0.2923489271411323
-0.1425973888820628
-0.09814492665386867
-0.036711595693728415
0.081494379361244
0.3688857903044556
0.1746580467224602
-0.014450183521856777
0.43915702093609704
-0.1020444258728989
0.44564303279667755
-0.00349248006932839
0.013984152026691867
-0.2848983445892291
-0.06346510034447764
0.1961779065608729
0.00394175841293492
-0.17381790836581332
0.13366054459008328
0.11847015331210009
0.36210512017393215
-0.33924105223974943
0.35308476548069406
0.16554483426800762
0.33931181291785545
0.24429605833243712
-0.0552555565947546
-0.04318497356166431
0.18231852687470923
0.008775630517249115
0.4239537106100579
0.2604845342580849
0.33688940117150495
0.040464093911546914
-0.03446970809906047
-0.1957555541188263
-0.5883945255617783
-0.034357405126266734
0.04591256479053981
-0.6815642172034451
0.11430813750657208
-0.3102775337494781
0.4560375674766524
-0.02374134089453904
0.3799779035548089
-0.29194146774086677
-0.2305626230616707
-0.1122104693056894
-0.3262458246430794
-0.47810528801602503
0.028028592467817963
0.4882088137748113
0.0835060587081407
0.1870904625001364
0.06197670178343578
0.31926830236807807
-0.11464096649552612
0.0589428564441801
-0.15744360570096785
-0.0323333655333904
-0.3635288501135684
0.06778419645441862
-0.21645139268997762
0.07033334389298788
0.4542872393929038
0.2555812371069696
0.21020651421911438
-0.7101886331646459
0.0011117007078734428
-0.6425254688124978
-0.342146462844641
0.20338626058593318
-0.11271153023444018
0.17778635580630872
0.0957150566301048
-0.306283424824078
-0.39460150503115016
-0.05992978779079785
0.4467010060847688
0.30640832468530826
-0.15935229245395627
0.32118346043842005
0.05341869641001802
-0.3474267822647934
0.5332193881461872
-0.3907182989827008
0.4587956208162896
0.017207055878202697
-0.3438701370304664
0.03942036634696822
0.47854394078162915
-0.12339167614117902
0.16888008534662188
0.0718296125149257
-0.3089794486571781
0.04346721458211505
0.1846144891097304
0.17987117048883597
-0.05187549423820669
0.2097508728786344
0.2949719853014554
-0.21597724018570008
0.10388927557793867
0.24728576329699056
-0.0756920957050387
0.22568924509310828
-0.12635040659755686
0.44485022041368977
-0.22003215935604442
-0.3573019977126568
0.6934515282057244
-0.39933550709848353
-0.22269868868324064
0.11139605674342284
0.12458550493071614
0.17822219273084186
0.2106481250621408
-0.36887805705002014
-0.31266347319215393
-0.00462838015667139
-0.1784112751302521
0.26345531279146756
-0.2414261538307669
-0.18317016807519973
0.02755141257207022
-0.053471657236954455
-0.22895190158790996
-0.4420089199130202
-0.3358347219272488
-0.037686999391796316
-0.3529555302934533
0.30367408423027054
0.5451288853542119
-0.09403036561457163
0.0057797500536814995
0.0847266347258284
0.4179338083419769
0.16630837565857906
-0.024702753200713624
0.23135731095879905
-0.08665403420321002
-0.07556322562476066
-0.1434569008106209
0.3656688097749668
-0.11406814051155005
-0.04692545137620014
-0.38317187428280713
0.011130541582236083
0.03787078687173799
0.17636216152932024
-0.12035155003934085
0.20839300848540157
-0.1609567758739853
0.21753654627393795
-0.4500194631133033
0.18204488094796242
0.4038753683330522
0.35452421704506937
0.3379311803656026
0.49124687998980565
0.12703802927606833
0.60405002760591
-0.5594520894792591
-0.11660170504934349
0.2721714621889535
0.10184331148620948
-0.1835813882701656
0.4111594568255087
0.01317559783430174
0.29119875180083993
-0.029243782621925677
-0.13709370228503784
0.02609393167618148
-0.04550462724578185
-0.4487655346574831
-0.44351388334110153
0.11002443288177902
0.15897338163952326
-0.07585446072536536
-0.2460255189886085
0.11523889524788412
0.2590891338842834
-0.1323059436023173
-0.37837079403510526
-0.3349393954476905
0.16788010143019716
-0.3992921762485036
0.19045508616140525
-0.4696466733588244
0.05418436524391519
-0.21862494379524014
0.17747265505874182
-0.030563764891234715
-0.3525887650249432
0.08820263513418797
-0.24945388445661798
0.406567648513214
0.23524435674068642
0.33578396910675073
0.761786136439226
0.4035127241625033
0.21693029700001407
0.07100013422002359
-0.3643574290605287
0.4052797469965935
-0.11242191872204779
-0.18909955965419076
-0.19061022255022694
-0.21098863122764755
0.182814418725735
0.08738501344171223
0.5395386177788241
0.2164700851266115
0.2123411046494788
0.060033057112069375
0.019798814429140537
-0.213219737634258
0.04914276084340744
0.3181289266305146
-0.24632871145792345
0.12140761417987386
-0.5615105988179063
-0.046705777133980934
0.32175930507670314
0.5498797113766097
-0.24230617394457107
0.18906182862335894
0.024705093154857898
-0.14477100834408746
0.49319490041378317
0.10713917195353405
0.5630719954702761
0.24790876456543448
0.46901235707506966
-0.04085853540794724
-0.13062469276846111
-0.26819984989949247
-0.5737395742149084
-0.09783640972580386
-0.013131533021956745
0.06862426403647784
0.12538504694322566
-0.22564330083107736
-0.10995306885549043
0.3710443475060585
0.33656087802358603
0.09476960934864173
-0.0016006481050295568
-0.19882219599194811
0.18765550489652785
-0.43822858347917304
0.11145190139637123
-0.1916919714824163
-0.014292442487130417
-0.3604109071069589
0.32503653691747986
0.2177830421288789
-0.38638233867145055
0.23990255033992913
-0.047373076582962935
-0.2918764428267574
0.16682749211541428
0.005333661989073964
0.35293506217807674
-0.04630336626985001
-0.08001913020502852
-0.13911957670785807
-0.07129939004380098
-0.3975761518339294
0.30015303820246486
0.10074879252527671
-0.33004998466042756
-0.12307395123362763
-0.22880264902734526
0.457425685392693
0.16825438872367626
-0.05908270127079269
0.17347359541629967
-0.20348487918928027
0.27482264461153083
-0.15719843896405022
0.2946139056261462
0.21827037808578642
0.26560619054307555
0.16041792928170948
0.1362388061348184
0.08760737618192518
0.1682010929693311
0.05119267506782258
0.030721702604791207
0.20097860474379395
-0.03119081604418061
0.6644507047659347
0.15377085049722994
-0.17118883166021404
0.29296247105719647
-0.14322596125008308
0.4045349069851667
-0.04723563743120665
0.05245558925234665
-0.3631302491435139
-0.15965929616519148
0.21705323601728405
-0.372138962167834
-0.3237902317585597
-0.1367464651851437
0.17874415406971975
-0.35893324465721693
0.4981913584382353
0.08888143532193875
0.06747893176244416
0.3472203591814456
-0.24274818844486182
0.4009777450757691
-0.2840854624508309
0.1189638892955458
-0.3493781970308163
-0.08062250259285006
-0.008704756199452037
-0.0874135781266997
-0.24592778193586107
-0.35159417060693765
-0.07790913211297511
-0.1973046185527813
-0.4462960634370792
0.018487365347202054
-0.25031641707355856
-0.09290073921562211
-0.03500364170542265
0.20517919494657258
0.10810985864542297
0.02525580516919016
0.04995428690045203
-0.012864148416059984
0.4313628723493292
-0.09116056903270223
-0.25111720690449646
0.0022173956811674415
0.4223331459111462
0.2068709244875477
0.12381589328081125
-0.07855200498743455
-0.22592575556400926
-0.5640842014440148
-0.15231831535923773
0.20449437738168652
-0.17158206063272854
-0.06258393286045133
0.020242525897793875
0.11422846643193559
-0.028704596570743812
-0.06726974197616169
0.4403682496666119
-0.040077883639904305
0.09129936285975937
-0.3380751448241166
0.2524834137176308
-0.12160265563316575
-0.5632771748344071
-0.11773174946644047
-0.16030346313295266
-0.384282594027333
-0.04719318725258823
0.29497684688144277
0.16875032706335327
0.015268943387885927
-0.21194159071659885
-0.35568496335692196
0.2123360551350875
-0.41185963063091663
-0.0890749880960984
0.029273170905143798
-0.45027066069315375
-0.1687947587374743
0.34084265500961575
-0.015237540920311243
-0.2011953290116102
0.1880180609464659
0.10783492667414127
0.6743378589679225
0.18556479182334895
-0.06157100516448195
-0.0910786105258424
-0.8136864383658534
-0.02696515100440992
0.05509752329430875
0.10044540930521485
-0.3599035945640724
-0.059719874249101614
-0.5043839810610056
-0.08723470980960281
-0.21627132019586684
0.05578066620810709
0.23449684249772249
0.1349182578443676
0.09518012461390152
-0.18860448128610546
0.022840469181821973
-0.08222037713197516
0.04002506953401962
0.46152669471861296
0.09502418060535986
-0.043772747062385355
0.14804334737337121
0.1964401773653646
0.1556057495461948
0.3427780694785956
0.303188693963226
-0.3321145666678726
0.017162827726950398
-0.43836747735605813
0.05511492456503493
0.30892497286773146
0.0021926412382041434
-0.20671466502646074
0.4073223250013623
0.1011834065787837
0.2777290341325842
0.3645489812898267
0.22119537272006284
-0.15249420549643505
-0.03826795491418502
-0.0506718671569884
-0.09938378572272528
0.3556481999464513
0.1827050696185723
-0.19756471594224465
0.24325207539839
0.01471348157213465
-0.22015101540144535
0.24182083018567826
0.21398074050489055
0.2654627496649303
-0.2462633091227964
-0.26521114355273934
-0.32297701858782724
-0.07982535098532761
-0.03745805275203574
-0.20009969879488476
-0.16281746242865375
-0.5188811260487042
-0.3522485978312995
0.1895542319336016
0.07326510011626593
-0.47982009472423515
-0.1731276160517274
0.09440556725587353
-0.24421724570998327
-0.21206647744913576
-0.01734156046697706
-0.030659114355401168
0.12348225985163201
0.08846404384038452
0.5451875106961148
0.04279694103752205
0.05499510850850782
0.15648082728456889
0.4476037807337208
-0.5587192861820602
0.0907139568707751
0.1270895934040052
0.1381688406578959
0.041726444557158474
0.03205716819456673
0.04406687523333272
0.12617317533462957
0.1314407413081563
-0.35846514413451075
-0.3826148609345219
0.375346710398343
0.319974573332398
-0.5709012279081518
0.008750339815198894
0.49005628520460476
0.22830473899997283
0.32765943593695085
-0.2570218203327906
0.35067909019566057
0.2298752519011519
0.4948132643204352
0.11263947093342583
0.7111914609175888
-0.07310282964787511
-0.03435004488108679
-0.33750940977046473
-0.19262757337462696
0.20039180514967525
-0.05384533379544791
-0.022362700992365443
0.08410913132363086
0.007191106443763641
0.2362450103947975
-0.15836549203589978
-0.06814219765733837
0.021949669368803104
-0.33469871565744524
-0.19859621491874238
0.052008128630563616
-0.18328369237269915
0.46006739892421084
-0.04198716577754463
0.3182882640774827
-0.018775284974030148
0.15440442526030312
-0.16364549776668064
-0.0427291206182228
-0.005422659947881982
0.11087193737893258
-0.2398714284658217
-0.28690910857647894
-0.5648402741223051
0.6320970939704763
0.48130509514469777
-0.099337737117991
0.13125452069090543
0.07373691536058276
0.2530286424880719
-0.27352932675732783
-0.21227540136792997
0.0761992468020333
0.023133564005690957
-0.3664369885017444
0.013644439784614644
-0.014617112362187101
-0.44103586208215934
-0.019171947940280768
0.21994275491096157
-0.31024693644416945
-0.3071218216474964
0.17923475808451717
-0.16456253229314502
-0.1386653670196824
-0.051273724893387745
0.11111786722413922
0.0029197933665593818
0.4139791334659218
-0.007429901622989709
0.6681863417471213
-0.3941120716636107
0.10166544921118338
-0.11647982930112002
0.4031931992819421
-0.2788720432905166
-0.07929032889957627
-0.03863988390420567
-0.16759290152173464
0.403226340773611
0.02116735754579829
0.2643665864751525
0.4609422759607595
0.19407201451467854
0.17609334606695284
-0.12334863837505335
-0.05529152788745198
-0.3872009767497304
-0.5697919204424517
0.3633027523905411
0.27332422469502
0.41269537396539213
-0.5027757367950082
0.08491669859266375
0.16043638153310646
0.21963200989569526
0.38530376571361663
-0.33108259822940284
0.08271039502327662
-0.15993510435847208
-0.10504732128665013
-0.2672301078379492
-0.2826602915096776
0.03143785042084797
0.3938022196731527
-0.19177040807750745
-0.4370636769828162
0.061129344289211705
-0.38556267052900955
0.28753117654289034
0.5106583397976248
-0.2815459201207447
-0.4369664303971777
0.12533569834176408
-0.4137307924464702
-0.2952132211538538
-0.37730884693982836
0.08672214117284814
-0.3539880419790746
0.3326434859347657
0.2515490408209077
0.04582284450676427
-0.13849625645706118
0.28089413944272235
0.11275090527261766
-0.08197097536970574
-0.0408434673415101
-0.1880757473494262
-0.0003107740201309697
-0.4123866090037207
-0.1280515114901786
0.1334118127014734
0.09019918664372123
0.33210941630625995
-0.23533771224956884
0.22428134193851115
0.22952584814881827
0.06805640231107274
0.12153412029058394
-0.028997569835400645
0.40901956850819965
0.3431542615267225
0.17352600847012783
0.5036514963514327
-0.060977302722582796
-0.28743223502647125
0.1518465987595069
0.06375459253254354
0.20962453441966777
-0.11849947711305024
-0.039539082911153316
-0.07194281411713109
-0.5464337267231223
0.6876549550292463
0.05101253469856914
0.036993630578499664
0.05170223572345188
-0.09659031213927778
0.2816044641313153
0.4983791520420342
-0.4615867198953887
0.3175750241927899
-0.8922900035743321
0.19424046787693422
-0.06323073570060736
-0.2909931999208583
-0.015676256101038778
0.23578743333392052
0.031921295740209056
0.07173442431772385
0.20558846995516897
0.19971815182166291
-0.15063626234868172
-0.4829504777617072
-0.09900318279465795
-0.13807220308790288
0.2729909750061626
0.16237318851656474
0.23242415186729598
0.07747052270313538
-0.11455462945765309
-0.21284620824206565
-0.38766504767239107
0.32524654027109734
-0.18503045274345853
0.0292387324610987
-0.18816678827757954
0.41396632253797766
0.22735392246708003
0.11001920101331485
-0.18316846262915631
0.21163301785777913
-0.5646735533640546
-0.0054891232459025755
0.20649656190909424
-0.49560053046979013
-0.09723396142219463
0.2106938624994182
-0.05872422842096563
-0.1888410050147333
0.0001725561024064139
0.330641400663189
-0.09860229211159229
-0.0894887890575191
0.4769389041860967
0.01710692731671231
0.16824636439315382
0.11574712930561136
-0.2599717753235938
0.3289617413239402
0.003225199144252065
-0.47281590396105194
0.2359475162327448
0.47285330258434316
0.43959909119694784
0.10816791669224886
-0.032848288380476987
-0.0947341559786467
0.07454879769514469
-0.16982524265742716
0.008707575419147576
-0.11041836341647528
0.02418778857724782
-0.06264860608095918
0.25617807947547777
0.2105145357946393
0.055657454329925034
0.4453652027966399
-0.3187019224264535
-0.20180729408512074
0.06395378347508647
0.0028478897387120045
0.043783479091509835
0.05903950434775503
-0.13184020588984188
-0.07822970780176886
-0.0342742181038375
0.30444994030171535
-0.42869217997622877
0.0796259944627845
-0.43205732619882053
0.2331291975534266
0.3271625587600706
0.03451400749474348
0.3448633955898373
-0.16780512075084583
0.014965308402309547
-0.3689827281492752
0.25469973096565734
-0.2786259295472986
-0.4172419317765947
-0.3278894980917158
0.08285934204185233
-0.4352493645354314
0.0516687577060585
-0.17542749718112755
0.04296364540140131
0.11227029808873557
0.6311459952840415
0.16285144863310183
-0.06774620797266027
0.6051398614302551
-0.003882497258871258
0.08043365007187346
0.11817680839195471
-0.2908795055225855
-0.2319810025162825
0.24080243834168585
0.29223179955370704
-0.05013408575863422
0.35080216977750694
0.31720006192113287
0.003351461595968
-0.005424619276812291
-0.01737060629364452
0.29903746195587194
-0.29316614692642207
0.39192263164817065
-0.09657465832449208
-0.3011568974533624
0.6633045132247328
-0.37144883901183484
0.04086244883084091
0.23431606175820396
0.22030088694187583
0.08117546605094088
-0.02793004561528362
-0.15440309918753461
-0.17908429118801208
0.18868561613774865
0.08180413156663444
-0.38586103903039193
0.6165782625364084
-0.08400420116841839
-0.28210919127026257
-0.05123824084299169
0.12274594067178232
0.17661932950918718
-0.0799651773951863
-0.004506503726724707
-0.031048453044431486
0.48600456759490673
-0.2556083154003488
0.022273287116995052
-0.4469013079147178
-0.23901481135383243
0.1475569267821057
0.12141158304837717
-0.004613147367204289
-0.12711126071220002
-0.10929945772438454
-0.06750322855138699
0.40571010581133987
-0.053868146280228076
-0.3309307328982472
0.42048625631112313
-0.1650395871622557
-0.027535296706099926
-0.039085995363893775
0.15297501442390243
-0.43280115139328446
-0.0011949097820780638
0.14402635075803488
-0.046407059054628844
0.04991092643890791
-0.13266128268794886
-0.11928291268835525
-0.06764863809386228
-0.38334807228927564
0.3704497759593829
-0.08709814016504834
0.14039508924566435
-0.2974513564547266
0.07362704894925481
0.050548194594952606
-0.035227388861490065
0.15091442632489044
-0.360444034738463
0.4731794275533947
0.15782635349148488
-0.06292058903299708
-0.20023114254778793
-0.21980787934493737
0.3848077135959479
0.00555520257297532
-0.03476014044787171
0.18718016566529108
-0.328336015528522
-0.032556595240934086
0.1788248316450156
-0.022635709987691023
-0.0069126801740186684
0.24817052731453287
0.09953531173172754
-0.016855411274126982
0.04244218772705462
-0.12333265733710123
-0.017710768586157093
-0.43718134790976015
-0.38854568866859585
0.1313390367781921
-0.17973517631971955
0.22988757988543
-0.26186581121196534
-0.21922364620341606
0.1794963261906044
-0.5231439767419825
-0.056505372584525135
-0.25681928567239
0.239003102966425
0.21480171752522276
-0.3961616881516941
0.5518997958782923
0.08158697445957022
0.26424324356224616
0.08962845301519065
-0.05172707509695192
0.3886519281219335
0.04187405943097374
0.22957306540049777
-0.3523551105483554
0.34792044950484785
-0.533913238289437
-0.389978218247073
0.21346260116657384
0.15511757692787143
0.12569416375227127
-0.08475311517791315
0.10639468801431201
-0.2724698105075221
-0.1013399416046013
0.2020895949448939
0.02240793444611448
-0.10399194487686955
-0.041804613686746574
0.028246751454121616
0.40147389921109927
-0.4015163634691729
0.15872235294157697
0.10687127487077391
0.3900980895478138
-0.35454688443485755
-0.06445586028850432
-0.6306823418474231
-0.08603731979115743
0.05952719451556656
0.16020090826001568
0.10594322570515488
-0.0688710526322309
-0.155900869985672
0.29488543336024703
-0.20228003770488442
0.16742500191685114
-0.3118204632420019
-0.1688644264372258
-0.26818258759827523
0.15247785448533518
-0.4002843382417682
-0.15477316695525326
0.194272603322707
0.0506887900568049
-0.44646001064364305
0.25523626520537523
-0.37045965633580397
-0.027797755505283524
0.6797447395260263
0.3902708855417831
0.4709036009893476
-0.5442057767980162
-0.17311220773444838
-0.022774139484358833
-0.06151378587303139
0.05752493632744266
-0.25738127707637165
-0.3613700815927299
-0.31875208230408136
-0.23765596429452798
0.16772354723040564
0.257096886865345
-0.224325600210458
-0.14759056947702442
0.007298302217700313
0.22479370887391054
-0.4186143900171149
-0.23963200707866844
-0.47111263920483787
-0.3454354606593137
-0.1584783929537189
0.09404897944141168
0.18751400085906436
-0.02689316260026144
0.18228951194713117
-0.3564042917767546
-0.44697758224935674
0.10518211256578043
-0.521431317682684
-0.21301823360110042
0.12525556585234662
-0.5160230234547311
0.3660036283809269
0.15719365312323202
0.14769697438398882
0.22840826522779267
-0.12430370409018425
-0.20470013665018896
0.08955581954845433
0.2463021905678328
-0.33460270341832615
-0.14148888521388236
0.19554349933867274
0.4855022378347407
0.0547417257985482
-0.40506377898922424
-0.17949782156263833
-0.05768611546322913
0.4952412571135487
-0.07642239614947229
0.08341791119422556
-0.11311108203616461
0.23310460800603328
0.13230962319559647
0.07153065777158026
-0.26321803872559846
0.29669152353154576
-0.20674623943422316
-0.26095311852639963
-0.2561595610961094
-0.37429919231335246
-0.34762690830596077
0.17292769046765302
0.055205475916822976
-0.14528898170923138
-0.181641827122673
-0.48765850585002
0.11518965114505066
0.4863430684137397
0.16822363656966358
0.2935402688268021
-0.09354554139340097
0.1090756697801471
0.15013474931038154
0.06905578162990612
-0.231132600561567
-0.17577919819792087
0.17088146234856647
0.20828947172650703
-0.0037853496889588287
-0.011983444793004951
0.08155758506811948
-0.06986226287448993
-0.37227025274360537
0.13408958142589616
-0.19369036581871668
0.011935853460458928
0.506254108305711
0.049127945554596056
-0.3590864649221648
0.04081714825969886
-0.387016787831119
-0.5011436534150067
0.3837037448304055
-0.07747178607654742
0.02386311179283867
-0.12193826402870973
-0.33255192965187663
-0.42490402293238255
0.2668385950221421
-0.14143137887812837
0.1819006337642492
0.40912584721731965
-0.22327084418482757
-0.3867213965602194
0.11496292443054469
0.050569589542739775
-0.03716886054642917
-0.38389373108889047
0.5775628669814736
-0.08506162735285636
-0.17676097607970304
0.07035213632242837
0.13117614129113486
-0.023434027195407544
-0.08846231657814092
0.3771691152582363
-0.1300833031215402
0.042204270073304226
0.2776298117762206
-0.34720890205650756
0.4004005105877441
-0.21699566886406127
-0.09152343120352
-0.10622997354176196
-0.2322521585015712
-0.1023178634068577
-0.15632205858996767
0.09897403491865607
-0.120617234679105
0.1463306849428211
0.12724819317813663
0.09508827890988869
-0.27914500531382214
0.22916214222558784
0.5377490085321758
0.25754439057499623
0.34536272911206084
-0.21794071453027844
0.09420058932942249
0.04399498926028425
-0.5071271940168631
-0.13819865052092323
0.2422263864890903
0.05352381819608352
0.21601279966461046
0.06112586113778061
0.568195761195835
-0.16152167430184758
0.023594110380705316
0.15872200835932887
-0.11020900523820788
0.2920660655266939
-0.49842114707091745
0.11335596022935732
-0.19147932102943885
-0.25367144803855246
0.5203983284667313
-0.0635533992673315
-0.12145724893894595
-0.6568139929222256
0.022318011554045898
-0.15988515924784566
-0.3638593942072141
0.42723908817973844
0.22138933886092532
0.027723008262119618
0.3135649204042065
-0.22459710418792794
0.10288613540784279
-0.1476200226941895
0.03731676334958239
0.034326288569446986
0.004417991866157557
0.1391255867467052
-0.19554815451241986
-0.4979375126976553
-0.23467522080620393
0.12437167711885931
-0.0612017505632086
0.3066542572777637
0.213241850494277
-0.10881176696374054
0.02701648767352273
0.4380816936204897
0.1410461065717815
-0.5009721091301838
0.1391496410061834
0.018620154408992104
0.35228842461975945
0.11662425227348813
0.4524171916300775
-0.06788899110538572
-0.12739120341030943
-0.40674291659067574
-0.16075085996500826
0.3126447065133819
0.5270643472494035
0.2901837111195872
0.17252031790188027
-0.04079954834835985
0.32420638112124744
-0.04614501640948107
-0.048744337755560606
0.10367443047518503
-0.07988033259878691
-0.020585812188090344
0.08985338534482126
-0.24883782451057665
-0.22227681486759823
-0.23460294161185463
0.17412652531429454
-0.016425918222278988
-0.2107252889289743
0.17221331466036427
0.18624230201671801
0.1843535089371993
-0.2160299648226265
-0.5168322200322022
-0.23370089918387427
-0.09636481758983245
-0.5214113752654335
-0.06745482555421453
0.14019787440609266
-0.03916579347281184
-0.071531484762859
0.07883770900127579
0.09548251625203433
-0.04796955127548506
0.07828845267955399
-0.279179977577712
-0.2751832645972357
0.05429259997988645
0.20475183965614527
-0.42407179657028593
-0.08489557157982891
0.010856475004542919
-0.4302382165620383
-0.057582691833144045
-0.15849023388400796
0.49880326578060136
-0.17686739505137394
-0.41944717492799666
-0.39936703613234226
0.25024706970639804
-0.11256074470847383
0.15612226088133213
-0.03801508486125752
-0.3209475851645413
-0.35591714512314354
-0.10190172380526195
0.0084448012002818
0.31235036676310124
-0.1805880762182194
-0.22506650761999647
0.19221421312425283
-0.2479895927033104
-0.12454649339294441
0.23430855220515176
-0.16852618768738836
-0.5374633869366491
-0.022485222103901813
0.0539286800757173
-0.14888702274076052
0.4433392568366246
0.18257128532767605
0.016967903569457765
-0.06254562111001125
0.06742915715680914
-0.3559901211874673
0.1984829092708595
0.16624339921021358
0.1800083746428129
0.6078224195698166
-0.5625678712637231
0.09969356245987906
-0.3137328179512788
-0.3305033807483718
0.3126959497902633
0.564100994893813
0.16973556736779077
-0.4128114277657911
-0.13748765906408134
0.3584616950181261
-0.4396444856339345
0.35810346352985367
0.20509563599057967
0.02403540505995252
-0.2999683946113174
-0.35928103910791787
0.26057671886750894
-0.035262623209657964
-0.13070012341715548
-0.12112197923343958
-0.08243533352467526
-0.1799677358375931
0.26336900486698306
0.020957638625810404
-0.0036383276199254398
0.008928286404921415
-0.4181699128554416
-0.4222633922884698
-0.4239470822788696
-0.03964870653352203
-0.2615891285160096
0.4152601766660841
-0.17949060688495322
0.09509732210639321
0.4856491570301269
0.020890705101526297
-0.2588812035315316
0.3696977324595235
-0.12397009350756423
0.21756190028614353
-0.07577226821927116
0.1911631193042817
-0.1467293865311949
0.008619132794618262
0.34223460999414307
-0.12018502714100106
0.7245113677120364
-0.23591199524875714
-0.15812547724350254
0.1839790664299212
0.15568845705271023
-0.5239869958040181
0.024326818834297263
-0.08406691913866252
0.2615639665376203
0.033044930045508424
0.33711583685355667
-0.1152308558631294
0.06199382755420698
0.008163715715182396
-0.14526292076904596
0.6251745575879085
-0.5640809182041376
0.448288559593551
-0.056171179059853416
-0.6034794471263606
-0.23279154981788475
-0.18589289778007312
-0.11057764315696872
-0.018185982985294218
0.48839159488021117
0.18617517542990905
0.00975826765044753
-0.14266395286831698
0.029227266746582988
0.2790600925796629
0.012660562073253598
0.2981614240437691
0.027489462018293585
-0.4252106390852532
-0.19947217456489638
0.28965717355735704
0.22598750303761406
0.16188139833491086
-0.08707662145613729
-0.1357906254704716
0.3716880231867007
-0.1862646176917236
-0.07497030234608333
-0.24011839068949534
-0.43928147042487387
0.22673435937089148
0.12511264203248207
-0.6446013950822012
0.32423808464176185
-0.028189503168109028
0.4057691692153954
0.0787894237494932
0.03670800771301473
0.18603231404547316
0.2193258836900524
0.14713817857760697
0.3012591175207746
-0.0442162273731036
-0.20037966930816323
0.06126992981034027
-0.5540574926171604
0.21702121833748703
0.11913690627521167
0.3258609089657258
-0.29911285439505225
0.09921542654607494
0.005291448224789661
0.13379628114655373
0.26398149111848795
-0.08005755291103625
0.3072012946516996
0.289074099876636
0.03704174491110853
-0.06880381271828041
-0.01890878152105788
0.520178169505548
-0.06363476024035084
-0.34951054598099623
0.04535051847354348
0.08082875833614814
-0.1341523491756205
-0.20681149415276517
-0.01597934245247519
0.16594582588956364
0.15538894783367793
0.2025966116427192
0.03460900650856166
0.4226606538058897
0.071248478369934
0.3039032249602539
-0.28501490408822755
0.22168313436332973
-0.11255898077483466
0.29116827657431427
-0.5679354344476895
-0.1817131345475802
-0.49026513098630475
0.10601225341914845
0.012256035053404451
-0.003427994688307615
0.044265630137915984
-0.15667379328419842
0.3406549252690322
-0.20026758937247008
-0.15748717814558003
-0.3525688332941679
-0.0023570738934223265
-0.3122089476454042
-0.06958430558194048
-0.282339394493448
-0.22177903204616378
0.43690287585500304
0.29663892053104635
-0.09766891383251831
-0.45326362135862386
-0.34921357849267093
0.2830956829290546
-0.052960066711179296
0.19422188695188303
0.3306196112293996
0.22576187564831723
-0.2760104537714882
0.37475744569845304
-0.11425964944979812
-0.24613143389613604
0.22295548124606024
0.3136384274081158
0.03603230707343632
0.044250037008315465
0.14759217362253105
-0.4273323371454155
0.4263347396019923
0.21559059453598145
-0.25125968755614675
0.18199517584771427
0.2903700834300482
0.4243524826646239
0.1271393975181546
-0.019659615047284768
0.034077965154092595
0.16711199375448155
0.3026083177378674
0.02296531998503404
-0.3125164422705538
-0.050056766027918434
0.2734891218914492
-0.48886293651283086
0.22894343915314833
0.1472848523396978
0.11787532965345246
-0.011405706499702668
-0.19817085704580603
0.36988296821913896
-0.10956109716533237
0.203208705909443
0.13307888640867543
-0.24437020796433628
-0.012308421702726951
-0.0774440172945288
-0.16536885562090328
-0.1594933462511237
-0.22783791606919734
0.14441028304589376
0.15332102157358393
0.05197352188764429
0.008889913146694082
0.33745260238670244
0.13364408255696875
-0.1176339680963463
-0.2985977412183634
0.2277061946074587
-0.070269550888906
0.24774321734624674
0.5893206893654679
-0.3579159443797309
0.3819434314191759
0.22976080293276593
-0.2455208267308672
0.16237492944050816
-0.14675108235316384
-0.21040519967706256
0.4077340289019178
0.606640263455705
0.08265755450668727
0.39367663087977955
-0.3152249598921062
0.3934262027536314
0.2217464493671904
0.2763025856668094
0.08445044655758002
0.14785991957392033
-0.014684969374914047
0.34527945035071655
0.1601418347800227
0.2935176967667198
0.47612764740746777
0.24848572483058673
0.5873763446706991
-0.08985100236007343
-0.15881950204638684
-0.2478075658859602
-0.16403858792128914
0.20102310967274284
-0.058956664858849726
-0.199915184742264
-0.25584190329431655
-0.2379520311367405
-0.03793426917602242
-0.24743524991872093
0.1116528147938108
0.14549892856171048
-0.1647254484338087
0.771328479377208
0.389289015529418
-0.320820536887969
0.2376648418339821
0.19292103981003875
0.24874582510980509
-0.4019829543023368
-0.17707116027594627
0.27187477917591757
0.17682561858813278
-0.14501371375851824
0.3290603563446428
0.21115724424916565
-0.2805121221943434
-0.08808057875983552
-0.15542828932981198
-0.23701697332950972
-0.18262295199714476
0.1503679350412342
-0.10540735394041087
0.01960955647666568
-0.005187149581221159
-0.026824983277544023
-0.27240180917028056
-0.1336313966262923
0.4133247813506642
0.003972764608957105
-0.12167626576688595
0.4056184373223095
0.04348749635457244
-0.03190702768437611
-0.07159623294062693
0.04174149092573405
-0.20480580745431903
-0.04948583668250964
0.6513304120761281
0.11548179800034795
0.10682390990684562
0.5057329356926507
0.07434319895722688
-0.11484960230775904
0.5640458445240691
0.10329105832526524
0.01745622127692154
-0.11398746297350579
-0.3533999778109101
-0.44809049297897074
0.15182554763637515
-0.050882249712503366
0.3630671957102764
0.2740082334824355
0.16607909372437077
0.1554367264182529
0.055251890102784806
0.641160083046012
-0.041241915659377
0.16677138710548084
0.23822798062678147
-0.11290226285055383
0.01049992060557845
0.17537546309935464
-0.08983055394279092
0.28331626315275027
0.4848053707619452
0.07503648410705299
0.3117218262141397
-0.34369798409631125
-0.1970263320036861
0.03316184986795918
-0.0519273611081791
0.270798077050339
-0.3083490522277674
-0.09743904663033677
-0.14488661884384182
0.5070104433510748
0.27523791720719115
-0.26790305112053
-0.046225299245684054
0.2560327980974177
0.09138755011590483
-0.029322677856225495
-0.19455216590936356
0.08495246407821541
-0.32561745094403954
0.0966574724175397
-0.042756278037613706
-0.17210900069653942
-0.234200868324765
-0.635358106889741
0.07363921860198436
-0.019682838466586524
0.09437418868155836
0.04748306180068834
0.1079888779275709
-0.06956720370399666
-0.049076463822687606
-0.219124482752836
-0.26680690502274246
0.30127433981384116
-0.07690616352024672
0.11337554757218017
0.3482642702557826
0.14992758233826425
0.30015296460695756
-0.1464624054944026
-0.31427255095448614
-0.24693625647971992
-0.35839172611930786
0.2608720608540907
-0.3310483399500075
0.19691730542284164
0.2835665596101657
-0.1274451815257063
0.26470103984482224
-0.3385304475977165
0.050105332968678064
0.09397336764660576
0.28912275079590827
-0.19073244870719225
-0.4039286193291405
-0.12197152921375508
-0.2724141224119489
-0.025827221318277808
0.17627450841583292
0.2020408024701566
-0.09576848112080151
0.17549650433132788
0.20284854535903882
-0.1483783416082362
-0.26546694485893757
-0.07912277932200124
0.02502752072449885
0.07250101005470981
-0.13215414944100157
0.013615151173058079
-0.5833710821095864
-0.1138966347300416
-0.3603935384215581
0.2176021043750129
0.0375367563289094
0.057730703748891776
0.019296678628146886
0.3290126103521214
0.14165056658115777
-0.01184764332800876
-0.057380677791199375
0.2299503746838172
0.10700050081226152
-0.19967823887645889
0.017197395947386312
0.12493720848152434
-0.5186820705196415
-0.3852255075980169
-0.059657808020525595
-0.8276708246785058
0.10968905327886078
-0.20576522700917363
0.011366064530595408
-0.04263505241430925
0.4565433257225056
0.09050317905785363
0.07958919297472265
-0.33756082359422146
0.07724114231119361
-0.07493348179013888
0.37229573710690084
0.22857742897968633
0.06590452954334547
-0.3127182316249179
0.3344134591631737
0.00340444602738477
-0.17262625247357716
0.07220889282043641
-0.19869585546146856
-0.15767015278039925
-0.37492008092674084
0.18052091268562973
0.2862189188933341
0.08090802285660882
-0.031197435904031293
-0.30429306971548625
-0.010235434809422173
0.020251253022764558
0.022073601209584456
0.5088454485519929
0.32600913436000384
-0.03656113253058451
-0.30462406835532985
-0.2789508232492492
-0.4313393592861819
0.0603893494195942
0.03327513560506177
0.07738275823192431
-0.009580329324484271
0.1188319134759361
0.0623078018727134
-0.08975148044193466
-0.2242717187265307
0.08894631221668745
0.07542407424826932
-0.038864359266062375
-0.2151157254958822
-0.6646156288305721
0.32525400961502077
0.3963307262423254
0.12989470177163334
0.07484546277675609
-0.5948390573999401
0.44453234437882366
-0.17791933938786172
0.18067913136797412
-0.1795019045781617
0.2286392025021096
0.31789484403433144
-0.14031018119717387
0.41991081716266454
0.13964977533411022
-0.3864361700593385
0.16242957040568895
-0.26445996257417015
-0.12115063948116148
0.6171317755336951
-0.07443220879225733
-0.27203556242621313
-0.37487235798739316
-0.246707573725274
0.02498303767245258
-0.10840594702448393
-0.3196277134569142
0.15339231376902512
0.11781043430047451
0.08335604576296356
-0.3455372889491093
0.3260752693111538
-0.455646148933303
-0.23111177935632687
-0.034475154703977766
-0.11842802649515706
0.2943816683199817
-0.014531163032312788
0.14816903664607234
-0.4774972070794161
-0.09320885713254522
-0.03446312669916036
0.20079618223017887
0.14834234191137916
0.047212365960483615
-0.30310565668484374
-0.22514899364931942
-0.4560923575342191
0.024257462787786625
0.13267848741470356
-0.30158136395941837
0.041878837426139806
0.27608810241750076
0.19100279465503298
-0.1351947912703642
0.39635192980182354
0.17962524822698223
0.10696228485300877
0.051998371437318995
-0.04172473067392536
0.03752783956403443
-0.11016851150569468
-0.08593891836377501
-0.19372535225509369
0.3753006000819443
0.3731695957983789
0.6386206988478984
0.26558136077635186
0.25731419446519105
0.2664731908730362
-0.09326739757910803
0.2730427336128734
0.39888643462933093
0.004251974185335953
0.22800087771666117
0.1667766229778778
0.16052249255772566
0.15077715745933729
0.5461300988957123
-0.4170232107090244
-0.3590775797249079
-0.0953813573246824
0.13104369952467965
-0.04655100857602577
-0.15002725262804883
0.15920233093022115
-0.2251153347184435
0.30491237150440376
0.2746340827869085
-0.047726908483371765
-0.41370507852148175
0.444832536155163
-0.1113696598258396
0.3170786581558951
0.02506882962117269
-0.2818202129531399
-0.08811818257762587
-0.1774146346393639
0.05829837903713007
-0.1743208267537069
0.21778134760394086
0.12167396653843289
0.14883908178944566
0.2695411776679479
0.41530890972508183
-0.557285061128291
0.047785476237441615
-0.06336613670095124
-0.2181856224158837
-0.39280258479711094
0.42746375593223596
0.18382323609730433
-0.13597916926284112
-0.14540623891854923
0.043737660290111155
0.15532413578151635
0.04837734045803857
-0.21882080011753277
-0.08490075273540039
0.1943874082587396
-0.12542155119268422
-0.12381071911428221
-0.14068288410626995
0.23859423242605565
0.2641689436552956
0.30989248114162393
0.3180011063189955
-0.08358367465172929
0.22086695597936956
-0.2666891966713845
0.1439822734895517
-0.39508328466968534
-0.12026812549057152
-0.1377618033805474
0.14805075522401318
-0.15431468276749907
-0.4801971181450836
0.35903110408167255
0.22272404646797117
0.18179864044027214
-0.2234671792795288
0.28723229532674527
0.20204766806995314
-0.30385154483139687
-0.3201636295671681
0.3466524106449393
-0.3064593033184512
0.07823340900830753
-0.24789272028359285
0.22800262265726343
-0.27885276956849264
0.1839927456349028
-0.01200493051893264
-0.07944958131286022
0.11860595061172073
-0.22544501156373542
-0.020066351656385668
-0.2815463261769522
-0.025514227303408007
0.05778580432636809
0.24082798177956213
0.44316500876436643
-0.12996030002223322
-0.29879046898711503
0.022438087862474095
0.363604221236203
-0.39911370625457887
0.19001469424270667
0.1279784758914967
-0.6292520322951843
-0.10105260939212996
0.18947086374777014
-0.10048459564476563
0.4894947825229524
-0.027926407108024822
0.05152061473726731
-0.11623375183767023
-0.46484940546016656
-0.0692652470862394
0.1626549046474707
-0.05293864961798036
0.02507149441918507
0.388830640955851
0.28083615116623467
0.1614707410182685
0.1375444951987401
0.1861554956037507
-0.14182448101008283
-0.4510190225665787
-0.3098523705757036
-0.05981049646899438
-0.3278187147078677
0.0073635713582512795
-0.22667513244249057
0.5980192515521122
0.0749964256205665
0.5165284336968049
0.3199716976914899
0.2100152002666279
-0.2194111070312619
-0.06662484141408782
-0.38467352682311373
-0.03677967197526326
0.3454817655110147
0.6379087461793156
-0.21693152710471147
0.4829814992842987
-0.1541995216817461
-0.09409904123992095
-0.0015818074135117832
0.19641123608941338
-0.01573562264926115
0.25462964326348136
0.07929543101563453
-0.037444593309199116
-0.23221600526655278
0.2613116341062714
0.004015238763015942
-0.3089007448790087
-0.03838641805170686
-0.05105309081950654
0.10375018856412904
-0.40770558602279294
0.03931953169744461
-0.3158605383799424
-0.3366135669189914
-0.27002780099439594
0.11112191224928701
-0.4275879945978938
-0.09145609736872357
0.41101289276780745
-0.1689033465263947
0.1330429168389015
0.13682948722150987
0.3682926628897327
-0.05322544988950421
-0.17664363672148709
0.4785694522110107
0.15687075468854392
-0.03289289351834289
0.17338556312227685
-0.2428895624396188
0.4383329938720779
0.40224601810871463
-0.2907216023381879
-0.008569649663465845
0.3352122102874809
0.28246042187007747
-0.22368251510203682
0.3735639204965735
0.26430148823721317
0.09628090286196948
0.3092275168512956
0.28572353323402067
0.5223232022037131
-0.3015973180183869
-0.18666138319881495
0.2291498277667347
-0.18845214985459832
0.17677897998374748
-0.28368137174154556
0.24131501529121896
-0.3740037891846225
-0.1495706704064304
-0.15956589695049134
0.11475412904942692
-0.17168288081579108
0.007616398687614691
-0.5050368265730049
-0.08369009333948108
0.055240518973706604
0.03486332900375617
0.10568241692424488
-0.18328849899553873
-0.16428926701272337
-0.28744631937307097
-0.07104260444730723
0.10756651366934541
0.35228918665231895
-0.1312816287779394
-0.145892787742598
-0.5319464715508311
-0.4390560355248945
-0.01837988607588051
0.2573404898756124
0.06859881707861518
-0.24371144406260187
-0.2281209361639256
-0.09437324956969297
-0.46323738787183966
0.28434323552742574
0.05716238382033619
-0.08154388425818146
0.07033621467751197
-0.1313982158876874
0.2007506378944789
0.1054376807839131
0.43938704269696816
-0.20237067552714452
0.12576525766753485
-0.04922303693510145
0.07460651261592856
0.30146926604865865
-0.34910857270813256
-0.2688612901872628
0.040126780318379844
-0.25258652673662885
0.06822627415972747
-0.30920783745081126
-0.10237010223117532
0.5403987518928544
-0.14755399822890583
0.1631846951408343
-0.48032108216710306
0.13722376108470366
-0.25051394464929166
-0.0035511177141411246
0.13266288530837073
0.0317735251036303
-0.11697313603450284
0.024404385644345945
-0.07014526939505245
-0.5964360191530848
-0.2302151698154126
-0.7235967843210709
0.21901457534539592
-0.5307380818897143
0.10071277310373039
0.38171217031649723
0.19182263045576672
-0.04941595884049726
0.02593753005666214
0.4203062904546717
0.24901691812911506
0.0073166619087661885
-0.27504153174241047
0.2445647284467083
-0.07456214118173918
-0.43293270840910825
0.18772907918754264
-0.15430539637439683
-0.3680985932266849
0.4641966422170154
0.2009192214250267
0.2928538801479432
0.06644064425797966
0.36435872988590357
-0.012956689557722586
-0.06432468786879149
0.3906912623529043
0.17713007660250107
-0.11259044114547796
0.19840389858688842
0.6635454215715041
0.2901338141362563
0.3545544211781437
-0.33556431110938056
-0.06268726434526392
-0.18421124711298537
-0.1780342529891241
-0.23560942658683973
0.16325712904138542
0.1009460464876054
-0.25172732216068133
0.15885210454964244
-0.5679072431421627
0.5487350198831593
-0.03687906864412439
0.6064074045047394
-0.20545605530752578
0.1303481365554857
-0.3355112055164876
-0.40440707030320555
-0.3189180493288308
0.017829719998318876
-0.5833307511596049
-0.21205398061857908
0.1201202642846337
-0.142957302742785
0.07970876381845446
-0.3904945212125334
-0.46771826600408245
0.24384579654543947
-0.21747172602210618
-0.08120012148017251
-0.052597951029224155
0.34592555129539176
0.1981824274624415
-0.1703774384032752
-0.2066616323347572
-0.05865023493315562
0.17712740312683123
-0.23508803123922703
0.13902684199121845
0.34803114941302277
-0.4246064121758698
-0.0651346028416819
0.09811173940766585
0.11196238045412271
0.31081882276758516
-0.12554219728320404
0.34537382735078404
0.09188870189017702
0.05451659915040635
-0.41239723891951885
-0.12954153477950023
0.06436364492165263
-0.5291464102330433
0.3544477127057974
-0.4400957595693193
-0.3904324881782933
0.1614151530598027
0.05681667720121811
-0.5733167199769766
0.1490866656334002
-0.3773488227784289
-0.24547142182324613
-0.03522601039343063
0.25905189058264383
0.0826788478890054
0.37132043834108647
0.11745275744990126
0.3767536852871101
-0.45379643903246203
0.5434231416908253
-0.3159341504534226
0.09909950811550379
0.015858908716279874
0.0537923282073327
0.29610964424286096
-0.21426776624324956
0.2295491806818845
-0.028780809222983293
-0.646711657170859
0.1335992517470003
0.2167545509462368
-0.14441347127933318
-0.1017457341457489
-0.3730465293769004
0.27430374955633047
-0.491169098531493
0.2919055155210538
0.31784897477242297
-0.43603841571671437
0.08289169057304314
-0.46437576854764623
0.1931529414659481
0.2918735479817375
-0.502936754703783
0.20790272542508023
-0.13592284611433364
-0.3031453350030052
0.412038032434728
-0.6567816550268661
-0.5465513404714182
0.2789179771990559
0.5027744063240567
-0.027048104623939667
0.10837379191968217
0.18837561852547707
-0.04312665134072059
0.07014632695751392
-0.06361164029702103
-0.0815708439715863
0.16220961584113516
0.47164050051085116
-0.04010020296991632
0.16934412005056326
0.2171484139105411
0.15004377992351717
0.2719084977691825
0.06802766153650124
-0.34229756605608364
0.012676860750746925
-0.03361757360958458
-0.33464898433108103
0.11489320386787896
0.25343910382519647
0.6450537144263676
0.025795460293705712
0.3241444376321165
0.38165306119156867
0.29492431675289954
0.1466338440336684
-0.13990524591934855
-0.12203575850357169
-0.1516083020992843
0.3152693260161436
-0.4276793640180811
0.027072408179091303
-0.44177903754408904
-0.27735225116193535
0.1268259000129336
-0.317182515830093
0.029364275955553694
-0.39286256295519856
-0.19790701199851615
-0.30221123271410544
0.428952315770169
-0.2726766172527122
-0.4915210337187562
0.15414323715690367
-0.5711610162486687
-0.5590811506219339
0.20349506404763248
-0.4048098944871767
0.22248940449597282
0.2152614913801529
-0.27044389187733636
0.425552130577605
0.3574935127686799
-0.1280404398816734
0.0653764451534225
-0.27273732753431723
-0.06107653891173767
-0.3290601805857015
-0.6842189235882851
-0.0821954271545584
0.7839949168022388
-0.3785833741554407
-0.5154306377385486
-0.07171523302700733
-0.09000384510192139
0.3497479331125586
0.10720856487336242
0.4633120613897411
0.45915085280061013
-0.3574713897141473
0.30509765731380517
0.160834818199765
-0.355876131968349
0.38229150918956095
-0.018849414897117975
0.3753164118765295
0.31599660846830935
0.3091277796737676
-0.32847511155422254
0.015917760693552288
0.275160159032082
-0.3475006522519782
0.04502301912857727
-0.07437855851015013
-0.15871724281486335
0.2569444687572853
0.030226285107798255
-0.5503711926486076
-0.24473372020507886
0.406434589799175
-0.2522208771098069
-0.0074769954633289275
0.13869227877072487
0.007367088022469777
-0.03135320535723172
-0.0493890112864415
-0.1769393763133436
0.25532467946784226
-0.08259443295534297
-0.36882852271962807
0.21763584009063738
-0.033734653914114815
-0.20920719310388855
0.2881725238948805
-0.3511224780124557
0.053826381260490774
-0.1957003730729561
-0.44243133628379955
0.48850452901298463
0.06208359913223945
-0.48613905526272483
0.4302384482718727
-0.09821438581460482
0.23874732464193427
0.1365033624577645
0.09433638892212502
0.043187613865219354
0.5194115978031986
0.25986596374309523
0.2904532746490137
-0.2518591776512123
0.44516835107719493
0.0247531471191003
-0.16075913036590114
-0.14031299191902236
0.1425687372128058
-0.013187728622338779
-0.43626383470562835
0.16270874022222553
0.6077272439183947
0.4692722131309971
0.06667331044550569
-0.008564807207761692
0.13437567051677066
-0.2433206958168411
0.14576067821068112
-0.2786134106697362
0.3841474590442783
-0.05722376946191442
0.35275531684326344
-0.08090597402583159
-0.2584090576661427
0.3300678621305194
-0.027256991261007557
0.0002535601198674559
0.0006546520513100317
0.4599147655695196
-0.3456719962741841
-0.34435712716077904
-0.06481854987306332
0.3573073717462194
0.1779425577002328
-0.22890197108516044
0.5506076956643254
-0.1206713830316317
0.6021643316205736
-0.0300819847727947
-0.1200624383822077
0.24039289345083423
0.295107918822379
-0.42167638290446063
-0.07519478496980289
-0.27747537585046644
0.23284052173678516
0.2215578843621635
0.1060629041526121
-0.07647331676472141
-0.17861136612560763
-0.2926592408581756
0.21790017304970405
0.19018693370572456
-0.3910425386859433
0.05191329313744805
-0.05419959585023903
0.19281871980942478
0.35410133627713414
0.180359196028201
-0.3522413611825159
0.5578531574261893
-0.015660573241355186
0.022281978068833277
0.01957337371541963
-0.2022913352183198
-0.2207704288414667
0.20794776400711024
-0.31962632173105165
0.15476412986800017
0.246627714455596
-0.06870141940386043
0.25463756172210833
-0.10326588558617954
0.5368877506191545
0.05492157737762393
0.7455665512350768
-0.17246950215788107
0.46529720072599456
-0.24832898655129262
0.2623009326085338
0.11598402902684435
-0.18632372989082713
-0.273129001507278
-0.5620933449729378
-0.32566437203375787
0.17408080722960162
0.0295154464739175
-0.2271363060692438
0.43173933266416215
0.06161113677333871
0.2913443075600486
0.3634270723608756
0.012430263709744472
-0.2833545685223424
0.35492985033696745
0.10203538714691512
-0.12232709596552856
0.11307619056275274
-0.0878551068659787
0.5117901358672556
0.37839695082183905
-0.4597734050230545
0.09437258567044789
0.05177569238247082
0.1369713170974199
-0.09004452546455728
0.008899797058412666
0.3338502016417759
-0.08679157151796875
-0.4290964349679414
0.20809285149426707
-0.3030373318746463
0.0017951440792660493
-0.5522975415466703
0.4416969560091138
0.2683268555077774
-0.07444169053237999
-0.2566778963867618
0.5092229394383221
-0.3221445731666237
-0.6454749535707733
0.2533229427632781
0.10452643818653004
0.5186669952906892
0.4522529684159084
0.053451502163419956
0.06978627301050187
-0.1931182406301143
0.24932961463363507
-0.0834999077404151
0.0917116552285154
-0.5766569651313534
0.1568276951187822
0.4658612777176888
-0.08360061167112283
-0.21945773250079292
-0.06754727480458302
-0.35414224512369447
-0.23901101214899545
0.284083501648361
0.14221245211302574
0.032186180920837464
-0.027584331248664485
0.08034609972179284
0.02299735938533183
-0.08208347196617459
0.028641022762920274
-0.23286380179329652
-0.2085854831020015
-0.04682743021083364
0.11064572675410556
-0.2278349908739383
-0.1247275611829822
0.24755033310404476
0.34604369375069394
-0.13767043171674262
0.06558008567203749
-0.4576213662812529
-0.03867199348790498
-0.07010496325144235
-0.09510929485964122
0.6241019205075283
-0.2648588043549648
0.08781966307141419
-0.1671710118356406
-0.20186136331750168
0.20195014659334154
0.3273618779140639
-0.2966682687927933
0.2710555461199912
-0.22445547201869134
-0.23412974634757328
-0.44308508442118205
0.1501693780775417
0.208957803904499
-0.25437211924217235
0.001784064644748882
-0.015999613060879
-0.40172665394649837
0.1488789562491285
0.3032813411239519
0.16358785222081157
0.3619603440883434
0.1354395251508621
0.14973178994206393
0.789758974054584
0.5042496913671587
0.03334498755226936
0.14896889545430245
0.1291017850425049
0.06032270678444836
0.5757320862123858
-0.2390545567157629
-0.26982403349343526
0.35310741805445234
0.07539089315473413
-0.40887954873551885
-0.5144440495827608
0.21636583725068556
0.46865028573398654
0.13226227981033167
0.14992617856912524
-0.20101051366568481
-0.17340533428090868
-0.047306664566005095
-0.09489687711993407
-0.1874966152985456
-0.2260950020928852
-0.14901334496084917
-0.11581456605341908
0.5240764704183376
-0.2937907972239796
0.2881211728894811
0.08790001802008529
0.058713226163713675
-0.05852822493589341
0.25696568053679186
-0.2923742628884335
0.3156126383211311
0.19668050329162434
-0.08668310276829026
-0.24522750549417272
0.10559743103543233
0.13683674976757337
-0.010863393934849079
0.09051810248597889
-0.05561054080353364
0.2582409730898007
0.3861058612124322
0.2887920236273521
0.3524993922942023
-0.6807542040971556
0.3824706682539974
0.11581720905759528
0.2165759791203299
-0.057392611784661866
0.09140937260162324
-0.28075109684262667
0.052046802645731645
0.4222541763716976
0.12346549506258293
-0.06361914473994255
0.054446262418538366
-0.15602487306665608
0.03220775801563698
-0.3800491765575323
0.05711008950391925
-0.04813376624050993
0.0476990976869593
-0.24441026913025773
-0.21733728158332757
-0.08257721064328852
-0.20396376150006768
0.41112059095301506
0.08999176513762067
-0.43174629753340815
-0.005191334884742262
0.17615719616599165
0.28668230155695384
-0.22468096297572263
0.3697519202237416
-0.25073729343311724
0.03704129613582455
-0.24795204350790706
-0.4481849292351589
0.22463825519001127
-0.2787064610921783
-0.04353553168098854
0.16512974402354402
0.12675181986074696
-0.028564398500261896
-0.04278586483900311
-0.21884902015112612
-0.05834809170884902
0.3389856161432401
0.20737825024958031
0.45214212379656155
-0.06475050436266531
-0.15142482975839258
-0.3128262797985343
-0.41811650322203125
-0.4583200355482257
-0.05707426085501027
-0.08822578215546577
-0.05390037361498979
-0.4736415713871543
-0.23162332934825472
-0.2666016633584526
0.2330085272052253
0.19594312680635428
0.011448187131591995
0.2734520792866632
0.2952901726747274
-0.4028946001645848
0.11046484276045233
-0.03360090951145048
-0.4667944794478932
0.32016538626469154
-0.19219064254732246
0.3488609950991304
0.6125555738149941
-0.016650024521516302
-0.1776466857902226
0.11136869900665833
0.35950645732367315
-0.12688717610836361
-0.03560055169535328
0.42268473362884995
0.04389642725326031
0.21948238453127764
0.35322456873574776
-0.2517433661808778
-0.3148288149222928
0.25425623742893183
0.08098881448797321
-0.3740620515544972
-0.04619786040379084
0.25322941107397295
-0.31958572074510994
0.19136669138468412
0.5345358173874026
-0.10981477453831597
0.0812873363837086
0.18968327087863773
0.4294218594460628
-0.3928704171569075
0.36798359099020805
-0.03614436704268396
-0.3316616594396385
0.33130246291675225
-0.1558809993352691
-0.22749036492147645
0.07611364211150345
-0.18930519326740067
-0.1369490720205274
0.16125429572248015
0.06872018222737154
-0.17198953246551782
-0.673270411112638
-0.4254975611236477
0.048059785405760704
-0.13028406444485094
0.12329919492748884
-0.4183941347603835
0.4485846434468817
0.13313378152735694
0.2511752765501745
-0.3859148789604212
0.20816510828839654
-0.29430950994048666
-0.06798501895733317
-0.12754278356241422
0.083945319557875
-0.3042203877053564
0.44850994681334677
0.03303143105186544
-0.1911042697388664
0.3186114104175091
0.7202776891985321
0.23818907917934629
0.60274764644402
-0.2844202754431815
-0.08246634307309343
-0.13208589786310612
0.07294854993765844
0.09371492510536554
0.41030829312615014
-0.5223760454270934
0.08629700855033297
0.27178368605128594
0.29019994302063484
0.4081374490307537
0.3551151463014853
0.07265043695563922
-0.029432769187259636
0.08692020656365858
0.5014035617365743
0.22223569763244083
-0.23237085152298137
0.3479776231039525
-0.16634443154137407
-0.3058222505985844
0.033549353774738847
0.48607551607291655
-0.02700219036372507
-0.35088272481733607
-0.030472997154163815
-0.39659982847740455
0.36234095456653487
-0.6080558454429212
0.595416447073411
0.12740374403260993
0.12114903355336036
0.2727645601807668
-0.3227993299802327
-0.1176575063760007
-0.49614794891162184
0.26838561448300313
-0.39474296785764545
-0.2631766215601258
0.11402070211768237
-0.06984816686621757
0.005476033076199544
0.2595108482773459
-0.474365106324818
0.20424188928352593
-0.8303447109356015
-0.20049848484711402
-0.07452636837994962
0.6085767980012556
0.6366555655261298
0.2587220971439842
0.12914780099916653
-0.3486671623967554
0.17739579587045742
-0.44487681739142754
0.09789247439159769
0.027300849520733268
0.19205293161067452
0.09387056939089444
-0.467158408617544
0.023590078878681895
0.21310806098004742
-0.0198185595447744
-0.11761108553542696
0.5021294465207635
0.22647013973144858
0.0778715359453969
0.2745336667131121
0.07659040813260949
-0.23602039632228977
-0.11767194397741539
0.28600896565969275
0.00223424275769895
0.4610407751272939
0.28338120617086493
-0.29781406422644735
-0.18900597108975048
0.2934262485227581
-0.050233670200559126
0.02757776073260785
-0.15504959838914628
-0.5949708809323935
0.1454513066679777
-0.02037309265928472
-0.18263468204312347
-0.4597968449565541
0.18233634974592647
0.2673439290931098
-0.0809468017660582
0.2502884893935859
-0.09189920402134268
0.0565411650680343
-0.11209718480295483
0.22876530071582582
0.35584443919922054
0.14971943908508295
-0.15953109745911595
0.22952499274334182
0.0763055660213753
-0.07218472305854486
-0.20626067506780182
-0.4187742138240842
0.3047549373887624
0.4666793659786615
0.323931908206329
-0.324179035394061
-0.029850404073384525
0.2394995960533024
0.6689765836795203
0.28687590820769876
-0.2019731252415055
-0.47412508272887816
-0.17475808346369273
-0.12847655104260047
0.07158792950135187
-0.3203660484275472
0.25790905878151515
-0.11092708405581973
-0.24850106588169216
-0.007823849408224321
-0.13309307258587225
-0.44075963119601264
-0.32536796016632547
0.03610768313672377
-0.2506405096038524
0.2480821249028267
-0.15532293226838542
-0.44914862622066487
0.42588333364265696
-0.2492204025955374
0.09803602687264253
-0.23296020297298187
-0.11561088381708644
-0.0880058899897242
-0.28381040658562867
0.08529695129371521
0.023142396905384395
0.2855359607955327
0.035048604705747215
0.5997465205046226
-0.1331560402702965
0.20599564461568945
-0.35940240501408716
0.2444820017883325
0.36595049669052065
-0.03143313014352401
-0.1138595710156038
0.2880141861835428
0.1494700754348563
0.09717577293164563
-0.6421811686894243
-0.2502908887778768
0.47365831374679623
0.13831856039971496
0.4747171714420133
-0.38589713947024396
-0.07856899214639351
0.1075719333209418
0.18683283104654988
0.02423650394469967
-0.3184295201563737
-0.19330492712832736
-0.07322924955832472
-0.14423260055368994
0.30153120364104746
-0.11851924024272534
-0.5411752641991124
0.087307191387976
-0.20150775706759133
0.15206352464787742
0.18243065360522134
-0.1530759153538019
-0.03422402958481213
0.4826821806919421
-0.19897027549877055
0.05011266300153
0.35372458010739766
-0.09610575578068033
0.2367972644905073
-0.37456356141766306
0.3276451378606599
0.08665995840070323
0.16636555375443574
0.47951174859389584
0.5171376968115322
0.04051841866038684
0.1323256795456786
0.08782293710897017
0.13549751466240284
-0.3502445885524656
0.004745819529072659
-0.34381209141762614
-0.2481367051857952
0.00908129765957518
0.25157310397400684
-0.27184105435664296
0.6842947142258274
0.35903144759676986
-0.021063584490891196
-0.3630711263344163
-0.36232751514897577
0.15822944319422644
0.28139048395003213
-0.07097777542438338
0.33231875848366643
-0.17843957294226098
-0.10383604910513079
0.140624334850733
0.35356756290858005
-0.07484616001147655
-0.1522456584752007
-0.0326833448419065
0.16903480895156467
-0.2412366547397468
-0.23018601166586197
-0.17222910568317812
0.27392372687753475
-0.04341652037730604
0.3543477000422795
0.15039557691205474
0.28443945501294904
-0.2882874385370245
-0.6282206624598656
0.3721800457890297
-0.22726331315581372
0.06318238424558056
-0.18249811161756485
0.46059327690349816
-0.15557018787025842
-0.03498214636527597
-0.46063494933030497
0.2197076929979948
-0.1454485148353963
-0.3102354228211605
0.30755300912427597
-0.006676067249570043
-0.07118358906863546
0.12547793543012375
0.15736024502210985
0.17546920973549018
-0.023752294250299084
0.1179052465492501
0.3376421921194354
-0.20955373689073947
-0.07720023491070786
-0.3961608814808011
-0.5948622233144736
-0.2112503955842401
-0.24088231991194575
0.13790645579491423
-0.0022793843360325032
-0.07874698814024635
0.05632484833667278
-0.24254491560878377
0.45297345360943864
-0.2801041545336392
-0.5543720492940227
-0.5383824383692621
0.2662510295245745
-0.6618826530718689
-0.20507867358085677
-0.2570428793535525
0.28853388421752607
0.0414993981042377
0.30175664769388816
-0.15213921620261428
-0.3710628295826245
-0.0386346867494277
0.02242922128279777
-0.2849023237170617
-0.14820532287110103
-0.09503777269488146
-0.30959895608861826
-0.11114831273437557
-0.1177783268421215
0.07134112536229317
-0.0753096648287759
0.4711674276487248
0.13573370477721824
-0.5216725669363754
-0.3167371749905624
-0.26005004129761355
-0.5128059079231768
-0.046029833870016267
0.32583252415795433
-0.013124357295156036
-0.0631652952659735
-0.32051985907209896
0.2200099503105438
-0.004023589411636722
-0.035551686330452914
-0.14803626423906477
-0.4908820426319641
0.2513664934439782
0.15402719585775862
-0.26941157303340146
-0.3823775117683522
-0.13850388196436667
0.16827949591054153
-0.27401785376113796
-0.11395057156293957
-0.42632529992508666
-0.014850209182575631
0.1591003486092138
-0.17450799780592754
0.2975514608961461
0.25414204575195
-0.3111775775374792
-0.19261542021550063
-0.20844409931530822
-0.13118943569678518
-0.062308206232164445
0.439800760431585
-0.08196591696588007
0.17124111578019824
0.00739826282370478
-0.5507791359513426
-0.649935591222577
0.09209233759301876
0.2802094191044027
0.33089832002494796
0.16941602766579203
0.4740681601589805
0.195801301772586
0.04520374964773497
0.23643304196699627
0.23462776708500083
-0.32034688156084146
0.3284860520465137
-0.1392113387132287
0.21857828021880846
0.4513640737522152
-0.13705374422539962
-0.14137712084607226
0.07043500123915125
-0.07622795803696297
-0.07383586266261387
-0.004857484647846308
-0.004619942543049354
0.522129514701011
0.07928371141096177
-0.011673692793292353
0.20976226219766453
0.15790445430959263
0.2592284964803457
0.13397107746585316
-0.01194148960729296
0.11200624265049333
0.17496998335445513
-0.06890579421734117
0.28940564481600384
-0.03948412358656188
-0.4735706909188793
0.07002352150631819
0.49346840233082573
0.03100188965109504
0.5085802418620199
-0.04930076215031196
0.08360625466567081
0.11865314112202882
-0.5202545600370164
0.07869858321178007
-0.3751983376642951
-0.010829932917018524
0.029376638803872587
-0.09812530332406172
0.070822375000485
0.557494822649413
0.09640805215166041
0.1045503465861214
-0.4226848339472608
0.2792888766963697
-0.4750943177907808
0.27554653641343485
0.2173925453227235
0.14238554194626132
0.24851832249924835
0.008173026461497177
0.6524859782818769
-0.19604379739077843
-0.2668524328889449
-0.11522885570449032
0.48582145486965683
-0.33993846833449004
0.42186145631406297
0.015011492838333277
-0.016176826135672718
0.17028383166913968
0.3839397289601933
0.28251494438793856
-0.2817088944297485
-0.6077024763764182
-0.10393991342254977
0.37503701967095737
-0.13306815978641415
-0.007915143050063404
0.12470957848290581
0.2951997724704143
-0.06041812494791345
0.1934092357650145
-0.2553742433542391
0.2301897130182001
0.13444771578052472
0.23997445349641366
0.003240530506167348
-0.1796312352937017
0.4778137943496768
0.45572104975996974
0.09482201676607697
0.17816257846529862
0.017881697052281896
0.22718316898569463
-0.4694963999575787
0.3074409357728245
-0.24589882065917681
-0.2529385810214175
-0.33187355926272355
0.06245903411459702
-0.3304716359653549
0.1293511062704733
0.0007601508883094766
0.3346534570781076
0.5252973744764794
-0.06509082014153997
0.09933923875367738
0.24589789000315068
0.23825843690331713
-0.00023856596416363667
0.39723182419223513
-0.3349544819842348
0.08160364020409518
-0.33979270605011974
0.4187971264085749
-0.17257162507690357
-0.2970832970246436
-0.39366475188905264
0.0293357044465333
0.11228565999165822
-0.13969408569855518
0.4912335960006685
0.053722179968404206
-0.3467522899705672
0.12881394530066048
-0.04970555163738176
0.25028866132713024
-0.04279658590387941
0.028521418046690075
0.0922788080053271
-0.09295893858529838
0.2938490576353085
0.16369401098354838
0.19837566443832275
0.1579690496139605
-0.0052231056763101386
0.27789207402257093
-0.15171967428460106
0.14354689966388937
-0.2589748553114149
-0.03090771324626979
-0.49158961233226867
0.15882132401070972
-0.2710024187362961
0.21365258267972198
0.2991056774403473
0.10060468139087748
0.07092032179170295
0.0466941282394383
0.05489694307490662
-0.22758791606585632
0.15469802463927232
0.1554610804417206
-0.04004489839196045
0.16969313165003364
0.3131140818154626
0.14147221818300962
0.38649623058250376
0.1552224346208163
0.3987520947797537
0.01912473471097304
0.2897132598486187
-0.12270645379460106
-0.44322096012891166
0.0947411096206337
0.034000652059008395
0.04789552025832868
-0.3991248144290161
-0.13763756509696182
0.25115146609176114
0.006538350248964316
-0.21265098380576944
-0.29202257610688676
0.5290585917633671
-0.04393228784230386
0.17211814592827795
-0.06037295612327717
0.3194259968504002
0.08197800348416896
0.1593469318983673
-0.18788984538660472
0.2644432504255934
0.1785672232662907
0.16236094057868397
-0.11935790783683721
-0.29548610927068564
0.2624028322694703
-0.037522330484859104
0.3557922296101671
-0.04827428400781565
0.20167990615925221
0.48718963484999334
0.3786580282228904
0.07746403420305324
0.1609685703090812
0.0561466654292702
0.09615736741858798
-0.3708419306239697
0.0036257718625244345
0.6295249888205032
-0.15848338685977514
-0.1271375488775516
-0.3189789842290522
0.20079776177544367
-0.11942646331401723
0.32346186362590773
-0.014748664135934024
0.05843287048784669
-0.307988940488311
0.25380170032304106
-0.23640292813149377
-0.3728739089456652
0.0662241887793533
-0.2800808782897899
0.33123254975533134
0.18134248285935542
-0.42665068359715763
0.07288590888840055
0.2800179708965601
-0.1272888345791654
-0.41113951589238174
-0.052615095365626564
0.00356338940687018
-0.014433368513312506
0.09571714033348284
0.2390675002603735
0.5819633080066766
0.6234743082207282
-0.261378376314397
-0.04287018808454731
0.44133004710213364
-0.5167237060151456
0.2231036983558244
0.18292772316376257
-0.2520119234290177
0.5156988409461587
0.3403644989415966
-0.34448847005902317
0.13129464992615006
0.05425465283261726
-0.05269437212284224
-0.3226435820191746
-0.13196045304454992
0.24446440066004846
0.20945353245239026
0.10271588725104129
-0.6618120030533154
0.2855109674926149
0.2532816255943975
0.3957242556083487
0.3140255276985241
0.27892929186701326
0.05656675315198564
0.16409085646779548
0.4937015015433357
-0.2525445517315483
-0.2440734214193321
-0.3217894713993097
0.003339959382143705
-0.11396626441869366
0.30267073340189604
-0.012035658240749059
0.15382010261949067
-0.19671365306637645
-0.028120130978403476
0.2404657629996617
-0.3708261036628097
-0.11674188858474259
0.18825225673661045
0.47137452343183045
0.28011365308211983
0.1982269296356704
0.0299955818727038
0.004652623603044107
-0.21145300279768867
-0.27845454915439877
-0.13229420157208988
0.16704868608310564
-0.09796197698245064
0.2564774414284128
0.4739087143269267
0.2560192279304292
-0.12355231419890378
0.39794116145854186
-0.054475264171410215
-0.1357911930471949
-0.10058431680544107
0.08100524101168176
0.15498478964583548
0.42882720129910434
-0.17522451337607578
-0.5772387335635767
-0.018373338337020616
0.07157927895595831
0.023792770989659474
-0.05029047050344948
0.09023788499654199
0.5531878286013593
0.5162100527988699
0.26074878670912105
0.5413732572562668
0.2751964614995126
0.00742017733157727
-0.2639031861999244
-0.33460874899466925
0.1104180467565032
-0.046067464891031994
0.37958262854885366
0.06895928367872534
0.14617894766056608
-0.03154094782182786
-0.46878167607666793
0.06568239716102597
0.05328226253630455
0.5487362890964572
0.06521419685290998
-0.3131875911018898
-0.20016840950460768
-0.19412399109070394
-0.210738645453641
-0.08057544667031405
0.2071168921713359
0.05355661247365884
-0.6369738465636098
-0.021870805065434536
0.042235478549929005
0.45485309486830106
-0.5329511202478254
-0.1269361355275276
-0.06129172549046695
0.1545723287614961
0.18743539607024304
-0.3048891549308849
-0.1200904332458931
0.18316188079242623
0.19996463861040586
-0.2523942708156854
-0.06498430636434081
-0.48060053533040986
-0.30343614597563057
-0.515724615823213
-0.09263818674970396
0.47137410064501956
-0.3528061582425774
-0.3192932904720948
0.4250331903138746
-0.12518820089214913
0.4306346603878369
0.5404257725225589
0.0830896741917057
-0.10281909083015518
0.10953597693602918
-0.08462998050879648
-0.42513002997665983
-0.03527174923715472
0.11264685816463518
0.4204483579895162
-0.22872023799709362
0.2001643058512133
0.4752947941614083
0.22476561016372676
-0.5224798919816783
0.2177285642963588
0.4402547119598551
0.13850683334991654
0.3470017821341698
0.23719931129280006
-0.44107254522580636
-0.2955022637253959
0.33219996536076996
0.1351410163206709
-0.3381503933159722
0.1518865656054216
-0.38520264322313486
0.05304077137546989
0.21370471912506173
-0.1147561755470016
0.3606925621857801
0.5822048226531324
0.04981616976586949
0.05226678665445355
-0.0031123415881595977
0.17575213918814458
0.3186237581397778
0.06910501209018402
0.29443366154856404
0.2883721005494692
-0.09380891395749039
-0.07240267770143027
-0.14365613913693337
-0.35758857336498284
-0.05655592417264432
-0.23961219920804813
0.7302122047267319
0.5785626746774053
0.36220462918643664
0.100934985596883
-0.5514525015080791
0.20744969008416184
0.005627494994310207
-0.13927626445378355
-0.0305630560529284
-0.13367859779513935
-0.14098523433487975
-0.45145648885647943
-0.1611005640065488
-0.32932280445751466
0.04105097612842663
0.19619851469550292
0.046103069087721535
-0.22839794628724938
0.12632823924396472
-0.11921138602376968
0.13244539105399658
0.103942072264072
0.5927807206909282
0.07798640301548405
0.020013376079564275
-0.12943319355148786
-0.12966353783327667
0.15478392692090878
-0.09156637414550933
-0.3768579334502445
-0.11942246710830154
-0.18518024232864927
0.4235683216142703
0.23765630113202307
-0.11033361722943683
0.17195214235003728
-0.09797963785896006
0.5870942540655654
0.31116384442966805
0.007283034244493757
-0.2624417692005216
0.4743576678081644
-0.12147916514057248
0.0560290961325633
-0.1626976148380905
-0.366065399251925
0.2596831225536972
-0.2012094887476826
0.2689959339263071
0.010306939008200058
0.41106094870588944
-0.05000126853318823
-0.4196192365378884
0.16780007538645655
0.036737635659012446
0.0786657600816441
-0.28193518930531186
-0.008158101946651435
0.2622311298808535
-0.3006671712347386
0.26806335876583753
0.5544802014753133
0.047899074546904126
0.000615588382505276
-0.17140114172468926
-0.06127130617685485
0.10520492799676584
-0.356898196304843
0.7345160970976139
-0.28586160591016685
0.27538030205209163
0.13920601391115991
0.13740083401844727
0.22463898214755468
-0.027538369060402322
0.3944981478921402
0.33601531881082153
0.18814219273053492
0.24009394602115933
0.15408279204931583
-0.49920063510513035
-0.06457093942062046
-0.19626173988805687
0.04553596431913686
0.25959328233588597
-0.12589313418988268
-0.1526094761189851
-0.17307159116292525
-0.4966222468169369
0.5338695923610457
-0.29707933503837297
0.3464173730086391
0.0064937230730798936
-0.21950192806270213
-0.0258020761278285
-0.06290042617506848
0.15831857850370518
-0.3186076983136654
0.01903250640106588
0.025903318716566332
0.22185123127906778
-0.09497201222163752
-0.07933524145561822
0.02769852791610692
0.2558504823425486
0.09164334216839058
-0.08719797831624444
-0.2769641200013567
-0.1233723408852087
-0.3664464922489118
0.5775444083290341
0.21921655692235206
0.09989484997359135
0.033746130413814926
-0.020785621304089244
0.3232311855586457
0.3698793762923422
0.07089963442720107
-0.24608150266405596
0.26340896425548593
0.12134368648071554
-0.18605167465961875
0.04298957372573386
-0.09544485051206476
0.06678784599133698
-0.0803766290703555
0.09277220565649588
0.2504876947824502
0.2658395289672473
0.3175530215090977
-0.18099761150051025
0.5145196981829562
-0.24653042060946656
-0.15158946837321374
-0.13130772809479999
0.2392924641858058
-0.008265576363173164
0.11990412820569235
0.1467741875902464
-0.01138856876518728
-0.1414348205653963
0.18845329543288436
-0.1660401424848383
0.47298892551205296
0.45700024694493535
-0.07740336373026696
-0.3116924932951972
0.192634563053311
-0.09309663815186094
0.3183494058676919
-0.04362108964443421
0.2606966856280199
-0.2334217056686295
0.24619871939608012
-0.25652576055638193
-0.07506661740419188
0.44779543670106997
-0.0171227764094773
-0.5250685192277867
0.31696749955498443
0.254896297377786
-0.15130647649764226
-0.42766302039750265
-0.4848493235971193
-0.0014639739270541248
-0.09933701814562908
-0.27910857916792525
0.321503273304247
-0.4054455578519127
-0.021617623445816612
0.014523472174035795
-0.25667220824761383
0.16556616157919746
0.007073924200151256
-0.08717672444745193
-0.16668189213661502
0.1319888161997805
0.6166397753475286
0.174118926502556
-0.198173620279441
0.5475982827226393
-0.24187919951144915
-0.2606112432195795
0.47746576260665063
0.3047542698765487
-0.5988470549443851
-0.08569195920943448
0.05259982410749493
0.022656669772436976
-0.25318103065711106
-0.19313454522240703
-0.2961144236339551
0.02021294377607297
0.02994410648028181
-0.30406301060101165
-0.27697431822351526
0.4679163789658052
0.002748689883394919
0.025469702640856486
0.04081490355737232
0.1886662507204751
0.06583674200012553
-0.31882684654507404
0.07653971963212511
0.2641112671109461
-0.27009121316718415
-0.1739472699656122
0.00834752278025873
0.4243400290704913
0.1816207699206287
0.3077455415288523
0.1546111442262336
-0.0811241978270225
-0.183295891552364
0.13579688755748423
-0.14324055925520576
-0.1445239374988633
-0.5239488022071981
0.4097599785853647
-0.0654988500906495
-0.37434681881567294
-0.2444186087716425
0.22413706018308344
-0.16182973477130697
-0.1217867617952054
-0.24937694431154203
0.3674650597592905
0.33190635730109513
-0.6125828175070228
0.45024406248411447
-0.43916919251092185
0.4181068795203223
0.01367557304680141
0.20673748106865716
-0.1530377531616709
0.10243880607803095
0.0656971840003052
0.32147790883683386
0.14116830540308256
-0.25467446191844906
0.22875025282006384
-0.317090225852077
-0.08061582827406466
0.18241830725857008
-0.09740553427780405
0.07837253125939392
-0.010846802813270176
0.06731975023351863
-0.15378294290243769
0.212434970434181
0.01970782770842884
0.029461207968342434
0.05120479455085771
-0.4625533427987949
0.3804123061651136
0.10251326202476267
0.44012354135994125
-0.17551593258143727
-0.057625260768421144
-0.17408034826655874
-0.011910238828365886
-0.5412274199668712
-0.4038740210291882
-0.3233238870237068
-0.39646449685641544
0.5214413169022755
0.1590578121812905
-0.27702674452458054
-0.4225076023156699
0.05721662547652897
-0.32582441593003114
0.3007639389472439
0.06964430148961699
0.2481354308646562
-0.13743954025202706
0.12935681860811304
-0.021243105031957633
0.24669418334469956
0.0131823874399949
-0.3543485593513338
-0.3075078856990982
0.32428357849059225
-0.24277496628241516
-0.3984091740607993
-0.23926395130952235
0.4055105864169507
0.11021198955197206
0.19461198540815755
0.2502219301300146
-0.10938608167480983
0.06243478379369219
-0.2986115117713479
0.4619896115022836
-0.3362439041451056
0.10796036690844188
-0.12443021801739479
-0.01797264517447884
-0.10743731875690607
-0.29152987556790183
-0.4007187928522043
0.22447500123492467
0.03067283248443481
-0.7188729706938219
0.3359754838215718
-0.3913360363503034
-0.16276867207483603
-0.2583936846981243
0.002491181529851303
-0.8815065419344283
-0.3860527857137915
-0.2970736695972093
-0.36268475210871914
-0.011411190206304824
-0.26230911847129373
-0.5252190627670018
-0.08419414450486455
0.13820202610216542
-0.15562937215546221
0.47508290553003585
0.1523598437336893
-0.21747008460403874
0.11974815862410639
-0.20183995053668863
-0.23635300763311323
0.23534373509638126
-0.04315315047532693
-0.03977493466949666
0.05741024308457768
0.14229569281371227
0.04808580425040521
-0.769648669310927
0.6516039299556037
-0.16303631211811112
0.19868151305262544
-0.5712403734130195
0.031097749128954653
0.23524401580739326
-0.6789045485646122
-0.12257878062422307
-0.03011657843992122
0.3909821873779243
-0.2902183680004663
-0.09876264627640777
-0.3774151911766525
0.002609358404798266
0.24492526169548662
-0.23832899755558426
-0.0715677998606819
-0.19544635868803548
-0.6469769338863927
-0.16176952352740823
0.33620581692091356
0.1512563010905978
-0.14232865321079965
0.5113621076951363
0.5575465519503779
0.1546650866941624
0.30237012497478805
0.22989595709338562
0.28712756204411854
-0.21266035421340387
-0.2298304798309311
-0.4961241513518214
-0.4802427521262918
0.0612152689555351
-0.34533754589917176
0.05557823712485756
-0.50752443593159
-0.2752112351520141
0.3039159194653322
-0.10739768559043743
0.4677706535235428
-0.1981447201483423
-0.055997617448839965
-0.018801011110999806
-0.6463154684619212
-0.3028720535421613
-0.20624175113149287
-0.4255276064804207
0.3798905192091451
-0.03005160393722491
0.3549206674455644
-0.07908633352603711
-0.43891573827034885
0.1134511737072028
-0.32396666670946733
0.41910251420120503
-0.1339974161490436
-0.3170986229207836
0.048399645551665364
0.5001962990221953
0.22056468441585825
0.19845427213105649
0.03715458113660914
-0.20640925192329765
0.6930787492366648
-0.42049909120611156
0.06189795040273416
0.38673446429127883
0.19869853594454615
-0.26031145221161883
0.026167753663518416
0.10896335572066626
-0.04000890498630983
-0.27232399540896746
-0.6153954858595791
0.14376173802553432
0.21856210225463923
0.040580672228068305
-0.16792390669588936
-0.0647194545939807
-0.31974646225327924
0.29540170991385023
0.5244487888299474
-0.20931894010697047
0.14273745275180577
-0.43943795834297117
0.01068008885572613
0.0510253508938917
0.2602789930087869
0.347361701453343
0.15470173615224647
0.2516746640233776
0.24300134405280194
-0.3011003185543716
-0.17191967558626303
-0.3210511142440771
0.27732798467008096
-0.026813115985657852
0.3546103555431958
0.03385745266019339
-0.1014380536335013
-0.6034255754863586
-0.20570733037310004
-0.32132200726052595
0.2061856299725373
0.4037882151200092
-0.11102692697746232
-0.07912530493016492
0.24407626774460978
0.24041285499448273
0.26826811286381413
-0.442448297051848
0.05846534535957216
-0.5849704685103931
0.20144719122434318
-0.3847300274029442
0.15843352845638953
0.2502786629452146
0.35455833298158823
-0.1975028142061854
-0.14751496205032424
-0.4853670425788034
-0.0858166043786298
-0.05605397544425995
0.10592606687574477
0.008203418190250094
-0.06258786342093921
-0.06129356073068453
0.1826500197526453
0.18053238158263654
-0.40554939396789486
-0.07250651119742817
-0.3945818611595091
-0.08700997480890517
-0.008247862611018177
0.2517210905663958
0.25914326727126685
0.14600319354390626
-0.07947748539727875
-0.05968599748166384
0.0467081787491536
0.0074704218237857025
-0.09502692962870711
0.5043220565483998
-0.3621001085221187
-0.12177166072402602
0.13319289885189714
-0.2565855309566727
-0.04798003001354167
-0.10118291654322834
0.05785339607886179
0.19091818228734964
0.11950917462802775
0.1776778242170586
-0.05317544994108269
0.23297770560188433
0.22276098673620018
-0.07014664896966474
-0.05525976222974305
0.9050572974857114
0.11271336281065372
0.11311192430045426
0.5702934403536326
0.15075988047923533
-0.11830791351613852
-0.09536127784578409
-0.1643607669331472
0.06765801440216235
-0.007974469753419502
-0.2916907252065846
0.49300045204445164
-0.04308522122010739
0.004573319092851986
0.40471700905047125
0.07815448920223309
0.41698440470318754
0.20444787433505393
-0.06474471372980872
-0.621400695136063
-0.15568968135433017
0.385576958772286
0.1484463158461794
0.19957643562828276
0.06000419261116648
0.44607491772827335
-0.30465436697918313
-0.1942195836230713
-0.5521884243642794
0.10823610764936423
-0.33963064368750995
0.015146157681082711
0.2459364248507877
0.28035864245186554
0.36322338404054433
0.11297780863193053
-0.2723655267434516
-0.08257748670295116
0.49540208729581614
-0.014712783583571915
-0.21019136184428405
0.25713411060319225
-0.031115880836104462
0.3815932642150407
-0.03608598010648241
0.405806913193477
-0.19120357072754188
-0.3093800153083316
0.37145176892740206
0.009716816878843628
-0.20991685579951277
-0.058403662511797856
-0.008174767459274368
-0.17635084536192816
-0.27869403672428
-0.06097374625683694
-0.1400294346017896
0.125085159377521
0.14794092894382666
0.4604159790451892
0.2776720054435339
-0.1294838129503288
-0.04480796271538319
-0.2242955535348036
0.18217690077574042
-0.4116983318907317
0.07938715758069544
0.0032188569482618197
-0.15361058155833315
-0.015117356107178044
-0.25495730373945125
-0.10307296502014944
-0.033835282275438416
0.2905341378304887
0.2290925856691735
-0.4444343363488159
-0.23647568249850978
0.07492747557205957
-0.03074025674637463
0.31640708661720185
0.17849198732735208
-0.17531629077905203
-0.10680550605843388
-0.3584145608029635
0.24007090028775074
0.07660948098220582
0.2501470743095589
-0.0032100536917800586
-0.14024642733762127
0.1364797282640455
0.18228327727353202
-0.49264390171734834
-0.09175076623037673
0.057338931794456004
0.06069268478247116
0.4751508436403581
0.3223153378602946
0.37555383764476746
-0.2614488814683618
0.06375007432046641
0.1483607406325112
-0.5274229136636464
0.6096030624536211
-0.04511940748243634
-0.10046402943962476
0.016248203767821
0.01610275117301579
-0.010796054944042927
0.017675260439551164
0.18609497693974475
0.10776213788646871
0.19525160875472464
-0.621279832384696
0.3689414126951696
0.5130079942224204
0.03369210417884679
-0.3747176090714204
0.1475267016023859
0.2620214273397722
-0.18691016283885112
0.06079923183846557
0.4613055163536534
0.3405383603962558
-0.07441516508258786
-0.4149652585407943
-0.30941061190994357
-0.08000924383292307
0.4008461140367815
-0.32762736920248514
0.5157671759399046
0.016678285785946625
0.03926834548225165
0.12559271823677395
-0.31752089991573085
0.46403518378645275
-0.22631777420909766
-0.08632243468499065
-0.3320282463662138
0.19492664721944042
0.4126244974840889
-0.10838202637560769
-0.16801229864269426
0.12833633585556242
-0.15073418101414793
-0.18465655272448045
-0.3281539857257594
0.15135595421769418
0.12146156794699729
0.08702247706996552
-0.047615265382503616
-0.054250255691673514
0.6332315195304625
0.4502779632103231
-0.10169130053594348
-0.24040334910993566
0.19131358929635564
0.02407398202237346
-0.05985185524820724
-0.29853348677597524
0.10726894444111497
-0.22162603717140147
-0.28892478607131605
-0.2627102081046854
-0.246652671394932
-0.37496261636716327
-0.094980899854658
-0.048194073371362035
-0.010174792417468404
-0.024277028756726157
-0.3307567553593427
0.0888903758892332
0.1993656769873623
-0.5069350914891827
-0.22563712301038835
-0.13334351745948148
0.3564792402476575
-0.009170344344373433
-0.0684676555746365
0.17572425154032173
0.40237535579490963
0.22993255103170926
-0.0035940731511332233
-0.39914003558203087
0.040263081324691766
0.1994667595590802
-0.24670924331537017
0.087719313370356
-0.10378952131137024
0.5620466944048969
0.19822410306909313
0.2501566400933237
0.1379770950024535
0.12564771702414124
-0.5673341577899002
0.01247423490400679
-0.306108757218397
-0.049578018848792545
0.3370634873513514
-0.21566541088679667
-0.09645405495363386
0.043022606662364564
-0.14824528062455228
0.3107699088977275
0.24579961568783737
0.07787674036823015
0.22766024442702087
-0.10816057453557044
0.20960844504696605
0.20804375930206367
0.14761274334890295
0.07959295014387392
-0.011622561192534615
0.1582500186639592
-0.06273526740101851
0.3900332251715636
-0.4250902324277786
0.06119503321706957
0.5563743032340845
-0.049896331029003455
-0.12630474608530165
0.07557068574136681
0.014496263585511728
-0.022916462609298586
-0.008015137289641197
-0.06421414601431331
0.306848252076845
-0.38111778223948634
0.21929706879988836
-0.13978776046853045
0.30622073565232216
-0.055715261161547146
-0.263423840834685
0.21703635002582036
0.10419008787841008
-0.39405085442368787
-0.030481168983980705
0.3715775111779961
0.25488607827383136
-0.2898705801326253
0.4817974195493705
0.27792725176325006
-0.27678630238325935
-0.24509665285836985
-0.11244445098525555
0.3257106187782926
-0.5000710465558716
-0.14831968196073478
-0.24005734759619857
-0.09475866318159507
-0.4461971736639395
0.42747782011972163
-0.24697118417925215
-0.1533504953776327
0.1254415566465099
0.3550694655019434
0.09743238028781788
0.047988303269327535
-0.0016363522494789375
0.2871942670923952
-0.25538529284570444
-0.10856887192295349
-0.0736803752652077
0.013368899044574271
0.5840941800039676
-0.1286463062564231
-0.20524959597248751
0.30267132615431297
0.068816997798993
-0.22153592401833982
0.08302012435260832
0.6094617329683298
0.564940316668768
0.44794072797016454
-0.2794939681277126
0.2003108942086321
-0.1781113738765786
0.2974578472825073
0.29083596493470665
0.21304119717767128
-0.011798038888172819
-0.6185626839563315
0.07092753789980051
-0.28642262753475917
0.44601854917530115
0.415524257487255
0.5347061670767111
0.11548789830916746
0.688590818769218
0.3387243383457981
-0.04416504127486608
0.08038613996077233
0.08313768634782633
0.06244559874278715
-0.295823442981149
0.46653094132625206
0.10249683259337068
-0.1089764685146388
-0.4156115091373424
0.009258438704313778
-0.3091469129528078
0.2152394859040483
0.07198291410751319
0.4729417211635794
0.23973560165932148
-0.16731658005518135
0.22767198005669334
0.3229694976158886
-0.04739685325188978
0.1407691013036613
-0.3147908177895482
-0.29239479156523307
-0.07751681500505926
-0.11537112455952976
-0.22061655720066733
-0.21203640780566108
-0.33352987660012523
0.17758134733377268
0.2989912205517619
-0.29158997637706346
-0.07961901545745002
-0.148167596819783
-0.4239210284293945
0.04777151055948626
0.2688953136720225
0.005311688116110196
-0.5401537522377327
-0.4896244546425922
-0.18533529019322767
0.392520174484947
-0.0792210649914691
0.29737725106549207
0.15157460216235227
0.01278277571427575
0.37730799021463
0.42040815254417263
-0.3673175238526602
0.4649341585176026
0.30862207845260436
0.20811782445371693
0.4650524904002633
-0.11636299513699143
0.16317443669218873
-0.19088636352525684
0.17386695425359608
-0.0410060526430073
0.032363109936436235
0.2751656583311879
0.10552285238463273
-0.36137186651300235
0.07178548742949879
-0.029977466998316795
0.3376323470126184
-0.004769440480024319
0.05029283012800174
0.1132605081560211
0.15861679136646367
-0.3887909180863321
0.2335764098367896
0.22956036756590384
0.03806709837663708
0.3015692809688915
0.374075949771747
-0.14694970379171587
0.155842727608315
-0.21128276676261307
-0.23575666430728556
-0.02273440657113
0.13698337697399884
-0.5094576765756009
-0.27641939327232373
0.41652688403868554
-0.5931913387353008
0.41963510330955023
0.3595307214271943
0.3349637719445568
-0.10567032027546028
-0.23891068570151888
-0.213757014609234
-0.31076406051696914
0.6265148505578236
-0.048441166641368945
-0.020153475496204196
-0.3293637201045093
0.5835058410657659
-0.20123664984260525
-0.19849386758225512
-0.3257798362153613
-0.11769636337520237
-0.4393943110523615
0.6687321014384031
0.20857614780134295
-0.218024525112925
0.23328948650184886
0.054777263995320055
-0.2323706470292368
0.22352738658957885
-0.09955134973752354
0.10781490107896531
0.26497485564931283
0.2683649000400634
0.053687125032693746
-0.2156274035328361
0.4613186373689949
-0.0025833018674580573
-0.23056211331123494
-0.4969466313607662
-0.10778251896150702
0.20677424990469606
-0.3000632299536933
-0.04883216951134571
-0.11520179413328314
0.09875419607708931
-0.17336589511793074
0.18638580948724617
0.18600333388491883
0.14583698175739906
0.6556560682381735
0.3597485609316418
-0.023935596849572985
-0.23443785140024737
-0.13096301919041775
0.2425458900369841
0.2787047700401138
-0.4893067359640389
0.13579331480008536
0.03496748140421411
0.18884291068687006
0.2672566425420566
0.1679608745353422
0.35524431776432797
0.037488394852055094
-0.1623141120457875
0.12375520692776029
-0.42294679570991967
-0.13715876943066171
-0.28653496233947023
-0.1871990958918754
0.04919449233864487
-0.14454740055808946
0.0017879931351269616
0.15647411422375473
-0.45209025910755907
0.022584582805720045
0.1806493830517349
0.274077536604243
-0.4557192635700712
0.011607091459234354
-0.0826924360719062
0.15867945469009817
-0.009639897334969259
-0.19300665600068184
-0.2823320577631844
0.31021508523560076
-0.43552330813630946
0.2264399558163691
0.3767112406816424
-0.07995121434463172
0.15937439574840964
0.010653700994274333
0.13080873225347844
0.31117010245285737
-0.14489792237110968
-0.33680285559856543
0.07434712195330694
0.48954487864209995
0.33963982725002273
0.06431533565860227
-0.7069185217982094
-0.21648597906834208
0.40549284325963963
0.27058603732140435
0.14242596455710843
-0.09821610827440314
-0.23544361086635646
-0.03809134219781564
-0.012002972427187425
-0.055820818663139
0.15309443492189673
0.036152887638068384
-0.586241983667685
-0.5171873067343351
-0.023057750273925665
0.22248876994886907
0.28088762396088773
0.08905761508307311
0.33967494650211016
-0.008655454580844605
0.21177802558437167
0.13118169923752632
0.013494475353419248
0.31676656282855503
0.14495873207170906
0.27994365476475735
0.5189262311171273
-0.17068471561991236
-0.19987276014676872
-0.3179613538739988
0.27533199744769743
-0.17715224188559006
0.27172655416743957
-0.13089378363413623
-0.05058984456797852
0.11155484787370656
0.011196629581936245
0.531262575785572
-0.10596358797467148
-0.07919385286519894
-0.04842028628888612
-0.5399827701158668
0.14326212256330284
-0.21288820447249596
-0.3766358484718108
-0.16849515345489222
0.01907439590320475
0.7342108734670254
0.24058923434316332
-0.15812461167270894
0.42636747978966183
0.20844172694887395
0.10839615512609993
0.19809388992983976
-0.15548516010757438
0.20782626070706955
0.10854855927206192
0.5041091646609497
-0.080917371960509
-0.06088023721966446
0.5039849470639138
0.2452657345131035
0.17788851126477875
-0.07026991871318203
0.20983473112745765
-0.23167800849866027
-0.39334789361291844
0.02743718349154824
0.34948307270984996
0.18271151019708556
-0.04836207256976728
-0.5238184488661931
0.021492074335025695
0.17160624597919455
0.551886492623321
0.4787614455673435
0.11312101700076811
0.28253525229806253
-0.030677130043035045
-0.06523257233821872
0.1968942978118862
0.1797097517201564
0.2055832285415343
-0.5272156986354272
-0.229405362227384
0.015745486813057926
-0.5193426458299037
-0.19967947783061735
-0.07066925611945271
0.5087773251860588
0.14338154973708458
-0.133056348495384
0.22632083175748713
-0.22678913089320904
-0.18179310597799156
0.23762623331144073
0.08166440189894644
-0.20709207250216843
-0.17008110847091173
0.1654215042106628
-0.12542739633436642
0.2965684154873047
-0.23522529432109499
-0.5319112358949394
-0.32178018851206514
0.02806776663631843
0.5118365876686731
-0.46843076665685557
-0.13676332063579605
-0.24456453510458082
-0.048647399938987146
-0.19116199655176153
-0.2942703169761643
-0.36008657028325447
0.3680961766544958
-0.20645741222403455
-0.5198510761423837
-0.6076155739980087
-0.1616037304032475
0.2854197392980357
-0.34168549698103334
0.1441401216417381
0.17293620751370625
0.028981361312706923
0.753256981936132
0.031442124530379055
0.34470610832524673
0.2059427912684648
0.0075100942544614226
0.2870998227226398
-0.05245721868778503
0.23989052473424943
-0.17393618283917417
0.2356544231173347
0.24174442459654477
0.06852643449450559
-0.2948262421444757
-0.12194719727459721
-0.0935518004322397
0.7040833587035175
0.13764558235665714
0.27148063560883195
-0.2267137853100365
-0.12947217578891876
0.34222555789718584
-0.027691572547065953
-0.14097705403676317
-0.04412019291181342
0.25032462752966433
-0.30206647401033515
0.6514764442610985
-0.48893816213708474
0.29730721697143825
0.1987964028842257
-0.006861690053895728
0.020415741691065692
-0.026291139878632422
0.13139526606204124
0.2714553148226327
-0.10112815883934007
-0.3147397801118201
-0.07809725866001982
0.046598654460301446
0.3364026844417111
-0.05276515819545996
0.240315120016652
0.5343521997363383
-0.27229216134782436
-0.18088762351454687
-0.14452125502110114
-0.4143894779818192
0.12241454701283991
-0.2595379816887554
-0.262734602087262
-0.1611965726106784
0.10378565102976388
0.017236325387241555
-0.013932810023821874
-0.1137177742649498
-0.18310751661938995
0.06378592353068802
-0.004788487188601389
0.23934703911879573
0.12672897560633434
0.14045728630702115
0.2103353821627974
-0.6131574954136877
0.2848779238992593
-0.24056924476527114
0.23800010752736836
-0.2485047926310055
-0.18403115068693862
0.12109827162364561
0.17631387616015717
-0.08688838299467419
-0.174728559833771
0.42248977086862477
0.17970982185614737
0.46370691683945947
0.15802881157484053
-0.0902197799279819
-0.005639237071684846
-0.5014722358053839
-0.4355101263107497
-0.6458837889547288
-0.0363345745057843
-0.5257694078403669
-0.1755931319700883
-0.11436865557153295
-0.13779139771198273
0.1345127430599763
-0.1793416611265979
0.2184160601578249
-0.10728459537400557
-0.036178553415723895
0.2905496559262003
0.16520302213957644
-0.47662885199196314
0.06123442732140323
-0.19471015532672684
-0.1348672839376448
-0.10552972718530679
0.3099663402186252
-0.7151939315253044
0.03353639657365332
0.08076025015280737
-0.0904544251726061
0.20260791906412073
-0.256383697398044
0.18625069145724615
0.07340169512138536
0.6181065554049533
-0.07164188738106253
-0.2768675361635599
0.2613515494425933
-0.1888224374978707
0.07121862598400207
-0.18556696057710112
-0.21076556268917887
-0.37150319098520534
0.021219163490160575
-0.07976800264247225
0.10057269510058331
0.09545272976182761
-0.4074011046332668
0.5074685860364399
-0.46797326250860494
0.18016048818838065
0.6264198345874947
-0.07998495993922594
-0.3511359687356294
0.3534488353774918
-0.14196402519608947
0.11358644004907173
-0.38774784423846
0.16787245310253013
0.1272703184847258
-0.13654659484889864
-0.28361446149953407
0.008984033591924507
-0.07917429389039214
-0.11601589464342991
-0.3042159069500454
-0.24334506125308225
0.05376808512430491
0.06003103631820357
0.1632438018791969
0.16846033236665797
0.09273004009276241
0.44499226688621035
0.2768210020784861
0.14876858785932173
-0.2967281760414802
0.40828907807682574
0.07918885126563817
-0.010243873826729944
0.3512163606381164
-0.19962998067709045
0.05879800776588299
-0.638232204883238
-0.10703947946084222
-0.11090146671760011
0.3751490359102417
0.11364619846425754
0.35157790621390655
-0.5040218883470465
-0.3820476604288487
0.19820036640503713
0.06992424649196531
-0.19471756904783494
0.053545855208916006
0.00043748309203613784
0.23934222789616635
0.020185917487211637
-0.3457893766599216
0.3674341885934202
0.11079426973704234
0.02981978509872591
-0.11259794366611663
-0.4193814935687126
0.07316211287687502
-0.2493037526725666
0.09284927577282853
-0.033305128390483864
-0.31463759970509575
-0.05154556661829114
0.3495311707075759
-0.142226622154798
-0.03453781985532066
-0.06291842986820186
0.4072234504623381
-0.21916950432074322
0.007468704037956039
0.07239486726336136
0.4410431303099324
-0.3875123929913122
0.011128406645394516
0.18476161081116885
0.04807565782582524
-0.06527725429052954
-0.09636559237511062
-0.4712495157918058
-0.05623299832058679
0.037379966188511235
0.10469259545591592
0.17410124551299339
0.22005569431073627
-0.07277869151747508
0.1460692440880108
0.4331027472165922
0.39003484686814593
0.28705934448248244
-0.5507255416689963
-0.016645798181627296
0.02421486234087425
0.23196753424115757
0.6292135071901998
-0.44836066060459623
0.15945216609694515
0.3926802588216138
0.6577738000892767
-0.3101722544702254
-0.2963193864399944
-0.04162543629053483
-0.021761188993220614
0.3212163250527506
-0.009694777532585627
0.29416246702976945
0.2765038944809307
-0.19414142444153218
0.18377017216630026
0.020854416038603506
0.254812290944798
0.2247076038518797
0.08319379748993455
-0.05050385310460765
-0.38511052594677486
-0.5276448414198833
0.201567009195724
0.15474654344064107
0.037615877751524716
0.17176303029416445
-0.10019231679034292
0.05354684154550565
-0.3571956299927983
-0.2827764131568718
-0.2860670750847206
0.43398901317910543
-0.009852466673864767
-0.16086218827216342
-0.016506727440379048
0.06382079699795191
0.3996869928821092
-0.615969118631027
-0.1665685420823443
0.20289766002365475
-0.4390332758427534
0.20640576787838186
-0.16903426920441728
-0.04111500110587628
0.12460172361933508
0.21966985425583416
0.33217475725562906
-0.11699958202530465
-0.33488341861499676
-0.016505168908907294
-0.0391506062082263
-0.44973401344352854
-0.02474090269685991
0.2819807650231508
-0.21073540415198375
-0.01274427838317496
-0.38840163862505733
-0.1393956292191536
-0.25402877849934286
-0.12539324998238602
0.19976379481035983
-0.18328396943690045
0.06094729692202796
-0.18186626857829755
-0.07962959481033666
0.041351438010080455
0.01351850719427389
0.39064200388132186
-0.05155029328603395
-0.06626883516870613
-0.7322983721959603
-0.06369884005243855
0.10102776985216243
