weights_cmbo_c4
-0.00017423898253577654
0.000115401213300473
0.00021976963981562434
-0.00015912559633021958
0.00011150973802220641
-7.755827886770965e-05
-0.00018643852783382
-0.000168217492914989
-0.00026796600099958465
6.856372984237249e-06
7.713205173376692e-06
5.962837782815511e-06
-0.00025729636001945377
-7.893251857682135e-05
-2.335685559843257e-05
-7.755250439897849e-07
-1.090094266171104e-05
-0.00023865070603804986
-1.8198361243393245e-05
5.298523466619199e-05
-0.00016764714049618962
-0.00016095232702501215
0.00010581003653143739
0.0002720364015934045
3.976918995635543e-05
-3.883078359849155e-06
-5.496690418246794e-05
9.685803870814216e-05
0.0003282819319798252
-0.00010122952713657467
4.685451907328304e-05
9.180753926839643e-05
0.0001716127968482206
4.651683624919429e-05
-5.2561060881816936e-05
1.752243594345717e-05
0.00026046906978084065
0.00015628396252820933
-5.105243718897073e-05
0.00021439145117496198
-0.0003079167806312819
-0.0002976270543378685
1.8416995163555472e-05
-4.753110497031742e-05
5.039001251006097e-06
0.00031277600334845635
-0.00013299519863564839
4.854758974851712e-05
0.0003280465334834994
-0.00016692700647179102
-1.1711017927570719e-05
-9.605132291724387e-05
-8.266071110315256e-05
-0.00017587782222911128
1.72977202015305e-05
-0.00023408448659573331
-0.0001336584148894684
0.00010688061929817992
0.0003626192258514521
0.00018132263193082888
0.00021977908929043176
-0.0001413265054911606
-0.00011127251109023838
-0.00029822314601716886
2.8716737310263984e-05
0.00016595754283194953
-7.572128805793871e-05
4.311503473672697e-05
-0.00010917215893232806
0.00018045452079715516
-0.00016981518124701517
-6.6713637126915675e-06
-0.00022516714092873837
-3.78294630649454e-05
6.860108375157308e-05
-0.0002387530547133845
-6.202216118006524e-05
-1.8594587448811433e-05
0.000270227825812067
9.997108176983367e-05
-5.45584340471289e-06
-0.00021342719004371015
-6.660735388325737e-05
-9.362634353602177e-05
3.082791598933312e-05
-0.0003399516715233969
-0.00010793846208255546
-4.8013857109068143e-05
-7.769394113402454e-05
-0.00023040281769533895
4.674690623810097e-05
-0.0001427030402578519
-0.0003222220741210243
0.00010453425788637051
-0.00023558593956977709
-0.00013263598280235204
-1.8769655310439575e-05
1.872581411809662e-05
0.00016932160901138023
3.7190329429177054e-05
-5.1393664471451436e-06
-0.00020115601214288446
8.887739155685696e-05
-0.00010781104010324069
-0.00017280428790915985
0.000135277045521766
-0.00013197408554834757
0.00010739314339890077
-0.0003517104371159468
0.00013467629932787143
7.419830995061084e-05
9.110235366673341e-05
-0.00022049409097235148
-9.351653257967449e-06
0.00015972860499724584
-0.0001375892705245934
-7.665919024931194e-06
4.131180627115026e-05
-1.7509943892099282e-05
-2.52647319184531e-05
0.00011030077883142857
-0.00024814144508281865
-0.0002263107537840184
3.1505880894961844e-05
-0.00015695431132995037
-0.00015859302348000335
-2.3766366377213828e-05
0.0001342000238917928
-2.1071440188243544e-05
-0.0002933161033536832
7.893421159448869e-05
0.0002414210302080424
-0.00013976721845957644
5.158996856395066e-05
8.424851537367064e-05
0.00020992788769008935
8.954756851413303e-05
-0.00017807272885720667
8.562573431641388e-05
-2.744750365661562e-05
4.331339395429576e-05
0.0001516226090441278
0.00011037127832105749
-8.145435060543161e-06
0.00035715465183469304
0.00010486563237141906
-0.00015788684986615424
5.7316525820968555e-06
0.00023676208127680314
-0.0002562587712421994
7.060584130468994e-05
-8.000993106180651e-05
-6.955444170644158e-05
0.00012448677593848774
0.00015781145607879764
0.0002007358614112518
0.00012754454762200124
0.00020909933540243713
-0.00014427063156950215
-6.277085007499566e-05
-0.00024539013558963236
-0.0002038436943889944
-6.329049152569176e-05
-2.636041322117423e-05
-9.244440831919376e-05
-0.0004102739278404175
-1.5225269564199757e-05
0.00014414334214129192
0.00028089567895131414
-1.1499708608677117e-05
-3.2369787174906856e-05
-0.00026552059725289844
0.0002554707293706761
7.428322102766413e-05
-6.548677222626788e-05
0.00023657107827516156
3.16868056497162e-05
-0.00015416966946733317
0.00022694288166645303
4.008365408771202e-05
0.0002847612782896987
-3.663268759251404e-05
3.008523002804758e-05
5.701195142767485e-05
-0.0002033005069657034
0.00020506327530839133
3.079946890197677e-05
0.00020459036826945558
0.00010573719466364601
-9.743564869294702e-06
8.164824381260244e-06
-0.00022991853020999198
0.0005067564216696346
1.0738538510421378e-05
-0.00011552961661223001
-0.00018029422274422056
0.00019593755148235775
-2.6874192464560267e-05
-0.00014621877441936372
0.00040631672404197616
-0.00011344756020888681
8.861530601427566e-05
-6.70913287946364e-05
-8.081046205106226e-06
-0.00013251739339789254
-4.8214872503867335e-05
6.224704712215969e-05
4.065365349534321e-06
-7.625353044649649e-05
-0.00010170768588342159
0.00013279329365194548
-5.403295156506534e-05
-7.623947130504261e-05
-4.3774413087673705e-05
0.00012214985387301513
0.00010952191041043608
-2.4332789325970616e-05
9.062064345206945e-05
-0.00010287350120300923
0.00013913077689407528
0.0001991202345990609
-6.171658256723846e-05
5.1079766871757784e-05
-5.9274150479972e-05
-0.0001381980265247564
0.00017890271098599348
0.00018315875896068214
0.0003105259934978741
-1.2737459878412917e-05
0.0001050169203958615
-2.0714055975194757e-05
-0.00013496778966687765
0.00025315028286022185
5.649718422678193e-05
-0.0001742440557475922
-4.927848347560678e-05
0.0002747771022421033
-0.00011197295091249023
0.00027559595207134413
-9.921365682287654e-05
-0.00023272384859135387
-0.00029531157181667786
-3.8445258504420156e-05
-0.00029412187276974124
0.00014052279737319668
0.00024131347043460704
0.0002607236038696791
0.0002403787768934807
-0.0004306013185990475
0.00025047367918991245
0.00017834438159703927
-5.27567806751812e-05
0.0002145843239757204
3.3136002261928576e-05
-7.141040052671453e-05
-0.00019450365780996452
-0.0002739395343946815
0.00035924743658463936
0.00038786957001736246
-0.00023667853784641266
0.0001270319824043031
-7.688086845778822e-05
-0.00011862106009433057
-0.00014384735479589582
2.584659669976893e-05
-0.00023855857737521303
-0.0002089024894184465
-0.00026117625795001525
-6.534050944135139e-05
0.000203841888538429
-0.00013832580584157157
-0.00021108241905361884
0.00017852718800239888
-0.00015334271286829057
-0.0003341742291465996
-5.816457500922509e-05
0.0001976178877733759
6.302533071281664e-05
-0.00023291906426070884
0.00012488143937360168
-0.0001344549722506105
6.690127437489713e-06
-0.0003404399138077654
-0.00023500447103485514
0.00012030069529314531
4.601037828913552e-05
9.167811080991822e-05
3.240640389136314e-05
-9.630835244074243e-05
-0.00010086275911088857
-6.508401062373026e-05
-0.0002939035333082137
-0.00012985480863305716
-1.656228056954743e-05
5.9266550031583733e-05
-2.5732990744234895e-07
0.0002156717776352435
-0.00026555938369064003
-3.4052520257996984e-06
4.552276102701895e-05
0.00010300400724687136
0.00016031174044175945
-1.1234996932903581e-05
0.0001896237702344263
-8.068564859747426e-05
0.0003878055513077155
0.00013347061061209898
0.000239328096458247
-0.00012620896683766383
3.2561532838932294e-05
-4.941139548398298e-05
-3.7784568728889676e-05
-2.3659359167437818e-05
-0.00011986474822010007
0.00013314575872292632
5.8222812407882184e-05
-0.0002284165907607733
0.00025994284550336956
0.0001227724056131447
0.0001269978621638048
0.0002882366951667329
-0.00019871178898035505
-0.00020568762566032942
6.595040921451544e-05
-2.7873028357085657e-05
2.3867976072378084e-06
0.0003326296735373502
4.133378512448405e-05
0.00015261912350364226
4.657003163562708e-06
0.00021369335862325746
0.0001382547280504306
-1.9766538946457866e-05
2.0830417494874276e-05
3.882047135717655e-05
-0.00021265598099944383
-0.00021135437849197737
9.747069658838647e-05
8.352112605933099e-05
4.0189434889034036e-05
-0.00010687428736208708
0.00036471338804358784
-0.00034051105604919804
-0.00016272764179767443
0.00014301888159436364
5.264755071855499e-05
9.775528588755257e-05
-0.00033354068336170816
-7.905405781457673e-05
4.614846801059518e-05
-7.530432868625974e-05
-0.0003017402770800824
0.00022284749349754706
0.00021042085916125205
0.00029955936754242073
9.12031639135349e-05
-0.00019490660982105225
-0.00010997601288128769
7.286587891513734e-05
0.00027946912264579263
0.0002118355521033876
-5.134166392340905e-05
0.00014928684714352413
0.00014409071732487296
2.0271196184502786e-05
-3.6579261551493845e-05
-0.0003852627969904685
7.041865481525439e-05
-5.1060229868712656e-05
0.00013294628301639444
8.510915174722018e-05
-3.141124532241561e-05
-0.00012437351859568045
5.572847161279093e-06
4.4080895994582346e-05
0.0002133305245708073
-5.419118544314975e-05
0.0001890169908891867
1.6681496395125198e-05
-0.0001253848335432731
-0.00013076493869371635
-0.0001370217672634551
7.3141619055190884e-06
-3.92928848450309e-05
-2.3165289526760906e-05
8.296730594081423e-05
0.00014631461227341386
-0.0002361257136888517
0.0003532908322371643
0.00025758162192489494
2.8645289364783773e-05
-0.00025143106729378885
-0.00013424107719925627
-0.00014877012348741845
-0.00022154884828144505
-0.00018959799101199678
4.1017968793901896e-05
0.00027041230636231067
-0.00017499622631863044
-0.0003001202697916477
-8.23530503948979e-05
7.165733007356623e-05
4.137714288457594e-05
0.00047494397926051076
-0.00019916713714507287
0.00016258169379245948
-2.6482361554582638e-05
8.32933429086849e-06
-0.00023289266007641763
0.00012844990423891195
-0.00022650456017023101
-0.00011012870710753679
-0.00010102959600345645
-0.00013019798965280716
-0.0001577827926057289
0.0001492388325821439
0.00013660256028270423
5.796153246406415e-06
-6.230897552820618e-05
0.0002722192770053904
0.0001292175737797775
-7.195215059963235e-05
0.0001106290505703144
-8.668990514800343e-05
5.6180729053601954e-05
0.0002554463299955988
3.9575407526927636e-05
-7.70178629079737e-05
-0.00011569144721793071
-7.987830560909846e-06
0.00013378668090979732
0.00015874263954969192
6.749682476541271e-05
0.00012981957136992456
-3.680116375417827e-05
-0.00023646326739580855
0.0001982015433354629
-0.00023292941838277912
0.0001287755407323874
-7.903743076902212e-05
-8.067196818991981e-05
0.0004206680437936342
-5.307699150079797e-05
4.43803564545422e-05
8.73510817407109e-06
-0.00021944108171827767
5.159894134367516e-05
5.1528687140944254e-05
-0.00018179462769126275
-1.9860487214919217e-05
3.976168862115651e-05
-5.42094538320708e-05
9.391288680970833e-05
0.0002953737563607909
-4.6266843637502576e-05
0.0001803105771553433
-0.00011679629930306588
-0.00014083241194125064
-7.080975968343253e-05
-9.854436583434696e-05
-9.99774301840939e-05
-0.0005054595116049046
-0.00014015189946477608
-0.00012543657882746825
0.0002283671422062883
9.327260612453664e-05
-0.0002315179198859996
0.00014063126178084947
-2.6223185848922938e-05
-5.902232429275983e-05
0.00013841577607040113
-3.707250053469657e-05
0.00035346261231805566
-0.00023868685232178647
0.0001122069932401911
-0.0001740154602701113
-0.00010184511923369129
0.0002516194345274266
-2.3313214953972335e-05
0.00018953022526998017
-4.400208097229914e-05
0.00016331757080740978
-0.00019061043122882657
0.00012565849934086145
-0.000193872843554495
-0.00020465524505145627
-0.0002508149721467275
0.0002470951750424213
0.0001805481559724902
5.8346169963144795e-05
0.00015943933424818375
-8.212726555601238e-05
-0.00020943712293445432
-0.00022732277679988485
0.0004307893390050289
0.0001526332816548921
1.4881876034162553e-05
-5.802728655051298e-05
-0.0003184166938686581
-1.4611699508292774e-06
0.0002028838169185449
-9.65530534445342e-05
1.2957183743409512e-05
-0.00032527876518586603
0.0003746741490274229
-0.0001020044455169346
1.0110683972122788e-05
2.918449563720021e-05
0.0002338924360087429
-8.690489993922567e-05
-5.951419006023322e-05
3.666066889729157e-05
0.00044942639760489525
0.0002270179720292748
-0.00033048690141567876
0.00012958007748201553
-4.7356336017216525e-05
9.437718013465071e-05
-0.00021194873903529728
0.0003435108191579431
7.720025998229904e-05
-2.959938969239195e-05
0.00021307954961327907
-0.00014763522282162407
-6.868651873904467e-05
-0.00011068142026091796
-0.00015294610806729206
2.5198068201264587e-05
-7.224279354310707e-05
-0.00010438881200525076
-0.00011526371500605322
-0.0001741709581398028
0.00022844435602250053
-0.00023996161134784161
-2.8483766999762187e-05
-0.00017639198383151376
-0.00010594309758757719
0.00020111707610076868
-1.7176858961830994e-05
0.00013423355240243465
-9.459949407342137e-05
-5.665203675543671e-05
0.00016991660472571454
0.00015362130246648016
0.0001643485496321106
6.245356049988611e-05
0.00011703802014832054
-1.9381920875528914e-05
0.00020388223942241187
-0.0001069685700446407
-0.00012857107005956442
0.00017107947080706627
-9.993700993853882e-05
8.89891790608377e-05
0.00020410843466233067
0.0003618641263729382
1.5808357944817587e-05
-0.000189819319946516
0.00011468436283372516
3.277593564199362e-05
-0.00017360701401780853
0.00026401037424792986
7.981552372195925e-05
-0.00022194224417692218
8.753209300707999e-05
-6.340124957640896e-05
-0.0002454680775859328
-0.00024155788042706328
-1.2581500022115683e-05
2.400397272016982e-05
7.138922844893596e-05
2.334882652980062e-05
-0.0001337517490821445
-8.403206762855541e-05
-4.557400704183105e-05
0.00010503172800654352
-0.00019331952251332746
1.1646400183211921e-05
-0.00017571402654600223
-2.810471641009137e-05
-0.00018556421102048794
-0.00010928814628969985
3.8045888650388484e-05
-0.0001308430961485192
-2.1379584526369252e-05
-0.00017279382310337162
-5.3976563159741896e-05
-0.00012725409083083448
0.00013791876490263172
-7.553484820485004e-05
5.20691096591106e-05
3.9477189072043946e-05
-2.717775907546392e-05
-0.0003840776574613704
-0.00034928030409241953
0.0003053963001706142
4.4714105580332155e-05
-5.604473587946441e-05
0.00013131068736854288
2.7499196924840433e-05
-0.00046039397093721834
-0.00024990062269244687
-2.552177524097643e-05
7.798740742820803e-05
-9.269657629927082e-05
-0.00010556875740377197
5.862891156029154e-06
0.000161682161074773
1.0943971985099236e-05
2.51360753482377e-05
-9.649970639436034e-05
7.407240422957335e-05
0.0003576275030755866
0.0001427139295771706
-9.980795324563637e-05
-5.461759057088608e-05
-0.00011957960077169297
2.2649840867664983e-05
1.5637873239575254e-05
-7.957815104318596e-05
-1.520410440376055e-05
-2.6570569768467102e-05
-2.9267686750455378e-05
4.0581956052379316e-05
-2.1386552179394844e-05
0.00018986358254452333
-3.499895182273003e-05
-0.00025723902266849917
0.00027163975335259754
9.518024403852898e-05
-6.534553375669889e-05
0.00022410518424636445
0.00023112819168707297
0.00011473206349723336
0.00027519241339244674
-0.000252827740364463
-0.00025350994931339917
0.00014330681063654262
0.0001679972203738839
-0.00016843722641032906
0.0003864657146774541
-0.00010866837703819671
-0.00012951288681974042
0.00033123549026417754
0.00014312304182400118
8.23103297990351e-05
-6.262374986594069e-05
-5.8590249456044776e-05
-3.8964199231153556e-05
-0.00011641263829465825
-6.276849197510184e-05
0.0004159429852840885
-0.00026927965307904574
0.00023319919590099913
8.729417576078233e-05
0.000256806366359541
-2.9413824233884216e-05
0.00013375976385811416
7.44068983538972e-05
-0.0001882648688753518
-2.6248002599607453e-05
-6.816578272454622e-05
2.9245368426830807e-05
-0.00020733205554016664
-5.7631325945975415e-05
0.0001887102621018156
-3.9792505694428526e-05
-8.246814292444505e-05
0.0002012383378458392
4.30598087919867e-05
-0.00011742899461420134
-4.5456135030798954e-05
-6.744996278481522e-05
-1.2348536033154832e-05
-0.00010261031876715614
-0.00013250143830840138
2.72516631054924e-05
0.0001257368146171439
-7.901171840440455e-05
-8.764866778721315e-05
0.00016505555635056045
0.00021594053941531344
-0.00018445815386159274
-4.71844340276576e-05
0.00038309388334181244
-0.00020514136205908664
-0.00016800756823953338
-1.1515248068512459e-05
1.4156304335913102e-05
-5.369856035014434e-05
6.0324008585585687e-05
-0.00013190470447468913
5.605064524702132e-05
6.584762182800804e-05
-8.779180281989173e-09
5.7757391637120144e-05
7.369898510850281e-05
-0.0003073772151346112
0.00012148634914875054
9.229243985651959e-05
1.926655470553647e-05
9.545459010545258e-05
-2.5732169948809522e-05
-0.00029388790291997517
-0.00021785480812247662
0.00017294422806998671
-0.000166440130266426
-0.0001709170803095478
-0.00028826922856666924
-8.7263737450561e-05
0.00017450889451112156
0.0003563198655998988
0.00017394365164931206
-4.399127147797932e-05
-2.0161516108794782e-05
0.00018884791841787324
-7.903301705918551e-06
0.00011247242434976755
-0.0002649533807741407
-0.00010266179725363559
-5.3289694418413496e-05
-0.00013348764105448123
7.325225448168877e-05
0.00013870505926742867
-0.0002760046953566014
-5.9290445726504225e-05
4.897146713477477e-05
-7.801096926583896e-05
-0.00012305111261182703
-0.0003910325348189048
9.91141475009723e-06
0.00013383716818099426
0.00017392366924551226
0.00024132920604277755
0.00012017891244212369
-4.284856434143972e-05
3.9782772631957985e-05
0.00020768724407942805
0.00010964781998373651
4.741272831925718e-06
0.00014057668223062706
-6.7490044426069956e-06
-0.00021436317363620767
-5.0607622447551426e-05
7.171000811046854e-05
-2.8747697440776218e-05
-0.00016550880253651522
-0.00010588127662479887
-7.349492646259282e-06
-0.00036507813638299823
-2.7112967716738825e-06
4.373689229960099e-05
0.00010590498108242607
0.00035374528889357365
-7.031598863434078e-05
-0.00013188994519678157
-7.517604087251738e-05
0.00010187931706281068
0.00021868213307094396
5.261050522998033e-05
0.00031843615743220953
-8.769246523275695e-05
-4.45817411162381e-06
2.9873234226058965e-05
-3.903796069310512e-05
3.204070055506961e-05
0.00015882702994624652
-3.678773171938838e-05
3.325553497299959e-05
8.672917479836804e-05
-2.1704467169515733e-05
2.0962399181254844e-05
-0.00012692347298638094
-0.0002179746776312693
0.00016036128166882607
-6.122199471088831e-05
0.00010460382206045682
0.00029674167730520123
-0.000170379077018778
2.5258664123416045e-05
-6.121267463287587e-05
-5.9346726788263074e-05
-5.611852748605496e-05
0.00016742450864781015
-0.0001433354550196561
-0.00015434287884014844
-0.00017504692791323314
-0.00017366920283403472
8.391203685257296e-06
0.0001415704204092755
0.00012406867557610666
3.421838190722451e-05
9.672727260767223e-05
0.0002757033514572851
-6.842462081811493e-05
-0.00013922061218837347
-0.00030144960648610425
2.5870110331591565e-05
0.0002290712177739873
7.42989206517727e-05
-0.0001026268097474333
0.0003400767935010523
-0.0002915278773859614
0.0002672094046231583
3.741738874593736e-05
6.893718779171918e-05
0.00018844847627074406
1.0411012899818859e-06
0.0002713853539831509
-5.401056000084881e-05
0.00015625217632262667
-0.00013728304470908814
-3.6648342054915214e-05
0.00015071929338542295
-0.0001275234199920315
-7.837278207351713e-05
0.000190229433994509
-0.000274496380007822
0.0001915658323764854
-4.4149888724255247e-05
3.194089142853705e-05
7.530948355492514e-05
0.00032647082075106724
-0.000187131191843918
-0.00017586300673368114
-5.1945119826971645e-06
-2.5544117362139448e-05
-4.7475534657038344e-05
-2.119844526972473e-05
-0.00039074520708075756
5.370265704401935e-06
-0.00029097314785149253
0.0001490183880769313
-1.4917253871593942e-05
-0.00020857531129829103
5.6726520441963016e-05
3.594980918431204e-06
0.0003279431932578844
-9.426554602732227e-05
-6.622915673706676e-05
-0.00011709647596847404
8.634272937423899e-05
0.00015387649431165755
5.076045500215306e-05
0.0001974686754305298
8.377649769409215e-05
-5.717154750330425e-05
-0.00034623612984727056
0.0004651527270075114
-1.8903496864901387e-05
-2.1955514915249357e-05
0.0002475340459985939
7.958584870630557e-05
-0.0002865796033879048
0.0003208751308618289
2.542320606203928e-05
4.3925136818984734e-05
-0.0001692566654511611
-4.2470641319024e-05
0.00020129629029588028
-0.00022132234198946125
-0.00021266563499522582
8.37628940148795e-05
0.0002745890559873533
-0.00012912682224846503
-7.301722923582464e-05
-6.061133219081327e-05
7.642896536696297e-05
-6.553424305672553e-06
0.00032924308717788156
0.0003935749322794886
8.636282471119255e-05
1.6505909798674124e-05
5.09728462520751e-05
-0.00034363034783961035
6.063798147870556e-05
0.00017070197031274548
0.0001296503000697665
0.00013273298006767127
0.00011879718168737033
0.00010444882331306604
0.00016998121958089712
-6.504326102054851e-05
0.00018460893981932645
-0.0001122084268975925
-0.000376765383793919
0.00018132815818616002
4.483538640342173e-05
3.180512840195831e-05
0.0001481765191781712
6.906400792144937e-05
-0.00013986693590167896
0.00016301990879972274
0.00020330039914316528
-0.000205572599800013
-4.773682979311917e-05
0.0002338526343649942
-0.0001703744751021186
-0.00011444977919168141
-0.0003339094140099358
-0.00028682327842500675
2.1243661938713447e-05
-0.0001445533134903326
1.8599721070050074e-05
3.319377537726789e-05
3.834873507845154e-05
-0.00011925943465669272
-4.474547604797077e-05
-0.00020085822458708156
-9.097718200136621e-05
-0.0001408872915939468
-9.983002932673238e-05
0.00016018917083083196
-7.78929241882867e-05
0.00010044608995526866
0.00012330551783456623
-9.044373603718133e-05
9.475633032740081e-05
-0.00024920242378242356
0.00010875591239978391
-7.548683443531737e-05
-0.00018122397368710926
0.0001586379434681175
0.00014485639417683945
0.00020358347408044948
-9.15521601550416e-05
-0.00014121827318281193
0.00015450870889757118
-0.00015546782626509653
-0.0001242416702392001
1.6980114577791208e-05
0.00013751616547546353
0.00014914785384181802
2.0184858595075464e-05
4.285930801856416e-05
0.0001270173069529274
0.0002720388075243682
-0.00015839049153921458
-0.00026906626872799655
6.772722157028367e-05
7.939076237659996e-05
0.000232902601486054
-0.0001058590903578924
-0.00020730823580414372
0.00013651296661556259
-0.00012170587095238714
0.0001890288247580845
-4.742318426087901e-05
-0.000239442374091098
2.0100649390709156e-05
-2.6645292858122603e-05
0.00015226202562925657
-0.0001126846856460185
-0.0002830302884742538
-0.00019688175796137716
-0.00010701908733997064
-2.902749718184055e-05
-2.1116045471360207e-05
-4.428097896986908e-05
-0.00011109513252237093
-5.4107594938868206e-05
7.551259304779479e-08
0.0002797476308534309
-2.0205122711652096e-05
-6.534476913543922e-05
0.00011069575340669266
-9.07633754023916e-06
-5.292475207501548e-05
-0.0002237794321579125
1.4154430272381933e-05
2.568450771435233e-05
3.3701801011605e-05
0.00019441267058414272
-0.00027473403651289547
9.452900387761702e-05
-1.6660410893504747e-05
0.00021133828682700552
4.801295708694311e-05
-0.00017050798708519624
5.050281713267835e-06
-1.882473781742248e-05
9.428147000288362e-05
-8.249822349409882e-05
0.00021457452398910534
-6.132075780136284e-05
-5.520339388849739e-05
-0.0001264246234725896
-6.347487310527594e-05
-0.00010445260409553543
0.00010330591115096677
-0.00016722277105012413
0.0003302118481979685
0.00013441649858284056
-0.0003630561899230538
0.00043069878670257345
7.438111855505819e-05
-6.967833387896051e-05
-0.00011995658686581286
0.0002222700961392336
0.0003413228519638169
-2.019456935261323e-05
0.0005088201595847202
0.0003854331213446249
0.0003588833326237329
0.00018652427350968973
6.480880856773255e-05
5.0253355287711254e-05
0.00023612955957528388
0.00019169678933350954
-0.000189336707469288
0.00019346161511221596
-8.897394478442573e-06
-0.0003024947978154409
-0.0001388913718689867
0.0002080402795979895
0.00028011197963274834
-4.9791004601815746e-05
0.0002462882051423418
2.360636464320366e-05
8.433968828029953e-05
-0.0001347637564430902
-9.166376966212736e-05
0.00022334200561595902
6.904466056122472e-05
-0.000276709369603418
-4.2023429226488554e-05
0.00012936017912485034
-4.715668121776515e-05
0.0001284319695051173
-0.00019274182324595287
-0.0003443947772667847
0.000194195579107134
1.132537215690843e-05
-0.00011352441165755049
-5.056740686312819e-06
0.00014863290976117495
-0.000242199931856106
-0.00018366655256807487
-0.00018323883115517546
8.38279733285549e-05
0.00044407629991096516
0.00020638574245530954
-1.3066945376790648e-05
-0.00032087130764374736
0.000166664572052518
0.0003294023665986753
-0.0001607960294483459
1.7008755913828714e-05
-9.223531416718848e-05
7.4123371672376e-05
5.228649386676467e-05
-0.0001711128138800692
-0.00010419938925840254
-0.0002540501018353408
5.797556429239657e-05
-0.0002438413746154039
0.00014401485491623194
-0.00011460196293596296
-5.38801745214496e-05
-4.299142797950383e-05
0.00018295964358936307
8.137586092330273e-05
9.957484037454187e-05
0.00033064626202249683
-0.00021533684752911186
-0.0003908820257393726
0.00023409178820525502
-9.694330335639516e-06
0.0002576384736140706
-7.861899049348553e-05
-0.00017845207138108963
0.0003117780089568076
-0.00015545901265327254
0.00010036973080487537
-2.6865762729654043e-06
0.00013120803781484916
0.0003287881224869231
7.635387594677877e-05
3.3319060200870124e-05
-0.00011258941724917814
-0.00026744634340358206
0.00019249524325518796
0.00021773340869459093
0.00021143522186101304
-2.5649243348015954e-05
-0.00013927842358530315
5.7224535599710395e-05
0.00035390074262022213
-6.330763978511755e-06
-4.7978730093317576e-05
-0.0002923975195407708
4.095929370607759e-05
9.064374137032743e-05
-3.123265964073118e-05
-0.000110834298431828
1.1158334209718035e-06
-0.0001512133830357735
-6.311667999085804e-05
-0.0002162727126517105
8.901747166762331e-05
-0.0003629130321360989
-0.00034320941992626496
-8.392452426035681e-05
-0.0001409210146801198
2.1502373651052744e-05
0.00015516459746493832
0.00016282829873140128
4.765770164418903e-05
4.6662136776390874e-05
-0.0001755029766273925
7.544938957119802e-05
6.956491268600841e-05
-6.52662378817639e-06
-7.878623431675292e-05
-0.00034788968935351474
-3.377049131502863e-05
1.4480218820249511e-05
-0.00022622383917293254
-0.00014106920494002604
-2.576962447446884e-05
-1.6577038397920784e-06
-1.680320756947464e-05
-0.00011041593012255843
-0.00018763804031319347
9.630824069527107e-05
6.924566134676935e-05
-8.504721188362175e-05
-2.5891218579999546e-05
2.51523944335813e-05
-5.688698685324769e-05
-9.764526116668803e-05
-0.00010091494961449164
-3.2771403351851095e-06
6.268080709373205e-05
-7.62120913391602e-05
0.000168640044267625
0.00012385026897594292
-3.663925888014861e-05
-0.00030094662425234926
9.614742230109649e-05
9.973155302184679e-05
-0.00019048978475897556
0.00022317788020641646
-8.43420152831621e-05
1.019518530541405e-05
0.00023665646172218497
-0.00028307882504207733
0.00016168908835563755
0.00020764865911417727
0.0002487232683035485
1.553322706932026e-05
0.0002980824488262965
-0.0001153790844678328
-0.0002252116202502046
0.00010872496555124794
-1.1346164820404786e-05
-0.00015807592412130103
0.00014858617322142373
5.7519129708816004e-05
-9.190302195921012e-05
9.613615200975895e-05
-0.0001516713659806988
0.00022715564342160388
-0.0003351454887694529
0.0002192790389630476
-0.00019845725226291515
-7.72315943103235e-05
-0.0003337624393236809
3.7369644974329e-05
-0.00017293344779920305
0.00020818320027062964
0.00014641207136718395
0.00016809099458709524
-0.0002223581305811319
-0.00022510709354640868
8.71617596117548e-06
8.440480497405515e-05
-3.5570642993036575e-05
0.0002670862525288794
-0.0001215022758037432
-0.00010677532082470069
-7.689127547755438e-05
5.0739175430565735e-05
0.0001793224445047615
0.00036288430240400023
0.00027979341165812216
-7.650610242959073e-05
-5.250158513860703e-05
-5.3312589915625416e-05
-1.891835185025396e-05
0.0001271932675520298
0.00024545952304482567
-5.3575802674540036e-05
1.806131070964631e-05
-0.0002636397455097454
-0.00012435748421273167
6.598572823507668e-05
0.00012739953911735367
7.546032167651442e-05
0.000279606980484995
-5.3329390635892656e-05
0.00027516536159048375
-0.0001519397927174235
0.00016629102051557911
0.00015835499164483578
2.610436637308577e-05
-1.3112454032129999e-05
-1.599611559227909e-05
-0.00017171807353220437
6.760684219423491e-05
0.00011694061393502141
4.781634987360581e-05
-0.00011759362212024932
-0.00019675966505706773
0.00011491625921583491
-8.103040532931429e-05
0.0002534637339121028
-0.00011819883709887626
0.00033159314298491724
0.0001589377720783599
-4.4057889354910675e-05
-9.434855916018111e-05
-3.073680451608381e-05
-0.00020947706805383472
-5.432332543095403e-06
-2.3742811788993754e-05
-5.6498354184342106e-05
-3.486793974980923e-05
1.9044738221679457e-05
-0.00016881790538460088
-0.000124274636153042
-5.964295727436925e-05
9.056029411155058e-05
9.998391700261179e-05
-0.0004394905985709622
0.0003315795103865472
0.0003428135239565747
0.00016875693373180595
-8.96140560806387e-05
-0.00015087017868236236
0.00022492828862280415
-3.614479874235447e-05
1.6306560147861542e-05
0.00013327644987689077
-3.984783057976509e-06
0.00018316094331364023
-0.00020120466366215108
-3.426256300884231e-05
-7.719465970372498e-05
-0.00032641481877518087
-0.00017946485301819251
0.00017903031168706564
0.00013943292604399394
-0.00019923015537159144
0.00020952070337772782
0.0001111682546825443
0.00030337810466858693
2.236188239640716e-05
0.0003313784055191368
3.094689927493922e-05
0.00022700738147601594
-0.00010081293018085634
-0.00017501342678623899
2.6319807212865028e-06
0.00025668812755390367
-0.0001525786535047778
1.894961170545716e-06
-0.00043341874364566233
-1.9958720627493114e-05
-0.0001097185967357632
-0.00012616248464805506
-0.00020677476716229675
-0.00033030061469457655
-0.0001886150095694852
-8.597017545083579e-05
-8.267043092641255e-05
9.766141298569517e-05
-6.418126363332805e-05
-0.00016193614030753778
-5.841035047915719e-05
-0.00019104816534303256
2.0331409871358715e-05
0.00020641119407383693
6.175149224666911e-05
4.80269512764961e-05
-1.5977939038207588e-05
0.00039587489782449205
0.00026643920343376293
-2.4642299344815068e-05
-0.000257343173873922
-2.0052189547912766e-05
8.742757680514758e-05
-1.1472714489944519e-05
0.0001797289733535022
-0.0002630974368102307
0.00020064454385623637
3.1157559714772055e-05
0.00012224642068752196
0.00018521031571058495
0.00014508266267171358
0.00015803233658618417
-0.00011005229918259787
1.8337468225900266e-05
-3.9968879634946575e-05
-7.813209895551273e-05
0.00022164410069636168
-1.31429040696353e-05
-0.00010171310983721824
0.00012115753568364633
-6.910038331058207e-05
1.4368527981717785e-05
0.0002475859785625161
-0.000143771593116552
1.1042828514361998e-05
0.00021318378837750286
-0.0001062706855515578
-0.00016997835373547084
-0.0002760076061283079
1.1386111904310563e-05
-0.00017583649520492363
0.00019015689204385878
-2.313713318762016e-05
-6.436618847889911e-05
-5.252400559952941e-05
1.67022191295519e-05
4.248442642876538e-06
-0.00033887038943959826
-2.5582027211938533e-05
-6.583154392673978e-05
6.751817145130634e-05
-0.0003332804467115796
-0.0002054182597550157
-3.802046260572969e-05
-0.0001369345596759878
0.00014704704887281522
0.0001512357598067788
6.774396227207561e-05
6.680721574332306e-06
2.5888950613347032e-05
3.205570942640694e-05
9.168745310231946e-05
-0.00019578160846233763
-3.1621452809171385e-05
0.000264008654219391
-5.2001832544595126e-05
-0.0001344966966831178
-4.0408122291205e-06
0.0001608258156339648
7.3978314387668744e-06
0.00012415613134269228
0.00018107298285522915
6.194703945747851e-05
0.00014228700994781943
-1.2785726294064928e-05
0.0001710225673605209
0.00016850061498678248
0.00022401475022365322
-0.00017230916610919513
-0.0002721186498909718
0.0001731605642516827
0.0002774441556372386
0.0002685107977153252
-9.331241222544669e-05
0.0002661645625363562
-0.00024365000770083166
-4.0666989102854234e-05
0.00015283681231358315
-0.00013499929472717928
8.786725498096202e-05
-0.0004327570201886846
-0.00010304332529341411
-9.030196888881609e-05
-2.6991729596380845e-05
-8.342766348182698e-06
-9.203235074289335e-05
0.0002084073316413487
0.0002468834652312201
-8.024044627728783e-05
-5.4830488514123713e-05
6.214462945602034e-05
-2.045474374806027e-06
0.0001345709528016518
0.0002099440571492374
1.8260753343610853e-05
-0.0002091482978126535
-4.773254413903552e-05
-0.00014221130789835717
4.4486608088855725e-05
0.00015651424148342856
-0.0003776272417361166
-3.282831508574782e-05
2.767725783073725e-05
0.0001396915251998986
-1.6772480220024022e-05
-7.962847398766345e-05
-0.00016893765878832765
0.00010300433584066937
7.237021375944713e-05
-0.00023120123465317173
3.7664256492467386e-05
0.00030656946235463475
-9.772802024813799e-05
9.112991383886076e-05
0.00023049838184565784
-0.00017087443245360372
-0.00013710592930031573
3.966741483032357e-05
-0.000295928377548781
4.739117398619251e-05
0.00019220916814386116
0.00037647174824317724
-0.0003468683656656917
-0.00010625893810002177
7.889486901985146e-06
-3.420070280297998e-05
7.147754133178951e-05
7.454905264840484e-05
-1.966186162637666e-05
1.3502716447118442e-06
-0.0001138516018407448
0.00016019408174134653
-1.2626165941769307e-05
-0.0001291546689943858
0.00017556855524062572
9.878642818159829e-05
-8.407759915266663e-06
-9.72976155223338e-05
-0.00013515463731397765
7.692348641148351e-05
6.933291057807009e-05
-0.0002129970653178477
-3.0493649086550656e-05
-0.00021526037769282392
0.00014333141496040782
0.00010660954203081175
-0.00014038366711649982
8.350969668025422e-05
0.00010637500913411401
2.8897868645829496e-05
-2.9980900393054607e-05
3.22680603292236e-05
5.146044514847709e-05
-3.466266261387715e-05
-5.826096767090825e-06
-0.00017730710993289094
-0.00014150321176699675
1.0276449381713664e-05
0.00011093672477433878
0.00023048023992206678
-2.0382714109846677e-05
-6.658437420050843e-05
3.514675165223407e-05
-0.00014956295148490858
-0.00013063376486192969
-0.00013383048551027072
7.531979698081626e-05
-1.2549280107426087e-05
3.479687505474461e-05
3.247003486115821e-05
-9.077468086287028e-05
-0.00037380171848667244
0.00013936916412332097
0.00033300386618729323
-0.0001852820018231557
9.936439976407522e-05
0.00010058724419925952
-9.784385259660465e-05
-4.248623703556526e-05
-0.00010883361242374608
1.883489719331223e-05
3.6738521874195374e-05
-1.9506525187222422e-05
0.00012099397249337
4.3890700406744784e-05
5.8268175555319094e-05
0.0002725482752267382
-0.00019395291939310318
0.0001341955408866001
-1.4450775318610014e-05
2.135599323777335e-05
-0.00013164844152096432
7.760828429293643e-06
0.00023263205917193732
2.252134380725317e-05
0.00021196949081853152
0.00027975266738338963
-2.2584378309037948e-05
-7.824236630896296e-06
-8.462459164784065e-05
8.618413265170683e-05
5.892319116943671e-05
-7.569382639721193e-06
-8.325848925030891e-05
0.0004005229921408722
4.300635941190301e-05
0.00018581891116272578
-1.0273777734259247e-05
-2.402266927673033e-05
-0.00015043061584482753
-0.00015937469544938517
-0.00012821518635401752
5.2716505160286636e-05
0.0001009685722134585
0.00010914782562931149
-8.145231600704976e-05
0.00010242375734438964
4.60007868165181e-05
-8.658797139899315e-05
-0.00020304688165310653
-0.0001470907982430869
-0.00028897388645296977
0.00021780064062461237
-2.179915312722636e-05
-0.00013628634195869907
0.00021220098356911535
0.00014115240265120266
0.0002022095742726057
5.1706689731790924e-05
0.000211434520078475
-0.0001363117790243864
0.00014147179592898125
0.00011650255101078418
0.000129986027339869
7.453647761440452e-05
6.254216207562935e-05
-0.0001934436294054637
0.0001971231584955651
3.190289578336161e-05
0.00012156993484585318
8.275654252559768e-05
-1.1201097558952817e-05
0.00018417052736952746
-1.2629772816998854e-05
-0.00021756414840735737
0.00025367651896209583
-0.0001402427775835423
-5.110712822191673e-05
9.758832715151787e-05
4.142749857025373e-06
0.000187356828679481
-6.343770586985768e-07
2.3209987161603394e-05
0.0002586356397338803
0.00013565972282803156
4.546527216786703e-05
-0.0001907023372088042
-2.2140707593438827e-05
-0.00018298397609436406
-0.0001457651848639664
-0.0001095717732578925
-0.0003192922079995015
0.0002683677632646201
-4.3411379316653596e-05
1.7409748423273014e-05
2.4735485161029115e-06
-5.8005525290182585e-05
3.064231055392332e-05
2.1077242493852684e-05
6.29218167268597e-06
0.0004380781553064958
-0.00017633673262556476
-0.00017996475719877106
7.887654560404717e-05
4.2415916889487145e-05
6.370722025606509e-05
-0.0001032593951607409
-6.184272712500925e-05
0.00010756772091137101
0.00010394655005395468
3.855274207111792e-05
-0.00024683602917035494
2.628827368596393e-05
-0.00016883102895829592
0.00040073446675366515
6.077309009205164e-05
-0.00010104810064755775
-9.99972907010215e-05
-0.00021710634577510034
7.251588685597389e-05
9.281010917089486e-05
0.0001789364845401304
-7.873964485171977e-05
2.0167324793838338e-05
-0.00019204404414619025
9.416216848753878e-06
1.4066007001722189e-05
-8.4911393741114e-05
-0.00012023532390942366
-0.0003044697314067089
-0.00029755838314766655
-1.4791292796714508e-05
9.861202361236179e-05
3.4636737649670127e-06
0.00011239494449586822
-0.00010338055761846243
0.00018014447445759293
-0.0001365396106281593
-2.652590078913998e-05
0.0002039878600459682
0.00020981005183115818
0.0002173367038967707
8.520439698153396e-05
0.000222232054598549
-0.00010543846745173856
-0.00026488537690214146
-0.0002094367917231302
-7.393577807995043e-05
1.2301851620378434e-05
0.0002627238345270933
0.00020834596702826158
-0.0002938247454154496
8.023476899236565e-05
-2.7749650192178927e-05
-0.00011330344593665312
0.00033722296715988216
0.00012979084213500002
3.773668208868553e-05
-6.525729260394719e-05
-9.407559705996898e-05
-9.534803731185897e-05
-4.8048601155893665e-05
-0.00012017599760142004
-4.433818558919526e-05
0.0003674726463396297
0.00016506741928833024
0.0001873499487557946
-0.00023310095617147075
-0.00011846104037734036
-3.7395438046336234e-05
-9.724368775065981e-05
0.0001608843390567814
-8.57261306873421e-05
0.00013890036320913393
-7.686678672906874e-05
9.743608587581422e-06
-0.0003714597229754046
0.00018732689496354633
-0.00021909558979120995
3.490921490993795e-06
0.00019923964414750837
2.6967856799065613e-05
3.545537527010424e-05
-7.767847362266933e-05
5.5653052861622446e-05
0.00016649979206624917
0.00027090872695663735
0.00015113028572061302
-2.9167181262225048e-05
-6.546548050361343e-05
-0.00017039500847354847
4.297806261267042e-05
-0.00019421003722796385
-0.0001557457280620443
-0.0003760364064646482
0.00010199718875745177
1.7160785973298576e-05
0.0002440819195452299
-0.00012225398286036502
0.00011246546384962906
0.0002886983381178344
3.124618280233561e-05
0.00017522941532639125
-2.2299534757071287e-05
0.00014967807792775755
0.0001674150278164236
-4.434126513144154e-05
3.39714839114752e-05
2.1021124281027473e-05
-0.00021290033994154654
-0.0001569081352357151
-6.692026167130904e-05
0.00015910704570071716
-0.00014110088254115
0.00011468982323211476
-0.0002501907600985869
-0.00011118020471654359
-0.00011353823438700341
2.5824223300642695e-05
7.045102542335496e-05
-1.725110540204627e-06
3.975168228924933e-05
-0.0001706020771301587
7.199915568640238e-05
0.00015629617380084204
8.111028652249909e-05
0.00010398187635714486
-6.340023089476538e-07
6.905778659777261e-05
-5.02406290579093e-05
0.00012163848308653723
-3.590008061559577e-05
0.00020914903316624647
1.0326149710679908e-06
0.00010229307953844785
-5.310582963780325e-05
-9.988688555133067e-05
0.0002212000757783157
-4.844696046471409e-05
1.3481353098414897e-08
-0.00012343116474737364
-1.3015403318393141e-05
-7.688180065034829e-05
-6.56267813918644e-05
0.00011391122278773835
6.637571854551023e-05
-0.00040094624236696613
0.00012481150983066297
4.0578151023662045e-05
-0.00016582355803002857
-3.112046786113476e-05
6.665923599959436e-05
5.114249676116948e-05
0.0002758255965693392
-8.363080117042243e-05
0.00021672010283964416
5.980329561034152e-05
0.0003943370697889829
-0.00027687096703536934
0.00024798983180725236
1.6831891682403176e-05
-0.00025256848797530193
7.880741250510117e-05
-0.0002977762016910702
0.00010630646381532089
0.00013133483506611786
-0.00021050708307281823
6.5262844339754e-05
0.0001057319233749211
-0.00010225016764816895
-0.00017076477047757563
-0.000251813326737469
-0.00015325690003407537
2.0784445940322585e-05
-7.111664563105514e-05
-3.3748231012482116e-05
5.648146576122382e-05
-0.0001823038440124477
0.00028581582959599425
-0.00023610365689958284
4.0686852951649025e-05
0.00031750777341149963
-8.189892810459908e-05
-9.735314218681811e-05
0.00011510570017756976
-8.456304158587847e-05
0.00025406147128166667
3.725116267320804e-05
5.826632588228655e-06
-0.0003963287984251528
0.00024793715234657345
0.00018811273712799072
-0.00011927847506798901
-0.00010182067487496984
3.330066409665459e-05
-0.0001940183357250664
2.3917656539923994e-05
6.378957610296187e-05
0.00014751726015883716
-0.0001083311723247609
-0.0001008695647270726
-0.0001378345175516671
-8.17339405747405e-05
-0.0001105722123967593
0.0002556828476530019
0.00012899485175196757
0.00016797974449329485
-0.00013729866082060725
0.00019034500756240016
-0.0002524360416566604
-5.432394877737519e-05
-0.00041582764530969345
-5.212928222542041e-05
-3.3264572465777146e-05
9.033362442942961e-05
0.00018627589250689528
9.072696248932905e-05
-9.964011051977725e-05
-2.0718578110466334e-06
0.0002552533283839658
0.00010000497863871942
-0.000153089316944258
0.00021090505357623636
0.00011528504607839165
0.0001242443055041754
1.6100282297225533e-06
0.00019559031780993588
-3.423784568105479e-05
-8.90932856868323e-05
-0.00016403846626739435
-5.7604415433462315e-05
0.000220097673508042
0.0004360952512174288
0.00022299029190115644
0.00015040680377434483
0.0001564564139413233
0.00020648600438978866
-0.00011532602406284364
0.00010130283435827094
6.0242373834436236e-05
0.00012601274797190934
2.584165250046306e-05
-0.00012189779412605046
2.145094524007541e-05
-6.473341429140385e-05
-4.8971009557911993e-05
0.00034534968570318196
-2.8931992509636975e-05
0.00012679402840922005
6.727543955154166e-05
3.8724546026683324e-05
0.00016935076606110008
4.513648432583046e-05
-6.12148997144841e-05
2.998502390180823e-05
-2.4572440616928388e-05
0.00010324947786619002
-0.00023329998828146685
-0.000215321595192681
0.00019689560882456757
-0.00024487626790392327
-0.0001870064232231692
9.533597798474684e-05
2.597852589821553e-05
0.00021646728062428127
6.312330143737597e-05
-0.00015179895022652848
0.0003850014677162824
0.00013237620628388867
-0.00011657199663529074
0.0003498012827317379
-0.00018770431196879378
-5.787516345938951e-05
9.82768501900406e-05
-0.00021549022197802243
7.58769674891146e-05
-4.778657271398899e-05
1.4186178749649748e-05
0.00026266376641995674
-0.000298360214230596
0.0003148815316813488
0.00012771998930545186
0.0002078086002362085
-3.0922595156057974e-05
-1.8564883956250364e-05
-0.00012076606041449497
0.00018658402979113378
8.950409679367147e-05
6.889558479078217e-05
-0.00012000555454581851
2.5607076494248558e-05
7.045722832061402e-05
-7.80499253555345e-05
6.949305743873617e-05
0.00015115714075378018
-7.607202171223894e-05
-7.80324680490828e-05
5.842379293279709e-05
0.00026456977116779757
0.00025567220846836787
0.00011763834027553469
3.525971806438183e-05
0.00010159814134855097
-0.00022510116782296048
7.414302320409221e-05
7.106303242849324e-06
0.0001445037032239687
8.81814998362059e-05
-0.0002438765015515728
3.808755577019465e-05
0.0004206515268493118
-0.00011783552183047534
0.0001113657957823204
-0.00040239717243523496
-0.000121225523287912
0.00010524689965924909
-1.9672989645247882e-05
2.139568830079079e-05
-0.00016908077968761864
0.0003447017515531236
-5.56627639200206e-05
2.433538654614188e-05
-7.016991459288531e-05
0.00020366234237546594
-9.266599905167344e-05
0.00020630635173942476
-0.00010579781657577147
5.4369037651875115e-06
-0.0001824036524263793
-0.00012551793590084205
0.00018433276681817384
0.0003387503968605007
6.184117184561272e-05
7.327570784660971e-05
-9.665524759910816e-06
-0.0001801420911288513
-1.4919371016587306e-06
3.85555098238077e-05
9.463483258646996e-05
-0.00022309067817407818
8.449739519106668e-05
-4.462385322832536e-05
-0.00020758687633327296
-5.147003046571416e-05
9.728066231247346e-05
8.295964420605659e-05
0.00024548201148703533
0.00012874632346976186
0.00023296220992013187
2.223486503792325e-05
-5.081367694115713e-05
-0.00024345811335565865
-0.0003786447107134616
0.00010170097981489596
0.0002657387933612237
-1.0953752890535147e-06
-0.00016956968871796333
-0.0001336929215452457
-0.00028468031714193613
3.991075637858918e-05
0.00030654910088869923
8.43149522487484e-06
-0.00022302018780662986
-0.00016220373191302382
-4.1901886875123766e-05
-0.0002815674411087679
-0.00011905490656511684
0.00032112266604707835
-0.00014662934254428618
-0.00029233112371244665
4.3000526081948324e-05
0.00018501690117584074
0.00038152907056779545
4.7299867782367735e-05
6.106485163068758e-05
-0.00026503213815988886
0.00024726591250633393
9.875155037091538e-05
-0.00015306438740102007
-0.00017681575855412333
0.00011955427363533356
0.00022378599887837959
0.0003303007660778361
3.487805409836502e-05
-0.0001097277418086432
1.651831988770231e-05
-2.881706939558897e-05
0.0001741142829002985
4.7804220430167044e-05
2.0482122384213025e-05
5.485334123062415e-06
0.0001364568033805389
8.15412841799247e-05
0.00013417857632247644
-3.0131208554634344e-05
-0.00010417504228809495
0.00021235907670013476
-0.00011605643474723288
3.25640155875064e-05
-0.00014568068867886166
-0.00024954917485456394
1.4415311312451177e-05
-1.2158816479144244e-05
-2.2140411873946114e-05
-0.00019966050592759436
-2.624604650455175e-05
-6.0589382035428465e-05
-0.00010707855580375146
6.566931015492041e-05
-0.0003058649814406685
3.369279128413276e-05
-6.771111584415171e-05
0.00017831239367098093
-0.00017566115582011871
2.0183338985989327e-05
-0.00011365437540097004
-0.00020938482597621157
-8.252274907528197e-05
0.00021393453194139378
-9.427637595993224e-05
-0.00014838522644976222
5.004369383644426e-06
-3.8858357702858036e-05
-0.00021752700777031948
0.0002921577116231331
-0.00021161770975867213
-0.0002566891270427446
0.00019831061479928995
-7.896750000492535e-05
4.8401254418789745e-06
0.00012894251469821347
0.00026089725633672583
0.0002576332387220651
0.00017157852460571106
4.35704744019867e-06
-3.243164795708606e-05
0.00028365783636175355
-5.746512703356881e-05
0.0001262897175291705
2.1100405744959926e-05
0.00012076380651380917
0.00011803512378820248
-7.14734637817974e-05
-0.0002537172438967295
4.313829284738239e-05
-9.025242002635765e-05
-0.0002889387482076724
-6.47109474355101e-05
0.00015095045094754242
0.0003273760501490582
-0.00025005338832247387
-0.0002901474183608299
0.00012875816459777958
-0.00021020118138353753
0.00013751569794384503
-1.6034696083210453e-05
-3.8431689962547137e-05
0.00011609639571851288
-9.733529180523139e-05
-0.00013611154248702043
8.973582917419779e-05
-0.00022112791728367607
2.3073818789661243e-05
2.617121171100065e-06
7.481542985347368e-05
-8.25940962927091e-05
0.00016022199815033297
-8.760324250251199e-05
-0.00022715020769727536
3.8214828306134785e-05
0.00025575804297013166
-0.000172243947103788
0.00014886714195110098
9.363041887518634e-05
-0.00016618697398142475
0.00013856416112553803
-0.00013344039579669012
-0.00010830468363431642
0.00017161682821462127
-4.45348841017417e-06
-0.0002676913301633581
0.00013437179792150853
6.715559626953909e-05
0.0001398873721698641
8.164147247721901e-05
-8.847443108262816e-05
-0.00011875345890163855
-3.0543409239918e-05
0.00029343765204340355
0.00017778544627089187
7.508816414742922e-05
0.00018073379285730193
-0.00017423737370338203
0.0003005071917812661
-0.0001191085963618444
-0.00023432339783167975
0.00016088488934586537
0.00010469150758538635
0.00016759038314691623
-0.0001339219823185907
0.0001906723212600364
-0.00024150335420412955
1.4792294910442809e-05
-2.7868994949247602e-05
5.486492872922634e-05
-0.0001178092613191421
-0.0004932948741388937
6.495657663886424e-05
-4.3528167156303245e-05
9.144936868672882e-05
-0.00018990582099140025
0.00023329460473746629
0.00022931464969556438
-0.00018830235889086535
-6.339132074843771e-05
-0.00019214886889577491
0.0001681961657879775
-4.67679763163102e-05
-0.00019638640994604288
0.0002033834397104882
-0.00010898929821734209
-0.0002627774833750209
-0.00019295964306581626
-7.755611918882794e-05
0.00021383818762548917
7.426609647598844e-05
-5.348483559632676e-05
-3.255803049907547e-06
-0.0002063919275269527
-5.969485824640864e-05
-0.00016029436613300578
0.00022499561798920386
-0.00011663939060418496
3.3005179467274355e-05
-0.00017141705436396506
0.0003381636970399485
0.00018462566885938907
0.0001220122190695797
-0.0001441239000280423
9.278482890998492e-05
-0.00011153388868085777
-0.00017540628815331888
-0.000206293522300862
0.0003156016662410475
-6.173227276175758e-05
-5.0218878398034186e-05
-0.00024335305219425738
0.00020038076362721314
-4.1273658751336746e-05
4.280275910233303e-05
0.00014692807940502439
0.0001828448811366358
0.00035220429931468627
-0.000253774586328748
-5.0565290828575845e-06
-0.00010620053524936392
0.00019744204857874618
6.124355902924017e-05
-0.00019260990297730737
-0.0002032812188028145
-0.00017254069768361634
0.00012329030766855775
0.00013032621773268943
-9.083899238942506e-05
3.9156627021763e-05
-5.436039062564581e-05
-0.00011582112565496607
-0.0001627525458599196
0.00010647493989000222
-0.00013558198325736226
-0.0001762701222853527
-2.3925139794265775e-05
-0.00011961081826975222
0.00017748391316682268
0.00013496877086820362
-0.00015578065459505072
-9.263650827020182e-05
5.908228364857543e-05
-9.803269252574355e-05
1.4358781873876814e-05
0.00038190623906162407
1.3343669249118049e-05
-5.299333753337284e-05
-0.0001007942745368931
0.00030832120794398475
2.781020504253651e-05
0.00022934077266942573
-6.830591194462227e-05
6.929800651093368e-05
8.524265900624075e-05
4.007759012440491e-05
-0.00023503880539589513
0.00030592646308314245
0.00024107252729408288
3.3480421544664516e-05
-0.00017210735327675855
0.0001104410707157631
0.00018522688010255396
0.00017580566164323067
-0.00019728642045973522
0.0001273453007465038
-0.00016507406486088186
-0.0003531238733824929
2.2863788305397145e-06
0.00013762251487590038
-0.00012487259124332523
0.00016328647889816666
0.00021995923297522804
-5.213021862728495e-06
-3.677357986776803e-05
9.451583805835e-05
-0.00010063685215153692
-5.0755681581463614e-06
0.00016295380571359252
-0.00011599118701877343
-0.00012759151018815285
3.68863145845393e-05
-0.00010369448543457069
-1.1602184373803964e-05
-8.067524272687974e-05
-0.00020678522020504739
2.3416070671147568e-05
-0.00011530538638202789
-0.0001141627805392033
5.2946579746322276e-05
9.42370491533389e-05
0.0001627704662461719
-8.768486805375825e-05
6.358162334865712e-05
2.3775143500563037e-05
-2.5161402195983947e-05
0.0002175611026841838
-0.0001614487295411349
0.00013776383518304122
-0.00024613492613524614
0.0002640751968405987
-0.0001374511802349665
-2.5976897911528696e-05
0.0001908006628641291
-0.00017308672523206112
2.6192723474923114e-05
6.218191509497502e-05
0.00022210517186921382
-5.60931692921773e-05
0.00041151565212125613
-4.204963617087848e-05
1.3741525939225496e-05
0.00013328985597669106
-0.00012585724802332532
-1.8628605589047494e-05
-4.623164693756753e-05
-0.00026669829287446746
-0.00017256266463521112
-8.001102513338354e-05
0.0002473607597275872
-0.0002603288313548433
-0.00014070190547167523
-0.0001562720099236975
2.865711317690593e-05
-0.0002871496700154184
3.1016726056611076e-05
7.866016396874309e-05
0.0003310606632241545
-8.8051486750499e-05
-0.00010428751518053475
-0.00010173590297429419
0.0001728552794810712
0.00015020031381879557
0.00025310704173826457
-3.0295260714424113e-05
0.00021498054965061992
0.0001929841886889017
0.00014406687257420464
-0.0002621099131986723
-0.00021776317832905014
0.00019129767761819687
4.113123985821919e-05
0.000273075159715016
-6.218952091565811e-05
4.688670011637194e-05
4.5030708078189324e-05
-2.433084439153628e-05
-1.935525355402524e-05
-3.5698236871171436e-05
0.00015395270285110566
0.00018739703407127413
-4.90458509661311e-05
4.929424303158224e-05
9.679879918440511e-05
8.19811268782225e-05
0.0002018418796975426
0.00024415797494594174
-0.0003494515987150361
0.00018633997715317984
0.000253425400995224
-4.438161948475754e-05
-0.00011509720462469252
0.0001483977131402194
-0.0002417426765134483
0.0001967174267163971
0.00016493092514461416
0.00029487766392930496
9.894204613586393e-05
-7.679405728583909e-05
-0.00037366030240979794
-0.00012094271237028277
-0.00022217143489092466
0.00023503911605144985
-2.377859236169365e-05
-0.0001992848037161378
-0.00014366711260926373
-4.044007191297722e-05
0.00011789846657955275
0.0002600174785042601
8.023441804655983e-05
-7.64034092577766e-05
-0.00030677584233996467
3.1442517818323534e-05
-0.0001725283540478634
-3.8574844086849116e-05
-8.908001477887204e-05
-5.1778142877919034e-05
-7.503487982074068e-05
9.761852217269358e-05
-0.0002114693020391158
0.0002412699192621372
-2.4497611214388726e-05
-0.00010206727170599185
1.0518944603855057e-05
-0.000274772137090561
-0.0004680286219014706
-4.903946528439167e-05
6.290849710158842e-05
-0.00019254212991209798
-3.744804376607478e-05
-5.131699701087118e-05
-0.00043153764571508244
-7.899351042980058e-05
0.00012082568715641498
0.00011363485216571338
0.00010104970397445111
0.00029232648537005196
-0.0002487993742246263
1.8548323704134602e-05
5.676892074970816e-05
-0.0001813838746651701
-3.145125611535485e-05
-0.00030563541435361344
1.6143754245563444e-05
0.0002618118383517359
-0.0004004975546348214
-0.0002058248179451179
3.9064737700073944e-05
-0.00038347803602029913
-5.629878037448439e-05
-8.341785419260638e-05
-9.889626492976999e-05
0.00011660106933317938
0.00018855808880047055
0.0002096913335901936
4.308189700151387e-05
4.95053935178585e-05
0.00014591052957391217
-0.00014869523347678417
-8.852773873276362e-05
6.362952667502286e-05
-0.00017779643228714605
-0.00022655311608609977
-4.528077878480824e-05
1.156943537893643e-05
0.00015662611631611306
0.00013799369269727177
9.691123190940063e-05
-0.00019996474819540817
5.628377672868452e-05
3.6252282264711372e-06
0.00015082570325977755
-5.5740457239720206e-05
0.00027855088135884763
-2.354051165303911e-05
1.4633815310895012e-05
0.00029445906742059055
5.691969750980347e-05
0.00028453111586301523
0.0003621070714658423
1.2656194269485271e-05
-7.952669553667294e-07
-0.00021176076050846495
0.00013988661386816088
-2.707509046456083e-05
-3.26516688437141e-05
4.13833789433984e-05
-7.77126848410031e-05
-7.596495324848207e-05
-0.00010923111129637308
-3.928482412689809e-06
8.188016301801792e-05
-7.010562068100123e-05
-6.861969086561184e-05
3.311336579784093e-06
-0.0005008762176732877
0.0001302827603660015
3.641705304985664e-05
-1.2599370450334861e-05
0.00029832900991588193
-8.694527707015899e-05
-0.00018307889467830105
2.1397928486799163e-05
1.232121521308744e-05
1.778835615741788e-05
-1.487988125796737e-07
0.00028287111351566033
-0.00025438812736317885
0.0002467332389646916
-4.445510188317349e-05
-0.00032201322991224864
0.00020449746389415908
0.00011144935493207446
0.00022123651074336487
-0.0002756292755843897
-0.0001191053253742838
7.513366065075494e-05
4.140715357734402e-05
0.00012137691955312502
-0.0002289019987019976
-8.102577624857462e-05
0.00025483111294750504
0.00048423460555441195
0.00025768472188783596
-6.84313190786211e-06
4.680491172356049e-05
0.0002737708339059743
-0.00011041575657737554
-3.3297910501700273e-06
9.078501820071044e-05
-0.00013755816438385714
0.00016266906940993182
8.503977701119263e-05
-0.0001226023717573825
0.00010582175339295971
-7.483222762801442e-07
-0.0002924446444589837
-1.5809193195836032e-05
-3.385712208296283e-05
-0.00011807708772624494
-0.0002729524285641054
8.978292057482496e-05
-0.0003352751697102687
6.301874613221085e-05
7.132631359525285e-05
-0.0002515429634510034
-3.347431970946271e-05
-8.204948038800944e-05
-0.0002557709380361898
-0.0001339235071796866
-0.00023995137823934555
0.00017294867087223496
0.00021276172884880776
6.05914418222937e-05
-0.0001554609757263504
0.0001907004185700112
-0.0003369674091727284
0.00025149172839452927
0.0002307766125723987
0.00018712432778812603
0.0002482697535077384
0.00017119194164609574
-5.9307784285750174e-05
-6.391594479071347e-05
-0.0001931680365527011
8.189210058334788e-05
0.00011825340877016665
0.0001405628694254002
-8.158619608517186e-05
-0.00016446452031889487
-0.0001124635233709393
-0.00016482942793470863
0.00016578248102059074
8.239919206993732e-05
4.816689152302106e-05
0.00010884206295381524
0.00016432120786726123
0.0003247006408985574
0.00022251792568408124
-4.4555604363168846e-06
4.100211428179304e-05
-8.826173416723108e-05
1.3078203629436695e-05
0.00014705103331589126
0.0001602357028936317
-6.967905275305475e-05
1.8594371864961707e-05
-0.0002904557249659157
-0.00011045373953098049
1.9651714769526243e-05
0.0003090777055605823
-0.0002246715406157628
0.0002671724500077389
-0.00011263612935194675
-1.510788149853261e-05
-7.284266641821077e-05
9.98239911446855e-05
1.5842484537603794e-05
-4.257196425835919e-05
-3.114072225250795e-05
3.1112404306846726e-05
-0.00011996749367927977
2.18477163848288e-05
-0.0003246107734544038
0.00026076339593715953
0.0003172605923826421
-4.295711182534463e-05
-9.768348415387607e-05
-2.2993790523942315e-05
-8.3473760356677e-05
8.102014350503784e-05
0.0002780572949723504
-2.789423127099261e-05
-0.0001513963565138185
0.00024607434788867424
0.00011194071066943606
3.548295405493439e-06
-4.308410117614622e-05
0.000258848742382172
-4.214546607362884e-05
0.00018871527567009802
0.00015173662475836028
-0.00022055761481453286
0.00033915398508598855
8.765124743658928e-05
-8.623057861133515e-05
-5.677801484178854e-05
-0.0002136468145983262
-2.8645757857906114e-05
-7.113491224357131e-07
0.00011672376088818177
-0.00019532285677770908
-8.505418566322277e-05
-0.00023532189609006468
6.94284148459451e-05
0.00018486607234781757
-0.00021153222203932693
4.054710205842804e-05
0.00024069094029459132
0.00010250732702420868
-9.109231806384414e-05
8.020381493808899e-06
0.0003182183631979096
-4.4010838082638885e-05
6.740025047574635e-07
6.853668738691145e-05
-0.0002550011551375521
0.0004229869938275621
7.822039187078686e-06
0.00020558864720105234
-0.0003593665499796067
1.1713630949751762e-05
0.00015196139139469215
-5.37184734932205e-06
-0.00013297657273416864
-9.516022541418091e-05
3.9289882444930004e-05
7.261800497616143e-05
4.7544136599000826e-05
7.939064966996085e-05
-0.00014599763728693213
-7.975037077924167e-05
-3.177339531804745e-05
0.00028069221090649824
0.00016009196917174466
0.00012719017127020224
0.00019997381180453336
0.0002865609996902219
6.558912189448668e-05
5.5326856224114706e-05
-0.00016989461363045466
3.987455478864657e-05
-2.143864260307495e-05
2.7020127808635652e-05
-0.00016725634424378394
5.3732039564307566e-05
2.549754463864776e-05
0.0001691606107104454
0.00023207597283778376
0.00017704473186709835
0.0001411409397167259
0.0002445417322423139
-0.00018101040831710425
-3.642631176336843e-05
0.0002184094379386909
-6.36113510092281e-05
7.838936832124092e-05
-6.23848221078296e-05
-9.339138279548795e-05
-0.00012528726055617052
0.0002710020780436063
-9.620174231076038e-05
-1.8915808849245998e-05
-4.6308646431493496e-05
6.603742356218838e-05
4.8205531670324706e-05
-0.00016827480237204863
1.577308732514885e-05
-0.0002613203562486721
-0.00026083325830842025
6.892379773873168e-05
-0.000248525288787797
-0.00016179683030534352
6.692317628680914e-06
1.4285944747801112e-05
0.000155615352765258
-3.609143794953962e-05
5.6451481321332304e-05
-6.952392691666336e-05
0.0001218124666954732
0.00025533290492861147
0.0002088680381596248
7.492623169421829e-05
-0.00024804373786500107
0.00021738379151046234
-3.879783462912877e-05
-0.000209062668513119
0.00017232682077918828
0.00015017339995651447
0.00018259025406884758
4.2866406248806235e-05
0.00020188256235598317
-0.00016834714428898233
0.00014425286746876583
-0.00023489994633090405
-0.0003686607530705243
9.281119036893252e-05
0.000239642744763998
-0.0002897943316185627
-6.28913687085157e-05
-1.988505449645813e-05
-0.00025260262893619126
-0.00019956690940506374
0.0001050522244793461
-0.0003374996976308635
0.0002740215958652622
5.848389056124858e-05
5.418180283451831e-05
0.00012387647276883846
-2.3133113991295173e-05
-7.386997739623378e-05
-4.7327569134308735e-05
0.00040661012201753536
-3.168720106908847e-06
1.2137241942061137e-05
0.00011879552553571289
-0.00012108868241554392
-5.45997209103964e-06
0.0002840245723965221
-1.3537325098765486e-06
-3.1383391686577304e-05
-2.478830145661614e-05
-2.978188939691771e-05
7.230101554338106e-05
-2.1427744089882286e-05
6.92570883928004e-06
0.00030066181604873084
-0.0001641366725497213
-0.00017017993346348333
-0.00012103491988155504
-0.00016075993448744596
7.887643102195274e-05
-0.000116161686600436
0.000100367697816317
1.9419420948069098e-05
9.275314775094902e-05
-2.538263167063347e-05
-0.00024062120919616834
-0.00011837703238177602
7.579984919357983e-05
7.627618820796762e-05
-8.064011460298877e-05
4.038313846919469e-05
-0.00010502874043970523
0.00017399848823182118
7.294696621602911e-06
-0.00025768134405699855
0.00030319341769355395
0.00015348445803492814
-0.00013589709933433555
-0.00033332104004838055
-0.00010345051312642931
5.2814424504780136e-05
-0.00017539857266242554
3.6562325698953627e-05
2.06317121742236e-05
-0.00012523159991239727
0.00013120992212810523
0.0001993992652940033
0.00012869741179610513
-2.36380610900898e-05
-9.589762504930045e-05
3.5469330264224926e-05
0.0003076163516414382
1.7500041094818648e-05
0.0002772356570986253
-7.918315990541765e-06
0.0002288094109842436
-6.560532105010386e-06
-4.268584093036519e-05
-0.00012935334149275637
0.00020419811277049273
0.00010840054391308309
4.3377025453891444e-05
-2.388876072720675e-05
0.00012094175405798129
-0.00028364632714980326
-2.9856661862383886e-05
8.213827894366881e-05
-0.00014684618055306223
1.6618098711733736e-05
4.076754325190153e-05
0.0001439106774848948
0.00022512231111366073
-1.2408004311387709e-05
-4.158451133523172e-05
-0.0001684234922176146
0.0001718994381720388
-0.00017031758476296287
-0.0001913665153421892
0.00013501798901501566
-2.839174120490608e-06
2.697823236956487e-05
-0.0001163185047989099
-0.00027393964857787495
7.91534975617127e-05
0.00021196779163731446
-0.00014070387026919422
-2.774759209987638e-05
-0.00015991019269727635
8.013530786562689e-05
0.00011874875949251523
4.1553816473847275e-06
-9.365753742202949e-05
-0.00020270673937395822
0.00011039700969155638
0.00026142577875735745
0.00032189642889828175
0.00024191811304463223
-0.00021777740706801693
0.000357203321333068
-0.0004880675307099818
3.896540353286027e-05
6.085105115837037e-05
-0.00015271550443104657
2.431075927982943e-06
5.5461438725432966e-05
0.0003318083636590576
1.6360106570406556e-06
-6.714714220572931e-05
0.00022225584403483639
-2.495040193325942e-05
-1.8396484540237335e-05
-0.000300712274868263
0.00011168315656942218
4.635791629584603e-05
-8.346150091803616e-05
-0.00012941615572046277
0.0002503936703471227
-0.00022810928008499637
-6.963189589995722e-05
0.00023457423033803782
-9.623359792489732e-05
-0.000253180797312633
-1.0889237490168629e-05
-6.300753547501429e-05
-0.00011481773181287706
0.00012135220698964907
-2.2023114912121406e-05
3.3760897399243365e-05
-0.0003060482203384309
-8.328924410613341e-05
-0.0003916372320857897
0.00013037843828999854
0.0002689605550177755
-9.375491230621886e-05
0.00016954861975938574
0.00025709291766697843
0.00010484388142990457
-0.00023195171602446993
0.00027379423722352875
0.00017502014091928746
2.1277423762078555e-05
-0.0002860420586178034
-4.679151745694036e-05
-0.00031592040466983163
-0.0001675860563592607
0.000247854595423363
9.087372700888512e-05
-0.00016061656988895139
4.410118165665082e-05
0.00023164279707648205
-3.213771439923096e-05
-7.675353131171922e-05
-6.072693487633242e-05
0.00026824138400794877
-0.0001851245063712142
-0.00013478192692105022
-0.0003932833746374729
0.000211771381702615
0.00012686818852586276
-0.0003243065849448217
0.00021905658150673895
-0.00011017938320940819
0.0001318378260004588
-2.8171686882644362e-05
-0.00025084080128994266
0.0001661275501469649
-0.0002682850684518765
-0.00011046593717453313
-6.133574998639803e-07
8.507747728789355e-06
-0.00031279448072704625
6.789121190630606e-06
-0.0001625651192645515
-0.00014963347845870238
0.00016638476307180748
-0.00023980391246863453
-8.704757158968868e-05
-0.00017746258385803175
-5.851769304212021e-05
0.00012816608599191422
0.00019657090043518783
9.913271733859087e-05
0.00010771068953826524
-0.00010224547115973463
-0.00014929524804654335
8.383978650366818e-05
6.941456668906949e-05
-0.00010510563424419636
-5.302993502369706e-05
0.00018678453054882187
-0.00030870651334945795
-0.00014093504921215518
9.892984271132546e-06
2.9535832320373587e-05
0.0001541162060868798
-0.00012083529852781066
2.6265198127781437e-05
-5.767115268157529e-05
-4.4372817094566624e-05
-0.00018117361918290227
0.00019006337661231726
-0.0002081504839125899
-5.900149075688191e-05
5.965917451291784e-05
6.505086392858309e-06
0.0002181348203053864
3.771112246301048e-05
-0.00016294810572909516
-6.444037660228001e-05
-0.0001433437452855285
6.067981092972261e-05
0.00026031211728364125
-6.707625329337847e-05
0.00018034389841711416
0.00019013349925651915
2.7237925174385717e-05
0.00019814353409899988
8.148080690344154e-05
-0.00025217070493491986
-0.0002476994633605676
0.0001363739805023452
-0.00015795430533973453
-0.00010080933949475024
-0.0001465481354898869
-4.1310907560551975e-05
-4.7261750893803964e-05
0.0001429634947575051
0.00015335495101228487
1.6700413641543173e-05
-0.00022161275760245323
-7.491950358174567e-05
-2.9649203090330787e-05
-8.99764638494059e-05
-1.3375376690923764e-05
0.00020244150404078926
0.00011986917331382607
0.00018673182594261352
0.00010713043049370908
-7.187408860452724e-05
-0.00010126784596433472
-7.22995172017661e-06
0.0002050661482366246
-7.119575874214733e-05
5.635848124092148e-05
-0.00020479946804986596
0.0001347189277232273
-0.0004267318167234752
0.00027807246081937667
4.138381621887318e-05
8.580508874683708e-05
0.0002697447217383559
2.8879354537098314e-05
-6.296856038899962e-05
0.00021678182763557402
0.00026030593115605033
-0.00021898981507981172
-0.0001600853261498549
-0.00017315121554943607
0.00013418685204116628
-1.0525912330718688e-05
3.338016168938005e-06
6.57452306199112e-05
-4.171027484122916e-05
3.394944028323699e-05
4.59471204028211e-05
-0.00013256931692024785
-0.00014344515086492187
-9.633310297101697e-05
5.1817343487000665e-05
0.0001451279072261415
-5.930745830465739e-05
-3.476351532667475e-05
-7.031245924349633e-05
0.00026019302152813754
0.00024791867858115445
-5.1148956140814105e-05
-0.0003216683172675799
0.00043094363765366895
0.00011417371283082458
-9.246308529471504e-05
2.2713935213684568e-05
-0.00011539701906095443
2.668197544384138e-05
-0.0003540838393487131
0.00042135635200020737
0.00012733863321996643
-0.00030936714922083904
-0.0001126837380193492
-0.00011931632995227603
0.00018239278642664738
-0.00029575811269255133
-1.3115303975781738e-05
2.8461746062491848e-06
0.0002117078330290207
0.00010021702550306562
-8.51464485435838e-05
0.00015201661545366073
8.032205167591921e-05
0.00013411070755449343
0.0002814216795294315
0.00019144541076476288
-4.2066585286214595e-05
-1.478182365005873e-05
-0.00018243395420369774
1.9072992297219234e-06
5.805353997225521e-05
-2.866906534584637e-05
4.5428564546238126e-05
3.808427914128595e-05
5.105879689821785e-05
-9.950038899407276e-05
0.00015617900156178585
-0.0001296430148197658
-9.521885147202788e-05
3.7316715691158244e-06
-6.185479518527233e-05
-8.116102567567126e-05
7.591288845076027e-05
-0.00019286923830047725
0.00023242606211625882
-4.5529030083149687e-05
-0.0003927366835791895
-3.047511760183301e-06
-2.898257774436393e-05
-0.0001001854033591417
-0.00020115139714553244
-0.0002988906613841831
0.00012442300602125703
-9.00356065630397e-05
-0.00014984051847728396
0.00015402774506421784
6.515834099940248e-05
1.2495805108501341e-05
1.3249034560818128e-05
-2.6509267171110993e-05
7.266619790180107e-05
-4.517785126444424e-05
-0.00012858291715677226
6.876086189002091e-05
-0.00023830533717095125
-0.0002845445172403616
1.366569522165864e-05
-1.1248818217975844e-05
-1.0641765850716886e-05
-0.00013657595505395736
0.00016631533353911283
5.279352130814623e-05
-2.9215189491276673e-06
5.962285396421896e-05
0.00017406407442430627
-0.00037538996481818293
-0.0003072759634743374
0.00020245163423971462
-0.00016540558371428175
0.00024172975128610507
-0.0001322447829040919
-0.00030779263322533684
0.00010183053371292991
-0.00027242041475308956
-0.00012717837651850597
-3.392665326282189e-05
-0.00032648826283068885
-0.00015486518564801702
-0.00031017659823425365
0.00017182880065454002
3.3978425245524434e-05
-5.22078706526285e-05
9.386911215428128e-05
-0.0002483127233684292
-8.075145246978808e-06
6.069327746835288e-05
5.880716376770651e-05
-5.0937145934738154e-05
0.00011124277770314474
-0.00031995775249171336
-9.542602132642056e-05
-9.240791971710049e-05
-5.780563734698087e-05
-0.0002634929989656165
0.00022661857438620246
0.00017298077107980324
1.5697065867189455e-05
1.273477134740469e-05
-0.00024820623448002947
5.5973127193863265e-05
-0.00021812131416490142
-0.0001996716764247461
-0.00011653583617369685
1.3565465318789039e-05
-8.475499303934752e-05
0.00014175339876336355
2.0858974237437465e-06
3.61239443606928e-05
-5.5949666576479956e-05
-0.00022171306578255942
-0.00020532899227591902
8.657716971203562e-05
-8.723698389240203e-05
-0.000330937094379469
-0.00014612428874402898
0.00014366342235751722
-0.00010347014430771989
-0.00014154995812379575
-0.00023828257871251043
-4.309202559191504e-05
0.00013861719140079818
-7.078245214268587e-05
-1.3202736472102405e-06
-8.345226391806684e-05
0.00012822144443502733
0.00018289165272112587
4.1900383720119585e-05
-0.0003031415462953115
-1.7217776282489602e-05
-9.19036187258405e-05
-0.00014855387358402245
-7.536874721803857e-05
0.00013515539409152927
-1.8966118236638692e-05
-0.0003049465040562839
-0.00012502376913338102
0.00022227544651212702
-4.94965636808687e-05
2.0345673816541354e-05
0.00012081459326026551
-0.00032974479265155803
0.00013983305973486022
-0.00018712429736996206
0.0003058344209217037
0.0002707537323960122
0.0001462646737814864
0.00014570391775818142
-8.874310292287559e-05
-8.974616230851189e-05
0.00019106513045948938
-0.0001292276287639396
1.595661735865574e-05
-4.8210284946692815e-05
-0.0001688325645408883
0.0003126355782218619
-0.0001308221707758489
-0.0001441924304214927
-9.747282802794716e-05
-8.491557883053619e-05
-8.367875798031829e-06
6.005059885369303e-05
0.00016880867923576152
-0.0004150218995788526
0.00012632260641431183
0.00019683888544470748
4.018602259638717e-05
-3.5654488805349896e-05
0.0002352332659754664
-4.4357259995272343e-05
-0.00014109900532684042
-0.00016585372800533553
-1.2570888325953183e-05
0.00020844338733940038
-0.00012772647451364665
-1.8237104376979314e-05
-8.820903884412911e-05
8.810642260750323e-05
3.497490652875645e-05
4.7285716934175735e-05
-0.0001446743542302523
-0.00011453987759140403
-1.0085416077890931e-05
-2.1959778505191872e-05
0.00039887269112500454
2.020272073379885e-05
0.00012031368598328534
-0.00025803489450381735
-0.00014399896888053816
0.000179841331020667
0.00018961424620072008
7.978869194251459e-05
-0.00021499447742860187
-0.0003304503095165317
0.00012704185156318403
0.00010756375608107744
5.41707358448549e-05
-3.93985779727427e-05
-4.051926728115039e-05
7.751805739033474e-05
-0.00010675813390205718
-5.779824479952232e-05
3.617016147708507e-05
7.341275323080966e-05
-3.5964029400426094e-05
0.00018595244230675895
-8.219885957169704e-06
7.970947102791838e-05
0.0002008372134855912
6.0668875564840536e-06
0.00013056837460399131
-2.9473699258458114e-05
0.00024062548550166327
0.00019807129973255973
-1.0331991163096301e-05
3.286138293075699e-05
0.00023459383124513553
-0.0001363762750708322
0.00018387520225882076
2.125243056797502e-05
-1.7867285606323405e-05
0.0003024355913278336
-0.00028681386788360723
-0.0002841331897423723
7.795211723853804e-05
6.471235167611585e-05
-0.00018939414180192338
-0.00016699412280921498
0.00013945708278419451
-0.00011309820326516073
-3.7805512459715574e-05
-1.860124825357762e-05
-0.00011558291021686491
0.00014141509059500273
0.00013848992644676988
-7.229493730142919e-05
5.061512592584214e-06
-6.227630389577039e-05
6.309950495850615e-05
7.867223729370782e-06
-0.00016772253981136743
-0.00020517381148742395
-4.216563671362461e-05
-0.00026831380518648943
-4.0533817512537964e-05
-0.00037954025015786045
-0.00018933631887633576
-0.00010589522520904765
-4.829600091313181e-05
0.00023434020255963994
-1.771790405726664e-05
-0.00034156395915204357
0.0001259173999100357
-4.222572051362522e-05
0.00010068995204606243
-0.0001439788147485542
0.00024399858871969682
-0.00016474903283557863
0.00019356390442147372
8.591315925764611e-05
3.4530355831371316e-05
-0.00011960554029464968
9.809259864260146e-05
-0.00024411573759588285
0.00017330183858665275
-1.9068253940629085e-05
-0.00010415403448821321
6.441169030458704e-05
0.0002135671021807327
-0.00012783453847441554
0.00011043984428067741
-0.0001763590859818274
-0.00014187409136775137
-0.00013610098386098113
-0.0002478544317418056
0.00017624408600601417
-0.00011338828433972233
0.00042165838067607713
0.00029354582926869005
-6.490794165722925e-05
5.571847405068741e-05
-5.8228039551157304e-05
-2.3346686078251048e-05
7.063778344544462e-05
0.00018144563686535513
0.000123589989453259
9.908511358535494e-05
-0.00014730167893577375
0.0002154541011695553
9.182630298129386e-05
0.00010052201891274673
0.00030527695723357425
1.313102247948453e-05
-0.0001249809849439259
-0.00016939211702390585
1.537246006624501e-05
0.00015733478342871076
-0.00019623672263768008
0.000139672852398867
-0.00027544269347456394
0.0001540330338479386
0.00029282967564296924
0.00013225600251914925
-0.00044734548278129235
-5.592946881336397e-06
-0.00014245683090654903
-1.6822105046523142e-05
-6.411814125234242e-05
0.0001572580046841952
-0.00018906500318385623
-7.410222692322396e-05
0.00033331506833704256
-5.808689170343277e-05
0.00012379651220810673
0.00034598721244364624
-5.17006301321525e-05
-7.700700735298167e-05
0.00012498056236683868
0.00015499816616434522
-8.53806249455168e-06
-2.0193250274785005e-05
8.287252400501287e-05
8.532941416848082e-05
-0.00017661849043606057
-4.9187087551602736e-05
3.171796454903289e-05
6.924669775170306e-05
3.34871222011359e-05
0.00017260362539534823
-0.00015461473184691312
9.452949100055439e-05
0.00015797588817441867
4.846851806779438e-05
0.00016325941860104596
-1.9196865450472033e-05
-0.00011140008230157981
-0.0002062419235252154
-0.00015835627124655146
0.00023376285749824997
0.0001041872860231896
2.8853658878403764e-05
8.237556116933849e-05
-0.00013163320494696316
-0.00015546917041970993
5.043386534551502e-05
-6.709638776469395e-05
-0.0002270027946453108
6.581833988842386e-05
-4.1457570937371205e-05
-0.00010767826005354884
7.204736234655936e-05
-0.0002546549187083247
-0.00012485882602648456
-0.00010879520467492896
-1.521962553672086e-05
1.1263710581066436e-05
-4.40094442453368e-06
7.661004358099699e-05
-4.969971185982773e-05
0.00027811915402352
-0.00017626334313448382
0.0001583217684281539
0.00019358650065888868
-0.0001910922122732907
-0.0003301369011483558
0.0001695967090932073
0.00014986487207475002
-3.0498781558706064e-05
-0.00010539371384122501
-0.00017323488117182887
-4.153759297586725e-05
2.516191254836313e-05
8.520151300097788e-05
0.00016577726630516424
9.012135028232996e-05
-2.103530084680437e-05
0.00011226638464854072
2.2964319709081538e-05
0.00032364051381843413
-6.257828322823407e-05
-9.495289249681388e-05
9.187372335818973e-05
-0.00018032340584661632
-2.2025882543786495e-05
-0.00010464552714630805
6.191016662002558e-05
-0.00017609925211430297
0.00032632697021940486
-0.00012758410246333028
0.00018319019825724896
-0.0001654657892355804
0.00032845789784069767
-0.00019404836227049374
-0.0002654715739965414
4.609086778485669e-05
0.00011955378054003746
-8.720180872393386e-05
7.12221888289944e-05
1.0088830573470419e-05
-0.00015081052610095357
-0.00030756903648464023
5.4329393053325416e-05
-0.00016587915935989162
-0.00012331661057841107
-3.280909513659825e-05
7.723768604567068e-05
0.0003801411434660924
0.0002204060977016011
7.792350055889084e-05
0.0001490331034486628
0.00015589098055491057
-3.9338535551802655e-05
-0.00022122788518855058
5.5653319575125454e-05
0.0002501899025631738
-9.741570881506861e-06
-1.2808950032558007e-05
4.419922060909395e-05
-0.0001520293456862263
8.346112434407984e-05
-0.0002136217484205392
-0.00025640174192731463
0.0001062290433981224
-0.0001967283725954611
-7.339226963626315e-05
-0.0003138156812480712
-0.00017337718749871572
4.265400207251175e-05
8.479285488254046e-05
8.809304281084917e-05
-7.4200183522824e-05
-1.1387300928321248e-05
6.298981618724452e-05
-5.931136460863714e-06
-0.00023641213315637454
-6.844953777183876e-06
0.0001193544650950333
2.8847491541186836e-05
-0.00015556712265722992
5.263139597696228e-06
-8.94227360578454e-05
0.0001762363455508014
0.00022143393416208308
-0.0001756302631540843
-0.00023820266852133762
-5.7902180556211816e-05
-0.00011393230323523216
-7.072291053025295e-05
4.5988918103536414e-05
9.572363927167962e-05
0.00015226817841691267
7.01131688125502e-05
-0.0001978640995079825
0.00013746705652760533
0.0001709131961986995
-4.587390279954932e-05
-0.00022190577361463632
0.0001885190046239144
-0.00018743358538833018
-0.00019863815583731948
0.0002488765575464483
-3.3185540738207176e-05
7.879131326517429e-06
-0.00026543642723592846
0.00017841131465144285
6.790817439384705e-05
-2.7961378195845906e-05
0.00016995457436510232
7.460923416663227e-05
-4.986778776427822e-05
6.537901047433363e-05
-0.00046895962590016863
-0.00013076602168450084
0.0003153341185959684
1.007373435689615e-05
-6.366059087731707e-05
0.00019452865923133921
0.00011754999928517594
-0.00021483288294043797
0.00016693165462389545
-2.559689296138355e-07
-5.436088774430707e-05
7.519161741573448e-05
-0.0002736461515638829
0.00028119902833410274
-5.333431838887941e-05
-0.00016555277750194067
0.0001886245765790707
0.0002811573990767522
-9.495387356979212e-05
0.00026559213128231714
2.9788247015782493e-05
-0.00011504802818005631
-6.561659861324826e-05
-6.118399671088589e-05
9.12909057400721e-05
1.2935976972540806e-05
0.0001969707793768593
7.041937613225256e-05
-0.00017444056971510578
0.00019021722252480654
-5.2749488815006246e-05
-8.006827735619817e-05
0.00029999193525934344
0.00013589353261845544
7.019773104344349e-05
-0.00023398603245706855
-5.719459201764942e-07
-3.118928827456171e-05
-0.00012048079600854796
0.0001600627909505104
0.00022005603066444846
-9.57738382872538e-05
0.0003666363515002763
0.00017244168586876292
-1.2990687661682142e-05
0.00023110813923567117
5.639292169302157e-05
-8.997807979995584e-05
-9.2063189283902e-05
-3.074792078192781e-06
-7.632656892922078e-05
-9.897434179641397e-05
-6.0999244912584994e-05
-0.0001907544167503378
1.3519346785490915e-05
-0.00019944532022883745
-0.0002860617186025668
0.00018859707616334834
7.38251254375428e-05
0.0002436917467285733
8.72861183939011e-05
-4.18418880256644e-05
-0.0001242226720694083
0.00020642358667525887
0.00017892340847158077
-0.00011769009095377674
0.00014571658513546027
-0.00013374712005265023
8.860235891290694e-05
-0.00014967821179761383
-0.0002586717362736601
-0.00010975541082454128
-0.00016862477611988465
0.00015971237205425094
-0.00033199547216355453
-0.00010385857310652515
0.00024195966454364042
-0.00014790560883060018
8.719766665798462e-05
7.293245192997725e-05
3.0406472634138844e-05
-9.807904008138796e-05
0.00011323171400344486
0.00012418666464617976
0.0003641755828955688
6.259140078036427e-05
-8.968154811339263e-05
2.32844533085672e-05
-0.0003105427133639457
6.970676871457687e-05
-6.68884183579196e-05
0.00016836795447005185
-0.00026625228684826674
0.00022264983294768015
-0.0001351818857150222
0.00018066333111483598
0.00022105284434089764
-5.296428116848981e-05
-2.0005516318157173e-05
-0.0003002246229094177
0.00023259740516985662
6.471231291910594e-05
-0.0001534265947337213
-0.00020153671781860988
8.873516245823606e-05
5.491561598894134e-05
2.3016993700794875e-05
0.00012221582351156982
-2.637688493802818e-05
0.0001367533502988772
3.8099669669199694e-05
-0.00010244351587767297
0.00014560248735371998
-1.873347486139691e-06
-9.601571721744122e-05
-0.0005550781255865073
0.00013293772595247548
3.436343719971135e-05
-0.00019146270019567603
-2.3219817470894663e-05
1.594401828694176e-05
-8.919460578767585e-05
5.6928501499274136e-05
0.00015806672916159222
-0.0003507387379549195
0.00021302099321186918
0.00014552614227258107
0.0001894135625276311
-0.0002250448594780424
0.00019319269447724613
0.00034576241066328447
0.0001844724368902267
-1.2963695624736896e-05
-0.00032249044314238307
-0.00013620112226000582
-0.00028088868971851106
-0.00028018624381223085
-6.072470392935703e-05
1.5378141860390894e-05
9.86510142538106e-05
0.00014654943226590576
-0.00014593205970124174
0.0001235028944489832
-0.00024033908410614355
4.346410131487667e-05
3.8429037332529816e-05
0.0003058642779261036
-0.00020212054007609913
-0.0002658181737895139
0.00019847560692298153
0.00020289018842826453
0.00013837524294101265
9.99627234828298e-06
0.00016326470102067647
-7.648747210744124e-05
3.43489561115931e-05
-0.00012346697045772357
-4.5197779502381325e-06
-0.00020592074017125375
-3.34534864445701e-05
6.917912751096279e-05
-8.69193816977346e-05
0.00019149184132634292
-0.00014643415240479714
4.178865472270213e-06
-0.00037506836282443835
0.00010094454006922038
0.0002680505767426147
9.91828862699179e-05
-1.670569555967627e-05
-0.00010838452712256767
0.0002723600799346528
-0.0002875733716392645
-0.00016804919158650337
4.264410480624118e-05
0.00013770138422809872
-0.00011911001979923093
-0.00014004658224826944
4.239296672585965e-05
0.00017590180763898844
-0.0001420806229433102
0.00014094465596583045
-2.124843845531387e-05
0.0003046784695151545
0.0001177818161933301
-8.702405109004658e-06
7.245840076804283e-06
-9.055277419418005e-05
2.5683362584477804e-05
-0.00022976577782444216
4.5727048448319105e-05
-1.2230307470936562e-05
0.00018353696273476345
-2.930633625878271e-05
-0.00014124533743888567
5.868405709141195e-05
2.8588397054442796e-05
-2.7354655258174796e-06
9.089641679590488e-05
-0.00026043759250875997
0.00010830021677323711
0.00023109969647937427
-0.00029635021695228623
-7.83012166865685e-05
-8.270312089213163e-05
-3.952150902897631e-05
8.926935071404427e-05
0.0001725432643153852
6.822346948869862e-06
3.421604606083729e-05
0.00016332509732960336
-8.906467763759314e-06
-7.955001484220964e-05
-0.00016248395199802395
4.266029530443199e-05
-8.014638307306656e-05
8.942914559601457e-05
-0.0002572525933113792
-3.940283980601146e-06
9.763881436544044e-05
3.102374092114927e-05
2.9114521443427912e-05
0.00011644324059089357
0.00010977804247045964
-1.1231154723599715e-06
-0.0001448680177338012
8.89218940248383e-05
-0.0003403840162755851
1.0618925514982338e-05
-0.0001321632938500842
6.354045695796458e-05
0.00020381932851605778
-0.0001737766449121836
-0.00025487414734426937
8.27622592108014e-05
-0.00012368957954682913
-2.174318840479531e-06
8.582830349883057e-05
0.00014149411373593426
0.00021009206462308737
-0.0002091006430532609
2.416822915022395e-05
4.220021386101862e-06
-0.0002513963480474059
8.52430157232064e-05
3.818832418316332e-05
-0.00018332006473010954
-0.00027205649413515457
8.688495386448401e-05
-0.00023459627211396884
5.329465336651698e-06
-0.00020853050464499952
-1.4405234551367305e-05
-0.00012295533906197013
-9.896612469482513e-05
-0.00012419602908414625
3.7195851233471235e-05
4.9420841801324676e-05
-7.096537967300241e-05
-5.158472112175385e-05
-0.0001553240823641869
-0.0001887562550572602
-0.00021835596810835403
9.212020687762083e-05
-0.00017828812851524833
8.408061438201535e-05
1.44364992100726e-05
2.479354449196873e-05
7.477741354340719e-05
-0.00011580204939498939
-1.3088470679972713e-05
0.00010693823619522875
-0.0001139534710327576
-0.00020659606121344674
-0.00017835534508076517
-0.00018665369586113597
0.00023646314128350677
0.0002218212445219569
1.1063211537426545e-05
-0.00038739380035242283
0.00023391023708491096
-4.551857715247973e-05
-0.00015725005947994796
4.333407897931613e-05
0.00013372413414005586
0.0002620473227083702
-0.0002345825169837121
-0.00011459166537476212
6.338035643436123e-05
3.452839525314121e-06
-0.00011738858722792862
0.00017971547944586454
0.00032651758785690065
-6.320527179795128e-05
4.1415274242857924e-05
2.908993748776634e-05
-2.398891081422861e-05
-0.0001390014856270122
-4.4688055148405926e-05
0.00015602201866520392
-7.294917675047469e-06
-0.00017612378992081155
0.00014700208728189815
-6.473538462113125e-06
0.00011094807307585102
-3.2139760631404804e-05
0.00019697675334197392
0.0002898857239668558
0.00011763222899061918
-6.916368066403253e-05
0.00023706091138863547
-0.0002494964111748077
-4.2765806332158034e-05
0.000291991959913865
0.00010566102863334201
-0.00013855171968252744
-0.00019613447289923061
-0.0002226660532428012
-8.046153714911618e-05
0.0001563375894197727
-0.0001265108619631573
-0.00022216629853331129
0.00014888758797596585
6.492728536832002e-05
-2.19797451074041e-06
0.00023018077891601713
0.00014170828778197505
1.4179213393540888e-05
-5.79805572097109e-06
-0.0001556523127221402
6.006281705190927e-05
5.670182105720314e-05
-9.847588275246574e-05
-0.00010627663170726714
0.00010589181308793973
-0.00010224211156564086
-4.842627223596138e-05
-4.54261806879563e-05
9.969093585675186e-05
-0.00023637621714590193
0.000234512906030648
-0.00017581279639896274
0.0001416268118356617
0.00011540795998687584
-6.466542596120929e-05
0.0004210332737813214
0.0002213575953486028
0.0003352932293931637
0.00031188609427247946
-0.00022102768978022965
0.00026712358679822673
0.00010877183228483775
-3.22155136044021e-05
0.00017661659158484024
5.561683286412142e-05
-1.505928333013334e-05
-0.00012328850866219832
-0.00015736036575314085
-0.0001239344869775695
-1.1124367715154237e-05
-0.00015561313472639486
-0.00023810259925978526
-0.0001065352150477877
2.2538519291243924e-05
0.00021266272784600248
0.00016488433233688665
0.000159524109341938
6.92577137618505e-05
2.4632031418300586e-05
2.2222463045611553e-05
0.00011886248773450562
5.262868900165897e-05
5.416296510277523e-05
-0.00010515078076696763
-1.1687905580471132e-05
-0.0002193818828923433
0.00028738737290102896
8.515928414844539e-07
-0.00019097484656338263
-2.2613033505278926e-05
0.00026876645477763236
-0.0001945774220186174
0.00022407894257384236
0.00027441645267175537
8.361990434732713e-05
6.195222319969473e-06
-0.00025805203337236963
-0.00021154215103634497
-0.0001102864422424067
7.88048625902323e-05
0.00013761004044637054
0.0002364471483068096
-0.00019407712642309093
0.0002735601849588135
-0.00015485047032891915
8.363449278910908e-06
0.00010528009809074657
1.5683734186605742e-05
-5.1047698587809976e-05
-2.4663139563132187e-05
3.2439834214337513e-05
-0.0003520739271782079
-0.0002515206618706629
-0.0002638445899956159
6.329296643938526e-05
0.00023173305345205498
0.00011684498487299843
3.816444513994184e-05
-4.5989343447707844e-05
-8.041665871119237e-05
-0.0002572503312017636
-0.00022101636783581588
-4.501497078286541e-05
-0.0002668556483234958
-7.592805687581048e-05
6.961245533499035e-06
6.515358279530649e-06
-8.370694707685864e-06
0.00014342545362104232
0.0002385883079350779
0.00010601191726716478
8.946477767618276e-06
6.738160501460192e-05
-0.00018417625631546186
1.6236068899632014e-05
-7.803495226940007e-05
-0.0003194374727466207
-4.807796103744136e-05
-0.0001929125153356943
-0.0001807196552816503
-0.00010771522251960242
-8.257868410877203e-07
-3.500556484443535e-05
-8.671720116855171e-05
-0.00016211902440726084
0.00021561957215802258
0.00010992318664519214
0.00026693629480915057
0.00014869616603800548
-3.9229943972884445e-05
1.5342241816972662e-05
0.0002743943366176917
8.510155828397435e-06
0.00013521024322946435
0.00023387013364565006
-0.00015351216082321332
-7.644378107206178e-05
-4.1655067342387106e-05
0.00025233764187400435
0.00044647702973760564
0.0002004896135931163
0.00010590577270787602
0.00034257408568196196
-3.130440811345051e-05
7.145914591061281e-05
-0.00031631358873855577
0.00016313061761644593
0.00021736131766842285
3.61530447471238e-07
-0.00022910734142410013
-0.00012935898696816246
-0.0002606203194731392
-2.1156209410714215e-05
7.672989891336015e-05
0.00013316596705871748
-0.00021665245549611168
-7.017109133547293e-05
0.00019083727699290885
-0.00033520539837114124
-0.00011975762956140514
2.5796963702655086e-05
8.921412259624274e-05
0.00028225655717284756
-0.00016886232563270172
-2.6397740759409438e-05
0.00011684482576757245
0.0001463922904956837
9.580169838711227e-05
-0.00010069237730197289
-0.00010042898894745322
4.945201423619819e-05
1.9954861378504185e-05
7.678364146566349e-05
0.00012753104057941598
0.0001058084252987132
-0.0002783188856368486
0.0003504128182939145
3.821492423921759e-05
6.694505751168364e-05
-1.0455064113873142e-05
-1.2831024316079008e-05
9.31374806690306e-06
-0.00012618794384101786
-0.00028868212902393483
-8.341802961608632e-05
0.00020208869839845407
-7.065165649726196e-05
-5.5245983253926484e-05
0.00018413607594369326
8.090075836149177e-05
-0.0002561128466188173
0.00011769038448964952
0.000136415913584825
9.213608338246253e-06
-0.00014385837688728843
0.0001627627589006334
0.00015220032263226076
-0.00021331834376397084
-0.00017916843170468204
-4.3297515328319516e-05
0.00011440037231179302
-7.251511122423777e-05
5.110737279246679e-06
0.00018817792883270222
6.276691942155597e-05
1.9455943323430917e-05
-0.00012527277790433646
-5.664206178193567e-05
0.00016738639180987694
0.00016083160746865912
0.00017837198544285997
-0.0002928202901895839
-0.0001402095309155053
9.409339923919751e-05
2.851290333895731e-05
-0.00019684585543443755
-0.00031403071434655476
5.363966018835708e-05
-2.88178638748455e-05
-5.638328282892798e-05
-0.0001389421215707788
-3.483013663483872e-05
2.7385072161974455e-05
0.0001385427572267814
-0.00012589206678672066
6.377422345031015e-05
-2.5767129376579964e-05
-0.00014446864136224277
-6.107391392817156e-05
3.465977007154555e-05
3.44427720352983e-05
8.663700471487109e-05
-1.2528765185553755e-05
-8.468547062377105e-05
0.00036775226396545035
9.051487744615628e-05
-5.5827727950129984e-05
-0.0001686707412539013
0.0002420475726096174
0.00020734533852321342
0.00021252211086870184
9.900782415175865e-05
0.00038549668422726565
-6.454505748655856e-05
0.00021597806471973995
-0.00016949687111561098
0.000301257182436132
0.00014139726259168432
-0.00014134966660731387
0.00021989374057190442
-0.00032186344961532406
-8.769394035561792e-06
0.00017760296706873673
0.00017500410379302903
0.00010786019731271527
-9.794881953862093e-05
0.00015431910117179814
0.00013245434463470766
-7.463869917496007e-05
-0.00019370396909641814
-1.1149880430199611e-05
7.136023108649897e-05
-8.088546646198645e-06
3.6632666328372874e-05
-3.5036558612351e-05
-0.00019267163289768643
3.547166623821701e-05
-5.33073244039372e-05
-0.00013187717351396695
-4.689229093875477e-05
-0.0001724724718660091
0.00019830478075528256
3.399053926271059e-05
3.946948201107217e-05
4.896747370082606e-05
4.485872824820111e-05
-6.807742414454217e-05
-6.694859468019017e-05
5.882402895425336e-05
-0.00029556641503268626
-3.402633261421619e-05
-0.00023764468673505125
-9.910927098284118e-05
-0.00010048677632801672
0.0003076836320318002
-2.890882885787974e-05
-6.550987072853841e-05
-7.705277648739888e-05
-0.0001250951532151436
-0.00014409308437339117
-0.00022619122314030508
-8.762434805644667e-05
-2.4678119550865006e-05
0.0003239447998485433
-4.5576616728281e-05
-0.00024452622054638065
7.536868659276555e-05
2.9810516379129012e-05
0.00015659114699312913
0.0001470263276861734
1.765234959617758e-05
-2.393229488773239e-05
0.00012017336057055565
8.870702504514603e-05
0.0002998502579438732
0.00023861864805776962
0.00016093650653623126
-1.5716868044699465e-05
2.4710834135593624e-05
3.690827060664942e-05
0.00012649954822464767
8.00769997990119e-05
0.00018497521035275557
-0.0004130762161691126
0.00024232499330333973
-0.00016912831188196602
9.294843131547144e-05
-6.0316452141656706e-05
-0.00016974811313713294
-2.4773453489422238e-05
-5.0207974426534316e-05
0.0001941477454285622
-8.658940858714787e-06
0.0004235681390289961
-8.209131041274577e-05
5.1199149843127715e-05
2.211471598435914e-05
-0.0001918411827267674
-0.0001883720282719638
-0.00010669843357565592
-4.41301484017858e-05
0.000156548615788952
4.950821642684628e-05
5.5956695054931664e-05
0.00014146560983034875
8.79553562512842e-05
-1.3456528562626493e-05
5.741362143112565e-05
0.00010087880895808606
-0.00017874234616043914
-0.0002183958000399059
-0.00012264877447804034
0.0001428264250589423
-0.00040928916518307524
-3.6458373298835728e-06
5.755838001258847e-05
-0.00020094078003275633
0.00024861175182625526
-0.00013042438659868538
0.00011155572951497355
8.621675660978876e-06
7.897617070960029e-05
4.25555753465509e-05
-1.7752214192962512e-05
-0.00028815700775572205
1.5834299164441112e-05
7.1892751419784e-05
-0.0001844205294488431
3.4760784399877164e-05
0.0003175153537003473
9.074310966266019e-05
-0.00015486059276483366
0.00030497945468354893
3.564670907239942e-05
0.00021060898044520195
-1.0022007505722779e-05
-3.236631551165505e-05
-0.00012030198892726012
0.00011085502940462231
-0.00021036550794506511
0.00022002543390735354
2.8994419105782553e-05
-2.430791587181397e-05
0.00012441216919766102
-6.739908079880617e-05
0.00032984332604775706
0.00017547133517672032
0.00025645615016123334
7.370991027139321e-05
-0.00031217192668900876
9.591974970830958e-05
5.829927922659439e-05
-0.00018367754765262118
-0.00027672655875536726
-2.9602738085597234e-05
-4.143407498412855e-05
2.022881470072571e-06
-3.0328249067295585e-05
-0.0001876975273348325
6.854461067347125e-05
-0.00024176284835309474
5.602147050582215e-05
2.560087485842908e-05
5.958247323424695e-05
-8.266641570180254e-05
5.6417191447084496e-05
0.0001528286266953792
6.7164442751721836e-06
5.1752290600920696e-05
0.00010143104917989292
-0.0003112764563306635
-3.3682483795405166e-05
0.0001505679341289056
-0.00012480117088899324
6.388118562044799e-05
-8.059137086956897e-05
5.2253589764024566e-05
-1.3061457261616511e-05
-0.00034551308698385505
-0.0001489123598522285
-0.00011776771665295573
-0.00019689633006841426
1.1400869294650905e-05
3.937921153020031e-05
-0.0002580242820544179
-0.00028715748639867564
-0.00020533449637468611
0.00012662668708180407
0.00025564490731717795
-7.822279438174916e-06
-5.598809168137516e-05
-1.8377583526786543e-05
2.3193107874400186e-06
-0.00012877009720640593
-0.0003154010715318079
-0.00014827469400505473
-0.00028419121014955514
0.00031301068820032676
0.00013235281807658287
0.00012395791987359118
-2.2816317132153227e-05
0.00012335620105957259
-2.1464147662090397e-05
-0.00018942724224690059
-9.881825258556884e-08
0.0001503957188520467
-0.00021404752766743956
-4.4667856946794034e-05
5.800000863809102e-05
-0.00020053615469757587
0.00016527434712499447
0.00030975193151269243
0.00024675813670192113
-0.00017098183398846375
-0.00023258262452031028
0.0003434152355387422
-0.00010586911384851563
0.00025592394812847213
0.00015259303789453259
-6.382819227763548e-05
0.0001068279812038037
0.00019558803865848991
0.00026168129432419765
8.42638394222131e-06
3.369790946846431e-05
6.562817575706575e-05
0.00010853455849209333
-0.000273391033482735
-1.4590623718217849e-05
6.759965618698145e-05
5.3119104526311635e-05
7.196457350567991e-06
-0.00028369299759767715
0.0001447728838225884
0.00023521493311168354
-0.0003871776229055731
-0.000262034149538571
0.00022846113348985554
-7.458806682399909e-05
-2.6530690967629062e-05
0.0001967040182601029
0.000361213126147958
0.0001367819250424192
0.00038666232655843965
7.609017351141318e-05
-0.00011834780549151231
8.812824852480664e-05
3.69473029890707e-05
2.6482253007831772e-05
-8.021653030448067e-05
-0.0002393882534936328
1.611004925483974e-05
-1.3498421871643568e-05
0.0001744236587471966
-2.3669952407116182e-05
-0.00024890423098821156
0.00014527851261634113
0.00030205971773735694
-1.3221223569664876e-05
5.679056269473281e-05
0.00032143469159923074
3.8622165227605934e-05
8.309890830488878e-05
-4.300556411490123e-05
0.00013707670103708553
-9.455187123376673e-05
0.00020851158415664353
-0.0003443275862551662
5.1297936350720405e-06
0.00024038554982401636
-0.00021065198591306114
-0.00018861583271665843
7.067843246678458e-05
5.095772669326077e-05
0.00010124623912043556
