weights_cmbo
-0.11545016689897375
0.19256048386117944
0.09137105996984274
-0.17934154353006013
0.0793313854157261
0.008539990745147727
0.11687598521670352
-0.2862049416385443
0.09921072665406598
0.45291072483335865
0.3359713658464955
-0.08075795242636735
-0.26175570954119604
-0.03261590933260394
-0.22747697233691477
-0.11431394464054942
0.2598391619700228
-0.010008354995567797
0.39795658915784915
0.04520899368649851
-0.043530443321141594
-0.08880330705598893
-0.006552113558308647
0.2812757886260652
-0.15514083491968722
0.2945154381290667
-0.22029612265993032
-0.2555340679332508
0.438246860038431
-0.2469880994467582
-0.2929555206101622
-0.14217116253733755
-0.4306638478535537
0.15735833771125846
0.060112748629292424
0.18946587669173878
-0.2296469048916466
-0.15186284988542997
0.45202431239331214
0.15428663347752836
-0.30271234154553256
-0.030345739965006245
0.17113991547938648
-0.4468593984026019
-0.1513934917046793
0.10771010446526412
-0.25793411471203154
0.3449477453907276
-0.1430461214531011
-0.15388440392975208
0.198593423713237
0.20374780317655417
-0.18135808519247473
0.03656287096688401
-0.27124526533103605
-0.37684318770349146
0.06547616979976727
-0.16625340580266845
-0.1598357073658405
-0.20743651132588917
-0.29087096091234743
-0.3324369508356536
-0.14440988767757038
0.13058386347177348
-0.13924786234512548
-0.4567029329518136
-0.007368008007867581
-0.34722607604215355
-0.14027238165755004
-0.23601776308401276
0.1759693497174844
-0.06658696035464026
-0.2595195330816843
-0.2489542377060257
0.2779343835901931
-0.04186791682016739
-0.5073935364878943
0.30807173827958373
-0.2498746597955722
-0.4004808228718513
0.016934799737204534
-0.19530093773307453
0.10430182663023835
0.08300797879751473
0.18224154810156523
0.062261822005459024
0.40161322113700676
0.11582602934714985
0.003991378638239215
0.3094230893446032
0.2328147592700604
-0.25271205610559505
0.263503333899014
0.07445492690263052
-0.10772714428585232
0.169742275126368
0.2540675173986897
0.2044191872108805
0.001877320985480767
-0.06557934657229
0.01861097457598417
-0.0521712242179281
0.09239241124747946
-0.356133278424149
-0.21205225747938247
0.17607337299195772
-0.3332754963123812
-0.07653183297730363
0.07124714562120212
0.4859572600633982
0.12819851497006104
0.2498202754825589
0.23017856137961817
-0.30193111059503697
0.37383478460065994
0.30058426114934667
-0.1326081706386558
-0.12131207879550583
0.12319495403163022
-0.48650434658090247
0.4466140506752169
-0.10620378083610059
-0.2692038711932594
-0.048448112268338304
0.0730644976064387
-0.09741406156411052
0.03589594503754984
0.2691367797136476
-0.2053197454040639
0.24421013639628106
-0.22070337884475247
-0.11979208055829296
0.31971508967122236
-0.05475471996027027
-0.31634798194329994
0.0005828541269530369
0.3004633395264754
0.01587186950168981
-0.2019146528578793
-0.06895940874826069
0.2109769637321024
-0.2916756099083193
0.0034207991698206146
0.25364895275127497
-0.23169624015344675
-0.2729236041480014
0.4077712206556187
-0.26437370689532635
0.2310446022599032
-0.1950306028599141
-0.1166311316300022
-0.16357555020288514
-0.18983086513537076
-0.03966813429170757
0.24604123350864662
0.1123666687448761
-0.2656144802614018
0.1186957417636479
0.001025799982138456
0.07924576632238747
0.014187022906938749
0.13752664207871676
-0.5111710001673122
-0.3949656864139416
-0.167786147529183
0.03518287328612485
-0.10025493573545681
-0.13048196265334153
0.4742428291878027
-0.05926593262563476
0.05082974347111679
-0.02446434701476987
0.3908531062699291
0.16112940508157697
-0.02118543750458067
-0.06497441032789487
-0.051988226055050935
-0.08318749199462915
0.015127606292852052
0.09155728050529668
0.31150985550465016
0.1401783722453301
-0.32978408520509217
0.1378754410965421
0.018807960248736256
0.0026331929136400064
0.034893788492062656
-0.20767040834259348
0.2809126127570118
-0.016782894308307057
-0.17684626203702236
0.10893582767579207
-0.0190722918682664
0.20670515677319307
-0.08403671540443738
0.20971682684910012
0.12589167322913042
0.06838305362555008
0.16135057041032783
-0.20893457771126364
0.07596230295493511
-0.19865839687253037
0.4658132559309674
0.2886979988882533
-0.2582199429158349
0.21541246613284315
-0.3803379742879217
0.05163626754913817
0.38915686474040906
0.3359236450945468
0.20260258611495105
0.032974991867113196
0.37989120161995615
0.18306313635922442
0.3488962773555326
-0.27829641248460696
-0.2349433643601081
-0.18638187247257337
0.1641234462588971
-0.23895678939978812
-0.26594507233286685
-0.17506973512368684
0.2712998921247941
0.2574502599865448
0.23689104562536265
0.05982297836551934
0.16661739873797876
0.10869956921800493
-0.14801966046291504
-0.1801241489691675
0.13295836315674994
0.49398465095577737
-0.29308466916162096
0.22482837137257217
-0.05845150574941255
0.08080496635873033
-0.061535684916959994
0.3708481863051869
-0.2921996015283075
-0.08817301470035917
-0.04071714497784398
0.24737771775340234
-0.03053496591352669
-0.23918850930190433
-0.3387789861796626
0.13185325902028605
0.1509637811618226
-0.004131244627767207
0.29283960592937175
-0.3133887080829589
-0.16720021706172022
-0.08086269129985466
0.15218487969320746
-0.18514856373144462
-0.05824624475569843
0.36934532082876476
0.08441940356953859
0.35534291000910123
0.0523991509897292
0.1850329553528729
-0.198725618223505
0.4238810981110887
-0.17963895423139076
0.10091284100831555
-0.29876281478807726
-0.027816361710427593
-0.09415725800625138
-0.19531505986573305
-0.0333560704302756
0.30281652230595274
0.14491390611754082
-0.25920641536313493
-0.10589211723907861
-0.2996910762822111
0.2462719266473022
-0.33688801407657915
-0.0628151581966824
0.39648565081901893
-0.3315053988758801
-0.3631024948921429
0.23245538995176102
0.38098443662526654
-0.046105676132167435
-0.42127901870907075
0.0568149283318975
0.04893799062163096
-0.17488889790327333
0.15554618190844255
-0.04627842903196064
0.2787881100845941
-0.045816746596922246
0.06527123912505342
0.20358034600939254
0.20748465176956682
-0.17820885062947042
-0.3111798783713926
-0.04903041965741625
-0.2826660308434709
0.1197475628198833
0.11611096665933325
-0.025575166056018367
-0.1482347327704649
0.47587906789413276
0.28114900467615334
0.001077730667622123
-0.15901102529580222
0.10389979854287525
0.10066351059291696
-0.14321239155230234
0.12360766204364232
-0.15526308697670615
-0.24141753965536164
-0.20511525667722247
0.09668416643024104
0.35506235789569446
-0.011224755248242109
0.29333303367549146
-0.2067936447354561
0.20385744982404327
0.18390752678731254
0.08258881217083425
-0.06294286288363374
-0.45688928330000317
-0.45031932132242886
-0.4851567186099463
-0.08346262448102654
-0.24596802247586116
-0.1855312119913528
0.046694129288187954
-0.20419378712999062
-0.4060186250765832
0.08532363737347791
0.3817473880613339
-0.06886402765531932
0.5013958143962322
-0.15014038377025588
-0.06722030887635361
-0.20262188212512022
0.08692698037560755
0.11356478487030582
-0.43802127271894226
-0.10417777466876894
0.4069313974092679
-0.05443594233775443
-0.05962975382966806
-0.42037260540509236
0.06938677464855078
0.21024884882882894
-0.24121665261806838
0.17652179390841471
-0.2559946959774324
-0.26840580406975445
-0.09529329578615492
0.036941168719057026
0.07851578914477812
-0.05811404720515281
-0.001622357765341755
-0.135562615348166
0.04637067198276527
-0.3648730230895055
-0.02990859821366408
-0.09666668377040491
0.23121859546758242
0.2569692868139854
-0.15212996847251387
0.36781056936348216
-0.1329435801465258
-0.030106011917027015
-0.01999603191968813
0.4097737950809952
0.23410298420335904
0.00456303013920002
0.17838735807800613
-0.25399174936151864
-0.22942772568150926
-0.42878600803897976
0.14150751706178025
0.015225953675025524
0.15999724395894271
0.4223595607312213
0.43574866262177825
0.01713216150409752
-0.09863727126669967
0.06914237796695048
-0.41211759398131453
0.21294674803753927
0.06467163435588878
-0.16745371364894926
-0.5289273636146119
-0.04696125223819941
-0.26604256264592874
-0.46184754200529404
0.13282053675738426
0.3701557062357111
0.10456091649786693
-0.35616853318140157
-0.19667136110868672
-0.2268102537733358
-0.13253471862867328
0.12314630577223747
0.128563908987933
-0.05859378518602348
0.06944263700067618
0.26085080767211843
-0.020883548556943188
-0.087508862235991
0.24800696113548365
0.04079394936049874
-0.11783587086445614
-0.17972355111224086
-0.1391806408799787
-0.5176675140316531
0.02302374878755095
-0.1303575569962841
-0.05280391800732599
-0.13182631345737492
0.13373073766369198
-0.028051583004615677
0.29510792163861876
-0.07304400860065002
-0.40904920369036013
0.15372513099984275
0.2912794779655422
-0.3023694410362871
0.06862635742286882
-0.395740892622926
-0.16067272531042315
0.18220277487714617
-0.019572110904327356
0.1878502885441172
-0.14052650193168414
0.09744273539629122
0.009105789494163942
-0.056201725939453794
0.26936176595918243
-0.05382710291012241
0.24711555667572913
0.14569267665936686
0.18782340688656288
0.05958382259872375
0.11976028296823278
-0.2900157020247746
-0.2730863987943799
0.12194911287798238
0.17246532023127342
-0.09725263665400381
0.009803591941305478
-0.398964897057103
-0.25627712130437524
-0.06334554937843738
0.19036769982499027
-0.26215569679714934
-0.20947178748257816
-0.011332035541446591
0.25017732149786975
-0.07147251485233987
-0.05341421241421104
0.19356040586113293
-0.05985427754594717
0.43841673166817485
0.04764590674525233
0.3964479306644727
-0.10948402526379748
-0.05187270474711817
-0.16146483572428066
-0.18756519614872336
-0.07594651186669533
-0.2795167990054652
-0.1713760766697287
-0.07644269850632347
-0.2972634422866501
-0.1067817358567364
0.07237229552545209
0.0005916892230190742
-0.006394678477270298
-0.057210177958483266
-0.27740591294951294
0.392032540119907
0.06900789854575339
-0.1105255426920522
0.3320212734467689
-0.0663069616413375
0.3105901307173481
-0.17338067180703484
-0.43492508264841784
0.43454182062259816
0.15503835055118845
-0.11638510060767832
-0.4973101600210247
0.10846042613286676
0.288816838865779
0.05933427074208582
0.32046404102865
0.44436552745964514
-0.2633644949878489
0.4186693457208835
0.01518362236936155
0.2147973034873033
-0.29784639494931203
0.07591361063135867
-0.20186730127682645
-0.06344376552084706
-0.13196119383860594
0.3324927035355199
0.25042946160526447
-0.07023074425865122
0.07764676517282343
0.23354223868647714
0.2115085751891414
0.37890371596474154
0.002155793577160326
-0.15582593114196902
0.14787242904053627
-0.11878319817948654
-0.04500431447200766
-0.4203682167004131
-0.009835591994129762
-0.060601252411749136
0.4186191866880463
-0.25685306787476786
0.38507565612806205
-0.05442779742778969
0.2927207919773379
0.3621480370283584
0.19879503697439205
0.37100004956575483
-0.3147000464535033
0.2602813160597818
-0.23505365448681392
-0.2387953589920872
0.0699420782621346
-0.11476817695703925
0.10133860037915683
-0.2690577873462711
-0.1090037864080215
-0.5770619299943263
-0.3600800376699392
0.07713631544642177
-0.05241253534947258
0.00987241583542081
-0.2541622738217022
0.13473521989484638
-0.13066482587871442
0.44377965154389637
-0.1089934768765881
0.08268384096640907
-0.30426746391793363
0.08483932728525759
0.04452668534871461
-0.08621970333231208
0.008950410820699601
-0.11106058600327288
0.31158800181868873
-0.4871056980307837
-0.13075697623444232
-0.002524687195689274
-0.3219181483967754
-0.3155586317531838
-0.3418709695753936
-0.2651017666025709
-0.08156179410249582
0.24517997007363931
-0.25283017669166447
-0.10114148336693113
-0.3907808141749304
-0.16061086338877723
0.05166799867133375
-0.11183072423795384
-0.22898678355048027
-0.1324114842261689
-0.15261251890257369
0.05644142621265942
0.3378185714116219
0.07252602681352735
-0.28280289939497966
0.3043594334627439
0.25536177451562536
0.21676045024830068
0.28057752471144576
-0.45370410089716395
-0.017092877772280284
0.054855315910692946
0.2078367509949619
-0.3978318484332727
0.3270713432914317
-0.24877867779966917
0.23395044711500623
-0.01595497820217417
0.21680644523097076
-0.197379907231257
0.17637666437058866
0.4480458494655577
-0.20524745707419118
-0.3542477013279469
0.2068935569585852
-0.4626567970365479
-0.00545077051310834
-0.24541541509237055
0.17671357964868548
0.20279074162677063
-0.2889348815485916
-0.16984793921081245
0.452115821611587
0.07132693116737795
0.13586479932275947
0.18950425815773475
0.06710639406946034
0.24426649149472787
0.11044289968075222
0.012209994359025728
-0.25514403961162346
-0.1365507207063289
0.09402370342284048
-0.39319379242513786
0.17105845592464033
0.05877116390239735
-0.014956479561638137
0.07503717018852597
-0.1344985317026625
0.0830531815857743
0.0705069299421006
0.04628904231353592
-0.03595608823745012
-0.18753135421368697
0.2107699843312118
0.6008837702851778
-0.1641185033089998
0.33504526666862366
-0.4677004712722457
-0.0370591058639311
-0.07725252959744033
0.4498277607817759
-0.08938165660665359
0.03621913825126521
-0.2553728781290467
-0.21736465973441324
0.25217395072493276
0.13806179271566463
0.001670974585242878
-0.417146193155728
-0.09960036171224705
-0.3638203870458801
0.05723953983730485
0.010181803303406975
0.10096124187657353
0.1543060446396425
-0.18363347535004393
0.028995596769781907
-0.160008307321361
0.05762320344839267
-0.01675085691689461
0.422150645802061
0.07079575846626393
0.40665320948044553
-0.06137270580312237
0.21949444746145536
0.3277963564475214
0.21078392005814883
0.2955611852544601
-0.10994713720741936
0.12997350789426027
-0.37479505643963706
-0.27519591402501187
-0.012834423855620744
0.43565938542954596
0.5245234492896026
-0.10965354132601754
-0.11271327990591755
-0.02894360805423747
-0.32055449789341806
0.3491605244561165
0.23884316378041023
-0.17410524848476958
-0.029501630125673896
0.10552719828658431
-0.12318836797045196
0.34547663276928753
-0.129228221289909
-0.30911638153151033
-0.010102588755683586
-0.3504653915148309
-0.40778872695928636
-0.03701679889383083
-0.002181567930078558
-0.079313214165884
-0.05746319513356543
-0.20295981019156087
-0.29629942088904565
-0.31477450438626825
0.0526679415394566
-0.05305928851702885
-0.0896553509777668
0.46245649189404414
-0.03274396738225821
-0.3381440973358455
-0.02477262155596228
-0.32382546632545345
0.29500264671665377
0.21520362301093213
-0.32801287524452416
0.13644251368679547
-0.10486044072103305
-0.30082131042313737
0.03265189950090534
0.12188472807709816
-0.4370590182369074
-0.1721326883767258
-0.09512228903236157
-0.07982428418993817
0.14317658905390893
0.38158177874572524
-0.04518701911297318
-0.44410946450090816
-0.23329262431153305
-0.023311457641959216
-0.5050549133080685
0.09724122125958501
0.09486288842107578
0.3607333553449227
0.06480746046468114
0.27432601682050445
-0.3353230397815274
-0.29322357760229645
-0.2317780966242172
0.31975276003338793
-0.10566006865209593
0.15014025851314883
0.2834908445464578
0.23763695624824427
-0.259999761144407
0.22342809016630574
-0.25385999610000526
0.1745352441216841
0.20283856869300435
0.3513927460187248
-0.4908659501693084
-0.023495575464916617
0.30868435560835267
0.46828747292564277
0.25854289626572957
0.2936767552854784
0.17012927246693318
0.3365443937078797
0.05710990849112569
-0.4120277701575887
0.38840822331236285
0.4550203789925088
0.154472283364572
0.003766549368208005
0.2737867613758251
0.3054334043184131
-0.1180064722549304
-0.3630217926877321
-0.1935826556188396
0.183006369274568
-0.3464569020985293
-0.023505808302496337
-0.012708149522408977
0.018127190766225005
-0.1339847002916625
-0.031078495754096682
-0.04476633255008722
0.232188397424361
0.2683505240569551
-0.31121523780451366
-0.14424945323703403
0.04076081371030298
-0.21318246224004503
-0.1246858944119174
-0.05040903855724833
-0.08194636093179537
0.2260588967706489
0.06448486867751366
-0.07445586061751143
0.12441300175363464
0.3701289263780021
0.14439666919115124
-0.0468551641342519
0.28945572014683146
0.4877660285664044
0.24290551012424194
-0.03770031224672562
0.15675713241042233
-0.15806528919483248
0.2995389993712044
-0.5614419803349494
-0.0992526639330286
-0.13002415210368806
-0.36304369926669816
-0.21471952972202674
-0.0002534973818146847
-0.00018171272951947163
-0.039761463582058024
-0.14861315019138527
-0.3371840128580432
0.020732345945012214
-0.42883443920874753
-0.050005717059452004
-0.17930906268757177
0.2269723534054999
0.07839840576346854
-0.31509990269465415
-0.029860999495343925
-0.3504830958623727
0.16709197263167294
-0.055599714506081574
0.24704819605314507
0.38817441339455816
-0.03168238558615892
-0.08842516047855675
-0.17818710754660413
0.034928449806042615
-0.1656713410267582
0.4492574926000613
-0.0654171726496593
0.3509103926947628
-0.044183548655085815
-0.110598297050541
0.3835419625342789
0.16926173680081152
-0.0689071152740784
0.1906553316072083
0.2679742356017545
0.3321713809417846
-0.15283589472300807
-0.052357011124079395
-0.184437310852317
0.22736215092754533
-0.013549171468308313
-0.023274048847807923
0.14466990429225743
0.20141275554291663
-0.337750056081242
-0.40056562749032576
0.22999505851049656
0.0009861046889774435
-0.07952908390048946
0.3259328435040324
0.4919255475018765
0.18336497893714804
0.4687626395006996
0.21309516493529584
0.32857209442080104
0.29053123461458724
-0.008914412626936163
0.31058431368425415
0.1596032792535286
0.3121835623472331
-0.1702249440317089
0.2604965960009327
-0.2982651158554895
-0.15975228135872627
0.039734266642246475
0.3005682742427523
-0.08554951175567352
0.2103229059941162
-0.0701911334958408
-0.13054594104504405
-0.059195623032291825
0.003975454334736724
-0.3190308603939873
0.03901729263323929
-0.3691662165503325
0.14541098956613502
0.10253277091567181
-0.1556110461547112
0.2037475792552016
0.3724638050257552
-0.258894518646494
-0.03540846524388847
-0.14825696182475356
-0.2173234240590323
-0.014489134820088007
0.07146374472061039
-0.1539265247638839
0.20042443921700936
0.13143114661803124
-0.2235056622719871
-0.2183041607774492
-0.044749923337825404
-0.2669493076142734
0.1314957132770765
0.2596074896060795
-0.1284219740902319
0.12576371077057136
0.07388971320745377
-0.33352219834735536
0.23760612699701475
-0.14920913828005533
-0.16203759223983966
0.29415971344534597
-0.18545529187667328
0.2634280659509851
0.09901059547184284
0.0728986619474564
-0.15653608823401977
0.3350607716998479
-0.14336498062032532
0.13520402515661165
0.05654027994302381
-0.01468390481384747
-0.4433644554782431
-0.1841132034191775
-0.11550330616881019
0.1820832552223095
-0.08071214556084065
0.2741162030449533
0.12972846646338515
0.41596974668677567
0.06944558334421047
0.2187190562955917
0.046879346130660964
-0.1761228627751501
0.11147607528156532
-0.038648151749579605
0.17980203133992653
0.055861232875324414
-0.3520995570160675
-0.3620375386673654
-0.21197678431593558
0.0008682745424973749
-0.24005767767542685
0.295573591715473
0.3055702802825629
0.24163323709694415
-0.05180953996248621
-0.4315011886302
-0.24710732963149137
-0.42180422977799226
0.03721538421780158
0.024797992825640134
0.48180480942586024
-0.0819501507467754
-0.4206887817931078
-0.16994391972050138
0.0986171614708451
0.2751333767110485
0.02645720729900325
0.04096464323438814
-0.14923330711341207
0.21004075669054117
-0.0060581787975034175
0.2738829873639411
-0.06855208896938757
0.18048134654370787
0.40482563220846013
-0.535975658825069
-0.0530142584222069
0.1420414702322885
-0.1299672314417162
0.13356839656632408
0.05866521119276483
0.12973737252550796
-0.1287635254879204
0.5056935252952482
-0.24716236609867562
-0.2664385451374565
-0.5342286139187067
-0.07422577471376673
-0.19874330833445725
0.06191788564843372
-0.07731035071357573
0.2342211412081172
-0.41666083792771563
0.053841771689464475
-0.45631515217895524
-0.3228529721079853
0.143660264988107
-0.3323961068488253
0.2174997159671553
-0.1133743250272945
-0.14797291112855565
-0.36827195732359364
-0.16122903410929434
0.20615017525956061
-0.28680344830937926
-0.0513705368212945
-0.062412758406689396
-0.3385909329755366
-0.0034607311486467914
0.3260996728545518
-0.08453300462617908
0.11641527060030817
-0.22069504781142835
-0.03883996144059183
-0.393409824514748
-0.08134832507899564
0.31690572886885404
-0.03131921280449951
0.043655370020161774
0.0048180926730003164
-0.01318977803357531
0.16900929239127
0.10812632361083288
0.3416155304359003
0.25593512088960785
0.1805267951351769
0.4701492403600753
-0.3432139765188371
0.00157628666852398
0.49476003148851055
0.08957776739093111
-0.02200768963986406
-0.16113055509886734
-0.04564632753869984
-0.18647042959398966
-0.24138442744344737
0.03960145124743276
-0.17578658466068664
0.467146223964133
0.416756716228653
0.36870924045069414
-0.2625330056882371
0.06012910987027673
0.1829729801234297
-0.11523803337562843
0.1935570603592404
-0.21126412308861806
-0.09298782340508652
0.07446004185021471
0.380598285143843
-0.1031373041341052
0.26724614228718374
-0.3191174040196975
-0.28033945444355535
-0.002514848221941762
0.26310983178099
0.14812114364202394
0.3117677834201817
0.12270201453485974
0.04059540335918733
-0.005288026334314261
0.1227255228876315
0.11826988774484078
0.3917573359977645
0.3786339796844227
0.07374829522516238
-0.28769979173244503
-0.3026736853897172
0.15642687095926594
-0.3004256699288825
0.06219403199102852
0.1268774606746158
0.23541840776532502
-0.1798436439059142
-0.09500632606950254
0.22150848587852046
-0.3861066347321614
0.05833746599917436
-0.05165150705611533
-0.11311283623184452
-0.2866358548608435
-0.12003180824464267
-0.1904590434590012
-0.18671492203852214
0.22877449064755864
-0.08733226197588825
0.0791050636350865
0.22893416318106086
0.2137404638210879
0.07195916269015427
-0.37834513749892995
-0.07188257035968536
0.16658315228476828
-0.28019416330867514
-0.06159470350401244
0.25256208281015097
0.18596176096774672
0.3323350235125382
-0.4324618340846952
0.15839395901837977
0.23466391343285528
0.3731780927187285
-0.2746409845029146
-0.12570146804867288
-0.27124881577076587
0.023189603275516158
-0.20971659886319405
-0.39774998714351856
-0.3909460648156325
-0.1287431087844241
-0.03053710838529029
0.03969069805640811
0.4040667000382145
-0.0845227164868354
0.08764373032491986
0.33380375552668684
-0.3269407217518199
-0.03249704280624299
0.12299068445915463
-0.030828457529695107
-0.24964461015877598
0.25166931420781435
0.5450844867651785
-0.0861376241695878
0.06546959447247312
-0.249645475054664
-0.25464685234654744
-0.3146029053139328
-0.25444198954091596
0.15456114681162705
-0.42890335504356103
-0.2455719614838828
-0.1987907128613023
0.4143583268058218
0.03867876169605967
-0.3043824157427422
0.1977588836261111
0.3145095150426325
0.06656565091946683
0.05795371725047275
-0.1297698823744179
0.07542558235245264
0.0032329406900241707
-0.3480136013029947
-0.2753582745192464
0.049151137233015695
-0.057548713615929364
0.3066596373008438
0.16666461458604442
0.12570811501385803
0.02131017323228046
-0.20830153440302537
0.2870388258822131
0.2941875354937433
0.3665326350111117
0.32935090131472516
0.46923832628531165
0.13117950214909146
0.08868357403405067
-0.29574864692974145
-0.04939519163276096
0.21685733483826744
0.05598878425000492
-0.4167483828984958
-0.0012940410112831048
-0.13169110768377382
-0.012925675674576916
0.23422678373479666
0.07769851832935731
0.36980453692527415
-0.3345378928318417
0.12482767472382637
-0.2934224351140562
0.2517144350527533
-0.1256437180142863
-0.1022292330817786
0.34649702692150686
-0.30761158643194997
0.0529601237099424
0.04759838295594273
0.27149372170306774
-0.394528102459201
-0.18095980201446882
-0.002302797208226858
0.42294716407257915
-0.3774979300439879
0.2345418729753398
0.13540173226661462
-0.29565506698547134
0.10039609332951316
0.21301051703367527
-0.08273254771099293
0.5996968783398681
0.12380041695355777
-0.027582305071931434
-0.03833607153406277
-0.2345638696117849
-0.28343676388321215
-0.02693957282656754
0.18663593209929605
-0.3018782389994839
-0.06614811648775834
-0.4172221274780971
-0.1997632165433046
0.05013127068138136
-0.20788047566441378
0.0498572736961959
-0.3422956959989081
0.2306826501700269
0.2495213964361155
0.30308562865000815
-0.21411261139001878
-0.09212127444210262
-0.2716378945943607
-0.059684304797141034
-0.24103866396209106
0.19227409051030644
-0.006448362112400542
0.017306579569682817
0.24104615700718934
-0.15952260119491188
0.08742384443721733
0.45557696086717137
0.3542268224008706
-0.3331327006150591
0.3658940577787843
-0.22214436467391319
0.1782593724955533
0.2279597045694362
0.13487503414998486
0.16498425591364266
0.07731725205386741
-0.19176642954684522
-0.13161423759948276
-0.23175441135133043
-0.24083049539508503
-0.25087421911918145
0.20239401194414672
-0.1784482693717852
0.0658643133404832
0.16049499770090384
-0.22163098436090548
0.41682221586651613
-0.003937181411416841
0.11092736986979126
0.23931420758171001
-0.1094977052128498
0.14503421536344674
-0.2238032222246971
-0.25767898459254246
0.02488990215761687
-0.060983371107011186
-0.32778696951737596
0.2705458515028891
-0.22195188397747562
0.27482578908503275
0.2106913363530943
-0.18053254215888057
0.10109533469745174
0.04756013412129573
-0.4926338907495145
0.09087856053916518
0.19438950328823748
-0.20157577063842455
-0.22798497723022856
-0.29794376188854677
-0.061690804320829684
0.25758086301707156
-0.007079389309089843
-0.30842488234499
0.06481188135943804
0.1766858946414143
0.10856752717593988
0.1894155851562547
0.35198971534051304
-0.13811789641317948
0.3683572042783218
0.27343676016723717
-0.13371395575814504
-0.15789035467640197
0.40089250635935963
-0.2500429005645378
0.08807387467977726
0.1682632628285482
-0.1826382096868572
0.38478058370278534
-0.22501064051781425
-0.12265634944982505
0.08225885453994597
0.34066853358427024
-0.06461695301293485
-0.07504418909762971
0.3044577384586362
0.4048899079214089
0.11525881997286713
0.016698167456996663
0.1259848529011758
-0.012261153516866114
-0.03819994530698145
-0.1486673255315595
-0.0626881602326252
-0.1283249211957184
-0.184587701843224
0.21011945518158043
0.15979923717453584
0.12563962216022567
0.2755613707329679
0.4240401519371048
0.05421965417546338
-0.30006506153778034
0.06640455311668197
0.3140165081751611
-0.10642828738974677
0.22220494387239448
0.06733843382136194
-0.3597697921832902
0.08270169289478566
0.21433602491232617
0.04104045116083695
0.2704857441450664
-0.08547770542572068
0.22309332704090248
-0.45761867109934046
-0.14560045737671337
-0.027929805164675796
-0.2804615811277449
-0.14544035499058863
-0.21581796394729189
0.4436867187308431
0.10442179361285225
-0.10714621858019975
0.2023103707196986
0.35593023697633247
0.034954713660760556
0.1472563268620975
0.22292622421217384
-0.025855407470867748
0.19608485223764352
-0.2681922460978113
-0.5217859075228902
-0.27301200108882007
-0.11014293495743849
-0.06826597427451929
-0.5312339527414025
-0.1794700172446734
-0.08581759371542504
0.43844840132813556
0.24414541529753697
0.21043492001887074
-0.46416151544571355
-0.1690871388381297
-0.4717817218214478
0.1333723469757039
0.1439148444667245
-0.3567357460973939
-0.10001255510754054
0.17580407243857485
-0.41403344930733216
0.1613776556704995
0.24897060184513625
-0.17911759961988238
0.10650442463126229
0.0794839202828972
-0.28865519427898273
-0.1979798469236635
-0.2557142449358214
0.11570220718915455
0.09349699506199304
-0.19194002718990666
0.20339974517525763
0.33016849603987475
-0.018833008292539963
-0.0396906114198514
0.3846348828509042
-0.2873668213975612
-0.01865584306845992
-0.33659202473963923
-0.014571431633206384
0.10950223346532606
0.05511298994359528
-0.4152008740772309
-0.16839810984142795
-0.05065021963984687
-0.3836043983996538
0.05068752886343292
-0.17352545584685314
0.136646180801945
-0.1923835633993189
0.023981584663746718
0.48470971039831373
0.1784098145151615
-0.5369459687260921
-0.14228609679776874
0.2113018476532571
0.16373596940871718
0.021728729276519945
-0.5734234619630036
0.022642792517281
-0.1749612846888819
-0.1228144222229678
-0.05836502494018434
0.22069361305933222
-0.0838182467168582
-0.098492561253971
0.19437175206565963
0.19142382169580943
0.1405679058476595
-0.08836498889595944
0.26571250713358696
-0.1328124909345121
-0.09619101972977437
-0.12176591115412952
-0.07042158116786001
-0.09957111332484665
-0.25308755198747696
-0.18132996367163115
-0.20168771438871042
-0.26588325842975163
0.18606554546262527
0.3938177819558021
0.34078251529234665
0.3802116395520665
0.11310630973250302
-0.11384450950613934
-0.3082515333242422
0.31198109190988466
-0.12116828679801762
0.17346394668909276
-0.15797274387859073
-0.08262956239996963
-0.44327686654038784
-0.30172719373100354
0.022176068771869575
0.5822347440751984
0.133289851181249
0.08966987426451148
0.09562766956558197
0.3250581958018633
-0.25887321913913525
0.3462382859850101
-0.10246288432655033
-0.14005752878695943
-0.0860767589022356
-0.23727341400925508
-0.06792437871739547
-0.20015282349251418
0.20365624089672482
0.07617716836481314
0.44945156926301216
-0.12243468505595433
-0.28261121921508925
0.12829515817413253
0.25151107726820604
0.30710731385390555
-0.058819569135684605
0.36265992085668985
0.37491526463903846
0.021962623083713054
0.34056207345391326
-0.3691746642649558
-0.4306130951740711
-0.2121048540668563
-0.024802446919966276
0.19198357796984492
-0.2615774063509015
-0.26950711797213417
0.03994819976019385
0.3232819800685692
-0.5347744658611011
-0.053690273083856085
-0.21247006106369515
-0.30241563838399316
0.12761447244582919
0.4672433254320638
0.23211288903914087
-0.025017232253971934
0.21370090076758688
-0.060622671984499735
0.4041209490891875
-0.24108452763898827
0.2587575572267689
-0.4545799781305806
0.05916457986226227
-0.12060966430502294
0.2033655611554161
-0.22787848193257085
0.009886713081532808
0.3297540319687033
0.220987891693336
0.40204513479552406
-0.09588737843756427
0.273436403148961
0.09755266828721249
-0.036170688242647
0.27516825373622156
0.25964802669343456
-0.33831228899369564
0.21485255484417062
0.02316081155997267
-0.049745386940747226
-0.21432634074008894
0.05348260543695209
-0.030430424258277685
-0.038493702169117086
0.2896109392949708
0.1628816705602926
-0.31117021949744345
-0.24794530197626732
-0.40021760582031896
-0.3757528044815315
0.2238788673936921
-0.17018116776598186
0.06581753239224734
0.11561328314710437
0.09540388344737102
0.2240475284966004
0.23984631349751526
0.050133769421396364
-0.09529835570677161
-0.28761129659258
0.3133394658654052
-0.1563213918255105
0.048424852472014675
0.05301766845335059
0.03745824304821599
-0.2567983855621472
0.15323308026601004
-0.10001437811176786
0.08429790435117575
-0.14523683110835436
-0.02293747733845708
0.31765209117611265
0.10054475580790989
-0.27583515811895004
0.0778437122503374
0.31723795797890486
0.21849825603917672
-0.09404507826150467
-0.14825590231152228
0.3984793014191018
0.34812630717017823
0.2671146438608612
-0.3006400660292059
0.08196057942244324
-0.19729745681865704
-0.1457817317568598
-0.21170866074210248
0.08961250399008112
0.3005401396693684
0.114007036942141
-0.31506232505433673
0.030847868532142147
-0.02236901553903109
-0.21195269337699232
0.1934984628586597
-0.05172703316174952
0.02872638062078507
0.4217149683398226
-0.2909691688089761
-0.023002643248158306
-0.004351134713236076
-0.010300810749230204
-0.09717896901836562
0.03207871868292627
0.05851338908103675
-0.06310922859254856
-0.09986848579383319
-0.24330514655902805
-0.46782303110467965
-0.008746823826584288
0.032832506899082244
0.4006543237676512
-0.06590124497785918
0.07711620376787295
0.34407215579464207
-0.39098618958593867
0.07797981400728723
-0.39674212979758966
0.12743160652734273
0.021928426383250092
-0.1493671454668239
0.024413402597639845
0.45624105082723787
0.16617750009266682
-0.586788605122246
-0.24245034065599952
0.021137979584155486
0.23823198196469475
-0.37131146856859387
-0.10759628477364232
0.060786774574813913
0.0702855888244253
-0.11021976732676225
-0.05630761460909487
0.2505834373479514
-0.25717840071027864
-0.14904635793798565
-0.22719526343300717
-0.20410207844182038
0.282468631423599
0.17206225510510567
0.1940851115901044
-0.06890040843473509
-0.2545814656397047
0.17500166855334234
0.37301491510087453
-0.1644811077875884
-0.23219095223306424
-0.0021446461951916025
0.28624888346819916
0.010489925264997745
0.4084400284231881
0.26096833636709477
-0.13722853016836198
0.14083121326938364
0.32072010937864764
0.4323383150403154
0.230027950801032
0.1419549241416604
-0.29157838748852993
0.3142970306491684
0.2993887396049307
-0.1387963108793046
0.0056050008532525465
-0.03282449899408142
0.03594465319614259
-0.07805627731606612
-0.07459764395293347
0.15671870938442614
-0.1251907592902877
-0.20532790504455384
0.05230598938347028
0.0870682479041639
0.24098534633458316
0.08846152756309253
-0.3785013803873815
0.16582426082469567
-0.064548732540592
0.08138297285194934
-0.14512625905426
-0.09911482107768838
-0.1722299681097312
0.03195585589586452
-0.0809946816618
0.07715711654302153
0.10446314224768832
-0.06092043472567926
-0.10873223779185216
0.34460963176548864
-0.27525557206814427
0.337534059824132
-0.023315789532147413
0.33160818350722276
0.09360813205002153
-0.28894396838271436
0.22324709077608917
0.02198612640875414
0.04800657363252104
0.4480449143141667
-0.0360625348763311
0.5063855233415027
0.3224821228514129
-0.16058158982922535
0.129275458397852
0.029049706975758677
0.1351335476114489
0.28691221840685727
0.15343787663793315
-0.4163379788109912
0.04076231823036777
-0.36626675969471645
-0.38762087026870473
-0.22230302886468176
0.05474752180004548
-0.0680391577899862
-0.2604562089399696
0.04496056343156349
-0.21782321558883344
0.27903365345064696
0.07002645238871445
-0.04587575676066533
0.015475638601761234
0.14279655344450684
-0.3488841718415558
0.2899173838533456
0.12959884198799226
-0.11403424595204834
-0.26176500531479013
0.4126496808240906
-0.30810315492157925
0.2709688574415381
-0.5090740959080835
0.09292519475164059
0.08529148819113888
-0.16237972532518735
0.06996755391225636
-0.1018153767545524
-0.14689456428787978
0.2582355111230428
-0.3133597147323248
0.1272255260644816
-0.035822209966963885
-0.07790165967017257
-0.4141303566456323
0.09872172265592505
0.07586678007268226
-0.21616531081094462
0.0599527810940599
-0.5343910633957968
0.01999717807297183
0.012631890804193335
-0.06525366015856891
-0.10195879676965469
-0.27071358575795484
-0.2779611708512744
0.42465149922642026
0.43230259562929607
0.1848663274912632
0.33084204440623116
0.46323530707074734
0.30633508680611293
0.20783138219972794
-0.39205376603702263
0.1419708224881075
0.07099917858804823
-0.262620094826612
-0.032536496282769764
0.021611356967306646
0.11760811935485278
0.1599679942962673
0.14689204936359262
-0.2358210409164516
0.052420468355784296
-0.210455136232344
-0.10247039378788536
-0.39398443264455
-0.08905323120554058
0.14207183158839798
0.1791329523775942
0.11578626108863212
-0.10532717129053505
0.3539165019992894
-0.1642498041629355
-0.0957944601779423
-0.10155117676599817
0.1856841488390249
0.3205865846964743
-0.5087071672619655
-0.14691417777877627
-0.2643838914865751
-0.21216573339750378
0.008161067371697391
-0.1803082305166985
-0.11956746748613266
-0.40923985698573945
-0.34411584963778835
0.06925955044012153
0.077007205826087
-0.10981202285205571
-0.09542366909548879
0.18251824992082924
0.031284459922112505
-0.1769878376084707
0.17281521798656826
-0.2077234998987597
-0.05278420814744353
-0.507160419533621
-0.20644920419539578
0.08207804828757041
0.2159757625498906
0.015533465550595602
0.3630330637160412
-0.1397749721878387
0.2757001995277672
0.12454083755024557
-0.06244759512319615
0.10180838813947736
0.16470762298409455
-0.24072134594025396
-0.13231270416302732
-0.2677108060642634
0.21414941070474475
0.2451218490204174
0.2853326881122878
-0.22124583295062622
0.16201503914220097
0.09201970682480687
0.30802420875287906
-0.25542990445533437
0.08761351573693978
0.35818872641580596
0.0509402719243655
0.10634571327981582
0.2063475644094877
-0.12424712951019683
0.26770178317946486
-0.006177276721445504
-0.060785134865729264
0.4134165505036032
-0.11509935856540561
-0.08588380039541925
-0.11706027314433526
0.10276656423995086
0.38372676639813924
0.3758499669294329
0.09152696204889173
-0.18075739878802424
-0.4093945173164827
-0.10716867593229193
0.5218434842840707
-0.21057047668475531
0.4496670388998805
-0.3288045690105802
-0.2998646348345891
-0.16509457679854164
0.22217887944917075
-0.31110948662477117
0.23664505303931796
0.30417028635428944
0.16240395071401573
-0.0566080287133846
-0.16370588072790118
0.23227666830521948
0.10909468028700457
-0.15128048413415787
0.25428038690476334
0.3886093040516423
-0.2614172982581115
0.04521079918395989
0.09073098224600076
-0.17112359334578153
-0.02471706623571232
-0.14624929096514083
-0.20625121924295167
-0.1242373313912185
-0.08732273945930194
-0.27131646082200184
0.12934495774353358
-0.12904273439669767
-0.2630919502050142
-0.16216449730701032
-0.21609493243907626
0.3061909970400213
0.17924983825338137
-0.3657561611390852
-0.048706017705522006
0.34515366307498224
-0.18187062964389666
-0.28104400910102173
0.10405456367961836
-0.16867449593501205
-0.11549885526534799
0.061771627398523196
0.04032247467428697
-0.04390041033878835
0.07413789668926736
-0.09712563889577738
-0.01652681558389911
-0.2918927181464588
-0.2564860069820058
-0.09416987237299031
0.012611502420090414
0.190745689392008
0.30798306929220426
-0.05911311740700464
0.15961813328608615
0.06407844862614433
-0.0757528156951698
0.13283724844678194
0.12208231434576217
0.5449076712939147
-0.20758381681773544
0.0578625248341374
-0.20961154339165716
0.30935808664265063
-0.0805069397759385
0.21029922434138928
0.28326568137793584
0.3521470722455021
-0.28299157234352
-0.0963512553711294
-0.07491184806760781
-0.03478103741838793
0.183647065287783
-0.14687208614782873
-0.39361676326299183
-0.10767512648831844
0.2552927920075916
0.14151833529330696
-0.43681705454907754
-0.0042563995150268754
0.16582775613740888
0.031459446496733885
0.048248084162360774
0.13976678084117056
-0.006624066927741326
0.3762354901286301
-0.13296272611594082
-0.3077043286332126
0.31354603726039404
-0.2057153486732924
-0.21791882486745773
0.2101366611340906
0.23903873930715142
0.05215592595731103
-0.32659800977637854
0.18810041790803
-0.04922221491389764
0.12370962359377217
-0.21702170863587333
0.2416189333587377
-0.1909694859626518
-0.07615074654019835
-0.11544676186600171
-0.41543740553536834
0.2986803886093318
-0.4217364812269511
-0.0756005532387323
-0.05781745995177756
0.10560379833311627
-0.1517604822037324
0.005895158410994234
0.14450923896017134
0.19793357494398908
0.11288809129938722
-0.5535665251030167
-0.11438531667252572
-0.14364996722784001
-0.2548546271363459
0.5185494662338316
0.005202455829158672
-0.09525561231760922
-0.274384789860784
0.0652378516011423
-0.09785930264693181
-0.36897907487472326
0.3432646849319279
0.09392094611955704
-0.40963582965111445
-0.10570751080125988
-0.0803553735064621
0.13658482510798148
0.09868670055633108
0.04997260150575982
0.10629271549488878
-0.15953195725318745
0.14771008345006634
0.06078710323038625
0.4259280788541289
-0.10805384662063294
0.388568792145927
-0.23996381344819692
0.2607943493990147
-0.5990318133524534
0.14708394862852256
-0.027107248821925875
-0.03758309396048984
0.0881380698142057
0.20620318711437816
0.03175651507639198
0.12979943170935218
-0.2638298193714557
-0.048592584206222714
0.05214877515786136
0.5034411893020619
-0.15089217937109564
0.15862907594413467
0.17279057287430663
-0.08350634343691982
0.23669865185306807
0.10199164456904
0.31938774362623207
-0.49413624309138443
0.09874320876990299
-0.22833685560310946
-0.38720897745189076
-0.1918569225488955
0.04022965868525696
-0.24671508040544657
0.5267645636454
-0.09740689123363064
0.09637652096480288
-0.07502307382011472
-0.10720667344302254
0.13763328799049046
-0.16595200750035405
0.3839905794936814
0.41893734596564136
-0.1605761574158106
-0.07509452643943762
-0.2701508840299601
-0.017315716345823486
-0.07531698122710585
-0.2003913511544397
-0.008609538806428185
-0.2767666508130931
-0.08776327108612185
0.26636743363626697
-0.2941995363984507
0.018315943165849145
0.11089984710290153
-0.23794103769150807
0.30796875011952335
-0.05526522697368785
0.21180849654250747
0.47663188282151486
-0.4535873629058443
0.1733219119225239
0.06531192247074984
-0.01172964319083325
-0.05337262494463785
-0.03755283155736496
0.0425602456699823
-0.1802900544961437
-0.08910050799881603
0.10428923637235106
0.3502744302421826
-0.462056472637307
-0.3303678353917186
0.1526503577254752
-0.2496520172642137
0.19896671887696896
0.0030495724617667207
-0.24562128604236252
0.2752960063465925
-0.35527857873939916
-0.4040018618279407
0.33820868477103927
-0.07076847002118475
0.18080986356998055
-0.30930112479894584
0.012135592579196369
0.4083859114565437
0.13983970659882564
-0.17117469690155632
-0.02390454399000458
-0.05023882586496218
-0.042642409924663914
-0.09795301585505106
0.3438276436624331
-0.05345431430810251
-0.29993367068498505
0.10461741671300927
-0.23543482427047432
-0.36812585292374356
-0.21128628131118388
0.06719477014165816
-0.18283496652612594
0.38715021734779376
0.1221326402813222
0.312994517901286
0.05282905520454498
0.31803332181702665
-0.06928226926120984
0.26483972433615893
0.4152564159424375
0.22787908250927205
0.29953475972842475
0.443917430213758
0.09151641081891661
-0.04031347837845444
0.25759419650045
-0.028028637414618793
0.3417724587881596
-0.05928970454348787
-0.20623479217275878
0.4631148408128359
0.16108986217637425
0.3270454704385509
-0.13654671483687472
-0.0008834027572868805
-0.31564501985234084
0.07233509115374964
0.1578256744472011
0.08143779487845658
0.15303812487072052
0.09484379405462888
-0.20168660244918798
-0.21945997172593998
-0.1400255830542404
0.5467410470449724
0.06869534365245712
-0.07356022500996934
0.10016951711134008
0.22693495990340495
-0.10650300546521398
-0.10216350535660557
0.145102883912228
-0.17730284901909912
0.20365812745328746
0.16687135263536212
0.18186824832316073
0.2629296653306948
0.4059591218232851
0.07831004655188348
0.014415703237062334
0.06518432545658011
-0.14400547112310197
0.29498169967965393
0.1597219252863202
0.17949386692789948
-0.16213129543490865
0.27612280292376556
-0.1725646100012738
0.39013173807497115
-0.1736419251673426
0.003701382215894229
-0.27448896394105
-0.0981945101402997
0.10178452839362102
-0.031058919395529842
0.07241379039061448
-0.024664344666354
-0.006244420621196864
-0.14074947737581076
0.36382813717297485
0.07674381289106902
-0.2272503216509556
0.12930511270265393
-0.36650237091965776
0.13154273648907583
-0.03570673550450763
-0.017646684684583434
-0.10151423672416895
0.2430422130842864
0.03206114032742706
-0.08050664614651121
0.3433255950489901
-0.11508192633092323
-0.09156036618166517
-0.47155956624738543
0.08764637279110413
-0.3824709154860137
0.06753839333986535
-0.1132495781859186
-0.3703520471200716
0.2044398121846492
0.2792139771537428
-0.20419823324415612
-0.2665218519750471
0.1809703229841466
-0.2370193827415652
0.30417567917484445
-0.0178299113683542
0.10859425469796008
0.3615957746032193
-0.04840374615160831
-0.249984534076395
-0.08032700846078256
0.08822458310871036
-0.2377965361410092
0.11718907384493563
-0.2686653647961091
-0.25437614858810503
-0.14446130891253872
-0.028437442977340324
0.10408948910471803
-0.23577490731757472
0.47437166781073314
0.010349248634125693
-0.2592498845606501
-0.004969689888447181
-0.11999065039773602
0.13596842988103308
-0.27251181590716433
0.3489118513105696
-0.20423432302847372
-0.08982731400936116
-0.26619814653839813
0.44603170906852363
-0.10890542362935643
-0.4420890917017686
0.16915764655431662
-0.06717602611351495
-0.3488815834107714
-0.15125954606665834
-0.22201218849281154
-0.2156914009460775
0.18407687010941307
0.196328928369163
-0.44857434455402057
-0.0736842820027037
0.0707888037241595
-0.029163779210112498
-0.1249551744166942
0.07572551303014542
-0.42097224017877816
-0.14779766084935206
0.032434315234431105
-0.214586707624503
-0.016642052286863513
-0.1801406687382753
0.13276545237299467
0.2211321361465265
-0.22826664683839265
0.030122870421573515
0.23507587267260216
-0.221657427429574
-0.020855059074060465
0.14758214638467443
-0.10788320771494392
-0.0010735093219221658
0.03140708544397489
0.21249793274997406
-0.13768641019645697
0.30031914012255867
-0.03684732029143601
-0.2732291394190479
0.3456664691661914
-0.13730465521548477
0.07352087016548121
0.0727533743392169
0.47767579991576886
0.06263336589204609
-0.16532388653851704
-0.23548610980516874
-0.2568957911981936
-0.18168999059704474
-0.00317179218164529
0.13013020505670653
-0.10543614241281012
0.11420791522028757
-0.04248593960719792
0.1845700560783277
-0.0028777987662971845
0.4168977615031275
-0.20324289924309588
-0.03294626045817285
-0.5138120968115201
0.44785776275164546
0.07376485097526515
0.5789402137221012
-0.08614782397760072
0.1585295222860381
-0.1533535284537885
-0.3894901461429894
0.07550791645781016
0.14285874875010315
-0.020350314781072444
0.25090969492393955
0.16118585915001366
-0.42078968681355716
0.03314554567071805
0.017543553646095434
-0.11715526306970944
0.4031205143990271
-0.015970126081279405
0.10038553855376031
-0.0026722108087173014
-0.08950106574300007
-0.08915107950560147
0.05235173793655196
-0.16451145948739931
0.016656977232279737
0.37259725791704046
0.18458555897423182
0.2937518235580104
-0.009241115160621488
0.31643391096287343
-0.013604639183370834
0.021775618199486896
-0.14062765552260648
-0.3426751208780507
-0.1251105852560563
-0.01624200759608592
0.17761582008355206
-0.06241799822299131
0.30189735642997967
0.25593342182578155
0.35248772492867675
0.2851583670848234
-0.25210868545955906
0.06433465498108239
0.1569325763647284
0.351016329576287
0.24634007522409307
-0.27829173746037145
0.0387649237737492
-0.3660016651429666
-0.1061925206485236
-0.13318355970753065
0.08130788402891755
-0.3393385970829967
-0.0037944391161251526
0.049056863063680727
-0.3274680632267224
-0.08668820277374231
0.41074792779989655
0.2086690075628126
0.20106930117866578
0.026776664958542872
-0.2605765108615288
-0.290742611306468
0.011081709406928708
-0.005261833612304995
0.21501123637780328
0.05044049179620981
-0.18215618306359108
-0.33552644128806086
0.17046592876880567
0.2011818251270541
-0.14769335709915957
0.41599773953393976
0.33187230814203633
0.18927132428815382
0.2954348281678606
0.3173343196631207
0.02464364095238568
0.32348082142129864
0.045386716607329486
-0.41357276394134473
0.0005446839773054139
-0.27715875041896154
0.06532699868759577
-0.0014634510063511307
0.19396428135338745
-0.15303505884497254
-0.4402233961495741
-0.23074263036020498
0.3087985797277292
0.12916035846915594
0.20787604798439513
0.39190497043218714
-0.10685532184495519
-0.3054510136657899
0.03445546310458614
0.18369744771793764
0.1431319059032023
0.11203146367601269
-0.3753429094574733
-0.3440541338229009
-0.2323824855252169
0.014820060606702452
0.272665703042307
-0.2149327051098515
0.2967721556898277
0.34723684598762017
-0.003450702900535446
-0.07834016271182567
0.3154443539744033
-0.07676393054779614
0.1410650881982966
-0.16780365313851178
-0.008480955674760352
0.1166250507984722
-0.24405848110194836
0.25145210413786684
-0.13368284351711304
0.3616544138130358
-0.27094072345797493
0.08286080396728868
-0.438073168347571
-0.22199787907724944
-0.05014126556932658
-0.05127580021840916
0.0061893069874332865
0.3789730088985486
0.27852796868346336
-0.0001541597939489184
0.4205251668360255
-0.09952607723885447
0.16970244768787615
-0.08923799696441259
0.27935055974118705
-0.0035050287055863366
0.2007878939484449
0.00016859199419524387
-0.3344967971695519
0.3252959708148427
0.049387996748277194
0.16196769985354528
-0.22845725403414505
0.17597758814526376
0.08100104201696826
0.28891841664085866
0.26055251781296557
0.15393564163509033
0.4389414433926952
-0.08537865913492684
-0.15306212376434006
-0.15095935000277574
-0.17142592011695157
-0.34800248005376344
-0.1483817413757309
-0.1828157514801977
0.2508365470737619
0.37399701381907335
-0.18441094485303464
0.43576181773990724
0.38601748093217375
0.015221042743428993
-0.3200234061498506
-0.16722446761985463
0.2825820296571456
-0.01581675946742201
0.17534744610192224
0.2708243718325351
-0.08175539086040046
-0.3009662187444035
0.14542172429144767
-0.1543217151195227
-0.3075224319933843
0.12671825324924013
0.043733981641834285
-0.1098018543804355
0.03232437395558044
-0.2075037136021823
-0.0004467726006887984
-0.11410988878412193
0.36846832819909536
0.5027341863536372
0.42391903331171354
0.23872519592682148
-0.09079243632079186
0.17306744625075313
-0.2320930334844959
-0.05125520109302781
0.19799772569563437
-0.12589809898739435
-0.21479819142271217
-0.07964726973704828
-0.12573024980096104
-0.24524232103052054
0.4351099203350359
0.25161132238367023
0.16840039911173182
0.13713756760883528
-0.13440171129574136
0.3037559757079572
-0.24866425979739026
0.022999845353820648
-0.2609852574149729
-0.09149128089750734
-0.3647527817674599
-0.14884194506377207
0.0659433545553197
0.295587063328979
-0.3362103425952386
0.21660729668536133
-0.02404078415967973
-0.10402971614613486
0.055727839355004374
0.02066379391028871
0.35142645759781604
-0.030316115703079047
0.11714898829102535
-0.3264026483366935
0.011888754599456522
0.2923543174250877
-0.28825512744502785
-0.35732234741231594
0.08463461333165481
-0.015318223550689946
-0.14980314614962578
0.33074234806139874
-0.11720758798597591
0.36085464477660223
0.16889217205977744
-0.12207674329104287
-0.23095351437602443
-0.11411936236585996
0.27793089835528034
-0.08092489529753254
0.27900360132554
-0.4858059419616262
0.4870099067918997
-0.213577274806988
-0.3164443149785964
-0.19240095956671507
-0.1372767987774114
-0.2762622628811968
-0.07918636053293389
-0.18558541078392163
-0.1827799856063995
-0.022119829780357966
-0.27839713779050446
0.08177322591922606
0.10007597778892778
-0.15133401181297046
-0.04909145991062557
0.04406104035348765
-0.2948850793056873
0.08026499842894391
0.04155766848991521
-0.21527657909686276
0.29911743427476456
0.01454481589890378
-0.15591704824444969
0.4104127392051729
-0.19548064227910664
-0.2058445558476165
-0.29375995681264694
-0.20937742681013896
-0.12488099740538969
0.10087756455678107
0.31544429726351353
0.011510337824074093
0.07515912699632794
0.3054128991735141
-0.07412802517540631
0.03333967891078067
-0.5244960854100854
0.045972747023678165
0.043244101781593255
-0.23003110368137486
0.11642901522901627
-0.09189157026870225
0.14120661227857467
0.28061446632679493
-0.19734188146107218
0.08387514020398833
-0.0780696177671914
-0.13922988147246157
-0.13443220379049411
0.34377312353824047
0.0657124661361336
-0.09422153173842318
-0.04317562636540504
-0.3092970046394807
0.287854463229572
-0.31788486513940895
-0.5758453675262544
-0.012095092832555663
0.08506003708007193
-0.16360941200040072
-0.44497586937219963
-0.20364369129367385
0.04891904329634135
0.1185010062634115
-0.04193056507183336
-0.11199754597348993
-0.2290577794677519
-0.12333975394158102
0.2237717527142069
-0.4146633479570618
0.16382209547743368
-0.09274252481763083
-0.33433738792353396
0.26411108922339815
-0.20105198554647324
-0.3218860088627558
0.2070616305167223
0.0031208301768748748
-0.07433629056083331
0.34078533406236855
-0.15862624295746877
0.3830918842091195
-0.323754850304509
0.01206565363449885
0.0969896614838102
0.37847724375138286
0.02513756748328302
-0.046137609406882364
-0.17613054650545026
0.09970079647464943
0.24367564781555345
-0.37903703827600627
0.1228714258286374
0.08522172154247153
-0.08202211517852574
0.2873434154785578
0.2866223681691669
0.250871520481441
0.15111705164572437
-0.3761848061488706
-0.16610138832933383
-0.22075131188683178
-0.26095501921926784
0.19745750033040455
0.12191282751841412
-0.14318924998982163
0.299025197608298
-0.16824544177707743
-0.08823572121315197
0.20031965500705165
0.02933010756312545
0.08254751362010007
-0.330729243642242
0.2828321917417405
-0.049211863390207555
-0.3495812994164243
-0.08688225674903756
0.14982140710385097
0.4159959687818469
0.15501561882100914
-0.2034819376822482
0.05497287563743242
-0.09498038101129987
0.07825225697755048
-0.03388185607667394
-0.20266129608444666
0.22271861818147068
0.1176176962400848
0.16048150613800827
0.31622291177635015
0.11911587283917943
-0.36121777075361206
-0.27921774994209353
-0.33714670896225435
0.18161585488051676
0.0997457119239253
-0.2336006928072331
0.27252840928653427
-0.08302922779818676
0.013682521582958327
0.4068111913922852
0.13522156622536013
0.3093713615114863
0.2906421543842526
0.11045509666796842
-0.17271496878832146
-0.4531868988583436
-0.27134192961505393
0.03528826547027345
-0.354742683108023
-0.06703126705147731
-0.1993246246327238
-0.01127595253676907
0.12061837864721328
0.03508232896609736
-0.37792493942355376
0.02875299863972412
-0.13675178396193002
-0.25987738451892417
0.03169864223792082
-0.42451654453604704
0.32657656479461067
-0.3047541000467137
0.3210678788093304
-0.2406260718985914
0.007980460454698109
-0.12079500130033304
-0.14972812147713874
-0.18331748459541974
0.13780629865611016
0.2282925992959634
-0.2969849594470203
-0.11919108405837586
-0.20831903799035914
-0.06335032011196866
-0.2106988969054972
0.027082522627927343
-0.1330376562168912
-0.2824479230489122
0.2583276346678872
-0.20646120769374948
-0.10864018299079699
-0.16419880243529988
0.19444056097825027
-0.024119749546682463
0.34234754212825425
0.10520630487614455
0.12469708445342725
0.11529105880701453
-0.34657910603793124
-0.24498998527099888
-0.2807681556112588
0.046096311611523395
0.01896204445177278
0.16688484542454504
0.038910789637364315
-0.026793337917830257
-0.08030303208411087
-0.13904546824662017
0.07974570637520279
-0.24931301901479577
0.12250904027014249
-0.04593474066150865
0.49586748514970186
0.0015590444955865756
0.11464186113953713
-0.31759992682151367
0.013536091138664557
0.35566045294889753
-0.31533829646946976
0.0981558911552893
0.3251385405422678
-0.09493923640662012
0.08862729482721762
-0.35064072814265657
-0.264234852257136
0.31338118826743966
-0.2947696915196404
-0.2800429595005916
-0.0022168933702507885
-0.04845593088807958
-0.44506569054826434
-0.22546065509763502
-0.23179312574519062
0.2160099412605197
0.0051701252553466755
-0.3999738355266945
0.13126428568761037
-0.3803186588972318
-0.2882580542689462
-0.05629762702643876
-0.26867618132637855
0.033006787343891605
-0.08674164721010107
0.0036964037219920144
-0.1441549797031546
0.13655201645461554
-0.19775537425329903
-0.020190971998323537
-0.02794083331722542
-0.08214741561167965
-0.20906118226326578
-0.3064110218553441
0.15592730498434018
0.1601939686593708
0.10392064915269748
-0.07593655949978104
-0.2075004451878047
-0.3783773386045047
-0.010130610985441824
0.12074038730105002
-0.08996143158334297
0.14421905758234135
-0.19634542147355385
-0.18534071896065757
-0.29793992077854414
-0.026059404399797568
-0.15828586751052667
0.06141780124228513
-0.03593044135274169
0.11637840568034857
-0.24968283135869382
0.23160660805402106
0.2543780427244764
0.053897734254390116
0.28905036982245863
0.09621221086321252
-0.3453698570499795
-0.4334594855674779
0.11426259903467773
0.28176791562214343
-0.05300261356537792
-0.40818429306545667
0.3100729326545596
0.3938727170805896
0.08604801313710543
-0.004918508110251033
0.25636215883619073
-0.061632000524656255
0.12536288565348452
-0.03846686927769486
0.17496438187686314
0.10255537463341445
0.32395856967736214
-0.16812483503101677
0.370254934267326
-0.15346234053792168
-0.042384482869043644
-0.13608359917893703
-0.1651292552606328
-0.08595592756397671
0.2203915050991207
0.03295163478229338
0.2658617754805745
-0.22875623227936645
0.21567635530379362
-0.10664467360658633
-0.10972217569765082
0.2662816464353208
-0.20137540755768246
0.40421438090987794
-0.036997222502710744
0.04078836321134639
-0.2063312291230476
-0.19248428633046885
-0.05890761699533278
-0.253071165946317
0.030563243610938033
-0.05457084189324427
0.0051105958417417
0.08688555992337443
-0.0645656253615492
0.11770678187764667
0.29644513951828994
0.42881361128365064
0.04030378303344406
-0.4487951975958729
0.3141370459932617
0.07729651339028686
-0.29662977998859313
-0.3906475076874872
-0.1700740133566232
-0.4046075716367476
-0.05873717947587106
-0.29526258080105716
-0.3082255144062432
-0.1083119207301631
0.2575353062229486
0.34538608763155537
0.20713047792872963
-0.07344709140226834
0.06400022763052063
-0.04296040515301184
-0.03809948188786797
0.1735488751882973
-0.32146249647245445
-0.3186992513900889
-0.21134095493844954
-0.12793561077273388
0.2641231692224296
0.08569992126900754
-0.032196699832512124
-0.2276797086982493
0.3530370071097256
-0.0006425445629966132
-0.0985019325747656
0.5184555639440627
-0.38066640703569876
0.24592947778015334
0.2769903500747238
0.5038610404868809
0.009246122137180037
-0.21711973703390736
-0.3900418473406126
0.24121218776367864
0.14757199056044856
0.38952529213606724
-0.24179451901490917
0.2338546190382409
0.0933894863666411
-0.20280802936227338
-0.1466559348266597
0.29077149498345656
-0.12372510126648129
0.09294265122273637
-0.45129459000577127
0.4689664241810477
-0.2201378344612765
0.22126444888854005
-0.1665507348148585
-0.2986488980125689
-0.3394178180395783
0.08623950135536763
-0.3675986675407819
0.07619473229022604
0.05152756083271398
-0.023964966618727244
0.1741128118115523
-0.1790159458418954
-0.15528621355613575
-0.23593412027148525
-0.14159320311007392
0.13698616467369953
0.24776905180656855
0.28328535421643875
-0.3128280026647341
-0.1012372048967392
0.058136450915866604
0.32926489408012266
-0.3948464501514242
0.14863027388766034
0.12176135979315371
-0.11468308439058025
0.2538540979447834
-0.015065346682196407
-0.3372797787656019
-0.44140977048542196
0.19829790496792282
-0.4900821573779296
-0.16731951830847513
-0.11675400297947985
-0.2586071347212411
-0.3737941833314974
0.05945753370583408
0.022983624772909432
-0.16034464027974762
-0.1859643751921543
0.16392313861637045
0.24920935915065062
-0.10807622227265169
-0.2718775894193173
-0.019999107077723784
-0.20346797016664245
-0.09465512395359076
0.2984726639592339
-0.27351041748258254
0.06316579940646412
-0.007948665720597933
0.03333135676439018
-0.2710990385162412
-0.14388721743027605
0.30095477647051105
-0.3992184776594108
0.21060044153545007
0.26954914989383844
-0.323777499345009
0.06993165439122907
0.11091523123093336
0.018932734250477826
-0.39860594771263475
-0.1728464896107908
-0.09219515106856765
0.45708177117480003
0.392607499809671
0.09023707047237833
0.5077696072797461
0.37950249693012233
0.1683856341236154
-0.051627712639886546
0.20174629592324575
0.2610520662308194
0.04993426628217615
0.09821506083222027
-0.13996325958895758
0.19097458607355855
-0.2796343296945482
0.05265900976106636
-0.26485128009299563
0.32981832207270523
0.39093806923289987
0.013616274515174982
-0.1723403747254162
-0.3972103680419464
-0.22689861425782806
0.32258861577842846
-0.02313191680361072
-0.3652327793095315
0.5817969645926435
0.04337636076328417
0.03828891013208599
0.35334896890603207
-0.35506662695995295
-0.2794140719544029
0.1585864112508303
0.22775957937228214
-0.11574020359355185
0.3426128734089838
0.05804095024910284
-0.36316872128663896
-0.3052015522048475
0.04287543155565257
-0.00680079653672014
-0.09235374814752197
0.17306941002095896
0.191046313101882
0.09338583462678157
-0.17439400060843468
-0.029678143214923278
0.006615631739547392
0.21082019728767254
-0.43566775267990543
-0.1878792125095893
-0.0549975321891315
-0.10492311356316879
-0.12462357484326923
0.1157326271405256
0.30852626775480063
0.22478628778243814
0.08102910337635427
-0.22628707209522653
0.1580503338126515
-0.14098363986942467
0.20744408762222705
-0.4367160057939765
-0.19303133392967775
0.11049024914667228
0.13045875861268508
0.13482599010451085
0.2649801947184077
0.10378662334882804
0.14098991347972598
0.2553040377225537
0.19782303282647895
0.28976425075693474
0.4112006727026292
0.42214275327375694
-0.33203989173120835
-0.12473491264859907
0.4063633087464555
0.06470417032076099
-0.15067282005928298
0.3096051249517386
0.0923287904580751
-0.10064397652622427
-0.26878081209677634
-0.4271544029672173
0.050690466858914575
0.09314812711251635
-0.06248397925840028
-0.22439000105193038
0.1315338383199283
0.29440029990322797
0.2615418089306156
-0.41263597641613137
-0.3574364103013181
0.2120684200528125
0.25457491740511556
0.231465436918374
0.2874188656687609
0.0028676635461126368
0.37574923372512725
-0.15273592798357333
-0.24283654487640824
0.0691830635622733
0.4971803055145516
0.26566010403221535
0.5383931224131662
-0.3262121423216397
-0.017627295060356613
0.1745336169712266
0.31496313651353086
-0.09634329805051964
0.11254015128036951
0.19883361889255496
0.44758625163313115
-0.3632629104350706
-0.37307304343150544
0.06667766259469812
-0.20453788376145046
-0.10181229807485907
0.38778839136834964
0.25974415264273054
0.21383047670729236
0.3164107741710721
0.15660799025951774
-0.2432050944738989
0.1263140316511353
0.41647990739072926
0.2910340867747224
0.10464590479608891
-0.21561303174123614
0.374445241826582
0.17602931393876653
0.4733660274067317
0.21781947431038604
0.059232249855482234
-0.18853657192177245
-0.16433161262079335
-0.38353382522637486
-0.18325091247221906
0.3062754850597398
-0.3302566061288616
-0.08961926150333809
0.3574843347879262
0.3074446415436426
-0.12126299827546537
-0.45782758471869434
0.07093568114124865
-0.6617817931888653
0.1488372851885064
-0.2140754909041137
-0.17072052057561873
-0.1765454454428406
0.014437451472106903
0.1793250461913096
-0.14271249484449003
0.09643379608330618
-0.011182971378279513
-0.14548968545595667
0.1352248546607177
0.12468027633062645
-0.10146781561966792
-0.5461839691502556
-0.2703985504942991
0.1084751137586219
0.0954806295433726
-0.010396894131256227
0.025333577770876338
0.07395282246210433
-0.001241851268936256
-0.058138884702101414
0.2708761996568084
-0.09781475210535553
0.2060205468228752
0.14829277417689946
-0.27686904922007577
-0.04354688505325477
-0.4151625311168508
-0.1863272090303163
0.12074910296934975
0.08447847286814764
-0.2472462734327169
0.03675023200531548
-0.16056945707330092
0.22120956044007534
0.04672613303815555
0.1232943477366063
-0.25240510419128304
0.06722249654961207
0.3577529391023225
0.34035867093640454
-0.1441856868197589
-0.33173400689811594
0.32465743728118596
0.05249188577260485
0.0028753070621776533
0.05527188440321422
-0.16568851580756494
-0.14716285994056175
0.22389349572380798
0.05909631932831944
0.11474176916003846
-0.014172513462124536
0.25461421695170505
0.10213265537601326
-0.022467786304793694
0.4047951362242051
-0.10550035075520664
-0.011913600239890439
0.03526239262166
-0.2148652378800977
0.39683238727127773
0.03681644159235708
0.07465549566096019
-0.43810601588882253
0.26751541860182365
0.15897431407553314
0.29340777806736595
0.21807817815019265
0.07299210769830196
0.24970642832754664
0.32593151732092296
-0.2381265620977978
0.05308343512485346
0.033374731372309965
-0.30493546638249713
-0.32908493988224274
0.059449426469727513
0.3462310029604326
0.11868036266338308
-0.24848787268669856
-0.14498139759179118
0.24072678326889166
0.42484326773657877
-0.024730803663147956
0.284768525832726
0.3831642846750342
0.17018815771816068
-0.05994583655047274
-0.23000564602864504
0.0032761603391455456
0.137950186285022
-0.20138383351710648
-0.24846300044432623
0.0918355490829792
-0.18115508577028186
0.31721922499183985
0.10423226356631522
0.044681840571564435
-0.58017201516027
-0.006061687655341444
-0.3724000030629989
0.1356681539593468
0.23738883481787323
0.06911505921756496
-0.01884487815009738
0.14381411198551736
-0.12374051931791005
-0.1121077368731189
-0.23683407671971074
0.07971156685194111
0.2295635763813727
0.4155309008795572
0.4427395073145969
0.5185082359381316
-0.12771588272803142
0.2316234083276235
-0.05614430279503443
0.07038580116546911
-0.17750083833977995
0.1494885650062567
-0.3389950340455962
0.04542931978190233
-0.2351405168664323
-0.30279614124455556
-0.019034633969023586
-0.10991348232615936
-0.3516502562336292
-0.0023595463619651555
-0.09634665051275505
-0.044570048083916236
-0.1689457561934562
-0.23713316914894117
0.43423348391723904
0.28285923288642095
0.32388497106957415
-0.23747620415465284
0.3535889162080598
0.15894127524953103
-0.36932337762020717
0.19782984380336813
-0.09371349287059032
0.09036668450123073
-0.07328293529109052
-0.19233036211221816
0.2063717919959076
0.16639575767434323
0.2435076495086764
-0.47512463556489537
-0.1348151142974643
0.19784825388054975
0.4240752956156209
-0.33419341893030535
-0.2724564437897079
-0.19645348029447615
-0.5463226954847574
0.1395801931336008
0.1531429216790261
0.5233569896267185
0.049327014357096466
-0.15712878911270514
0.06274915970682039
0.4052092115283512
-0.25518621439292805
0.16519811181692146
0.2237721285764681
-0.15189062302219375
0.09254038083015215
-0.4870047104089989
0.08797439119935013
0.22620266125403335
-0.12590135224058022
0.12746407895202966
0.07541824082208809
0.010229391884639467
-0.3614347956055595
0.5129620937472088
-0.32135611928705765
0.3609883111527925
0.2563633083537885
0.40504097338856987
-0.41324540887242905
-0.1052402578350339
-0.07596587128120187
0.17129386124024662
-0.21101095737012165
0.048896586347245335
0.09541947730920951
0.18766515134446524
0.25405921728444736
0.05345640482673343
0.07258414972924315
0.02652075318300243
0.03159628383410916
-0.3776766451373255
0.0050922067127393104
0.03432402950888477
-0.01073517494120525
-0.2348464989995554
-0.05370556695099893
0.27992776848476636
-0.04224053100442599
0.10359712682396864
-0.4416588089514479
-0.439754985554167
-0.05343847069817117
0.10667023924416547
-0.235303733809267
-0.18159479977613502
-0.30836370203007735
0.11428449204477696
0.27666271147454913
-0.5288330078840491
0.1989775493878125
0.21332863234018953
-0.09763576302068813
0.12167072571905713
-0.017339960471769035
-0.06276697002760454
0.7020710669626684
-0.33978610324039044
0.22559570985068525
-0.26223072233064054
-0.5373654659462289
0.06237977117178748
-0.398950759143485
0.12055267235689177
0.07184682127096052
0.21373818768755967
-0.08937025303828497
0.34793636200997796
0.030636478192269775
-0.06759950100997378
0.23904163064000658
0.0033307865499764265
-0.16068165387267605
0.2752315804865802
0.2235310927270046
0.0812431671143822
0.07299857181562838
-0.32472058598223175
0.19046788009493984
0.007407456390589285
-0.26971727515738514
-0.017013284251605313
0.303302601313932
0.0765255090032795
-0.1760335346902359
-0.22557028740693905
0.4675239384001863
0.12859935491323807
0.35797229266689595
-0.040342659047894795
-0.31168492994383834
0.2884289689791051
-0.20539988153335273
0.2577071911749807
-0.2974078337296379
0.20759343454907628
0.15243102807013248
-0.21712306356057942
-0.09387165572706009
-0.08186561098051166
-0.08842340478228852
-0.07275504947974759
-0.13322707744159723
0.11280465675792233
-0.08634731253199743
0.2966201220111024
0.02252756561574367
0.28351394609933295
0.051451783889908405
0.264645115383588
-0.43543824038217016
0.007017034619141463
-0.394216337572747
0.1929036260679364
-0.28726307987217964
-0.39448891045359535
0.2655377037916588
0.09928776793949493
0.2503396944411445
-0.5164687346629039
-0.18051571542027403
-0.010924580767290729
-0.18283312085103293
-0.17098116844336134
-0.08549385949820673
0.0017058148084554102
0.32116732362252653
0.2098668864472864
0.0632719200350078
0.03423490227166376
0.057331274144922936
0.28148810659128
0.19276943305864366
0.36616647182471534
-0.0450207968365603
-0.20993103719220124
0.26625754976292526
0.13815929728600565
0.06053804185371747
0.3085945026473678
-0.08143166372625435
-0.23063568937398451
-0.3112454718541698
-0.3828979623239674
-0.05114732928242957
0.11211717953750776
0.09842762879278665
-0.10013304196854642
-0.39013896704590584
0.0344758696197827
0.015505057239228981
-0.21587148457971567
-0.19276191499851228
0.252146305199356
0.16680190556251118
0.22685496331518737
-0.22153858086813055
0.0984112934368952
-0.3533444525667853
-0.17700459243706104
-0.10923744510736466
-0.19153580488780186
-0.2563768065055219
0.08146617954986199
0.15459785706002144
-0.6112306387561655
-0.5293714860449493
0.3313264989524229
-0.1079340157944138
0.2302735160299146
0.2512924661519208
-0.19550018980788436
-0.09497281332498829
-0.5028848346981337
0.11288320463783859
-0.23109149480242494
-0.12951967486605556
-0.1583838380107486
0.1358275590663584
-0.0633606484008255
-0.11275987234931395
-0.2784749421734066
0.04929790349552374
-0.3192765718161536
0.06354287139771168
0.1912004002388406
-0.3537006745639913
-0.3595059113408659
-0.3386421996489744
-0.06702553076925451
0.04490731928329811
-0.15807622530252352
0.2550690593627026
0.1184619785445509
0.10007262631451647
-0.23338083753678038
-0.037470744667261566
-0.26746291942824474
0.18494591856713616
-0.07283036083254417
-0.15182100418622754
-0.09002401278315883
0.3494613738285213
-0.21564474987536808
-0.1573882754607848
0.12573645323505686
0.1281546233428682
-0.23439615141626147
0.3603834562411774
-0.43667847136602345
-0.04124262275239578
-0.27909024600267823
-0.4812687567103628
0.1263589437425755
0.011742361525403915
-0.25417434261745514
-0.02602908265322231
0.18501889750015973
0.38686014033901084
-0.011286174339934058
-0.005878641953589876
-0.03536593756599168
0.08875747000538631
-0.17912660933079672
0.08555165943970934
0.5025310605011738
0.07355406375783895
0.5465493400425463
-0.2717782722038959
0.3979009972227497
0.4601436547509406
-0.21356817871250094
-0.0287117026724882
0.1535391743487653
-0.1828342448224186
0.025052266112103306
0.11459980016958511
-0.23126314540939188
0.17969087697981043
0.2551673243842313
0.2587072016203842
0.009486629037205683
0.22870987097816217
-0.4020125106808727
-0.13530239774915961
0.2352036089596049
0.03413224850906385
-0.2079098811228574
0.005726197904611493
0.25040270984913326
0.2354270025718695
0.16205356971041107
-0.21131010388584487
-0.2173910970012546
-0.19353748846981808
-0.25112753069127886
-0.08990732315633586
0.044165142084335765
0.09055204730055173
-0.45745672677537375
-0.18212689439374818
-0.062466302276844174
-0.06611033423821074
0.21143320627490417
-0.13836168990312497
0.44684985945122563
0.0548771371837617
-0.2613153345569698
-0.21514675927325638
-0.37063620979180895
0.2876361305304495
-0.5053649680806458
0.2834613527198299
-0.08326594362288102
0.2870443739419003
-0.03619865316352357
-0.18822968680683375
0.41923827731888835
0.004178000620159784
0.35239609122532756
-0.11443381059888655
0.11849437427897581
-0.1935330836587941
-0.167538553909658
0.07185842415446585
-0.18866944394830346
-0.09126023320009194
0.37832598814348983
-0.05016854331284296
0.014910306349484094
-0.39466009916048606
-0.2604346031803956
0.022429277955301738
0.20134127778889999
-0.19034263523060194
-0.20432719237257288
0.24732785054132064
0.3799428895068367
-0.009110369035568909
0.0648530311386964
0.5185176745124084
0.17919774602778835
0.03871741994984472
-0.2542751840809669
-0.15239094206416065
0.09911413750769939
-0.045524224155238734
-0.2930217015653315
0.1761848919725712
-0.39938161392451405
0.23898924600290422
0.21326289297115092
-0.4783743855778447
-0.01201741237791215
0.032101762513142215
0.10302359358795958
-0.24393611475244525
-0.0017963916616158448
-0.11355670174905254
0.2688841633732083
0.155418811863743
0.20101693530395254
-0.23132004456278557
0.349236185961532
-0.2970163976162128
0.17998267606665871
-0.36876090877104195
-0.21528393962601577
0.2967959567508895
-0.13275162177998648
0.3592482198675366
0.30160025855510536
-0.0433676923379762
-0.10803872239631038
0.38056082557687515
0.2762835506061617
-0.01807290084478048
-0.013867728908386343
0.05646939735696014
-0.0285818558268135
0.29468606113032986
0.24232683938889285
0.003033375863237473
-0.15117074121826732
0.07482272335920334
0.46288143881978555
0.4479264253273308
0.2894906358989145
0.2066502156628229
0.031004794805085084
-0.05396725307814617
-0.5263864455818202
0.34823785783962363
-0.2348744957649194
-0.2875699604002577
0.04027449287225963
0.08360651241704084
-0.21824427088120055
-0.019712382524740665
-0.21369207115548156
0.12798928066990287
-0.3087227659870387
0.02794022892551305
-0.10309805181066568
-0.4398349909352674
0.050095903328276514
0.006893427168319351
-0.05903374353031422
-0.24965024574828013
0.39160672337752117
-0.08119931242219729
-0.11922732761631656
0.04241629774166003
-0.2231500815881534
0.23382040195559659
0.29582395363650177
0.010561267647904054
0.07835956553415133
0.13050389377515756
-0.09464157101731373
0.01534040456228365
-0.3557364089122935
-0.18955621361261035
0.07740857663154231
-0.45950604955291535
0.17118392230851454
0.023259614093728315
-0.16453942153564755
-0.13237024493831342
0.22547429407041217
-0.0591736030318254
0.3375472779538615
-0.5190335412918589
0.3179337624218383
-0.21803036366586595
-0.3475619569125937
-0.23821901586695785
0.4356201420675424
0.4805195545275533
0.05328912851107127
-0.2125478510990146
-0.10080584115746594
-0.027276286701841637
0.25628384416432404
0.22469041865739092
-0.06440053506133042
0.04763589930381147
0.19350966382994006
0.23801942690942599
-0.47484358183311304
0.18647974143959156
0.20157997414101328
-0.2625525424008013
-0.11018372348326891
-0.21760246393321397
0.20986582296432116
-0.0505512034901594
-0.15542923286180607
0.09371298143734143
0.13967337925331336
-0.535812361177029
-0.1978565920818051
-0.03517850856816227
0.06149386451030118
-0.33396307110892465
-0.23460273721084596
0.1641483914011514
-0.3105578570063473
-0.37659807835641074
-0.09433206560141912
-0.043539403083238844
0.13836477632727592
-0.07797783412659692
0.13019868845013463
-0.07540469953248945
0.4701711432036203
0.052116325072254714
0.1273729950443585
0.122060403917408
0.054674497124283225
0.10007975826991411
0.35376027176574604
-0.23317573374750616
-0.11228119751882193
0.14690608744249534
0.12326877876583199
-0.45659841658527567
-0.006078488466406257
-0.07878461232239951
0.08878313642653529
0.1160072057745562
-0.42741075026088776
-0.17648628939634536
0.6381823700145991
-0.47047249089338583
0.004031253523145659
0.09775577417510892
0.05614322386886737
-0.027954501097061255
-0.21892200904200476
0.06042758774843504
-0.3573849758386009
-0.0925522037221473
-0.16229211251186307
-0.3396793957328825
0.11439420758224604
0.19396643535692307
0.27588472114647744
0.17921519142879563
0.003113311321145909
-0.027843589992458152
-0.19266013592313055
-0.07024946569083354
0.07675853012823482
-0.03890208819075642
-0.09765540051190537
0.0868276700897822
-0.3687525403458991
0.11317416298158237
0.08433593837514777
-0.012409135167459248
-0.19104662712257164
-0.21335697535096493
-0.29248921735294325
-0.14630735246325127
0.16187725490748678
0.06458083355526763
-0.15799898469231616
-0.022812457187764635
0.1300095030017816
-0.0641187798852257
0.11966946038684388
-0.09316190790829723
0.10942048716247883
-0.28625740188277005
0.21460824175656887
-0.23382468908385226
0.33500546024550026
0.05428224464057816
-0.07805691888674957
0.2711127960975958
0.07692047040319686
-0.37957947543404813
0.1248233551889105
-0.14405261044966766
0.119401680496091
0.08836346644692128
0.015644915707208443
0.02751991862103959
-0.4237251798310898
0.2616678926498143
0.03971087702453369
-0.530464301680622
-0.0670180318416495
-0.4419362993944856
-0.20764325687035443
0.047633916451433694
-0.08149805467296163
0.09442488884003566
-0.34657498709488466
-0.18066770769688684
-0.16530426857551456
0.4327681697751834
0.12697936147664687
0.026381406278864837
-0.24456585468443162
0.13382973564602219
-0.082226154429287
0.48354276470182334
0.1555744200364219
-0.08647715643804203
-0.32477355661185486
0.20013600857522176
0.4389010718933484
-0.30111815505550493
-0.24778263877895043
0.10856203632022925
0.23067211765175388
0.13037219400481212
0.10736679839859885
-0.027962319358790656
-0.10204657383818896
0.06862497693037375
0.117090138391222
-0.3029015219564705
-0.17914787116106676
0.05935274904476295
0.2759296718993631
-0.42738077459746293
-0.006729670742858962
0.06667318468614411
-0.11790455786736861
-0.07627344333575352
-0.2688247628334003
-0.04000188203319118
-0.1980837151896515
-0.2441981561222151
0.08741644278453727
-0.09312229310752149
-0.2543287934997541
0.31559390002677246
0.005423480635703987
0.1375245924172128
-0.020848777592275783
-0.1764178200178947
0.06752719987307315
-0.08327136500715646
0.2724318495943162
-0.2957303433013894
0.16090316811150948
0.34379203215074927
-0.27944743301036
0.3361283230968016
0.11529711948346874
0.16413311677638073
0.2627942414484226
0.16139199238583393
0.2761544091872949
-0.0954255531610604
-0.1963846156735308
0.19630222840906691
-0.014185254269283307
0.2943418351182568
-0.15939526151280875
0.22338239589149306
-0.09329392486177604
-0.15599566079136107
-0.3133670827897863
0.09814921307455267
-0.027347612467390113
-0.09981165526705983
-0.35265299379086085
0.19284296980084978
0.21143608922032806
-0.1902120695859718
-0.30044474014956435
-0.04207558374834787
0.02764649619631749
-0.12154931387665659
-0.03784327650328075
-0.1283124262763567
0.18047033077991273
0.07064865288097413
0.14912702652396
-0.3342236678477742
0.24457898409846637
0.1568677290691502
0.4071060151144991
0.29118447964628835
-0.19033745130740298
0.044867604059321706
-0.21407897206831408
0.16318232600168447
-0.2262350153523508
-0.09720452402485157
0.22129309776772882
-0.23684453936884622
-0.5202362217810603
0.4042540959411823
-0.16040729514657956
-0.028406563991121882
-0.1179255242358598
0.12446719244065413
0.0033687162107472112
0.12189543215419124
0.12462329161038332
0.08217959144928409
-0.28599534723296083
0.19590051400637384
-0.37920345746251155
-0.2098414453570077
-0.07299084939566469
0.3726329032917351
0.3639557823166957
0.1103941628443957
-0.28549125174177126
-0.31447739318364404
0.19998242987785367
-0.3461295972903135
0.5044459872520786
-0.15616434916099484
0.5285443983505393
-0.0439765201622053
0.07277768937614114
-0.2308266258833265
-0.012819281627746405
0.003016072674985487
0.25035759101164984
-0.27052503110063164
0.1276333723742054
-0.05963263132631438
-0.12519727687566481
-0.026874698614334506
0.12618441939244116
-0.10769128787255097
-0.04547673159327238
0.382058739950968
0.1586981642280509
-0.3462379447220899
-0.21204115876273313
0.004615824155559769
0.09868934694527516
0.047804825710500036
-0.2938940013203825
0.24159549848999254
0.1695565115701593
0.332156624977311
-0.02190067911650333
0.01489975774458093
0.3979778498134615
-0.028044466440530512
0.18560125749946085
0.009396362135905873
-0.057293665542616966
0.23027383621570804
0.23784387316036235
-0.10322972701391009
0.12449813700958853
-0.2591254345666245
-0.2664856855459972
0.20091778636093907
0.1486768680708651
0.06659395471552305
-0.318122106323601
0.2933518392126641
-0.41335866861305387
-0.07327133408103122
-0.1308600110924306
-0.08429686964321051
0.03681066317381744
0.05428068381492381
0.004401598889334949
0.2099289538967778
-0.2544426328109799
-0.21263434507977336
-0.31730222703204713
0.28303835166430436
0.13006682758105761
0.038669952538978015
-0.37112843622123765
0.2711692749495683
-0.03168705672113487
-0.03811667701553972
-0.21903177248932063
-0.21240684953013017
0.41498594546182554
0.3516547576053686
0.032371923397033604
-0.15771771247181748
-0.015521322426552877
0.21712879001458268
0.21806921584522038
-0.1581265400946348
0.34573258943860785
-0.19061715985233071
-0.21475891285374477
0.08091626192632394
0.23522356829181795
0.13074820614099406
-0.0073656863925994145
-0.12357737216666344
0.399046826352751
0.17349605638132573
-0.3830151507638083
0.01256518631357276
-0.30022275419530864
-0.13271138185760106
-0.3223038643500376
-0.2940770470918589
-0.018883191836848258
0.04237907631132149
0.0062129006531339405
0.1204644825185302
0.25714482749393414
-0.451214745613941
0.04078413240125466
0.26812023694040726
0.055758092118294036
0.04470128151109601
0.3279110995849566
-0.47232866062307893
-0.4043257795401062
0.1340526109064532
-0.21582410274269567
-0.1858392160692898
0.011865183423004083
0.0365481376766987
0.22933238988635593
-0.32566841458004087
-0.24831737928853004
-0.020845900434469752
0.01677744553228093
-0.183281991069229
0.3307434555697538
0.3605610821620759
0.09323875999096454
-0.12267440486951936
-0.38306890069851396
0.021208899193059443
0.04305862201067816
0.2968034063401074
0.22378552445062683
0.050469602783672234
-0.1506855979783004
-0.15268850827428226
-0.5572569577447481
0.19942034864985275
-0.015265138393179084
-0.010194132499408317
-0.17718459417066243
0.11993097098860153
0.014575374008799592
-0.12683699232477882
0.22998358781389908
-0.29406033800345216
-0.32409726676135137
-0.1832673114959901
0.43845368376236293
-0.19180155238252145
-0.07551836109732152
-0.22875495504669285
0.007998557944465738
-0.0954711059338197
0.25248223129328656
-0.024097280180219238
-0.0934555015312947
0.24191105009148856
0.022277747354551427
-0.16635088888919203
0.4294824060096784
-0.010162246099699398
-0.1921709620921862
0.0795819912287361
-0.02560251818324929
-0.012907629654635107
-0.19908274447573077
-0.20840844038958217
0.33077552920540504
-0.09299692563365539
0.04195177550847281
0.22834391881022548
-0.047197260777286955
-0.018240311460982133
0.3631724753345992
-0.41891478340321625
-0.17655486794517844
0.03320770377451488
0.3213406420866251
0.1967091044188396
-0.595688500714614
0.1588161493042524
-0.48726212366377736
-0.21112655657770826
-0.3287814895297409
-0.11268802163243677
0.42113137800090167
0.028950803289480125
0.10222511028921645
-0.4454162279584835
-0.16304106844851451
-0.25660783733669557
0.14051598204675547
-0.06971440769965562
-0.009010514087627035
-0.15062322016359284
-0.1726514407111285
0.3393382626824896
0.012908930664710234
0.008127441081609243
0.07172026101243788
-0.304812986298482
0.10606518150792935
-0.1487903677416731
-0.05321389907791317
0.03696453420892911
-0.3430133150137615
0.09067685517010664
-0.06457719949215916
-0.16021210919017273
-0.2854422554528682
0.2315430963251385
0.18627745112453234
0.05685805832213588
0.16347953663287396
-0.03318435452150154
-0.08667961642947332
0.17877177128196617
0.45278614963629465
0.2823133012923797
-0.1837623989749116
0.16757897407965236
0.340596169569258
0.010988897617327038
-0.3551697835557218
-0.0115527466467698
-0.17293222690233456
0.04178368678566122
-0.50192965346804
0.017057674468619975
0.15544312773554766
-0.21933169217601292
0.4294536528581659
0.466675760157148
0.09202501020765294
-0.4733694259936383
0.0319056677806754
0.19234824548750232
0.011655321491969307
-0.41705856265462854
0.07097620899244123
-0.19276668804850344
0.299055706562337
-0.34424218074010904
0.36647786290241174
-0.2503304466945128
-0.09381818357477088
0.14359152361930394
-0.08305658180650123
0.08663372766984595
-0.29640022513081915
-0.32739084657693845
0.09904372765275027
-0.3044728971637869
-0.22250460334470523
0.2418654680628839
-0.11238582086495516
0.31601013397424854
-0.15658336248237764
-0.3678276322510159
-0.02381240228896659
0.25269614952288044
0.2817760732392466
0.22423260422395339
-0.2596466804077672
0.19024957145704174
-0.3144823664334076
0.40430666349141536
0.14466616039076524
0.33934576992503934
0.19503172596322316
0.11575990377480305
-0.5623567274321218
0.513951417051019
0.027149764025192903
0.059511452433397165
-0.04134070159132155
0.0037487812782452928
0.12052039497600038
0.10193456223419066
0.21583653337953596
0.35935334414681497
0.058360129436516216
0.09361096419598347
-0.2609316471193083
0.0478216633716043
0.03194668068763212
-0.3241222360569332
0.23569536375972047
0.009259337892065973
-0.3691327385428699
-0.13437516409102648
0.13453300607880736
-0.13111435564514629
0.18946861123557074
-0.08968729468720413
-0.23828364476301608
-0.4078003858648069
0.19656129554162824
0.039179997929236515
0.06022266607900603
0.07256526032803054
0.22505646215639452
-0.12868334272846874
0.4810084266929371
0.35823040564638997
0.11826916630696373
0.23578480825693154
0.12698334845483278
-0.0005638160548062189
0.22135207399556533
-0.32505084332476836
-0.19105308957097666
-0.16071146612471712
-0.5350407905851043
-0.04439478624956178
-0.42055272593641585
0.04487281403053043
0.16373107956271396
-0.26434329177985866
-0.4459056383755794
0.1979844191008105
0.36492404327533406
-0.16046261757434913
0.14356654818392584
-0.1515012915530637
0.4122488671365763
0.037247278300480496
-0.024164582716413127
-0.3732311255192539
-0.28802589694414604
-0.1370480250013864
-0.05623153316552159
-0.4282182680281284
0.11988201863410036
0.05524686946564362
0.01709964840020834
-0.20479265738552202
0.21697963528637737
-0.35692247253527076
0.07399807737454257
0.05146682788647459
0.0018460573608846337
-0.14229583278515276
-0.19154258202765015
0.08676773162928988
-0.34331525943614105
0.15582819110590754
-0.49210211895311007
0.13712597211891683
0.08142117916196084
0.31931486246790436
0.39407801875720366
0.3600284252598661
-0.07496163693290946
0.052900102048898515
-0.33474062029102664
-0.28198188256422907
-0.04732093627906599
0.03158162944704834
0.13397979196328452
0.2688033863159583
0.34925704548426717
0.010540049944068331
-0.029754418603184795
-0.1369704190753133
0.14138129347626707
-0.28636991134256046
0.31147943844018805
0.25671590595033306
0.25405828485578635
-0.20613828249236263
0.007290011120321649
0.5889156688847064
0.20048554650973135
-0.28848197868417846
-0.3798785604618194
-0.28450407150468965
0.06384046589361365
0.2937582647348122
-0.0788026386963052
-0.11907824562871304
0.03373321470122216
0.33182268791602604
-0.059233089369888456
-0.24599326936750648
0.11251010784729518
-0.2765506752264326
-0.031420597021101886
0.08954585058575094
-0.07004928526187723
-0.20751733378752146
0.037029097812483446
0.2902100759462246
0.048650308900543844
0.347739905298259
0.09727390407641386
-0.05537742928845703
-0.37317188615326835
0.08292240451439574
-0.266394202830455
0.04223535875702123
0.3873567685231351
-0.19530042822724986
0.1561147193402752
-0.16425863729752008
0.31022415360196154
-0.20917491311936612
0.08751011892930885
-0.020514393234420465
0.45493682596556595
-0.11512899908939536
-0.3344924735455773
-0.17463663388237463
0.025423412615389343
-0.20591408088183988
-0.2555297105609351
0.3617409733683827
-0.2219021707911121
0.2654012904835183
0.07384432428167725
0.29821400451847324
-0.05545599903223546
-0.00873058916729328
-0.29399373525056044
-0.23447460156145897
0.32571581982948483
-0.3670754583999171
-0.1793624284300974
-0.3217533668371505
0.26389834215455754
0.04159272833232497
-0.12116158672925414
0.29592824007271934
0.30212928247115156
0.05873847508443974
0.2955319222263844
0.04557846071331578
-0.372039118723349
-0.2548289240931892
0.18343473164150037
-0.3945035352198107
-0.20104543291203333
-0.09709897507566188
-0.03345283279676725
-0.012460238535355179
-0.5143828763484161
-0.3653890590679737
0.08290954618548978
-0.00755690870246868
0.004449848566341157
0.13895008657175087
0.2969369960513476
0.13765366056086067
-0.48572332408871904
0.15596504923033952
-0.0076253041367582855
-0.4357776271777504
0.22833735950684822
0.20697739182834538
0.25900438311954693
0.14376128990424392
-0.32228421173193883
0.2640254509576642
0.36242682292373396
-0.0842581782680995
-0.23195424756085659
0.41276381865254164
-0.32662034215338454
-0.22899267166256634
-0.062057361583724074
0.04321274741704025
-0.5534972955548607
-0.07666513894541077
-0.2379872085733212
-0.2741971912133281
-0.20353117437830845
-0.01407810585140353
-0.07283628665226882
-0.06077031839268042
-0.11093289386264386
-0.24611020712685935
0.044213974722703074
0.09935040694479673
-0.1675878054825329
0.04812949942977823
-0.3061747125876091
0.24942691708234904
0.4695005110193191
-0.39444859332306426
0.029499813064821967
0.18468112459963798
-0.30384412582177256
-0.0519396849626512
-0.38279752649363946
-0.22722638654104427
-0.24174548608820548
-0.050396613863021876
-0.14038569192879047
0.13208118622209616
0.13471028663808096
0.08250495245496763
-0.26529288603269197
0.14063004593017725
-0.06600998787156581
0.09986809066193811
0.011290421268160645
-0.3459710003242637
-0.48448175691340023
0.11621054375566424
0.14342076507882665
0.09048793046673016
0.3404188537135631
0.14613237086758923
0.15463411034718536
-0.033243060723451005
-0.07638902871196895
0.209501062910379
-0.057882537808517605
-0.2680178177370287
-0.19929396169830327
0.20948398633888582
0.03423535629017189
0.1807309914284764
0.02041205240768162
-0.052988239838356314
-0.10813794530765572
-0.13030446566663317
0.08212029868138618
-0.06541530949701711
-0.07351617995716793
-0.07062942594620017
-0.2833743022513504
-0.1991836214455435
-0.019905090030310175
-0.20200557639486055
-0.24046415903771665
0.4299433761800737
0.21685868628779742
-0.5150287072819787
0.06183065223405147
-0.5293923167179693
-0.028114383761678702
0.3784969538630894
-0.31839228296703936
0.04159311107438362
0.0434447456398386
-0.32974353208590457
0.24929472189163304
0.23295716214718198
-0.04447039621359482
0.46525066393350345
0.08840691482406425
-0.10608615879095522
-0.23532736765752207
-0.01238372906190233
-0.08419236809725042
-0.2657060927619111
-0.1861250053969054
-0.2666648303784099
0.14600347985364728
-0.28933490120207656
0.12243715770467987
-0.07685446580616177
0.056871060152142994
-0.07342815669944491
-0.001503194558447316
-0.17133871180807578
-0.2421412590129084
-0.0264564395048836
0.34410944279718525
-0.45291518895980404
-0.1568608191096473
-0.2581527292092993
0.0689803796393199
-0.18669910531599307
0.08619847797888631
0.43985063227444515
0.33182163913062446
0.2958856920050684
0.030067044369303218
0.14765765603315265
0.1781337703960168
0.019600189677136226
0.0978300593327973
0.051274541859391516
-0.0571017621227826
0.2702046108466906
-0.19802154985993373
-0.37698411944161275
-0.3704504129394997
0.23363687423503526
0.08436923386977833
0.04816631574925469
-0.30255454677490723
-0.3617204925491948
0.43494565315071065
0.19179617478984232
0.36993972814857295
-0.1353702014191491
0.04161231719827638
0.37872629610323927
-0.06776811636310501
-0.16473282742777412
0.2102208111642954
-0.09994461735403123
-0.20068761069841257
-0.28274047618150666
-0.14555825009647394
-0.16196674967932423
-0.1620025258813038
-0.033984772647234936
-0.3944097151908
0.11234263428178486
-0.3963025756982295
0.28319314167265336
0.17471597364654284
-0.17044149165506484
-0.3442570307999381
0.12120687298749752
0.08944733613131858
0.05685558590653248
-0.39406809011831617
-0.33758239463812606
-0.13696117269879965
-0.09799494758003875
0.10152557368492246
-0.08553085094556455
0.07130685384630125
-0.0050602119246079096
0.12038168443909004
0.22606725639965122
0.15789388057003886
0.4012077080586087
-0.056003243483368825
-0.23645807514618855
-0.0870530260782024
0.14134965441660838
0.10627837287958529
-6.489284063218199e-05
-0.315911366991727
0.004789968972987432
0.1710147943108286
0.06389350286944943
0.2826955183039138
0.11108891442888269
-0.13068084303238253
0.02189194204451614
0.05943332819806451
-0.002579736517221842
-0.3817396704579571
0.07906311381932477
0.1665413724610884
0.07723351637006265
-0.28778956371228315
0.08195307327799803
-0.4110172995185525
-0.3417575755809594
-0.23216244571496034
-0.146950680428483
0.09287177813066479
-0.457031496516936
-0.11427614415116466
-0.015175175465820288
0.18655728632874713
-0.08131572877611602
-0.33273935473272015
-0.050436116951248326
0.27012008198350224
-0.1316857116748058
-0.20752324635569727
0.28658235547657623
0.19911063876275747
-0.16037050752164742
-0.25809693531435224
0.1537469986382256
-0.03792321344081747
0.16794028121275403
-0.1525425899253329
-0.011099398405789683
-0.3398526605069488
0.33018729539610997
0.10972367740727838
-0.031100252789118727
-0.18300023673546814
-0.021042725455984644
0.07756105514547579
0.2085680644463259
0.1845010935628649
-0.05430211573192286
-0.33171937124281914
0.11019120142768858
0.36818858331369086
0.17311085496392742
0.10418221101945424
0.07342053042576456
-0.005934443096685576
-0.1003450605328945
-0.14121402223619928
-0.1057340517967645
0.15469194182192175
0.396162719426594
-0.02065117682279415
0.3961899663308173
0.20551572359035125
-0.2712598909871184
0.12886458093944822
-0.010840279007125022
0.1378159948755943
0.18803185481731916
-0.13126608137945645
0.3327066961384842
-0.3508304168770442
0.21499720917426143
-0.15527242025894455
-0.2989278894269544
-0.16946538002796535
-0.4130921420576428
-0.034292206859181905
-0.028354211752365827
0.20647473287642984
0.021689108513485707
-0.4386327364419208
0.14704107365569208
-0.18975598536132943
-0.214057621705152
0.033029489294383284
0.001039532673055905
-0.018627336511884165
-0.17906135157519218
0.029033451591431444
-0.17780480565325504
-0.055825179241905665
0.14224560075712067
-0.07591753337391263
0.029375612815413878
-0.17155953814462815
0.24968003007309078
0.22505613565845664
-0.17127075076935155
-0.01883475870410768
0.09064709130460498
-0.0034042077756267527
-0.09637893479175427
0.17599733618302366
-0.1022748761324033
-0.3863731824591424
-0.037867105062743364
-0.5177255580064682
0.1546323537338602
0.017239947346740933
-0.3096134388954912
-0.08666909541154338
-0.24686344327393703
0.37253672912185526
0.29168889368449324
-0.3167942336532547
-0.2667658283011235
-0.24606859966353586
-0.21329469360297607
0.29413506909103687
-0.3364222521758114
-0.04507967769402416
-0.07160007760799375
0.2961102756464056
-0.06073163518931456
0.2106307153076248
-0.42590432205059064
-0.25927168407933704
-0.38748032212758027
0.005912163333614928
0.06951489859063124
0.04032192921617466
0.48749642043298647
-0.05787740497443402
-0.13867798438648982
-0.23525109180363799
0.07112020613825623
-0.25979231589352336
-0.27311786345641664
-0.1305629312246312
0.40483365071174565
0.32223547574265615
-0.1383909876868847
0.02805831731732247
0.2378815572631406
-0.32930145556558454
0.12950397097426003
0.13606940695187006
-0.1332711706873083
0.153317964894792
-0.1546361254074717
-0.010355520779181891
-0.13349411700980576
0.19575445469527997
0.22015007254035573
0.17421056988603711
-0.04088097110195727
-0.10905265620636875
-0.01791070309619179
0.02677709590977101
-0.2393661807786347
0.3107273801248374
-0.17183571207312842
0.014496766757688765
-0.16079942238521583
0.41423794820022797
0.04043320474556597
-0.43259093959315387
-0.3039350725172415
-0.019900952713818726
-0.31184903213754434
0.04793679451806074
-0.5016424124549163
0.1127079595867252
0.42502347946766234
0.46336007322755607
-0.3239561834682466
-0.5103697446058453
0.2597518871073068
0.36474198879640246
-0.19861211686354543
0.0763440897048592
0.17664955909111185
0.2815477782503876
0.37052940456619704
0.10246411910448107
-0.07641229339281014
-0.1585543562746387
-0.36762914952516884
-0.37084998693339377
0.11183368718726272
0.1507629053868599
0.15994005783254855
0.0106712987582407
-0.2549143986596571
0.21093242771739396
0.08882799602380294
0.23349985382401023
-0.16018763381927265
0.24908715822737384
0.34081364766063166
-0.015504953877265172
0.2319940340843573
0.04803669712918266
0.028227439093572247
-0.07101717769815429
0.2069210319282013
-0.08556080780405234
0.06410688620416286
-0.06028048771615022
0.36253307873837076
-0.3764426336205945
0.06670670989467954
0.13070425896151872
0.11845568496755583
-0.12160552730513484
-0.019020651761391873
-0.14373367004165163
-0.14434749285322787
0.34676361711128345
-0.14182448847716117
0.16139356692128184
0.06020787821922083
0.24737627583017177
0.3774959106463133
-0.3834356823881529
0.037703285157163334
-0.17711383113556595
-0.34704912330242393
0.026525014551187817
0.2517077532761136
0.07014794632602185
-0.27393707228140907
0.498255151158986
0.34702691200416247
0.05100326254506224
-0.19252265085483694
0.05033197443049195
-0.25174713050409936
0.0767710757746314
0.283244977663986
0.11878016329207494
-0.03684888540812568
0.3067366888824071
-0.15869392516749145
0.39093117043445197
-0.33093817324225
-0.07728341797517475
0.002486325787986138
-0.029396506625192498
0.11820929126450612
