weights_pso
0.11085810078913075
-0.28414680503703793
-0.01801984301325759
0.48412915697398423
-0.20433458404574217
0.10473564542004296
0.15791463334058461
-0.25609323191834776
0.11060212636932112
0.3712960961304844
0.1443132018253402
-0.1567814055010355
0.5233606016934736
0.0647491245879647
0.309101991204594
0.22114146073495572
-0.09352346953983401
0.21835678752934506
-0.32380088185228906
-0.08015453638629688
0.22529100994411053
-0.27880983873811055
0.0222247359263931
0.3054340419954129
0.12990438568305904
-0.05071107273269049
0.24989518412027148
0.14677078716102818
-0.28038045071700834
0.15817358757065042
-0.09998931069929769
-0.47130713300839067
0.11897392049392834
0.25703319446358025
-0.2450019019819475
-0.4443918196097158
-0.17430409343998407
-0.2915342973614692
-0.35853404741072464
-0.2613318875976805
0.3191803718936203
0.19521706676666786
0.22354873816282506
-0.09227173443583424
-0.08928319083539903
-0.12898115544485547
-0.4452261452687362
-0.15583412003315208
0.31389911018010846
0.38334526742041486
0.35402934666027963
-0.4026884891945072
-0.149866048911433
-0.2083919602885067
-0.36910322077007873
0.25211140907999724
-0.07983977167838267
0.01901166255903356
-0.19867853286748366
-0.4869802017836996
-0.4040898952757398
0.21233551738344353
-0.021991807291059175
-0.4858332655483461
-0.18548720428375398
-0.1965102642640146
0.19115152458681664
-0.2344023576659123
0.4088756295122198
-0.10376120822431145
-0.4353946679418533
0.369993141491628
-0.22942583704321926
0.24129885242213042
-0.34676159738209456
-0.0709391632956097
-0.4470431556478228
-0.22096125436193603
-0.3237124090968501
-0.011422007114573073
-0.011335957629799828
0.2685305991784786
-0.4008751288046822
0.3587127863694361
-0.3821212830772424
-0.5561126025881139
0.18907660166517126
0.05938629438781863
0.17343768624696532
-0.11102954146606621
-0.030505684135954475
0.03687247232447524
0.25914886600074905
-0.2877897271516968
-0.22228510677420896
0.006602785230216767
-0.5108370527738576
0.5686306840218576
0.07003343895387495
-0.2756379650003941
-0.5487105181082582
0.5605801636471613
0.18184894049989778
0.22762324016995727
0.029056019138746444
0.07366687732315319
-0.9166930930575808
0.13741318769345873
-0.3605632951215167
-0.05628358118081069
-0.20517577992642363
0.011892322330234496
-0.05684505151098299
-0.06143310223925999
0.1925598728520735
-0.013449055637223543
-0.13607340974970533
-0.2950586673138604
0.06723312236949273
-0.6249388637284674
0.2393019259971421
-0.3869787751349277
0.32671551337285865
-0.06735247497764855
0.09577876132005399
-0.06995423553125443
-0.1822761300945366
0.26083402118228083
0.45331050631331893
-0.36625116278984465
-0.058237784917111554
-0.16558309622469403
-0.12609395320161026
-0.1328384235271765
0.3160719205593642
-0.38987481920443123
-0.24155449419277697
0.20233172701861424
-0.10230442884996374
0.2664628537336199
0.026426647933457278
0.05973901123303355
0.1943903777836335
0.190252965455688
0.017230126481106233
0.01068252185322853
0.30074219272252406
0.25632489875519265
0.05821904704506402
0.21084438705045466
-0.24029160924993648
0.05404191732378634
0.0683340398314612
-0.19945002379816895
0.18414410828942088
-0.013833887692914984
0.1385496798635953
-0.29937036057780997
-0.3419346640801478
-0.19967481188213873
0.6243075737015606
-0.4598196323738738
-0.16970918598701062
0.6925101088484191
0.031324389481437453
-0.35768499805329496
-0.44839915294216875
0.050254341802965674
0.13641668230478898
0.33697486659940723
-0.08164227872210883
-0.142572821104942
-0.01702962864930598
0.4326573708086847
0.28433755934010624
0.23829791163439135
-0.006129152607630224
-0.057820331942078015
0.011243024111100822
0.042132168141056116
0.23787358148842255
0.30627298199658803
0.14901427062231531
-0.30649079524329914
0.11120621152627291
0.18274825312562176
-0.2928228025698307
0.2482312246019421
0.41711247081196984
-0.4939459698354593
-0.07451157196198527
0.02493849391904581
0.10434222967937333
-0.1663838082034053
0.018318120279055872
-0.32594744295555445
0.12595891528283115
-0.04795695472267096
0.2746231925248769
0.3159615644090565
-0.14039780800347537
0.23544519082429433
-0.06532871236437447
-0.05224177215395662
-0.4318347812542242
-0.6012610787614154
-0.12542749474641898
-0.5547431883312681
-0.1527561361063971
0.21455352136408257
-0.1041413067636047
-0.25015280080879215
0.19727272439571628
0.6251560676626695
0.007070283621171432
-0.10564458569130969
-0.07893044517211256
0.18615322790729968
-0.15211722966802632
-0.11444122532199887
0.15021914890374494
0.08311946531790433
-0.44539681719525737
0.21883036040813947
0.041836265336284324
-0.31714604068987473
0.026596089301985888
-0.3077326336878615
0.08225589176869161
0.11269261291585025
-0.15430847257898184
0.22660396563324897
0.36928335567448506
0.1399952777389511
-0.3115200737475957
0.3249891989942094
-0.29726552817788293
-0.2142118431543905
-0.010434467254620425
-0.08126639134615389
0.2906676416661928
-0.23069553389846711
0.4149399865891626
0.06730309178809327
-0.43509368390363534
-0.23333242248563785
-0.4507819746329378
0.02859108633719655
0.18559941398387061
0.2505257944870968
0.06609379907611364
-0.026430781483325227
0.5034660943380929
-0.2247486187098681
-0.23886821910570885
0.059190723911659714
0.12317298587505365
-0.044650568315029025
0.3420749696216157
-0.06205058387410534
-0.07487451613732729
-0.19126027842933124
-0.20792807907430289
0.2933347054851345
0.16636145367841984
0.28994860123277744
-0.09933885403913024
-0.16015525071463194
-0.400782559288382
-0.12856474420039415
0.5208230153104232
0.36904327918898405
0.07301499047527106
0.03720565772002049
0.34104156366408533
0.22160587833871395
-0.22906293443330986
0.3535768328540879
-0.03901682373674968
0.1411604780591223
-0.18911227857638951
-0.02778105926650448
0.014634341200483802
-0.009168781776695613
-0.11166340091277092
0.2783815795968898
-0.005605109612667688
-0.16910825837636798
0.28048888728811716
0.21389615289731775
0.026673419185581203
0.4196403823149776
0.06682302441732924
0.47968804122592335
0.03567258728341555
0.31846123189453795
-0.23589268672359026
-0.15376247678256527
-0.46087098201978816
-0.054332285565769446
-0.143111480216357
0.45363689484018205
-0.1381151917921091
-0.021601409697030453
-0.3265429600024321
0.005401448391866913
-0.15508629254454712
0.1848602118850092
0.3132996227799826
-0.030445929829945526
-0.02178580724912539
0.2393614127591461
0.09264024126180022
-0.19526551039769807
-0.4736595402870131
-0.008886695435811578
-0.028830810831373354
-0.11364950879871245
0.10912437714470012
-0.2964568401468701
0.3874265662466889
0.08413094218953951
-0.1786336165026811
0.06582238616131912
-0.38622924360823235
0.06752486475626607
0.054423550136577466
0.06509573524656974
0.3061868885877771
0.0787351363896193
-0.009401660177333727
-0.059702215569106855
0.18174469092366066
-0.021602301714795234
-0.02481533512503187
-0.3414559668539301
0.08833482078602184
-0.17658060289450875
-0.2547597635227093
-0.08334471578181885
0.1279829046287387
0.13416841742637184
0.16815078568181754
0.261101205336102
-0.1709980388348352
-0.3467359200785268
0.5230629586155257
0.2929201430361963
-0.08225154002509852
-0.18083096414410352
-0.23664828845326671
-0.0569536446183037
0.1288701002778433
0.060186292643001134
0.13846273762186334
-0.3230910891329352
0.2950675955420751
0.17011260903636977
-0.12526509436265154
-0.16444930771371602
-0.19102272122609823
0.4601190276378897
0.34541182957732325
-0.3050159422435251
-0.04061278172339658
0.008201367916063646
-0.18265325345598502
0.26530907892236766
-0.22376395125340837
-0.09706746795736661
-0.10085648559021197
-0.058086872374603575
-0.07158376993248765
-0.07906675353386228
-0.2554509988600407
0.20157632315754914
-0.2803711186134454
-0.08401599283238803
-0.09192555659181557
-0.3607885253701074
0.037031846318096424
-0.09191514683274264
-0.4392290847948032
-0.009800343580718763
0.1636482795363837
-0.042881611018886774
0.07473837358293187
-0.13311084933992784
0.0516436390491729
-0.34697551492284695
0.009556439595751594
-0.3184296405391635
-0.34460537033231936
-0.6228997523052668
-0.21692832392400305
-0.1832860892071723
-0.0456082505863522
-0.15985847720706942
-0.1769677101025919
-0.34298933041096236
-0.11937489403602941
0.10605292559195614
0.023002477967219125
-0.1280883469380857
-0.1000557641872732
0.2021020006774121
0.18715829701048833
-0.11140294750863818
-0.44674124305370067
-0.13696283592073955
-0.33661150534003786
-0.44893917991535376
0.5178098875551158
0.06512014923190623
-0.2217500010698291
0.5157393444812937
0.3297110317114005
0.09759261392865531
-0.08103379337093351
-0.1343629344450268
0.1265798863810861
-0.055682626587396325
-0.10375052700352098
-0.2984380758407822
-0.3514410239884481
0.15442138718355056
-0.19797139502479594
-0.06980726257513123
-0.14454613810263542
-0.06748117822685522
-0.2455233733635255
-0.0674900365067955
0.09142077146203136
-0.021929881992095467
-0.39324594054747547
0.17437133618385037
0.11352558829099259
-0.6074940494281916
-0.18849848337479322
-0.060977339842511365
0.4794676224769157
0.026570238671463194
-0.15099741037677217
0.43579568400844926
0.01847947682448292
-0.20928681429721815
-0.20484630874392648
0.1903540013257566
0.021978762642458682
-0.03867187837661251
0.5280531956770262
0.19444287219823414
-0.2632441798696895
-0.6353661376782268
0.15546102218140087
-0.23626673732719652
-0.10086336717661036
-0.22773200766054605
0.17634292594199358
-0.19894958371701296
0.08441060007656685
0.1493360984174777
0.046312521965210365
0.10726724677631416
-0.4461244610668012
-0.26123222998348594
0.29785918302175596
-0.35607061511407134
-0.29085416476505777
-0.33190493368882534
0.15343206028661727
0.10706513542710085
0.17699010713887295
0.4302725660719981
0.17003275618135755
-0.07945151442191062
-0.30484860372862854
0.6360812627782019
0.08722808995707244
-0.17740843477493112
-0.04415965059131973
0.3479506706496119
-0.3193009548862095
0.37760885872951744
0.35780884257121615
-0.27077294510496963
0.17639254688583225
-0.6518884808491225
-0.33099348342685564
-0.06944028480126949
-0.16204473539225586
-0.2776160352773596
-0.2565147451647804
-0.19998839841610255
-0.2486115156869186
-0.454756182406306
0.38042537108346636
-0.09224027725455099
0.3067458777303345
0.12310925969593682
-0.02823583216025772
0.3202105615390364
0.08143136200069409
0.198425546418084
-0.3661676074091322
-0.06017230253138786
-0.25672996373644563
0.1744326987927301
0.04922507180224681
-0.037741941045217976
-0.3065785595845517
0.04841888103008293
0.24868352521375192
-0.20978271335321114
-0.33012058505264363
-0.1458866972666161
0.20773623964352297
-0.34250297453721357
0.22112010063746187
-0.37259379948862187
0.047937045614420117
-0.18524047590581083
-0.011260817503516807
0.3642850069470679
-0.5780540284443237
0.2459726714702396
0.3887501563899055
-0.28515942415059986
0.41659520564135105
-0.05103824846968623
0.5311094451364468
0.3790432972828675
0.1539129949047946
-0.3124407045766422
0.043979268520890076
-0.15436877298805177
0.13288458366543618
-0.1954467171347296
-0.0561540926150742
0.2599279553845704
-0.19563818554036444
0.025034958414130663
0.0314968763431489
0.5975576663003912
-0.15004545310062073
-0.6042278533235297
0.08623369175778949
-0.1403193494293139
-0.5478391376007972
-0.13486853759251813
-0.42218643612340806
0.20296161098476326
0.023440792960840427
0.016194257818519367
0.7187259068950088
0.15449207836722703
0.4324660643390558
0.44553767045552745
0.2654153219460565
-0.3387859079942547
0.1558696495031813
0.22685484418249527
-0.178854971890328
0.1783222665522683
0.2687571082826207
0.3293255346271583
0.04134348748025011
0.07615765001151764
-0.1823989604940924
-0.12443496533953577
0.17553947891772687
0.02249865325635075
0.39809531213935345
-0.3191322103818927
-0.4341227763456369
-0.0760295450366793
-0.4044930003389356
0.06838771910586415
-0.24105099028357002
-0.2436138363106693
0.25943354018171905
-0.09780113918183576
-0.107543963388023
-0.4764594924956129
-0.2321450429648617
-0.14406445740423227
-0.24173885306337486
-0.6108080840358984
-0.021285526748904642
-0.0549084924674929
-0.3033555749549435
0.13635733032866446
-0.1183397387595361
0.02864494724324321
0.3338186809260558
-0.08133229025674417
-0.055577782034467796
0.05576595983774367
-0.18193394145339503
-0.05799740797963937
-0.21085644758568736
0.159978773968751
-0.3997623717360279
-0.05324400173164237
-0.25032876429749384
0.3055065907875064
0.27649072965775223
-0.16614059372206577
0.25813178698731337
-0.29738061007850036
-0.12128586978008338
0.04095069998076628
0.3222451111172731
0.310540567513149
-0.014817806228952159
-0.2711164520749806
0.08751967137807183
0.32187749529457943
0.15739698008566583
0.10251254900214901
-0.2159026296075571
0.17054679311090762
-0.006693002915043824
0.006430217630212677
0.12002638671312355
0.23869323743433105
0.18337955123008193
0.2875612450790647
0.25933940564555846
0.23780374449187064
-0.2655200043389058
-0.6088024775446086
0.1408366589919913
-0.04759285872295928
0.26817934931014137
0.3390533592135045
0.28081507461829164
0.32069707423479016
0.2291232336777074
0.2958418172220136
-0.23971539551245605
-0.3924192789353565
-0.3041084591515965
-0.03653976704048596
-0.08143723766216558
-0.11784280752673013
-0.3628899430654448
-0.25959731142561066
-0.05435264401370017
0.00043884161170552796
-0.2755429373843793
-0.08486783399929888
-0.07595928407820667
0.29579780748579887
-0.015119269167107428
0.16064099074893481
-0.13331344734393047
0.03939104715201239
-0.14896083729317966
-0.3402984657221905
-0.2406578634657458
0.04836924620476955
0.15611411702619515
-0.3103060720876129
0.2045032139755887
-0.07551518661200796
0.19801568024560592
0.12309432014771564
0.5961768203367647
0.251059462338019
-0.9204858413579634
0.30761540267002635
0.45023471561547307
0.28690653637265373
-0.4577221185709864
-0.20624423914649884
-0.09408102546058218
0.42836154995135267
0.2855714022642367
0.2593694272458811
-0.1991139041519754
-0.1519163223051975
0.09617485258801713
-0.32138172177117813
-0.7110341476674001
-0.1631869331520764
0.08541390404592844
0.11071950685925727
-0.1315893033483041
0.04929155338008575
-0.05474526335384733
-0.3225453708102416
-0.049391174922359796
0.3683958415043781
0.5354952908248275
0.14930538338615743
-0.13932143443934933
-0.21351790449575056
-0.011942049417760569
-0.16726133363450746
0.2647823076525832
0.033792826999000804
0.07832777218201613
0.04370760959744824
0.037184469518883836
-0.006194233188669771
0.35415563107122056
-0.5831720669548206
-0.3049477432421841
-0.021661318442906797
0.12185429408640237
0.2699581423745035
0.12122908093606899
-0.23944932886922946
0.43566249402399143
-0.1688991693727511
0.31398876079548205
-0.2753178936505051
0.4837496910405515
0.18015956532409869
-0.27596390566342877
0.34031855645990955
0.06690304654164526
0.22830847131201007
0.10369083146043714
0.6945758537913733
0.6338206492796623
0.18989833974040599
-0.08782175844284484
0.15631852032443921
-0.10448358266265484
0.4155766472003145
0.4176204532292773
0.20155857710860195
0.1528901714603701
-0.38436190475944193
0.553176997489754
-0.2112744424295458
-0.46624055633903166
-0.1312815195374557
0.08827710912604078
0.06611663994702188
0.3055938293180356
0.07595951473655628
-0.3888638246860721
0.1411595904433444
0.18749409929832725
0.38138180305217884
-0.5377346466430926
0.4098968254651248
0.1947306039446927
-0.1104526523405773
-0.007903698830261655
0.2530683887173654
0.05332548218156836
-0.032565901266732714
0.27853326520393984
-0.4214018870030041
-0.6235217272939645
0.23248957738917117
0.007223322457594236
-0.0722831331435417
-0.25444100147694265
0.11415780884533748
-0.1454545963124349
0.2513679679160325
-0.21908596697903207
0.2317198433921405
-0.21793868902837416
0.08483062857645655
-0.14398677341678226
-0.5545380685352659
0.289208991808574
0.11560131996015643
-0.17118959769485267
0.14723234672730218
0.16459654786343617
-0.31099948106308045
0.2340976688991844
0.37282653721205433
-0.10254488724606889
0.1851153647221457
0.19399584449436982
0.26036010286182615
0.02163505024897351
0.07906792629658528
-0.16212578910638847
-0.29259629327258346
-0.40582069538981436
-0.2555301594641871
-0.42666891208035645
-0.6653702335246287
0.2935596416097812
0.261704369489899
-0.11062093834398547
-0.14531028757654038
-0.3733996432144481
0.07632938153907501
0.2907955548914701
-0.48362806333638436
0.14450523749902086
-0.20083775806358914
0.37626982779450835
0.3692466673886576
0.006832160753315483
-0.397068018708634
0.23593097450857597
-0.05160961733244687
0.29136899564448854
-0.005053641489452342
-0.5995426787729136
-0.2899794758621367
-0.16263099129052994
-0.19884282341874138
0.038511510250223945
0.18482117583077154
-0.18469855770625124
-0.2380432786253702
-0.14199426123834194
0.02856274055407679
-0.2487481412754165
0.11861998878779972
0.11886133905239264
0.23213641800580148
-0.04775432177194663
0.010757998196107583
0.24129332395014205
-0.47320829877132703
-0.13514708049895247
0.3362887288937553
-0.3643429227047679
-0.6129288225878549
0.04666184140208137
-0.11620549694883833
0.1902865642295755
0.034188794151129236
-0.2581345891217978
0.24683306099933267
0.01849445102407815
-0.1000711278394871
0.18128835951563832
-0.35749325887834504
0.27587475396058486
-0.2837967110760816
0.3010085123188454
0.39444797634434914
0.1509084362511504
0.23858181112974072
-0.43666364738278446
-0.008587517731164972
-0.305039408970926
0.1877489086536083
-0.09732736501045673
-0.48053054095275294
-0.3797000380786558
0.19562725639870074
0.5251382372507479
-0.3874351834356957
0.2631071796498492
-0.06126857520248757
0.05844203457333905
0.3939961303811299
0.1847326582979568
0.006874307279874636
-0.2320251215973268
0.13503023314246923
-0.45290557153280697
-0.38676035087450955
0.17321806555863856
-0.21843043825370267
0.1907186014508348
0.5277484789245374
0.31145434086582907
0.5727401346081733
-0.4112503050857902
-0.0890691220512793
0.23510600196207895
0.2947375657486608
0.35616081925259757
0.32621332479273196
0.21378624629784115
0.45249345908964367
0.09452000439115896
0.24019132408402913
-0.017286786824127928
0.14708867549596158
0.29170136799294305
0.37307138633707027
-0.031363953573323326
-0.026132048990183586
-0.3475426000761291
0.06856289145032189
-0.0604344952179724
-0.13699383284647354
-0.4794045871093822
-0.038220949450496026
0.2202840388266508
0.15180523937916401
0.24330174674589508
0.13629936066494056
-0.15825575409990153
-0.28698581423331704
0.01414029971987024
0.8951575599674215
0.48018717831538144
0.1724392434400826
0.11720167285965091
0.3185243173348092
0.061883266227305216
-0.07422942920207097
-0.1348720558276679
-0.43371485439736573
0.0756101903313486
-0.2617062482363175
0.04175616291776984
-0.46395745143498907
0.38726560271545674
-0.5635325444267252
0.06057516463315408
0.23098140608315856
-0.2873470291082534
-0.2189929136845204
-0.1397531474841751
-0.3796768428498988
0.1539634378351783
0.194236235537236
0.48806244740808113
0.04419890984553495
-0.028295707806069378
0.04944513614625896
0.5848059356769572
0.014632941699290799
-0.11955391745194195
0.3039682006685659
-0.3192188239288345
0.4236190724838753
-0.36061266455979424
-0.4117563953937943
-0.16955047295964273
0.22754350177009117
0.15202780659305093
0.10047278316630802
0.2522687426348137
-0.3197313639808743
-0.09632110529932
-0.6088446375104534
-0.05278686565266576
-0.15531998231610664
0.5637725463413858
-0.08837576262750343
0.08699758845136464
-0.23175246419455584
-0.10884184672177159
-0.07595819552348086
-0.35102562328928943
-0.5101490018971706
-0.14005494726519385
-0.3088504498178049
0.03681683572180605
0.029917114711172584
-0.07753749251537274
0.2449743581040313
0.061054906172896044
0.14887029126041598
-0.2944648380674619
-0.27893415053359244
-0.31316552785614765
-0.2174892729604002
0.148754156723133
0.41145651193673194
-0.06645530835690669
-0.003371487045829324
0.0021462893457524774
-0.4164583745665382
0.3034200184255556
-0.8058141834645485
0.11363584685871038
-0.10339677287544023
0.07835654982182598
0.17407101108669534
0.3921738948141967
-0.0257627243723488
0.1912287703131424
-0.2672846226154901
-0.14383497710525056
-0.024004470064703153
-0.6403352912496999
-0.39607259115106214
-0.22727414494172496
-0.41899075103763916
0.5797112292753462
0.26936783526760594
0.3063925019657588
0.42495024040392687
0.029625297028838718
-0.1135760492872522
-0.05249896205975348
0.10659795189084217
0.06733647542779331
-0.19952880234861234
0.17349701766023165
0.058226748393708304
-0.155398136053496
-0.15022577926879216
0.12121012915834538
-0.29118626368098227
0.09177109153753865
0.32205233783964815
-0.1609334638173194
0.12025521626923513
-0.08420832529071115
-0.03384309118873777
-0.23560085477919143
0.27036473853391885
-0.33105078172417657
0.11947086010184851
0.19213648402957953
0.12087246828278075
0.19548921130552954
0.463896194256295
0.02912431803898504
-0.011802439812678202
0.3313188937257279
0.3066213123303155
-0.24791050069983445
0.1081363840876571
0.3310950331372346
-0.2811253671112841
-0.04311840694865524
-0.2103059308912527
-0.3398920568477445
-0.280417429562585
0.08464771288989138
0.2207194566288623
-0.04477436331053915
-0.0930753367384272
-0.504558095797678
0.03230022188318405
-0.19963561151340947
-0.19969955638196996
-0.16827468145311927
0.4756899678344775
0.44568458388491733
0.02399348730418933
-0.1791941804418557
0.019661306644433055
0.053924984420271306
-0.02639936921645976
-0.3612006779004881
-0.19745577970800482
0.09159244278147798
-0.017972496532968042
-0.264174372066723
-0.15858876808259517
-0.12470538580965294
-0.0538256913993142
-0.16995078864587426
0.04882299321065779
0.23797277352962432
0.1630120970351657
0.2516475594951938
-0.2607905773482981
0.14752427903630186
0.05239538415038091
0.3195570908190632
-0.10739195395851138
-0.1617389908757562
-0.4545617420745579
0.16605736091867976
-0.11245096152890079
-0.12520762407178287
0.14649310306605146
0.16870942428234673
-0.036915135392207594
-0.11752808630839004
-0.0573361826533
0.6536625695713247
0.18469224236522302
-0.2914719812165686
-0.005595006358972392
-0.140879218193973
0.05791337947302964
-0.015988104306028796
-0.01707636408768453
0.41493995480106444
0.5893144009814782
-0.3029512481225849
0.11175121793392667
-0.23508684460140242
0.39326595780788687
-0.47939870770749127
-0.4085028517982253
-0.3745456765295908
0.057128849544111036
-0.09849792235053924
-0.2515736412617242
-0.010136430996648554
-0.20566233313633336
-0.06583607043879992
-0.23980620523315277
-0.3241596565095271
0.049391836299027034
0.14814391531526178
0.18233036833684668
0.20757399156207004
0.14946996770543455
-0.4948936078619763
-0.1748368639405522
0.365967356972813
0.23231074910371294
-0.03793748793521173
-0.1012434569147499
0.01954872246935604
-0.40624953857617446
-0.3906364944569061
-0.49003878242474735
-0.38879303555278855
-0.016939784782293514
-0.07126074504253033
0.0847818090578711
0.1918232890905202
-0.4143125741811847
0.2712526209493967
-0.13564832812877559
0.45590406346075263
-0.11046302244499821
0.04772878356287999
-0.6486426446859118
-0.2804088704180416
0.11488680748167703
-0.04321858205883097
0.040154237711200656
-0.05047309959749186
0.13797483567296392
0.19236625702992957
-0.31251537111128586
-0.08574929135804998
0.14648398215840344
0.16137298800966207
-0.1506817102866139
0.22672225248208552
0.14538823620793964
0.15368003059690177
0.09535707786877483
0.3505358383609669
0.29343503250210223
-0.04410536033614144
-0.4176015923343515
-0.2773616203306328
-0.08349963851089684
0.4180701777432289
0.25560451928915817
0.1255247020531989
0.11408070019816205
-0.3147474195404182
0.0393076590035433
0.17304014359656028
0.05319963385483957
-0.11117121776540248
0.051297153739627635
0.10570811278087411
0.2933996313740301
-0.27365087838031604
0.2219526938603671
-0.2540510922806832
0.026199358158740287
-0.3015872047327771
-0.29268675696559326
-0.283842291756254
-0.21254113320036652
-0.11445619168083818
-0.22777808674175512
-0.6007223291854001
-0.3642773257793876
-0.010919707822988688
-0.11477869236363905
-0.6042137064122394
0.08957752462848184
-0.20860317248996152
-0.6959588977452444
0.13001641010708098
-0.08141862836419554
-0.1572414077320227
0.08591763519115227
0.32481921987737167
0.7282885066735018
-0.17888943660338108
0.017802804022852087
-0.06304280758645915
0.45358133110967513
-0.08988988302473916
-0.2962021191529929
0.0940955735972553
-0.25383215893063016
0.1044629938639573
-0.05027211900995335
0.27292415339842246
-0.5003003941988096
-0.147685068576651
-0.2184380811597773
0.03476510243509288
0.4288259228824753
-0.24806438575613043
-0.27608900979794376
-0.4421745883233535
0.16746029461343456
0.1814043550944607
0.3369768142350845
-0.020920179514477916
0.15800927967081585
0.5229414858293084
0.4074119497577469
0.11406356023119804
-0.0006002161651994398
0.15760060911097137
-0.33665218844468986
-0.43011218726613726
0.12451447540027413
0.12485356345822803
-0.12171153874541012
-0.35598992251211403
-0.12242478137400452
-0.15213854038543198
-0.6279096181300876
-0.27817363160526665
0.4584536206495651
-0.15940955291854686
0.08753878415141043
-0.0911506789794722
0.21839716592527197
-0.5560850365045227
-0.43124485602611307
-0.04965025959025353
-0.13027226007890014
-0.374535249532331
-0.0145754792679106
-0.00873406133572094
-0.13359692114809094
0.3980273849245982
0.36527670671837054
0.23523860843695846
-0.5296571254840459
-0.35258758858534994
0.07446749808953226
-0.23861489060240162
-0.06568413633496353
0.17810081463172575
-0.8145257391207484
0.22234947424598886
-0.18208801334196867
0.031970161743698405
-0.19354375385294514
0.056784772778688326
0.38166698044289815
-0.09550426395020045
-0.38178293959284926
0.44744571877383366
-0.279174691846447
-0.19167673939672855
-0.3276306983015537
0.21739286003404126
0.6473403849111993
-0.5690101766732097
-0.10958819060857986
0.02337676251304279
0.050020948707404464
-0.36127198331649435
0.09764063315460236
-0.15216901524416088
0.191106907574232
-0.0475230099090504
0.16799630570339358
0.02324289638910102
0.31899356675774637
0.06967859130308263
0.31476203589612417
0.1775197386162214
-0.2164242250973838
0.29797327205680213
-0.13635222542354158
-0.2657321731181984
0.08228127042958287
0.4170195522654383
-0.5103650857124035
0.10918198330706412
0.45372321577938474
-0.17864689189083524
0.15299644019925893
0.4403848467059008
-0.3161717185285808
-0.16650432296129897
0.00403723961196173
-0.07694403771428591
0.32253342586406175
-0.08694824450449852
0.013282990438221356
-0.13809616426789792
0.07531383074420472
0.1362195759590869
-0.4107025372295703
-0.08334376321570604
-0.21653963162237888
-0.5321279027241004
0.20684795244760049
-0.33675642556530516
-0.2831216420144581
0.24139141750830315
0.4687998518402762
0.11252780263735487
0.09535169677796401
-0.5512682366731776
-0.16454010466859437
0.1143567471860843
0.2657439569408238
-0.09750249699681815
0.11177386749162968
-0.373798981962115
0.08432393555632274
0.12537383869846325
-0.030059074661132307
0.19274970503736671
0.2572126512353855
0.007707876523695811
-0.009275583341515648
0.02454360732489876
0.10228669713277168
-0.23949295440378132
-0.6183808407213389
-0.5612083646828431
0.4435320593980193
0.2663126049981679
0.10842378641042841
-0.24432110735461773
-0.26500227296241324
0.09704604182953447
-0.01415143881827514
0.15786382188951312
0.4090208717875568
-0.49991237693437107
-0.1676235064779331
0.02642648262484977
-0.08365223843771759
-0.17542824551559502
-0.04859985482400488
-0.2654881643186369
-0.7026526413218446
0.2940518749655847
-0.03386872374405844
0.04568448596074502
0.04060949298390117
0.2599203138055956
0.4692302593425677
-0.10950610108891067
0.004525262039826033
0.06820591832796714
0.13993511591035834
-0.1357660420262312
-0.4028190556771002
-0.4488051844201657
-0.006710943692340449
-0.17537585733558095
-0.071689897056169
0.5185430489544026
0.17694226049896652
0.2901197978306172
0.4801709447768345
-0.6736209405827365
0.3260630158097645
-0.16808656243896927
-0.21492923994297403
0.18210968436870445
0.3124869777382006
0.2075076490951491
-0.05819661251015519
-0.10199398016893226
0.40637704727670576
-0.2903580391212727
0.028833672923124713
-0.23165881980961564
0.09191062621385399
-0.11346244033672835
0.13338541112673846
0.1670259927116041
-0.3931847958427313
-0.07813694424883498
0.015433375077669717
-0.4177286632755162
-0.18710837186337584
-0.2227819618080623
-0.3504859171152551
0.13961220385923068
-0.2059308513507056
-0.5961676963195843
0.43402896924039547
-0.0626268988040141
0.2655393724439765
-0.5036949875069092
-0.09654073020893598
0.23860507161201097
0.04230406845957974
-0.015055638760366523
-0.15951679644291597
-0.2829269244077599
0.22197107831483998
0.4468570907504699
-0.263864648448185
-0.2136520717787606
0.7566676162111604
-0.09548043830432289
-0.25742059523393784
0.10246968967928079
0.27334834114904266
0.3724193945511725
-0.06578030722890463
-0.2093574150085757
0.25175179336329634
0.23998493598408174
0.138184390726583
0.05249003073439827
0.04534364875322198
-0.18065749299427497
0.2528936034372755
0.27743121526115744
-0.32141402185212775
-0.1770921605405264
-0.03561311172084759
-0.0018361047038503893
0.2577157736625791
0.3208367350534456
0.043133344021546734
-0.5169797112025755
-0.08607032483039638
0.11215836569690811
-0.0564127463097524
-0.6797558007418355
-0.34740755308407834
-0.17569496159817902
-0.014062480092308762
-0.45223996681750434
0.191878743972554
-0.1280104565107254
0.08088480471543977
0.035289516866284745
0.6636484795216795
0.4636218023689308
-0.4157607286508565
0.2382277702706871
-0.09825952797708769
-0.2975973419283286
0.45098681183616407
0.030427321169763783
-0.3172325995932435
0.24025930322530148
0.4344426292715465
0.2893020852222205
0.21085723114896596
-0.11962712855130275
-0.17524495952087643
0.19034540816112083
0.6038006902975074
-0.2362550540068127
0.09355741279284592
0.1910125681684855
-0.21806976380541382
-0.4046281096716187
0.42299235868311535
0.12322818846707677
-0.5328153756066186
-0.020304533075733936
0.7024003514839031
0.11275283332348662
-0.37105181975150037
0.06500084037965212
-0.04659370573240529
0.09581594422039612
0.2547597164060387
-0.2242581010220761
-0.0006059549678345904
0.6284685393945998
-0.05556437288661507
-0.0032664175855395307
0.25171970792193366
-0.07554554642521126
-0.12024580200575218
0.36884164108175294
0.14232499676760674
0.16161319109393935
-0.18844760348090306
0.32369232608572235
-0.3607177836907391
-0.08970379736867481
-0.07791396351380783
0.033860935621149585
0.007529371074739988
0.10965782393029525
-0.09570439647187041
-0.37241383285182483
0.22762213340084686
0.04301140621526175
0.4340963604866964
-0.06118633138966436
-0.33579679113350047
-0.043584890372905104
-0.35282359509610917
-0.27709578693693154
-0.22423565615179453
0.23839878495267358
-0.22070241230479734
-0.6819557322411988
-0.25904560923649844
-0.3442777064875234
-0.0059063430183046535
-0.22651681477007676
0.21872102966842538
-0.34144994455488537
0.17149305288466066
-0.1455551846046469
0.24592561708633826
0.05617733776360032
-0.4811626638887074
-0.09963683996222196
-0.26659122768769483
0.1416049020376399
-0.03584071196124659
0.35743128129279544
-0.31906969293038845
0.6385474727059953
0.22412002034347364
0.17884373562933686
0.23816124003613412
0.012210490257361123
-0.09879139516165142
-0.1654467205143282
0.11789362106642046
0.4882677736371029
0.4879245162243832
0.2370169885635723
0.02860183455360961
-0.24533428236335458
0.33246567138050337
-0.37104108599562013
-0.10530184633666126
0.49108990871793595
-0.05548542107643275
0.14987473767086146
0.338009231143206
0.10840336608022376
0.0045155772577703725
-0.11420263971023438
0.41619906626861075
0.39273131982626214
-0.2562433148477636
-0.09016304857941002
-0.18575698491051418
0.12863531135700693
0.028975445696682478
0.0970425558441418
0.002746837489548854
0.05159543736849521
-0.21548484998385922
0.36243140276238284
-0.048516242132318296
0.12207656755371099
0.06598432940428582
-0.3745703121786577
-0.024520814198611605
-0.396842887325518
-0.3862603858375048
-0.6124334713607401
0.15828310745220192
0.23825264973314955
-0.38670259574682464
0.4015526616569855
0.013386135563085273
-0.03746003716160836
0.007363545377949757
-0.010790022173923273
-0.21632277129602107
0.10790422313276053
-0.29298810455542856
-0.26153905878263733
-0.549765157905455
0.21478534653471928
-0.23351232106028563
0.2958242932453616
0.012327459245401247
0.18034607795866464
-0.6707349139574295
-0.33705349983274707
-0.5205658066923556
-0.5216498175271534
-0.020664052495613344
0.4261936251873554
-0.16833653131132215
0.013607238730480645
0.13359299036165037
0.30426846772216104
0.34470726155674497
0.0468217628541493
0.22307619080013896
0.13768594320289773
-0.1390700591856449
-0.493352902415055
0.07911069463998023
-0.25658035489323994
0.31062457145274663
-0.2561951804054168
-0.17100661400584857
-0.18114162599020028
-0.015630424671427168
0.21167562541490842
0.207867450352877
-0.46270302262718804
0.04316459737944918
0.13442098028097818
-0.21223426210128515
0.022500467919569566
-0.23336100378933872
-0.13589210272597074
0.3191605480816356
0.06822595115659037
-0.3887262776229195
-0.3780653719874576
-0.4769909182519605
-0.46138564432515516
0.1645697885353829
-0.18396252692219095
-0.07911590342749654
0.05984744005083903
-0.17472703705032916
-0.07939232234907047
0.3299237333567001
-0.41371269572191804
0.03429263805554344
0.18618796664060802
-0.08941329722833108
-0.05955781501838607
0.278643888114407
0.21423877025266075
-0.14501316648802973
-0.37632980332622323
0.032869133113350116
0.17974651341661446
0.30331190494164373
0.0009061089134263595
-0.007320645069248724
0.32540127210163317
0.5465199261243604
0.37109113171951674
-0.16400556496414986
-0.32559192971106615
0.1482854536572606
0.02341561496648283
-0.26714770011537736
0.04613912627032542
-0.12523595098861004
-0.4847649198378543
-0.31161708263402377
0.11644135857251181
-0.06625676130803113
-0.11879835451836124
0.21102900575637465
-0.24789893774999727
0.07974777649753079
0.034246892034204945
-0.5093179426845186
-0.2881851200966221
-0.08275729786875595
-0.3501267815843685
0.2633800410729221
-0.1911517853272077
0.30634776747764697
0.12930810871283405
0.053906879399418704
-0.5409757769464358
0.2820350317595849
0.5986825480687757
-0.15152419572383027
0.22432236225966035
-0.4698694147786117
-0.03854026457053512
0.3214675106423599
0.2911335988881913
0.05613526259934112
0.042832882766262605
-0.19728508417616597
0.3544614922292265
-0.3355250691869727
-0.11679527408142262
-0.05816844244878816
0.044416415632813636
-0.027741557184944404
0.23578886351415493
-0.04534878683010595
-0.32263187404068283
-0.11181121486751
-0.13995005369606878
-0.45375095715230784
-0.45067517444884175
-0.19137158393186207
-0.03703935948397243
-0.2848808823086919
-0.055483077931000976
-0.3041292497625068
0.19976445948634927
0.3635018667688428
0.10294198246250029
0.12067950002063706
-0.1714984299428821
0.28285454619976447
-0.46733009966017486
0.1645289706915161
-0.38840041498858113
0.3188908315202068
-0.30328682748451
0.4357459588299874
0.009816219024880866
-0.6923435363654448
-0.26375010458158166
0.07997545980059342
-0.09346093699037333
-0.22071694355963734
0.42302441030619137
0.19438211088234394
0.07926558361481266
-0.023631808330721822
-0.043996619967982084
0.09225400618270534
-0.14545954614141338
-0.19326401832616247
0.04158829991637798
-0.05839591502352693
-0.04632017275374463
-0.03337392908291
-0.20846905465372004
0.2829906356165703
0.18413080889425334
0.18656012797202018
0.1202911778626495
-0.23301072805649514
-0.22540492767942208
-0.021531868957536157
-0.012613471812193282
-0.2580401933444611
-0.08929708820197052
-0.33345357837820455
0.456538537549572
-0.42203184741848926
-0.048554449592084256
0.12029861851067113
-0.24652482814366009
0.1914112803155563
0.19833650805182038
-0.19927984807231433
-0.013666807956376745
-0.0003487468200845763
-0.17864100981524467
0.12181935718856347
0.30469479400677624
0.36586873320575913
0.2506483251266141
0.14462717331111222
0.18895456573618202
0.20673706766245817
0.35268741283192256
-0.08251356328617203
-0.36845740960089696
0.1760272307013883
0.1518946063283004
0.3489472277159681
-0.045138562515636034
0.2853562233329213
0.4036826576798153
-0.08775290923985593
-0.18605955689688267
-0.167664280371969
0.14708945172830518
-0.2881476489087307
0.13655046597804085
0.05853776458188369
-0.5788382655853448
-0.2271358359796406
0.1144541894431498
0.6129351799998796
0.35719389384602696
-0.05006200728739096
-0.3208064914070685
-0.17514865193761428
0.4342636197309811
0.15437140220949325
-0.518604854563666
0.13822033433465528
0.21085252844893868
-0.054132554142905236
0.03540492024519607
-0.04785631064549359
0.5021875210932596
-0.05984756868681369
-0.38718084667340946
-0.12545164607347248
-0.3556564696175662
-0.1076032370839053
-0.38750665369734055
0.23793453459491806
-0.022219237622716926
-0.2918743185472194
0.17070430952874438
-0.17848053559185048
-0.16117330192411675
0.10540336565168154
-0.23938788357145604
-0.29753110509026326
-0.051496346364979725
0.11504088361623002
0.273638757784359
-0.10817844368668476
0.11555423101449021
0.27717696595149627
-0.23417444672758628
0.02817682375649779
0.41482502719347497
0.4397523621388992
0.17201693472959065
-0.005034235065514783
0.18322885311034579
0.13030936512555716
0.18674228392701106
0.31431515722470316
-0.3966600567888346
-0.3863915845236367
0.504713919212499
0.008032250774170097
-0.10448869061944857
0.014202759963864518
0.2530575464274386
0.03368547867239361
-0.6190217244617141
-0.22549380353543597
-0.4705828369519538
0.0911331612634412
0.07890637206128118
-0.02282715256652749
-0.21060202235232525
-0.2791196827054726
0.11604176696041066
0.3826184358944394
0.2526214489499966
-0.21801709557060583
0.18342026825791394
0.5228011704671661
0.3075076791096148
-0.6234493244858004
-0.5054046655907816
0.07937942894377112
-0.08496226292179995
-0.2826645553972593
-0.06391603504608288
0.017030436119810977
0.04382699329621925
0.13658735790718413
0.002183652928614124
0.34085521211203684
-0.0588807723576402
-0.06492798618827432
-0.1798898061693933
-0.029996643329199518
-0.009272555254340382
-0.05246469905648949
0.5266333901212202
-0.20165386021100762
0.01249705610051458
-0.10672040214177773
-0.09934792690280861
-0.13012178559460352
-0.017309969608886606
-0.03383076593755198
-0.3446204857176028
0.09606814864504365
-0.3101337942313193
-0.5231382193219286
-0.03336914146220394
0.36670069336791866
-0.22957486860900414
-0.3600275262400012
-0.4001680658945623
-0.05626461041831824
-0.5449546724184194
-0.0019356580886711197
0.03281670921426178
0.5523425060064053
-0.49673520879343297
-0.14314077099295017
0.5903286229424147
-0.23187327586149756
0.16727043567526995
0.412014217918527
0.19625697515293233
0.04665116772509366
-0.026590811060532626
0.13250428482142448
0.05075796782125155
-0.23916391368479048
-0.32721394142346605
0.6469051663819235
-0.4949403904938217
-0.09992361621648754
-0.0951098266245264
0.49206748720855714
0.0790700129634398
-0.07452759021770017
0.2917222861210072
0.4361866486654119
-0.0444272741255073
-0.11252091407685036
-0.04408982947040535
0.13572571610474718
0.284659348230928
-0.11633436639943984
-0.45524513471808453
-0.30456527715018106
0.5838190023314953
-0.14901637374001733
-0.465900275417227
0.1325200757029899
-0.168527544138894
0.09880758699518956
0.2919033521589028
-0.22846608373087063
0.08056373967219518
-0.2425388242016399
-0.08282857249251888
-0.18016197475238233
0.49660003977367567
0.047670064621233264
0.106340212475707
0.1241428675504255
-0.26218752929042827
-0.13394964835763837
-0.3003945568673858
0.013187354907761427
-0.04801678304866527
-0.1718776059169674
-0.4010720290791355
0.09556684437079808
0.4244049521031547
0.190284940655871
-0.15371450789232433
-0.06200964381705117
0.40421677444005616
0.1409070683754709
0.20530576157159583
-0.010607400005697452
0.06348924599756345
0.22913833183513066
-0.32201980137724245
-0.1637373822565441
0.019397494285166083
-0.382590273917295
0.6908996315875533
-0.0326229042449598
-0.30810069845375043
-0.3496890360392944
0.41070433942671525
0.28715463057302143
-0.12724378708651465
0.054955302443785464
-0.06561880733652802
0.23300511852741437
0.20286544251159144
-0.3594804107188878
0.05458366904582351
0.0033918712656952348
0.21811505432254144
-0.25596858536328054
-0.38795751503348574
0.20423279594376226
0.05792778835913338
-0.21032956814946682
-0.39745144016224
0.3861410948912196
-0.3421113115788692
0.22724888040784433
-0.050524616086781965
-0.05764033040388005
-0.04681101451234929
-0.3897771188790667
-0.010057199983888099
0.13935697016505683
0.40140001934413927
0.2467300597247465
0.5212213764599198
-0.09107301715127054
0.036786830916305836
0.10081403526053312
-0.2109083087618161
0.11422828983990992
-0.023798488295410484
-0.0866712900725413
0.26238131054955344
0.2670362620450313
-0.0231030516429815
0.018300962137697867
0.06677990331475897
-0.13083810545368826
-0.11726605139489717
-0.2433512448647164
0.17032802923008925
0.24077289465224774
-0.3076683174676121
0.054303138306696384
-0.1350165795856545
-0.14187480610669256
-0.06863906193205327
-0.23188210957295494
-0.239341888427067
0.07505955225573162
0.12182685865117793
-0.5530142161051635
-0.26904635150442807
0.04233317937181069
0.20279938391140956
0.33799910003828176
0.1949226327306624
-0.17693269727645217
-0.10399143365402858
0.10152760563608323
-0.3100681784531975
0.20457654037938688
0.04154735092583849
-0.5313411995376043
0.15600981760318142
-0.028910934458878587
-0.14732533747015242
-0.027348383325656325
0.43808875526719876
0.1506017513178883
-0.07325340786039058
0.11445497539004959
-0.2442481273323706
-0.3645215312123157
0.03607635392028953
-0.19397320461114229
0.2820498054055774
0.48828475629526025
-0.026211588391796464
-0.21057572519879278
-0.0428007131113702
0.1584947093119207
-0.27440251958823453
-0.18638662972399425
0.10249177672930085
-0.2573422361530582
0.3037925674156735
-0.1321064842968851
0.0071110052977843095
0.22000058428546343
-0.13652864171467577
-0.36819723858252057
0.0952290415857969
-0.5833410267521203
-0.17995194124054997
0.0360085109707188
0.1770457173933007
-0.26838075620990065
0.3053134907081473
0.15440685441356167
0.1683004999013173
-0.27559350260254445
-0.15024092087921734
0.25009629445286935
-0.05581043492897249
0.17899140798587937
0.16899913484365173
-0.07417072418543376
-0.09762014493907671
0.04593521757784208
-0.03683010137794425
0.5305697163066792
-0.09786537723997192
-0.015350819983809636
0.5317744780386794
-0.3320566319737991
-0.2074723702275471
0.425122590963364
-0.05881991025574742
-0.23380701275997662
0.4149019278911302
0.04190072945427572
0.1422641062528704
-0.21950415046747027
0.22091206922810894
0.3654836109713642
-0.24274551004645908
-0.4933979438595119
0.16108622051481566
0.45860510663805476
0.429591168466548
-0.01347325691996537
0.2934365797652475
0.7850075820310753
-0.14759741241131127
-0.04069777511396468
0.5608211935918497
0.10494250014326864
0.06161137137528339
0.2207514777103243
-0.057236374638348346
-0.034205015989998505
0.24555431255828758
-0.313099621972361
0.043969185959875735
0.53161646938986
-0.2692373263780711
-0.03961424527401275
0.21434766294946542
0.42537551012766667
-0.40964616578729646
0.10888624627902892
0.18679871555655309
0.007764246214670522
-0.06241354127082711
0.000888722848646818
0.06616421085514801
-0.1776759154663976
-0.33989871509609865
0.21901723692575967
0.014050313144595648
0.4111843026427713
0.010162510756593395
-0.39374025584853056
0.2069427173768262
0.3452802431497658
-0.15323322986744567
0.30889840442459326
-0.24685237133579727
-0.3967553747534764
-0.18453075070481315
0.0873365636619592
-0.4881268581512702
-0.22632133417164013
0.4815787611958579
-0.3838836226763395
-0.2802075654729881
0.3857430113489941
-0.17862491348940185
0.10440491391165216
-0.2979177653555526
-0.3426564843216234
0.16029412020092648
0.35906950373368807
-0.464080023233565
-0.005650067676019798
-0.402703398296214
-0.06239913674962046
0.2036882589103639
-0.07721012282344906
0.14789080963155718
-0.061737200699205935
-0.36022087287344123
0.5716734335403525
0.8935676976740908
0.378582035630528
-0.016668607796139597
-0.2526144415808993
0.15115696595934022
0.17530833033323348
0.2783615420578189
-0.06510887558880316
-0.21327881208402427
0.17789246035705766
-0.4511853844333691
0.018068215939676193
0.30787048066175704
0.07147215284334836
-0.27927191707514837
0.024456563728953783
0.38897074720805036
0.33033389886651343
0.22281261487546644
0.6810810598095959
0.10668912281360456
0.00581580073024449
0.41285266296975415
-0.2322001467760944
0.06746386061953621
0.01971326231226169
-0.17119323313290424
-0.5947655241996251
0.19914224333536235
0.33293604554100004
-0.04167291225826545
-0.6272656266262092
-0.22159019708012054
-0.01369790722228875
-0.0053375180187713546
-0.06000348491800672
-0.2729613955679089
-0.18792890677776738
0.39804021817853874
0.267532366837261
0.3235860317635958
-0.1519281407028719
-0.05903570247659838
0.41484415707367067
0.21287976509043763
-0.0414823927770039
-0.15582090160402645
0.1372023610947552
0.41773934608105046
-0.22752346290918618
-0.26539258502170615
-0.42552155682835674
-0.007700231013878381
0.30798697887135834
-0.14731650017502107
0.08586734431478807
-0.18930729319789147
0.5466825305883171
0.2695128531704697
-0.09059610729167324
0.5393247797294002
0.04059441759764772
-0.2693095993021221
-0.277701668232354
-0.1431291317957479
0.40536917570851627
-0.2379744798988713
0.2623001522644995
0.43165380244426776
-0.18566694840793602
0.15915339691450212
0.0648468531709154
0.35874827255181535
-0.17088975352069463
0.08274984818590969
-0.24289977546747824
0.08204156786075659
-0.10828369512611712
0.08617224876840378
-0.23192719842007667
0.3027609922467127
0.2132648659796033
-0.12310900704146593
0.37870006135823264
0.06568945236426062
0.1797564111276118
0.3917297623923815
-0.009275621005118263
0.67152013752003
0.09018145361592025
0.2414784994582525
0.04395989309655959
0.35299076289860715
0.2985230912394958
-0.1429752124385469
-0.21365501122367336
0.13241783758819314
0.05896107241916358
-0.06993800037100648
-0.1790971337791604
-0.07470541388903011
0.23461071240235118
0.17542036944256081
-0.0912817155182187
0.21091953055033547
-0.11867604745120319
-0.19413210070779896
-0.7842806012110184
-0.1340638415513001
-0.004607839570920071
0.29312674593022325
-0.20048699270040907
-0.25449938702312586
-0.0741388266797022
-0.13659303771173903
-0.02359706636261999
0.17008664657668027
0.326727840940581
-0.4370668796748724
-0.4722214347767746
-0.32178763082172773
0.48905591653812097
0.0005657724464764173
0.00019437260426412526
0.1284546703070044
0.0550431743499893
-0.018203392703621386
-0.31872693121233836
-0.1228872807977879
-0.07125297001506725
0.16516930347983205
0.037009870804270394
0.11059642054595616
-0.4618679820299676
-0.41019739348663237
-0.2694102163216604
-0.10355462614464413
0.48642277832439834
-0.26647723232139964
-0.09107891740927969
-0.08106665229825799
-0.34593700699636737
-0.08609210541924382
-0.24745237609599405
0.29794737831541124
0.5100863236335494
-0.07179374250448933
0.26768877425611876
0.605330800474513
-0.3295406582886221
0.09365852140069848
-0.023544559453035727
-0.5321746379766484
0.3791455383185487
-0.1365417617252642
0.055187668845267795
0.16966775388160726
-0.4195796579942312
0.26723279536203576
-0.44606287654836924
-0.18513659635878635
-0.14682502891498558
0.3392587994075696
-0.02733561444804904
0.00971246301366249
-0.36976833985202867
-0.3257911754084262
-0.012659756259115617
0.19625829331779898
-0.004533002231013507
0.020460029134612964
0.1547174609946881
0.4338785329764668
-0.2415974081197929
0.0606009499514285
0.02181533946250837
-0.262997801918412
-0.05758529294637804
-0.19682436685230856
-0.17696700943181484
-0.2942481333192182
0.14485606698670955
-0.1288577212292404
0.2519268229966606
0.16769862433244193
0.3357081487910328
-0.3771906045521383
-0.4828403937536843
-0.01745694731966036
0.1454167530850525
-0.24872673190142827
0.27267094276585074
0.0816767176898641
0.2684859716467054
-0.2665357144945839
-0.03108274955179375
-0.014449003180911585
-0.05011092256260498
-0.5269077880396102
-0.20036983862855998
-0.3219200809641831
-0.393917985030098
0.04780948586591012
-0.37257651703898514
-0.1267694837409441
-0.22823231496721683
0.13475937007052766
0.41055214342537427
-0.20953573039773055
-0.23039348122795528
-0.30066424088752897
0.1509904936029874
-0.4767733413136829
0.20018867845218216
-0.25553293690098866
0.5744857340572355
0.08330202628914132
0.46338709236065434
0.5010225244841177
-0.07563071410390895
-0.2722879986388642
-0.019559495754667092
0.07460607432866846
-0.004855023046249529
0.21390782161604957
0.06917279194543532
0.18939510202598944
0.11433442622862408
-0.04382394047344479
-0.168036604750875
0.4367126700036853
0.2246926112579169
0.1688249770433548
0.06590376001598755
0.26157436009595086
0.29444787841714043
-0.5518669997270939
0.22312503134783207
-0.0032349356695983767
0.18496907933217782
-0.017030957062879614
-0.35716491944662887
0.26519269338656326
0.16367548806503263
0.4444639558580594
-0.488306940012251
0.33937183771814866
0.35454509643801263
-0.28278893157275387
0.03449155172653133
-0.6062103147764787
0.13805946153290094
0.05066093242710604
0.4718747643844349
0.27913592281642113
0.13409178048824258
-0.17541350962716246
0.2376224768553748
0.13418900206442944
-0.0392361189695182
0.05787511237543082
0.05769423946993363
0.16814764745443925
-0.16808199474727345
0.6674920099424254
-0.0782726212861935
0.36897659791019743
0.3102336798491544
-0.266591322091703
-0.05794860519547047
0.20303512289169923
0.0957534163159845
-0.4328154198348077
0.0658724570402449
0.12398415396744215
-0.0915819531376559
0.4881134380871139
-0.16657656501286702
-0.23188234719877418
0.3125948886158463
-0.1427685429527411
0.03895621569759719
0.2831031691633393
0.1678494353698235
0.15709924875250106
-0.45135619704468044
-0.25721560274017363
0.056739749005219386
-0.2694667187278457
-0.09868363301487004
0.0818646640101401
-0.3987040482150051
-0.031734375936883275
0.04035203720592977
-0.02578070845699341
-0.4571975347337541
0.5324364234034008
0.08930417773099376
0.47663411299335545
0.3661894283945893
0.35418266894648737
-0.2226156487514095
0.12289165017514447
0.08347690493290708
-0.15886436737713674
0.1245764436502126
0.21095632011178353
-0.0745852753422086
-0.1279143534316796
0.3597338698936969
0.18867008461524037
-0.10093069657983593
-0.478616632354226
-0.2544652796703102
0.14950010377273396
-0.0941758785602981
0.27410069005520027
-0.2752999687352126
-0.010775751722430437
0.11811522148651055
0.3056022445953776
0.012921665234318532
0.19142268546756386
0.2667820188146195
0.020881652626436657
-0.05625690010398039
0.31549985719654033
-0.09255911314293713
0.05343637776259119
-0.03699782360544475
-0.039599269980374066
-0.3117958435642649
-0.1321317505599433
0.0485454832161582
0.19256555628205552
-0.34648781431537573
-0.00024134187714067645
-0.278495505754346
0.2195974850441054
-0.29980267958083995
-0.28676369046472167
0.06152025529073138
-0.7362510564134122
0.11815617161942098
-0.02396187473331859
0.18269129863115138
0.24165231461910847
0.022363799493144224
-0.8045890409748955
0.22388679394869518
0.24169018691063646
0.1928637232195866
0.3069670441479915
-0.28052559976343233
0.11592093921449156
-0.3748156773412714
0.35409609179196894
0.3223720555148853
0.11813458140642495
0.2919718694680851
0.18291858204724992
0.27955950726736095
0.41140536525898475
0.0021391677816657833
-0.1364159306095147
-0.31179031840139954
0.13732648149440005
-0.386708287086736
0.35118949652160875
-0.11721260089549944
0.23063988874961933
-0.2691437287715727
0.16284530783513235
0.03955796121556324
0.21674292872934103
0.2853108057218048
0.13779082579543458
0.1395592999778087
-0.12043383512375141
0.34282559486038094
0.07842792969545062
0.31228143110972234
0.15764288620124903
0.2750297136727562
0.5782924908570446
0.1600529650030346
-0.5311718918835064
0.37127853875344413
0.20311680845534785
0.1076029439464214
0.05876532212299277
-0.387271033909068
0.014777132741152388
-0.030952052102476202
0.5310035526801348
0.6595013735176875
0.31914890769174786
0.4962598112721752
0.004365618802906036
-0.00427923977731642
0.24077470715500482
0.031475517816516335
0.29010462347108085
-0.03639715954524162
0.27808008953847396
0.22532569376815736
-0.38352352018457153
0.29613161756068285
-0.11040091797935143
-0.2757429848093192
0.41692223232236564
-0.10856661183895992
0.30607524811947345
-0.08839571722994981
-0.14675001017628195
-0.058422822370054785
0.37101521169922497
0.38450016125506165
0.31477479004150616
0.44108997284789947
0.02984323180990783
-0.1097160503919968
0.08488390348189152
-0.6545674199437175
0.13068001522087985
0.4093206911169617
-0.01657346150353223
0.32888629422232557
-0.39717243467215607
-0.5217228636723348
0.6342555994930311
-0.5484594880896818
-0.4501577738719567
0.2820747600830974
-0.05872477634084396
-0.16126487078708585
0.26307815558773956
-0.1755348797164627
0.2584837151093754
-0.35156580903548484
0.14605343853348732
-0.11081645314975738
-0.2821894989125709
0.18216286283935396
-0.224795588120401
0.11358346212524263
-0.2640684293785076
0.20402049052143093
-0.544389807523809
0.019252880150395505
0.3546221988159033
-0.029265300069766704
0.3683120219670446
-0.18223513041761374
-0.33236456605599407
-0.2723440159070343
-0.19043445590497055
0.12818513152021616
-0.026137718724320982
0.28729627278237896
-0.37097944104639036
0.015615184758792073
0.17204512360172958
-0.1584852158467492
0.10558823120478605
-0.03545088870178558
0.021711663146923132
-0.4040535951692508
0.1132098513976508
0.03121117991305344
0.22583943331042883
-0.16037054579656082
0.10872405030555735
-0.22740457785831636
0.6707800040891287
0.0467274029429794
-0.25065170968648115
0.279305201646078
0.2709885519965274
0.1889349564328131
0.05094168601675843
-0.2932564299060965
-0.08577222357668719
-0.025108909759996
0.36114379249064105
0.3704106364057129
0.4723707508705174
-0.3776851757497833
-0.41622007868417527
0.29260142090979097
-0.5243532684345824
-0.09878247864341952
0.4146565782145408
-0.11106917269252004
-0.2931999711051508
-0.23851340926046888
-0.07336200021302079
0.11975513416246683
0.31875572934891494
-0.07207029484017481
0.2522999790071845
0.231217784901588
0.10550869004445218
-0.2986237459924174
0.2384627120243187
-0.2490865016388354
-0.12155547745491302
0.13209417219043107
-0.2043327224433379
0.09065002527441406
-0.05705477443731465
0.35107253839211255
-0.6059623086636288
0.029684204866089924
-0.11189064221930084
0.04158343002613589
-0.21769408680443675
0.18504870230824597
-0.08065653786151813
-0.09777764002124278
0.10617527536412485
0.2171100982211353
0.1391844290083837
-0.20038987939936026
0.13645407082232014
-0.27575436035360396
0.0984458871645981
0.17290890319197164
-0.24946395209547514
-0.11198507651517585
-0.07910105600883395
0.062379902853472884
0.14314029802260994
-0.10553338564835342
-0.2802754419988366
0.029914712688721295
0.08642930274012967
-0.05208707107539226
0.21517296276868644
0.2791100535264517
-0.10613808428524071
-0.26799770673498524
0.0010702383600928746
-0.010484333831528702
0.3727928055874537
-0.4685653332809356
-0.2985633866727499
0.16607350745793373
0.19385646312265173
-0.41024136661274363
0.2505842146096379
-0.3004746570570504
-0.06036487410161022
-0.09197255868312532
-0.0764150051324186
0.04090630832650351
-0.057848812213790145
-0.5244687589076594
0.08831114933764277
-0.08186269615569267
-0.3988647855413885
0.2718508672912038
0.280137629652034
0.128910564907552
-0.0445761105116675
-0.5533881469667733
0.20803216758422602
-0.23634082838093878
0.002618090959400633
-0.06314718726418443
0.06903208060447397
-0.18508555796223697
-0.16843983529968853
0.11734534312763414
0.10157982708776692
-0.01021095963455848
0.4089063451128935
-0.3289209514664281
-0.11235274790319996
-0.8571335943735475
0.13017612840013745
-0.5463777865135541
0.011956340117739543
0.00996345588498984
-0.3002266388834339
0.10297609375790377
-0.10395886323434829
0.3220716771596208
0.36640939971050224
0.11819017350273668
-0.1426766154254936
0.4516425150031098
-0.15629988526268743
-0.12987144284538338
0.17378003915152665
0.3977667881796859
-0.12205311596610706
0.356447372077008
-0.01735956713267954
0.17992570363402022
0.07121721342972825
0.32303801801050436
-0.1287515424913412
0.4039339292495824
0.07606615823476931
0.12009079051578744
0.21991920022136527
0.1035620227141071
0.08655335523916759
-0.2588021142644852
-0.07387127118963563
-0.3927663835694522
-0.13248079739066518
0.1778777617864573
-0.023377272986411478
-0.10820305988498291
-0.21630134262453313
-0.11241193708200242
0.1110259006215345
-0.1709610819086492
-0.22890805113664597
0.6592310800078657
-0.10934468127642641
-0.3500944619931324
-0.041339379192669536
-0.8459045012642523
0.2845413586766959
0.3940207540528569
0.15049770170033483
-0.1415801373870689
0.26907042656948704
-0.40711160593501905
0.11390930546549423
-0.37396459084921296
-0.16236840645976713
0.242340800351203
0.0009545110797670508
-0.28055305525390917
-0.08250533929800233
-0.5146914829567721
0.023947895263210922
0.022612460020918157
-0.4107026188332365
-0.35024629232228777
0.23364825129094666
-0.14239800887505516
-0.038305308285673294
0.10921785430799327
-0.13556992791336406
0.24542985774063822
0.13879767326416337
0.09137281559596468
-0.191656088073866
-0.04025344996276755
0.16866784502852464
-0.36154281514073244
0.24781245318650455
-0.03541633300015439
-0.06689687232165442
-0.15515884718518427
0.03015368349916927
0.09982773723120818
-0.746949166138328
-0.24531911873167586
0.06765219510734682
-0.14965910697011692
0.20853694106921497
0.10360580030616018
-0.08699167133599513
-0.03699295709915533
0.16121389223613192
0.23869881482180524
-0.10627766140305878
0.06806422166773078
-0.21009920071919538
-0.10235155595649004
0.50505771232374
-0.23704186553996986
-0.02315459975735394
-0.2388213183348992
0.04304539256021547
0.23312275793610548
-0.44909323992502925
0.21767081864883042
0.32231854824808276
0.5331314877705456
-0.690266780166206
-0.35365105778256994
0.6163745574127953
0.35930901274410626
0.08419339728140286
0.1802717584336193
0.42980360917963406
-0.30460976768129716
-0.16805626675137184
-0.17465720162408754
0.21810438039086597
-0.4698225270837531
-0.23062002049419297
-0.372733843131133
-0.12899483797304037
-0.4389494656167999
0.20491225645303524
0.2328486096489097
-0.07405311521849724
-0.12828198892123718
-0.2573361166454426
0.29749761823959936
-0.3923035300683121
0.5613439795878429
-0.05544499230954575
0.10991804179339525
0.3400359239656702
0.21753034329773246
0.5099446289255836
-0.15123416494553132
-0.28144993822972336
-0.20886659030725394
0.415098798243881
-0.39447162746834774
-0.13643866976101568
0.1911544006661271
0.061430582291869415
0.2837725472416566
-0.1567035530157983
-0.05275784364053672
0.5239291381901987
0.21169919874546894
-0.11816265763320508
-0.19542055437518333
0.004033900202840957
0.05026099474642981
-0.12895252366023816
0.2828737763194796
0.15528793804756932
0.09549087662033444
-0.08207070938098951
0.0691537450209012
-0.6152586082685483
-0.18515852334186217
-0.3460987360404402
0.5543218399379183
0.3676662793414053
-0.15518209299551927
-0.371562634063093
0.3367942883348561
-0.34581301483243115
-0.4026261137234599
-0.09380414287223678
-0.24317457445143617
0.3570140208905739
0.1094675292650616
-0.24366394345919948
0.14503008548054183
0.050529220374938656
-0.0713329530254157
0.13341626566668957
0.33872875343313
0.306755579344595
-0.0998401047573327
-0.11318967891848546
0.06803346876585704
-0.18597154625038065
-0.33169257651111533
-0.15527917507307873
-0.37394154012824565
-0.356990090667465
-0.26961109152110746
-0.01322853802287323
-0.013922463636155255
0.27414493429138576
0.7827462893818267
-0.2844818377968365
0.511057626316783
-0.03983621871372229
-0.22802627949404328
0.3909405915138405
0.024197469344580506
0.052282797819810205
-0.15987472273615522
0.0431935611092319
-0.0693066438000647
0.1942829157801335
0.10221242014738488
0.18545829317377216
0.10332130266539888
-0.07366758204712429
0.21600233022007181
0.19321871640993535
0.042783146908335304
-0.3359774407297034
-0.09022916792040225
-0.14642176173390936
0.13421076649185584
-0.5900499124676145
-0.241001837752157
0.06730156399953519
-0.2471669720532468
0.08302301879512272
-0.011383995457559595
0.17955226551255082
0.12100715864328589
-0.46266302856256913
0.46035528940728926
0.44113100489358115
0.1819922586460453
-0.23746415388737355
-0.45346194429095094
0.20443130660586842
0.12154411853895805
-0.10978753287574596
-0.095464865327268
-0.026955646149948127
0.24727138384974973
-0.006414990985854376
0.06459614670299711
0.16259352790626697
0.23583185034141316
0.26139774906731045
-0.14898748726934877
-0.1544882173061572
0.45666089626804723
0.30356886869444516
0.368332951971783
-0.12894077518549088
0.2976331196408333
0.22099912637807398
0.44977272321210426
0.18016401275649763
-0.3877815405839306
0.3561247422288582
0.31238969908281167
0.2005427246012796
-0.7859315040265672
0.06022300724327988
0.419179981757192
-0.2851373113617003
-0.6807741981704403
0.15535311377788263
0.16136182297985205
-0.18280324503748602
-0.11656516301320324
-0.4041259918142243
0.24307365574514356
0.11474383965116813
-0.1381392552426628
-0.17865157738844722
0.19722239639455794
0.11642199599302683
0.015115455188900784
-0.4456816820354003
0.11632883399979042
0.09953374592413344
0.06574908324064342
-0.11779122033535798
-0.1660127945975334
-0.3021329542034685
-0.2568370095204578
-0.009740036532132318
-0.10884302049033796
-0.07956203951187102
-0.33461770412939096
-0.17206679511057324
-0.1695651672545375
0.06440843219339835
0.2130783114246538
0.005701466966075441
0.020480995179004004
-0.2123094289068494
0.05840998494578255
-0.5324672033836944
0.2645025903688827
-0.08292320488959407
0.6921418494399901
0.06890753091286952
-0.14246969627156053
-0.0718098780100225
-0.3596822991448011
-0.36303990499652977
0.07188432462057089
-0.6862749070738288
-0.1372422312926654
0.15605437148878085
-0.05348436647429146
-0.5081605825121139
-0.15101891254418304
0.20510086706111266
-0.10755696692843482
0.3072420339420861
0.15310324482779283
-0.3023672914822624
-0.34246418006769885
-0.49516607940617174
0.11565392739819658
0.2594910216973889
0.32315688473540016
0.2167922042549082
0.266208050301598
-0.32879949202319936
0.451801641761511
0.10674323775610592
-0.09989247400265933
0.5132222488651618
-0.1947443274343453
0.08180673444997406
0.30076001123734303
0.26868414269259644
0.007651201061790052
-0.6316373932317472
0.053406935446700374
-0.18427267640253914
0.17898384791478933
0.33309377889017133
-0.14467853495031852
0.17866537002634664
-0.04652155971234223
-0.11697733753215254
-0.2559761159179384
-0.47387082903346445
-0.30771180562271805
-0.23054891798270052
0.21458808164630505
-0.6076086095683243
-0.028533693648042095
0.23672614190107338
-0.3222254230132474
-0.1084241147707018
-0.013425624686281225
-0.2908627428427681
0.0027143514934264723
-0.13140277657277877
-0.24581250164941962
0.30458078478986345
0.40796147281207445
0.3835336446108829
0.29330677529341675
0.6177967834712033
-0.4507600282333719
0.21816022691287668
0.12090098733880478
0.3419742718917721
-0.3058907148336536
-0.14645666694205633
0.1852716100012637
-0.3219008532022598
0.21670894473664795
0.2061331794086596
0.8286146434465099
-0.4319163212543553
0.3896686439617835
0.4481378235849936
0.12898631652529852
0.3382983239239886
-0.18590100806763968
0.3039365053820916
-0.003908717870336351
-0.3442978782024746
0.4267234714118029
-0.2157973392819204
0.26206802360632386
-0.5492205445484317
-0.013104683314103542
0.20808246061489136
0.14727712591544326
0.059003733990965423
-0.1526090448629186
-0.0792133320390027
0.2740599429188566
0.20932587852163523
0.1378569746452037
-0.11160620641718162
0.1470428304232256
0.038016762094453364
-0.04845708844563447
0.32896775117110116
0.45207905300459245
0.04349513405514217
0.1829001076285036
-0.1399300122663816
0.2669602324695178
0.10176756039394631
0.2898777536827534
0.03914577845389831
0.2392260470865059
-0.14424750360347968
-0.06088009217790685
0.4519730481766017
-0.015110691847337274
0.45892644578438646
-0.546209667050971
0.5845505692564276
0.3010732893309437
-0.19673009541672204
0.024391327744084375
0.14516706057738976
-0.21022364210754396
-0.5265449301275844
0.32562538329053975
-0.10415988821624428
0.03107465439276535
-0.008730274161621384
0.00432076446974623
-0.16546301832045013
-0.2830489278563337
-0.12862596196443185
-0.49820159000108727
0.14022787553990734
-0.21564906336410294
-0.020879336930599283
-0.07588754052018504
0.15984456469690053
0.09184000693736744
-0.07905973156788378
0.13454058889519085
-0.1870646474285553
0.04593505806103836
-0.020240295291258894
0.1652507223109024
-0.4641057229502101
0.16181450863723354
-0.4737966825672115
-0.17644728278872926
-0.6382428058571815
0.21351766292787933
0.27640035028013765
0.17748243718154239
0.005642129755540559
0.032797822427804976
0.4651463619207698
-0.14478198504650083
0.16807370649241574
0.282746627247952
0.3550305076834932
0.2252341137728272
-0.1691216074350282
-0.07620766291890763
-0.11510396591573148
-0.1804078164164875
0.16810142326349248
-0.2466623998356728
0.16104154700557102
-0.26963871641508697
-0.16136284294267883
0.2670484636887768
-0.08577771917953535
-0.4930644663009821
0.10269357577118438
-0.3994984344845717
0.06327461062264805
-0.2524675628605961
-0.1484165738201488
-0.1729740080648573
0.03883749762055957
-0.26926487996880605
0.15611903406426222
-0.2661290871843233
-0.03759741941900916
-0.395664667829048
-0.19450496777424403
-0.16033484401435005
-0.05231505113338658
-0.3467987262866893
-0.9480860302088789
0.04430942865290415
-0.14761621817353612
-0.24752927356877125
0.4261908870879956
-0.21863678524720379
0.000702502225709011
0.05769579148948452
0.38601931755410873
0.27946433274694266
-0.1705205873033771
0.07704277554514505
0.022178489778097978
0.1809602264049024
0.23472853493037438
-0.1395928611179276
-0.12912158493673753
0.08235668582346392
-0.08997518692491363
0.2643554475863831
0.13209810423471882
-0.08135710521507476
-0.22160347910317058
-0.17978683227400155
0.3326938148984032
-0.28546907414913
-0.40363367256878396
0.052418422065946275
-0.029236985446996853
0.11027114700366196
-0.08247244153263944
0.1096490944419207
-0.1966121488304405
0.24297630941446152
0.25570070486429647
0.4196318676151754
0.015403517694569883
-0.3406951275189528
-0.25623645113139537
0.30763623918374117
-0.09274423815192452
0.2933700388861668
-0.1500604292442561
0.38890866568995575
0.06961420376594667
-0.15671556647279566
-0.18294204627906777
-0.6039729852325979
0.03062473350490813
0.05244663137069689
0.09305667090701676
-0.5132908486283045
-0.23836763828435723
-0.3804444051669163
-0.6761965334097322
0.06905106353502308
0.567361716957972
0.37124664862117723
-0.15921901449596573
-0.1403807225759669
0.4444568143996934
0.1502052055143211
0.0658833259421409
0.5992881509072978
0.318969633233558
-0.33518406095738484
-0.39919089859934154
0.05731564598568161
-0.21254268175691002
-0.4746668533002695
-0.16458475728167477
0.04936809099783431
0.08493740977704836
-0.527657968664864
0.3206943477772756
-0.13071159048879438
0.07272109307035762
0.15431952992123346
-0.11865910630222506
0.31349385892433856
-0.03686263224473428
-0.0906672551994551
0.09427483504660654
0.3150479897296071
-0.40398905950421177
0.22140668666983235
0.1554147456350512
-0.2300176090607092
-0.06484199511853227
-0.23472203543203132
0.1751717447995918
0.19758642642268873
-0.1990195463535584
0.4127007198837995
-0.16448344895576708
0.1429744217843415
0.3788242436065216
-0.03057895202820426
-0.3167081110091737
-0.29992081101261847
-0.3127642452834585
0.35751751963318246
-0.3198469755156398
-0.4877216643812226
-0.1717859431970494
-0.06935934752444224
-0.02469052105854659
0.16064332666217776
0.21318673214674522
-0.5107233631654345
0.5559313748813648
0.6017397239350852
0.4455196879304867
0.5006920219370755
-0.21885703338711895
-0.4238647627728712
0.09932946035152733
0.24240150504210028
0.5466178710248153
0.24374565527701725
-0.1333337577336862
0.1038603846296219
-0.09565655131054752
0.3028484318733375
0.29879116170633624
-0.2985510625824852
-0.17946098534023022
-0.2074218477089003
0.5470920237410873
-0.13428426579885516
-0.08621884839839135
0.4489170029027572
0.18337531376433955
-0.3409553794227189
0.3758645102315141
-0.1337114172186448
0.1750436216296074
-0.3728137828187398
-0.25749363867188096
0.40803618265381686
0.20195968324487706
0.018832281155459336
0.09242250673468873
-0.26331384717191436
0.1101703226915632
0.6108106094058379
0.040327808246294096
-0.11478694941313597
0.05108694030453677
0.01347202002441491
0.16537224820126606
0.013955622728642708
0.1547402977371426
-0.46678670901605884
-0.15543773456042087
0.5566315246036934
0.3355263350636596
-0.32049594516458735
-0.11898076183315362
0.05147583246060295
0.49043771673762937
0.30817653169350145
-0.05780436009542726
0.3434649066651287
-0.07280175047448773
-0.5183073486227633
0.29542740840824994
0.08927773492079183
-0.12882177600471056
0.09337512816284273
-0.17227326268904314
0.6118380421829073
0.29197129173689196
0.14567845485550807
-0.07267070714739224
-0.03931693535984477
-0.4937215741813634
0.0416782836093083
0.3221484570202125
-0.2608448346699253
-0.003801417183223932
-0.23934928199140848
0.15164760882529402
-0.48445546652101473
0.0018877633009075166
0.33443601266709655
0.09956958094145758
-0.32927732505932333
0.0679616483882976
-0.0621436932545668
-0.0946935131307952
0.06765734250247489
0.4633006172844049
-0.07543888849470169
-0.2901245610133739
-0.2956868542877321
-0.586357654176398
-0.34299720521532673
0.02515655107750939
0.009675384842396361
0.024820950399580217
0.354602729438032
0.29294602977510337
-0.3031162630098757
-0.19423052006635316
0.14753524343515906
0.17080499202026064
0.08445069476520464
0.33967939203232644
-0.3644257609528996
0.024138133590706247
0.04428870334010737
-0.4921154246790149
0.5359782753649295
-0.002050889112215973
-0.11512951548042345
0.20128435411312598
-0.1591386362970992
-0.13007194706907174
0.1335101705181522
0.05532255097811836
-0.3932424321172527
-0.1545164387041199
-0.07421801607764332
-0.22096570656641043
-0.15611723508560585
-0.08903884807720633
0.23059061176375892
-0.039112516752333105
0.14494665335084705
-0.2872569320563139
0.17269709986563714
0.38755317116338717
-0.36623929796401467
-0.3337460967983021
0.2864426105401732
-0.16999038397948135
0.014003315150967942
0.18991132135527586
-0.2845428328375058
0.3577341736888943
-0.008956336256931102
0.2569527708909478
-0.23310749203546882
0.2248039717609177
0.2306009774309235
-0.05575625384290185
-0.26200990496794685
-0.06069178327880522
-0.20129027520639917
0.35994493660483357
-0.15817280911407935
-0.023731400914351785
-0.2963784265396403
0.31164610372760193
0.15113008774403974
-0.3988069922934687
-0.34550866129300206
0.14483346471315506
0.005698588123956538
0.001776414432024838
0.016776175556672806
0.15427356776301715
-0.26992157956213564
0.25453999294502644
-0.26974525544146255
-0.03904075228229448
-0.14019515608906272
-0.1655774270756898
0.1522939655906161
-0.0361032242398053
0.342708985512101
0.5311373822798512
-0.24640693137182698
-0.12764339368287705
-0.3891831100941339
0.15980461776411903
0.2980336201613852
0.08305317584136948
0.3365828681249741
-0.249989652402991
-0.12125684260179041
0.31551357209584296
-0.30735520258017074
0.050989558215908566
-0.22571452962823474
-0.4210558270972487
-0.15884045603544328
-0.05002639507948379
-0.34786062408733437
-0.081564365821019
-0.1499889321653915
0.38901547156517496
-0.04102447842168235
-0.4592615826558597
0.16003593951081488
-0.4711415782716821
0.1265341379481314
-0.3937250218913582
0.08527982059012834
0.25413654767985616
-0.20913924093625122
-0.2208685854201033
0.24811492179674255
0.05077940855821353
-0.12638972407129356
0.06266845715137365
-0.13423070225072167
-0.08645092885361157
-0.15651007605232684
0.2795352264804003
0.1329969392728315
-0.1454091112595369
0.2588518514529427
0.2752698663390975
-0.3034475478231585
-0.026525434883118787
-0.02563156345496703
0.27226326718929467
-0.3707446469371988
-0.13866471444129724
0.0610026142937714
0.09686322851376782
0.5368722452409846
0.2625132274145611
-0.08066953089282251
0.0806660693320986
0.04968899030405227
0.04047675622977368
0.21924843134350339
-0.13631799757754967
-0.4280400869885086
0.08334989153261169
-0.006263838001884459
-0.04273855630028021
0.16704147737420974
0.18342228849712044
0.08150678446559743
-0.17024149512169265
-0.4970910343578134
0.07766325217486757
0.3223388605879195
-0.04124936570590642
-0.47586113006454456
-0.02454823122071504
0.3073220649492452
0.17892292774312257
-0.07785051882198818
0.05396197065999939
0.10963953485873189
-0.4525239208475801
0.46953517916138326
-0.13033829335340041
0.3453875462464795
-0.6413255848273947
0.39617218578855695
-0.3546702146588549
-0.2536513543897141
-0.2110014374927166
-0.16978982160328682
-0.5136340185483322
-0.08463023702868254
0.03413397049821008
0.563317933562019
-0.042305676705505696
0.29280533598052705
0.4295567964123961
0.0854671305787191
0.4576743566998216
0.13871428215801565
-0.2385812363798613
-0.18361922929333963
-0.2744887709143908
0.23084621249748646
-0.106837880086369
0.36187612029804594
0.48935860785470664
-0.3170957146045238
0.16561380066992556
0.14995146290794772
0.18370818768696423
-0.07004904957183203
0.10344870331427357
0.12147727062486746
0.0841066090391208
-0.07000446716525081
0.18818589235515124
0.12206522375577052
-0.7527452694331811
-0.23667057347667378
-0.3029992263846827
0.31202684534342506
-0.4433614508816778
-0.279750753677801
-0.3071310274805525
0.013628417923867691
-0.07413812668587162
0.2650586337224849
0.1321747776425078
0.00484958760383699
-0.014103915869271733
0.4538070261994454
0.002259247608116384
0.1636196048530709
-0.36974560696210945
0.27676649534538844
0.20209023847001906
-0.12635342800620172
-0.2939306221130196
0.0212442393417513
-0.16490453034172203
0.1469080641700381
-0.37528905818166775
-0.03207400095917769
0.16390526652694098
-0.2975175417152899
0.18084550551603798
-0.18893001948699692
0.05163063855539805
0.20003499329136082
0.3567941779311505
0.4649619277134436
0.1951549012176185
-0.041612548393432335
0.06533626814903165
-0.13534295604683522
0.1344760829533354
-0.15395783996616152
-0.35632078344479085
-0.31919588180050384
-0.32725663015689876
0.0948919689539032
0.22713165728805867
0.11994357761583103
0.19278308067687258
-0.0625695490593928
0.32947482382680193
0.3485755700563817
0.6050681441213758
-0.6557147072189708
0.06145535126122434
-0.36043280069952777
0.22161347994055106
0.10712603729718402
0.4024833916582829
-0.2293584204314558
-0.37985594555067503
0.0014346991621935837
0.09605781329978441
0.2615255790085675
-0.2756732689703051
-0.47728414661681895
-0.42777935388203325
0.0005876594988749707
-0.006014304760947147
0.2659454407232616
-0.27560695390833007
-0.3475256455855306
0.007549431433880856
-0.10956710437833758
-0.37862530471424205
-0.03974468001830562
0.3087562220894773
-0.37912567947990417
-0.1597324205299499
-0.2528411411794119
0.021295185486450655
-0.2775540937398886
-0.1341122171518863
-0.24105634907985252
0.0036409227067723893
0.2343429361963575
-0.25749604888791605
0.3985571321898205
-0.1417871152446735
0.005642430322331512
-0.4030901315872706
-0.36733212437420854
-0.08873025637147879
-0.16473713804021545
0.24229223745327264
0.05259360708575733
0.23292427159991502
0.09199674624552373
0.04135960978577589
-0.027191028222063165
0.16994256640128758
-0.10034856695838507
-0.5271086866065725
-0.01122417012698977
-0.12467472386492952
-0.6224346941463023
0.2056120510840644
-0.1216877115222821
0.180125091815191
0.2907408408925714
0.2545556016599188
0.5282619304593286
-0.32014078181289163
-0.18692594740451327
-0.36985971382278354
0.20876758502146694
0.4313867590226205
0.12274506608526857
-0.6711333832125503
0.3016552669429912
-0.3590234549072208
0.2010978196201795
0.087906993726718
0.08486952916730724
-0.2453072956267813
0.026428690552002157
-0.3243244464053228
-0.1102924482967955
0.34010921355416746
-0.4692720007245216
0.10263138592015963
-0.4118113907947983
0.1264105524024285
-0.32239207595513825
0.5731952630503696
0.11774437771529317
0.4354838778339292
0.35622591421662425
-0.2188075878331584
-0.18739006769217859
-0.3353206453402378
-0.05735852396694681
-0.049612350926023265
-0.15425274127118327
-0.512206243109543
0.09321436598773217
0.2621404554151421
-0.22566138919942333
0.19523762071510456
-0.30963926070687314
0.7891221601134887
-0.03792775412213023
0.09605996676378084
-0.062496905735546525
0.04567602763573566
-0.23408861388737165
0.21223358291379976
0.0017094932477621798
-0.11204951048952028
-0.3023868717823291
-0.06742679502098178
0.2046270961391143
0.22386548982953092
0.20059148708122648
0.14869766214966398
0.21538349209769012
-0.029138746192377843
-0.3466274802347115
-0.03669825044811853
0.11160381406200517
-0.377652326654
0.2654381237775044
-0.01971490127278805
-0.5556592309237284
0.04740398598631933
-0.006811298353877607
-0.15898028743420772
0.12722756377850356
0.28542845860180466
0.23359680869259083
-0.0164566496797644
0.20987874186999897
0.36195732932453795
0.5167093136108363
0.3296699850395281
0.2775293888199402
-0.10733996240983555
-0.17928076805366014
0.3370754180735074
0.3514140016199545
0.25447731836028153
0.4304319279214284
0.4560148248572721
0.17685759313505053
0.6792955772827141
-0.12567861517037396
-0.044010164941284034
0.24919043267041185
0.472772910277724
0.008674352725013377
-0.12285739112493892
0.0857903877211855
-0.03017089643859849
-0.23295214107092652
0.05512397620853542
-0.18154650357070473
-0.33912166652777764
0.08036242150838588
-0.5724992687363446
-0.21033330492878638
-0.29604428435919233
0.18190696696315753
0.3807954441513366
-0.4299548294298559
0.10411479246771356
-0.11876510952520355
0.5394617401130425
0.24967035919554556
0.008447190358410074
-0.06388546987691684
-0.14179390943610162
0.4762905077350336
-0.5503412338221642
-0.24838987067816684
0.1738795834314552
0.13342779779331032
-0.5259852889351597
-0.36880549302191384
0.17384703207833202
-0.047473568117056573
0.45263491272319595
0.06752622993249126
-0.054333169627581966
0.045679130330939684
0.14655745383060334
0.11440180759820297
0.17677852085868098
0.3897976208489299
-0.25755635162427515
-0.0536620374529726
-0.3938215477501813
0.1755047294928683
0.643315870266278
0.32579637164229464
-0.01617253411204248
-0.19052699871993728
-0.1591535888645251
0.07172202265766615
-0.09760834688995636
-0.1506697307741859
0.2412257770033336
0.5806918783612746
0.5213799021157717
0.5359114439672488
-0.20954893259865454
0.02711806524398668
0.36856224469010357
0.2655821963095571
0.1016000982764262
-0.0234265804532665
-0.08295230637769667
0.052033494388815216
0.1585372759353599
0.02070998384407848
0.15331170818105502
-0.20242083799981506
-0.11534404509064844
0.008711966840528976
0.20176946827043302
-0.08216883736327983
-0.07479297611299968
-0.07246305888639132
0.2351936445109772
0.034172831983823704
0.0356469907243474
0.2634914665348077
0.15206644077278422
-0.08678428953005024
0.3100064877678491
-0.04683683034265211
0.23183521086006967
-0.21864528657300714
0.12206544747189688
-0.5981297539276648
-0.03568242586960605
0.13141211950334147
-0.08388721939043156
0.009630001352368254
-0.00024915755132338263
-0.10248803853542143
0.39948297352015855
-0.1136798739666627
0.03976994607761533
0.239954685849056
-0.019240764771517788
-0.011863221253619148
0.3370417257078818
-0.10206635994508466
0.14230667612834966
-0.2944209871867368
-0.30987856939304836
0.15704974151918644
-0.09745249637264125
-0.014086717074152768
0.13632354317721626
-0.05815318699354936
0.13180298787170794
0.264881816981919
0.0942047193122271
-0.5442759978985912
-0.3005501719832323
0.2778919657930295
0.16721696232283764
0.014372866850868549
-0.46019530694682287
-0.021077387158200223
0.13423047124457513
0.5925115698913428
0.42295423515944286
0.060451101923901115
-0.10390952475924808
0.39583321862978715
0.2798792784147414
0.004473913585888436
-0.009878703595430336
-0.4283551514226053
-0.03053795505216237
0.31580110999271294
0.4740775091101769
-0.2661828548812174
-0.23794693993117988
0.20657199508655613
0.17942848411797727
0.7054170355962164
0.23506220570927436
-0.07361511265343289
0.35720964076122874
-0.17466989332429145
0.026486125014659297
0.02466044511621504
-0.21502230233251643
-0.02494068486510521
-0.14790638637433615
0.38326207265532486
-0.05071954842329166
-0.3472874119016341
-0.35101827788747486
0.31255911111656154
-0.2522387400440765
-0.6406157072383185
-0.034554008470663956
0.4879792707225304
0.45671043223797625
-0.6100007798329844
0.12097978526801935
0.2950160207557654
0.04514587141934732
0.16758752992998088
-0.2968485505265525
0.41351006132215024
0.0921715353454534
0.2328121773500109
0.18604220145449868
0.34541984016872784
0.017513558695055345
-0.006252011643653379
-0.0017007111029901994
-0.06957422920110035
0.10461981334418244
0.11565864490485062
-0.05959513647982273
0.27156061242489055
-0.5982067120248832
0.05057073051669071
-0.0008664095611364657
0.1330091643331595
-0.12599752552648824
-0.12364044600092847
0.4537235307038675
0.2451372448976538
0.015228841847433254
-0.13765704807975127
-0.224545865016869
-0.5204715976884039
0.17812880031241465
0.26432651861502693
-0.34766013874249263
-0.4266912130255749
-0.23841964039231345
-0.09334658190697583
0.03303198994792413
-0.18982314459074803
-0.44250409650836
0.28401650987449845
-0.2793847714363882
0.2097106500795168
-0.2898765001404534
-0.46466779627651855
0.3611988526759545
0.08688111248773076
-0.14065436979641194
0.2603575602310309
-0.5122431361813751
-0.3909902625701798
-0.46338589748460135
-0.1911947147505354
0.25037684626412515
0.09165592937895589
-0.15114108228833856
0.14547314274530873
-0.2790349092124583
-0.4638986333928594
0.32534405048392306
-0.4841334564423397
-0.21779063383755073
-0.18529984595437957
-0.3514155752226746
-0.05697159060430981
0.0536541600074071
0.14598853027189854
-0.1553388069524867
0.12973279982855807
0.506818171367642
0.32619180110215124
0.5498547132421425
0.2285403185320381
-0.33664032369197755
-0.05577657498957819
0.20661518060062964
-0.09560562535085228
-0.13320494554357218
0.19726206525516732
0.4283249199792588
-0.45390620857930863
-0.26195128908081966
-0.22194383132031736
0.14116150861570406
-0.49949850426976405
0.43333912946107744
0.22668059161416587
-0.08610349642681604
0.2938533248124084
-0.09816294002576269
-0.32548941529909875
0.3312225993945575
-0.14691369142121316
0.15443236182372014
-0.3489162290459248
-0.19999001769838942
-0.21106037338169079
-0.2679769822604339
-0.013108606423405155
0.030015043163808246
-0.12827953317145277
-0.11704119532068744
-0.3213723549634377
-0.1669726750910307
-0.09618032827956453
0.008207175875852802
0.3058541668751028
-0.07987134995864506
0.2449864196562204
0.3385555375038681
0.34088004474540157
-0.33071127826263297
-0.14024858960113998
0.22365608027415174
0.36881141167004017
-0.3301412609537127
-0.26505754103103635
0.024507545323004122
-0.21141430694393387
-0.1384664841909829
0.08169634339113804
0.3095000208083881
-0.18847145114549704
0.04124288326788247
0.05064930369345125
0.017297600414704115
0.014439672589464436
0.10140124907415707
0.6307482521027065
-0.06256889445213501
-0.0017019010612837188
-0.2975941834354524
0.09195943594926906
-0.5160835810814393
0.17360264870796502
-0.5133518608888903
-0.24673264574624465
-0.39669507976805723
-0.1250097426636286
0.4132828841490786
-0.1547116306777492
-0.11396196863169707
-0.6643263903110963
0.3535975189605266
0.7498868126695886
-0.014699147139228444
-0.11481643695092476
0.4671998200500601
-0.4468264440752915
-0.059439158448386216
0.15617953439028098
0.39281299586765694
-0.526448066545076
0.17204926649176103
-0.005758247578997915
-0.4165295562396814
0.038244857772362716
-0.10422930725130551
-0.04956367304821464
-0.13391935581154923
-0.050121311678492146
-0.06786427659606044
-0.10439540076343043
-0.3351669212316846
-0.07254860926798211
-0.21391369703927635
-0.10835559269962923
0.16295036959422582
0.08933231610841491
0.5780666050762834
-0.11871249856065594
0.14928288871590029
0.2989276021305144
0.6531041821191176
-0.15654776634558404
-0.2605049307763316
0.28691174174652445
-0.6853072446455708
0.04648203185656028
0.11501226563324694
0.24456191239547595
0.27943331147826467
-0.13163084592936042
-0.1787473578495633
0.3303752942974388
-0.6350631434576941
0.1420633285379112
0.40516366688420874
-0.07976780450933288
-0.3256225623463149
-0.29095742656207146
0.15620693157072504
0.2947917768327319
-0.19304864263830468
0.34375335773577315
0.09973909290550148
0.32833842357636445
-0.018331938970873627
0.12956177397559338
0.1381885943948371
0.09333382453284811
0.028562930635591573
-0.008119561535406165
0.1524590011023014
-0.27284525868450166
0.03906377565624554
-0.140986403057045
-0.18039657477550305
0.1305806700523039
-0.2808654675394792
-0.28828636237641264
-0.21621360892611158
0.5425869431407497
-0.07663672541488198
0.09584129523134326
0.19998751233888667
0.3757461648793787
-0.5278672867568984
-0.10324782521437005
0.23253833417728767
-0.196437288362503
-0.4059913044638835
0.05922745391758323
0.39155686237098647
0.07388953761544903
-0.1039278349228206
-0.7536053279441224
-0.05841898879359045
-0.2624219564259442
0.015212351680443728
0.009691512044904135
-0.03252497883121614
-0.06904505792442583
-0.018042781993813973
0.2185347926716094
-0.27516030911766126
0.11968294987033837
0.4171528633387939
0.09060849461241326
-0.18533632042952594
-0.27010387262235946
0.5088632640134214
0.06588896197092503
0.4277852829421024
-0.2641974510613284
0.3085428671954657
-0.3034581961375798
-0.22918893632914958
0.04005834369066921
0.1583908914334945
-0.0380959716673682
-0.04206164040032088
0.3091792069914466
-0.1612296687339748
-0.20381206574957186
-0.047471580597303276
-0.558214546727678
0.1913995412347224
-0.2203475365699845
-0.6067561673677462
0.22009523550532983
-0.3310171239010654
0.36594266994507807
-0.07035335744570194
0.09767501404179313
-0.005943735386728188
0.166101041646017
-0.1394431509220001
0.14388716144336722
0.13889091023656636
-0.055490955975534495
-0.18459916119411587
-0.02719345274122868
0.2807158635120194
0.30596149560828395
0.15509174744619567
0.4236873067738946
-0.4089345729423165
0.3321030865025463
0.308038367245114
-0.30416107034919504
0.23792422647558292
0.029166670908618637
0.0017206432808191197
0.02289004482333392
0.14041460701011613
0.10710647990724187
0.5196567552296041
-0.3835163608471993
-0.2681024473041821
-0.2829211593306511
-0.2666495872083483
0.08692894507617613
-0.05406646987961872
-0.15519629960526496
0.3402137918701559
-0.1704624691545648
-0.06476731129558388
-0.3201552229870319
-0.08878046478558597
0.22113213940000476
0.670256364413155
0.4039660136691022
0.39828720128650436
-0.17068979756393773
0.15984011164756382
-0.4087524068266472
-0.3294334231351481
0.1892477605653559
0.19965987373837166
-0.03416794964774156
-0.07721661960911302
0.04065034530669407
-0.05975628736984812
-0.6945068888742472
-0.1596462403503192
-0.27749329680008716
-0.2698851285389106
0.20248520203254103
0.5296747354810781
-0.09965028555747882
-0.1448158787966055
0.5943180288314887
0.5114365263420952
-0.16942137193091797
-0.12101917356840963
-0.19206032742943271
0.0021259791796386382
-0.18922328471065142
0.04103220951739295
-0.4377803039346861
-0.23340588283938615
0.1148896293163706
-0.02584948037723016
-0.38605430829973253
0.10741092425754285
0.12219041169142936
0.007025026917474676
0.7637290858933528
-0.345473216664924
-0.0713144928521483
-0.6803794049353031
-0.7431693209426763
0.04341813104016082
0.13206247394862441
-0.5971026049828871
-0.16968100947128884
0.3283310975927964
0.08515421159121621
-0.20047905992755122
-0.6291894966051876
0.0017004839418779652
0.35688627361896974
-0.1817891603350678
-0.17640661750064043
0.20859058614868434
0.20543730714872976
0.21787276721195323
-0.33664873255641836
0.32527788479083125
0.3681019599643313
0.01825335623240466
0.21034190026515942
0.029395697458811963
0.22466641257149136
0.2941986580917371
-0.27273945506529834
0.3210184215811544
-0.18719252584087345
-0.3760281762781464
-0.2491525000056984
-0.2501497672820001
0.10712359969180069
-0.4091688396833643
0.19598299991988577
0.12016713958150259
0.19792784774196343
0.4133638979260129
-0.42134974337046344
-0.18185009092574325
0.3278895564123374
-0.14388336401767995
0.07474279253113977
-0.033229437738727094
-0.020476699150971445
0.11208281887125113
0.38756944427380824
-0.45462799820070954
-0.00589412744984337
-0.3554488023134569
-0.43605810495283603
-0.0042892898305614
0.08416426261341392
0.0018685982477702646
0.033497606791541006
-0.5082555097489897
-0.23511044153637772
0.01904957593848666
0.24898937108028016
0.05070448146125025
0.21113163427131543
0.07055840455066036
0.030110792783149303
0.022890636676400976
-0.04624463058576536
0.23786189697860466
0.16618198558269698
-0.12914806589692773
0.19970932489563734
-0.21609525585056488
-0.2930573956665889
-0.19405610763329856
0.0014626466377882104
0.03795425597728139
-0.17927496571303583
-0.3501317956150072
0.2835728275472347
0.18444742117738153
0.12456983534285346
-0.1211001510192344
0.19699571482610556
0.1402469289798949
-0.005118990722610712
0.5796412661231835
0.0005650069124456724
0.06116665656884885
-0.3182899857460473
0.17446583777767685
0.4137388061798876
0.11933269045277065
0.21581436745290933
0.310971158290978
0.05155350262969505
-0.05350831840225109
-0.036537501200210536
-0.3142844083838572
-0.05632834919594254
0.21691974413657555
-0.45369834736236136
0.06371265760690474
-0.06768165882926162
-0.11511421940825053
-0.1673214101773723
0.40037640341840264
0.21531908238265327
0.0700971977528949
-0.5719488204883896
0.11281549620964457
0.038417953407021824
-0.0031489845640940675
0.02722462891829519
-0.04644540957513707
0.014819791648742933
-0.24776969688990874
0.04720213507235703
0.4121395451160044
0.26178782593939737
0.45317332443226255
0.24229094197094386
-0.22110923026103027
-0.014351372682950406
0.26126117886604866
-0.5356661127928241
0.32751521033887254
0.015361023725615302
0.09877278203131427
-0.04642256372528542
-0.012039061787362276
-0.056033932520570484
0.311520554183381
0.2583068413151845
-0.3709888382089403
-0.33287374497190664
-0.2640858174499884
0.28723742599747604
0.4359383571066597
0.030556728571900792
0.05287172139303838
0.06864125327560223
-0.3933185572481554
-0.4458383431943489
-0.031789866662514085
0.5705773070993073
-0.23586853826150103
-0.13497456174065708
0.15837040490122634
0.29784513351239106
0.14176032022840337
0.20637588617797373
-0.07520959875639235
0.11499462308541353
0.1624409633585653
0.09076543402677614
-0.3690313155518003
0.038279367902830985
0.08300491997296575
0.47872011243322804
-0.45706285014950687
-0.11562614871120172
-0.1528284672501774
-0.46964628024936733
0.7512219429687128
0.06780782299408904
0.3926326135562813
0.495787109642503
0.02482203426255155
-0.006695133192866216
-0.31352676610392016
-0.4102479512482642
0.17805806556754605
-0.07592596805806975
-0.1166777616644114
0.3353235716227671
0.09171882533205873
0.023670825372078298
0.2410813114899044
0.37072179961493334
0.007711404096452702
-0.5275143712346977
-0.3391662801594468
-0.31791196948199657
-0.20764415404696396
0.2803650274041211
0.02681349981595049
-0.295462373290158
-0.4572166091724419
-0.2464265399828605
-0.1379048381200871
0.608417347382843
0.36835157573373156
0.26207742913633536
-0.09793127077552524
-0.6211490273575139
0.4276505550272749
0.11869170615656778
-0.5075528118834004
0.39360271010004777
-0.23582788607875907
-0.1283959460588559
0.03998210470845457
-0.30404032225563143
-0.0828226716244398
-0.20228527897183968
0.04812959548799036
0.00757234101831085
-0.08998033491976475
-0.01503316598670206
0.42744914628343395
0.22337778365243185
-0.05425668819796682
0.29334613272735804
-0.3558929453222048
0.06723731893203254
-0.23674590168181042
0.2518220823206066
0.4606176064671006
0.24732272987428858
-0.1786152606023127
0.4160376196411018
-0.19492376809616346
0.20728791915310574
-0.2314654434029916
0.02167393378791315
-0.08887148531216464
-0.7312306655617902
0.12578732877431822
0.37939982314334253
0.3160689732202719
-0.4346223040258642
0.04423013599509715
0.07560120109858401
-0.15522026888090124
-0.06010438717875135
0.092371227504276
-0.09856641170568786
0.18514213143745928
-0.2495148841890761
0.007672558441701079
-0.022117213032893036
0.00624935399499597
-0.1486694711740492
0.3716168536589257
-0.14665770205347414
-0.26232563850830587
0.27302297695147376
0.6854766568324306
0.010575991964797036
0.160521781945608
-0.377253116289668
0.1609486016602214
-0.3072688840059232
-0.25774076366688925
0.17993448403071596
0.31643435641085016
0.028630633392433883
-0.29033255599082786
-0.22940064043357894
0.01563002162940945
0.166080153024242
-0.20748342883682142
0.024733357896163276
0.33046690178142135
-0.1404920454237783
-0.32115978489125546
0.020987847806394077
0.12303484575427091
-0.09341636545251851
0.479974379560623
0.17962337232749237
-0.2903848132691288
-0.19986335529923396
0.10750081418327909
-0.47310163482152884
0.5126100957696429
0.28182135368663647
0.09798707070638547
-0.10580476962781618
0.62172637034322
0.10084827071825339
0.3048504367530513
0.16718548446792805
0.11523080183797704
-0.025410716917422742
0.0678030464454444
-0.19591649127860064
0.17261120136407077
-0.3731920378185655
0.17937652516325622
0.21944967446550623
0.2766671742413761
0.07138312641349606
0.009150196674884864
-0.32338678551625893
0.22019212295658958
-0.004031546582066854
-0.10832309085818917
0.3946855068528035
0.07707109491350655
-0.5353101594842207
0.20600013054140964
-0.034997862508950504
0.3152449150209552
0.12187826860473369
-0.10416727157888439
-0.41164765503903306
0.36525095599238416
0.5008360511477218
-0.5480281319472093
-0.1716346987500789
0.07914780743149423
0.04819798376093229
-0.0807573563402262
0.08948203941297826
0.06770171553936558
0.2594495593122493
-0.43937434610304116
0.22754938779680473
0.3696008091490299
0.7037084909674933
0.11217437172919968
0.007617046633047871
0.41813674753977936
-0.02183513565565397
0.1068072736223124
-0.052786581954460204
-0.3609453875900122
0.18021416797988102
-0.6933633906038831
0.25425859086865027
-0.7216581247205853
0.020699446451140933
-0.51876469058865
-0.20263651469268634
0.4060040005260903
0.4231371100057658
-0.18040257494326462
-0.07589800651894875
-0.2577585507675166
0.5999733087557868
-0.06125870446420032
-0.5407287083823208
0.037708360694770064
0.22011354336813654
-0.16387018131261338
-0.6390238473801858
-0.26335398985220565
-0.352631708786887
-0.34299376393331105
0.15600781773838865
-0.04644049768516784
-0.16182005971347627
-0.11150553043161648
0.35367795919899225
-0.06632933633587984
0.244884220279647
0.34934526631878854
-0.046180971879074925
0.046797646291731616
-0.25109046093214976
-0.3708641530274315
-0.17133715327291732
-0.22237779343601957
0.35293824830510073
-0.3927400001399013
-0.18328305207687873
-0.4068110437657191
0.07930930546502649
0.13780375756206278
0.15379349845312937
-0.16344775541191336
-0.23307827761221322
-0.12527539276067287
0.09988242420386646
0.3812762968147025
-0.1744530519458236
0.47986252512599564
-0.4832686686291341
-0.314294505939529
0.23764705048690354
0.19836732575625565
0.30906564186829993
-0.403005114549508
0.06282669642732934
-0.5472739832577701
-0.11661609497055045
-0.02670960283831105
-0.00032734330179363355
0.14271887859849372
0.28908186524843854
-0.12157739845493724
-0.24487928004214252
-0.1573011589073713
0.6308591886488327
0.11433397858215837
-0.11294121664419848
0.32858234958919774
-0.35485745068699104
0.05610412207353064
-0.3456042984483476
0.23759985785732823
-0.17153457846938805
0.043133135045274565
-0.05329031752307855
0.35258671474790726
0.1015310138641129
0.2991806098541554
-0.2723173523741008
0.3782941279179213
-0.013486233967863196
-0.3245450001177729
-0.28812560793090247
-0.09375068119839933
0.7568152817737344
