weights_pso
-0.22984756967613723
0.23078472893414678
0.37091434861055994
0.6429547934333426
-0.16362388871246036
-0.040898500177266955
-0.22114557517177696
-0.14040155971026413
0.0548458868582692
0.03683360097187595
-0.2136614330143207
-0.5319955684297077
0.10082455108562056
-0.18786950900881572
-0.13620207769481196
-0.3148830526077502
0.07190785572310912
0.16171009716790688
0.1636671459545549
0.0369511806040843
0.05010718771196622
0.2370779499074507
-0.32596606748168344
-0.043253327573066734
0.16767291261350442
-0.24380275960790787
-0.20848614250437314
0.09468213728921057
0.3577890531359754
0.29221658202157114
0.218436712005124
0.008487122307300117
-0.030214184043699972
0.0025999131290175195
-0.18210313009918805
-0.26355111187201935
-0.4802919729956538
0.4767374497059582
-0.007013306659344044
0.001041232029206724
-0.2372012052470328
0.6214751215561215
0.19633507356548283
-0.14264083516407955
0.09023440062764956
-0.26819433474056614
0.3473589939161943
-0.3274117308327123
-0.2558531675710463
-0.5275770556824829
-0.19559849926065137
0.534191209300889
0.4425038716085536
0.11444826275706388
0.3403994086487197
-0.09300023038497689
0.6175331927070675
0.8908506041588015
0.27754132399760995
0.07127552447720926
0.8757937707751465
0.18948030240586738
-0.1256549306099126
-0.6272743924112775
0.22778927323222906
-0.32123901748110534
0.2286592759453349
-0.28786865869825723
-0.32798529336163784
0.38216956826686427
0.039042009529455864
-0.2141987609736631
-0.06299916499032486
-0.11036417340901337
0.2925701159243131
0.45154790182089005
0.08578493277604345
-0.29683124334397404
0.38727363621985605
-0.42144230274574296
0.05163674060940641
-0.1520589554867649
0.6658967355046114
-0.18808993473523228
-0.04393889162576906
-0.12842395726611563
-0.6258511096215357
-0.19044604089824174
-0.2718237733026487
-0.1154621685279438
0.20116344489698137
0.06111758213069622
0.09392926256779704
0.061806572172814815
0.1650284931287217
0.037597960052452785
-0.6654552597724461
-0.5018744690335467
-0.5630884861921552
0.14627803904498596
0.4749557910501862
-0.07212387040239979
-0.5817119546255647
0.18007961557859634
-0.6910861546805591
-0.012252365615595168
0.5278377884448728
-0.6408970576053777
-0.07778555647956006
0.29096338967134255
-0.5753630767432015
-0.8922159488852742
0.6520456891851006
0.33963764296984933
-0.22509977185191044
-0.25541485948406234
-0.20827308672115286
0.28156675279194227
0.873215397277538
-0.09884855922729227
-0.06245416746502545
-0.5018509181615276
-0.48824902302728634
0.07368838609101877
0.38034634571898485
0.560641809809282
0.2824676174841391
-0.3130493883715379
0.10523531298788599
0.7079844230906145
0.13687307090312414
-0.791680741232702
-0.24200594708708728
-0.7539668343133246
0.07993695681599676
-0.559604652764066
-0.3887645070581428
-0.2333197575893062
0.25047547082312754
0.3915957853647801
-0.16577873547151573
-0.4611082386994669
-0.11911264740883408
0.12183126948098674
-0.11300682869089917
-0.6392909644977544
0.49687839613210866
-0.44327657320712255
-0.03487141437843201
0.1871950538704658
0.12760278266489955
-0.21113259842449178
-0.40076542939315246
0.3148325142993681
-0.3778348478922527
-0.16427058478390863
0.3884995262237015
-0.13095122972385412
-0.08248208389306969
0.6010411051262046
-0.02305482539271719
-0.09051907824573482
-0.31323265385141075
0.4432613698203462
0.04901142747718563
0.35042190417989183
-0.25558600059465336
-0.08982079998328739
-0.4031225550708817
-0.3718032192169059
-0.44488522540585484
0.060159756845270515
-0.3151168499000444
0.048962419005813225
0.28722203680466474
-0.10161256687111492
0.4125062255066618
-0.023733820273914522
-0.22853220088065734
0.18416668967869546
-0.016545857043621975
0.32802167321241416
0.1913265825053821
0.21463092301214562
-0.4176668544880965
-0.6644251313826346
-0.2510307325997135
-0.18503936389115175
0.3585165484764203
0.2610349062018726
0.3558988711618222
-0.25773015996943177
0.3160032986312106
-0.20092828951334923
-0.6545168471140236
-0.025989530871741256
-0.17087591194145577
-0.4172922793260431
0.5965905841141717
0.1623554982319393
-0.2247520900012782
-0.14154641182050298
0.05629675856470266
-0.09629445763174906
0.36326875078761384
0.524457907412528
-0.43318001100321507
0.057579523371627486
-0.600637010731114
-0.14747953847253512
0.03991247212483673
0.178141715626188
-0.11849000331984191
0.0824943495085238
-0.393216069846591
0.2363069437414105
0.8916416784105371
0.3060472368835977
0.11180730241129812
-0.37005205353799586
0.13164429300586933
-0.1895232224820995
-0.6172960027374119
-0.6495720776932729
-0.49298055489110465
0.0889860131392612
-0.015741679633215554
0.2409565572663327
0.43643000378100516
-0.19141548639138062
0.04157881177283473
-0.4817794628388515
0.027178439079851794
-0.1576519865591032
-0.398818388495471
0.4982709794509404
-0.3345841192658185
-0.5383269051788921
0.5271584457627356
-0.10495355184374695
0.025122647168274056
-0.037840727236703904
-0.7641012134887564
-0.2875594960959989
0.1768531663857675
0.2265288027414147
-0.5147859304650236
-0.28305435334693557
0.004989883712876958
0.1866054039490804
0.3921508496814337
-0.18531585448874027
0.26071843190264915
-0.8584703366305301
-0.05464939106705745
0.15468584988673745
-0.39637981174211867
0.05964437081047412
0.07083603001730243
-0.12138383247587706
-0.11288660888468442
-0.20218489618540098
0.022931139498361747
0.3751116146119993
-0.7244732899708782
-0.09060373813444722
-0.6182078126885515
0.35470013390267635
-0.2515197721956906
-0.019680209032633567
-0.3129150626651847
-0.33371788758997917
-0.03603436343534593
0.047439846467261744
-0.31444246455080677
0.061069810275190706
0.17672788505196882
-0.3396008159509597
-0.5194647421272092
0.05787119602727879
-0.47864999418784765
-0.20294719886251927
0.1804951127891
-0.05028862184657081
-0.04185284136362574
-0.2510447671085963
-0.40333567447010304
0.11369511208176449
0.5289033126387828
0.5385213068145652
0.6327344461661774
-0.4979052849796351
-0.4068903857461179
-0.2104478111581134
-0.4554342132962524
-0.28213764690976495
0.1845048587786445
0.39086461881388257
0.3189992190276042
0.8544790086759771
0.5488639462539998
0.7205467617421745
0.19199757108920007
0.49730679559753044
-0.2789147485789692
0.6799013635332273
0.08207818360300767
0.36671489500106
0.1514137818976411
0.3691145758236368
0.02757677154391517
0.09050047313963808
0.5131940211191608
-0.015032856355058397
0.49385943022456585
0.4207495765861617
-0.2256386838324753
-0.028480443270368735
-0.6499632724769207
0.06357886511705634
0.2954252827842782
0.03190260030652932
0.542999765832413
-0.22962514557286665
0.11165306339827398
-0.16104776117833128
0.3163336779210457
-0.22307770807314256
-0.10627603751504795
0.3863069091334416
0.2223006926256085
-0.41215641507798356
0.45398042905136426
-0.019999905553754877
-0.6409771287944012
0.11541671770570167
-0.21918814775770246
0.5234560721212049
-0.39727021687963093
0.4324657841640924
0.12734822602846865
0.31000905748821594
-0.057353638057503945
-0.029100138040388555
-0.015454657652438924
-0.11083022786801668
0.21303724292281126
0.01992335613592612
0.0597386725746913
0.14433305013453854
-0.224680152792547
0.33835060672148093
0.04303654658008826
0.49824239795736747
0.20621394889230402
-0.1560771477662148
0.040271307622199874
0.3070266530943294
-0.46529715241200675
0.015085143498024868
0.08029825142306293
-0.40064064869820454
0.1905689926524215
0.33739819561621187
-0.31216337733386923
0.1269216628324224
0.35102893860796786
-0.204499178505482
-0.2049043368269885
0.21436781232870078
0.04112980817539743
0.3732454224563026
0.42393847230055
0.029228879312485384
-0.155084929272177
0.36478398862819456
-0.12162159914529536
0.31510556776220033
-0.09776704173923159
0.18602157725774626
-0.2542084539815566
-0.7799976159300335
-0.3567803915860514
0.315795191995415
-0.08072742209897074
0.037596086961272396
0.3106387585089889
-0.8487704206558284
0.719900637592713
0.5233013833347399
0.07565904839241246
-0.40116381124972905
0.29093459779433906
0.25297050821095807
0.7105748215364546
-0.12449445443915558
-0.3537904908560433
-0.47321902716133907
-0.13244113037534724
0.4795789527837653
-0.36599604617023596
0.2819692623732528
-0.16020678448348313
-0.41870407523128517
0.26467601898996973
0.41452970889374713
-0.5471477739224533
-0.1442118959345384
-0.2899046423291104
-0.14124291785978585
-0.09456986200729835
-0.06070828598290872
0.0716872214129624
0.3430362133658297
0.3214707359013167
-0.16314975855713357
0.18507825638387584
0.2610152186307328
-0.7073995466600447
-0.6616190718567038
0.17214677089561964
0.1440137128226554
-0.018140084067892973
-0.1694918192534609
0.3499340564332009
0.1582070219400848
-0.436889842824815
-0.2183646191958532
0.5359964371110318
-0.5965698943589326
-0.18674058936134594
-0.17503145157468047
-0.34525519347125205
0.32171964945515646
0.08902449147820683
-0.30262263930676214
0.372131317738282
0.44250606389271135
0.8798560415160658
0.3420272922260318
0.3242497374366089
0.1611977337783303
0.25726450872798207
0.010023507214454544
-0.028377281535825912
0.22940435963119754
-0.18639583386816863
0.21513243703166582
-0.09679995058247581
-0.014987583389194268
-0.15913329468188947
-0.2481684465429644
-0.09699083898941298
-0.3179645580110071
0.23232253154615007
0.5646036214415379
0.4862415027609059
-0.25730202267826785
0.057444605999795215
0.5030909014675384
-0.48855785365751375
-0.412778034418322
-0.06445199954275257
0.2771039031980165
0.06049857842110835
0.27106453023877564
-0.26322598781993445
0.5167507897935156
-0.09135567239009663
-0.0728996251099359
-0.3732826295669761
-0.25506959938043056
0.19870781685860955
0.09867428434549301
0.5623069099776675
-0.23709990607308457
-0.14364657760523997
-0.6589835142628393
-0.17645750223888962
-0.27454864698392917
-0.35910758100245965
0.5527375111191672
0.1251002992879629
-0.25746249358194895
0.4001256425621882
-0.03256443473816506
0.11207674452162364
-0.43035476882369633
-0.6352035422115462
0.23032582232405205
0.22738865657259807
-0.08740736591552542
-0.12626687232219155
-0.013206129133509846
-0.5224344620175913
0.458783165086648
-0.12061076966845179
0.46286625849969393
-0.02532277115852124
0.27023515839945
0.5538323137476943
0.045069124872231955
-0.015775468293842927
0.4761857748947
-0.4687853607517018
0.3719710836457672
0.10860056824569589
-0.2811042751347636
-0.32089347210818076
-0.23577299666399207
-0.17459570178708225
0.09948767076481352
0.07196293501717185
-0.04026087875937552
0.3647666369695807
0.4151550630081029
0.23556775950070757
-0.9968246482343617
0.0778635095771979
0.0278035204688889
0.07795543534826155
0.37161671028359244
-0.04632487157142866
-0.1101835791654894
0.19468077132562248
-0.3605363616114887
-0.13308429597344387
-0.21091733545885682
-0.19010679548349316
0.5924012818791153
-0.44009444376871515
0.14492593176766264
0.32933177296147415
-0.3364288144188966
-0.15365342525733794
0.3028359798783006
0.46256245083555836
-0.04700962648107989
0.04582718697782388
0.32511825901957775
0.18393134950489753
-0.10296958434914685
0.38997957773118536
-0.16801353809067732
-0.16117173905469673
-0.23357049697131077
-0.38903043795701464
0.28219681285326725
0.5767160040181856
0.5196857179726122
0.029751298373915453
0.2837898070320812
0.013439646945836459
0.7962234891267918
-0.1932602677162406
-0.03277102648648278
-0.15681829910587758
0.638407599153203
0.2609812872269227
-0.10138998396740527
-0.3156973576833484
-0.016140443223768074
0.38407218742691784
0.660576395577136
-0.1660875398743769
0.22006220571729884
0.04502830637292107
0.5642185672690884
0.09585261260784492
-0.3801384349118908
0.426902384691014
0.605705245711918
-0.03126867632121972
0.400065650594388
-0.3977202926244733
0.06929600769111938
-0.43151645096669655
0.316937512585655
-0.4700648931122969
0.1880820520020994
-0.26532529249133896
0.47999921406458534
0.2991783007339545
-0.16662441957849888
0.37758855094003496
0.4184408825454004
-0.34339756915908604
0.07387879793885434
-0.7142999374918622
-0.5975274798247848
-0.31185534601923554
0.09031707769918962
-0.26671872958235504
-0.21431562649192867
0.01381928564294231
-0.1167661211087347
-0.20267759121223433
-0.49581119654956474
-0.016942252747236985
0.3172680406349678
-0.2310642848001931
0.5736313208539957
-0.22549286758613452
-0.584220183934597
-0.5151296369443834
0.3731050863453631
0.10615409155086258
0.10508886417973147
-0.41706343516927136
-0.29079097383614266
0.27358335854864624
-0.060443044970844094
-0.5104638460455395
-0.3962420217762655
0.4701849836611673
-0.0020069278172676953
0.22718113863397418
-0.7827889442164262
0.6701555537526611
-0.6712552860108697
-0.4455644333975647
-0.09749753910851565
-0.47852443777392883
-0.08545020496112461
0.5197711633195837
-0.006252814480363095
-0.23194021533852952
-0.6707090883164788
-0.010680225529765297
0.15273655818415374
-0.5345262439208339
0.05870776820606068
0.10706238774602983
0.45740047271965506
0.58051228407254
0.7515559658915272
-0.2455468769721588
-0.7961533425602552
0.05404918072978083
-0.16989591715629238
-0.23362842874409406
0.009005508060000365
0.19827033416220063
0.13178335011126063
0.22136550195276894
0.09408245480350991
-0.17662441084134567
0.7157251595835366
0.4686357911360527
0.8233541193680282
0.12609496686387747
-0.12007360780421296
0.877883037625866
0.7536502271949305
0.0793963572151559
-0.4445301443998232
-0.5677768426986929
0.3219176112706852
0.01580616005446061
-0.03942940032141686
-0.42091258384406255
-0.3651291527297086
0.028203763247862456
0.0380029550853204
-0.2748082955833231
-0.19631573957244483
-0.23393897139732794
-0.38501970748878933
0.9872960064085756
-0.40137713985646684
-0.46934787319037075
-0.6346878532217723
-0.4083740162660018
-0.40838421260283936
-0.20263372577767447
-0.24204636242863903
0.2603993416540119
-0.2680808474643019
-0.001106223986908833
0.31231602974335193
-0.07137370560688945
-0.6043928993511143
0.4187044340158674
0.307746063114001
-0.35211823133469705
-0.2724307479680384
0.45826717750120055
0.6055918277153893
-0.16270558419595377
-0.12586934532833824
0.021041791871660307
0.08705590357057302
-0.06161143832249235
-0.5493273445593373
-0.013636342444039485
-0.45559262330899253
-0.11725888454540612
-0.4219103949668923
-0.5424597025131632
-0.25238065313161706
0.1973913611658359
0.469476766877741
-0.1587411241709514
-0.23072288185118547
-0.5245413310040021
-0.6095328095467117
0.4751918522163808
-0.34833067123034656
0.16362714475520695
0.398866699200388
-0.0920206169917741
-0.0019049244554691948
0.1845410835022687
-0.08463598117831375
-0.019925563728108192
0.07793838052515926
0.28471062796569363
-0.0645270649760209
-0.01461268806071559
-0.28098506136831986
0.16040233657470698
-0.6360549528187049
0.28451114848827486
0.4323013742901311
-0.11701911156363554
0.35296165041142896
-0.6566939183812517
0.017590623751154718
0.26792401581671427
-0.4254290551314132
-0.44370177130991695
0.09572503376530074
-0.054304927987018775
-0.034400989935762905
0.267781659729408
0.25071596741944735
0.6131049737980809
-0.9587151265155422
0.0514002180247619
-0.347889925541908
0.2764571750291466
-0.5855524208423459
0.06368633879673735
-1.081557269873622
-0.38461619191214
-0.21174880356219827
-0.6423173553088763
-0.39513524474514533
0.3571994380827713
-0.4668161259006184
-0.3404864342502798
-0.5578381522525111
0.2741106103421941
-0.191706287273469
-0.9329433794911351
0.0323374302541853
-0.18133691653778503
0.7998051103768354
-0.329177954138543
0.3119518525556233
0.34465085342034457
-0.4724395408171932
0.12457569400790107
-0.00014180273428785788
-0.12160909505380248
0.3966940196465253
-0.731826038732325
-0.2573728996882512
0.6673802911954043
0.4279270620782685
-0.2140811711629499
-0.052437442644363556
0.014438985346576366
0.47282535099958684
-0.14942988295410395
0.3066600354135787
0.3380752573166122
-0.001468632406609093
0.18131552386934227
0.23681134757991673
-0.6804178307392148
0.19880503882395834
-0.12379020142590093
0.37000103071362334
-0.25132341622993903
0.13911995465362173
-0.640291785427151
0.044852407896563064
-0.13246722843023562
0.0959272191411385
0.06518765538729202
0.5944025759240765
0.009630112882843222
0.46295785212381135
0.30572818566564297
0.12851793848666052
-0.7563270891668936
0.34970813475318246
0.3749700215968442
-0.32662394424908825
0.31368387904128203
-0.09958869150402958
-0.3142296408547216
0.4005284851640842
-0.281291633948539
-0.3113198855733733
0.46435143942858353
0.4721605253416551
0.3609325676745015
0.04563618572784992
-0.7709200398261199
-0.2248575968968469
0.47015690388724496
-0.1651024374233964
0.7000916962773105
0.49641690422554496
-0.11632121142337014
0.06533186595778565
0.29760937028018336
-0.47886600919578104
0.35061776906378117
0.3587497965825742
-0.2974255134123729
0.06287723773706257
0.876905616916269
0.37195399620128683
0.46981716989284783
0.12353364895164397
0.6221965607171275
-0.43164975792402077
-0.07279629307556096
-0.8155271886155451
0.34890187616852636
-0.030719293637612312
0.13004492250257918
-0.4016570987147174
-0.05682640641629343
0.05788320502155275
-0.21103000668808714
0.267555022780292
-0.13320129615721885
-0.33757886987333957
-0.14346086973208375
0.258044458485768
-0.657088865758627
-0.22415721840835515
0.22099874961115548
0.44238801072584183
-0.24453584462106542
-0.4400926149672695
-0.7374794179318448
-0.2291749298950786
0.10702653323672204
0.29126223214090435
-0.21735225518922563
-0.08470922735742352
0.4183436680423273
0.4100453822895461
0.23983280870067675
-0.2796504173233889
-0.3667473485451659
0.1690368497507529
-0.20391299569296342
-0.3891220236022751
0.0316762372844496
0.5306720735402427
0.11219477351720113
0.21396513936416844
-0.13242360635579664
-0.04626126052578222
0.12077288696366731
0.49182593083471404
0.025417362283266867
-0.3654238422899151
-0.2717662277748496
0.36200957226285974
0.23306758046474857
0.14629089726227815
0.6755500232538232
0.5664002777073709
-0.02843889807595728
-0.33845822663789177
0.4421442722837377
-0.2645654026798157
-0.48082898817896114
0.3173678592160605
0.2500920964467649
0.45802441323294074
0.25740354953064337
0.27255466915745413
-0.9893221248600215
-0.16024902958289067
-0.4290405409072697
-0.44834864106132627
-0.020004216883193305
0.4224112123895407
-0.6304568942395833
-0.05570545182726565
0.3923158261175599
0.35190737973752884
0.26736923953465314
0.37960300165631555
-0.6257689290035549
0.12553776532150304
-0.05153402022715472
0.3964994709462371
-0.09676565452078327
-0.6608093321673895
-0.07719705436311058
0.10341386480662557
0.5296635538509544
0.662467566565296
-0.42181458141850414
-0.3384718497401462
0.2397243597107105
-0.2604637142778783
-0.22520219968083724
-0.5122708669962973
-0.04205179293996114
-0.40082966664502506
-0.2259082728661333
-0.1399421336115429
-0.7636950971858901
-0.45360603503999974
-0.6121283779227454
0.24128003238459975
-0.27509486679468265
-0.5907184887845098
-0.6568162390801768
-0.44281109595659857
0.5219141671863939
-0.13241001026385832
-0.21839244147481035
-0.4656901532754739
0.15313563662446664
-0.01105703471510855
-0.18238227466677712
0.3429434451214929
0.30548641133021903
0.11943462262100885
-0.16163147093942792
-0.35978962388349606
0.556853305307236
0.566215739312151
-0.4482978901989051
0.5282143875919781
-0.5304868156452351
0.23498618000964822
0.11609609364729416
-0.051074705521200775
0.3015194093733844
-0.012958442579411757
-0.3929218267281698
0.3661052826655204
0.3677828452923143
0.10982110607026656
-0.33411909649090793
0.17975537042131426
0.06631979190667302
0.23380747476339633
-0.29900607938781526
-0.14126721243693663
-0.05142794234674714
-0.2521435384718971
0.4129683715822861
-0.5163203563238581
-0.3358097637045219
-0.12242562980999884
-0.9375662382359595
-0.5508935193157553
0.4291993452035028
0.20180273584996322
-0.28821558946286885
0.2890159547156384
0.377860658586243
0.14575779071517897
-0.5362397010848009
-0.02904881603974899
0.4290435533301393
0.16177299569091153
0.08563802130749881
-0.162024539716339
0.26407288109319016
0.24177417369730247
0.14304989961584683
0.2336146284186764
0.7378167571706626
0.9404206889820471
-0.3846167899808585
0.27425993886943084
0.23859621699800165
-0.0518098382442766
-0.03455614722057263
-0.64742624717734
-0.27150945200842214
0.5374295602044578
-0.010302116237455755
-0.20128293968551456
0.42342589129661157
0.06163304015520122
-0.23941446367456548
-0.5612034769636329
0.2785542662826567
0.06875497954233935
0.374398809806414
0.2978235942928089
0.039395751040378776
-0.19911170608951087
-0.12939498372768565
0.26938563818105066
0.2238124450393454
0.6477137916571895
0.1252817365873555
-0.024223462846220626
-0.4043099910111021
-0.2516681075139358
0.05030837311559689
0.06450112631095029
0.5964670487269841
-0.012460250328450426
-0.6520065308502733
-0.12870814425044108
0.24100836073602047
-0.48009214453068216
0.4852550905678024
-0.0412944825875058
-0.08565796213212887
0.03396852641256206
-0.48773921526674885
-0.044304643336579956
0.12225447310433345
-0.40607587088052105
0.38622847275303557
-0.2077859450232066
-0.09205896377247462
0.024811819943961085
0.41412471548920776
-0.007614147557542624
-0.5216497866391825
-0.18268554875566934
-0.39782488342058914
0.09618743232142477
0.48294407353428664
0.20068355099447904
0.3846392600616398
0.06151902062891215
-0.7907710888422852
-0.46235662853564996
0.13286631245735187
0.391117342845344
0.10089969010295326
0.5815935779519649
0.3775036480848258
0.21352590675573205
0.13319961091330618
0.126900973654654
0.23537825055522746
0.24303925080467523
-0.09656848459090435
-0.1441840911386949
0.03999113995687155
-0.1728989852562926
0.37640398222066235
-0.20844648409217928
0.3884596079925111
-0.14051241611689277
-0.18795402540643613
0.04890680054698751
0.5025624746288158
0.1248261037746618
0.49721980415374933
0.24853856928436516
0.3066339974472994
-0.2953135779278623
-0.13956153552250883
0.006205725470772095
-0.22766422949376477
0.22896370166403177
0.37641229172437934
0.06874218298873871
0.43852866946759644
0.14228535494347497
0.21354574701557572
-0.35517646195811825
-0.15746315279866774
-0.4366247657979821
-0.44954471905634585
0.3263840178454619
-0.0267739801764399
0.2732390466149089
0.3513989977833155
0.33559000627364094
0.3920384203670812
0.1557778334184546
-0.206896550619716
0.05072855762616133
-0.9388481362884435
0.6341813776906096
0.6868407213926586
0.5999692709031933
-0.05180759945342209
-0.5550508725578148
0.25788880666460556
0.11701748220221665
-0.4462599006652902
-0.4277211738168319
0.37799282033187553
0.07074691670305637
0.7457182888350882
-0.25829142180431347
0.2186908094415632
0.08233328937182549
-0.004997820159451689
-0.17814210309303308
-0.127843430793022
0.1460720555289528
-0.4764156785035026
-0.16564291219391733
0.15270524073850664
0.17601477490195713
0.1382461080551663
0.1859697423106905
-0.49107367733330304
-0.2903248881373551
-0.533511108359439
-0.4137053687659745
-0.23353598492814187
-0.2603287525767201
-0.8257532230496719
0.4285417106716305
-0.26577959295814463
0.3189193777251464
0.13700861350960816
0.0011167541932276908
0.07682848518554002
-0.6625535286720554
1.029946284270893
-0.02597641750060304
0.006624922799116752
0.4874350768906048
0.2439175666347206
0.013815144727756246
-0.06153359511374176
0.1802761842694447
0.03866366995588071
-0.45230398431651037
0.7094771967437173
0.2135867233971133
0.4647096240358342
-0.26717200720449474
-0.012770086367003915
0.20725899876359558
-0.04725230951382704
-0.17587660602520072
0.301269380705695
0.4567702872021449
-0.40162115605202237
-0.012818755128027508
0.01976683725460128
-0.08528461702072868
0.2012654809181942
0.782677320610382
0.5119733390119953
-0.5668451452338289
-0.1549315976133495
0.3922338123234789
0.044512078231083836
-0.19521597301930688
0.047718214006803414
0.05473743599888693
0.03983563468518893
0.30838536077218576
-0.8176299244954708
-0.42569528056606126
0.6528199274006876
-0.20727050933133812
0.22537946913979395
0.0842509115245086
0.48422983205472503
-0.08525655105535543
-0.2497703784514045
0.3768041813437233
-0.2206650423237178
0.11704715197210609
0.2520831206658083
-0.20898025178805224
-0.7888935576679906
0.04561634815004166
-0.6752260587237426
-0.07212560318871448
0.5971671080147415
-0.20697810287523227
0.6600860623441116
-0.13852362135246982
-0.005397466913768198
-0.28273576748377843
-0.16049990723203358
0.514331950899987
0.2687942273882916
-0.08933788992323419
0.5393547802447397
-0.11281117889191879
-0.07711993875348652
-0.06469478795585873
0.34026663474187846
-0.28944243408338405
-0.52793235579251
0.3073832230048402
-0.23397048724750402
-0.16513416931996933
0.14908374578919895
0.4114768216815704
0.2956783469116096
-0.33202059317656507
-0.21789153559805632
-0.2265149409399626
-0.42360592927129215
-0.3648589009128912
-0.3225378459321428
-0.39904906928437966
-0.7808142501321514
-0.15206689188711886
-0.05008693014540592
0.09189894146231675
0.20807480751910212
-0.16797453259229397
0.31910292803065776
0.14639613497884155
0.7072570703117042
0.37422486243815806
0.20863136142910016
-0.2714496450092758
0.017709584721913387
-0.2352926056474975
-0.22436039801566895
0.3194275255701169
-0.34348043161122305
0.5713523546819201
0.410187561385905
-0.35241197290166315
-0.6049807039223561
0.22612430982844794
0.11639758228963333
0.7047757164253706
-0.16717967298488115
0.6762216002735034
-0.5906160413491516
0.17608332744277674
0.2593005254081014
0.9562257300200913
0.37775559312376394
-0.15878073967751527
0.2816348024544352
0.23379982916418432
-0.2692177770004753
0.4971068461677981
0.011150203779794686
-0.18205396361389622
0.5693417243108647
-0.3704083518123211
-0.6274002739317399
0.3327995597978923
-0.17308200095741025
0.2888573623903997
0.027557423498093495
0.3322888272114384
0.17603933436163652
-0.13527155083145914
-0.12099975517016977
0.6100208305562248
0.05687910002198056
0.24733432677799158
0.21473344511683867
-0.38769083123210446
0.31565625063969044
-0.1968311782597703
-0.02000857441447365
-0.7383728951868144
-0.06605898934857608
-0.17721186356877727
-0.03324213941076481
-0.10182007203709603
-0.3504047740981682
-0.43365792066165404
0.1381673451230448
-0.21659276621411408
0.007576989960489452
-0.03652654397012301
0.6375647267233019
0.4810971669013747
0.16499123827692636
-0.5858787181957003
-1.2830539858050163
-0.4049769870415138
-0.3017380741236855
0.4849162386518245
-0.4400720885718601
-0.3049024876626728
0.38627830172917593
-0.18158521812122583
0.3067243423932742
0.05656613900198242
0.5582595185444108
0.13392863224789753
0.1812980277581709
-0.617613533701198
0.530182849172599
0.9204727350463908
-0.24732192909925232
0.14775820005010426
0.17403158204087446
0.589832090788929
-0.4367535852039988
0.7076113456745224
-0.17404402086453
-0.3504234188228139
0.24665906299012355
-0.12254267797188499
-0.3428728156763582
-0.3450736373544446
-0.18125658180230939
-0.18884800909158966
-0.14220112740697835
-0.07214159168350594
-0.24238823360659545
-0.1334666929644539
0.3490241549825535
-0.5363961155179565
-0.3158455368032423
-0.3476920512248893
-0.08254244636401664
-0.16097050183749093
-0.23729442288082336
0.014555655149449157
0.07744932842459575
0.05200677450533076
0.37292272142978605
0.7578591950093346
-0.3610618342628474
0.20293527857317228
0.31145971122257154
-0.1555393354446283
0.17512200192902908
-0.14836485461663607
-0.05417579890097519
0.26586220481844663
0.2904729832454974
0.492473719173305
0.35061361032113514
0.0622118321561283
-0.17957542290845832
0.11330847467474801
-0.043901266175558125
0.23545891826443346
0.08665097981699518
-0.23476780379040793
0.2949154500847268
0.5451378429376752
0.01118367500813888
-0.13437623626451192
-0.44838516649032106
0.7855419552929993
0.4280143670950411
0.10565492936547198
0.2893785048758795
-0.27253998979673727
0.03346420546887539
-0.5980058179768136
-0.5662766202416146
-0.28230984682278354
-0.07137019706925105
-0.12558626304590692
0.32325059154285746
0.1461732381082875
0.18292773051868974
-0.46689273305985907
0.34738685358429766
-0.144753311870338
0.2502401512077443
0.4343789010515911
-0.35845825620165667
0.3480215839572701
-0.23457955014502832
-0.535404339139475
0.1744350693508186
-0.4037628165728224
-0.030974371987506442
0.04328502422448022
-0.10522197410719021
0.12478987013699634
0.742851981643422
0.3255018492948669
0.13878244320605096
-0.26221599651406746
-0.026799997576586194
-0.5696139422890301
0.10541367039384919
-0.269205963392222
-0.3768619540960603
0.5634269779279344
-0.11108117752895347
0.25336789244783015
-0.27886138612075034
0.07354259470652286
0.10521442991686032
-0.03814413457944601
-0.560481790122501
-0.9188242398315442
0.15927229559516795
0.001797746073298419
0.19534579813427758
0.0259777733885629
0.28240280120118205
0.022201657534597106
-0.39223357230657585
0.2523002040552474
0.32011267137704563
-0.26336006882269636
0.13147199584801644
-0.13190182937990683
0.45487136560392716
-0.6631057006240229
-0.02841531023906734
-0.47255813047877615
0.42071074929977775
-0.32599966838118666
-0.4256985795936415
-0.5273871880405182
0.050557636608835076
0.39223879063249606
-0.4219596733307706
-0.179132390078932
-0.48277818771352055
0.5399020483406715
-0.5314501851136001
0.6115407962033833
0.008280694474011483
-0.1205446893673095
-0.688095577405811
-0.3867959436177073
0.1387194038072142
0.18396814354006003
0.48301785385439744
0.49906736636741517
0.6700502455488484
-0.059881061643343766
-0.1751290157787884
-0.4259769743819175
-0.36568746534448565
0.1069097953458413
-0.08941516052403319
0.20599381324308402
0.19130985714191887
0.3580886045472533
0.3571995045449492
0.9635545573624263
-0.29635682497784566
0.37035160626680685
0.4467540605390043
0.07821159205569161
0.24522690191091623
-0.011374230729148883
0.002805638059231181
-0.12023493812043035
0.5539610469988456
0.3488699467201245
0.34103504627754516
0.28491601330179
0.05574477213938571
0.21145970623519256
0.7231852052085582
0.49114406302894087
-0.09206610925806388
0.19551049208169657
0.12743461463335773
0.5731274768763536
-0.16519363277925378
0.06235318933620638
-0.2630266550722224
-0.052900749310940486
-0.25137995754474207
-0.4988021598765863
-0.19823617104042085
-0.3657825864232044
0.3408667765137687
-0.5323346549097668
0.08765061128931961
0.25510728561356916
-0.6155721447558974
0.3867709213514208
-0.2341777781880086
-0.3412455241628639
0.0340977321785443
0.40484961233407857
0.36952912091690904
0.7991112994548661
-0.17476798826097054
-0.29304797186867176
-0.13579225554468372
0.027077180683640522
0.5035338656941156
0.5452483853489529
0.4031213143939885
-0.04992676982173948
0.7543265762891009
-0.06332914777844345
-0.04634752920929796
-0.4274014549094813
0.2117898120597637
0.05570768114977377
0.9309749841715951
0.22624435568733547
0.229889690001952
0.21066834138135765
0.021125491665548723
-0.13781246102349332
-0.2687467512422595
-0.24825893599915264
-1.0789536374549726
-0.18314069519662912
0.5296689700037553
0.1635801174096557
-0.1304652065214767
0.10024452980935643
0.4423571689078349
-0.13492544475213208
0.36813210276530606
-0.1581402435573989
0.8673626424195442
-0.7012365462274612
0.3753700465748694
-0.13803511449746542
0.28756412562873085
0.05864463081592826
0.5275497791122878
0.32160700599975534
0.17323996333097286
0.43122820226082736
-0.7709357393311574
0.04285342154343591
0.11909496429632148
0.057843133152690324
0.3908958626813923
-0.20209154726966674
-0.1259808207654028
0.36296610483111097
0.09351977125150351
-0.29440695269308303
-0.044896619782636135
-0.6738500649910996
0.001952878580609197
-0.09409996499012159
-0.6323818054219296
0.4550704326427791
-0.08395051749726466
0.14629715609921015
-0.5730998106357249
-0.23022154606323764
-0.1599859313219915
0.808116613140393
0.267345201400246
0.2574203629057802
0.09907496639557178
-0.19490089423189405
0.025781652008068565
-0.1444245050547413
-0.08731304035065414
-0.13492718851157354
-0.35781048427625445
-0.26898090073085956
-0.3512409263880223
0.16059907820094668
-0.16178855974859602
-0.27438317284475344
-0.1802135428154204
-0.294611506402421
-0.1314491783761598
-0.830737473298453
0.04829019770920681
0.16384861103317008
0.31918358640199
0.4142070295346695
0.12448416220861196
-0.46009385284215454
-0.24233262708105371
0.7545327958625303
0.15248619558070847
-0.38911749475920737
-0.4054739260312237
-0.5667056114805938
-0.019123441273058938
0.14123970688776163
-0.3407399281116157
-0.2498090673742057
0.214763087431774
-0.04831529927896499
-0.771303359841213
-0.06450226494497903
-0.02372235728998982
0.4439616409677476
0.4004999140164403
-0.4575689414455358
0.25295361817031464
-0.1884928300068982
0.1864095191407807
-0.13050066275635838
0.23015125219175198
-0.24411562994452288
-0.7173863245346046
-0.12767003727773407
0.4584610476003703
-0.285959167061563
0.13037096894271116
-0.4280049940602528
0.3397095458952659
-0.32154954989191076
-0.690661900089171
0.3489659367620453
-0.3032546920232183
-0.18022661277285623
0.29604063524671387
0.12189008372113252
0.021013021594213404
0.44382017647533745
-0.2016028651323874
-0.3813774973802859
0.7369273327713951
0.26719303389684684
-0.1939740366700709
0.6348044589492705
-0.32487516436138725
1.2305486228558584
0.05324739729185951
-0.17593698568055705
-0.551993346547435
0.2559263798143089
0.6696976795164813
0.14718957867686394
-0.18248181225534935
-0.08575151042588966
-0.3080086112930961
0.0856986475906316
-0.5551044862464678
-0.6435756944748884
0.1260180563472471
-1.1150987264414722
0.08513752031404703
0.19903074529114856
0.28661552034060406
0.1623173003146192
-0.6440020842085407
-0.2517322378382972
0.15404716565629975
0.11059331685947685
0.23471676180610382
-0.26375377369932723
-0.5639336074084441
0.1391828830036222
0.04676104403898964
-0.3376959294074349
-0.6808242598653168
0.2755468486180255
0.0877484115625636
0.07128437819666081
0.3290505372422549
-0.11125605740979225
-0.09656203718108976
-1.1596106595917617
0.1811632734406261
0.43748778466803173
0.6771262394641574
0.3972153779501315
0.21617822633483683
0.4485436254776632
-0.07065794130634473
0.03684307607381224
-0.12748970610767543
-0.5910327002335263
0.035574378455191374
-0.025612950582877884
-0.07934033215095164
-0.1872270806959612
0.22305977364257726
-0.44676235009031645
-0.1726276298769253
0.06868249799791254
0.5373210424875807
0.23349271848956277
-0.20945035870651246
0.35130216593731006
0.49772008131138357
0.46138641763149224
0.03509462913673064
-0.7067487700616143
0.1592241202410333
0.02611701120953657
-1.1062080998109023
0.05012502808055204
0.005702206161079929
0.08568317787350876
-0.4375390341007791
-0.45716889073762457
0.22536722470442427
-0.37692812209294085
-0.49825237113599524
-0.31653291526279315
-0.1391114637318153
0.3279750008986226
0.05238214675041178
-0.9031296347369963
0.5076809798353352
0.26618197058236864
0.11572981520892635
-0.1704993311465159
0.320961761861277
-0.00822375296620021
-0.7435914573415195
0.6038792018511507
-0.42104510869191547
0.22049793416319463
0.46318993977431955
-0.41679114648428295
-0.1492068626161393
-0.11758770826168469
0.003530041584565879
0.32291165333894634
-0.3927989911103314
-0.2775721481105487
-0.0680863356125177
0.207506534089392
0.048078402487750464
-0.5793551553667476
0.3278074891351363
-0.3291728158553009
0.19382040010954282
0.2806914571287562
0.010444775904724268
-0.03434526389268038
-0.053327486174267774
-0.020891230601342757
0.6423393333664035
0.08256782238021482
0.03643179580755299
-0.537478278543385
0.07317248166830347
0.47697283103988375
-0.2010872742332912
-0.3769508952051474
-0.22884271029968378
-0.06463916233763585
-0.16718281456791484
0.25006219182630174
0.46342978296973647
-0.608246190888476
-0.2165917949201959
0.31922709072561434
0.48286898887601554
-0.40727140826113106
-0.3004608344809367
-0.16312680811164906
0.19513823426284682
-0.011926949343680925
0.03955190644764967
0.1963509149062568
-0.37012043144341583
-0.4494934149031906
-0.38874162179880956
0.19227287580299435
-0.2544286853849907
-0.2216022444175437
0.34066212217368036
0.33706964263288713
0.6225942364716618
-0.6096357113294674
-0.04840418960974623
-0.3687518351776
0.19858188427581389
0.07906320811261018
-0.3601082768083082
0.33878835303735527
-0.3798239056391911
-0.1752267156122501
-0.7103545340415788
-0.13939774299385987
-0.26130703084854723
-0.018764379770502198
-0.03942049602091806
-0.26970933826465227
0.012448732182940033
0.4462002188130218
-0.18263001012716654
0.012117695689615493
-0.3115759221234996
0.43198402928269974
-0.35669409467147956
-0.01570215238352838
-0.5108400485394426
0.7394778092067409
-0.0675607229205914
0.7577829009312717
-0.3161989964122142
0.1346296443126026
0.2105114743666783
0.23698558469707384
0.3310133467870486
-0.7783779892240156
0.41661136648236324
-0.628270530100008
0.0030569779630962306
-0.21574724824059513
-0.42800484307942865
-0.5550391330686293
-0.15991665813324452
0.3658254306407929
-0.4786558886648916
-0.09181568106032165
0.07488358297012586
-0.6618816877355971
-0.011487972485343593
-0.10149248923875684
0.5310966184792134
0.24379506789807867
0.030124806278208
-0.4100147672829995
-0.10319195896209525
0.499714494681128
0.1980597830298985
-0.0018398496355421414
-0.133223545286836
0.1879282443245511
-0.5316636169315957
-0.07857151070623572
-0.3364752807669129
0.5034979395854675
0.8263761050367509
0.28373178369151025
0.7006391442509214
-0.464583468169245
0.20658943807144683
-0.40367484816975646
-0.4160578555503817
0.04731785303537901
-0.9791460584905434
-0.39944753366408825
0.4942290643737711
0.1250880883697907
0.3597009866655128
-0.02059539721271309
-0.6537185092094371
0.5623240840159794
-0.07457790508822872
-0.2040675820985062
-0.012968732532656244
-0.0360784522878156
0.27543191880768747
-0.09571714765151089
-0.4280642753955152
0.7392234153158552
0.1542236876335402
0.5023682423937106
0.3948144322603474
0.027684797794020142
0.14804581074347087
0.45246048853743787
0.0820554577478766
0.5731105653372662
-0.6392553788399279
0.024756038550852535
0.09623386249332463
-0.1776577418126397
-0.41599905824225647
0.32553668953176057
0.49563708128038936
0.01479577333955181
-0.3262643001792287
0.5160182792905236
0.4543810282135809
0.1736366680151642
-0.12143955891007079
0.4469322677051842
-0.5227477207782097
0.4891003399063517
-0.10257530528130465
-0.0962544897613165
0.08712907910511655
-0.06997039828489465
-0.17857951805866565
-0.24337776373232298
-0.5176689296493459
0.0269419061167211
-0.26182770276246087
0.8263067375312466
0.39944770597561957
-0.3964103801843422
-0.14400941653382604
0.11375283159648242
-0.19512652939163916
0.29031967605165593
-0.5956051413196957
0.017530530157046025
0.09489261675092771
0.271597117027815
0.02187690225387614
-0.2529390331766746
0.5949210021751776
0.21332080698497755
-0.5900511812046713
0.37458282736733856
0.3921439522648304
-0.6867967047010761
0.3457418658549225
-0.11596771405100272
0.35841254050825416
0.3370639268406595
-0.16702509518216133
-0.3133381033326703
-0.19152861815988853
-0.4457052739392711
-0.16853711988479375
-1.2556881704862637
-0.30292932888576013
0.46532719994583605
-0.8001734845457211
0.49496310664294435
-0.17266614921576812
-0.9136648363093625
0.39179320749213736
-0.21670414097605215
0.11771531236527526
0.415511749353914
-0.33606368067257614
0.23474823310224294
0.5548633939255793
0.11536028992314895
-0.10877970344696508
-0.3514578232657766
-0.507350729290489
-0.061142864787435455
0.6147708366003818
0.2819931412014499
0.0778638246277062
-0.19047676269430772
-0.5598868230960026
-0.04141284216053269
-0.9751724152510947
-0.24169523056611464
-0.502010171680524
-0.15804901981292183
0.3917064307827527
0.21631178532965267
0.28720668756437945
0.13094377461902507
0.3044198167701665
-0.049939034072944664
0.22766270904149877
0.1652786439404436
0.6214911031965044
-0.6129633217536975
0.10388134496311321
0.0970691452714695
-0.2615166220831494
-0.383891422365893
0.24821133859857616
0.1734986481562741
-0.13989502310782392
-0.7624060276389932
0.3805357630598477
0.41839256679436565
-0.2972697858042051
-0.10753836620947262
0.23138824264120308
-0.12469736708063314
0.30533049314727423
-0.21538918668830423
0.35923425776230344
0.03498548713468541
0.4318556375060069
-0.7007538034405955
0.37858357521077235
-0.7216776892077501
-0.18222445179382554
-0.06903897520169006
0.6081946260663269
0.3367468539563298
0.07589918207685056
-0.15717825510778444
-0.7372056189467897
-0.004048716085716051
0.13259132538694338
-0.39681279179025575
-0.4132908846307392
0.7263054581919257
0.3953788489404241
-0.5485840374622163
0.2631693123992988
-0.29553866535919915
-0.07944871965217122
-0.19594213942919547
-0.60884559922807
0.17187297321473188
-0.2769258431039756
-0.269395306528342
-0.5801417908019095
-0.004178979693129883
-0.35093127133823604
0.4225518994307236
0.170317985741077
-0.2527124876959957
0.6362492718199787
0.23519306673900892
-0.15051073511177107
-0.1713400401002224
-0.5386621887753371
0.4723696684705067
-0.5311301427097942
0.2935567681413116
0.06558292681373505
0.6226065448307777
-0.785213688461695
-0.17573796489480129
-0.7698658759335005
-0.22649502384774617
0.17607508319922
0.13377422683750848
-0.5180641412842546
-0.16760184649122517
-0.11084581095509104
0.26141196341815276
0.1832140867982064
0.0647847935484036
0.33805956068919063
-0.026639563275820417
-0.4235704347596064
0.2000780134064647
0.2384668446038115
0.2848185926820828
-0.3813297867700544
0.20531011967660104
-0.10391026617924859
-0.18412722483589422
-0.25728369450674293
-0.512508042941353
0.5037843408019167
-0.48571876253496576
0.3942548469730181
-0.03654775244019963
0.17767503209495725
-0.22284417356153097
-0.43246222949364277
0.3844120707778758
-0.16255095008947992
-0.0680657058123778
0.061886244870637756
-0.48815230377401997
0.29257310454042806
-0.28803481038991197
-0.13134368398159235
0.05958073140842862
0.037276212442981425
-0.47801752657435087
0.3036271130474464
0.01933599966575017
0.29887543827797275
-0.19296036793328725
-0.054380960077372933
0.07310604625859826
0.3120371819906631
0.14828099210085444
0.351151243875076
0.06984680304343636
0.05151813437478794
0.0548402902900484
-0.3098154072535938
0.05530986042356326
0.6599804382320863
-0.5107033835268998
-0.7029331384436903
0.40279948474051513
-0.20045716086908638
0.32684771496818577
-0.046503461954230836
0.22786408848281806
-0.01795366290954883
0.09214876507594283
0.18337205058298536
0.2596709906112491
-0.24631923420767937
0.29327465361410987
-0.12436522620111728
-0.27442317787457354
-0.07045144182697334
0.12736212003955638
0.48728477190036135
-0.42992315813948906
-0.17397457514974707
-0.2580994583650763
0.39620721175567014
0.024594014038650386
0.37474432109817696
-0.14150784466303357
0.04848134495252426
-0.04130530368037438
-0.5060731921349576
-0.44067814823833723
-0.0843571344402273
0.336879933238486
0.6328873701110078
-0.09148315867283197
-0.10054937132205047
-0.18652464954511852
-0.26636832804800414
0.11704250124383235
0.18973534928260183
0.6578994722512032
-0.31461435302203516
0.3141296348555846
0.44728323920751056
-0.05639328697309625
0.08829898850684285
-0.3537688433679991
-0.6395950166803872
-0.042601561099395995
-0.042213814229206996
-0.216720666065601
0.004921468763346295
0.07692123773045904
-0.08580372711582575
0.04210985428474335
-0.14394769306694802
0.4879609645274314
0.326059860463566
0.11609990694796615
-0.03726525045665777
0.38824313724204634
-0.6936479665309406
-0.8939650518066353
-0.08527124344790979
-0.16766322398456904
0.1912123714429387
-0.09040210702617238
0.10539860381830055
-0.5327252182700982
-0.06060912871174858
0.8529066311774395
0.015044369934717796
0.16353596960805558
0.34127941083817537
0.04792201844232419
0.04488264792047892
-0.1786214588733742
-0.04456052844214
0.5113338521710917
-0.08805913010394845
0.24967319671194468
0.6947555117375686
0.12701795761576268
-0.0693745826174169
0.2390512479140387
0.20292924776213744
-0.15364785733272168
0.880020868018955
0.501128436422312
-0.6374937373404203
1.1240774596794787
0.6740304438133101
-0.04403539134378533
0.24847696177364156
-0.6637946118504318
0.7119512029353138
-0.5786869444970699
0.02350505264206094
-0.6122341801316088
-0.11441873123245928
0.47800801487846517
-0.3135102682195732
-0.25111497607542066
-0.2641223747882383
-0.1774188270982372
0.17370329295393444
-0.12397049728784701
-0.018223382248318383
0.013649560949760577
-0.021661903317159947
-0.04086472204911866
0.5645789314635089
0.11905463096510262
0.24083447464610616
0.0342149549067824
0.011144083850269488
-0.23724324581446715
-0.0066722037721264095
-0.7350895098774097
-0.3673054207359493
0.11522692253656452
-0.28658442151425884
-0.42204879755220176
-0.21807859858599174
0.1591462021922833
0.16695797552497615
0.3698831399337613
-0.020387614571282797
-0.027855824252546575
0.5749997911669821
-0.010162967496776724
-0.37196746464914043
0.2946664964192401
0.15207244665451985
-0.18517582321553439
0.4442694531834865
-0.10544891843531586
-0.26803961475059956
0.6633089634133552
0.4936943869629578
-0.21156322799794677
-0.4070554022339879
0.018809398937850545
0.49591650490437394
-0.030869454867064078
-0.14856899004835036
0.4908055603389503
0.04622119122772253
-0.17197668923427167
0.29818291095592825
0.5831229691890392
0.12268380624407695
0.534635336260832
0.10934865574080975
-0.4082049908372686
-0.17053745446591295
-0.05600496415166207
0.12274375410044443
-0.09585803974162076
-0.1205936329665026
-0.6317391558518994
-0.17534675362982696
-0.3214099551214455
0.5575429100900305
0.24481498860643314
0.5561305613868498
0.4976166422470963
0.3019889905429098
0.8448229504006883
-0.47115547431045474
0.46358989169353265
-0.00916408543827423
0.17227276007832396
-0.16040498389054972
0.3960675486536218
0.5883313322366556
0.13131710765050675
0.730014767062786
-0.217644514485439
0.3012845238495505
-0.46684398052462706
0.01240270166454252
-0.021309874212154818
-0.15080171280746593
-0.3063786834282643
-0.4433601697340873
-0.1806397200702937
0.08702663136500165
0.32174059747372846
0.04818286938748619
0.14528105731837535
0.11149491108036398
0.23440379974073813
0.4766294341645165
-0.010099519390913704
0.2766805485446347
0.3799507348351051
0.21312269563107175
0.5007246167694781
-0.043509398163891856
-0.17161386253154567
-0.21694778541351362
0.16600222977596896
0.48945594264295295
0.4582049871874906
-0.14948143577168407
0.26479621548571386
0.5755974871297498
0.16851877288448988
-0.11702330822104887
0.598623773414308
-0.26917159491490483
1.0169053797795287
-0.05438279742880327
0.008093468254334718
-0.5104502254993135
0.04131637232388304
-0.6451566024691185
0.8328042354709074
0.22162259356260985
-0.2284708868605797
0.6271480968004308
-0.3275248553098402
-0.2163184294716471
0.4394539188869846
0.2539303704339175
-0.30877294618513473
0.9556015986927061
-0.19266341555691782
0.21719012735539248
0.28170071274364034
0.5145024288522906
0.4189807191922358
-0.24758683813122942
-0.502428923306293
-0.3895951631143419
0.8120506916890163
0.22689109749725547
0.19687884794467994
-0.2865420966826002
-0.36665236260495654
-0.3499668713661292
0.24207825314795903
-0.38376476531123593
0.203309069597692
0.1563032670517803
-0.22047623105169636
0.6885741401340325
0.09335349397069585
-0.2597634007813573
-0.2082066617092408
0.15598635144265824
-0.05710939237941246
0.35803285869484497
-0.5328571834212482
0.43073666088419565
0.30382805985393946
-0.15649137160522175
-0.5599759183786532
-0.455141842337862
-0.3468871116108394
-0.5207252066410019
-0.03494684103186325
0.18221646456209958
-0.0437707320771314
0.4762820547392517
0.23338857757295334
0.1368403256142586
0.5063359722950602
0.8046521737608495
0.3480217844122572
0.359107684884313
-0.502816225542556
0.24474760959254852
0.7937646921506414
-0.32085011043233086
0.2512070731051598
-0.27864974300724993
-0.4104063665270092
0.2177324276646797
0.5396488161944455
0.0636956090460967
0.2596101577937583
0.09325137195695501
0.47574267636612033
-0.05675588504749707
0.050675838261831474
-0.003567224906318702
0.5081109746719624
-0.3100351361324063
0.1927742448134682
-0.5967467513108898
-0.31001547252214384
-0.47618120293483523
0.10465874121570866
-0.2787299820768292
0.4034768482262496
0.3674304546138131
0.13424456030402604
0.7725551918170055
0.024713344486203336
0.3023403005719581
0.6903782907079073
0.17010679645436944
-0.3369898396915412
-0.47850627726734474
-0.4979388337311619
0.28192279766748485
-0.04491592127976962
-0.3332908043154566
0.12005743737363671
-0.3458912021083329
-0.1919935837096987
-0.20701285413288034
0.10354916197682357
0.05013694067917453
-0.49876120076528613
-0.24744401506745994
0.26376713301297505
0.4062017981998232
0.17068511433010963
-0.8965714848026612
0.2971154628332651
0.6473489771827265
0.04594755590164135
-0.49148253935429903
0.6903951519476114
-0.5198507190891251
-0.38291924358787405
-0.5400588806333537
-0.6591012707381566
-0.22574281010217334
0.3180278991742696
-0.10541356155444052
0.2693418588148987
0.5084034038690457
0.19903884505054026
0.041483489842633746
0.6387103291137481
-0.22629892188924725
-0.14365697502188265
0.3565940800327764
-0.4826504610364026
-0.09194266598669908
0.11350218147165313
0.1722329674559919
0.656064440389378
-0.05462865975701923
0.04835986963960522
-0.19244945554835585
-0.08759443247099262
0.42726953488396496
-0.08242615665337448
0.316417401682581
-0.6118468145076104
-0.154861285723577
0.03379445419229514
0.9652138092708847
-0.22741999227939622
0.24511343611374664
-0.23888653009486255
-0.16841285224629957
-0.2044697664738156
-0.28108849345065423
0.1710455820886916
0.09598707994165442
0.2593797403768494
-0.24150706844984435
0.32703378818722806
-0.3204218078845083
-0.6068947198095188
-0.12891587294864915
-0.11077200619341492
-0.5144028816863457
-0.09735838580351494
-0.20171601194372382
-0.4976413160605861
-0.031035636557569482
0.44883528182412163
-0.09903205378156096
0.188414591544141
-0.2552888573815468
-0.35927180625471505
0.2418369430585678
0.052504289056048
-0.10079016290789504
-0.5514231352317157
-0.38741424339176783
0.4558621399977354
-0.1661530013995837
-0.04105462327917981
0.7421756641733858
0.15665435367545288
-0.3093817534968328
-0.3695632376264613
-0.18182466776958597
-0.41733714978265657
-0.3860254604840399
-0.18253023038953506
-0.706194032624238
-0.1928865466093483
0.7654040024842641
0.09368873558329233
-0.5048501254977835
0.034754876448704404
-0.24528547153297714
-0.2717174186859507
0.2907309193088982
0.21647363695202615
-0.02600874108278456
0.12797966633695979
0.18583300598790622
0.4434178252433594
0.08551025415736273
-0.3121698615796499
0.734730169721114
0.03379590165620349
-0.12153844520303486
0.1972969070806207
-0.5277762267101029
-0.24707682680247536
0.1977402477708586
0.8733227299805402
-0.5316552139875809
0.30169480639600943
0.08308311828757671
0.02770932987370098
0.23164866376844087
-0.668993426154267
-0.4133787516190442
0.03319548974976229
-0.18370103899121618
-0.13128633697142317
0.24590832412854158
-0.1422294636959994
0.12997154860870272
-0.33725608356772635
0.2152814156898578
0.25303895514075136
-0.06362898133243607
-0.5190247853756486
0.6007594258118205
-0.09268794092721525
-0.10055857671585927
0.5105739948993885
0.14027098243253733
-0.010037651064590043
-0.11173330605343464
0.0029165316751727267
0.5370937511618668
-0.3260068154357885
0.19952778408645186
0.2118116597386024
-0.3131990885996409
0.5479009985718382
-0.6048694664388871
-0.07605882420745631
-0.16486011484192098
-0.6935674783599363
0.045640562228964086
-0.024854685321774338
0.502371062616324
-0.06210293805306034
-0.11940404409035617
-0.14117454501325594
-0.5968767274892034
-0.10899186666751043
0.4285880235063812
-0.7647038671599821
0.919087044628724
-0.2698588354330726
0.2718251922208486
-0.1808440659796385
0.3986223898449373
0.8015265339453139
0.7739723480667746
0.019274483720109876
-0.10535793481234897
-0.4807559180613316
0.09552220534931881
-0.43635582362904163
-0.038284276011325585
0.1677132628693192
-0.04636360368877557
-0.09113537003660403
-0.09438835693314356
-0.5979878031819471
-0.5361631843976182
0.160330206118365
-0.215894589803874
0.5875265696492348
-0.5182237924154666
0.7392051325722436
0.0547669943844236
-0.034905751930523116
0.4123270987505461
0.08182768621239365
0.38042914922818083
0.2549841975844772
-0.10050689648695493
0.23418028320994877
-0.39949300238082047
-0.09906336635003248
0.5719682159383626
-0.12685855719857694
0.6364453034430501
-0.018397344785303117
0.4928004817902747
0.4013486982654005
-0.12074565777310861
-0.19782841233407372
0.4159022316275147
0.20805955430447687
0.3717001600278439
-0.04144992033629816
-0.2049397252011125
-0.16669253341779372
-0.12590756400501288
-0.25356807315203383
-0.1766316015590523
0.10172440990809106
0.31467308045835923
-0.6092054255256193
0.013194889345736772
0.8796999193255802
0.4154425918353666
0.47692666484852214
0.4218840688674901
0.2183511032877854
-0.46453517534998207
0.06318307349467606
-0.23156488597644834
0.6892660037781262
-0.03070967137762582
-0.09979135284855932
0.22832960390625678
0.3511109929115048
0.5687934834306602
-0.1347852844799531
0.21534855491556265
0.012438519239852511
0.07117533240243203
-0.2523091189708292
-0.07681555402807565
0.023352791138545718
0.696210364021909
-0.04991269934216627
-0.3186852017905532
0.22761335586128703
-0.4735783005824012
-0.20831966655925854
-0.7950868448123734
0.24127500521878786
-0.5193503409411826
-0.19070499094860227
0.45784592499807997
-0.5531572709940985
-0.09165607329197356
0.5729006921060906
-0.003648388451593468
-0.2142696314840217
0.01951980038576345
0.33556766872909755
-0.3125169843016388
0.25530402429516397
-0.5837886362765636
-0.6588078296861194
0.7559585706729226
0.010917222843258115
-0.34375287139740257
-0.21710863786637502
0.35578733793970263
0.7176864282210014
-0.008163496526507299
-0.24123316493271138
-0.010391961194729968
-0.3138577363632186
0.20199762846710723
0.2676538506244737
0.33427130000286814
-0.2299830288539222
-0.22916128873423997
0.29604227128540495
-0.6877503968882116
-0.14734254283334478
0.2525646731536969
0.28136256292115086
0.060393342987097066
-0.5217398014284986
-0.25466658518885155
-0.27271668743956984
-0.2155782814658862
0.16762147898179064
-0.04778584965283938
-0.45054446465592024
0.7572356742541693
-0.0346654907236533
-0.727554016684126
-0.6369677714173425
-0.2790148990568017
-0.23037813314309782
-0.6344088517161851
-0.4137709587055883
0.35077757117630765
0.6176080236540401
0.7001494561838785
-0.12951579746709804
-0.5483088605013937
-0.02992480255908773
0.148789319748573
-0.06442344137430665
-0.5867214511031194
-0.06770736995576557
0.09528769848426004
0.5242880402034207
-0.32580755022263425
0.6003490633244803
-0.2992262671664788
-0.0775087761817468
0.08029980629145264
-0.27293543496357453
0.05287474278921609
-0.14405156023796842
-0.019616732048466645
0.09889941243912022
-0.1854746793871654
-0.481215065317481
-0.688202343717404
-0.1526817896201988
-0.39409446780740925
0.6572300745725277
0.025328458867932283
0.14011113721214943
0.12304596683765265
-0.6297919043093392
-0.6523394312365906
0.3153514337959999
0.03583044572207256
-0.03774922076331053
-0.08958549844184631
0.22217698638963357
0.03703579244861229
0.07914892165228511
0.7536420500113278
-0.4010137476701648
0.30385161855466497
0.401749302744702
-0.8755276122799446
0.21584784353840625
-0.48882400883187543
-0.367080490757618
0.5273414912438494
0.3515012496676895
0.7564254640993462
-0.5357499014346097
0.6397504629284273
0.3699362613442249
-0.6387874155586336
0.6001980653176733
0.3152953899305347
0.4395064011782313
0.40514573474383553
0.2092325441431258
0.23752175846704005
-0.23964381030944407
-0.06148475565578979
-0.2679869211818575
-0.1821206636880063
-0.3620149261479095
-0.2202470451526279
-0.3762830762659246
0.2154612401247308
-0.149746511314941
0.14128809341621557
-0.27041651141231243
-0.059928224407358476
0.054064825732203
-0.24973717852012348
-0.046801591702720746
-0.22905623341794498
0.32013231069625286
-0.06313525885516247
-0.6884937902020525
-0.6026593513992484
-0.1946417247776156
0.22519523837458572
0.23246448852779752
-0.1099622279344369
-0.31502460788798625
0.3042458907225338
0.39660959991651396
0.3380906057429134
-0.01931250191318321
0.369668517572985
0.032230021874939334
0.6310324419964861
0.002206815956714839
0.2945508714801788
0.12302256333655856
-0.5492850955239924
-0.255438709036518
-0.13788036884324023
-0.1500271452378213
-0.11538100425771948
-0.4996215234325157
0.06099478332568212
-0.6375637929356391
-0.37267621736800405
-0.02272873730772163
0.02943289285744306
-0.0026449096891199126
0.4677094713235476
0.24137484239859533
0.6297795089094619
-0.1904488246989529
-0.38922028095212563
-0.13031002082829043
-0.25314384351521985
0.09083666018100708
0.14070748598493907
-0.5926771581488148
-0.27214896038893527
0.47843420246162205
-0.04439445255689665
-0.44635775726225413
-0.6832506795047847
0.020523119071063113
-0.15191176769076292
0.0970616705891235
0.3261534589985917
-0.005194992676036827
-0.1490562574668037
-0.6024708652272971
0.3323586335689177
0.43933700202098763
0.5890812112664985
0.3896208823507806
0.8368709240490794
-0.39093760079469647
-0.20415504341481736
-0.829810997813113
0.4369511343904533
0.0799293098082533
0.10510764448348639
0.2667592593411454
-0.4357025688702889
-0.3484167320181938
0.5743777509370016
-0.1865814872821369
-0.30974593710944914
-0.36817431533738537
-0.37428106808949924
-0.013526726232735273
0.11732449119926128
0.46786295762015545
-0.212784319880394
0.9742586544358272
0.3695505913863554
-0.16237595975334995
-0.6986890037412902
0.021667376859743764
0.6902861463305836
-0.34367502031618447
0.1016664535656801
0.27532707467828654
0.18877666154196812
-0.49561889209039245
-0.13981653927953644
0.20396872152856604
0.36678129828917483
-0.6380882345662521
0.24175552597796232
0.5456822021442731
0.4188092559632583
0.45090417267650734
0.21839539806159408
0.3708072173973355
0.337633985151016
0.049101980844022945
0.26358800957893874
0.4143566620459962
-0.30739338615730505
-0.1947620940558805
-0.12152817141067247
-0.5701254806393443
0.4457776636929172
-0.43020881513165654
0.18953140588329415
-0.03356009492182378
0.024400613558639504
0.03735441466199031
-0.059692656256945156
-0.028747483776674153
-0.27229390411299004
-0.03850825209820595
0.15827028015605446
-0.061199946626404156
0.18727951481203647
0.4885838887990551
-0.5695880810183183
-0.23085887106285166
-0.5823251171115017
-0.054419865479866346
-0.15938462372653903
-0.5528488146142588
0.1523568629252198
-0.1484186988782431
-0.20003938411556435
0.5471904042490694
-0.522817325593186
0.21026468860536976
-0.9331696459038664
-0.27894655014162434
-0.30014023219343616
0.02683217617273267
0.4389572411689848
-0.16374004650778348
-0.28654123125743636
-0.8104067349527161
-0.049909751811226304
-0.2572747307889276
0.25253255991160195
0.14443881934958855
-0.4672480809973744
0.0038206169045812153
-0.1396990506635911
0.713577081404608
-0.3527480854049315
-0.030194230049880214
0.5349663639441734
0.2018617839197289
0.5563200628962454
0.16450150297371202
0.41292824134516903
-0.05437255293295828
0.3953727149074426
-0.15892180649462445
-0.16880197125378302
-0.10789893720170159
-0.08981456111042808
-0.35258379201784734
0.23096667025836926
-0.7308267173526449
0.5154416093802041
-0.03100011507165858
0.12665172207562914
0.23338856013756382
0.7297469142952157
-0.07098057399528915
-0.4517248689068579
-0.11984879041501417
-0.02742280298944617
-0.7424283001792841
-0.6011639582244409
0.1699115394354007
-0.5078208069149125
-0.44994002116851195
0.2400089171107917
-0.07608831377920841
-0.05029393494574531
0.4798926576559706
-0.07828643064517611
0.06152560187580175
0.1281671413989513
-0.37223797642518475
0.6020157056342296
-0.3482309875661545
-0.31640153544854765
0.13525211044453667
-0.1598539621141572
-0.43108227789552184
0.01788960660554151
0.3299939993316079
-0.22913945971287514
-0.31509701074299895
-0.18886523724338258
-0.18686367096728485
0.18946428631315915
0.11837410089857017
-0.7743847865808648
0.6100118650736858
-0.8041192964498615
-0.3676499717113304
-0.044135096045386804
0.43472535684267094
-0.13026644236605164
-0.6595756551595162
-0.37014079227724567
-0.27128989820230043
-0.6977041189228249
0.0986696077917889
-0.15299976480989033
0.7305407042614949
-0.05161471120308294
-0.21608503665659656
-0.42726287700824633
-0.14989310744817702
-0.16451776115559597
0.19548687376902038
0.37548283964833223
-0.399230522146191
0.0058261413530772905
-0.27236454247931846
-0.6831468542044015
0.2546741906973051
-0.3116466624376217
0.1985502059095085
-0.04684785734459215
0.5811032906036224
0.21072551865314146
-0.13298071133058612
0.3604335794747099
0.38147151218733394
-0.28880298013746536
-0.5158133494357965
0.010573012968182388
-0.19632641899933692
0.0653564181437143
-0.1423744082018911
0.7214500105903802
0.11492615248672756
0.2445908278769634
0.3362529932857435
-0.1863705627536394
-0.05270329654132101
0.33743431364342036
-0.1982803473776263
0.11167675109177642
0.13501120196601019
0.1979654120113893
0.5969916512505409
0.6732563776998327
0.26540698890831377
0.06459459182201652
0.5380757753714588
-0.2660486626480952
-0.2946697043508106
0.039742423696755964
0.3959241827225636
-0.3524966425414017
0.4702913428235708
-0.35610770164850414
0.2927492493176797
0.18826850201720688
0.2373155214617377
0.01037310479510913
0.036411671256527
0.2856666122617077
0.02081076946407713
0.3531103406295138
0.2668338047959818
0.2526080052552175
0.00047530253387057365
0.24581063251860502
0.5009236609721416
-0.10186292805482017
0.35710388889803096
0.07363626323120492
-0.03877015962072545
0.06935917154221315
-0.44257970765970706
-0.10926422485976327
0.1414650430935177
-0.2721349140154989
0.35067788880082623
0.1823927326174694
0.44631071791727533
0.06072919678514401
0.5048040612171963
-0.43320360163954935
0.11838220672044947
0.03840255487855
-0.309135369632284
0.07119877418451975
0.07627545661972691
0.33500355863760123
-0.36900931961879496
0.8318568003793506
-0.5893626311299321
0.14822794398691871
-0.10027731421689023
-0.14248065940534618
-0.3728366631987674
-0.5166686358118786
0.05469391411657328
0.09980142999028412
0.04255857909247258
-0.3056547881895908
0.12023443930763113
-0.06797780951695068
-0.1916708523868683
0.06433500110271965
-0.3745067599473959
0.2638205278033763
0.4049005333125194
-0.01682128477205225
0.060355468068627655
-0.39140567115176633
-0.1745590069721485
0.3617474862732289
0.4560592954677743
0.40613240535596123
0.09102440264086453
-0.6259459017674339
-0.18591664310568276
0.0431276648736221
0.2417504088975865
-0.7466973329407426
0.22553523414886115
-0.09749945930451764
-0.06694805500080887
-0.7865599005491728
0.3004586013572769
-0.3653067196098121
-0.17716323281747834
-0.49059564918471443
-0.38692086090738154
0.020456564615189028
-0.04742458884048538
-0.26640115699283284
-0.016365340806715964
-0.03886555819415587
0.4214981502001917
-0.4261866669112457
0.3132283890847416
0.023510857746312477
-0.28858475753082136
0.5633166090000766
-0.7178396349127036
0.08633077880110657
0.5129099254394321
0.01758794026091421
-0.6180756470287573
-0.027435146647581912
0.03428638603819947
-0.15811539544737588
0.24610563894325363
-0.021404828476040798
-1.1028065667467357
0.031060872773736554
-0.4470923066698158
-0.2818196457055723
0.32347197889815643
-0.643603549051536
-0.13269114572982704
-0.2229487199268215
0.04740849681906106
0.2859854097875143
-0.04748556930604633
-0.21859439782825119
-0.32542439811876794
-0.36188084969190265
-0.15040270730473776
0.5074350884657235
-0.6291527535718022
-0.21537759970284437
0.24231109312748536
-0.5752065503104306
-0.8621200982444366
-0.45503917315317277
0.2524097584713756
-0.28546149313028946
-0.4059407575256259
-0.5012192120522736
-0.7527433626075671
0.3306413722209794
0.07231266200652356
0.1265020417773332
0.024933904600540083
-0.3058955031452846
-0.41902225023912804
0.29902549953708185
-0.3959015866817571
-0.29022121464943185
-0.04179771398128299
-0.2695091082514362
0.02591624148989344
-0.0893713207242466
0.0856476239914511
0.6214786892722353
-0.48201274464378085
0.8887293844499508
-0.5032881297407773
-0.0049600332185594145
-0.1943020253049023
0.21872836096443082
0.026758025975574046
0.30064663070231473
-0.09588373456348463
0.4964636405095477
0.2664060073685124
0.02602237029647685
-0.12850318756555879
0.11709188784496809
0.34614401338047657
-0.536600038905027
0.2183623626594953
-0.017338922094484222
-0.08151102778222134
0.36131661864498316
-0.29769218507240003
0.42727674092261336
0.2676479986770748
0.5688408664432669
0.15245022808224173
0.1519750073570861
-0.32367555801548564
-0.8621658935209242
-0.1920275212877113
0.12976863246447343
-0.4029641807445728
-0.09043600020209246
-0.1150108831842262
-0.34682093979817447
0.6657981672754847
-0.35368259526059387
0.35932554504980985
0.09354813677428489
0.16578964168660357
0.3594580410143744
0.07518936299727692
-0.3602737025725671
-0.34028155882028044
0.11777779566862548
0.47956729893245836
-0.43330163551994827
-0.5081142298478741
-0.6122775394304852
0.2570619981726678
-0.4114818647724001
0.4475087975714881
-0.11045162617752637
0.22617387112330745
-0.7004779297468973
-0.11599039443107872
-0.41940636958736255
0.04182071543380465
-0.137975941022546
-0.1726078735006846
0.0902188794040453
-0.957557433177419
-0.502215804257782
-0.6148408814808795
-0.1728877765885475
0.9371505815907046
-0.13910694006737884
0.576520796045639
-0.7351295828819071
0.2678260960696905
-0.014704468794903974
-0.06615566141299618
0.03869435046728726
-0.29186848385349806
0.2469306253211865
-0.011617149394564364
0.12764279446454443
0.05481895101301496
0.3632143173470821
0.4350921853855703
-0.2622632178813863
-0.2086344016687811
-0.40777948079831633
-0.3453077887905015
0.020980237027361088
-0.09751998076772588
-0.3682339292504823
-0.25795202112817417
-0.021561371735287292
0.4545328763577884
-0.3420544139771565
0.5200374654991666
-0.08170700112015411
-0.33916780230673754
0.548768937400241
0.23907111114019464
-0.5372769785379246
-0.12355957263809286
0.11334875664684539
-0.3612019339380247
0.13756313128283945
-0.4660121226736412
-0.19119121458309135
-0.5474188721342437
-0.4534834141274864
-0.1662299828508504
0.3705767972818538
-0.17549136778732707
-0.23964550817596697
0.00868555546643104
0.2987515707251846
-0.12575186778919928
0.276825290534332
-0.25015741340049485
-0.3115958177836283
-0.37981330312643813
0.3645406274674673
0.2255382523778117
0.23361441868542124
0.37011257829429334
0.023970315731858767
-0.32770473332451583
-0.7374555091093018
-0.26850366549941806
0.30892700070295437
0.27858311884922776
-0.22973372274768636
-0.05532646092138052
0.1282666943665626
-0.10413543487116995
0.07006474889617505
-0.1254980892352687
-0.8027249963613405
0.3271820179242391
0.07497053779317416
-0.011849548476378783
-0.3631117897141451
-0.17307732088263128
0.16449721449358212
0.21335428380301075
-0.7097588092214938
-0.39550744328860526
0.3583887845291203
-0.0772589382723856
0.09659835017628593
-0.3598647872505239
0.8343794639618874
-0.06553453089450516
-0.6564165607783031
0.045368527794297786
-0.06611611502563931
0.18537970358926764
-0.15203802024110882
-0.14349479287373226
0.17006463868728797
-0.43502258410285105
-0.2669699151969831
0.16747676414440846
0.5854146705984745
0.5694513541775174
-0.27587787566353694
0.5483692651850522
0.2765845493635688
-0.5295462011558297
0.4762888469839532
0.0016671676943378678
0.739111774856515
0.5376542902121969
0.34787105889061537
-0.5030618774053487
0.7319450351654779
0.3520666147710896
-0.4248859247885775
-0.22738066543491292
-0.4071800278184586
-0.07133196269215236
-0.10556556632628408
0.4501393852475395
0.22989612536777462
0.16591648758533778
0.4514456692606634
0.19148240126081126
0.488427965873845
0.7305131139652612
-0.7724894965396595
0.14908888721057198
0.01128200163651904
0.2867865876850938
-0.23748606196234506
0.3832935460719431
-0.32631911120255297
-0.33076334069258956
0.00895318414357054
-0.024094385454979658
0.16361851625787438
-0.3124373420600589
0.5144745235696387
-0.4553031545952264
0.1371052421284338
-0.3288248293430473
0.08261263950269371
0.21252784391295146
-0.2296164226895054
0.4580069928142743
0.7232841370312257
-0.28233765743983175
0.05352594624063665
-0.13684584105571865
-0.13957251553192826
-0.004771043735757696
0.2806737142352242
-0.7967363518988911
0.043072373094218123
0.299521143538021
0.27816131477995815
0.4398003224753691
0.8392972636546766
-0.16031410187696446
0.4739027337565617
0.09493442200136089
0.22856970372221985
-0.3672186177153388
0.4296134497617056
-0.8243671960200832
0.6867570870182738
0.5497715862578955
-0.12597139280325667
-0.3504294741091646
0.26614806192429025
0.09338198983251648
-0.26909698894093803
-0.08974494216702643
0.5619218349596128
0.4658473158800807
0.3997460202271399
-0.675355685978341
0.5462277122500514
-0.3650499853357634
0.23192961191075637
-0.05732618410486949
-0.08507970225869298
-0.28418260156470915
0.33972855583581096
0.3529106584233329
-0.2595056671416841
-0.5604666116985102
-0.1447460811568157
-0.5888590373062852
-0.360141335729931
0.40523269998867795
0.6936406991580935
-0.24629052061654164
0.35650448166291293
0.7538640830496306
0.40032127834712306
0.3442790709524255
0.0550271285185939
-0.23691301249444863
-0.11784168989099898
0.2988191482752357
-0.2743429858107252
0.5582795879500682
0.06192927439036079
-0.1841206479709801
0.3924990589426415
0.15317208735061474
0.25110333977664384
-0.004308243486378861
-0.345974027022656
-0.18984293326498078
-0.044606567172198394
0.1260448248839716
0.6129291890650115
0.5959545487472038
-0.2422428522879698
-0.7726300238320097
-0.30435831488554455
-0.4749106513521453
0.47553270504243533
-0.4471015521229862
0.14828624231945586
-0.36806161259857395
0.12948678223833085
-0.14939796422962676
0.5147160456628066
0.2661810670709351
-0.3080221332010495
-0.6007415435499021
0.2547384179466879
-0.2349519776990869
-0.7776363840298726
0.05243927579938299
0.14078513704833195
-0.45637871102080957
0.4796041940461944
0.04720591699851734
0.2876135047984855
-0.017029074452015073
-0.10430096700907228
-0.16453878885444967
0.5480066689854554
-0.14040600295364047
-0.07194401781784364
0.5589094085698476
0.45750201969587156
-0.017175983787829363
0.09557154826083729
0.2537644917750572
0.23744898513844184
0.06070212000080303
-0.30322763248129236
-0.7741613395213255
-0.5524436625280438
0.1783022164972731
-0.3219960225757214
0.13763570584664825
-0.12622057259977104
-0.4853982863952352
0.02865405033607773
-0.06947073176894034
-0.37798471941138534
0.6981247764490163
0.27147250133304673
0.39997540095630263
-0.34783428646310754
0.40459238500135103
-0.450191477094458
-0.14270048323230114
-0.8580724025082047
0.006929123965678591
0.459958086260506
0.1673858902583902
-0.5228498555112967
0.2938812460390032
0.4294376026681455
-0.41942546752085597
0.6726511307641421
0.3226506292109536
-0.19495678739674147
0.15582248183167885
-0.2880889731005158
-0.40765731026996793
-0.5487368978632207
-0.8249125331920001
0.26020412486483324
0.022264880262506108
-0.5619267468108976
0.6178807212948054
0.151689059420241
0.19355128351607165
0.28010575464222465
-0.38886891895894765
0.2750519812992202
-0.19710293497161507
-0.5565526425619027
0.43870702746401613
0.29153165755578886
-0.16858556472595235
0.010159607144207907
-0.3282289100948525
-0.015462854886968113
0.29164347010927794
-0.32950364739369076
-0.75344749166656
-0.36718415563196866
0.22663521898298764
-0.11280118288503532
-0.25806352412886996
-0.22036053426201224
0.0745474162984921
-0.5010128007528134
0.17331360600004309
-0.5200099369836675
-0.09490201398679896
-0.07107335597929038
-0.40438571802240764
-0.03672182179203025
-0.30084711206820464
0.11707005393418099
-0.04022729884291264
0.6879558467934165
0.32379953532230366
0.2749657294435196
0.5491870418896957
-0.3069297791391645
-0.49957439281673016
0.06434547737435016
0.0750389281662841
-0.24235403751535156
-0.017892687515403446
-0.37670248322989164
-0.07784237705682176
0.23548986697500343
0.17752454977116794
0.10824948781945823
0.25160887406567384
0.1599839178006734
0.3376115585915833
0.36405809291489544
0.08539567953070698
-0.15277512110945257
0.14737808587454201
-0.27998706319820477
0.6204536296584473
-0.20769721719979903
0.41223170598214
0.5881356418390618
-0.40643437152949
0.28805311287649493
0.6160251882713311
-0.33268555388380056
0.6457104293594705
0.14314076618920366
0.2371819138929251
-0.24893672419021187
-0.13846323485021372
-0.3486161418368558
0.23478803057620187
0.7115344459778058
0.4219424507381536
0.18977931513771065
-0.16300948734600698
0.19448186147743188
-0.5670775630289788
-0.4487110848232033
0.6487044576693455
-0.2688735915423275
-0.20799072334662935
-0.2596721946352536
-0.39675509056124236
-0.023553103518808793
0.1538101463551319
0.007203477988334401
0.634997732309693
0.27552518673395227
-0.19293235837911685
0.4366644960220817
-0.5642011715565632
-0.18043883884153303
-0.5514712613389775
0.6681919528822408
-0.23750729338142207
0.7853427768244909
0.38377084668541145
-0.020934617050116736
0.15977814635837
0.09327176925402564
-0.01592071290588253
-0.0779429437254962
0.5924734070362537
0.3108817582355601
-0.10029552677047371
0.2531562170560132
-0.09042149049202935
-0.2635407752157494
-0.5510245575960167
0.18916725294349448
0.2551197899332036
-0.11020382127265355
-0.6333456893477105
-0.5331357761018488
0.31491250551749406
0.24910164503707172
0.03264333141586057
0.29896906562297515
0.5636791840380059
0.4368418441466474
0.12698804857652307
-0.3926807967117692
0.7214738666238875
-0.13336472879900724
0.15625109639095106
-0.3775117318054092
-0.1749115470828619
-0.39337707771074565
0.08012824849060805
0.5404301568822091
-0.3957747073178755
-0.5139658720571287
0.4572550948541488
-0.09966805775621328
-0.08138710034202981
-0.07343036483611888
0.599872560040636
0.046040473401998516
-0.47488696335230685
-0.07783952446637975
-0.12329354443069288
-0.4695682729202593
-0.06173163106535386
-0.16970985934068142
-0.04084455068227103
-0.3462896803318523
0.7197294227284614
0.5907642451446812
-0.08698789212715241
0.14004491942981964
1.0668440217207158
-0.44377328585556314
0.10864954384059251
0.49945746257088247
-0.2784007416785262
-0.3593481550595022
0.21711924193452492
-0.1369318300083548
-0.2691130605883197
-0.545603153131265
-0.6770210366014993
0.013563717152836574
0.41156128372605755
0.29264472445150125
0.32091496516624857
0.18791048797383247
-0.2694571907775516
0.5296137844586721
-0.2650927214378627
-0.39396293747222605
-0.16017158583099697
0.6953651160010841
-0.2276320856902415
0.3227465368058265
-0.11049741464206524
0.522497455586213
0.01078034685015068
-0.4415850927394761
0.19286654228122432
-0.4308911393868904
0.06915554542346743
-0.04333829166560178
0.2760948410918161
-0.017182438391486282
-0.6789156098674934
0.36680816895916596
1.1040574455821097
-0.3151676299806298
0.17368184622302704
-0.26915757267399554
0.7697767577909093
0.6534489486294276
0.018362955952699076
-0.09685258990886288
0.018304130863792886
-0.32016719212146
0.11418969314626665
-0.23261251475858863
0.2944026925868377
0.33974826447900514
0.10235969933796236
-0.47975731326627413
0.1027547337282976
0.15562419411865838
-0.15204360134617786
0.1890019986006729
0.24903900341954935
0.5616970102427592
-0.009533011578843831
-0.14046857854314795
0.1618653116712794
-0.4003414519370953
-0.470049569181741
0.2374772534295545
-0.5257259840800782
-0.07311976517181258
0.17143767160326986
0.25268317676700414
0.4299704507544014
-0.28448515247132405
-0.27946054755116967
0.01051452255817579
0.13717050419932106
-0.386019854533259
-0.5850577466810389
0.27068100596527234
0.4584944032058361
-0.6116990713734939
0.5704140042186105
0.09891154198189853
-0.419364789671651
0.4273754909338805
-0.2725439983113929
-0.2962928916361302
-0.07144070420817686
0.1382397090078521
-0.16108252674526366
-0.24662579413869778
-0.22159702528541061
-0.783519354417432
-0.12515493180200252
0.30291050281899673
0.41905117260466634
0.0451797756424593
0.22062285209979993
0.2581286559664819
0.005496214251967299
-0.06095245640454665
0.16819845035773975
0.5389484746274541
0.5727850301543507
-0.4486920871374708
0.24446779884474995
-0.23663711744897684
-0.32032387201975937
-0.1350350636242379
0.8592107637584946
0.17770712629356697
0.19062975466816615
-0.25888143203313885
0.40459165324159196
-0.174287361852322
-0.11687795875808411
-0.3382545916350255
-0.5015963758394529
0.48937221915917006
0.059384331398512284
-0.636579804938829
0.3386904685899818
-0.23771075990530152
0.1623919561162653
0.045615565405574564
0.29413192655395526
0.09506326575729343
-0.13052655596878635
0.6432499580395186
0.4257326102866699
-0.04665328886539611
0.29442564575050933
0.1885482868790506
0.547274286960199
-0.5018983737858541
-0.30385021339301677
-0.01246081025651152
-0.39574810844696373
0.4161407207411898
0.5076508545914907
-0.7342888885125387
0.05192628733745686
-0.028355542664038346
0.06398924615432212
0.5190092174804393
-0.2715222992937208
-0.651928580119892
0.2629738244222271
0.28357861823107067
0.20683966335481085
-0.4484946022452046
-0.06814516618722959
0.2942351173972642
-0.1815749063832012
0.0805791808935321
0.03338472514138729
0.6774520607626415
0.1057367655728337
0.4026283874468862
-0.5632906554180063
0.4265982361204383
0.12793401061176443
-0.24691366800937486
0.18772181884312455
0.12442367075810196
1.0841307734462118
0.17475496747829153
-0.07993958878687694
-0.40202365252738115
0.08006134133690448
-0.18982152535905936
0.23261985917192912
0.1558202367837035
0.26828077718384513
-0.08356522221061469
-0.1640189371613138
0.07511848561727698
-0.3420390961749455
0.6898588681635556
0.013925445534269963
-0.1658039311069401
0.14653744532978627
0.5903368483465619
-0.09343109966231007
-0.5772167298640128
0.30930860751896966
0.017396280799563114
-0.08725586022946843
0.6355814005964392
-0.3915802565902794
-0.11649355266080069
0.05256736365515517
-0.0010880932035091818
0.6998975252538169
0.07652297878560527
0.2579942517668279
0.6212781965132744
0.18706769978965296
0.21325192154773404
0.0788848899653407
-0.3461310322247541
0.023484232058358052
0.2633056930415131
-0.5992001080822188
-0.19862389939716027
0.2738983258797117
-0.3400311323546725
-0.25052073050338003
-0.37201558417170266
0.3521188864153676
-0.15405707304872857
0.42256027854187794
0.32004762885665167
0.7963946143412649
0.09437951972919705
0.2681230221877121
0.028978051954627812
-0.25469169443352935
0.14872175973405174
0.5672411838481158
0.7261495255994944
0.06612880801504518
-0.20635874809377086
-0.38080610712442764
0.17958907769616766
0.5473796190430035
0.3518229516318377
-0.16189254033416348
-0.350202134746223
-0.6777168458750474
0.21490936599722568
0.1339183108657827
-0.16115904757971136
-0.10424044116714384
-0.48300754679532687
-0.22810428843950203
0.03151707692443031
0.3325504517350312
-0.22687289172986538
0.5027639847074988
-0.12671098550802734
0.2055479525103809
-0.2580260367301768
0.33666994026938674
0.6795992386654658
0.7843861112990828
0.6825067395737949
-0.6324748591679001
0.5519836393235654
0.14648592769112997
0.3187265083393483
0.37478139523119686
0.30364448427201013
0.0019246444502548808
-0.3355590516537381
-0.3351401766458869
-0.47552803080028605
0.19947566803747982
0.2494192917805669
0.34795991209633836
0.02359718619731336
-0.675375639726169
-0.19055437686713478
-0.11877160719651832
0.221399816616731
0.38233389852474853
-0.014323734434010556
0.5561084722249044
0.06937888152902955
0.2483549162561015
0.17866848581893327
0.2803580706219663
0.6972226147782653
-0.16687513844599489
-0.2822999408405099
-0.29578506141540895
-0.43262786810822684
-0.03338173138049776
0.47142023901386343
-0.5660464732113256
-0.321009391113929
0.005137247253012679
-0.42103428916809527
-0.39981827707547923
0.35536236255238096
0.031214111086621834
-0.16437850673417878
-0.25844251755914205
-0.4797764114225677
0.371868850815839
-0.20127753521456382
0.08489249433883858
0.43798540140023334
0.1730534653135353
0.30085726918518746
0.04656296876457708
0.4112310149898444
-0.005855544826656189
-0.2192565182375201
-0.048249248880221814
-0.3737116870506794
0.12729632762259321
-0.1551361984636396
0.1334911927958613
0.23207682147987307
-0.22645102755414778
0.6429873589266002
-0.2933638520943161
0.033216888466343526
0.06394318968866629
-0.013580919214654397
-0.6202933055268108
0.24916158543278416
-0.34596716676160694
-0.22657743801000124
-1.0496022713890323
0.5220894186573974
-0.20449004815393168
-0.029999426665617578
-0.4686472169367863
-0.12436882250358383
-0.4427064233733882
-0.04030874632329526
0.3738575491999928
-0.1641618428680147
0.5992796403271629
-0.5900215767220539
0.08070748260248416
0.050775922287597024
-0.196328447715196
0.08075411683884937
-0.3922096426897564
-0.017241651440283945
-0.26727643068293905
0.8542071350649098
0.18648212286349156
-0.2649346769225731
-0.26730903631130276
0.24439979307209253
-0.29064792318499144
-0.2507796068378114
0.22114834612200468
0.49721451770180924
-0.325568767693994
-0.007390657843723408
-0.36038431061406323
0.4748040524240367
0.18163068980412397
0.23339337904282487
0.830586092995953
-0.05846098689321319
0.2664349535589342
-0.013371652490085015
-0.28183067796140854
-0.12842872039935735
-0.20809249685447248
-0.3071549951895582
0.10530187584345936
-0.4542550926664882
0.38781982319914
-0.026453035082666932
0.06268216770029862
-0.22377754320792
-0.09074328994956375
0.009696311298669578
0.434474205854361
-0.40441784051938
0.24781843088329558
-0.3038181637899624
0.36193166355822437
0.18994348714923595
0.11854388314931928
0.48621528992861796
-0.34684232376869806
-0.2196231097291626
0.11380214306830394
-0.0850269188479727
-0.4760691657262235
-0.24022812912024694
-0.057328979006766735
-0.09340923879136534
0.038349725510432926
0.1684263805766569
-0.30199378016046874
-0.3690763103716814
-0.11706306590979981
-0.003925918308380658
-0.13695028153716787
0.3770484775350443
-0.12693102804694845
-0.0613899795495422
0.047838086215066855
0.3148252932427797
0.2943083982075247
-0.11741473303883036
0.4831271242210625
0.1268245389331838
-0.00426263013474907
-0.042413655785508875
-0.5290483918112309
-0.2171122395049279
4.817123211853981e-06
0.6027339930764486
0.2833717815920167
0.1930649565829382
-0.5591697918038976
-0.41254529480129504
0.21553456683251926
0.025434039833306606
-0.35366446654590034
0.08221371773986745
0.09492817037155878
-0.09002194416261634
-0.4488975513090674
0.5285886852496232
0.3573885041101958
-0.3203714289621673
-0.08136421492969201
-0.18756299876950921
-0.6772492732104736
0.2957289235446136
0.2491100814437696
0.4349154756394148
0.08136799793954276
-0.2024774686394163
0.07239066459773699
0.4961980519492525
0.3740394565176765
0.4285400234535188
0.2250143842631714
0.24068979585227668
0.1263643042882966
0.2982000110774485
0.06332913726112797
0.567673024733499
0.3165942239728968
0.5698550230719467
0.09116076699289245
-0.04367568797197404
0.21028701174719813
0.18064161391837236
0.40001565209829637
-0.007094746763516616
-0.0010928586722975236
0.0026610083985012024
0.2312042434971854
-0.4255197503026584
-0.7456205807292243
0.02251306383681648
0.18261971964354953
0.11431319088136008
0.3704708083685751
-0.022867848499896527
0.057853395401731254
-0.030704067256255217
0.39929724703444314
0.1386793040472142
-0.020661563171263123
0.4155412506094167
0.036384809660151854
-0.19696854875301634
-0.48884507497416485
-0.3743297253922584
-0.4354728949018693
0.6078314231923097
0.4975360424087474
-0.15442662870746768
-0.018708196388134
-0.04245529920818259
-0.19746947154686906
0.1629916227184383
0.18644083859315816
0.1846053478674842
-0.9546965543321911
0.486506307158583
-0.4946441205584336
-0.042917071364749856
-0.6894971427330454
0.02761019035398738
-0.8866786852217777
-0.5657069614710539
0.27128796099479296
0.009117801804861344
0.49737045425368315
-0.09327044052995222
0.07521876120599977
0.28952699347563937
0.0896427282383711
0.13995226572208874
0.08720658357144327
0.4670860668170228
-0.15548008489104428
-0.01720397951102658
0.1283979096097473
0.07024119465590152
-0.3842371265372628
0.040404616282340836
0.37281160402848007
-0.47503211830139436
-0.3876971384006133
0.24309836784789132
0.2619076628114095
-0.03528508836016321
0.18505145736706574
0.14650992638313826
0.19583670865087677
0.9057955410288161
-0.3202045863819813
0.4188268220684767
-0.2626464653908786
0.3033845439563321
-0.559066007215138
0.5170057094984463
-0.33527802989158545
0.22484137444634628
0.16776365160203796
0.16029158021107934
0.14951445530072427
-0.4384949551239031
-0.21136810913851053
-0.0208349141611539
-0.6861756516721348
-0.1592426227202992
0.024830225123902316
0.018323362168866243
-0.04969846307849642
-0.1787731675569887
0.42800844298042506
0.2710008523422962
0.2416359772264849
-0.0960944004414744
0.07400393973318978
-0.07523742506410527
0.0407648975974975
0.044276390652268086
0.656898407233473
-0.14632862764285312
0.4446796526113373
-0.7231706713677488
0.2628201486991662
0.30236947344469584
-0.6881105178597923
0.491902355188969
0.49760418867707856
-0.26782100055551833
-0.15052434074706467
0.6154565173015137
0.0659663242822446
0.7591049713673197
0.11690356499614299
-0.379621209428318
-0.00841065656373903
-0.6844378583623392
-0.19728598179501092
0.26676923442761696
-0.37779886420667885
-0.08261303406786541
0.8403550691327005
-0.2547727515781445
-0.39073905684150806
-0.28155568919048185
-0.0007957603228793558
0.017526072508339922
0.32140975091448537
-0.0019778276068016833
0.058277774057521416
0.09081571202733464
-0.3936552593560001
-0.13255781085253182
-0.11265703435089709
-0.4211066038910223
0.11736122816478577
0.36373103274914187
-0.2661225579117311
-0.3590440661590076
-1.0234143829032032
0.40260210085432135
-0.4844546257177257
0.41140162696019483
-0.3309141729019693
-0.005144694667097422
0.47455335769520207
-0.12038384947278405
0.26638504769796517
-0.2957844930826336
-0.1474057864936185
-0.3940195994014649
-0.3204091325518289
-0.3141471132890041
-0.6462703204242375
-0.5428315460233161
0.3978464804827768
-0.38636687198009
-0.04257673993606111
0.11614388009862361
0.004997280637636888
0.24723841825103948
0.14277353890426153
0.16151094728439463
0.6838725937603725
0.2448111193469946
-0.19631313436973738
-0.2594235202765385
-0.46176442801693024
-0.44818144332636706
0.1618046749813958
-0.22768692119698222
0.15400441026032577
-0.33479791230006145
-0.12515951581259332
0.44681180989011143
-0.05492285579276197
0.37571164164465914
0.21926836488692777
0.21344442706657055
0.22666984663148582
-0.44102798297836143
-0.40729900931668
0.46094033450867156
0.4759716633435116
-0.0358435228674548
0.41537209487964455
-0.24531862764151371
-0.022825675977372666
0.08116835549476183
0.023765279206588948
0.2931686595081919
-0.5070247847532047
-0.321105942175573
-0.1750225783930347
-0.10960369146802872
0.0750750130847048
0.3029388897666827
0.3598149327953466
0.1928331043022041
-0.050921685916759114
-0.34563903967010745
-0.16115431787760723
0.18580688609766488
-0.3468327205539176
-0.22119489177384055
-0.4513495597269878
0.2209167606485764
0.15187579607790422
0.19435699611348556
0.5755424555883493
-0.26286733809079876
0.018037186687892694
-0.2352118756414492
-0.27098230039503524
-0.30791192377790555
0.09807955038800105
-0.24117112209030803
-0.4928214983393073
-0.24170611636704883
0.22821723929900145
0.17583562779735556
0.23671495633133446
-0.05338873723758936
0.17887127770431274
0.33859161843093133
0.5183286422287903
0.411382277012762
-0.4547467314233578
0.47616185627739516
-0.18997808546077327
-0.6578590813405327
-0.5996484414267584
-0.2730577431674767
-0.14607462836354101
0.18718925772998019
-0.41451628086181824
-0.12041135540166119
-0.1857417173307079
0.34830794892245076
-0.332557201645251
0.46783713820975287
-0.4832422453749606
-0.30229921854377745
-0.2566520816666123
-0.04364400622322012
0.2820977595234301
-0.003610828543340322
-0.36936752903981895
-0.4596047017373368
0.6089306491127062
0.40249088185966947
-0.4274301748020055
-0.5126020101081724
-0.5275135046000878
-0.05766436598910384
0.2641731026719202
-0.02480480392801505
0.34482398767193057
0.5586822276591231
0.03466909449885651
0.2746956390600498
0.15146619654970098
-1.0130250112522974
-0.44516153602388964
-0.27488040221766785
-0.0010465291301991104
-0.2047672436158953
-0.28883754955037094
-0.5452864751022146
-0.24337663494055448
-0.0672657073633411
0.3734136553844893
-0.20075213859747182
-0.02761558804089406
0.1458457211654589
0.3569458321625984
-0.7642445631777753
-0.14474521176192806
-0.04553384584346256
0.24841176662670914
-0.10034371873366589
0.22832224235067045
0.0028201869614500586
0.2779987796141478
-0.05045236842579647
0.0012336949905824219
-0.4697664008416947
-0.3030582146246446
-0.37284293697463694
0.5371502575923415
-0.10374234898330355
-0.37190296782601395
0.041667406220377325
0.8678706106023666
-0.43684508485751233
-0.32108076922853296
0.4228288642465753
0.3102198292528923
0.5489421374296976
-0.19403339907395506
0.49474593063796535
-0.1679840827350654
-0.30947349041854855
-0.39448837269411047
0.7635105387320305
0.14927440180190327
-0.35946493132134516
-0.8079334819486931
0.024068569935239068
-0.2940838866854649
-0.33205795739022415
0.2579977819974799
0.6817639639063129
0.11925544653121106
0.08684470094778506
-0.23033954190706152
0.4291248595951955
-0.696828989964702
-0.7731426908356424
0.2775345682872472
-0.4536726939998287
-0.5465030510154937
-0.005057865208605645
0.2393296981104367
0.49038551705509553
0.5621709044986524
-0.042040928453392475
-0.26120325246760084
0.10555945803052945
0.11765168343362598
0.6298064611420053
0.043545113530190284
0.10680554437149643
0.8271726001407343
0.0056872292939449415
-0.14951807087573948
-0.2493238052420352
0.3886112514860219
0.48233629474680834
0.20267315438745737
-0.7288997059887481
0.2482460720531161
0.3729550802527271
0.073982989638821
-0.47025414476644134
0.3852704546380013
0.5865393130390295
-0.49468472581659245
-0.4391974561085497
-0.2713197590716914
0.3004816566455945
0.12446669481549835
0.044103485224761374
0.10544737358811755
-0.20866204396951582
-0.3556972034070618
0.37356593932345145
0.22261011349484872
-0.5903979918751635
0.13782435000224127
-0.4631404689925018
0.07250593424104343
-0.735810153407443
0.03618016923650663
-0.13517329413008713
-0.1874606221683546
-0.34035833944186344
0.1955686583795423
-0.03678767949300036
-0.16440386370562443
0.5563157503925642
-0.16023846613334775
-0.46124551739920094
-0.6387806558514435
-0.36796551703683317
-0.08105130927246947
0.13460105100799868
0.07713348182900112
-0.1215237175919351
0.044384544637797535
-0.4388837207603216
-0.3007600002006152
0.17832906462754775
0.3032679042868337
0.24015865689500465
0.1337867065061875
-0.6788539020850348
0.23510777969400398
0.12437964783034831
-0.08987402647567402
-0.6171599306244113
-0.3768199491982437
-0.45631901294583344
-0.09632549062026556
-0.1879104716614112
0.18110172945897468
-0.04201517208379137
0.5058627903720856
-0.12925157219091077
0.6621463732958814
0.4509400726159602
-0.056489462905938655
-0.23389916970252414
0.054233101395212494
0.3864430016243725
-0.1563508403199407
-0.223460135942604
-0.14046171855564113
-0.5948977362802754
-0.3045818239791063
0.8222615151641354
0.20201707658648174
0.8041406259856889
0.34157259904049236
0.18545791238010934
-0.6034275301230834
-0.6439743382053587
0.2689641729623391
0.37266558377470393
0.08928106255988696
-0.2206531712907458
-0.18963692346498187
0.5072835708978478
-0.2302683483098542
0.4140484185721354
0.24961646666226942
0.14852143294589978
-0.4688105070945919
0.38250122386651536
-0.6410538462540587
0.6086396440270089
0.320024251334619
0.12365081995066993
0.17880164641168605
-0.38147483742504884
0.5739835154969848
-0.31162602326135935
0.2253121706476407
0.6075408764621372
0.7234723179912753
-0.6071834408346805
0.14837515737823279
-0.027035222812276872
-0.34125368900465963
-0.16934086002036502
0.33505051233859373
0.2211428447926707
-0.09083245076419591
-0.1565190609989861
0.1185343024319362
-0.6355013942597247
-0.04458442492936104
-0.6719387833866309
0.8475211461441916
-0.315396189491078
0.5894144898077143
0.23524547724241826
-0.44030909494889603
-0.4672050590649404
0.00801361593422673
-0.8789456208654493
0.2534336224928708
0.183511901919881
0.20124862537961868
-0.32414907281668
-0.2985464205792761
0.5264379249701131
-0.5378393320635142
0.4550029789255657
0.7381626410925839
0.27218918435097156
0.30649359267810805
-0.49566401853478603
-0.2798953014379385
0.24268179881955962
0.47327976593052895
0.08584526670843128
0.169530829397585
0.10157023841284528
-0.07243921867879093
-0.18127381101347168
-0.030965802608226706
0.4885147835062067
0.3545920024556525
0.042743419528039305
0.18852175544739413
0.29825182497628755
0.12461465217673537
0.20641137742359925
-0.013231501123497098
-0.5683052922669902
-0.45347787119668304
-0.16035415508143985
-0.11221863746449211
0.18866372877151105
0.22037937989755313
0.30197741614772067
-0.11712426619556676
-0.426873232479872
-0.19559853673679062
-0.06733070252831677
0.22869289609766588
-0.5556262873036234
0.11547853936476916
0.507360985416907
0.06795244604475797
-0.012985067525751157
0.09269017362460556
0.6250121308218024
-0.20036036727942982
0.19783670713593918
-0.02521348857065501
0.44160132933378615
0.9393045686088496
-0.44994404035867364
-0.528543890359697
-0.27616364215496264
-0.057877849975925724
0.3609182612992261
-0.04996325022379384
0.09937487427285296
-0.8398500846275881
-0.5368587652325006
0.020767275197733744
0.2877384404837143
-0.11627070050913635
-0.560855846363235
0.15797562773619578
0.12401929040150515
0.5028335482063278
-0.4666588647108594
0.022273599109771124
-0.03994128569615295
0.4826407361286339
0.24131361619843603
-0.5090066522475546
-0.13675375710665297
-0.5330416391936255
-0.2895745099020619
-0.27072062253452794
-0.07042424007303236
-0.21672874375333667
0.22950282556194815
0.024355640112671214
-0.34768715928874666
-0.357878246428127
0.12243611991492837
-0.10288865223398662
0.6137868653250872
0.37906325705017274
-0.4930587921648282
0.4148852044173273
-0.21695442322279057
0.49154254558027205
-0.3968300397879645
0.44303149402956526
0.10007793873886232
-0.6849730186708886
0.573505663242735
-0.2646793931700499
0.09138753470249741
-0.14349091994682728
-0.3395753280636002
-0.39069256282993453
0.3211000677455405
-0.12688101759716064
0.1567249389445396
-0.22042913472476994
0.40403815089451706
-0.644627535926813
-0.21533162605640926
0.22049651420996177
0.14177922364371964
0.4514788167039223
0.586552044337968
-0.056237602627014
0.7664166059361697
0.2667500034045059
-0.3532784226861266
-0.5398116285856843
0.3958276917091564
-0.39347026466821455
0.5937792794413396
0.17251289917109613
0.15911283123385733
-0.08733606550866235
0.478483764921363
0.40121616766077567
-0.3616789341049526
0.13150647166821455
-0.5111183972256249
-0.2220186706659612
0.2065526499843788
0.5699576231495841
-0.5469732887366048
0.288839637837884
0.2644549000424946
0.49347109770378167
-0.567489128894775
-0.3870661948028155
0.24624193238364586
0.9641578009384015
-0.16844513774373185
-0.6397672358464229
-0.316621229888093
-0.17880936296707028
0.29281141305484476
0.25867472783501805
0.5256342763338131
0.39778066639135967
0.5914317873295646
0.29570391857039163
0.1952146579219089
-0.3560365338852263
0.15988842574466894
-0.3435549637732066
0.25672201443669895
0.2658542535092503
-0.11988522626111227
-0.39513886052292363
-0.4264601691286897
-0.05221396452917617
0.015632597795435844
-0.036169697685566056
-0.09123002159149234
-0.22393890408972472
-0.23179723736410757
-0.274669498599023
-0.32321781763979507
-0.08929771597356742
-0.5430030603354801
-0.26211831109871786
-0.07475720486562747
-0.6986567894385334
-0.21466657907893394
-0.005809060332476382
-0.6716278920803932
0.2383042927428089
0.905906156041312
-0.30630300562911683
-0.25508593299499227
-0.03065440847699508
0.0623038486355267
0.3979497370725473
-0.32185480546774525
0.7614424985616465
-0.7378330607817633
-0.46277783912614234
0.08043397225055778
-0.7793647216630137
-0.08009581021341675
-0.14909398497431767
0.43417210080807267
0.4277559492754742
0.08315500229547905
-0.5500720156345453
-0.5088602013328308
-0.21865498490602792
-0.5106997621428228
0.33893661861926855
-0.12665690102790497
0.618125596198263
0.15743882408535498
0.16251790082263837
