weights_cmbo
-0.03880729621687872
0.19637620792665944
0.2662176438688447
0.1814002177412519
-0.11795385698304339
0.2884515954692638
0.2855050666220374
0.24564522590316512
-0.20355012314826468
0.1661351452908276
0.13190291700429557
0.06542378778210753
0.6485358267615093
0.3570019127539042
0.12516200045403886
0.12850713429086008
-0.2442670632019596
0.44045244466976935
0.3874633530632386
0.17134768255196628
0.22430263326790204
-0.03388844325838568
0.09080832951872068
0.4931243628613747
-0.05043312927350671
-0.09133389386675601
-0.2394500606445506
-0.2872205529725055
-0.3668719166380776
0.19639763818393374
0.25455115201484285
-0.5895118477251352
0.2293700615201066
0.3014507080958358
-0.24149408516663243
0.39380033153423777
0.015696054898549913
0.004237419903885263
0.08045606775980907
0.20822354466638843
-0.6318046946319382
0.14363295877645724
-0.6137403209096874
0.1688308718252998
-0.4418907758187321
-0.009315241676599714
0.4155366502387756
-0.13541121914582216
-0.05685649649983667
0.1722944161261663
0.10907421585923512
-0.2499172704502573
0.06155250513668688
0.08698358066757744
-0.36774570678702856
0.39613208410615286
-0.3147151995106694
-0.4215853972625487
-0.4486660429419422
-0.07533766300278384
-0.31259038220064456
0.28952882982100825
-0.14693572987848094
0.5591195839719965
-0.026543364261327054
0.020159824295548717
-0.17189707287702743
-0.00733927436669778
-0.11785572876036132
0.4337469724940545
0.15319322759513
0.38222325095301996
0.055220265277749675
0.3686386353351031
0.18413897135943313
-0.23938272937115979
-0.2830989749501477
0.29250535830880847
-0.1429666161558562
-0.09826423233580343
-0.03722671093111372
0.08117222610104136
0.36917694735353007
0.17490021334191083
-0.014607642761375621
0.43962482627768756
-0.1021756759561313
0.4457090351369079
-0.003799745687134718
0.01352461799747897
-0.2855880188006331
-0.06406850408128573
0.19675405623407324
0.003567703907884378
-0.1739493620196317
0.1339173349463416
0.11933406551895659
0.36238294144016847
-0.3391896796323319
0.35383203947945746
0.16560665615357084
0.33953188521766586
0.24514536979927296
-0.054807965515080825
-0.042972388122425265
0.18257472212988973
0.008903105948593107
0.42442834617834185
0.26120532922194967
0.3380236990508194
0.04094083851025799
-0.03481271178798396
-0.1962952733082708
-0.5885494148719287
-0.034614799096429893
0.04588568220991021
-0.6822225380501411
0.11440312128310631
-0.31000352858069213
0.45669915572826986
-0.023093901715234046
0.3798900138181777
-0.2921374698895067
-0.2307430309101253
-0.11170732763027084
-0.3262551529769535
-0.47805861806990557
0.028130817329200915
0.4886227718240475
0.08413240936222081
0.1868407557201891
0.06195879187818899
0.31999893360531634
-0.1146350434519278
0.0591324171092687
-0.15691368338670714
-0.03266923518038136
-0.36405429735456274
0.06845289936163738
-0.21675877557841625
0.07008133602449296
0.45442164274828706
0.25597734322778287
0.2101577640115754
-0.7112781052409615
0.0008520299461671234
-0.643258623508067
-0.34239890890817315
0.2035626241404435
-0.11284851182998011
0.1778954062315972
0.09589130961558259
-0.3063643415715385
-0.3952123233651472
-0.06018451851729043
0.4471210791620807
0.3070707123154499
-0.15923991508936858
0.32156078635344354
0.053185854572399605
-0.3485553717790706
0.5334980243882248
-0.39122326915378525
0.4594398016221182
0.01789624716325703
-0.3445937194458396
0.03993636861973252
0.4790863314427911
-0.12376313486489149
0.16925951299363476
0.07196227920015039
-0.30941434896569836
0.04371182425864976
0.18526073582734742
0.17963101016640606
-0.05178871905120821
0.21013261407784709
0.2956474709117093
-0.2167398753961745
0.10441004458925152
0.24762398948726927
-0.07527238133813044
0.2253337061024096
-0.12602807888584394
0.44518961764084036
-0.22051166528715746
-0.35728824778212503
0.6939673271498278
-0.39915226742800275
-0.22277346507218018
0.11152779161349795
0.12425059174299552
0.17881944949779777
0.21080131270300154
-0.3690787334786244
-0.31307133601197096
-0.004728087461820542
-0.17894929464510378
0.26334225155046187
-0.2417034894716521
-0.182960406157412
0.027058629443210323
-0.05335653013034708
-0.22880640542218028
-0.4426227466318466
-0.33597270432930776
-0.037311479788726745
-0.3530136625879705
0.30374673646482997
0.5456098539739952
-0.09390558734029693
0.006087679035396471
0.0854966133625211
0.4184161045457311
0.16676483595229133
-0.024776119468775587
0.2316879676154769
-0.08655700598108111
-0.07572198934250714
-0.14290744019023968
0.36603348096754307
-0.11410840542330636
-0.046581573455049034
-0.3840377341150895
0.010854652511472612
0.03725025649868324
0.17692875090942484
-0.12031417634132585
0.208387552352284
-0.16176504102618103
0.2179929078782809
-0.450044115239171
0.18234371903101923
0.40408323163819004
0.3551515707584747
0.33869847579615
0.49171500611990554
0.12722310735523662
0.6048819612869317
-0.5600819192129335
-0.11612201633157763
0.2726955526264959
0.10194048112301957
-0.18405566754255026
0.4113736167900542
0.012564331970526458
0.29137780205329006
-0.02955134702400981
-0.13748650939400606
0.026416367082377653
-0.04513443786274977
-0.44941996636296533
-0.44398131920862344
0.11012491238756207
0.15918566808901366
-0.07561662484676794
-0.2460072485751607
0.1159671067656715
0.25959988089249136
-0.13194482937160348
-0.37918826660272326
-0.3353335395545272
0.1675859572051298
-0.39969240130267986
0.190381360333091
-0.4700919872265051
0.054424869656719846
-0.21940993129726938
0.17725560699107554
-0.029850839061524005
-0.3525862471916823
0.08778262186215613
-0.2494127650952729
0.40751679737558205
0.23522266678490972
0.33607225935350143
0.762333947269191
0.40399980912108835
0.2166828178313192
0.07116748733912477
-0.36467000172374103
0.40572681569981256
-0.11234597516846338
-0.1889538925379968
-0.19115630175329312
-0.21184446635983786
0.18315200732178064
0.08758196143599777
0.539553298840169
0.21660265686459826
0.21301946665372426
0.059800081817021004
0.01974793553806721
-0.21349342192767087
0.04906822766230648
0.31842384451448924
-0.24646433973194162
0.12128078869042493
-0.5619237460703629
-0.046950661774114506
0.32239739626908
0.5503104747473616
-0.24267993461096374
0.18896839049506914
0.024465205693363058
-0.1445706377646844
0.4933245660579431
0.10687122796985171
0.5637584113058606
0.24787967637554362
0.469037482193864
-0.040768706209482634
-0.13065763810169106
-0.2684959037917242
-0.5742167775469067
-0.09819142589014206
-0.012947738529451507
0.06847338978546647
0.12576250098443925
-0.22616739339182754
-0.11000083832783704
0.3711697348832432
0.33717019571136564
0.09486368597704048
-0.001655121153477076
-0.19881663963589827
0.18750883735576604
-0.43866536284438895
0.11128994317647932
-0.1917647153701519
-0.01396836813192114
-0.3610809045018656
0.3256196189040009
0.21740951428931457
-0.38670354707570787
0.24037439117082743
-0.04748221302729431
-0.2918466002271032
0.16658197449103165
0.005326449915127892
0.35341841547394837
-0.046469366526061144
-0.08002449821286943
-0.13976615235726422
-0.0713535307056435
-0.39773037370381775
0.30035687241072373
0.10055875978100955
-0.3304845785833492
-0.12349588818789466
-0.22864571800505415
0.4575279698897018
0.16853353114372924
-0.060161451863877086
0.17333049973515385
-0.2036109421774658
0.2751474019232964
-0.1567918714002142
0.2951454557853087
0.21873332625981076
0.2661982354699556
0.16108913733512242
0.1361218484092723
0.08734656371119277
0.16820387054986374
0.051536631117137355
0.031086087065860482
0.20109718065784563
-0.03080332407682099
0.6649824352398184
0.15359148377858747
-0.17139910767477415
0.29299956794914567
-0.14401987101209698
0.4043990452235084
-0.047290059641594155
0.05277694815279498
-0.363647741633217
-0.1599865742658475
0.21765217745304635
-0.37299233264082904
-0.32410064830073354
-0.13649316341315393
0.17898284716770543
-0.3593092475503819
0.4984426997961889
0.08873983960863742
0.06780188383139939
0.3478773009764795
-0.2428433136559545
0.40170912206516923
-0.28412476672194625
0.1189758433017583
-0.3497076305854329
-0.08047508675248484
-0.00921122969031595
-0.08733021674040915
-0.24658507108041466
-0.35177559085456966
-0.07770281236454812
-0.19754475828066492
-0.44693162952489107
0.017949541264945586
-0.2510518498524883
-0.09296647865201894
-0.03475007210910095
0.20543886395538294
0.10810399024386223
0.025218480714344675
0.05008001686791398
-0.012989985059226777
0.4316003173831916
-0.09134479192192795
-0.2516878368976769
0.002561324790357054
0.42286132091823075
0.20712254967619842
0.12358980713972782
-0.07808957522337202
-0.22648802855432254
-0.5642157885688915
-0.15205703828901374
0.20474588044972034
-0.17124716764575107
-0.06254512282815096
0.020312064671132744
0.11377438641927434
-0.029364517513741528
-0.06693829821724753
0.4407151976124848
-0.040372703527512564
0.09113641879639642
-0.33849255927806443
0.25252316174978323
-0.12211459788839851
-0.5639121524466069
-0.11790902545690078
-0.1599043496654584
-0.3845407927370951
-0.04699804151612918
0.2951311799420094
0.16883131781006477
0.014823214169890273
-0.21193918092032274
-0.35623039670791457
0.21235946607032002
-0.4121175216657169
-0.08930263677073513
0.02914454619281524
-0.4507680496544312
-0.1687724471445203
0.3411559360689857
-0.015121389289892767
-0.20143804549302427
0.18828566077116157
0.10877564619671043
0.674860856067797
0.1858486242849166
-0.06150277725603663
-0.0914845415283337
-0.8143630551771396
-0.02726072805342356
0.054666262582622735
0.10023989582344384
-0.36036605232870866
-0.05938182428964155
-0.505489121320024
-0.08745639081965471
-0.21631135375657815
0.05622648729407038
0.23534170917802485
0.13504706736867975
0.09524406393832203
-0.18866069798524077
0.022785286343055464
-0.08253666194823031
0.03988978184105863
0.4623033095963563
0.09541762387549281
-0.04359252339192797
0.1486510185793531
0.1971928672626692
0.15583715303277693
0.34345424418318204
0.30313676053295174
-0.33237971966954927
0.017124870651178972
-0.43889174217553156
0.055677631756152084
0.309508023489657
0.0017716480850662015
-0.20662225962488684
0.4080550261403037
0.10147077097472154
0.27777527011973574
0.3646800754262837
0.22199769479764875
-0.15264314635722318
-0.0381905164191275
-0.050911181753772225
-0.09915114025173101
0.3561635863527891
0.18339812919738013
-0.19752839108977985
0.24331578075265212
0.015218079551561176
-0.21991193311577628
0.24201691340730797
0.2138511427210734
0.2654512627547835
-0.2462179221061069
-0.2655219804711087
-0.3232981569049835
-0.08039800211868128
-0.03797743470781199
-0.20060480692310523
-0.1629926839762524
-0.5198828086432121
-0.3528497168996391
0.18994746734431428
0.07364056777749933
-0.47989460066648526
-0.17329067915639718
0.09485815507465105
-0.2441924275360993
-0.21276904893114837
-0.017775631999773268
-0.030113445162481683
0.12348271887985175
0.08909071465706836
0.546045763129076
0.04297966101901099
0.05575267018456358
0.15692863498685658
0.44795638913794056
-0.5598143718208349
0.09079663190716317
0.12806006773506454
0.13825198799788924
0.04204261470012121
0.03205131736267259
0.04399112701653925
0.12637569962990372
0.13173534801915032
-0.3590829893091911
-0.3832938739134341
0.37620891706438425
0.3201840044123502
-0.5710870778647675
0.008354170816668756
0.4903145251681866
0.22834876818067104
0.32796526890865235
-0.2575409799371325
0.3509493373283146
0.23061962857942783
0.49574875864474405
0.1129032871903012
0.7121529055717298
-0.07291374229696711
-0.033649856442500244
-0.3384653393677954
-0.19277420280341903
0.20061819831781214
-0.05464066326767894
-0.022033296771299053
0.0836074131497832
0.007621908930594276
0.23584286374887417
-0.15889363210890683
-0.06845666660645289
0.02212781536063639
-0.33490472572162977
-0.1990572048393765
0.051509624724896605
-0.18341195688974252
0.4606055367226391
-0.0420249585408981
0.3180182857252943
-0.0187106747457378
0.15466845349947447
-0.1637481181332816
-0.04288169340775906
-0.00549680393229611
0.11092104315331432
-0.23991058052841352
-0.2869595410895881
-0.5647894679519995
0.6329407249532261
0.48222279181657773
-0.09941364235898002
0.13122221429300968
0.07327032835415033
0.25318314303095707
-0.2736970966956374
-0.2127050824387704
0.07583467078543624
0.02252961427255763
-0.3669613265036839
0.01294268591496854
-0.014587926260128573
-0.44166828749245796
-0.019655908335363362
0.22006195643075574
-0.31018571614882845
-0.3073601919392313
0.17942646670541829
-0.16446981865872334
-0.13882377991496145
-0.052126241299495515
0.11078937899944497
0.003170840634024572
0.41441847049036545
-0.007630116998327902
0.6691346977191908
-0.3951527843804358
0.10160233793848385
-0.11702385797733209
0.40328827968725056
-0.2792430124057728
-0.0785940625990101
-0.038779026959809657
-0.1680679065544027
0.40390947049230375
0.02135639668357681
0.2650026493099308
0.4615133974674966
0.19427836717906596
0.17663784446667222
-0.12320017704852362
-0.05592982135458505
-0.38779929059490137
-0.5700724862469996
0.3632561021745654
0.27361446859951
0.4128283511729835
-0.503632003815366
0.08487399978650355
0.1605974957689221
0.21942694041893865
0.3855990205887677
-0.3312139779469524
0.08255739508869497
-0.1596254133544917
-0.1058839247978719
-0.26715177539681406
-0.28309327783583743
0.03158881122559826
0.3942142622850296
-0.1919351192519573
-0.4373031380600304
0.06198145546642135
-0.3858903061182171
0.2874755785395688
0.5107411010221906
-0.28267301130189965
-0.43789327117729876
0.12544685736588376
-0.41401611757883433
-0.29601489997906877
-0.3779162598359362
0.08656495063759213
-0.3539109078969783
0.3330069938837031
0.2514704741000407
0.04514829268222086
-0.13827217184880494
0.2810084977593247
0.11243181229725263
-0.08226979115728492
-0.04052954969455303
-0.18845770228272984
-0.00026880695698517217
-0.4125422577326463
-0.1280380189304002
0.13422370288263308
0.09076368324678542
0.33314385266751817
-0.23597627893895876
0.22444714948050629
0.22959220550018944
0.06809577347231002
0.12134947799549771
-0.029465934393052406
0.409500010780671
0.3434754614003161
0.1734985390044173
0.5036889136088469
-0.060838441645340906
-0.2875125761026255
0.15232729415804944
0.06408266046907841
0.2093877181142221
-0.1184040242713306
-0.039554672785693176
-0.07219596808122566
-0.5472819181470939
0.6880137196181008
0.05104374560496276
0.03719631515922291
0.052101660170656726
-0.0963116635096204
0.2820835951088846
0.4987147207483612
-0.4623501246432117
0.3182027466452498
-0.8927933686472407
0.19407068398887414
-0.06263082023319576
-0.2908947448156178
-0.015527688877065422
0.23607448891730975
0.031580524880787206
0.07158649365821237
0.2051778060128313
0.19958510731411305
-0.15098935195860996
-0.4837950140103622
-0.09927200173233171
-0.13826761265710397
0.2730758164191371
0.16294983816332956
0.23283196414123422
0.07763166748245605
-0.11423604185835891
-0.21372846478470467
-0.3878824498168713
0.32570009590407367
-0.18553531826391045
0.029426954474219613
-0.18865083941491112
0.4142267184171325
0.22794715566244003
0.1100669370574307
-0.18363491164822665
0.21159085337485395
-0.5658844211361439
-0.004876588522752612
0.20628161541471907
-0.49548593192357315
-0.0972795159583027
0.2107800213446974
-0.05873277795224134
-0.18974574349444506
0.00047070408208133306
0.3303350820545087
-0.09916881093908926
-0.08951378774950734
0.47719080354741794
0.017640391277060092
0.1682401762355548
0.1162794116207444
-0.2603326625773411
0.32941641682337897
0.0031732503014806263
-0.4733433089998411
0.2361325482071075
0.4731665309954979
0.44009905771407826
0.1087497617225654
-0.03284976890879145
-0.09517329255961608
0.07458492837241934
-0.169927076922386
0.008826800331744999
-0.11059699811142455
0.023993688653283135
-0.06325400546262244
0.2558919171505991
0.21054973726142487
0.0554176991739352
0.4459250331009018
-0.3192708877436457
-0.2024123100991381
0.0639700357660491
0.0027801997924982408
0.04416243322648076
0.059596526367593494
-0.1320276954024806
-0.07843967608754034
-0.03406330643923544
0.30516879692186294
-0.4292707393849894
0.07957926210263569
-0.43228765140752085
0.23366617925943015
0.3274639408852563
0.0350284850659452
0.3450532962303914
-0.16777494790525638
0.014552513315955405
-0.37039236415651405
0.2545956892077898
-0.27927219615200466
-0.4178225865830023
-0.3280227623434559
0.08345316433041731
-0.4359504369229556
0.051495938957785134
-0.1752011123475346
0.04326845420909871
0.11232122809523097
0.6319410897809464
0.16371667537553503
-0.06777075184675135
0.6056468242271139
-0.004115953950424115
0.08031817490272426
0.117840654778123
-0.2915781680891007
-0.2319709551495934
0.24155858803657623
0.29240969132613615
-0.050174104030899475
0.3513992850277434
0.31716090749718856
0.0035317089176766796
-0.005825888690983347
-0.01698961175033791
0.29935007179180617
-0.2940326440793302
0.39243510043378804
-0.09671014654354815
-0.3020736209556857
0.6638841996296013
-0.3711303853948771
0.04072858126276433
0.23472012557623237
0.21997793375005648
0.08167987427364852
-0.028281326808317225
-0.1544570886393694
-0.17941347584752065
0.18914577010143221
0.0818542192236996
-0.386375844946244
0.61714398546579
-0.08449033731258268
-0.2824379258506554
-0.05131008300588423
0.1225849766837291
0.17655759479197838
-0.08011310965628518
-0.0048443586370333774
-0.031044300608307672
0.486144983032288
-0.2566545908796804
0.022390352033278067
-0.4467778260348117
-0.2392766843265135
0.1483578050282043
0.1218468725298234
-0.004713034739120002
-0.12678573059947387
-0.11001418004335167
-0.06737089140719771
0.40666346686120786
-0.05378431139119753
-0.3311834266541152
0.42066388165434593
-0.16535711057012323
-0.02740972230331596
-0.03903033092093825
0.15271713418399532
-0.4338732600826021
-0.0015602269617278806
0.14426475612968484
-0.04600702001336274
0.05025802201401034
-0.13328281127719266
-0.11941707739782043
-0.06818519094893141
-0.383477370414449
0.37134940130732186
-0.08740479706546127
0.14110644498407135
-0.29737661734587784
0.07356317060045539
0.05030016180764133
-0.03570941151891146
0.15154260777564024
-0.36091223938954203
0.4736877131913701
0.15774478968351238
-0.06287933625441428
-0.20068232254463
-0.22025103274179683
0.385447979957776
0.00524392004339095
-0.03528141304679639
0.1875874068940534
-0.32836804634216804
-0.03298638341826823
0.17904447349799876
-0.02229368869271913
-0.0071317417570796685
0.24860332095596713
0.09897757598017012
-0.01706161435657286
0.04197735049597749
-0.12358674513902905
-0.017079671219912662
-0.43770261304091984
-0.38910929474186773
0.13078204519853584
-0.1800274928196123
0.22967539607032073
-0.2619309005154784
-0.21996211776088115
0.17992062258003924
-0.523512147548025
-0.056850819817182076
-0.25695226055771264
0.23939050685045263
0.21493966896362837
-0.396460069558365
0.5531208051133596
0.08218681416862395
0.2650220091629481
0.08965903645628429
-0.05235011613453852
0.38852506991425145
0.041493284230206345
0.23006610525805227
-0.353147251511912
0.348576494518727
-0.5340319672087785
-0.39067686455484846
0.21384672024137272
0.15437347044799865
0.12616518614626365
-0.0846205659729152
0.10703210296900885
-0.2727856724161659
-0.10122392894619103
0.2026914758425557
0.022995999098802424
-0.1040517020151898
-0.04194908279615054
0.028319406132132102
0.4020148762600541
-0.4021933336890658
0.15905747139499787
0.1069818991877115
0.3903142953321914
-0.35471992685562254
-0.06430913686711061
-0.6313217927269625
-0.0866905734046764
0.05980412057470997
0.16084749351807795
0.10508936873898687
-0.06888220292700731
-0.1558697734906568
0.29583484497646073
-0.20263252589865113
0.16770558452427908
-0.3126473182953021
-0.16840075502977034
-0.26855206339978
0.15263009760664714
-0.40078696739692266
-0.15513854302152996
0.19403226564230555
0.05034445508415707
-0.44690423372873467
0.25554142437758914
-0.37081227069731687
-0.028274952378198253
0.6809836067800237
0.3901922302881233
0.47127443403484764
-0.544124946709514
-0.17296274081441682
-0.022062658280473244
-0.06170997341689912
0.05836521312594293
-0.25772676794677796
-0.3616490951113476
-0.31915719657192393
-0.2381923512611995
0.16801630963898995
0.25720400277161065
-0.2242687001493861
-0.1484924262258479
0.006682537605251328
0.2244545832690374
-0.4185010850214884
-0.2404337419702816
-0.4711634499358063
-0.34604941765158276
-0.158965287338038
0.09462576197176882
0.18802797250982156
-0.026918558254208427
0.18245287056312853
-0.35671881855007864
-0.4475108669247498
0.10524172483482344
-0.5219721740396277
-0.21287770860303057
0.12561822696913222
-0.5161640134115524
0.36664319795240363
0.15817779183793915
0.14752593325789862
0.22892890532136456
-0.12434102467894229
-0.2047307789595131
0.08939758681371257
0.24664899732212422
-0.33450378210998694
-0.14113494407909033
0.19588525066609436
0.4862289958785822
0.054692328493677195
-0.4058537382050404
-0.18015221043698154
-0.05701201007884218
0.49552279050070874
-0.07586464422371884
0.08304368391281815
-0.11297553453102682
0.23300997627255027
0.1320070739166684
0.0716031953604377
-0.26376566547646924
0.2967307925954993
-0.20702373941558347
-0.26111461810499764
-0.2561626456348047
-0.37525727516702745
-0.34770708553125523
0.17288545624959245
0.05547305997786782
-0.14497717242289881
-0.18179207430918579
-0.4882847445005572
0.1153704447032626
0.4866977154374038
0.16846250635113572
0.29367456634412703
-0.09414620311467314
0.10940728392384065
0.15060899552498186
0.06884708677560517
-0.23176669526263602
-0.17547402074332807
0.17129575493924465
0.20805085140157334
-0.0038615906553267155
-0.012378871303602237
0.0822232686527592
-0.07040447555155792
-0.37242494811410104
0.1347819038332431
-0.19334657690645038
0.011820562933489204
0.5068044443136274
0.049417970679710994
-0.3594478395471031
0.040941700038378735
-0.3872595802668542
-0.5013744934409082
0.3837228222766306
-0.07768599853063989
0.024218532842339973
-0.12237695495613671
-0.33337981465801053
-0.42525063355764653
0.2677343222634328
-0.1415147829128566
0.18176943430142914
0.4095874269236254
-0.22316587405756366
-0.3873498083702808
0.11448938812790954
0.05051517930546583
-0.03744597994270534
-0.3844287762751417
0.578112448903508
-0.08577795626763265
-0.17686707036295318
0.07019631364892409
0.13118843139662698
-0.023348965815467908
-0.08952846054083766
0.37732950490228245
-0.12990371491357042
0.04152195701684599
0.2779161117620603
-0.3471079223423795
0.40107335428606117
-0.21695130924529937
-0.09230381982062448
-0.1068388612757758
-0.23277386153478002
-0.10247016900600114
-0.1565739702020707
0.09880595882935801
-0.12029454892946495
0.14672697018492695
0.12758975576270082
0.09486285348795716
-0.2792759317121054
0.22962259548205832
0.5383004047801714
0.258174159076765
0.3458988681698802
-0.2185548808825169
0.09469606722868486
0.04434405410284794
-0.5083512552686064
-0.13856067544313547
0.2421319864215021
0.0536041616242368
0.2161063642045246
0.06081901661882568
0.5692845749597839
-0.1621615505783971
0.023359232286683934
0.15919889138389343
-0.11049582795769874
0.2922301357535225
-0.4984972909924851
0.11321087286665847
-0.1916726527899188
-0.25427232209485445
0.5210528336606468
-0.06366259759706182
-0.12173710074411477
-0.6571940235011999
0.02240769272867755
-0.16066146646974624
-0.3644710120697519
0.42720515363471
0.22150795657739605
0.02787323303034065
0.3140990272270446
-0.22493878464881586
0.10295316542843826
-0.14778334088229791
0.036885125909825414
0.03397281584952093
0.0046698496727433725
0.13925390625832665
-0.19548991105990707
-0.4985484914457617
-0.23519961193950348
0.12457626555418248
-0.06095017605127882
0.30665241788429515
0.2140392531335255
-0.10886975260911234
0.02769451869765776
0.4388192917335788
0.14159581462842535
-0.5016187868465967
0.13934834519364736
0.01896377412501831
0.35219858936818077
0.11666551335177004
0.45307788408005295
-0.06738799420599353
-0.12764064724554056
-0.4076679163822122
-0.16147946857981108
0.3127885652585373
0.5272064011154252
0.2905226185410498
0.1732784390347082
-0.04109053713083335
0.32442523717848604
-0.045717218026598505
-0.04948778233671822
0.10360401776882697
-0.07989338886746368
-0.02034225677472532
0.09012655695765807
-0.24908897626999915
-0.22251065186107546
-0.2346391432836212
0.17476005233778766
-0.016755944190712697
-0.21095295292529664
0.1719483595144608
0.18739325173304233
0.18454568500328886
-0.21617125637979595
-0.5172706349321715
-0.23396744456888788
-0.09635337810187242
-0.5225224684170271
-0.06794980296266934
0.1399864305804373
-0.03916632293769031
-0.07107788281683948
0.07867833170698842
0.09542906217102833
-0.0476884592446819
0.07875174307794483
-0.2793388362255051
-0.2753119177042067
0.054771992934990806
0.2053819841692922
-0.4241752003009267
-0.08514043652082631
0.010589981958760177
-0.43047998126524406
-0.05782003603248019
-0.15861319391489076
0.4992122669200814
-0.17665226119307353
-0.42060795127612255
-0.4000596779462547
0.25046535097357353
-0.11318814581871979
0.15650410628004305
-0.03797680102409809
-0.3209953947968028
-0.3557623501353779
-0.10180057188190128
0.008336313274698977
0.31226755392023925
-0.18103722309335324
-0.22525094502221482
0.19247638396315322
-0.2479634099956094
-0.12409683529950856
0.23442544924528783
-0.16891042038207013
-0.5381347843144821
-0.022420988083941648
0.05343080970584334
-0.14902824142926183
0.443920961849375
0.18354537613249533
0.017163131841063838
-0.06211253504767944
0.06769811548727796
-0.3566677242867787
0.1991349348625061
0.16627143535450362
0.18045802788275792
0.6084056013867254
-0.563295559336998
0.10025025163281355
-0.31350301116099105
-0.33064034745905335
0.31288960349261397
0.5646515158718388
0.16954074117908474
-0.4127580786194905
-0.1380469711782342
0.3584020930000875
-0.44048142765198683
0.3589523845600515
0.20550999406185066
0.023358436708268517
-0.3005855575940845
-0.35957667056541565
0.26050038085344596
-0.03538547460298231
-0.131202936949683
-0.12102675418467997
-0.08265547547370428
-0.18060420442532937
0.2635609381739833
0.020464127420259735
-0.0043979289193758824
0.008755758930540217
-0.4186100749028551
-0.4226157764493572
-0.4243427204962803
-0.03950055664367691
-0.2621191140012838
0.41533360884783077
-0.1790776646056912
0.09543452379618994
0.4860617532274987
0.021034305680188804
-0.25955530517812536
0.3700622592647456
-0.12430278614953484
0.21782120012604425
-0.07579370660329832
0.19095857498478658
-0.14722953033551942
0.00882342341431324
0.34230031809392736
-0.12078791048728887
0.7257183945084859
-0.23661376577783155
-0.15849043089818238
0.18417684882205437
0.15557837385471504
-0.5243630127101957
0.02465439652959537
-0.08417827489590882
0.2616120892011493
0.032326651981172766
0.33759735175750105
-0.11517348992244937
0.061751317538733794
0.008142434737155948
-0.1457507184550691
0.6259023959876086
-0.5639226337753968
0.44849872969668847
-0.05661430721043487
-0.6041291531640086
-0.2330446852380947
-0.18592370758949076
-0.11058336085296001
-0.018331148290165317
0.4885667018763296
0.18601367161058052
0.010543870887378343
-0.14306945419684017
0.02957292985256484
0.27952929748499433
0.012496328931355405
0.29843488332651413
0.027551809931451416
-0.4255865893833501
-0.1997812948559499
0.2900442999151064
0.2266153191634682
0.16190192368099648
-0.08710247809788656
-0.13605608907202885
0.3721305829047386
-0.18681030792112252
-0.0745848548319471
-0.24035325170547084
-0.43937099918454475
0.2271459297686016
0.12598114410728703
-0.6455237711065125
0.32452178882386995
-0.02855403850591558
0.4061843834816258
0.07865833066822647
0.036663991605425356
0.18627190203115904
0.21951661445455248
0.1467335522068404
0.3011573497278521
-0.044140406701255235
-0.20109465163413692
0.06149343481132209
-0.5544699850853951
0.21728611754068858
0.11907900058823698
0.3259683255077139
-0.29915744215261086
0.0990804644963322
0.005366570932828997
0.1342432380641249
0.26400286169596027
-0.08033999894731055
0.3074966155309816
0.2897679833689634
0.03697235297362532
-0.06828612981901103
-0.018912488428027046
0.5206265094110214
-0.06374422033340957
-0.3494698820062012
0.04561586188797426
0.08098848525848425
-0.13425096381078178
-0.20728451669836126
-0.016229173424420266
0.16586554948439416
0.155567950189858
0.20240532657756413
0.0349371606521082
0.422816138494351
0.07170539672719067
0.3049650882820439
-0.2851350319142231
0.2220511201016663
-0.11255348071789355
0.2917567381888503
-0.568737094331711
-0.1814464531364105
-0.4908753259662697
0.10679023864391757
0.012740467893750104
-0.0030356835460065073
0.04401231128123413
-0.15670804336990984
0.3413209998988292
-0.20081254993863945
-0.1572287645047707
-0.35293545517203717
-0.0027484376749309504
-0.3123595782169953
-0.06971686384712322
-0.2828098381542803
-0.22252593171366697
0.4375161261022778
0.2969972605295227
-0.0973900118650598
-0.45395911311157344
-0.3491470230922646
0.28315134609266773
-0.05300114635400196
0.194275504485797
0.33064262271067446
0.2258338196281418
-0.2760598942712329
0.37495758671821044
-0.11468413898689318
-0.24648544776879303
0.22388564887762874
0.31456237838366263
0.03584214208473539
0.044383452388962734
0.14731588373904514
-0.42746112366085115
0.4268617828348831
0.21634294017336336
-0.251819210630004
0.18197219301072226
0.2905521345623755
0.42543023350179016
0.12779898726466313
-0.01941639029324699
0.03486792149129449
0.1674417903775214
0.30315466621601206
0.023313541976594552
-0.3130921388256194
-0.0503739754280189
0.27311628340132654
-0.4886934579258969
0.22950370781674495
0.14719525516915713
0.11804942896822548
-0.011566744537670906
-0.1980283466330139
0.3700082507280046
-0.10962925389530888
0.204122870421492
0.13305611821400293
-0.2447620567968937
-0.011998301636944873
-0.07765514108835475
-0.16573979551763868
-0.1589445839364766
-0.22800790669573423
0.14456927397618152
0.15372689365593753
0.05201803461247934
0.009302592482889374
0.33780660129773427
0.1338663210786623
-0.11765984597160231
-0.29895593904943724
0.2286203875827136
-0.07002993125131274
0.24779711941396873
0.590069468384025
-0.35778979367409225
0.3821730893775774
0.22980091564724753
-0.24589575405182787
0.16195489914687775
-0.14707579896133305
-0.2103147406720646
0.4076195614101728
0.6069192740719279
0.08308637997603957
0.3938411361227443
-0.315168370577605
0.3941410684996603
0.22238450034729698
0.2764546861883512
0.08406508712911345
0.1475131703843159
-0.015123186847940001
0.34561415334522355
0.16037718905073478
0.29376193617288643
0.4766257051093667
0.24814277150788247
0.5879351447992816
-0.09000834250320934
-0.159315780103281
-0.24828125705696824
-0.16416404638161416
0.20128372658059157
-0.05866269867854202
-0.1994506985601078
-0.2564252361607092
-0.23740397487070702
-0.037455698726062046
-0.24802587708925683
0.11231710664435024
0.14555482591427454
-0.16482310185660703
0.7718983302461205
0.389559305830654
-0.3212143680618526
0.2376041152545901
0.19286386657318538
0.24914698403234561
-0.40259103961030573
-0.17737952211986774
0.27222244612372043
0.17698993625685167
-0.14580888281603063
0.3292350954044809
0.21186994874944826
-0.28075474094368214
-0.08766015788013351
-0.15571815511393947
-0.2378573759292729
-0.18229481482143609
0.15063994271802164
-0.10592016510658522
0.019418164881760035
-0.0054660194051123915
-0.027250507971990526
-0.2728483852574617
-0.13380528099506808
0.4136407862570859
0.0037760668460147654
-0.12174229869535295
0.40627214836221637
0.04302054307091617
-0.03159615858921832
-0.07225721507705674
0.041708266903389836
-0.20501666755269257
-0.049555060224346636
0.651987828154764
0.1157362361113995
0.10661164700054836
0.5065534641178467
0.07421453216528832
-0.1149828131319485
0.5645693764673307
0.10297475333319532
0.01762193898746461
-0.11397526588563932
-0.3541644691412777
-0.4483640612936955
0.15198848308363447
-0.0504848052018203
0.36327037217531544
0.2742753179471204
0.16594291030315184
0.15614161387666642
0.05516292235406239
0.6416003310047257
-0.04182729216809221
0.16681722648981961
0.23809354692726817
-0.1133478019053065
0.0098112524892895
0.17564513697340628
-0.09036613010611515
0.2833181462994404
0.48478299493043076
0.07488706776884695
0.3121083378763994
-0.3441679945040619
-0.19743239378369157
0.03356132134017275
-0.0516213678844264
0.2708007439044762
-0.30816433007924715
-0.09729161830500095
-0.14560324430303043
0.5078191765688184
0.27556128624233034
-0.26859635802161785
-0.04645179520117868
0.2560976330790434
0.09188479343911066
-0.029544057851265706
-0.19440555569559628
0.08517529126927803
-0.3262411980070141
0.09690006498941525
-0.04269857454807053
-0.17230714985624607
-0.2344326526955334
-0.6363987040911466
0.07356941728000381
-0.019695136339669912
0.09433316981024203
0.04696403057410228
0.1082232939262029
-0.06999209751882708
-0.049504921173257034
-0.21963717419073447
-0.26708488367977207
0.3013924965614499
-0.07684833510114561
0.11383673260260506
0.34836344181879736
0.14985463178934355
0.3010064824620699
-0.146811980901872
-0.31449690639723854
-0.24697685196976707
-0.3591607080824026
0.2611936762237003
-0.3310295119684511
0.19677815710096877
0.28385549334891896
-0.12704183297570232
0.2653201943302531
-0.3387908117290597
0.04972624674535648
0.09402625752308395
0.289344904572155
-0.19097679044911428
-0.4048417566643791
-0.12192487397087695
-0.27221592809475664
-0.026318576454097495
0.1764237452778876
0.20259519325724665
-0.09607395608128033
0.17570046716683646
0.20309850557293876
-0.1484105117392905
-0.2658776816347763
-0.07869393400587736
0.025144863192801247
0.07221037915096
-0.13286235410052355
0.014290658851179102
-0.5837931287392212
-0.11401837213886985
-0.36091032558306635
0.2175052873033839
0.03745142481223765
0.05800833369077344
0.018757785599935406
0.3298974189231486
0.14168068066415185
-0.011661055832993605
-0.057785632941764836
0.2301052047084372
0.1080719170868823
-0.19986555539216627
0.016898048850553106
0.12564676427007737
-0.5195654288636486
-0.3858242529227502
-0.05949849025916583
-0.8281065823040674
0.1095864674037736
-0.20598045649839444
0.010718458431902668
-0.04246600825057973
0.45698999506761223
0.09050077949901034
0.079838448333613
-0.3380144604053932
0.07692428620788139
-0.07503134318727195
0.3731657907549661
0.22893839417067396
0.06574589377551762
-0.3128482644660543
0.3351619626465263
0.00325716892521688
-0.1732438914369725
0.07251441427048788
-0.19949781346665196
-0.15820889522181047
-0.37518180664661166
0.18052031127696427
0.2868172570851619
0.0812221538441474
-0.030573307649629837
-0.3047635407539562
-0.009735564760093744
0.020286233616869317
0.022204480214024633
0.5090886025236766
0.32622489321179254
-0.03666908288343863
-0.30529578249341704
-0.2794307594218273
-0.4317906776707863
0.06007520797524799
0.032856467239724935
0.07755052435336138
-0.009518648704314505
0.1194064153145806
0.062227877402877524
-0.08957966815068935
-0.22498000344738361
0.08883304537984975
0.07487511988867013
-0.038779328573781496
-0.21580378646738943
-0.6652113964560216
0.3254660801427843
0.39700980576170447
0.129917635014632
0.07530902090263084
-0.5960974392381209
0.4447177612438388
-0.1778664857445716
0.18085175493789765
-0.17966669386628614
0.22918216984672984
0.3181784678812559
-0.140421592275418
0.4209364596626547
0.1397236226305593
-0.38729990555259014
0.16249495197437538
-0.26505110402253246
-0.12149950607951031
0.6176144578613058
-0.07526823104847247
-0.2724780386521316
-0.3755141230118573
-0.2465252391347735
0.025142562977776572
-0.10928261169440483
-0.319403984739698
0.15352190617938566
0.11828813064764024
0.08344377795969818
-0.3458132940584565
0.325963450961672
-0.4567096733550551
-0.2317031588769001
-0.03406944701627611
-0.11849216298900403
0.2942299749875532
-0.013922000287091087
0.14837378724645658
-0.4780720671466951
-0.09309644551725077
-0.03534160665580519
0.2003711492518067
0.14792987421516826
0.046923140416156785
-0.3038533328833091
-0.22520984713662007
-0.4562497766445608
0.024597513879750697
0.13298062759615584
-0.30246321428345935
0.041845780659821995
0.27677021379660033
0.1911090714501196
-0.13554334223768807
0.3963913872963226
0.17933991078851413
0.10660267140477046
0.05255959984819496
-0.04278001775946434
0.037303051998637225
-0.10977047585768239
-0.08645769266589338
-0.19368755428800183
0.37560778509379183
0.3727766672654955
0.6389436143904897
0.2663244504480832
0.25723231307713895
0.2672940954227284
-0.09330013169079951
0.2733387986917978
0.3987255482207592
0.004534051957265039
0.22873076053032604
0.16627918011374804
0.160962205389817
0.1512586445017963
0.5466623549245748
-0.4171141403084274
-0.3593975524443001
-0.09532383191562534
0.13092474795615344
-0.04676552508003022
-0.1498172839875097
0.15906760969639797
-0.22442958068532134
0.30534081105490163
0.2749109760035459
-0.047997594874232975
-0.41403405228896384
0.4454287881335366
-0.11151065532002077
0.31788327984636927
0.02508763295199336
-0.2815812050571003
-0.08868167278681603
-0.17768792855379012
0.058362163118007786
-0.17484351073239604
0.21742468994971384
0.12124326721720395
0.14862033513178463
0.2698210730067266
0.415978192134418
-0.557279935812845
0.047019334875868325
-0.06327297426788703
-0.21783253446336442
-0.393134674989318
0.42781314784345853
0.1838022539191925
-0.13557616565346808
-0.1455387718611753
0.04386519623048426
0.15575998332178148
0.04809609604597079
-0.2187880348145503
-0.0844731274189949
0.19445263904270457
-0.1252757714090076
-0.1233959866044131
-0.14103686223262532
0.2386826711235616
0.2641091497118047
0.3106696820283571
0.3187698268430833
-0.08353202714931625
0.22019908305345703
-0.26716177051461804
0.1438438643352924
-0.39529873754164085
-0.12030613730293147
-0.1384032275574889
0.14853004085029864
-0.1544071438885366
-0.48116293478422983
0.35972071093606023
0.2233880089391167
0.18230890578518258
-0.22380448567716224
0.28791792491256146
0.20242765854693798
-0.30392644739284985
-0.32063497849563155
0.34661309550712244
-0.3063746042918382
0.07821260830906744
-0.24875553457419008
0.227791936594224
-0.27958905032601045
0.18412687523717444
-0.012470587931848718
-0.07945546160795186
0.11937458547456016
-0.2249357910971426
-0.020295924749330837
-0.2817435121948008
-0.025799272771770198
0.05783687990132136
0.24107527984877258
0.44345189717848577
-0.13016891200055206
-0.2990699105983177
0.022177377338871963
0.36411795173971984
-0.399284382187484
0.19017376117692456
0.12856762191551258
-0.6299917872603382
-0.10090623558312939
0.1899785584341681
-0.10005665240406114
0.4897952440766519
-0.028294829621879698
0.05166310666700739
-0.11617903228913304
-0.4655204328829018
-0.06928358119992394
0.1630676295203169
-0.053418469043432636
0.0252924908401389
0.3888259803246371
0.2808183111643404
0.1621895015980383
0.1378740809679218
0.18632002458112118
-0.14215217693843016
-0.45230983125493684
-0.31043743243090693
-0.06035524241499027
-0.3285226069755977
0.007991511796517654
-0.22700775859382988
0.5984418413489185
0.07470709424219378
0.5168614132428426
0.3196027151278038
0.2100871660390125
-0.22001618701059322
-0.06664479197942896
-0.38499318037388525
-0.03696597070058678
0.34628528418054577
0.6388356389737314
-0.21781302846170728
0.4834387403579151
-0.1544745501061812
-0.09395245792900205
-0.001514113762165205
0.19687697585695457
-0.01636779254679184
0.25515142580583416
0.07876146740889385
-0.03759827986050136
-0.23285800872907575
0.2614950863010206
0.0034570776038109095
-0.30899047367079674
-0.03819063415170106
-0.05139570709614676
0.10336194510556437
-0.4081845415980013
0.04020339666071979
-0.31578209780583305
-0.33667278952079405
-0.27076823021509216
0.11039554811672785
-0.42804111143481915
-0.09178088221057232
0.4107199213931023
-0.16918735150937167
0.13405666620271262
0.13734310559036245
0.368245539713713
-0.053090215464679354
-0.1769443110012669
0.47883434460107993
0.15743190295021994
-0.03311462398896383
0.17370903184862346
-0.24337213766001234
0.4387975255337439
0.4028664926768992
-0.29120431915898803
-0.008653878556078015
0.3354733249357873
0.2823231414305547
-0.2236536042286489
0.37395379455558003
0.2642382620780791
0.09627672872407836
0.3099801531572246
0.2859197914971573
0.5232145753838711
-0.30262147772662107
-0.18685923433071894
0.22862742150230103
-0.18903195384088572
0.17743636352536737
-0.2837617999751728
0.2409785216991621
-0.3741255332882787
-0.14957922399107554
-0.16056443351950875
0.11517738398614243
-0.1717985770395238
0.0071467106981326035
-0.5053576961184303
-0.08363769348037803
0.0545418983931946
0.03470668588389206
0.10571044875638343
-0.18326107957335433
-0.16480428505923597
-0.28792081972586414
-0.07094515175399016
0.10750160856063527
0.3532349783251865
-0.1314676696289541
-0.1464095344212991
-0.532257839976985
-0.4396549443807294
-0.018133106989420618
0.2575761750107903
0.06885884230945398
-0.24350356859042005
-0.22826321164479763
-0.0948341152392149
-0.46348267984476654
0.28431117919200766
0.05703265145197452
-0.0816086143259948
0.07046076594581573
-0.13161945975236408
0.20090773661540634
0.10522060005556481
0.43956639990495094
-0.20245230676802037
0.12601781820946895
-0.049586801973351594
0.07456901909502243
0.3025931276184757
-0.3497475117320131
-0.26884822010877674
0.04029963074543052
-0.2533413701521395
0.0683510963268924
-0.3090777104569447
-0.10243480612870905
0.5416055106097735
-0.14826385669561656
0.16375777282472134
-0.4806084104094483
0.13774391807968067
-0.25028621689380165
-0.0036105022246584427
0.13247850574303321
0.03183783701244827
-0.11748617200760766
0.024294408793914937
-0.06987198367818857
-0.5968643612173763
-0.23037404952905258
-0.7245817011496818
0.2192547134903709
-0.5309306885767724
0.10084218654098917
0.38227550149624684
0.19206902235895715
-0.05000078516406282
0.02582118579122027
0.4215225221073454
0.24986326612555165
0.007981095541452163
-0.27531989191016354
0.24466529022624006
-0.07482497780446634
-0.4337492827882667
0.1881527707016202
-0.15483691004131553
-0.36784756682140507
0.46400953787020793
0.20104871047499948
0.29302927007050267
0.06659393514474134
0.3643279161209675
-0.012999695553706218
-0.06382879375956958
0.390588623083597
0.17688296740864465
-0.11306139393021068
0.1984075212360883
0.6639230133912217
0.2904820217315358
0.35482861140663463
-0.3360695009891711
-0.06311501000811767
-0.18380962233368847
-0.17810297055986632
-0.2362807446282631
0.16315158032517527
0.1010538628429921
-0.25228230510705085
0.15870485152885508
-0.5680897653524503
0.5496334612820223
-0.03683704281146312
0.607059055737313
-0.20540603470223157
0.13038594774804615
-0.335583844012191
-0.4048636059930558
-0.3194590556886625
0.017654823724811596
-0.583794698111335
-0.21222657084301488
0.12056177928583704
-0.14301284730098238
0.08001409754477595
-0.39101150396008233
-0.46817543262679684
0.24452410664257862
-0.2181119843341077
-0.08147880407772026
-0.05223181547522468
0.3466429453053737
0.19850606894069003
-0.17038645533474245
-0.20720700129125433
-0.058838365565393555
0.1771690389007473
-0.23493789854039843
0.13913335332511265
0.3484507922335585
-0.42540977873671576
-0.06499172257470613
0.09843652910561317
0.11210817912282933
0.3112842601175137
-0.1261130058480657
0.34614927174259
0.09203430539629966
0.05421944622829431
-0.4126646026956876
-0.1295133207938204
0.06439324459475232
-0.5295890937385214
0.35471371930823453
-0.4405083397480089
-0.39135370317981455
0.1620627592343773
0.057222966311065965
-0.5739992895679215
0.14915577133291447
-0.3782803299904537
-0.24552898920031477
-0.03484143497052079
0.25941582064038166
0.08280300161150732
0.37150292750226027
0.11775251213458245
0.3774367905967002
-0.4543039628881648
0.5443189925172651
-0.3164353824208778
0.09930418051047622
0.01611675003701641
0.054003571621066296
0.2966746783743785
-0.21431107654763495
0.22979081718498276
-0.028796214771651216
-0.6476796798514506
0.1343517044638311
0.21752550588785904
-0.14437622410415524
-0.10196981617399073
-0.37342656126449414
0.27479951848084905
-0.4915594888794772
0.29229285399213195
0.3181200798797401
-0.4361223433328077
0.08321446232303052
-0.4646325458435334
0.1934134911443739
0.29206717049938313
-0.5035387145445842
0.20853481090238596
-0.1354866073134969
-0.30361005733027674
0.41277251850163926
-0.6572032560261634
-0.5469824004253446
0.27991616461276314
0.5033031051634298
-0.026895187382885526
0.10813983070470362
0.18801069237912554
-0.043129890086094656
0.07055799527687633
-0.06369506489441168
-0.08194878241260534
0.16247766822619375
0.47168603686698846
-0.040181115367929045
0.16988548412496035
0.2179659971196543
0.1505795554039504
0.27154964946555776
0.06798481635818408
-0.3422304980802891
0.013207988581730055
-0.03400537317767031
-0.3351560765305421
0.11482196800137863
0.25386045740413904
0.6453759725793463
0.02559148331141138
0.32471531794694547
0.38215845680810795
0.2947297487608403
0.1465601255010247
-0.14004120531292114
-0.12158047080059835
-0.15188841105456496
0.3159439461348832
-0.42806982561344337
0.02675765478926168
-0.44188893837532717
-0.27749610470221275
0.12709973850909914
-0.31763761200525736
0.028799123757717874
-0.39333329694605623
-0.198642281209319
-0.30249792871202413
0.42927317729394376
-0.27263339669561854
-0.49194342232677524
0.15416456711771556
-0.5722536773368225
-0.5596609455025238
0.20373542524968113
-0.4052715095491638
0.22303544679298865
0.21590430730029214
-0.27045487726429573
0.4258229459809788
0.3575395979988399
-0.12780812490640853
0.06521246592335288
-0.2732265674021692
-0.061129867455371495
-0.3292843229379609
-0.6851149418239406
-0.08215191629182035
0.7851057136906248
-0.37914884156276896
-0.5155706977650263
-0.0720799073699734
-0.09041263773381683
0.3502966594461096
0.10731352507712939
0.4633007721131479
0.4592080037413253
-0.35802625331850435
0.30534049566962596
0.16102737846830648
-0.3561873227825428
0.3828137661908916
-0.018761267790590834
0.3756254000452507
0.3161370250593217
0.3097662330685126
-0.32892684651971194
0.01549821634381518
0.2755731499432322
-0.34763063044188336
0.045769949238226526
-0.07488801840154403
-0.1594481467160322
0.2572186194201459
0.03096034961527513
-0.5509844546906373
-0.24549200944853203
0.406277416513248
-0.2530684263455579
-0.007261745582236275
0.13875791719848224
0.006770391359809783
-0.03078154673767919
-0.04894628274215889
-0.17656090681167674
0.2555944660503098
-0.08238284766965338
-0.36881761895256626
0.2182042398682466
-0.033774263808543044
-0.20981727751785456
0.28858321371968276
-0.3517621468378994
0.053770062937818684
-0.1959288465459643
-0.4428419642098015
0.48895589496244624
0.06189337696145098
-0.4866077481586735
0.4300591450251416
-0.09829838924620524
0.2391313286524143
0.13727046024407483
0.09356119178819468
0.043010847842798496
0.5203496806567797
0.26050768595801965
0.29066930806695457
-0.25232695505399444
0.44573959688166725
0.025017642300277323
-0.16128878148478626
-0.1407688839489779
0.14228935432550663
-0.013738579870219592
-0.4366056196444047
0.16321417478032854
0.6087440486413269
0.4701420208688759
0.06712720141305184
-0.008448746261615842
0.13532874824612265
-0.24360130436117455
0.1459825005117563
-0.27830284730915616
0.3843015013679478
-0.057374842208554634
0.3527657648155746
-0.08069289170509802
-0.25817429467472075
0.3300017548746661
-0.02725894407894457
-0.00022146110383824898
0.0005188327237543616
0.4609028937724189
-0.34639646239748423
-0.34484539904968625
-0.06492208455935848
0.35733375434178594
0.1782288586454771
-0.22948400925908333
0.5506131862577762
-0.12114395164869532
0.6028629118801779
-0.030401405629017008
-0.1204184634294851
0.24041578220479826
0.2953563447133419
-0.4217508494019231
-0.0753935751809293
-0.27799523741744286
0.2330670078108309
0.2225114160265057
0.10601084654332261
-0.07692478972489064
-0.17943222171180706
-0.29327332426502395
0.21731325435532645
0.1908398354547193
-0.391109260593635
0.051650491848826065
-0.05443473111944262
0.19283974114553865
0.35463675859846727
0.18022900320175253
-0.35271973839687715
0.5579210593628819
-0.015143821820640273
0.021360725119762437
0.019054311414785113
-0.20273515682047769
-0.2211747459993005
0.208558940581767
-0.320133560319101
0.1551171180393101
0.246433765980775
-0.06839552637207032
0.2546034348613453
-0.1036489315969727
0.5371991981739468
0.0553480168682271
0.7465017360017384
-0.17243670312164255
0.4660274826986372
-0.2482019142299649
0.2631742295289811
0.11587400754215743
-0.1867997783465606
-0.27333143465731274
-0.5629625894320974
-0.32615753598705005
0.17410137565142916
0.029253644691037018
-0.22756657065260033
0.43163727952963593
0.06200130733587938
0.29176824709222576
0.363211557976463
0.012094600186174935
-0.2835588158482811
0.354422214488768
0.10145249436441955
-0.1221171250475551
0.113479210093851
-0.08761193593667053
0.5125953671907588
0.37897172679023994
-0.4599315391956485
0.09510629135204213
0.0523141019376359
0.1374581225870023
-0.0903114177015869
0.008824154150021047
0.3341521823089259
-0.08703674866789227
-0.42940039334330965
0.2084546621526038
-0.3038596090967388
0.0017029909988073683
-0.5526938923061617
0.4427584208319282
0.2686268835268919
-0.07401667630686347
-0.25740548427707377
0.5093850931184778
-0.3220437462702507
-0.6460655929522545
0.2534701681313697
0.10443549073294081
0.5188895106069061
0.45242473895386465
0.054090050530979365
0.0695019584081458
-0.19397083886935762
0.24996918637189688
-0.08382592207356823
0.09185796330115448
-0.5773348142590663
0.15670729922668328
0.4666506817287707
-0.08329941256567681
-0.21959778604880953
-0.06742272770847896
-0.3544191858389426
-0.23852791843990753
0.2843038221757123
0.14271838007790547
0.031843737039278175
-0.02719126571451099
0.08063302964328305
0.02243921685135184
-0.08169512655928649
0.029165278399359958
-0.23251083453755803
-0.20892949892092944
-0.04719948096438463
0.11087312472082
-0.2277997012621427
-0.12455493271086955
0.24820420449055128
0.3462025125105235
-0.13729028518065384
0.06590280190589717
-0.4580155549328227
-0.03907157631772364
-0.0703206264590779
-0.09595651928532488
0.6246047183644288
-0.2651992531577624
0.08783582137247108
-0.1677990325133907
-0.2017665613525032
0.20180481022602903
0.3275298206038917
-0.29729938862103783
0.2713059526977461
-0.22446611177392078
-0.2341262923000593
-0.4435816738991101
0.15086498275030488
0.2092776469439526
-0.2542662420800887
0.0014455899799790904
-0.015992998153754264
-0.4021766737371036
0.14874282146765794
0.30371535495226504
0.1635271548066931
0.36248479380258336
0.13557888042774188
0.1494140279298663
0.7900517023054261
0.505186894261836
0.033872393718866314
0.14924159029647885
0.1291026547106592
0.06007079909805453
0.5762186853105903
-0.23872242069758354
-0.26972988019184974
0.35406845336737397
0.07594332993229769
-0.4090180706100294
-0.5150189990783537
0.21612225944179772
0.46851073141281746
0.1323313064688806
0.15035116720707078
-0.2011259723908263
-0.1733928851748513
-0.04735019018170961
-0.09445954966066816
-0.18745707306608456
-0.22700873763629645
-0.1490826163557076
-0.1159783228803137
0.5245997808453744
-0.2935358955429073
0.2881786713950726
0.08771603094258482
0.05854320994801135
-0.058745102273599935
0.25729135414531207
-0.2923414092147455
0.31605596177565476
0.19683636676956984
-0.08640601862473596
-0.24484919297437896
0.10562207782355619
0.1369406978073205
-0.011103310862270512
0.09130332686118532
-0.05575911356744896
0.25820070945424756
0.38652098636517984
0.289254033448793
0.35296600226447056
-0.681279219466578
0.38281765466156087
0.11656323968434017
0.2165983519767005
-0.05746774219458285
0.09128408944870206
-0.28089270588224974
0.051902101900265785
0.42250421386216547
0.12337652434968456
-0.0630668992461439
0.05426125397957936
-0.15605311222598037
0.03218287276234329
-0.3807056130873948
0.0569392381301479
-0.0479733600781283
0.047751254818613205
-0.2444197566756097
-0.21745165689703555
-0.08249244436763367
-0.20406746417537777
0.41146072542577783
0.09011263802273584
-0.43257738464069073
-0.005092799080430448
0.17575130181251183
0.28707955692691095
-0.22527775112528964
0.3703408831068807
-0.2511862265024563
0.036913525271090056
-0.2480591304723256
-0.4487489448133404
0.22512737661238238
-0.27911819971942897
-0.043475045116694755
0.16545390235415577
0.12763978457440187
-0.02847825629789669
-0.04239612278903841
-0.21937571719978335
-0.05800099590966273
0.33963788214196966
0.2073486705489685
0.45281855947899835
-0.06530443037310714
-0.1511890568507093
-0.31297109709916915
-0.41789956754017626
-0.45858952603161346
-0.05732834250767997
-0.0888417248587619
-0.05373669292906523
-0.4737801511049407
-0.2319031820239974
-0.26662598066757415
0.23342379633193627
0.19694319945347125
0.011049310128801787
0.2738475347370414
0.29550239320031496
-0.4031444441120062
0.11032055185213155
-0.03346284155535796
-0.46719049711563604
0.3211907988996308
-0.1923795676722036
0.349105684949812
0.6132549567241489
-0.01582256534963817
-0.17767925199194534
0.11106300006037546
0.3600854218045963
-0.1269975472461765
-0.035641006444165874
0.42317224349290145
0.04411075960289259
0.21988243598012042
0.3532279390920683
-0.25211874596998235
-0.31553215764164894
0.2547935220775014
0.08159378328628343
-0.37365006444442694
-0.04651775655415783
0.2534022103964243
-0.32019124840172614
0.19133389788127358
0.5354271521277386
-0.1100142794182809
0.0819957753000648
0.1899453910961009
0.43022417457351647
-0.3929186552223806
0.36795524036995314
-0.03578635539000961
-0.33165499616234223
0.33189893410642773
-0.15576143087831218
-0.22747347190208642
0.07637295816358868
-0.18930968715752705
-0.13652120485829933
0.16094744343597905
0.06918492978316126
-0.17231604693217303
-0.6736665057294554
-0.42584580545894085
0.04780951169111798
-0.13021290151712278
0.12374633956868018
-0.41787560192937484
0.44859942251077534
0.13353209464221388
0.2515168719324119
-0.3862845062065476
0.20823370897437982
-0.29504150548906
-0.06817095230490429
-0.12765155612902365
0.08415770903314106
-0.3045827542742099
0.4494449689821181
0.03275726959209614
-0.19176197660664301
0.31868618489260225
0.7208357339014512
0.23855619040558934
0.6028940236433756
-0.28466150446988236
-0.08196469580765228
-0.13284310917409747
0.07276697050735487
0.09367452673694715
0.4106667964756167
-0.5235524545901759
0.08582901827630905
0.27129434849902034
0.2908968168858436
0.4088471719402316
0.3554499221880325
0.0724844696779355
-0.029759789801836994
0.086725605311364
0.5020922710373145
0.22286214305824942
-0.23275935515836893
0.34873071741572026
-0.1665155497407521
-0.30626025273375307
0.033202733273900414
0.48699410531081244
-0.02756313884471774
-0.35153659237186274
-0.030389297698641536
-0.3975641577486134
0.3625506531687248
-0.6085474111467926
0.59595057180235
0.12774500813629502
0.1218258221954197
0.27295738468141406
-0.32296635321344674
-0.11829295881045422
-0.49658104925112356
0.2683224565138521
-0.3948288579739659
-0.2635947259547621
0.11404238804135433
-0.07000994591281762
0.005999303605716071
0.2599718757845583
-0.4747513483148523
0.20506275401043764
-0.8317743431245439
-0.200436449487963
-0.0749788775075712
0.6095054851702977
0.6372336885167499
0.2592499214071333
0.1295162969825397
-0.3488691320474182
0.17794370631814338
-0.44565128722918224
0.09839646882313723
0.027295221807775816
0.1918313444304202
0.09442400923293992
-0.46762989126500604
0.023313175247695835
0.21319404402494058
-0.02049885199800839
-0.11692120037296577
0.5028788465270086
0.22687369145689468
0.07801356838638729
0.27522900092690655
0.07665445128931027
-0.23651705986782576
-0.11766439575515222
0.28653508747908585
0.0021270249326580865
0.4613348308040737
0.2837483900475242
-0.29785647377248103
-0.1895257871179333
0.2940751336259367
-0.05055289304423921
0.027058524377748295
-0.15499596414166172
-0.5953893648421431
0.14562990537264273
-0.02063506684180466
-0.18333831100624065
-0.46039135969068873
0.1822658564530198
0.2674572754902712
-0.08107579572543454
0.250536360609297
-0.0914359769398246
0.0559043978609603
-0.11244206510788339
0.22905609210971664
0.3561667560581596
0.14902723684889904
-0.15961597746757672
0.22983662065492996
0.07655960136653707
-0.07216663888856739
-0.20585557893634227
-0.41951790857910154
0.30453763039854326
0.46721165776661666
0.3244896472075564
-0.32464851920178356
-0.029518205893612978
0.23935480015156257
0.6698384011827053
0.2866704568091857
-0.2026280543439291
-0.4743908169760541
-0.17504698244300373
-0.12920642465947269
0.07206011817924274
-0.32071476656174763
0.25809403643610773
-0.11143596819191992
-0.24860709517648616
-0.008517278407093513
-0.1337431370864454
-0.44097620501259294
-0.32574455325061913
0.03599068131519967
-0.25099280168277643
0.24791770882804948
-0.15601219399896982
-0.4498313023966624
0.42660057434352544
-0.24928595514520033
0.09787979399444299
-0.2327268689587778
-0.11593147732502966
-0.08740054731356427
-0.28434446226278975
0.0854895267053123
0.023008778235817415
0.28590073777032293
0.03501399875296201
0.6003494670848228
-0.1328330574235563
0.2064288536709852
-0.35993981886082416
0.24427561491447894
0.36640492648211614
-0.031331652454933585
-0.11412213753581565
0.2886438958125084
0.14952156215007747
0.09729413147939421
-0.6426479062461954
-0.2508618016860248
0.47391550943022853
0.13822805629862173
0.47544297482409403
-0.38680762193748586
-0.07853977344304412
0.10751570695703075
0.18744585660404625
0.024351090029217627
-0.318956651837529
-0.19381687858238958
-0.07299652599584754
-0.14442368914302264
0.30193463146334915
-0.11846480969931979
-0.5416289992374885
0.08702601287535768
-0.20218036131334133
0.15224165348596497
0.18283515617434626
-0.1535423537841824
-0.034489791872259985
0.4827484663371688
-0.1989765807297878
0.049452617732651485
0.3538861606766875
-0.09613252814430245
0.23663097176705272
-0.37536567447899444
0.3275619173517003
0.08655867259263136
0.16669291457456212
0.4799684462837303
0.5180248703232628
0.04034079949759152
0.13249683395441017
0.0882792579626962
0.13541195697199712
-0.35033475372601075
0.004572875779561355
-0.343980074693326
-0.24814404421159722
0.009177199800539652
0.25225623684971493
-0.27253685634516805
0.6852224736478155
0.35987297215301123
-0.020785403957551025
-0.36287702456818344
-0.36269444506877346
0.15880395423950386
0.28185385118741374
-0.07138454265128362
0.33308286749822197
-0.17881855049682677
-0.10345004575848671
0.1401647160897518
0.3536488607672565
-0.07497252977449495
-0.1520962014529468
-0.032936372936178585
0.16936503375550743
-0.2414559165484135
-0.23059172555824625
-0.17237787963584716
0.2738492398396324
-0.04345873676088386
0.35411175539877315
0.15093098593977844
0.28478525464959864
-0.28824672202524293
-0.6290844009398573
0.37235516669374263
-0.22777450769023458
0.06329721008682081
-0.18261408292123898
0.4609708492164811
-0.15560539901542464
-0.03516879447749117
-0.4607254911810736
0.22019035282105134
-0.14503569584622308
-0.3110312215614958
0.3073757516318431
-0.006726130265793428
-0.07060236008931552
0.1257090711502464
0.15790962391699706
0.17554367967616694
-0.024198091888583587
0.1180446866754791
0.3381981326811268
-0.20969620605071196
-0.07758079613744302
-0.39711719128986
-0.5952457559632536
-0.21155673287264723
-0.24138705449437128
0.1383335879147534
-0.002438980118623117
-0.07901972617340414
0.05683706608128718
-0.24244384987638987
0.4534857979210608
-0.28028458283496976
-0.5545824094027969
-0.5396352462224164
0.26685984539173235
-0.6626391433130279
-0.2050800621595759
-0.2578322507390319
0.2886786884551201
0.041721606879245865
0.30218815464970505
-0.1529356406705517
-0.370872867392936
-0.038562561826914664
0.022714975082973772
-0.2847915801346843
-0.14893651510161623
-0.09474275280623883
-0.3098637531479847
-0.11114042591327407
-0.1185281776748584
0.07145202361384292
-0.07504512420060469
0.4710165443281321
0.1352726694195352
-0.5224361019008017
-0.31755955099001837
-0.26091100047763277
-0.5128091800236168
-0.04647708609375139
0.32635585074508144
-0.013477469941895802
-0.06301480599672199
-0.32104726316740445
0.22033064264099653
-0.0036778369808360216
-0.03497799121245885
-0.14838371752052387
-0.49089614781838425
0.25124446878034806
0.15394324842384433
-0.26970935750253866
-0.38311288210830674
-0.13856005148749045
0.1686623276011515
-0.27401096278303716
-0.11358757533135357
-0.4271289072255454
-0.01480491809172021
0.15935064721245212
-0.17494262145364817
0.29775967808976106
0.25503100939640705
-0.311231475802785
-0.1929043768211003
-0.20898091309731867
-0.13150631898324022
-0.06253188043212596
0.4405922946184934
-0.08160171214445265
0.1713859348788344
0.007658149230440444
-0.5517481438953054
-0.6498084214961545
0.09212330806898004
0.2800139166629504
0.33119175497035086
0.1693144923638602
0.4750545119310976
0.19609771804771908
0.045190933307014784
0.2362814367019918
0.23524876912500223
-0.3210176140975159
0.3292478832767621
-0.13941657846753963
0.21862508106622114
0.451197538019191
-0.1371919114451225
-0.14155291780431814
0.07046985721267755
-0.0757607104434175
-0.07399115856825689
-0.00595422367273883
-0.00469238670087871
0.5230250414115292
0.07907264068591263
-0.01138567832080957
0.20959837627956487
0.1582460043333918
0.25989666038481224
0.13405055519347253
-0.012308146978302667
0.11241107754194503
0.17533694681609277
-0.06897994651704344
0.28995419547237566
-0.03969444222810078
-0.47420926208444
0.070329995699854
0.49390248798800057
0.03137613349128493
0.508943084602496
-0.04882173459636258
0.08298694237361663
0.11890338344340902
-0.5213510939476396
0.07907305144284657
-0.3755212475873158
-0.011377380610212677
0.029406854387615602
-0.09829159887193228
0.07120140728956625
0.5580537669161555
0.09570075179838994
0.10488996059094384
-0.4232963809165803
0.2792061546655273
-0.47557153754480075
0.27564403822710454
0.21747217470068536
0.14246265409658845
0.24885684054727444
0.008995964689928939
0.6528555642350515
-0.19633944613620669
-0.2667928218340975
-0.11545095780481997
0.48638440372285663
-0.34078272309046104
0.42246860195675495
0.015443617505279707
-0.016658222300705756
0.16998301081102324
0.3836589205142447
0.28245229164296554
-0.28254802919283495
-0.6078951265690518
-0.10417830608125489
0.3752528487637617
-0.1332466066503487
-0.007712541495310622
0.12543736935203184
0.29533629141553397
-0.06010709790122589
0.19365041407717154
-0.25538663031464964
0.23073509748799378
0.1348522984504075
0.23990284225078892
0.003268461963406117
-0.17964219459935848
0.47831427707066915
0.4560600099233248
0.09464589056090078
0.17773943516985424
0.018298719686229023
0.22705181597613772
-0.4697141845780265
0.3081993183864418
-0.2466630171989138
-0.2534765375220794
-0.33190147791942776
0.062303573360696134
-0.33087929997698984
0.12911381078266307
0.0010062304406487225
0.33491769337805816
0.5259950649143079
-0.06457000737626735
0.09883483714362405
0.2457558277250788
0.23899024488163736
0.0003321889246722611
0.3976412472680902
-0.3355626737033624
0.0819521564131765
-0.33978734449405895
0.41957611309625886
-0.17275911400382468
-0.29717390626328266
-0.39378046133251393
0.029130745644159753
0.11237892765561554
-0.14019092041402306
0.4917184329434174
0.054128699436718324
-0.34724883880779395
0.12901567277645687
-0.04974371629484363
0.250642966533947
-0.043403180332075235
0.028038088404710344
0.0930816889145372
-0.0932805350343394
0.2947121220190828
0.16410875964152796
0.198953855419018
0.15843458968171373
-0.005257348268342392
0.27842512491204036
-0.15157501497767714
0.1439627197313998
-0.25934349253048644
-0.031020744742338513
-0.49217224547790217
0.15959456176598358
-0.2706214215330606
0.2138634595556409
0.2985693884836756
0.10053151566850317
0.07075921471960668
0.04575280209614883
0.054929798453146446
-0.22747386062452685
0.15512014261200235
0.1557828979695388
-0.039991062643654735
0.16996859757009167
0.31408730124001655
0.14236139298458836
0.38694329244874454
0.15591305209605666
0.3991343236438964
0.019377560670212596
0.2894496025464035
-0.12224571310318078
-0.4431036199436312
0.09451112939181926
0.03346995317389497
0.048089902788028875
-0.3997384494349103
-0.1378729059043112
0.25111036276313464
0.006621639221993054
-0.21336539708577223
-0.29197952093186613
0.5296550811481657
-0.04410490002270939
0.17225546094441385
-0.06065023889431004
0.319584064506471
0.08216727750860416
0.1595896653870017
-0.1880414673389457
0.26476305240373715
0.178920423118789
0.16295440836901615
-0.11977891029175942
-0.29587496533293894
0.2629841840009583
-0.037912672207161685
0.3566201362411057
-0.04865671506455032
0.20140415740011064
0.4875414472299375
0.3787269170048326
0.07708157517039477
0.1615079796027688
0.05612055901724147
0.09566692573096824
-0.37177605418905074
0.0033701123899778913
0.6297782546791845
-0.15816459921026554
-0.12728863176598446
-0.3194951198113046
0.20132743776845985
-0.11947726536342852
0.32444785187898184
-0.014521767111673543
0.05877122638063046
-0.30785794088882534
0.2542252997710844
-0.23711846959394337
-0.37373078348109234
0.06642576436338501
-0.2804366083177897
0.33115518136256344
0.18197767883659763
-0.427256033913006
0.07291486580554653
0.28007396674774176
-0.1270128261101514
-0.41125380081751994
-0.05271126490814176
0.0033301597086906613
-0.014709513183575156
0.09506566748791216
0.23934984389398645
0.5823981494252711
0.6247059785589761
-0.2615361471443294
-0.04216121313809462
0.44150443203794365
-0.5165165922457725
0.222799766011651
0.18247185031723118
-0.2517278096079625
0.5160910805191896
0.34063332241650357
-0.3445166732677621
0.13143873022003616
0.05407900121867588
-0.05238552764149491
-0.3226912939867396
-0.13164126684815192
0.24450948153851176
0.20983666838545634
0.10294403246962616
-0.6622661163406868
0.2857291628760081
0.25392449137429707
0.3957829160701558
0.3145601086795562
0.2791171082556789
0.05704233437723168
0.16423496772959148
0.49487112144338347
-0.2524510952220917
-0.24384197393398402
-0.3218454243746156
0.003341265281146638
-0.11468664683700099
0.3037916989529605
-0.012527940285298767
0.15380873052298155
-0.19682037064533534
-0.027897662669456775
0.24094570100503812
-0.3715683239012291
-0.11717881096078821
0.1885327740910832
0.4718475550867943
0.2800823363682357
0.19807656071581342
0.03029090952356813
0.00490073083752845
-0.21163282289471294
-0.2792387083637222
-0.13217743819373107
0.167159098890607
-0.09810385762546983
0.25672219047442296
0.47445902582240457
0.2565659811703801
-0.12361084263556196
0.39863301629897485
-0.05365328704091374
-0.1358576480757196
-0.10071791908516409
0.08072631743222324
0.1548116434323511
0.42919828472971244
-0.1752849070242152
-0.5778404638912076
-0.018366138184083374
0.07161727158162348
0.02354662491086279
-0.05070893835221419
0.09003795607042613
0.5536339167005905
0.51662088490595
0.2610575488200109
0.5420518746065776
0.27567583687404734
0.007744498634564133
-0.2641141688312062
-0.33470687021774814
0.11055676029424719
-0.04646153976386142
0.3795335007198553
0.06859515458621357
0.14596809064665603
-0.03152137538491186
-0.4688975509110928
0.06557065809388003
0.05316036935540104
0.5494625811706412
0.06451693242087651
-0.31370630941347866
-0.2000259818924595
-0.19425302984434836
-0.21088721936906646
-0.08066907864970559
0.20762483647809815
0.054169548784281034
-0.6372654661790247
-0.021849144702405444
0.04215902200753727
0.45524999525282256
-0.5337304292032778
-0.12661830824017156
-0.060835378215265946
0.15519428562545884
0.18718524703690906
-0.3057267432159999
-0.12072956593783148
0.1835504987637964
0.20048223794040138
-0.25230568809990844
-0.065037353429709
-0.4809014331034014
-0.3039907432743504
-0.5158624581203833
-0.09213813087644689
0.4717384394557881
-0.3536803326711221
-0.31954032742899946
0.4257279545913667
-0.1255521701682636
0.4309391783002467
0.5404344888325082
0.08312222344116371
-0.10326933219435841
0.10992374183050611
-0.08467272370826052
-0.4257717138645018
-0.03502615547272974
0.11293265042598667
0.4211014315646758
-0.2288223884163784
0.2005741289509753
0.4758372939391695
0.22478452835069251
-0.5227564149757934
0.2181113652775129
0.4402207811588767
0.13911828943831253
0.34760133758590267
0.23818300944350207
-0.4411595655250197
-0.29618778575884713
0.3329496325710464
0.13496212165734692
-0.3382416395527112
0.15207679706446287
-0.3857074443878094
0.05286725188585147
0.21357480990504835
-0.11431267003653227
0.3614417164019736
0.5831286792303241
0.04967172186468177
0.05210240684821897
-0.002456291954271072
0.17597045826462845
0.31889941619959056
0.06929453809246418
0.29472930515722906
0.2892321764775024
-0.09374433275878001
-0.0722757119567569
-0.14440525836013357
-0.3573090888232579
-0.0566782211208211
-0.24039504635242495
0.7308646653314359
0.5791591424748489
0.36301030250533517
0.1009393017145781
-0.5518249214025395
0.20714851092126224
0.005834771511650565
-0.13953969322452517
-0.030413324452309837
-0.13318982597367474
-0.14112768344771595
-0.45201291280580647
-0.16075480216434926
-0.3292871066943061
0.04167608894174776
0.19649125043706372
0.04629041368741395
-0.2284948814327625
0.12615969754903703
-0.11946045826681044
0.13230218636388888
0.1044766278337902
0.5934240351352219
0.07806981042010086
0.020286533763623552
-0.12996664874877908
-0.12968835059131065
0.15487851288436194
-0.09217644754993495
-0.37739590107789134
-0.11888172596955068
-0.1851605171411237
0.4239969928907897
0.23753875731034832
-0.11034425441384664
0.17210211985353474
-0.0981588783547209
0.5878773638186997
0.31099179579833675
0.007841286465560935
-0.2627516198439857
0.4747279492535848
-0.12148838973551272
0.05645282659689803
-0.1619494541811454
-0.36610782891103266
0.26012896310744626
-0.20116641262044074
0.26949862922307516
0.010658425120840217
0.41104750669912177
-0.05055105500609889
-0.41982657293701214
0.16887668500566244
0.03669424868931336
0.07849655686932662
-0.2821567060346053
-0.007989189523431755
0.2625344420291546
-0.30045097007507054
0.26824270845936093
0.5550507969377055
0.04787828311597277
0.001187056666452669
-0.17185050897166482
-0.06055116194009297
0.10510011649653446
-0.3569269137430363
0.7349734361204645
-0.285577975780469
0.2762237988218816
0.13915543936823693
0.13738339898921434
0.22454853531244393
-0.02772683600887392
0.3951820938926361
0.3358456384410397
0.1887573006059834
0.23991834844514334
0.15439917695892721
-0.4999635379755363
-0.06511570699478458
-0.19606601731869067
0.0460557470699601
0.25996714876806315
-0.1265306989799489
-0.1525359034630073
-0.1732554081457293
-0.49725808275130307
0.5344149237585863
-0.29677783998453794
0.34706217911352294
0.006318537329997831
-0.22022633723414065
-0.025685686211114857
-0.06363726509092395
0.15829941350278048
-0.3184583774964877
0.019469139327830228
0.02605708640524264
0.22189366934720456
-0.09466568086783521
-0.07942294075677857
0.027726315008805135
0.256442121477371
0.09218640566656754
-0.0876063990437418
-0.2771330357401515
-0.12338016351409131
-0.3671178667819277
0.5779705419428091
0.21986959427515035
0.09923370323570552
0.03368920892497198
-0.020601455949559096
0.32363792290637455
0.3706319910908816
0.07124220777486685
-0.24670229386492026
0.26362763748057993
0.12120105139761274
-0.18684668143362917
0.04357629864145424
-0.0957695886816393
0.06739587173651153
-0.08080427887621414
0.09268611367633049
0.25102990050966567
0.2658328162867706
0.3172460361897445
-0.1814452606998661
0.51472752634923
-0.24596457914910555
-0.1514532603901784
-0.13129560563325915
0.23955783066336045
-0.00806729407413709
0.12065459980834149
0.14624609053059853
-0.011595162509915387
-0.1419950261816762
0.18876383319202764
-0.1661070054404918
0.4733873503764563
0.4569776346640391
-0.07713185477275517
-0.3119529410902907
0.19305299945474777
-0.09312655219802145
0.3188436338573998
-0.04332198878155225
0.2609743945508841
-0.23364497275590773
0.24620289749012336
-0.2574998957273621
-0.07467430551307971
0.4486161592545756
-0.0170094206539547
-0.5251098506255246
0.31683594334777276
0.25499569573790565
-0.15165500495392126
-0.4281044418584216
-0.4855413480332612
-0.0016800707506364509
-0.09950752044498663
-0.27904465378646676
0.32159518716334096
-0.4052407466736394
-0.021467881140176965
0.015200883671269025
-0.2569595561882411
0.16553172908424527
0.007631070882418929
-0.08752040226540912
-0.167207840953494
0.13185486779316977
0.6172340622048044
0.1742861271963893
-0.1985259020761969
0.5483685120272077
-0.24167039404455395
-0.2609294381044968
0.47786069367180434
0.305057700914039
-0.5994573669985409
-0.08588362788675999
0.05194291899438257
0.023110450844655395
-0.25321250003563495
-0.19365758293742688
-0.29667923973424204
0.019734548346041242
0.029875865131936397
-0.30424940714066445
-0.277169881251847
0.46813473040465625
0.002113182266778956
0.025268820176994524
0.041061555641769124
0.1885902968037204
0.06603151252367696
-0.31928990157315645
0.07609447887861819
0.26504850685781994
-0.27057736950724953
-0.17467676348378453
0.008277119398147865
0.42473587407762614
0.18137932795165307
0.30857184214082134
0.1541162147737493
-0.08135271659917713
-0.1831395974164536
0.13648143021132939
-0.14373933586447027
-0.14452907246609759
-0.5249276800460216
0.40985525286685087
-0.06569709981582882
-0.3740566402631066
-0.24415611187602884
0.22421516704975636
-0.1621284725207653
-0.12191946095351304
-0.2498694270396144
0.3676111186442744
0.3321613331313811
-0.6130381091705578
0.4504782221751466
-0.4398904570806494
0.41836539706845033
0.013686191694260922
0.20666673286952159
-0.15339054392224546
0.10304712538605305
0.06555064913289325
0.32221273171573667
0.14121178555744401
-0.2555576211505608
0.22896713801226756
-0.3175085937388816
-0.08120635956839044
0.18317480161214986
-0.09729351092179013
0.07858427703352479
-0.011187025786509083
0.06759191743686373
-0.15384710568545917
0.21248516840990214
0.019542978986589278
0.02951195607722995
0.05194158017666435
-0.4635183321199314
0.3811862660335132
0.10253415931463837
0.440463454576943
-0.1760597877145268
-0.05806942838658811
-0.17407332735338366
-0.012174440908583887
-0.5416485957632322
-0.4044083787143583
-0.3240798358128869
-0.3964327593309439
0.5214402810849604
0.15915336926667428
-0.27749461274323717
-0.42279100690104116
0.05738103211283412
-0.32626203482224525
0.30144895217776474
0.07041945262444449
0.24826835634884642
-0.137536630018724
0.12952720089988626
-0.021634684585249774
0.24696961086127628
0.013324505913022037
-0.3551903968190985
-0.30771387108614223
0.32518868592054884
-0.24288746626111576
-0.3987752390805162
-0.2391773327400552
0.40534953379547684
0.11093903707423819
0.19495945875815635
0.250006461923943
-0.10986960619921679
0.06227217494635884
-0.298401974727763
0.46275549445126535
-0.33639147486764925
0.10792000180260237
-0.12444705094218211
-0.01787716849865393
-0.10778684069767082
-0.2915120814539238
-0.4010460155480764
0.22422090906134018
0.03108565527227375
-0.7190392285001003
0.33660141851562236
-0.391673580732737
-0.16298271273702428
-0.2588095680108401
0.0018832154615180488
-0.882001314391633
-0.3864289035372505
-0.29811271684540525
-0.3630545806416305
-0.011000061085240466
-0.26271865631095714
-0.525431230389239
-0.08426952356159785
0.1387741703034587
-0.15647294835437509
0.475438979668211
0.1528806623661239
-0.2172485738636649
0.11978943803948536
-0.20229230422848585
-0.23685799857548384
0.23567934866953824
-0.042881926095890595
-0.04031172498441968
0.05803073247054043
0.14256179789229992
0.04804853299851035
-0.770494800128714
0.6516666840695003
-0.16297337095010847
0.19949675690569568
-0.5721558224504057
0.031270063856083136
0.23536730209231865
-0.6800798608052734
-0.12225707161797429
-0.02982668484587603
0.39110196710618655
-0.2906643395982602
-0.09880172530647817
-0.3774318916285553
0.0025275081018927416
0.2452509713049743
-0.23828076441550508
-0.07149195933475669
-0.1958020814888667
-0.6477710724389448
-0.1621280675372523
0.3363370649148794
0.15204567973431773
-0.1425640072804163
0.5123003834832154
0.5582453542197944
0.15495565358556357
0.3026957782407925
0.22994005675855858
0.2879996324542043
-0.21345111479913415
-0.23041067468888635
-0.49699156283232215
-0.4813573951180456
0.060812922965071625
-0.34557527590242215
0.055980757739231966
-0.5083126208782838
-0.275376427075681
0.3039667343305266
-0.10738805094813458
0.467907332886192
-0.1984107228260387
-0.05630596035193058
-0.018779878554566084
-0.6472984303446767
-0.30370289686962765
-0.20638258479640825
-0.42579227385717955
0.3806622164556062
-0.03009841897036886
0.3547309438085923
-0.07958210045810246
-0.4392578304820424
0.11286849022830837
-0.32504951620724487
0.41976437812426604
-0.13396816764802516
-0.3178510373983706
0.04864143692489112
0.5007293202932843
0.22151997507575638
0.19891786985533152
0.03773533751160344
-0.2067837351672199
0.6942397687510076
-0.42070631272561027
0.06193823124202063
0.3869444182187325
0.19939861648662768
-0.2604215006637605
0.025851797936026374
0.10892618801305666
-0.039944593137803366
-0.2730467375320144
-0.6159833333592392
0.14389635457163935
0.2190579196734445
0.0406857306389769
-0.16783605655404646
-0.0647033678264489
-0.3201125450193616
0.2954479692635199
0.5253951075512306
-0.2090361757819852
0.14222749996143816
-0.4395953904282362
0.010391756889111535
0.051008410042349024
0.2604676327865252
0.348430127548103
0.1546601762356412
0.2514251400453335
0.24265635697873816
-0.30094210045145037
-0.17178981651275604
-0.3215113506434516
0.2776929104622341
-0.02665896875550015
0.3550196344308855
0.0341983379278355
-0.10098716541955387
-0.6043793333859762
-0.20647220754012105
-0.3216533896165891
0.2067908646972384
0.40461204846172577
-0.11125186284122601
-0.07932258072094195
0.24490320371370558
0.24028199905452927
0.2686125037149677
-0.4428323808168488
0.05857318136546197
-0.5859269718296709
0.2022763892346765
-0.3850161671702825
0.15857036384861686
0.2507231832782939
0.3546084668945103
-0.19778357205461758
-0.14752270704685383
-0.4858075373112889
-0.08579968090896312
-0.055390899501303145
0.10644511104298206
0.007597701131476505
-0.0626083330615911
-0.06121864377395408
0.18316825842484794
0.18089090300380745
-0.4059404392273715
-0.07274031716176138
-0.39519071934248984
-0.08715343956723726
-0.008915195022874677
0.2521255002866979
0.2589095184791806
0.14618446381598793
-0.07951688165226783
-0.059471714329347676
0.04675925934487955
0.007486795010928523
-0.09532414955701465
0.5050378733917805
-0.36247524769669304
-0.1213223510276605
0.13291756833804175
-0.2567377354681865
-0.04776865224262329
-0.10136075018471476
0.0584342242229201
0.1912766320977423
0.11968029037338729
0.1773538342363163
-0.05267820955909653
0.23281376655946356
0.22306495518260802
-0.07012251746192823
-0.05508338665827379
0.9056022399980654
0.11306605990982645
0.11333134788663918
0.5710739211209876
0.15092081183732683
-0.11859004845888882
-0.09510166975088932
-0.16467148598315998
0.06810366517166935
-0.007846660764462792
-0.29214280958535
0.4930137163780904
-0.04323864555501736
0.00413400194495631
0.4053451422361865
0.0784148924219034
0.41720894438111145
0.2046631611646861
-0.06476194595003916
-0.6218430211987833
-0.15651544505104584
0.3861245099356671
0.14793102619853382
0.19996607568558047
0.059842138396280366
0.44646823063837465
-0.30529902413659826
-0.19447010430356348
-0.552798998918279
0.10819947192327034
-0.34006155590834614
0.014932699315567496
0.24580299280455986
0.2811339459686286
0.3632568084751109
0.11291171783634067
-0.272636091231106
-0.08253280355951452
0.49581134312928565
-0.015241920747417693
-0.21042811042734097
0.25731905069514355
-0.031230174681629534
0.38157000869197283
-0.03561373991111466
0.40603156475870283
-0.1908173034046629
-0.3093739475251008
0.37180451058657316
0.009447266272551044
-0.2103161183777579
-0.05877611301680275
-0.008126171067853493
-0.17651468643728896
-0.2791332067112119
-0.06143838661759545
-0.14065076083815645
0.12542536069906846
0.1481284075499857
0.46113519342604425
0.27770271702908905
-0.1300991551208326
-0.04554190098762351
-0.22441980098151645
0.182126647211249
-0.41167456193004726
0.07904877485621337
0.0034242523893007687
-0.15415384712003052
-0.015187035943327626
-0.2549377633053757
-0.10360500409766282
-0.03337816882205724
0.2906144793404389
0.22867593392320912
-0.4453974440316866
-0.2371652071864183
0.07464414286032213
-0.030921786556627737
0.3166863196469499
0.17876815807011545
-0.17544852116142273
-0.10648515018335218
-0.3593302719283123
0.24023539908341812
0.07638885805798663
0.24959912468862405
-0.003332061956776031
-0.14032964057218955
0.13637976968689475
0.1822229818806051
-0.4931680383083885
-0.09182338528031794
0.05726646427571207
0.06006287244062099
0.4757571612893918
0.32295284878486
0.37610390478303957
-0.2621071687353928
0.0633338498365903
0.14833027725546497
-0.5280414760728145
0.6103052781100763
-0.044819984518650505
-0.10121755089584632
0.016406193144971177
0.016322640176606208
-0.010692207161316143
0.017685717678733098
0.18649059700436182
0.10827253263904559
0.19511508533857763
-0.6217324692284856
0.3691285874192343
0.5132429436538714
0.0338387037361732
-0.3753825032830783
0.14733899769280234
0.26240016205009287
-0.1877883416847958
0.06149174159566481
0.4619609099090805
0.34120275232721087
-0.07473257057311117
-0.4152249256991804
-0.3100125398370089
-0.0799571092537193
0.4013029898310547
-0.3280991991653869
0.5165112786152891
0.017180805457852333
0.03933743401741016
0.12558891685475487
-0.31774754473825434
0.4644932405379933
-0.22660743276933903
-0.08639215974192996
-0.3328419791093659
0.1950373108092234
0.41266239594365106
-0.10869900732690793
-0.16756450752579644
0.12818994420830035
-0.1507495582948589
-0.18556313835834656
-0.3290083155349711
0.15171007700863343
0.12129604399162991
0.08725247050953837
-0.0479774594756598
-0.05450612707877932
0.6337220613085491
0.4511381935460847
-0.10227447941727975
-0.24142328547646247
0.1914356002737469
0.024431678614860994
-0.059351428853942845
-0.2982008522466193
0.10803513321322654
-0.22145243626478975
-0.2895078810051517
-0.2626052167815984
-0.2470135578707985
-0.37588058306023325
-0.09436582931405871
-0.04784795850667134
-0.009730302434558264
-0.02425227284728666
-0.33107476706989963
0.08872438123436963
0.1994985957172644
-0.5074786437556206
-0.22583842685741293
-0.13305867203417485
0.3563641974176456
-0.00946399293248403
-0.06886867060506259
0.1753186742753875
0.40310331224723744
0.23025785788755615
-0.0038050466746569786
-0.39966525357755994
0.040470281425335465
0.19978875211669644
-0.2470094745794613
0.08782523787822524
-0.10374383712407294
0.5623942812802873
0.19843319838314313
0.25027824618237654
0.13833939875098372
0.125320248601053
-0.5681651987595133
0.012944893343514688
-0.3067893732059393
-0.04956802013594526
0.3374617005599215
-0.21570057038181928
-0.09642497369767608
0.04297445709410991
-0.14905924965816844
0.3106503878983743
0.24620562608500937
0.07787089557196943
0.22824308453231404
-0.10820044935360404
0.21037977575973182
0.20848576225084603
0.14748729518859616
0.07891086160335857
-0.01146793560062061
0.15820859215736824
-0.06316628104660478
0.39055948512591726
-0.4251571682495974
0.06084519383962577
0.5568488850741254
-0.0504887374603102
-0.1263646323762454
0.07533796186628101
0.014414013236626673
-0.022532069554482854
-0.007371661332486943
-0.06370927596494638
0.30737038288239216
-0.38137346542143685
0.21898307142534712
-0.13967602192813858
0.306732544406145
-0.05613855406701369
-0.26412390953003595
0.21746739187937245
0.10431349529165143
-0.39482115237411947
-0.02992345223256923
0.37137300297129466
0.25491326684561694
-0.28988884259184694
0.4818742152681616
0.27812091061966016
-0.27645807702708586
-0.2453284893007387
-0.1126572550551914
0.3259264152015522
-0.49999762165176576
-0.1486445068694272
-0.23983567943918221
-0.09481324123359507
-0.44628554247843466
0.42828346568079834
-0.246903870461034
-0.15347469593605137
0.12552772731228365
0.3553231819884289
0.09696595092251205
0.04755855642881052
-0.001957901195484901
0.28827465848065825
-0.25561230514548156
-0.10800790936901977
-0.07336422026879429
0.013827795268933168
0.5849067921567317
-0.1284407787439924
-0.2053080237371091
0.30317935487891984
0.06840173433953269
-0.22197284243509424
0.08351547504875073
0.6101871748970706
0.5655545677334035
0.44820381214373894
-0.2803968018042822
0.20042707644934157
-0.17807337841371076
0.2972521928559107
0.2910347105224487
0.21315448994118275
-0.012325291102972357
-0.6195129969290788
0.07043044867772272
-0.2868623251521174
0.4462500661781091
0.4159407685950799
0.5356528199294498
0.11513974349507225
0.689693607556227
0.33921975206038824
-0.044403371984780844
0.08002685953507996
0.08346637613320179
0.06265843938476466
-0.2963376441149752
0.46657446577454753
0.10249350915727698
-0.10911431259384918
-0.416198553750906
0.009512535857718715
-0.3093770524535673
0.21563867967450323
0.0718852631105126
0.4733744565199006
0.23979261823612102
-0.1672952727451618
0.22781400691391132
0.32290997548931066
-0.04752315732846173
0.14038025638398843
-0.3151050123478415
-0.29229548378323633
-0.07733168788396033
-0.11584018527854265
-0.2209418895248753
-0.2120765282949686
-0.3342444944982086
0.1777492623043518
0.2988576819557147
-0.29156216702394633
-0.07956319479683564
-0.14792346747807125
-0.424805337692527
0.0478908808537993
0.26986431703349495
0.005263909376250155
-0.5403745402737289
-0.48994681938883006
-0.1861265781973685
0.3930893815995972
-0.07897892106073565
0.29752297019156726
0.1517660224599934
0.012825635300608545
0.37755365826592807
0.421128989057589
-0.36793537892643724
0.4650255169676965
0.3086910299570535
0.20889111123349371
0.4655644801978339
-0.11605607617652539
0.16338881127605492
-0.19140331991961887
0.17453545501234616
-0.040955612490328946
0.03209630307228377
0.27495820997710335
0.10546818482419054
-0.3614990420750138
0.07196469981868767
-0.030279804419976648
0.3376268978631399
-0.004821161026632732
0.050045092685550734
0.11379035672042952
0.15857923792609396
-0.3889677322077628
0.23384619847841123
0.22970001827379727
0.03773008296817711
0.3017084623929488
0.3742962207276581
-0.14674546011165662
0.155910827305578
-0.21116862427781116
-0.23658159901502263
-0.02294964277636286
0.1372125974053257
-0.5096907564985173
-0.2764645266704774
0.4170642783128906
-0.5937112016814564
0.41984469117572076
0.35988844456437075
0.335204148250988
-0.10616984696850003
-0.23893357833440532
-0.2134369801720995
-0.31137211063606796
0.6264934708056351
-0.048705123763175054
-0.020393812161239387
-0.33011483984418866
0.5841184519130231
-0.2016841998431204
-0.19826746428766956
-0.32649868843561747
-0.11778229452634234
-0.43961563042811064
0.6688688258369053
0.20884501706449946
-0.2183418330419399
0.233504101855176
0.054784665744933195
-0.23225004656936984
0.22359346373840427
-0.09938425690772955
0.10833498338754291
0.2652966165797282
0.26834465251067685
0.05412273804027609
-0.21586377898921977
0.4623167583674985
-0.002776033375582148
-0.23048516658341145
-0.4977089883439745
-0.10819605634885791
0.2072136706968852
-0.3004106933883342
-0.04859948102009387
-0.11593106907036686
0.09895948104007506
-0.17354748053306412
0.18700997882088663
0.1858324508161759
0.14634228374718447
0.6564914827855752
0.3600793081527647
-0.0237132418441167
-0.23482107684346976
-0.13083042165847347
0.2428725418675517
0.2785583275101152
-0.489334352077157
0.1355568030170584
0.03498731591467354
0.18908254701946797
0.26826627874354714
0.16748164615715988
0.35555752533305524
0.037181327854921016
-0.16242596286712235
0.12368770757732937
-0.42329555701641264
-0.13784764242945274
-0.2865037209849006
-0.18715387952610954
0.04929898182790572
-0.14449348549304986
0.0017741709492891215
0.15648376221754715
-0.45267693324969366
0.022500295738536784
0.1807252834291531
0.27448954328117164
-0.45576480859254115
0.011484256217094306
-0.08326952034819649
0.1594575628492158
-0.009525932396250322
-0.19263801282365073
-0.2826047630410426
0.3097380244830619
-0.4360494723845754
0.22618896456521106
0.37728741926022175
-0.07986680511046643
0.15919828730522348
0.010461222934264781
0.13045540755737375
0.3117174972924532
-0.14542463865015867
-0.3367044869778135
0.07393671231254789
0.4903143931460132
0.3396517699110707
0.06417296253634214
-0.7071764600405458
-0.2170023446264959
0.40591184303363853
0.27160275138204437
0.14314516268348784
-0.09830058351020687
-0.23604129084021302
-0.03835071305408327
-0.012460003151540439
-0.05643456611526568
0.15417745390121154
0.036693088686449805
-0.5871379013952678
-0.518001981154499
-0.022627171816366514
0.22236270205229075
0.2811038224159318
0.08952922489049069
0.33939254466214114
-0.008556064005171954
0.2120486658628587
0.13087978539383363
0.01332828101877503
0.3171421603908433
0.14487631739242024
0.28073387442984293
0.5197671369456268
-0.17090415609428802
-0.2005482984038747
-0.31864415793512585
0.27565187973076977
-0.1774615388190165
0.27279515560108364
-0.13075710381247344
-0.0505909962016451
0.11155992714203278
0.010143977412451766
0.5314547563316895
-0.1061368174604261
-0.07889256000108251
-0.04828648237455406
-0.5404858421709731
0.1435847548474604
-0.2124638644567387
-0.3769784343051785
-0.16840011750703646
0.01841538423736495
0.7353961899344853
0.24057225254735923
-0.15823368329581838
0.42661599956197865
0.20895241365736053
0.10873304595376253
0.19801283371882353
-0.15507819500696915
0.207920316177577
0.1093095585850308
0.5042644799783064
-0.08094938970478084
-0.0607481114004163
0.5039656215275112
0.24509969483412034
0.1787636505745843
-0.07030905000377717
0.2102506458871177
-0.2324430787845865
-0.3934311059578596
0.027949139319900174
0.350358675017749
0.1833021906403074
-0.04867230082449542
-0.5246521274736388
0.022172901324196886
0.17175664956588996
0.5522945307234937
0.4792100966863508
0.1135481226020274
0.28319975736341463
-0.030749493204530434
-0.06556548806983788
0.196659332941284
0.1804373762299235
0.20565315652135036
-0.5277622049011578
-0.22971482724550546
0.015879637186099103
-0.5195575479790455
-0.19984703054725336
-0.07078629228998468
0.5101138876391152
0.14402550132065078
-0.1333821410363023
0.225800865939572
-0.22641084638297837
-0.1824085780653251
0.23830778416475637
0.08146977886857894
-0.20734465909723965
-0.1695724362251728
0.16577552680578075
-0.12568592231666628
0.2970220374999843
-0.23491633199848125
-0.5321698798910357
-0.3225560014229557
0.027905036618592113
0.5117121040082818
-0.46914606618467014
-0.13761208126705224
-0.24468443448849989
-0.048272467648980064
-0.19129036225005905
-0.29441652345320096
-0.360340917434351
0.36837414481019626
-0.20677059549367716
-0.5199379899053199
-0.6080777517486476
-0.1614618603014343
0.28517612496715156
-0.34187317586223076
0.14401842241046833
0.17330011513716712
0.02871691928626944
0.7536513708638677
0.031455656300291894
0.3453222609567419
0.2057642567373653
0.00710094268006685
0.2880671242587154
-0.05357915976139115
0.23991025737321456
-0.1742258057457734
0.23558990840307578
0.24244665690291203
0.0687466415808604
-0.29562748412354856
-0.1222107729797358
-0.09375678077962367
0.704947069696462
0.1371418067999731
0.27150255173531124
-0.22671289423405483
-0.12989341436595983
0.3426782659386199
-0.027274733604749555
-0.14095180194449816
-0.04429355211850946
0.2506559796760586
-0.30203745793169645
0.651408875057895
-0.4889175520399423
0.29828725438479403
0.1991804420287173
-0.006755697858636318
0.020488129755528398
-0.026120027829521587
0.13229465665487078
0.2715870753966065
-0.10109729581296907
-0.3148333031029083
-0.0780367400857461
0.046717319352534765
0.3372599267697343
-0.05302649540659013
0.24034526046409566
0.5354211716856335
-0.27277261592052715
-0.18135037362409415
-0.14478301171932728
-0.4152662754457547
0.12248528031108294
-0.26002542533193634
-0.26335680313565685
-0.16160768721815805
0.10382436498135264
0.016872399912779137
-0.01410700779400949
-0.11386874072661762
-0.18308735699076212
0.06388427136922356
-0.004994756517640508
0.24011590271777244
0.12657600400527083
0.1408268100515724
0.21131768377572074
-0.6138166162275781
0.2851988161239204
-0.24146858110187
0.2382407659727521
-0.24880253699432184
-0.1839762072866515
0.12182701713707662
0.1762060829295894
-0.08664707347989084
-0.17507353656547286
0.42292892171258095
0.18052578970608438
0.46461614066479284
0.15792799684277217
-0.09024537829427688
-0.005565812536071039
-0.5016802764341767
-0.43656897366387765
-0.6462112888107616
-0.03625433650624025
-0.5259739202904845
-0.175704849044224
-0.1148871784935954
-0.13811783171758643
0.13460610901974773
-0.17955340127280714
0.21846038968662485
-0.1067483472658227
-0.03583044681846334
0.29123377051482324
0.16566766547284958
-0.4770755429482327
0.060882812062028446
-0.1951928150839034
-0.135300308662403
-0.10634920206845641
0.30960165678465723
-0.7160169400446165
0.03302082010627368
0.08036546041812696
-0.08997254011688961
0.2031268448240354
-0.2565542357448173
0.18631493424075224
0.07366094878880526
0.6182534827719761
-0.0717125620520054
-0.2771331494603828
0.2611958663630829
-0.18892895384585678
0.07124455936495325
-0.1853767915376985
-0.21114217567201057
-0.37207382603247957
0.021484842465080804
-0.08004634973430365
0.10059998604056479
0.09549840573278313
-0.4079638262355802
0.5084051461933599
-0.46835331655417656
0.18067470169846894
0.6271514390223463
-0.08021111929021525
-0.3512382540034458
0.3532811495157539
-0.1418691673149777
0.11391471921651532
-0.3880286264386162
0.16820260923417008
0.12776255175791837
-0.1364943567510955
-0.2837773798677908
0.00840880162832612
-0.07945743549132159
-0.11598761091350007
-0.3036734770081083
-0.24349841125212465
0.05432908135390924
0.060101721729114474
0.1643645484760578
0.16853381742980122
0.09269591421908793
0.445844259237842
0.27706928663782093
0.1490484365055998
-0.29729055340379823
0.4083953935617268
0.079751730105444
-0.010209154887711989
0.35213879939859977
-0.19930868353688233
0.05916454328247818
-0.6387892138856435
-0.10700213227974777
-0.11118411449067461
0.37534415637804813
0.11437173061651053
0.35193511604131394
-0.5045422063905176
-0.3826624817525371
0.19839997057720793
0.06977808201279707
-0.19520185033454068
0.05300084270758928
0.00043346564661681425
0.2394686567124072
0.02041317966315121
-0.3462473579637628
0.367883855461645
0.11030327872495006
0.029833436850913796
-0.1123839314008729
-0.4197057889101457
0.07352752677207937
-0.25025274076420806
0.09367039647484529
-0.03310586199667142
-0.314434970087309
-0.051942353402775615
0.350262264847968
-0.14215703321626644
-0.035150303389810095
-0.06302074167365848
0.40809022331263983
-0.21965661940194628
0.007650205375821971
0.07251942485134376
0.441058355756073
-0.3871212589486321
0.010723215428921518
0.1850089681253207
0.04761993383954481
-0.0650419409376199
-0.09599048546585512
-0.4717771903802586
-0.05627754615482007
0.03756675898037739
0.10507149741085717
0.1742532132475055
0.2205869840384552
-0.07321269433298888
0.14612773820151356
0.43302186393523345
0.39011775134939997
0.2876039280599688
-0.5515580470467619
-0.017195107865381778
0.02485258266998561
0.232336266629053
0.6293663554200574
-0.4487415459670043
0.15920774510692426
0.3937282351848454
0.6584789415322265
-0.3106630585414053
-0.2960952361072775
-0.0419044283653856
-0.021811346018431113
0.32121548259111116
-0.009582893750895133
0.29415999496210093
0.2765387976700037
-0.1941644331613282
0.1841100483229441
0.021000997775473214
0.2546807837688265
0.2250209038974625
0.08357159414807293
-0.05049850732273818
-0.38548491153931663
-0.5278733277266807
0.202250342607476
0.15470188730495213
0.03769493190904366
0.1725425189425181
-0.09983052626516221
0.053236235371438886
-0.35746781570490793
-0.28330265245266867
-0.2866259374387452
0.43494061190559397
-0.00989152751461571
-0.16099692055644535
-0.01614536868850118
0.06396364298386648
0.40004115426886905
-0.6166244055348132
-0.16633777356868362
0.20275448029452256
-0.4399301107462503
0.20602569697960746
-0.16920359539143645
-0.04103027867935202
0.12460967899894607
0.2201052334581735
0.33161659472378774
-0.11713373018705453
-0.33497444479951755
-0.016987722521449537
-0.03874083355505749
-0.45045402912844545
-0.02516809637447726
0.2830761145234689
-0.21092065540790128
-0.013133575733218604
-0.3884360541749952
-0.1389614823507531
-0.25446343626569623
-0.12562746893628596
0.20024779595286016
-0.18327331777981692
0.061121509615572105
-0.1828292123768688
-0.07970238032712601
0.04129512002307455
0.013854645662765997
0.39061280754435246
-0.05144001795794262
-0.06629892782953853
-0.7328379975572938
-0.0638260478442596
